~o
<STREAMINFO> 1 39
<VECSIZE> 39<NULLD><MFCC_E_D_A><DIAGC>
~s "silst"
<NUMMIXES> 3
<MIXTURE> 1 2.908910e-001
<MEAN> 39
 -1.250594e+001 -4.240095e+000 -3.903401e+000 -1.615947e+001 -3.838474e+000 -1.187762e+001 -4.972319e+000 -5.744898e+000 -1.701900e+000 -4.334255e+000 -1.028928e+000 -5.941729e+000 1.412783e+001 -8.316442e-002 -5.061876e-003 -8.876243e-002 -1.439232e-001 -7.749663e-002 3.476982e-003 2.231110e-002 1.686523e-003 -2.608603e-002 3.900942e-002 3.161517e-002 4.224181e-002 5.002490e-002 1.092680e-001 7.054349e-002 4.358627e-002 5.502488e-002 2.985838e-002 1.045397e-002 5.100396e-002 -2.059559e-003 9.386255e-003 -1.484459e-002 -1.679278e-002 -3.554188e-002 4.202460e-002
<VARIANCE> 39
 1.065678e+001 1.009877e+001 1.184151e+001 2.374158e+001 1.851466e+001 2.018017e+001 1.842821e+001 1.938045e+001 1.822010e+001 2.160142e+001 1.895376e+001 1.701833e+001 7.337698e+000 2.157512e-001 3.631063e-001 4.937054e-001 6.365031e-001 7.403284e-001 7.110403e-001 7.959511e-001 9.075680e-001 8.331162e-001 8.445236e-001 7.618611e-001 6.844837e-001 3.016319e-002 5.900921e-002 7.507064e-002 1.052700e-001 1.299429e-001 1.395338e-001 1.376714e-001 1.517160e-001 1.579387e-001 1.503298e-001 1.533846e-001 1.464027e-001 1.295087e-001 9.899698e-003
<GCONST> 6.862044e+001
<MIXTURE> 2 3.702975e-001
<MEAN> 39
 -1.279014e+001 -4.770356e+000 -4.576296e+000 -1.743601e+001 -3.455429e+000 -1.288503e+001 -4.939950e+000 -6.051169e+000 -1.346548e+000 -4.237532e+000 -6.760737e-001 -6.358685e+000 1.464243e+001 3.090463e-002 4.058862e-002 4.692621e-002 1.012342e-001 8.360294e-002 1.010170e-001 9.568890e-002 1.284039e-001 1.172578e-001 1.032862e-001 8.937186e-002 7.991151e-002 -1.121114e-002 1.833763e-002 2.802400e-002 3.428861e-002 3.151575e-002 3.285983e-002 4.054902e-002 3.909769e-002 3.875038e-002 2.725763e-002 2.976466e-002 2.622062e-002 2.240219e-002 7.206736e-003
<VARIANCE> 39
 2.649746e+000 4.255324e+000 5.470843e+000 8.465588e+000 1.119269e+001 1.210049e+001 1.424509e+001 1.577986e+001 1.520045e+001 1.617671e+001 1.569161e+001 1.270754e+001 2.449121e+000 6.876243e-002 1.405499e-001 2.501503e-001 3.691029e-001 4.725934e-001 5.540438e-001 6.304113e-001 6.073510e-001 6.695024e-001 6.886365e-001 7.067426e-001 5.732671e-001 6.071715e-003 1.106510e-002 2.436354e-002 4.381962e-002 6.626184e-002 8.721098e-002 9.614466e-002 1.158688e-001 1.133449e-001 1.219111e-001 1.270514e-001 1.247096e-001 9.827951e-002 8.407516e-004
<GCONST> 4.502636e+001
<MIXTURE> 3 3.387933e-001
<MEAN> 39
 -1.293473e+001 -4.962582e+000 -4.844116e+000 -1.797856e+001 -3.981018e+000 -1.352746e+001 -5.543879e+000 -6.559065e+000 -2.002477e+000 -4.834056e+000 -1.269731e+000 -6.859119e+000 1.434805e+001 -3.871915e-002 -8.075855e-002 -9.738309e-002 -3.130906e-002 -1.154902e-001 -1.155624e-001 -1.426023e-001 -1.292715e-001 -1.070748e-001 -1.595815e-001 -1.217162e-001 -1.047221e-001 -2.696228e-002 -2.618716e-003 -8.208064e-003 5.632123e-003 4.908385e-003 -8.617883e-003 4.812747e-003 -2.900141e-002 -2.004036e-002 -2.991205e-002 -2.496831e-002 -3.000289e-002 -1.076296e-002 2.894200e-005
<VARIANCE> 39
 2.780581e+000 4.151795e+000 5.634507e+000 8.544455e+000 1.132168e+001 1.200181e+001 1.487009e+001 1.567449e+001 1.499440e+001 1.660211e+001 1.602178e+001 1.315012e+001 2.465665e+000 6.977761e-002 1.361867e-001 2.390466e-001 3.940101e-001 4.851347e-001 5.562506e-001 6.365792e-001 6.077037e-001 6.652921e-001 7.511128e-001 7.028866e-001 5.972170e-001 5.954748e-003 1.062523e-002 2.350217e-002 4.526915e-002 6.428468e-002 9.085693e-002 9.376717e-002 1.174133e-001 1.063092e-001 1.213465e-001 1.251412e-001 1.240244e-001 1.050477e-001 7.651719e-004
<GCONST> 4.518019e+001
~h "four"
<BEGINHMM>
<NUMSTATES> 10
<STATE> 2
<NUMMIXES> 3
<MIXTURE> 1 2.419081e-001
<MEAN> 39
 -1.361573e+001 -7.045198e+000 -4.120677e+000 -1.275220e+001 -3.786370e+000 -1.184506e+001 -3.619439e+000 -5.209148e+000 -2.181540e-001 -3.565146e+000 1.412592e-001 -4.705728e+000 1.342361e+001 2.227278e+000 7.092513e-001 -5.801687e-001 1.606534e-002 8.305660e-001 7.503613e-001 1.442104e-001 1.082915e-001 3.772119e-001 5.713054e-001 4.510227e-001 7.983460e-002 6.310874e-001 8.264889e-001 4.018018e-001 -4.906678e-001 -3.950309e-001 1.902714e-001 3.054339e-001 -7.224523e-002 -1.058252e-001 -1.793135e-001 1.117136e-001 1.889969e-001 -5.331177e-002 2.438233e-001
<VARIANCE> 39
 5.603872e+000 7.677959e+000 7.054261e+000 2.823573e+001 1.199237e+001 1.727953e+001 1.534015e+001 1.376627e+001 1.796812e+001 1.694989e+001 1.523623e+001 1.131198e+001 2.721527e+000 1.513950e+000 4.151450e-001 8.937077e-001 9.091231e-001 5.418271e-001 6.584221e-001 7.689627e-001 8.104991e-001 7.283211e-001 6.365132e-001 7.331399e-001 7.321561e-001 1.182646e-001 1.010558e-001 1.044895e-001 1.203318e-001 1.514842e-001 1.345775e-001 1.604313e-001 1.648455e-001 1.565399e-001 1.700000e-001 1.599541e-001 1.452818e-001 1.277949e-001 7.550211e-003
<GCONST> 6.906232e+001
<MIXTURE> 2 4.921221e-001
<MEAN> 39
 -1.652725e+001 -6.773605e+000 -2.648227e+000 -9.548779e+000 -4.971260e+000 -9.403422e+000 -1.206024e+000 -5.846107e+000 -1.463936e+000 -5.207418e+000 5.123295e-001 -3.810240e+000 1.149887e+001 8.732463e-001 -2.316259e-001 -2.636622e-001 6.231164e-002 3.466638e-001 -2.055466e-001 -1.144332e-001 -1.126564e-001 -5.191967e-002 -2.259933e-001 -4.364512e-001 -2.914501e-001 4.888776e-001 7.297056e-001 1.251433e-001 -2.815053e-001 -2.539723e-002 1.814317e-001 6.704144e-004 -1.298335e-001 1.786544e-002 1.768238e-002 8.913592e-003 -1.911900e-001 -1.677867e-001 1.596332e-001
<VARIANCE> 39
 1.364902e+001 9.177541e+000 9.050851e+000 1.981948e+001 1.243059e+001 1.398888e+001 1.655648e+001 1.814824e+001 1.838888e+001 1.441334e+001 1.882959e+001 1.548198e+001 4.955792e+000 2.238677e+000 4.718434e-001 6.840100e-001 4.768536e-001 6.614125e-001 6.391460e-001 5.466127e-001 8.646001e-001 8.484569e-001 7.706147e-001 9.760455e-001 5.677026e-001 2.416999e-001 2.431073e-001 9.346928e-002 1.836112e-001 9.233324e-002 1.309449e-001 1.425913e-001 1.255805e-001 2.004070e-001 1.683176e-001 1.415868e-001 1.999711e-001 1.330442e-001 2.462355e-002
<GCONST> 7.371300e+001
<MIXTURE> 3 2.659698e-001
<MEAN> 39
 -1.371051e+001 -6.750650e+000 -4.515172e+000 -1.421801e+001 -4.418073e+000 -1.256130e+001 -4.213613e+000 -5.828361e+000 -1.415356e+000 -4.812306e+000 -7.994992e-001 -5.568961e+000 1.371862e+001 2.040865e+000 6.405876e-001 -6.524862e-001 -2.080127e-001 6.324836e-001 5.119454e-001 -3.123576e-001 -3.091228e-001 -5.511238e-002 2.047639e-001 1.062969e-001 -1.359465e-001 6.107624e-001 7.214065e-001 3.263900e-001 -4.549118e-001 -4.188890e-001 1.337430e-001 1.914827e-001 -1.580611e-001 -1.379361e-001 -1.641996e-001 6.760642e-002 3.280993e-002 -1.777785e-001 2.198272e-001
<VARIANCE> 39
 4.817324e+000 7.783502e+000 6.760371e+000 2.122699e+001 1.154779e+001 1.241459e+001 1.490465e+001 1.281674e+001 1.527968e+001 1.672568e+001 1.477877e+001 1.272072e+001 2.910825e+000 1.488584e+000 4.479269e-001 7.047964e-001 8.757678e-001 6.410793e-001 7.162494e-001 6.932393e-001 6.783107e-001 7.086648e-001 7.004700e-001 7.414823e-001 9.251386e-001 1.195633e-001 9.568074e-002 7.160329e-002 1.067881e-001 1.070222e-001 1.446477e-001 1.341792e-001 1.753952e-001 1.426993e-001 1.511531e-001 1.800639e-001 1.819576e-001 1.439931e-001 5.640717e-003
<GCONST> 6.720368e+001
<STATE> 3
<NUMMIXES> 3
<MIXTURE> 1 2.389506e-001
<MEAN> 39
 -7.538741e+000 -3.383223e+000 -3.245707e+000 -1.293264e+001 -3.401435e-001 -8.332350e+000 -2.772210e+000 -4.915491e+000 -3.190430e-001 -3.814063e+000 -4.021001e-001 -5.845915e+000 1.553496e+001 3.363084e+000 1.171858e+000 -1.802473e+000 -9.501105e-001 1.070214e+000 1.138529e+000 9.298211e-002 -1.977021e-001 -3.388830e-002 8.375885e-001 8.141951e-001 8.489860e-002 1.016363e+000 7.533998e-002 5.236382e-002 -3.909020e-001 -2.938255e-001 -3.559385e-002 4.680387e-002 6.670446e-002 -1.713360e-002 -1.005784e-001 1.559709e-001 2.366191e-001 1.374789e-001 4.929670e-002
<VARIANCE> 39
 1.889922e+001 1.358742e+001 9.224753e+000 2.844396e+001 8.563375e+000 1.016324e+001 1.397044e+001 1.442901e+001 1.545064e+001 1.179347e+001 1.579708e+001 1.431892e+001 4.025111e+000 1.835980e+000 6.048231e-001 7.764532e-001 8.223611e-001 9.083095e-001 7.789732e-001 7.084410e-001 1.038303e+000 9.550274e-001 8.863514e-001 1.126117e+000 1.029800e+000 1.235241e-001 6.627637e-002 6.044013e-002 8.489936e-002 1.083033e-001 1.007029e-001 8.582433e-002 1.319400e-001 1.004522e-001 1.281201e-001 1.661988e-001 1.635891e-001 1.680396e-001 7.086553e-003
<GCONST> 6.980367e+001
<MIXTURE> 2 4.495848e-001
<MEAN> 39
 -2.349959e+000 -4.532556e+000 -6.582334e+000 -1.079836e+001 -1.667057e+000 -9.182515e+000 -3.009381e+000 -6.032696e+000 -2.147029e+000 -4.955821e+000 -1.317769e+000 -5.383890e+000 1.560747e+001 4.194378e+000 7.790955e-001 -2.622562e+000 -1.190434e+000 5.983505e-001 1.153606e-001 -7.732481e-001 -1.628638e-001 -3.694560e-001 -1.472724e-001 -6.886796e-001 -8.827945e-001 1.286926e+000 -1.908509e-001 6.761732e-002 -3.193168e-001 -2.598699e-001 -1.458537e-001 3.164160e-002 -3.196077e-002 2.215091e-002 3.230896e-002 8.554606e-003 -2.569445e-002 -9.272949e-002 -3.451834e-002
<VARIANCE> 39
 5.175859e+001 1.615913e+001 2.191779e+001 2.278201e+001 1.673588e+001 3.034292e+001 1.936929e+001 2.049133e+001 2.267365e+001 2.249571e+001 2.738134e+001 1.408089e+001 5.273304e+000 1.304253e+000 1.858378e+000 1.091844e+000 2.176445e+000 1.994083e+000 2.263370e+000 1.825937e+000 1.832263e+000 2.175088e+000 1.946051e+000 3.050937e+000 1.545271e+000 1.211105e-001 2.744898e-001 8.108115e-002 1.171102e-001 1.141164e-001 1.461880e-001 2.290838e-001 1.335785e-001 1.896814e-001 2.607018e-001 2.887770e-001 1.853634e-001 1.510839e-001 2.165894e-002
<GCONST> 9.084677e+001
<MIXTURE> 3 3.114639e-001
<MEAN> 39
 -7.291380e+000 -2.847701e+000 -3.765414e+000 -1.460545e+001 -8.268796e-001 -9.761432e+000 -3.608131e+000 -5.750023e+000 -9.018342e-001 -3.868460e+000 -3.391517e-001 -5.464515e+000 1.612198e+001 2.846021e+000 1.104207e+000 -1.547330e+000 -1.344050e+000 5.926711e-001 7.556739e-001 -2.912531e-001 -6.483251e-001 -4.903986e-001 3.172003e-001 3.093868e-001 -4.675958e-001 9.056941e-001 4.586963e-002 3.814219e-002 -3.373085e-001 -3.685541e-001 -1.864139e-001 -7.223903e-002 -4.753957e-002 -1.034681e-001 -2.357646e-001 -5.022394e-002 4.784605e-003 -4.777041e-002 4.313433e-002
<VARIANCE> 39
 1.669555e+001 1.020923e+001 9.697684e+000 3.226299e+001 9.233295e+000 1.134134e+001 1.306375e+001 1.566437e+001 1.504004e+001 1.281807e+001 1.525051e+001 1.665393e+001 3.814463e+000 1.384687e+000 5.152332e-001 8.769923e-001 7.149786e-001 1.086640e+000 5.742139e-001 6.716753e-001 9.506303e-001 9.141275e-001 1.165110e+000 1.003764e+000 1.182961e+000 1.114601e-001 7.029492e-002 5.707699e-002 8.549647e-002 1.326029e-001 9.021442e-002 1.046509e-001 1.271416e-001 1.097523e-001 1.549989e-001 1.641545e-001 1.404043e-001 1.448533e-001 7.437531e-003
<GCONST> 6.958708e+001
<STATE> 4
<NUMMIXES> 3
<MIXTURE> 1 2.746355e-001
<MEAN> 39
 3.501593e+000 -4.409022e+000 -1.548077e+001 -1.444738e+001 4.016504e+000 -8.608752e+000 -4.053424e+000 -5.225883e+000 1.411889e+000 -6.204385e-001 -2.346732e+000 -8.118837e+000 1.870754e+001 1.240645e+000 5.338182e-001 -1.335742e+000 -5.867822e-001 7.111380e-001 1.033340e+000 3.824283e-001 -3.786756e-002 3.692739e-001 1.096252e+000 7.825267e-001 3.697198e-001 4.168481e-001 -6.283751e-001 -1.499617e-002 4.942179e-001 -1.773448e-002 -3.769693e-001 3.116401e-002 1.597251e-001 -2.136961e-002 -2.256944e-001 -1.810365e-001 2.120940e-001 2.735238e-001 -1.977003e-001
<VARIANCE> 39
 2.608373e+001 1.248237e+001 1.729021e+001 2.675753e+001 1.359916e+001 1.638987e+001 1.756150e+001 2.626477e+001 1.778158e+001 2.667809e+001 4.188374e+001 3.445034e+001 1.652808e+000 1.528749e+000 4.725873e-001 1.221893e+000 6.532827e-001 9.388100e-001 8.057053e-001 8.127189e-001 1.256532e+000 1.073025e+000 7.701858e-001 1.139694e+000 1.400703e+000 1.562905e-001 1.596465e-001 9.307060e-002 1.089208e-001 1.258174e-001 8.411102e-002 1.595912e-001 1.280408e-001 2.058734e-001 1.291433e-001 1.811016e-001 2.200335e-001 2.056630e-001 1.184389e-002
<GCONST> 7.895886e+001
<MIXTURE> 2 4.597302e-001
<MEAN> 39
 3.928086e+000 5.680580e-001 -1.389913e+001 -2.096091e+001 -2.690359e+000 -7.660777e+000 -5.924509e+000 -9.018896e+000 -5.019610e+000 -4.343868e+000 2.113533e+000 -6.242711e+000 1.853856e+001 1.754472e+000 8.675911e-001 -1.533032e+000 -1.547624e+000 -3.974939e-001 1.978408e-001 -1.961896e-001 -3.439831e-001 -8.081293e-001 -4.197973e-001 2.375239e-002 -1.925813e-001 6.232052e-001 -8.228185e-001 -3.875584e-001 4.611559e-001 4.278162e-001 -8.624619e-002 -1.491842e-001 1.372285e-001 2.230386e-001 2.599635e-001 -6.724166e-003 -1.857563e-001 9.995449e-002 -2.412717e-001
<VARIANCE> 39
 2.582598e+001 1.091669e+001 2.058435e+001 1.468868e+001 2.381843e+001 2.596182e+001 2.350511e+001 1.879190e+001 2.237114e+001 2.913548e+001 4.118708e+001 2.489233e+001 1.149060e+000 1.730030e+000 7.198259e-001 1.185786e+000 1.009371e+000 1.212083e+000 1.082132e+000 1.276413e+000 8.144503e-001 1.156961e+000 1.483845e+000 1.609153e+000 1.265817e+000 1.479803e-001 1.236155e-001 1.225447e-001 1.293389e-001 1.338813e-001 1.335878e-001 1.545134e-001 1.988370e-001 1.409044e-001 1.676499e-001 2.360224e-001 2.176094e-001 1.706522e-001 7.438450e-003
<GCONST> 8.202460e+001
<MIXTURE> 3 2.656344e-001
<MEAN> 39
 1.917123e+000 -4.907308e+000 -1.553328e+001 -1.538454e+001 2.760659e+000 -1.017981e+001 -5.541804e+000 -4.845074e+000 5.317353e-001 -2.204787e+000 -4.632184e+000 -1.073518e+001 1.886106e+001 1.066198e+000 3.694330e-001 -1.288164e+000 -7.694159e-001 4.866050e-001 7.557546e-001 -3.652256e-002 -2.808050e-001 2.544802e-002 6.826667e-001 1.978256e-001 -3.251757e-001 4.212885e-001 -5.586668e-001 3.190935e-002 4.833199e-001 -4.035142e-002 -3.772886e-001 4.081923e-002 2.046073e-001 -1.206920e-001 -2.817124e-001 -1.894709e-001 2.593854e-001 3.056247e-001 -1.935700e-001
<VARIANCE> 39
 1.937916e+001 1.318936e+001 1.993280e+001 2.280330e+001 1.432053e+001 1.913282e+001 2.027845e+001 2.392001e+001 1.823506e+001 3.044336e+001 4.673829e+001 3.417618e+001 1.432383e+000 1.092936e+000 5.188739e-001 1.092495e+000 5.933761e-001 8.807567e-001 8.288580e-001 1.091848e+000 1.681198e+000 1.041626e+000 1.094342e+000 1.441451e+000 1.402325e+000 1.468620e-001 1.405775e-001 9.973032e-002 1.127272e-001 1.275807e-001 8.670281e-002 1.879674e-001 1.610287e-001 2.368953e-001 1.402630e-001 2.313928e-001 2.238608e-001 1.776416e-001 1.241476e-002
<GCONST> 8.046697e+001
<STATE> 5
<NUMMIXES> 3
<MIXTURE> 1 2.550685e-001
<MEAN> 39
 3.740880e+000 3.727006e-001 -1.511890e+001 -1.964206e+001 -2.574880e-001 -6.326221e+000 -1.294207e+000 -7.205942e+000 -2.494075e+000 -1.945472e+000 1.757736e+000 -4.296850e+000 1.899075e+001 -8.434330e-003 6.621088e-002 7.268517e-002 -1.310621e-001 -5.483048e-002 2.043208e-001 1.805122e-001 1.123239e-001 -1.684951e-001 6.016912e-002 1.685209e-001 2.751533e-001 -2.607608e-002 -5.147280e-002 -1.895285e-001 3.741911e-002 1.357849e-001 1.593234e-001 -7.485978e-002 -1.585298e-001 7.064801e-002 1.485640e-001 5.587255e-002 -7.369355e-002 -1.040617e-001 -8.149117e-003
<VARIANCE> 39
 2.776324e+001 9.403408e+000 2.841682e+001 3.241863e+001 2.955014e+001 1.790385e+001 1.544926e+001 1.351893e+001 2.402745e+001 2.732579e+001 3.454964e+001 3.322258e+001 1.586465e+000 8.917066e-002 3.736084e-001 2.585849e-001 3.832422e-001 5.252634e-001 3.821636e-001 4.782308e-001 4.948651e-001 5.275074e-001 5.670276e-001 8.558743e-001 8.354667e-001 4.797275e-003 1.114348e-002 3.410820e-002 4.644352e-002 4.103049e-002 7.173945e-002 7.125668e-002 7.539573e-002 8.202895e-002 7.182280e-002 1.161877e-001 1.391734e-001 1.110922e-001 9.147063e-004
<GCONST> 5.357993e+001
<MIXTURE> 2 4.668896e-001
<MEAN> 39
 8.729964e-001 2.696359e-001 -1.231837e+001 -2.271567e+001 -2.680421e+000 -7.084656e+000 -4.459422e+000 -7.694940e+000 -4.682117e+000 -3.523549e+000 2.466012e+000 -5.423053e+000 1.895223e+001 -4.518152e-002 -7.134784e-001 -1.327726e-001 4.520936e-001 4.194148e-001 1.400220e-001 -6.427124e-001 1.099341e-001 8.415853e-001 4.622008e-001 -7.045449e-002 -4.702487e-001 3.815699e-002 -1.097710e-001 -2.998421e-001 1.140884e-001 4.011956e-001 7.591986e-002 -1.419972e-001 -1.502430e-001 1.308000e-001 3.853917e-001 1.046364e-002 -2.698170e-001 -1.666689e-001 -3.794358e-002
<VARIANCE> 39
 2.636445e+001 1.020707e+001 2.339142e+001 1.548311e+001 2.335755e+001 2.223751e+001 2.100373e+001 1.792192e+001 2.429820e+001 2.848550e+001 3.443760e+001 2.951205e+001 1.327105e+000 1.752097e-001 6.967737e-001 5.885167e-001 6.693621e-001 9.834079e-001 8.422917e-001 1.207080e+000 1.054184e+000 1.357556e+000 1.436910e+000 1.143856e+000 1.203248e+000 1.212672e-002 4.040778e-002 4.902556e-002 9.982820e-002 8.921100e-002 1.185758e-001 1.550740e-001 1.606169e-001 1.831238e-001 1.857609e-001 2.817369e-001 2.177284e-001 1.877338e-001 4.031738e-003
<GCONST> 7.255936e+001
<MIXTURE> 3 2.780401e-001
<MEAN> 39
 2.274022e+000 2.234911e-002 -1.409460e+001 -2.074155e+001 -1.029202e+000 -7.307558e+000 -2.446316e+000 -7.786614e+000 -3.300353e+000 -3.423364e+000 -4.416259e-001 -6.906325e+000 1.885363e+001 -6.107345e-002 5.005776e-002 1.122957e-001 -1.643559e-001 -1.249801e-001 1.227288e-001 4.852999e-002 2.201414e-003 -2.291806e-001 -1.191543e-001 -5.902259e-002 1.947516e-002 -3.208700e-002 -7.096515e-002 -1.862886e-001 4.179870e-002 1.320208e-001 1.181270e-001 -6.713320e-002 -1.798288e-001 6.463351e-002 1.148595e-001 2.369560e-002 -5.878969e-002 -1.130610e-001 -1.045253e-002
<VARIANCE> 39
 2.979200e+001 1.059882e+001 2.716347e+001 2.902236e+001 3.276667e+001 1.670177e+001 1.944480e+001 1.330857e+001 2.184940e+001 2.569317e+001 3.210666e+001 3.306620e+001 1.279778e+000 8.556043e-002 3.320294e-001 3.079689e-001 4.743510e-001 6.376879e-001 4.336791e-001 4.564777e-001 4.775139e-001 6.015102e-001 6.162326e-001 7.019926e-001 6.976048e-001 4.792117e-003 1.174772e-002 3.642323e-002 4.959631e-002 4.805981e-002 7.410453e-002 8.099589e-002 7.566880e-002 8.430628e-002 7.896870e-002 1.210008e-001 1.405540e-001 9.984679e-002 1.095756e-003
<GCONST> 5.446781e+001
<STATE> 6
<NUMMIXES> 3
<MIXTURE> 1 2.889457e-001
<MEAN> 39
 2.192331e+000 -6.325605e+000 -1.375654e+001 -1.492805e+001 5.522855e+000 -7.580508e+000 -6.701728e+000 -1.922992e+000 2.625168e+000 -8.083980e-001 -1.608481e+000 -7.133047e+000 1.866796e+001 -2.650933e-001 -1.553749e+000 8.359714e-001 1.277926e+000 -2.553155e-001 -4.577398e-001 -4.276095e-001 1.702586e+000 7.645892e-001 -1.523102e+000 -8.368065e-001 8.091963e-002 -2.450395e-002 -1.698902e-002 -1.588227e-002 3.034900e-001 8.581252e-002 -5.504856e-001 8.037223e-002 4.572173e-001 -6.582700e-002 -3.180351e-001 -3.305552e-001 2.100764e-001 3.492828e-001 -1.859698e-002
<VARIANCE> 39
 2.364402e+001 1.254677e+001 1.245844e+001 2.030097e+001 1.327758e+001 1.967593e+001 2.407198e+001 2.246652e+001 2.626184e+001 2.191830e+001 2.966800e+001 2.738153e+001 1.991409e+000 8.202557e-002 5.580499e-001 7.951462e-001 5.814949e-001 1.116475e+000 1.217875e+000 1.557366e+000 1.037821e+000 2.051020e+000 1.180877e+000 1.325559e+000 1.253543e+000 6.818841e-003 1.397107e-002 4.733849e-002 6.013430e-002 6.531791e-002 1.185400e-001 1.341244e-001 1.906067e-001 2.036852e-001 2.355199e-001 1.864476e-001 2.403387e-001 1.917658e-001 6.414633e-004
<GCONST> 6.803635e+001
<MIXTURE> 2 4.089661e-001
<MEAN> 39
 4.164007e+000 -6.675647e+000 -1.471471e+001 -1.546952e+001 -4.249190e+000 -5.123710e+000 -9.060369e+000 -9.425209e+000 3.842740e+000 -8.028189e-001 -1.118651e+000 -9.756314e+000 1.902156e+001 -3.467948e-001 -1.755746e+000 6.813156e-001 2.166824e+000 -3.812762e-001 -1.042689e+000 8.990480e-002 6.920213e-001 1.262555e+000 1.533623e-001 -1.518677e+000 -4.538353e-001 -5.967860e-002 -9.903629e-002 1.134186e-001 3.256111e-001 1.022392e-001 -2.754504e-001 -3.864590e-001 4.878624e-001 3.880531e-001 -5.325080e-001 -4.458086e-001 3.669676e-002 3.446138e-001 -4.648346e-002
<VARIANCE> 39
 2.875346e+001 2.212491e+001 1.727098e+001 4.258937e+001 5.377950e+001 4.120099e+001 3.303221e+001 4.216032e+001 4.056401e+001 4.064497e+001 4.732472e+001 3.335964e+001 1.558475e+000 2.365198e-001 8.748159e-001 8.554025e-001 1.711221e+000 1.903704e+000 1.658185e+000 1.809859e+000 2.374783e+000 3.193634e+000 3.768581e+000 1.805697e+000 1.950399e+000 1.872098e-002 3.332421e-002 1.260362e-001 8.718745e-002 2.262391e-001 1.900349e-001 2.418618e-001 2.945520e-001 3.069961e-001 3.528733e-001 3.527516e-001 3.592313e-001 2.902168e-001 1.845426e-003
<GCONST> 9.055216e+001
<MIXTURE> 3 3.020875e-001
<MEAN> 39
 6.008746e-001 -6.386490e+000 -1.385628e+001 -1.617051e+001 3.907464e+000 -8.977095e+000 -8.326590e+000 -4.132628e+000 1.346116e+000 -2.005854e+000 -4.323076e+000 -1.132457e+001 1.880673e+001 -2.863400e-001 -1.525666e+000 7.521124e-001 1.345528e+000 -2.332121e-001 -6.975212e-001 -5.142065e-001 1.448306e+000 6.922116e-001 -1.534857e+000 -9.181343e-001 1.775994e-002 -3.546802e-002 -4.018134e-002 2.558635e-003 3.028099e-001 5.308751e-002 -5.580993e-001 2.186476e-002 4.276775e-001 1.028834e-002 -3.514366e-001 -4.322387e-001 1.523263e-001 3.438763e-001 -2.159150e-002
<VARIANCE> 39
 1.986903e+001 1.112011e+001 1.317527e+001 1.739464e+001 1.510711e+001 2.195350e+001 1.914940e+001 2.223725e+001 2.679331e+001 2.828462e+001 4.037249e+001 2.615832e+001 1.451394e+000 9.167434e-002 6.562001e-001 7.754714e-001 4.691153e-001 1.050070e+000 1.097080e+000 1.663021e+000 1.086903e+000 2.326414e+000 1.283148e+000 1.286016e+000 1.361188e+000 7.845733e-003 1.376855e-002 5.164904e-002 6.220365e-002 6.950110e-002 1.251291e-001 1.325793e-001 1.789922e-001 1.854326e-001 2.514337e-001 2.163766e-001 2.238595e-001 1.733041e-001 7.000476e-004
<GCONST> 6.842834e+001
<STATE> 7
<NUMMIXES> 3
<MIXTURE> 1 4.916478e-001
<MEAN> 39
 3.106021e+000 -1.473467e+001 -8.614633e+000 -6.937531e+000 -6.274553e+000 -8.399430e+000 -4.128125e+000 9.710385e-001 3.300354e+000 -8.986362e+000 -3.609333e+000 -4.263046e+000 1.864229e+001 -3.370731e-001 -7.443159e-001 1.606244e+000 1.029019e+000 -2.030637e+000 -2.188408e-002 1.758672e+000 -5.968027e-002 -1.154033e+000 -6.765635e-001 3.815490e-001 6.516067e-001 -1.368454e-001 -5.937501e-002 5.189910e-001 4.204066e-002 -4.059916e-001 1.419267e-001 2.566059e-001 9.608691e-002 -5.231519e-001 -3.204622e-001 5.264428e-001 2.510051e-001 -2.133591e-001 -4.242772e-002
<VARIANCE> 39
 2.210310e+001 2.383024e+001 1.659089e+001 2.720473e+001 6.162647e+001 5.080954e+001 4.113599e+001 4.725185e+001 5.017176e+001 3.725029e+001 3.016860e+001 2.958570e+001 2.165900e+000 3.389294e-001 7.700430e-001 9.074507e-001 1.197208e+000 1.681381e+000 2.306467e+000 1.939848e+000 1.915660e+000 1.669760e+000 1.981115e+000 1.690906e+000 1.178847e+000 1.240142e-002 2.581157e-002 9.093951e-002 8.593696e-002 1.526859e-001 2.481638e-001 2.827349e-001 2.913195e-001 3.650071e-001 4.650744e-001 3.452494e-001 2.764276e-001 1.876309e-001 1.601405e-003
<GCONST> 8.717043e+001
<MIXTURE> 2 2.735732e-001
<MEAN> 39
 -2.563038e+000 -9.343966e+000 -8.411119e+000 -1.137985e+001 -8.860494e-001 -1.328480e+001 -2.247814e+000 5.018229e-001 -2.549312e-001 -7.574674e+000 -3.870238e+000 -6.787782e+000 1.842721e+001 -4.803472e-001 -1.060241e-001 1.243756e+000 7.230861e-001 -9.305427e-001 -2.677762e-001 1.182840e+000 4.100612e-001 -9.599590e-001 -6.147752e-001 6.345398e-001 5.905960e-001 -1.922897e-001 -6.703223e-002 3.045201e-001 1.035268e-001 -2.635465e-001 3.138164e-002 3.490227e-001 -2.521031e-002 -4.302920e-001 -3.996659e-002 3.541039e-001 2.148004e-001 -8.551754e-002 -3.585550e-002
<VARIANCE> 39
 1.293382e+001 1.728988e+001 1.053445e+001 1.419812e+001 2.802942e+001 2.839693e+001 2.889328e+001 1.662993e+001 2.906304e+001 3.085334e+001 2.483423e+001 2.408418e+001 1.527811e+000 1.669829e-001 5.987260e-001 4.785159e-001 7.423427e-001 8.330698e-001 1.302092e+000 8.792379e-001 1.528787e+000 9.759858e-001 1.601484e+000 8.875175e-001 1.320750e+000 2.408879e-002 1.605628e-002 5.408142e-002 7.083923e-002 8.527009e-002 1.508167e-001 1.404932e-001 1.951780e-001 1.490453e-001 2.118901e-001 2.378444e-001 2.072768e-001 1.758926e-001 1.719315e-003
<GCONST> 7.026931e+001
<MIXTURE> 3 2.347789e-001
<MEAN> 39
 -2.625552e+000 -9.717227e+000 -8.941908e+000 -1.176273e+001 -1.767991e+000 -1.334169e+001 -3.742828e+000 -1.912851e+000 -2.575107e+000 -9.824770e+000 -6.832145e+000 -1.054945e+001 1.832390e+001 -4.998652e-001 -1.459853e-001 1.209355e+000 3.874231e-001 -1.126210e+000 -3.512878e-001 7.378540e-001 3.844692e-002 -1.139820e+000 -8.192643e-001 3.305984e-001 2.562662e-001 -1.772104e-001 -7.477945e-002 3.184645e-001 7.461651e-002 -2.452482e-001 9.346399e-003 2.131873e-001 -5.886957e-002 -3.977937e-001 -5.165314e-002 2.955538e-001 1.516978e-001 -8.632386e-002 -3.691858e-002
<VARIANCE> 39
 1.405860e+001 1.993786e+001 1.317292e+001 1.440779e+001 2.251235e+001 3.054873e+001 2.704717e+001 2.230795e+001 4.176029e+001 3.105536e+001 2.678055e+001 2.707540e+001 1.173921e+000 1.969622e-001 7.752544e-001 5.377133e-001 7.117783e-001 1.063861e+000 1.171742e+000 1.248304e+000 1.646692e+000 1.488806e+000 1.779819e+000 1.028243e+000 1.493544e+000 2.155687e-002 2.219875e-002 7.567377e-002 8.127869e-002 9.218626e-002 1.761830e-001 1.794104e-001 2.347088e-001 1.607926e-001 2.501153e-001 2.129879e-001 2.372113e-001 2.053712e-001 2.244608e-003
<GCONST> 7.500939e+001
<STATE> 8
<NUMMIXES> 3
<MIXTURE> 1 2.883247e-001
<MEAN> 39
 1.183204e+000 -1.290241e+001 -2.275370e+000 -6.030676e+000 -1.080627e+001 -6.936064e+000 2.803079e+000 -2.972704e+000 -2.422103e+000 -5.516897e+000 5.725088e-001 -3.974382e+000 1.761973e+001 -7.607647e-001 1.317168e+000 1.713665e+000 -2.373647e-001 1.277837e-001 8.459792e-001 6.463906e-001 -1.070043e+000 -6.281880e-001 7.691571e-001 3.892857e-001 -2.144606e-001 -3.761871e-001 -1.758544e-001 4.273629e-001 -1.300453e-001 -1.892627e-001 6.503939e-001 7.011227e-002 -4.381682e-001 -2.496724e-002 3.010680e-001 1.671648e-001 -1.906526e-001 -9.787448e-002 -7.949561e-002
<VARIANCE> 39
 2.998127e+001 2.793891e+001 2.129539e+001 4.565738e+001 6.791240e+001 8.255333e+001 3.740278e+001 3.403724e+001 3.195288e+001 3.006555e+001 2.990546e+001 2.140086e+001 2.611843e+000 4.882584e-001 9.326734e-001 7.017956e-001 1.613554e+000 1.882397e+000 2.378350e+000 1.686842e+000 1.779689e+000 2.544578e+000 1.767025e+000 1.495204e+000 1.093454e+000 4.601334e-002 9.859832e-002 1.767525e-001 1.281676e-001 2.041511e-001 2.836688e-001 3.843275e-001 2.902274e-001 2.269611e-001 2.882032e-001 2.823636e-001 1.974950e-001 1.621675e-001 7.227673e-003
<GCONST> 9.270055e+001
<MIXTURE> 2 4.103962e-001
<MEAN> 39
 -1.634192e+000 -5.547029e+000 1.287405e+000 -7.822011e+000 -7.851754e+000 -7.093121e+000 -2.995446e+000 -8.949320e+000 -4.326151e+000 -7.266367e+000 -5.489196e+000 -1.019747e+001 1.631947e+001 -1.714267e+000 1.697102e+000 8.210962e-001 1.324476e-001 1.218523e+000 -1.269875e-001 -4.783990e-002 -3.672270e-001 -1.735045e-001 5.642242e-001 1.515160e-001 4.583341e-001 -7.019525e-001 -2.701733e-001 -2.681009e-001 -4.547412e-001 -1.115113e-001 1.080163e-001 -3.012015e-002 -1.017873e-002 3.199462e-001 1.607078e-001 6.367257e-002 2.704359e-001 2.968154e-001 -8.881593e-002
<VARIANCE> 39
 2.844741e+001 5.541515e+001 4.608041e+001 7.493035e+001 5.808918e+001 6.587061e+001 4.940264e+001 4.120892e+001 5.715295e+001 6.750613e+001 4.877622e+001 3.516131e+001 3.672071e+000 1.675522e+000 2.441801e+000 1.846505e+000 2.240978e+000 2.109566e+000 1.881038e+000 2.631573e+000 2.516524e+000 2.121928e+000 2.647733e+000 2.356054e+000 2.203082e+000 2.310670e-001 1.616846e-001 3.742141e-001 2.662118e-001 4.139792e-001 3.452990e-001 3.250269e-001 3.147169e-001 3.650715e-001 4.373462e-001 4.648428e-001 3.356034e-001 2.670407e-001 1.850019e-002
<GCONST> 1.107103e+002
<MIXTURE> 3 3.012778e-001
<MEAN> 39
 -1.065893e+000 -1.217634e+001 -2.587913e+000 -8.596710e+000 -1.029649e+001 -8.021329e+000 1.722996e+000 -2.804136e+000 -4.639421e+000 -6.932462e+000 -1.002115e+000 -5.850442e+000 1.756511e+001 -9.314005e-001 1.138756e+000 1.440466e+000 -6.266986e-001 -1.605048e-001 8.461019e-001 2.649771e-001 -1.383024e+000 -7.723770e-001 6.969748e-001 8.349083e-002 -4.111517e-001 -3.786786e-001 -1.584477e-001 3.639940e-001 -2.217776e-001 -2.312822e-001 6.097286e-001 -3.755362e-002 -5.830954e-001 -1.265712e-001 3.223861e-001 7.872870e-002 -2.176329e-001 -1.644008e-001 -6.515127e-002
<VARIANCE> 39
 2.564190e+001 3.490576e+001 1.723120e+001 3.864421e+001 5.875022e+001 7.432529e+001 3.166660e+001 3.364229e+001 3.109738e+001 3.042561e+001 2.952055e+001 2.649813e+001 2.069103e+000 5.607169e-001 9.530078e-001 8.447140e-001 1.377367e+000 1.903597e+000 2.163627e+000 1.783756e+000 1.641961e+000 2.183378e+000 2.100808e+000 1.801251e+000 1.550996e+000 6.329033e-002 1.026129e-001 1.724705e-001 1.112327e-001 1.816153e-001 2.734235e-001 2.972857e-001 2.343534e-001 2.572459e-001 2.545159e-001 2.978347e-001 2.093296e-001 1.786455e-001 6.366356e-003
<GCONST> 9.219783e+001
<STATE> 9
<NUMMIXES> 3
<MIXTURE> 1 5.423996e-001
<MEAN> 39
 -6.987212e+000 -4.961971e+000 -2.001266e-001 -9.688789e+000 -4.167906e+000 -6.660770e+000 -8.750053e-001 -7.484968e+000 -3.939872e+000 -3.785687e+000 -1.290087e-001 -5.485287e+000 1.380223e+001 -4.808030e-001 8.827423e-001 5.542099e-002 -3.240509e-001 3.992073e-001 -1.129601e-001 -5.173987e-001 -9.563163e-002 4.009042e-001 2.229954e-001 -7.357607e-002 -5.283604e-002 -3.280662e-001 6.257889e-002 -1.334222e-001 -1.604623e-001 6.932790e-002 1.008373e-002 -6.132149e-002 -4.314352e-003 1.967727e-001 6.099882e-002 -1.047945e-001 -4.690866e-002 6.293926e-003 3.369467e-002
<VARIANCE> 39
 1.663107e+001 3.744778e+001 1.690166e+001 4.522660e+001 2.719245e+001 4.933302e+001 2.668149e+001 3.259927e+001 2.841741e+001 2.462242e+001 2.767897e+001 2.532874e+001 1.392111e+001 4.718951e-001 1.163412e+000 9.066308e-001 1.087974e+000 1.141481e+000 1.606826e+000 1.255831e+000 1.460248e+000 1.205655e+000 1.266922e+000 1.145693e+000 1.067283e+000 3.007027e-002 5.692637e-002 1.248946e-001 1.309271e-001 1.580598e-001 1.302246e-001 2.318029e-001 1.703786e-001 1.912976e-001 1.676722e-001 2.052047e-001 1.806483e-001 1.876434e-001 5.831405e-003
<GCONST> 8.453056e+001
<MIXTURE> 2 2.321559e-001
<MEAN> 39
 -1.163497e+001 -3.431440e+000 4.593577e-001 -8.076034e+000 -2.295389e+000 -5.784808e+000 -9.779563e-001 -5.100528e+000 -9.177796e-001 -2.756635e+000 1.894986e-001 -4.733020e+000 1.297825e+001 -1.593611e+000 -1.215919e-001 -8.389254e-001 -7.508305e-001 2.127857e-001 -1.983854e-001 -3.249544e-001 1.514282e-001 7.321689e-002 4.128917e-001 5.191123e-001 4.126529e-001 -5.567955e-001 4.147840e-001 -2.865762e-001 -2.431586e-001 -1.044551e-001 -3.781809e-001 -2.101527e-001 -6.616058e-002 -5.369629e-002 -3.426107e-002 -1.342485e-001 -1.123569e-001 -8.944791e-002 1.451399e-001
<VARIANCE> 39
 2.374921e+001 3.846733e+001 2.443850e+001 4.718967e+001 2.586593e+001 4.248841e+001 3.139003e+001 2.923672e+001 2.347162e+001 2.791234e+001 1.922059e+001 2.113393e+001 5.779496e+000 1.256435e+000 1.344608e+000 1.365675e+000 1.708731e+000 1.950689e+000 1.509279e+000 1.225565e+000 1.252066e+000 1.354115e+000 1.372881e+000 1.432096e+000 1.168862e+000 1.398568e-001 1.444095e-001 3.201622e-001 2.731823e-001 3.049509e-001 2.274853e-001 2.273961e-001 2.072310e-001 1.817614e-001 1.951334e-001 2.070419e-001 1.814488e-001 1.807586e-001 1.606484e-002
<GCONST> 9.310553e+001
<MIXTURE> 3 2.254429e-001
<MEAN> 39
 -1.095181e+001 -4.446506e+000 5.455621e-001 -7.437521e+000 -2.135285e+000 -6.109171e+000 -5.990973e-001 -5.950127e+000 -1.573492e+000 -3.008156e+000 -5.503034e-001 -5.480773e+000 1.297882e+001 -1.580621e+000 -4.499741e-001 -1.150946e+000 -1.184154e+000 -3.182967e-001 -5.263833e-001 -6.273459e-001 -2.277547e-001 -1.994856e-001 9.748603e-002 2.249897e-001 1.047743e-001 -5.822514e-001 3.855321e-001 -2.351257e-001 -2.885269e-001 -2.193825e-001 -3.862423e-001 -2.747584e-001 -1.225283e-001 -5.247182e-002 -7.648451e-002 -2.001016e-001 -1.279748e-001 -7.395472e-002 1.377304e-001
<VARIANCE> 39
 1.869067e+001 3.341922e+001 2.770062e+001 6.227116e+001 3.271494e+001 4.277662e+001 3.003801e+001 3.514502e+001 2.582116e+001 2.489908e+001 2.085335e+001 2.165953e+001 5.196695e+000 9.661753e-001 1.062937e+000 1.359099e+000 1.316450e+000 1.587827e+000 1.412812e+000 9.154177e-001 1.362696e+000 1.155934e+000 1.163327e+000 1.516086e+000 9.828081e-001 1.480811e-001 1.242851e-001 2.707164e-001 2.521213e-001 2.498996e-001 2.369188e-001 2.047938e-001 1.616886e-001 1.940932e-001 1.961129e-001 1.811184e-001 2.022114e-001 1.745767e-001 1.360819e-002
<GCONST> 9.080023e+001
<TRANSP> 10
 0.000000e+000 1.000000e+000 0.000000e+000 0.000000e+000 0.000000e+000 0.000000e+000 0.000000e+000 0.000000e+000 0.000000e+000 0.000000e+000
 0.000000e+000 7.092975e-001 2.907024e-001 0.000000e+000 0.000000e+000 0.000000e+000 0.000000e+000 0.000000e+000 0.000000e+000 0.000000e+000
 0.000000e+000 0.000000e+000 4.518636e-001 5.481365e-001 0.000000e+000 0.000000e+000 0.000000e+000 0.000000e+000 0.000000e+000 0.000000e+000
 0.000000e+000 0.000000e+000 0.000000e+000 7.195937e-001 2.804063e-001 0.000000e+000 0.000000e+000 0.000000e+000 0.000000e+000 0.000000e+000
 0.000000e+000 0.000000e+000 0.000000e+000 0.000000e+000 8.513802e-001 1.486197e-001 0.000000e+000 0.000000e+000 0.000000e+000 0.000000e+000
 0.000000e+000 0.000000e+000 0.000000e+000 0.000000e+000 0.000000e+000 7.424052e-001 2.575947e-001 0.000000e+000 0.000000e+000 0.000000e+000
 0.000000e+000 0.000000e+000 0.000000e+000 0.000000e+000 0.000000e+000 0.000000e+000 7.496647e-001 2.503353e-001 0.000000e+000 0.000000e+000
 0.000000e+000 0.000000e+000 0.000000e+000 0.000000e+000 0.000000e+000 0.000000e+000 0.000000e+000 7.514483e-001 2.485517e-001 0.000000e+000
 0.000000e+000 0.000000e+000 0.000000e+000 0.000000e+000 0.000000e+000 0.000000e+000 0.000000e+000 0.000000e+000 7.825344e-001 2.174656e-001
 0.000000e+000 0.000000e+000 0.000000e+000 0.000000e+000 0.000000e+000 0.000000e+000 0.000000e+000 0.000000e+000 0.000000e+000 0.000000e+000
<ENDHMM>
~h "seven"
<BEGINHMM>
<NUMSTATES> 10
<STATE> 2
<NUMMIXES> 3
<MIXTURE> 1 2.438663e-001
<MEAN> 39
 -1.551048e+001 -4.661107e+000 -6.459416e+000 -1.350116e+001 -5.246066e+000 -9.445384e+000 -4.616930e+000 -4.556754e+000 -4.582765e-001 -3.220731e+000 -6.853180e-001 -4.503291e+000 1.363276e+001 1.118384e+000 6.042123e-001 7.979273e-001 -1.094414e-001 5.660136e-002 1.226513e-001 9.839472e-001 1.808763e-001 3.887838e-001 2.022827e-001 -5.875508e-002 9.558297e-002 4.267579e-001 6.146429e-001 1.426111e-001 2.673924e-001 -1.750293e-001 -2.483010e-001 6.327172e-002 4.421118e-001 -3.189367e-002 -3.871039e-002 7.310392e-002 -1.493992e-001 -1.514055e-001 2.571171e-001
<VARIANCE> 39
 7.764197e+000 8.450114e+000 1.074733e+001 2.178701e+001 1.592661e+001 2.750655e+001 2.082887e+001 1.513748e+001 1.712468e+001 2.112044e+001 1.863736e+001 1.779133e+001 3.083483e+000 3.939117e-001 3.964300e-001 4.214975e-001 4.985484e-001 5.697324e-001 6.092259e-001 8.054127e-001 8.872683e-001 8.445359e-001 1.270299e+000 8.288218e-001 5.714415e-001 5.093282e-002 5.913724e-002 7.344062e-002 9.024698e-002 1.170425e-001 1.251093e-001 2.065210e-001 1.689000e-001 1.924424e-001 2.074475e-001 2.775211e-001 1.835721e-001 1.548397e-001 6.596908e-003
<GCONST> 6.899983e+001
<MIXTURE> 2 4.986984e-001
<MEAN> 39
 -1.898863e+001 -5.447423e+000 -8.277999e+000 -8.034993e+000 -6.923041e+000 -5.275742e+000 -3.871013e+000 -4.177798e+000 5.766323e-001 -3.553106e+000 -1.642938e-001 -4.188012e+000 1.173082e+001 4.687490e-003 -1.969982e-001 -1.676258e-001 6.900878e-002 4.918926e-002 9.841345e-002 4.708588e-002 -1.920213e-001 1.683148e-002 3.193228e-003 3.761382e-002 1.225215e-001 6.965248e-002 3.132518e-001 1.788107e-001 2.512099e-001 -8.505943e-002 5.069963e-002 -7.911826e-002 4.426808e-002 -8.742995e-002 -1.871889e-002 -5.967803e-002 -5.744953e-002 -1.747196e-002 5.310842e-002
<VARIANCE> 39
 6.563477e+000 2.433720e+001 1.157940e+001 1.999707e+001 1.642398e+001 2.126516e+001 1.779036e+001 1.918746e+001 2.126765e+001 2.744081e+001 2.145386e+001 1.596617e+001 2.413239e+000 2.197383e-001 3.658550e-001 4.250197e-001 4.511991e-001 6.018443e-001 5.797553e-001 5.677605e-001 5.715698e-001 7.263205e-001 8.119571e-001 7.446857e-001 6.431491e-001 3.037425e-002 7.658724e-002 9.093003e-002 7.973661e-002 9.140246e-002 1.129106e-001 1.189099e-001 1.090654e-001 9.741582e-002 1.342379e-001 1.455564e-001 1.466892e-001 1.094106e-001 1.296985e-002
<GCONST> 6.470564e+001
<MIXTURE> 3 2.574351e-001
<MEAN> 39
 -1.507843e+001 -5.217079e+000 -6.302991e+000 -1.427163e+001 -5.159653e+000 -1.036913e+001 -6.022993e+000 -5.660398e+000 -9.751805e-001 -4.801959e+000 -7.003164e-001 -5.159890e+000 1.350438e+001 9.837105e-001 4.835288e-001 4.577604e-001 -1.968741e-001 -2.166379e-001 4.356516e-002 6.531426e-001 -1.972696e-001 -1.705526e-002 -1.902821e-001 -3.165217e-001 -1.322074e-001 4.148251e-001 5.349492e-001 1.322752e-001 1.480076e-001 -2.639745e-001 -2.244781e-001 1.411246e-001 3.847499e-001 -1.326175e-001 -2.698401e-002 -1.594530e-001 -3.056708e-001 -2.977400e-001 2.363800e-001
<VARIANCE> 39
 7.568753e+000 8.758331e+000 1.010215e+001 2.543992e+001 1.746336e+001 1.987151e+001 1.730092e+001 1.571204e+001 1.813331e+001 2.139601e+001 2.330527e+001 1.680330e+001 3.613344e+000 4.076004e-001 3.539002e-001 4.379863e-001 4.739613e-001 6.321883e-001 5.689059e-001 8.855618e-001 8.055005e-001 7.332332e-001 1.265753e+000 8.139605e-001 5.341035e-001 5.885806e-002 6.272152e-002 6.438115e-002 9.271140e-002 1.281891e-001 1.235362e-001 1.701514e-001 1.528095e-001 1.718163e-001 1.719026e-001 2.836849e-001 1.989799e-001 1.555398e-001 8.044909e-003
<GCONST> 6.871612e+001
<STATE> 3
<NUMMIXES> 3
<MIXTURE> 1 4.681990e-001
<MEAN> 39
 -1.488983e+001 -3.015728e+000 -5.668201e+000 -1.139612e+001 -5.579107e+000 -7.066357e+000 -3.297887e+000 -6.075610e+000 1.508551e-001 -4.668069e+000 -2.446451e+000 -4.671804e+000 1.339019e+001 2.516683e+000 4.569180e-001 1.056996e+000 -1.190949e+000 -5.111504e-001 -5.356146e-002 1.378416e+000 -2.775176e-001 1.460851e-001 -4.581466e-002 -4.355011e-001 -2.602787e-001 9.691585e-001 2.984641e-001 -2.472181e-001 -1.322026e-002 -3.150269e-001 -1.248324e-001 7.880156e-002 3.507295e-001 3.804099e-003 -1.020701e-001 -1.950209e-002 -1.471026e-002 -7.650931e-002 2.148007e-001
<VARIANCE> 39
 1.504239e+001 1.295203e+001 1.622739e+001 3.151428e+001 1.957552e+001 3.057999e+001 1.957285e+001 1.772217e+001 1.796411e+001 4.722439e+001 2.120940e+001 2.045765e+001 3.400830e+000 6.638740e-001 9.547326e-001 6.893700e-001 1.042903e+000 6.181887e-001 2.029507e+000 1.197389e+000 1.411313e+000 1.680468e+000 2.126606e+000 8.711521e-001 8.201935e-001 9.030086e-002 1.533017e-001 7.440895e-002 9.629390e-002 1.463704e-001 1.766406e-001 2.353390e-001 1.310391e-001 1.650351e-001 1.842453e-001 2.189599e-001 1.404647e-001 2.243467e-001 1.552429e-002
<GCONST> 8.138576e+001
<MIXTURE> 2 2.805165e-001
<MEAN> 39
 -1.013425e+001 -1.602772e+000 -1.894410e+000 -1.271520e+001 -4.279412e+000 -9.002276e+000 -8.040048e-001 -3.474715e+000 -2.157681e-001 -1.815641e+000 -4.025276e-001 -4.809823e+000 1.558028e+001 2.063051e+000 1.716454e-001 5.930858e-001 -9.845607e-001 -1.139416e+000 3.129879e-001 1.920535e+000 -4.352430e-002 -1.452897e-001 2.470365e-002 -8.474536e-001 -9.141217e-001 1.053548e+000 -1.090013e-001 -3.199476e-001 -3.448227e-001 -1.786182e-001 -8.916630e-002 3.486917e-001 1.561920e-001 -9.682956e-002 -1.689269e-001 -3.072809e-001 -2.231892e-001 -2.143913e-001 7.351172e-002
<VARIANCE> 39
 1.475131e+001 9.635426e+000 1.141568e+001 1.822013e+001 1.934001e+001 1.582948e+001 1.779651e+001 2.024132e+001 1.868875e+001 3.316248e+001 1.517464e+001 1.229390e+001 4.834022e+000 6.992788e-001 5.673780e-001 6.515301e-001 1.528286e+000 6.541035e-001 1.682268e+000 1.423835e+000 2.115144e+000 1.619514e+000 3.167407e+000 1.200906e+000 9.616291e-001 1.296752e-001 9.703109e-002 5.541841e-002 7.179169e-002 8.101864e-002 1.456639e-001 1.264908e-001 1.207586e-001 1.429411e-001 1.998653e-001 1.474692e-001 1.745711e-001 1.089185e-001 1.137722e-002
<GCONST> 7.643278e+001
<MIXTURE> 3 2.512843e-001
<MEAN> 39
 -1.083144e+001 -2.473899e+000 -3.124088e+000 -1.317296e+001 -5.359357e+000 -9.775482e+000 -2.056994e+000 -4.267716e+000 -8.714374e-001 -2.651115e+000 3.916331e-001 -5.709082e+000 1.485312e+001 2.091022e+000 1.553794e-001 3.418506e-001 -1.140476e+000 -1.380729e+000 3.420512e-002 1.300626e+000 -5.608256e-001 -3.788957e-001 -6.517882e-001 -1.357950e+000 -1.312597e+000 1.058404e+000 -5.068131e-002 -3.375406e-001 -3.142526e-001 -2.107832e-001 -9.715653e-002 2.690752e-001 7.014091e-002 -2.157571e-001 -1.605543e-001 -4.607093e-001 -4.192890e-001 -3.609388e-001 9.877981e-002
<VARIANCE> 39
 2.239917e+001 1.113971e+001 1.298614e+001 1.813916e+001 2.221998e+001 1.408861e+001 2.505083e+001 1.827608e+001 2.285681e+001 4.166439e+001 1.860689e+001 1.408724e+001 5.970873e+000 6.959195e-001 5.256863e-001 6.089578e-001 1.106169e+000 5.870160e-001 1.725720e+000 1.257491e+000 1.878597e+000 1.636201e+000 2.784780e+000 1.188859e+000 8.673732e-001 1.269656e-001 1.381021e-001 5.321231e-002 8.158755e-002 1.016312e-001 1.289246e-001 1.093915e-001 1.498915e-001 1.356552e-001 2.547405e-001 1.300883e-001 1.972502e-001 9.953678e-002 1.843708e-002
<GCONST> 7.850798e+001
<STATE> 4
<NUMMIXES> 3
<MIXTURE> 1 4.810676e-001
<MEAN> 39
 -4.408025e+000 -3.524080e+000 -4.411839e+000 -2.079945e+001 -5.452031e+000 -4.453191e+000 1.098300e+000 -1.122582e+001 3.377647e+000 -1.407065e+001 -4.603985e+000 -8.804900e+000 1.817662e+001 7.772195e-001 -7.643558e-001 -3.489472e-001 -7.111313e-001 8.651381e-001 2.012620e+000 1.212621e+000 -9.566264e-001 3.810744e-001 -9.548907e-001 -1.726168e-001 2.161729e-001 7.419479e-001 -5.967577e-001 -3.259506e-001 -8.882993e-002 4.851920e-001 4.012305e-001 -2.936972e-002 -1.998637e-001 2.342727e-001 -2.439706e-001 4.870758e-001 3.425520e-001 3.334208e-001 -2.239011e-001
<VARIANCE> 39
 8.193814e+000 1.182428e+001 8.274398e+000 1.070740e+001 2.228012e+001 2.422105e+001 1.987270e+001 1.495700e+001 1.938436e+001 2.975871e+001 2.995608e+001 2.772182e+001 1.313743e+000 1.175832e+000 5.910146e-001 4.039386e-001 1.085848e+000 1.096208e+000 5.525610e-001 9.390731e-001 7.243124e-001 9.688238e-001 1.648146e+000 1.170701e+000 1.505775e+000 1.625318e-001 7.736333e-002 8.844583e-002 6.128140e-002 1.116710e-001 1.428614e-001 1.792343e-001 1.145052e-001 1.067400e-001 1.310160e-001 1.718812e-001 1.629256e-001 1.382748e-001 1.233913e-002
<GCONST> 7.319605e+001
<MIXTURE> 2 2.612530e-001
<MEAN> 39
 -5.632861e+000 -4.303257e+000 -2.408612e+000 -1.641297e+001 -1.263152e+001 -1.001033e+001 6.110752e+000 -2.418170e+000 -4.747724e+000 1.807945e+000 -5.217398e+000 -8.832705e+000 1.865189e+001 7.178074e-001 -9.165276e-001 -3.231533e-001 -5.839590e-001 -4.507137e-001 6.411207e-001 1.727931e+000 3.488260e-001 -8.811640e-001 -6.709574e-001 -5.871227e-001 -6.490167e-001 6.225477e-001 -4.436750e-001 -1.316712e-001 -3.158700e-001 2.295360e-001 4.178676e-001 2.664606e-001 -4.486283e-001 -5.771848e-002 5.958046e-002 -4.521770e-001 2.591977e-001 2.224942e-001 -1.850390e-001
<VARIANCE> 39
 7.038464e+000 1.116469e+001 1.143569e+001 1.945705e+001 8.742360e+000 2.284889e+001 1.832694e+001 2.473528e+001 2.047370e+001 1.751465e+001 2.041249e+001 2.485092e+001 1.604315e+000 1.099293e+000 4.836675e-001 7.014673e-001 1.055726e+000 1.222162e+000 1.438616e+000 1.349303e+000 1.308151e+000 1.427576e+000 1.434707e+000 1.192799e+000 8.993286e-001 2.019926e-001 9.695300e-002 9.849803e-002 1.066453e-001 1.464963e-001 8.277985e-002 2.471957e-001 1.521267e-001 1.696677e-001 1.862297e-001 1.623095e-001 1.562581e-001 1.215800e-001 8.946382e-003
<GCONST> 7.629667e+001
<MIXTURE> 3 2.576786e-001
<MEAN> 39
 -5.406588e+000 -4.582279e+000 -2.982419e+000 -1.709690e+001 -1.401190e+001 -1.056532e+001 4.710328e+000 -3.653567e+000 -6.104859e+000 1.446242e+000 -6.541502e+000 -9.635609e+000 1.883389e+001 6.048517e-001 -1.069074e+000 -6.563800e-001 -9.616607e-001 -8.274925e-001 3.354064e-001 1.201187e+000 -7.144878e-002 -1.492066e+000 -1.068341e+000 -1.055472e+000 -1.237689e+000 6.831074e-001 -5.924541e-001 -1.202964e-001 -3.374996e-001 2.541459e-001 4.832776e-001 3.261025e-001 -4.233860e-001 -8.500276e-002 2.892627e-002 -5.159057e-001 2.005530e-001 1.787148e-001 -2.521664e-001
<VARIANCE> 39
 6.550357e+000 1.041793e+001 1.268547e+001 2.345636e+001 8.842847e+000 1.775097e+001 1.837647e+001 3.002543e+001 2.571678e+001 1.954162e+001 2.461736e+001 2.235601e+001 1.307701e+000 9.254040e-001 4.017376e-001 6.276498e-001 1.068108e+000 9.422312e-001 1.344051e+000 9.845031e-001 1.195213e+000 1.072859e+000 1.222559e+000 1.093099e+000 7.875478e-001 1.401512e-001 8.296319e-002 8.701330e-002 1.118736e-001 1.502625e-001 8.930457e-002 1.689655e-001 1.581588e-001 1.831404e-001 1.957936e-001 1.372860e-001 1.514699e-001 1.175744e-001 7.741804e-003
<GCONST> 7.367169e+001
<STATE> 5
<NUMMIXES> 3
<MIXTURE> 1 4.711428e-001
<MEAN> 39
 -6.388482e+000 -8.166890e+000 -5.495694e+000 -1.741523e+001 1.407541e+000 9.560236e-001 3.007823e+000 -1.279250e+001 2.522011e+000 -1.142560e+001 -2.242210e+000 -3.691664e+000 1.858472e+001 1.470559e-001 -2.271398e-001 3.950422e-001 5.573663e-001 -2.226398e-001 -2.182572e-001 4.835579e-001 -3.682100e-002 -3.795775e-001 1.031085e+000 -4.492581e-001 4.626524e-001 -8.770004e-002 1.090649e-001 3.530293e-001 2.928474e-001 1.613793e-001 -4.460651e-001 -5.799441e-001 -6.444158e-002 2.843624e-001 -1.572515e-001 2.629349e-001 -1.554449e-001 -2.632015e-001 -1.229182e-001
<VARIANCE> 39
 8.570941e+000 1.117890e+001 6.767819e+000 1.074929e+001 1.917634e+001 9.091608e+000 1.891384e+001 1.602673e+001 2.107692e+001 3.345897e+001 2.954419e+001 2.403719e+001 1.502151e+000 2.362942e-001 4.837924e-001 3.798153e-001 3.820279e-001 1.249906e+000 1.006190e+000 5.180624e-001 6.537226e-001 6.933764e-001 8.451288e-001 8.345808e-001 6.569812e-001 2.493615e-002 5.418414e-002 6.313759e-002 7.422047e-002 1.119180e-001 1.366958e-001 1.072960e-001 1.239416e-001 1.193492e-001 1.027010e-001 1.761168e-001 1.455683e-001 9.478872e-002 5.472450e-003
<GCONST> 6.274518e+001
<MIXTURE> 2 2.811778e-001
<MEAN> 39
 -7.071275e+000 -8.165543e+000 -5.741974e+000 -1.714992e+001 -7.621215e+000 -3.723373e+000 6.719289e+000 -5.662149e+000 -7.066249e+000 -6.231501e+000 -4.758090e+000 -8.956014e+000 1.934203e+001 2.181471e-002 -5.087285e-001 -2.577982e-001 5.642237e-001 6.708114e-001 2.717887e-001 -2.237835e-001 6.108637e-001 -4.813619e-001 -6.470444e-001 9.285426e-001 3.252333e-002 -8.043610e-003 1.189774e-001 2.880634e-001 2.322155e-001 2.411347e-001 -7.833928e-002 -5.230881e-001 -4.217458e-001 2.615303e-001 2.972457e-001 2.010311e-001 2.264179e-001 1.315645e-001 -1.004723e-001
<VARIANCE> 39
 6.128253e+000 1.367936e+001 8.408785e+000 2.218275e+001 2.979795e+001 2.454013e+001 2.459414e+001 3.277162e+001 3.397673e+001 3.581575e+001 3.323812e+001 2.537992e+001 1.441814e+000 1.786223e-001 2.701007e-001 1.905726e-001 4.010651e-001 7.717375e-001 1.261450e+000 8.084900e-001 1.039180e+000 7.483465e-001 9.993740e-001 6.001952e-001 7.859222e-001 1.093692e-002 3.110609e-002 4.140502e-002 5.483926e-002 9.757432e-002 1.600867e-001 1.184057e-001 1.936495e-001 1.279052e-001 1.383801e-001 1.310575e-001 1.866781e-001 1.420958e-001 4.785549e-003
<GCONST> 6.493702e+001
<MIXTURE> 3 2.476787e-001
<MEAN> 39
 -7.922952e+000 -8.627383e+000 -6.512764e+000 -1.643496e+001 -7.743261e+000 -4.200974e+000 5.347143e+000 -6.620262e+000 -7.185667e+000 -7.374308e+000 -5.681163e+000 -9.249830e+000 1.917032e+001 -1.178445e-001 -6.111168e-001 -3.583427e-001 4.724179e-001 6.340460e-001 3.448744e-001 -1.913015e-001 2.544554e-001 -7.471384e-001 -7.294217e-001 5.150649e-001 -7.097613e-002 2.430348e-002 9.324045e-002 2.451303e-001 1.934886e-001 1.748946e-001 -5.261317e-002 -4.686170e-001 -3.567087e-001 2.345533e-001 2.498876e-001 1.322353e-001 2.392904e-001 6.961561e-002 -1.111943e-001
<VARIANCE> 39
 5.647234e+000 1.282168e+001 7.419305e+000 2.126715e+001 2.750072e+001 2.405944e+001 3.128152e+001 4.731765e+001 3.821626e+001 3.712418e+001 2.681017e+001 2.059898e+001 1.256675e+000 1.905590e-001 2.732024e-001 2.182122e-001 3.781568e-001 6.469388e-001 1.125994e+000 6.900603e-001 1.122999e+000 7.864274e-001 1.207209e+000 7.210845e-001 7.518612e-001 1.224371e-002 4.450999e-002 3.283470e-002 4.453520e-002 9.658119e-002 1.743112e-001 1.281749e-001 2.052980e-001 1.444864e-001 1.385702e-001 1.320355e-001 2.022967e-001 1.254316e-001 6.864165e-003
<GCONST> 6.557385e+001
<STATE> 6
<NUMMIXES> 3
<MIXTURE> 1 4.319553e-001
<MEAN> 39
 -4.459678e+000 -7.128005e+000 -2.596627e+000 -1.538902e+001 -4.943486e+000 -3.346245e+000 6.194745e+000 -1.097208e+001 -1.584815e+000 -5.858816e+000 -6.282467e+000 -4.595688e+000 1.796810e+001 3.524819e-001 1.385152e+000 1.548696e+000 1.626248e+000 -7.886748e-001 -2.153143e+000 -3.632257e-001 1.443288e+000 -7.094474e-001 1.279517e+000 1.197657e-001 -6.875180e-001 -5.400403e-001 -1.402701e-001 2.600908e-001 8.672474e-002 1.529394e-001 3.157120e-001 -9.951629e-002 -4.820845e-001 9.681586e-002 1.571551e-001 -3.211221e-001 2.633033e-001 -1.907241e-001 -6.161813e-002
<VARIANCE> 39
 8.618835e+000 1.515886e+001 1.293023e+001 1.875352e+001 1.984226e+001 1.782926e+001 1.772292e+001 3.223045e+001 3.521664e+001 3.200257e+001 1.829255e+001 2.329055e+001 1.996972e+000 5.590497e-001 7.024844e-001 1.043953e+000 8.633187e-001 8.712037e-001 9.279032e-001 1.257743e+000 1.136126e+000 1.064838e+000 1.816784e+000 1.608473e+000 8.821567e-001 3.832636e-002 3.319264e-002 1.205624e-001 1.410068e-001 1.592845e-001 9.232728e-002 2.255327e-001 1.309287e-001 1.475637e-001 1.365974e-001 1.927179e-001 1.012222e-001 1.354756e-001 1.036248e-002
<GCONST> 7.525289e+001
<MIXTURE> 2 2.897221e-001
<MEAN> 39
 -4.838023e+000 -7.138324e+000 -4.501178e+000 -1.292996e+001 -9.941351e+000 -1.039881e+001 3.024549e+000 3.130474e+000 -7.724654e+000 -5.893503e+000 -2.474009e-002 -1.022653e+001 1.829679e+001 3.463122e-001 8.487845e-001 7.260716e-001 1.295091e+000 7.673419e-001 -1.528125e+000 -2.228504e+000 6.862805e-001 1.118762e+000 -7.378832e-001 1.145073e+000 5.533276e-001 -4.293495e-001 -7.231065e-002 1.862148e-001 1.554744e-001 -4.330345e-004 1.855841e-001 1.081560e-001 -1.662609e-001 -4.891088e-001 2.032549e-001 1.386085e-001 -2.075841e-001 2.119570e-001 -5.931561e-002
<VARIANCE> 39
 1.020975e+001 8.730803e+000 1.351779e+001 1.622128e+001 2.147643e+001 2.597334e+001 2.775598e+001 2.267582e+001 3.072465e+001 2.493787e+001 1.656846e+001 1.637581e+001 1.887789e+000 3.978163e-001 5.642110e-001 7.217257e-001 8.566587e-001 1.216670e+000 1.029704e+000 9.812439e-001 1.417197e+000 1.034602e+000 8.083410e-001 8.440347e-001 8.295882e-001 4.931509e-002 4.052130e-002 5.901268e-002 9.637649e-002 1.330188e-001 1.501535e-001 2.358795e-001 2.673865e-001 1.274288e-001 1.882215e-001 1.130992e-001 9.776378e-002 8.485304e-002 9.566921e-003
<GCONST> 7.183865e+001
<MIXTURE> 3 2.783218e-001
<MEAN> 39
 -5.161453e+000 -7.565361e+000 -5.556511e+000 -1.277166e+001 -9.941772e+000 -1.166554e+001 2.050239e+000 3.010850e+000 -8.470900e+000 -8.044200e+000 -4.709949e-001 -1.058069e+001 1.846825e+001 3.164456e-001 9.142973e-001 7.346347e-001 1.075577e+000 5.783636e-001 -1.700801e+000 -2.392770e+000 6.490446e-001 1.149122e+000 -8.025784e-001 7.339272e-001 2.835208e-001 -4.552405e-001 -9.376265e-002 1.545427e-001 1.543546e-001 -5.476251e-002 1.368516e-001 1.177499e-001 -9.040502e-002 -5.643936e-001 1.635012e-001 1.636901e-001 -2.894675e-001 1.467994e-001 -5.956406e-002
<VARIANCE> 39
 8.277875e+000 8.329866e+000 1.250537e+001 1.458488e+001 1.733633e+001 2.267064e+001 3.086678e+001 2.514236e+001 2.353782e+001 2.382284e+001 1.215710e+001 1.436577e+001 1.581172e+000 3.740873e-001 4.180397e-001 6.280066e-001 8.033146e-001 1.303539e+000 8.859192e-001 1.052367e+000 1.461219e+000 9.736168e-001 7.568228e-001 9.891977e-001 9.514537e-001 4.610530e-002 3.325880e-002 5.702447e-002 8.048712e-002 1.003499e-001 1.238777e-001 2.196733e-001 3.013073e-001 1.191452e-001 1.830333e-001 1.046309e-001 9.075271e-002 9.350696e-002 8.818444e-003
<GCONST> 6.881364e+001
<STATE> 7
<NUMMIXES> 3
<MIXTURE> 1 4.813710e-001
<MEAN> 39
 -4.390162e+000 -3.958902e+000 -1.198983e+000 -1.225847e+001 -7.378365e+000 -6.789475e+000 1.467157e+000 -6.222280e+000 -3.517481e+000 -4.967684e+000 -2.464698e+000 -7.946867e+000 1.718718e+001 1.588189e-001 4.324556e-001 2.360350e-001 -5.110024e-001 5.788941e-001 2.567064e-001 -2.508225e-001 -6.456722e-001 2.543370e-001 2.301846e-001 -3.765918e-001 1.922977e-002 8.831915e-002 3.930141e-002 2.483163e-001 2.108973e-001 6.826930e-002 3.738948e-001 -3.837579e-001 -3.235371e-001 1.081429e-001 1.334478e-001 -8.351938e-002 -3.450607e-002 5.659236e-002 -5.073731e-002
<VARIANCE> 39
 9.489949e+000 1.246236e+001 1.643051e+001 2.021523e+001 2.955821e+001 4.043252e+001 2.347805e+001 4.710810e+001 4.977310e+001 4.426519e+001 3.124178e+001 2.792306e+001 2.262510e+000 3.496781e-001 9.304438e-001 1.708224e+000 1.256753e+000 1.910528e+000 2.709656e+000 1.982228e+000 1.542972e+000 1.323757e+000 2.135791e+000 1.362522e+000 9.622937e-001 9.421566e-002 5.279906e-002 1.189628e-001 1.825463e-001 1.624031e-001 2.337889e-001 3.783152e-001 2.224137e-001 2.157391e-001 2.067691e-001 2.455321e-001 1.919180e-001 1.471472e-001 1.093783e-002
<GCONST> 8.787301e+001
<MIXTURE> 2 2.883739e-001
<MEAN> 39
 -4.835959e+000 -1.932284e+000 3.024267e-001 -9.262566e+000 -3.641822e+000 -1.160556e+001 -3.590611e+000 -3.176770e+000 -1.633805e+000 -6.984912e+000 -1.150742e+000 -7.445762e+000 1.614377e+001 8.223367e-003 3.370557e-001 2.405420e-001 2.020699e-001 1.808821e-001 1.372754e-001 -3.057685e-001 -1.974214e-001 1.629605e-002 8.067333e-002 5.398941e-002 -2.973164e-002 -8.500040e-002 5.491887e-002 -2.746677e-001 -2.836188e-001 -3.897546e-001 -1.723023e-001 4.334637e-001 4.835546e-001 -1.800930e-001 -1.311503e-001 6.344716e-002 -1.553344e-001 -2.664202e-002 1.507720e-001
<VARIANCE> 39
 1.539237e+001 1.244031e+001 2.236271e+001 2.315652e+001 2.552908e+001 3.189905e+001 3.799086e+001 4.932574e+001 2.887111e+001 4.021883e+001 2.823032e+001 2.365358e+001 1.736778e+000 3.686746e-001 7.555082e-001 8.923082e-001 1.146121e+000 1.109367e+000 1.577397e+000 2.293058e+000 1.302451e+000 1.373264e+000 1.381217e+000 9.352409e-001 9.388387e-001 1.142484e-001 8.278499e-002 1.443346e-001 2.213196e-001 2.632134e-001 1.742553e-001 3.209126e-001 3.347763e-001 3.128885e-001 2.626193e-001 3.642549e-001 2.136807e-001 1.802925e-001 1.623601e-002
<GCONST> 8.813763e+001
<MIXTURE> 3 2.302526e-001
<MEAN> 39
 -5.029668e+000 -3.000547e+000 -3.754763e-001 -9.864632e+000 -5.317364e+000 -1.207329e+001 -5.280179e+000 -6.369887e+000 -4.082110e+000 -1.099215e+001 -5.020110e+000 -1.101852e+001 1.619967e+001 -8.471934e-002 1.590921e-001 2.784153e-003 -2.184172e-001 -2.670910e-002 1.830381e-001 -4.461900e-001 -5.542127e-001 -2.903386e-001 -4.359095e-001 -2.868390e-001 -4.188928e-001 -2.361405e-002 3.503185e-003 -2.717000e-001 -2.469630e-001 -3.613454e-001 -1.525301e-001 4.040483e-001 4.323158e-001 -2.238097e-001 -1.577503e-001 5.894864e-002 -1.162142e-001 -1.764565e-002 1.425901e-001
<VARIANCE> 39
 1.596970e+001 1.000921e+001 1.928386e+001 2.808906e+001 2.661770e+001 3.710557e+001 3.410272e+001 7.119823e+001 2.691697e+001 3.898088e+001 3.817219e+001 2.272922e+001 1.546851e+000 3.873417e-001 9.073052e-001 1.037909e+000 1.109264e+000 1.005391e+000 2.049190e+000 2.237241e+000 1.368424e+000 1.433980e+000 1.659435e+000 1.005337e+000 9.207537e-001 1.100102e-001 9.558330e-002 1.932146e-001 2.655347e-001 2.593569e-001 2.129887e-001 4.797085e-001 3.446397e-001 3.191203e-001 3.067684e-001 3.784560e-001 2.006135e-001 1.874262e-001 1.613583e-002
<GCONST> 9.069688e+001
<STATE> 8
<NUMMIXES> 3
<MIXTURE> 1 2.411593e-001
<MEAN> 39
 -2.412681e+000 2.127031e+000 2.257915e+000 -1.307390e+001 1.131586e+000 -9.314539e+000 -1.397623e+000 -4.625117e+000 1.774853e+000 -4.333124e+000 -5.131558e-001 -3.715313e+000 1.685377e+001 3.427136e-001 7.203344e-001 4.726634e-001 1.979050e-001 8.114516e-001 -9.639282e-001 -7.779685e-002 2.238772e-001 1.262254e-001 6.658877e-002 4.931194e-002 1.569064e-001 -8.237036e-002 -7.810415e-002 -9.041757e-002 -2.291829e-002 1.518364e-001 -2.026556e-001 1.496131e-001 9.299438e-002 4.295229e-003 -6.775899e-002 5.226781e-002 2.734209e-002 -8.286458e-002 -2.570301e-002
<VARIANCE> 39
 2.280095e+001 1.384962e+001 1.989830e+001 1.767589e+001 2.269990e+001 7.810255e+001 2.770825e+001 2.138897e+001 4.322264e+001 5.305983e+001 4.014970e+001 2.647278e+001 2.111967e+000 2.839546e-001 4.868169e-001 7.409251e-001 7.652596e-001 1.707085e+000 2.444743e+000 1.029860e+000 8.451934e-001 9.513325e-001 1.126386e+000 1.009358e+000 8.852919e-001 1.614054e-002 3.240732e-002 5.081034e-002 1.171108e-001 1.138562e-001 1.706868e-001 3.659694e-001 1.807914e-001 1.315367e-001 1.355009e-001 1.955587e-001 1.551934e-001 8.611017e-002 3.501247e-003
<GCONST> 7.634915e+001
<MIXTURE> 2 4.877640e-001
<MEAN> 39
 -4.062247e+000 2.121206e+000 2.719830e+000 -1.307092e+001 -1.051510e+000 -1.211968e+001 -6.535358e+000 -1.003429e+001 -5.472233e+000 -1.107233e+001 -9.058689e+000 -1.384092e+001 1.720773e+001 -1.155442e-001 3.311067e-001 3.489229e-001 1.981739e-001 2.654068e-001 -2.592140e-001 -2.473686e-001 -1.157089e-001 -1.267165e-001 1.692396e-001 -5.491706e-002 -1.118345e-001 -1.120764e-001 -1.386587e-001 -1.903296e-001 -1.804323e-001 -8.945724e-003 -6.996185e-002 2.071746e-001 1.376788e-001 4.543899e-002 1.069229e-001 8.589771e-002 1.994503e-001 2.035386e-001 -5.632206e-002
<VARIANCE> 39
 1.441658e+001 8.670336e+000 1.174995e+001 1.498908e+001 1.936921e+001 2.768390e+001 2.597811e+001 3.716161e+001 3.261663e+001 5.314988e+001 5.046239e+001 3.813708e+001 1.284502e+000 3.013161e-001 6.180152e-001 5.637119e-001 4.837496e-001 8.232392e-001 1.567183e+000 8.553247e-001 1.177622e+000 1.207375e+000 1.072783e+000 1.222924e+000 9.730788e-001 3.588783e-002 3.102753e-002 7.609360e-002 8.291609e-002 9.069562e-002 1.090321e-001 1.807355e-001 1.334337e-001 1.745603e-001 1.885030e-001 1.986568e-001 1.859978e-001 1.390753e-001 3.995211e-003
<GCONST> 7.340396e+001
<MIXTURE> 3 2.710750e-001
<MEAN> 39
 -4.610195e+000 8.812350e-001 1.712158e+000 -1.360738e+001 3.502076e-002 -1.061504e+001 -2.783271e+000 -5.502481e+000 -1.721800e+000 -4.987245e+000 -2.980379e+000 -6.595675e+000 1.686875e+001 5.539101e-002 5.199469e-001 4.520447e-001 2.606837e-002 7.169630e-001 -6.043985e-001 -5.878937e-001 -8.994696e-002 8.823958e-002 -2.091827e-001 -2.999718e-001 -6.582224e-002 -1.094287e-001 -8.900464e-002 -1.511286e-001 -1.114241e-001 5.099447e-002 -2.514558e-001 1.274602e-001 9.625629e-002 -6.312693e-003 -1.142029e-001 -5.262762e-002 7.144881e-004 -1.226269e-001 -1.644863e-002
<VARIANCE> 39
 1.495029e+001 8.866415e+000 1.687067e+001 1.801506e+001 2.462614e+001 5.799079e+001 2.406249e+001 2.124064e+001 3.450890e+001 5.042570e+001 3.765792e+001 1.838647e+001 2.039134e+000 2.564073e-001 4.317229e-001 6.331353e-001 5.672472e-001 1.640865e+000 1.652351e+000 9.327400e-001 8.530809e-001 8.147871e-001 1.128745e+000 7.473447e-001 7.385510e-001 1.820839e-002 3.080814e-002 5.268958e-002 9.654396e-002 1.107706e-001 1.862815e-001 2.970709e-001 1.590514e-001 1.388247e-001 1.088704e-001 1.691525e-001 1.145784e-001 8.124626e-002 4.212524e-003
<GCONST> 7.154634e+001
<STATE> 9
<NUMMIXES> 3
<MIXTURE> 1 4.521964e-001
<MEAN> 39
 -1.898444e+000 2.854243e+000 4.548765e+000 -9.032784e+000 -2.050188e-002 -1.098192e+001 -3.641058e+000 -7.041358e+000 -1.688056e+000 -4.990276e+000 -4.756008e+000 -6.030806e+000 1.486294e+001 -1.151859e+000 -3.127836e-001 -2.901182e-001 7.683969e-001 -2.830364e-002 8.681203e-001 2.047036e-001 -8.510998e-002 6.518622e-002 9.850027e-002 2.603250e-001 1.269751e-001 -5.439296e-001 -3.459303e-001 -3.584883e-001 -3.593253e-001 -1.270507e-001 -2.215728e-001 2.373531e-001 5.382234e-002 6.315632e-002 -4.132184e-002 -8.179323e-002 1.541540e-001 -5.598718e-002 -6.172125e-002
<VARIANCE> 39
 3.096801e+001 2.604035e+001 3.373552e+001 4.510394e+001 3.915482e+001 6.633469e+001 3.868974e+001 4.599138e+001 6.117424e+001 5.722498e+001 4.989172e+001 4.586335e+001 9.116426e+000 1.612429e+000 1.335837e+000 1.326645e+000 1.712399e+000 1.495825e+000 2.951968e+000 1.522006e+000 1.441819e+000 1.922344e+000 1.791350e+000 1.438777e+000 1.628170e+000 1.907933e-001 2.296399e-001 2.162017e-001 2.665528e-001 3.309460e-001 2.882140e-001 4.885976e-001 2.545814e-001 2.515033e-001 3.008042e-001 2.709669e-001 2.112877e-001 1.820728e-001 2.710935e-002
<GCONST> 1.039278e+002
<MIXTURE> 2 2.883481e-001
<MEAN> 39
 -1.010036e+001 -1.361123e+000 6.209475e-001 -1.039470e+001 -6.859519e-001 -8.191463e+000 -3.548238e+000 -7.096966e+000 -2.275990e+000 -4.820046e+000 -2.203009e+000 -6.747894e+000 1.319208e+001 -1.338261e+000 -1.135033e+000 -1.323026e+000 -6.751390e-001 -6.094317e-001 2.430489e-001 2.322735e-001 5.776650e-001 5.903642e-001 5.466825e-001 8.518680e-001 7.776997e-001 -4.206440e-001 1.858677e-001 7.050331e-002 8.423949e-003 -9.810176e-002 -6.674002e-002 -2.157695e-001 -2.272091e-002 5.865236e-002 -3.101569e-002 3.117801e-002 -5.621835e-002 3.386064e-002 1.225851e-001
<VARIANCE> 39
 1.479965e+001 1.490864e+001 1.766116e+001 2.805691e+001 1.954479e+001 2.631236e+001 2.841329e+001 2.768464e+001 2.567573e+001 2.164237e+001 2.671863e+001 2.168181e+001 8.732043e+000 9.504420e-001 5.018730e-001 7.099409e-001 7.716530e-001 9.328864e-001 1.229640e+000 9.555726e-001 1.088098e+000 1.207858e+000 1.489354e+000 1.401813e+000 1.037485e+000 1.080705e-001 1.247545e-001 1.449111e-001 1.771540e-001 1.901089e-001 1.643151e-001 1.935938e-001 2.123757e-001 1.834040e-001 1.878182e-001 2.248518e-001 1.728730e-001 1.230026e-001 1.702852e-002
<GCONST> 8.342429e+001
<MIXTURE> 3 2.594555e-001
<MEAN> 39
 -9.777366e+000 -1.519862e+000 9.289984e-001 -1.094448e+001 -8.739377e-001 -8.519918e+000 -3.605598e+000 -7.528130e+000 -2.365541e+000 -5.541700e+000 -3.092858e+000 -8.079782e+000 1.335871e+001 -1.616904e+000 -1.507224e+000 -1.682927e+000 -1.021904e+000 -1.037172e+000 -6.924181e-002 -1.771342e-001 1.078878e-001 8.380697e-002 6.425495e-002 5.053183e-001 5.248740e-001 -5.506936e-001 1.626928e-001 7.196810e-002 -7.932886e-002 -1.762339e-001 -1.194650e-001 -2.851945e-001 -1.221478e-001 6.582320e-003 -1.954440e-002 -5.867160e-003 -8.091940e-002 2.804155e-002 1.160014e-001
<VARIANCE> 39
 1.325655e+001 1.464004e+001 1.941077e+001 2.670898e+001 1.953751e+001 3.059941e+001 2.705389e+001 3.129988e+001 2.891936e+001 2.577354e+001 3.108960e+001 1.869232e+001 6.293905e+000 9.630600e-001 4.866894e-001 5.460261e-001 7.031933e-001 8.534991e-001 1.475933e+000 1.156082e+000 1.367550e+000 1.481902e+000 1.873898e+000 1.678665e+000 1.137601e+000 1.132755e-001 1.046396e-001 1.365619e-001 1.558217e-001 1.716352e-001 1.415753e-001 1.975441e-001 1.626752e-001 1.964180e-001 2.012888e-001 2.064690e-001 1.764475e-001 1.362858e-001 1.319922e-002
<GCONST> 8.348795e+001
<TRANSP> 10
 0.000000e+000 1.000000e+000 0.000000e+000 0.000000e+000 0.000000e+000 0.000000e+000 0.000000e+000 0.000000e+000 0.000000e+000 0.000000e+000
 0.000000e+000 6.917126e-001 3.082874e-001 0.000000e+000 0.000000e+000 0.000000e+000 0.000000e+000 0.000000e+000 0.000000e+000 0.000000e+000
 0.000000e+000 0.000000e+000 5.622460e-001 4.377539e-001 0.000000e+000 0.000000e+000 0.000000e+000 0.000000e+000 0.000000e+000 0.000000e+000
 0.000000e+000 0.000000e+000 0.000000e+000 7.037671e-001 2.962329e-001 0.000000e+000 0.000000e+000 0.000000e+000 0.000000e+000 0.000000e+000
 0.000000e+000 0.000000e+000 0.000000e+000 0.000000e+000 7.773869e-001 2.226131e-001 0.000000e+000 0.000000e+000 0.000000e+000 0.000000e+000
 0.000000e+000 0.000000e+000 0.000000e+000 0.000000e+000 0.000000e+000 7.014166e-001 2.985834e-001 0.000000e+000 0.000000e+000 0.000000e+000
 0.000000e+000 0.000000e+000 0.000000e+000 0.000000e+000 0.000000e+000 0.000000e+000 8.766760e-001 1.233240e-001 0.000000e+000 0.000000e+000
 0.000000e+000 0.000000e+000 0.000000e+000 0.000000e+000 0.000000e+000 0.000000e+000 0.000000e+000 8.372114e-001 1.627886e-001 0.000000e+000
 0.000000e+000 0.000000e+000 0.000000e+000 0.000000e+000 0.000000e+000 0.000000e+000 0.000000e+000 0.000000e+000 7.785010e-001 2.214990e-001
 0.000000e+000 0.000000e+000 0.000000e+000 0.000000e+000 0.000000e+000 0.000000e+000 0.000000e+000 0.000000e+000 0.000000e+000 0.000000e+000
<ENDHMM>
~h "sil"
<BEGINHMM>
<NUMSTATES> 5
<STATE> 2
<NUMMIXES> 3
<MIXTURE> 1 2.185829e-001
<MEAN> 39
 -7.457739e+000 -1.515462e+000 -1.233543e+000 -4.419738e+000 -3.216823e+000 -5.188224e+000 -2.720155e+000 -6.421449e+000 -2.563233e+000 -4.320561e+000 -1.645260e+000 -3.949432e+000 7.652112e+000 5.378452e-002 3.277990e-001 1.048934e-001 2.527362e-001 1.123893e-001 1.505300e-001 1.889359e-001 3.334379e-001 2.151884e-001 5.827461e-002 1.243529e-001 1.536029e-001 -6.353481e-002 -9.839440e-003 -2.300926e-003 2.223112e-002 1.366630e-002 4.985092e-002 3.401169e-002 4.755481e-002 5.035926e-002 5.343788e-002 5.366904e-002 3.627485e-002 2.780601e-002 9.995558e-003
<VARIANCE> 39
 1.280141e+001 2.012797e+001 1.387893e+001 1.459315e+001 1.878778e+001 1.973598e+001 1.891949e+001 2.293445e+001 2.138123e+001 2.269642e+001 1.774569e+001 1.532158e+001 2.451939e+000 1.321951e-001 2.606865e-001 3.118093e-001 4.206276e-001 5.963844e-001 6.222043e-001 6.144291e-001 8.082439e-001 7.823416e-001 7.739812e-001 6.328744e-001 5.496902e-001 2.301175e-002 1.982094e-002 3.953736e-002 5.240791e-002 8.166692e-002 1.033341e-001 1.110686e-001 1.058358e-001 1.321676e-001 1.448940e-001 1.460389e-001 1.279074e-001 9.861308e-002 2.469025e-003
<GCONST> 5.922054e+001
<MIXTURE> 2 5.057321e-001
<MEAN> 39
 -1.151550e+001 -3.382305e+000 -4.136561e+000 -1.052010e+001 -4.456871e+000 -8.584985e+000 -3.308460e+000 -4.558831e+000 -8.088907e-001 -4.079426e+000 -1.062887e+000 -4.007198e+000 8.956340e+000 -1.396882e-001 -1.144647e-001 -1.476010e-001 -2.019636e-001 -1.807774e-001 -1.256291e-001 -7.829044e-002 -7.219137e-002 -2.871761e-002 2.148066e-002 2.405410e-002 8.239346e-003 -3.546494e-002 3.539841e-002 2.262558e-002 2.557527e-002 2.220360e-002 1.845312e-002 6.538251e-003 -1.470454e-002 -4.307182e-002 -2.594027e-002 -1.271896e-002 -1.856349e-002 -1.755692e-002 1.774738e-002
<VARIANCE> 39
 3.705236e+000 5.343492e+000 7.840501e+000 2.915279e+001 1.763104e+001 2.050720e+001 1.649986e+001 1.672284e+001 1.605096e+001 1.541079e+001 1.584598e+001 1.580359e+001 1.827427e+001 1.235406e-001 2.142043e-001 3.302024e-001 4.758246e-001 5.884904e-001 6.438788e-001 7.262183e-001 7.688766e-001 8.019447e-001 7.639503e-001 7.566538e-001 6.032579e-001 1.238385e-002 1.291048e-002 2.580973e-002 4.177658e-002 5.595593e-002 7.433897e-002 8.617727e-002 9.641802e-002 9.429070e-002 1.069521e-001 9.525135e-002 1.034007e-001 8.456344e-002 1.337047e-003
<GCONST> 5.308368e+001
<MIXTURE> 3 2.756819e-001
<MEAN> 39
 -8.861918e+000 -2.779539e+000 -2.313263e+000 -5.216696e+000 -4.331639e+000 -5.609332e+000 -3.581815e+000 -7.482443e+000 -3.297346e+000 -5.485159e+000 -2.463961e+000 -4.199213e+000 7.088792e+000 -8.065233e-002 1.242996e-001 -9.152761e-002 -1.120571e-002 -1.133062e-001 -1.095778e-001 -1.581770e-002 1.101784e-001 -7.568090e-002 -1.409912e-001 -8.702888e-002 -3.551063e-002 -9.385837e-002 -4.276351e-002 -4.982352e-002 -4.990329e-002 -7.112841e-002 -2.446340e-002 -4.709646e-002 -1.676649e-002 -5.737967e-003 1.587872e-002 1.816284e-002 -7.166207e-003 -1.344557e-002 -2.176887e-003
<VARIANCE> 39
 9.453099e+000 1.720156e+001 1.215643e+001 1.410510e+001 1.952002e+001 2.112204e+001 2.210779e+001 2.399596e+001 2.260575e+001 2.377474e+001 1.828779e+001 1.506463e+001 1.885005e+000 1.352181e-001 2.320081e-001 2.817218e-001 3.896944e-001 5.405804e-001 6.549960e-001 6.566736e-001 8.074203e-001 8.170417e-001 7.557486e-001 6.731240e-001 5.684136e-001 2.366479e-002 1.959871e-002 3.559998e-002 4.934251e-002 7.512453e-002 9.672177e-002 1.156348e-001 1.143275e-001 1.401590e-001 1.457298e-001 1.389233e-001 1.240620e-001 1.074592e-001 2.472191e-003
<GCONST> 5.850517e+001
<STATE> 3
~s "silst"
<STATE> 4
<NUMMIXES> 3
<MIXTURE> 1 5.167230e-001
<MEAN> 39
 -1.217706e+001 -3.430645e+000 -3.993162e+000 -8.954247e+000 -5.181614e+000 -8.210609e+000 -3.164455e+000 -4.817560e+000 -1.025180e+000 -4.144475e+000 -1.292180e+000 -4.416018e+000 8.648446e+000 4.051030e-002 1.414306e-001 1.174921e-001 2.046894e-001 9.266172e-002 9.050107e-002 3.007204e-001 2.005515e-001 5.068031e-002 9.976023e-002 1.194772e-001 5.476613e-002 1.397094e-001 9.946931e-002 3.796048e-003 2.222821e-002 -2.422170e-002 4.481434e-002 4.039882e-002 -1.314928e-003 -8.666053e-002 -5.912837e-002 -6.449760e-002 -2.781999e-002 -1.515455e-002 8.998422e-002
<VARIANCE> 39
 1.080812e+001 1.106647e+001 1.363660e+001 3.512631e+001 1.761046e+001 2.373306e+001 1.870080e+001 1.980367e+001 1.733343e+001 1.795429e+001 1.698679e+001 1.599798e+001 1.229892e+001 6.577582e-001 7.549564e-001 7.407156e-001 1.031912e+000 1.044303e+000 1.020860e+000 8.856502e-001 1.083661e+000 9.192926e-001 8.451845e-001 8.550983e-001 6.840512e-001 1.971175e-001 1.278378e-001 1.306857e-001 1.399549e-001 1.680423e-001 1.615312e-001 1.661732e-001 1.826519e-001 1.983086e-001 1.686961e-001 1.564869e-001 1.496654e-001 1.268401e-001 3.782658e-002
<GCONST> 7.942823e+001
<MIXTURE> 2 2.591156e-001
<MEAN> 39
 -1.114464e+001 -3.584414e+000 -3.520678e+000 -9.305924e+000 -4.328220e+000 -7.092385e+000 -3.217298e+000 -6.268607e+000 -1.706279e+000 -4.583861e+000 -1.487142e+000 -4.516719e+000 9.235221e+000 1.770474e-002 8.502593e-002 6.738548e-002 1.845174e-002 1.022518e-001 9.481387e-002 4.160336e-002 -9.104148e-003 9.391751e-002 9.564494e-002 3.504118e-002 2.546692e-002 1.111265e-001 -1.538479e-003 5.455784e-002 2.305082e-002 3.479168e-002 4.521391e-003 -4.953857e-003 5.748739e-002 8.873744e-002 7.380888e-002 6.355770e-002 5.375694e-002 3.004913e-002 1.894040e-002
<VARIANCE> 39
 1.151886e+001 1.306095e+001 1.164086e+001 3.554527e+001 2.199722e+001 2.815308e+001 1.987426e+001 2.287363e+001 1.885253e+001 1.860346e+001 1.656828e+001 1.628441e+001 1.231590e+001 4.662342e-001 4.516057e-001 5.233946e-001 7.116650e-001 7.363110e-001 8.782653e-001 8.554424e-001 9.159368e-001 8.464679e-001 8.396748e-001 7.719355e-001 7.132998e-001 1.311702e-001 6.215304e-002 6.341385e-002 7.268181e-002 9.246837e-002 1.158122e-001 1.126886e-001 1.172978e-001 1.275270e-001 1.178401e-001 1.036556e-001 9.380981e-002 9.631006e-002 1.528091e-002
<GCONST> 7.066480e+001
<MIXTURE> 3 2.241582e-001
<MEAN> 39
 -1.184145e+001 -4.576369e+000 -4.231478e+000 -1.074630e+001 -5.239417e+000 -8.645802e+000 -4.508316e+000 -7.243340e+000 -2.470438e+000 -5.811419e+000 -2.194969e+000 -5.426306e+000 9.684130e+000 -1.608721e-001 -1.270092e-001 -1.427993e-001 -2.177271e-001 -1.127548e-001 -1.652995e-001 -3.112951e-001 -3.741372e-001 -1.885840e-001 -2.693257e-001 -2.012250e-001 -2.257692e-001 1.257977e-001 -3.923742e-002 2.814504e-002 -1.795829e-002 -2.827664e-003 -4.837987e-002 -5.493287e-002 -1.709038e-002 2.546020e-002 7.504352e-003 3.028564e-003 -2.042009e-002 -1.489045e-002 -5.000642e-003
<VARIANCE> 39
 1.013070e+001 1.180306e+001 1.118726e+001 3.652116e+001 2.120037e+001 2.970708e+001 2.172164e+001 2.183633e+001 1.938277e+001 1.889332e+001 1.628572e+001 1.597603e+001 1.188149e+001 4.628377e-001 4.582393e-001 5.114976e-001 7.077570e-001 7.082344e-001 8.908086e-001 8.539354e-001 9.009413e-001 8.715416e-001 8.203559e-001 7.442648e-001 7.214377e-001 1.472742e-001 6.144585e-002 6.208082e-002 7.307183e-002 9.531091e-002 1.148262e-001 1.075184e-001 1.153021e-001 1.188142e-001 1.196022e-001 1.047929e-001 9.617418e-002 9.501510e-002 1.649068e-002
<GCONST> 7.045789e+001
<TRANSP> 5
 0.000000e+000 1.000000e+000 0.000000e+000 0.000000e+000 0.000000e+000
 0.000000e+000 8.263388e-001 1.736612e-001 0.000000e+000 0.000000e+000
 0.000000e+000 0.000000e+000 9.477748e-001 5.222512e-002 0.000000e+000
 0.000000e+000 0.000000e+000 0.000000e+000 6.850551e-001 3.149449e-001
 0.000000e+000 0.000000e+000 0.000000e+000 0.000000e+000 0.000000e+000
<ENDHMM>
~h "six"
<BEGINHMM>
<NUMSTATES> 10
<STATE> 2
<NUMMIXES> 3
<MIXTURE> 1 2.505122e-001
<MEAN> 39
 -1.577532e+001 -4.008124e+000 -6.211699e+000 -1.281220e+001 -5.816207e+000 -8.722798e+000 -6.142061e+000 -5.821230e+000 -1.525509e+000 -3.574395e+000 -2.325641e+000 -5.067084e+000 1.376886e+001 6.228541e-001 4.727617e-001 7.195799e-001 6.593408e-002 3.626402e-001 2.288160e-001 3.857009e-001 1.722769e-001 4.285040e-001 2.318638e-001 -2.037617e-002 3.709359e-001 2.286507e-001 4.794276e-001 3.156837e-001 4.160962e-001 -8.017238e-002 -1.832048e-001 -2.450184e-002 2.936831e-001 5.912140e-002 1.600809e-001 2.783759e-001 4.246216e-002 8.090156e-002 1.944513e-001
<VARIANCE> 39
 7.925444e+000 1.079182e+001 1.045329e+001 2.921321e+001 1.534593e+001 2.304405e+001 1.679543e+001 1.708557e+001 1.465221e+001 1.611239e+001 1.923148e+001 1.310577e+001 3.265521e+000 2.638907e-001 3.493923e-001 3.855846e-001 5.393489e-001 5.631846e-001 7.595369e-001 7.673399e-001 5.883415e-001 9.093814e-001 8.007926e-001 5.820922e-001 7.195396e-001 4.022660e-002 4.163092e-002 6.883116e-002 8.008364e-002 1.025882e-001 1.067154e-001 1.553091e-001 1.256066e-001 1.452261e-001 1.599307e-001 1.697969e-001 1.438164e-001 1.443945e-001 7.453653e-003
<GCONST> 6.441277e+001
<MIXTURE> 2 5.084438e-001
<MEAN> 39
 -1.821845e+001 -3.897157e+000 -6.606073e+000 -7.429728e+000 -6.275494e+000 -5.195796e+000 -2.053408e+000 -5.751659e+000 7.514145e-001 -3.125330e+000 -7.388513e-001 -3.346936e+000 1.116217e+001 -2.208558e-001 2.865899e-002 -2.580559e-001 8.310329e-002 -1.060205e-001 7.518790e-003 -1.864053e-002 -2.341129e-002 -2.793049e-003 -1.470245e-001 -8.293370e-002 5.054901e-002 1.628450e-001 2.250605e-001 4.531093e-002 1.227328e-001 -7.733249e-002 5.324816e-002 -4.668337e-002 -5.325227e-002 -1.737340e-002 -4.018235e-002 -5.824011e-002 -4.229533e-002 -6.721285e-002 2.066477e-002
<VARIANCE> 39
 1.321355e+001 2.293059e+001 1.790231e+001 1.995291e+001 1.684771e+001 2.358562e+001 1.846393e+001 2.958940e+001 2.009606e+001 2.686377e+001 2.598217e+001 1.886537e+001 4.407727e+000 5.657486e-001 5.710900e-001 5.204566e-001 7.008581e-001 6.161229e-001 7.806001e-001 1.010113e+000 1.143467e+000 6.287917e-001 8.902350e-001 9.202468e-001 6.682097e-001 6.862384e-002 7.842913e-002 1.145499e-001 8.203402e-002 1.423271e-001 1.173551e-001 1.707784e-001 1.676387e-001 2.305450e-001 1.330241e-001 1.342181e-001 1.400456e-001 1.294292e-001 1.359216e-002
<GCONST> 7.439499e+001
<MIXTURE> 3 2.410439e-001
<MEAN> 39
 -1.601778e+001 -4.327351e+000 -6.852609e+000 -1.274898e+001 -5.901596e+000 -8.629603e+000 -6.263612e+000 -6.489004e+000 -2.633445e+000 -3.833539e+000 -2.287169e+000 -5.908641e+000 1.318165e+001 2.353174e-001 1.533229e-001 2.168356e-001 -1.230506e-001 6.257409e-002 -6.746782e-002 6.045754e-002 -1.229945e-001 1.166860e-001 -1.428143e-001 -8.606358e-002 3.876742e-002 1.201462e-001 3.649550e-001 2.259212e-001 2.926687e-001 -1.666001e-001 -9.936637e-002 -8.668354e-002 1.878516e-001 -8.888663e-003 1.735325e-001 -6.407696e-002 -5.549340e-002 -4.994386e-004 1.454886e-001
<VARIANCE> 39
 7.816467e+000 1.003485e+001 1.208210e+001 2.338949e+001 1.445107e+001 2.493023e+001 1.766539e+001 1.985340e+001 1.606949e+001 2.165049e+001 1.860491e+001 1.546256e+001 3.492710e+000 1.847916e-001 2.770588e-001 3.452933e-001 4.806591e-001 5.450442e-001 7.942710e-001 7.446982e-001 6.667584e-001 8.222954e-001 7.643445e-001 6.016879e-001 7.129821e-001 3.290306e-002 5.136602e-002 5.575150e-002 7.818499e-002 1.092991e-001 1.000369e-001 1.267079e-001 1.257205e-001 1.522192e-001 1.347413e-001 2.808353e-001 1.409965e-001 1.426825e-001 7.637482e-003
<GCONST> 6.416718e+001
<STATE> 3
<NUMMIXES> 3
<MIXTURE> 1 2.741505e-001
<MEAN> 39
 -1.432395e+001 -1.883947e+000 -4.000534e+000 -1.246729e+001 -4.408712e+000 -7.462994e+000 -3.108775e+000 -5.618417e+000 1.019016e-001 -2.099852e+000 -2.844372e+000 -2.644792e+000 1.469057e+001 1.981387e+000 9.709493e-001 1.724514e+000 -6.534380e-001 -1.002050e+000 -2.972644e-001 1.006729e+000 1.099692e-001 5.501127e-001 1.293046e+000 1.183433e-001 3.670525e-001 8.470411e-001 2.345008e-001 2.886835e-002 1.497175e-001 -3.155050e-001 -4.677444e-001 -8.402593e-003 -1.084296e-002 1.078479e-001 9.540100e-002 2.058264e-001 1.070110e-001 -6.219340e-002 1.677257e-001
<VARIANCE> 39
 1.685957e+001 1.337730e+001 1.918259e+001 2.658069e+001 1.768114e+001 3.446560e+001 2.438931e+001 1.716302e+001 2.833403e+001 3.132932e+001 2.013488e+001 2.460159e+001 3.403466e+000 6.310359e-001 6.996069e-001 4.503951e-001 1.327195e+000 9.891433e-001 1.163309e+000 9.741508e-001 1.124218e+000 1.342455e+000 9.990370e-001 9.814051e-001 1.039949e+000 1.103355e-001 1.483605e-001 1.035785e-001 1.444474e-001 1.206844e-001 1.367405e-001 2.181454e-001 2.882276e-001 1.611687e-001 1.685988e-001 2.329888e-001 1.439478e-001 1.849204e-001 1.385949e-002
<GCONST> 8.105824e+001
<MIXTURE> 2 4.112939e-001
<MEAN> 39
 -1.413817e+001 -4.446558e+000 -5.635036e+000 -1.329463e+001 -2.992761e+000 -9.765418e+000 -4.363881e+000 -4.780802e+000 8.604425e-001 -6.741189e+000 1.937918e+000 -6.255261e+000 1.327047e+001 1.830884e+000 1.367139e+000 6.573833e-001 -1.468310e+000 -5.937654e-001 -3.447244e-001 1.397051e-001 -3.324192e-001 6.409744e-001 -1.331638e+000 -8.534943e-001 -1.137712e+000 9.001712e-001 2.908067e-001 1.586049e-001 1.714354e-001 -5.017232e-001 -9.163567e-002 -3.336390e-002 2.003459e-001 -2.662091e-002 1.366399e-001 -1.215074e-001 -3.842903e-001 -3.423425e-001 1.861671e-001
<VARIANCE> 39
 1.130247e+001 1.283265e+001 1.191758e+001 2.410341e+001 1.272981e+001 1.963069e+001 1.505868e+001 1.604215e+001 1.821460e+001 3.275482e+001 1.818218e+001 1.574598e+001 3.418616e+000 7.953370e-001 6.587082e-001 4.506312e-001 1.067972e+000 6.523144e-001 6.646764e-001 7.978553e-001 9.070452e-001 7.785438e-001 1.348629e+000 1.269935e+000 1.428946e+000 1.087635e-001 1.273202e-001 9.192111e-002 8.465347e-002 1.120547e-001 1.065138e-001 1.333065e-001 1.254252e-001 1.534640e-001 1.182987e-001 2.649713e-001 2.469292e-001 2.087874e-001 1.287387e-002
<GCONST> 7.439846e+001
<MIXTURE> 3 3.145553e-001
<MEAN> 39
 -1.463928e+001 -2.139020e+000 -5.150400e+000 -1.260048e+001 -5.733257e+000 -7.673074e+000 -3.998703e+000 -5.805389e+000 -5.738068e-001 -1.337559e+000 -3.552875e+000 -2.926869e+000 1.402110e+001 1.974131e+000 7.966532e-001 1.628370e+000 -6.534253e-001 -1.095515e+000 -7.383771e-001 8.629889e-001 -3.062518e-001 -1.961961e-002 1.021411e+000 -2.069834e-001 -1.548151e-001 8.247949e-001 2.243468e-001 2.302835e-002 1.682273e-001 -3.227457e-001 -5.435472e-001 -1.390786e-001 -1.887643e-002 -4.541073e-002 -7.117867e-002 3.292445e-002 -5.758401e-002 -2.836466e-001 1.774014e-001
<VARIANCE> 39
 1.377341e+001 1.300380e+001 2.120571e+001 2.381472e+001 1.883600e+001 3.309067e+001 2.496105e+001 1.938441e+001 2.639982e+001 2.659152e+001 2.260939e+001 2.304457e+001 2.511778e+000 5.475332e-001 5.351004e-001 5.263184e-001 1.228785e+000 9.853155e-001 1.043549e+000 8.827979e-001 1.190305e+000 1.187073e+000 8.424188e-001 8.331643e-001 1.022269e+000 9.289620e-002 1.235760e-001 9.620737e-002 1.659964e-001 1.258896e-001 1.320450e-001 1.847466e-001 2.819685e-001 1.692934e-001 1.787676e-001 2.434751e-001 1.467623e-001 2.017922e-001 1.021503e-002
<GCONST> 7.902096e+001
<STATE> 4
<NUMMIXES> 3
<MIXTURE> 1 2.403532e-001
<MEAN> 39
 -7.241471e+000 4.033336e-001 -1.451184e+000 -2.264122e+001 -5.329018e+000 -7.147580e+000 2.003040e-001 -3.672938e+000 4.331098e+000 -5.337766e+000 -1.873385e+000 -5.732934e+000 1.824680e+001 -5.282339e-002 1.983777e-001 1.365157e-001 -3.658962e-001 6.752247e-001 2.818057e-001 -1.063837e-001 7.923009e-001 -1.005756e-001 2.115382e-001 4.537580e-001 4.085625e-001 -8.231761e-002 -2.228653e-002 3.476783e-002 1.178082e-001 2.482395e-001 6.880178e-002 -1.342788e-001 -2.153369e-001 -1.809986e-002 -2.054754e-001 8.972161e-002 8.185392e-002 1.839353e-002 -1.218824e-001
<VARIANCE> 39
 6.684063e+000 9.811678e+000 1.230121e+001 1.221580e+001 4.982787e+001 1.613110e+001 1.925778e+001 1.623234e+001 2.006541e+001 2.997604e+001 3.660932e+001 3.813554e+001 1.936156e+000 2.350986e-001 2.700030e-001 4.345151e-001 4.522737e-001 5.366789e-001 9.508895e-001 1.486170e+000 8.389814e-001 1.240952e+000 1.089298e+000 1.090027e+000 8.984213e-001 5.852900e-002 6.305187e-002 5.351359e-002 8.211889e-002 1.133309e-001 1.304940e-001 9.398816e-002 1.272405e-001 1.137819e-001 1.523316e-001 1.197508e-001 1.400911e-001 1.787405e-001 1.086886e-002
<GCONST> 6.899686e+001
<MIXTURE> 2 4.707029e-001
<MEAN> 39
 -5.920497e+000 4.957581e-001 2.436228e-001 -1.910987e+001 -1.131329e+001 -1.154941e+001 -1.563994e+000 -6.929579e+000 5.349240e-001 -3.297237e+000 -5.280432e+000 -8.666297e+000 1.819548e+001 8.717208e-001 3.993095e-001 7.035240e-001 -1.572269e+000 -8.206366e-001 1.004441e-001 1.133365e-001 2.701944e-001 3.980065e-001 -6.933617e-002 -5.429198e-001 -7.180964e-001 7.031330e-001 -5.163336e-001 -2.146626e-001 -2.515525e-001 1.633683e-001 4.052708e-001 2.873430e-001 -3.407728e-001 2.028806e-001 -5.316561e-002 -1.041212e-001 2.577394e-001 2.465942e-001 -2.384945e-001
<VARIANCE> 39
 7.113320e+000 1.015169e+001 1.154055e+001 3.061185e+001 2.768400e+001 1.514215e+001 2.331127e+001 2.496395e+001 3.247926e+001 9.677090e+001 2.797678e+001 4.968397e+001 1.608535e+000 1.183721e+000 8.771667e-001 1.032995e+000 1.169736e+000 1.857279e+000 1.683960e+000 2.213241e+000 1.197761e+000 1.333715e+000 2.158716e+000 1.746661e+000 2.017557e+000 1.891882e-001 7.098760e-002 8.325444e-002 1.018621e-001 2.308826e-001 1.786397e-001 2.087998e-001 2.669142e-001 2.208849e-001 2.310808e-001 5.146558e-001 2.239176e-001 2.930556e-001 1.830904e-002
<GCONST> 8.913392e+001
<MIXTURE> 3 2.889430e-001
<MEAN> 39
 -8.073709e+000 -4.286202e-001 -2.758589e+000 -2.362000e+001 -4.244078e+000 -7.559256e+000 3.603451e-001 -3.611219e+000 3.630330e+000 -6.916206e+000 -2.262021e+000 -7.128737e+000 1.810634e+001 -2.347609e-001 5.781037e-002 4.976181e-002 -3.568370e-001 4.762045e-001 -1.637106e-001 -4.158627e-001 4.478404e-001 -5.442869e-001 1.195801e-001 -3.763150e-002 1.166796e-001 -1.367531e-001 -2.478612e-002 8.170020e-003 9.706892e-002 2.553790e-001 -2.168063e-002 -2.366236e-001 -2.497398e-001 -9.790363e-002 -2.423303e-001 4.401106e-002 -3.510124e-002 -5.579334e-002 -1.236080e-001
<VARIANCE> 39
 7.422316e+000 9.848795e+000 1.216658e+001 1.034705e+001 3.881982e+001 1.894817e+001 1.730442e+001 1.601550e+001 1.979199e+001 3.452027e+001 3.623294e+001 5.311433e+001 1.528275e+000 1.940775e-001 2.414007e-001 4.276467e-001 4.924200e-001 6.229987e-001 1.116239e+000 1.292038e+000 9.001851e-001 1.115389e+000 1.056359e+000 1.142557e+000 1.138557e+000 5.592449e-002 6.048020e-002 5.432021e-002 7.604019e-002 1.050432e-001 1.387718e-001 1.340097e-001 1.344598e-001 1.477106e-001 1.856281e-001 1.477487e-001 1.574976e-001 2.059562e-001 9.707116e-003
<GCONST> 7.014391e+001
<STATE> 5
<NUMMIXES> 3
<MIXTURE> 1 4.950087e-001
<MEAN> 39
 -6.359400e+000 9.943379e-001 3.569589e+000 -2.176782e+001 -1.211388e+001 -7.047666e+000 -7.850121e+000 -2.503412e+000 4.217466e-001 -1.811562e+000 -2.095552e+000 -5.891106e+000 1.826248e+001 2.352210e-001 6.216132e-001 1.227681e+000 6.495408e-001 5.967683e-001 5.991960e-001 -1.574682e+000 -2.775651e-003 -8.267989e-002 -6.276957e-001 5.812916e-001 3.849663e-001 -6.700752e-001 -1.902968e-001 -1.841169e-001 -3.422090e-001 7.670950e-001 3.933553e-001 -1.732225e-001 5.014030e-001 -2.468596e-001 -1.631755e-002 -6.244981e-002 4.289443e-002 7.749690e-002 -3.362099e-001
<VARIANCE> 39
 1.377282e+001 2.742219e+001 2.584976e+001 3.821064e+001 8.088039e+001 4.832648e+001 5.493156e+001 4.034270e+001 2.215001e+001 3.329105e+001 3.738251e+001 3.673174e+001 2.510137e+000 8.513707e-001 8.407566e-001 9.638351e-001 2.652663e+000 2.812873e+000 2.123614e+000 2.262710e+000 2.413966e+000 2.370489e+000 3.171111e+000 1.622467e+000 1.907062e+000 3.348928e-001 1.863575e-001 3.028706e-001 3.407363e-001 2.975811e-001 7.142086e-001 5.192528e-001 5.871314e-001 4.644307e-001 3.272849e-001 3.751094e-001 3.249000e-001 3.025939e-001 1.972027e-002
<GCONST> 1.055739e+002
<MIXTURE> 2 2.477381e-001
<MEAN> 39
 -7.307792e+000 2.801986e+000 3.499645e+000 -2.235099e+001 -5.206244e+000 -1.041250e+001 -8.455482e+000 -2.191287e+000 -1.235669e+000 -5.040765e+000 -2.702088e+000 -7.553467e+000 1.682438e+001 -3.660876e-001 -2.949635e-001 -8.653723e-002 1.876960e+000 1.000673e+000 -2.497519e-001 -4.368601e-002 -2.176303e-001 -3.245237e-001 1.841607e-001 7.252711e-001 2.928039e-001 -8.889745e-001 -2.589237e-001 -4.728885e-001 -5.052377e-001 3.725130e-001 -1.272816e-001 8.954643e-002 5.223577e-001 -2.470936e-001 1.860000e-001 1.271945e-001 1.703129e-002 1.562383e-001 -1.350024e-001
<VARIANCE> 39
 7.917098e+000 1.236790e+001 2.322013e+001 2.277537e+001 3.394334e+001 4.432373e+001 6.020029e+001 2.963971e+001 2.728140e+001 3.182854e+001 3.983866e+001 3.309552e+001 3.226976e+000 3.564623e-001 6.060311e-001 9.364918e-001 1.478653e+000 2.610890e+000 1.342634e+000 2.013936e+000 1.000638e+000 1.324488e+000 2.040746e+000 1.213127e+000 1.765171e+000 2.345131e-001 6.305845e-002 7.592688e-002 1.495237e-001 1.898180e-001 1.978909e-001 3.428248e-001 4.165256e-001 2.180178e-001 2.936619e-001 2.880383e-001 3.661960e-001 2.118887e-001 1.429754e-002
<GCONST> 9.024399e+001
<MIXTURE> 3 2.572527e-001
<MEAN> 39
 -7.600265e+000 2.565858e+000 3.487442e+000 -2.132646e+001 -4.743023e+000 -1.018937e+001 -7.951813e+000 -2.950746e+000 -1.178587e+000 -5.405696e+000 -2.779736e+000 -7.460002e+000 1.654814e+001 -5.968357e-001 -6.125119e-001 -4.403117e-001 1.626629e+000 1.043599e+000 -5.208788e-001 -1.758095e-001 -4.266489e-001 -7.507850e-001 -5.649854e-002 4.578370e-001 9.901036e-002 -8.961427e-001 -2.529645e-001 -5.082351e-001 -5.784900e-001 2.100276e-001 -2.133354e-001 -1.588481e-002 4.346274e-001 -2.620414e-001 1.128591e-001 8.130866e-002 3.861960e-003 7.484296e-002 -9.722788e-002
<VARIANCE> 39
 7.114621e+000 1.245556e+001 2.171239e+001 2.274520e+001 3.460305e+001 4.396683e+001 5.385249e+001 2.865070e+001 2.756704e+001 2.754189e+001 4.040710e+001 3.367446e+001 3.429872e+000 3.583255e-001 5.455416e-001 9.103129e-001 1.342539e+000 2.575614e+000 1.621559e+000 1.939978e+000 1.102935e+000 1.056565e+000 1.861982e+000 1.091499e+000 1.806469e+000 1.741845e-001 4.504937e-002 7.048128e-002 1.196125e-001 1.670554e-001 1.691959e-001 3.111631e-001 3.946262e-001 2.288681e-001 2.476340e-001 2.907783e-001 3.310356e-001 1.976998e-001 1.425439e-002
<GCONST> 8.785743e+001
<STATE> 6
<NUMMIXES> 3
<MIXTURE> 1 2.650217e-001
<MEAN> 39
 -6.903294e+000 9.091719e-001 1.884207e+000 -8.501200e+000 -7.350513e+000 -6.514619e+000 -5.113419e+000 -3.960393e+000 8.425128e-001 -2.527843e+000 3.067481e-001 -2.230108e+000 9.988028e+000 -1.073773e+000 -1.944920e+000 -1.063504e+000 1.919186e+000 -3.136480e-001 3.557698e-001 1.394913e+000 -3.978266e-001 4.419043e-001 2.262758e-001 4.256255e-001 5.572504e-001 -7.056597e-001 -2.653548e-001 -3.644801e-001 -8.641046e-002 -5.519924e-001 -5.696033e-002 7.874481e-002 2.130360e-001 2.695707e-002 -5.364450e-003 -7.606698e-002 -1.038391e-001 -2.566996e-001 3.885417e-001
<VARIANCE> 39
 2.956059e+001 5.533397e+001 4.945812e+001 2.969453e+001 2.742183e+001 3.310245e+001 3.137370e+001 3.028894e+001 2.854678e+001 3.926580e+001 3.166122e+001 1.726671e+001 1.026920e+001 1.630685e+000 2.093910e+000 2.421672e+000 3.536976e+000 3.106095e+000 2.878484e+000 2.743211e+000 1.968285e+000 1.790471e+000 1.580597e+000 1.702923e+000 1.661922e+000 1.293577e+000 3.000042e-001 6.630198e-001 6.242152e-001 2.739535e-001 3.622425e-001 3.662923e-001 3.853717e-001 2.641669e-001 3.068875e-001 3.351929e-001 2.401433e-001 2.133588e-001 7.883348e-002
<GCONST> 1.098110e+002
<MIXTURE> 2 4.494116e-001
<MEAN> 39
 -1.018315e+001 -1.048167e+000 -1.526220e-001 -1.419662e+001 -2.267195e+000 -9.486755e+000 -3.576119e+000 -4.660139e+000 -1.596952e+000 -4.650733e+000 -1.413274e+000 -6.323377e+000 1.331890e+001 -8.473418e-001 -1.409342e+000 -1.273171e+000 8.450497e-001 5.817444e-001 -6.647753e-001 6.870961e-001 -4.128751e-001 -2.682668e-001 3.905673e-002 2.050202e-001 -1.760346e-002 -5.660641e-001 -3.797990e-002 -1.787947e-001 -1.363547e-001 -3.151563e-001 -5.500804e-001 2.835817e-002 -2.038500e-003 4.160937e-002 1.703730e-001 1.120474e-001 -6.241833e-002 7.363529e-003 1.784871e-001
<VARIANCE> 39
 4.981953e+000 7.215166e+000 1.165713e+001 2.189609e+001 1.597877e+001 1.833053e+001 2.086524e+001 1.768178e+001 2.232608e+001 1.840291e+001 1.773971e+001 1.549609e+001 1.328633e+001 3.496854e-001 1.040598e+000 1.111110e+000 9.128681e-001 2.308417e+000 1.818410e+000 2.282270e+000 1.437769e+000 1.274012e+000 1.526601e+000 1.371761e+000 1.467782e+000 2.697629e-001 5.463715e-002 1.015559e-001 1.424755e-001 1.583549e-001 2.670170e-001 1.833935e-001 2.644486e-001 1.728473e-001 2.047353e-001 2.314856e-001 1.543411e-001 1.675654e-001 2.322830e-002
<GCONST> 8.273985e+001
<MIXTURE> 3 2.855664e-001
<MEAN> 39
 -8.071739e+000 -1.001881e+000 3.532159e-001 -7.998319e+000 -8.193274e+000 -7.708650e+000 -4.658231e+000 -4.869863e+000 2.854667e-002 -2.825255e+000 -6.508614e-002 -2.758109e+000 9.203064e+000 -1.369431e+000 -2.550648e+000 -1.194597e+000 1.509143e+000 -6.403341e-001 3.138819e-001 1.349484e+000 -5.617118e-001 5.312367e-003 -2.995528e-001 1.448059e-001 2.820227e-001 -4.336631e-001 -2.405086e-001 -1.258642e-001 1.051193e-001 -7.475871e-001 -2.999666e-002 7.406595e-002 3.285462e-003 -4.369693e-002 -6.115174e-002 -1.779437e-001 -1.734926e-001 -3.107741e-001 4.507055e-001
<VARIANCE> 39
 2.751985e+001 6.208878e+001 4.009061e+001 2.245512e+001 2.986431e+001 3.212351e+001 2.662860e+001 2.342809e+001 3.025121e+001 3.511699e+001 2.255911e+001 1.596259e+001 8.667141e+000 1.695888e+000 2.327962e+000 2.016180e+000 2.831954e+000 2.460037e+000 3.104606e+000 2.441191e+000 1.594209e+000 1.824989e+000 1.835658e+000 1.435919e+000 1.659256e+000 1.069213e+000 2.955399e-001 6.390433e-001 5.104043e-001 3.029604e-001 4.221536e-001 3.805871e-001 4.010967e-001 2.183488e-001 3.167799e-001 3.416704e-001 1.888103e-001 1.834895e-001 7.743375e-002
<GCONST> 1.069496e+002
<STATE> 7
<NUMMIXES> 3
<MIXTURE> 1 5.125497e-001
<MEAN> 39
 -1.438027e+001 -9.141268e+000 2.257434e-002 -9.890494e+000 -1.145047e+001 -5.366760e+000 -2.605103e-001 -7.243597e+000 7.558936e-003 -3.170109e+000 -8.824709e-001 -4.798262e+000 1.320827e+001 -1.530814e+000 4.278297e-001 -9.738465e-002 -2.939227e-001 -3.350926e-001 1.161270e+000 1.293065e-002 -5.097588e-001 3.215455e-001 1.981269e-001 -3.536231e-001 -2.327783e-001 3.340280e-001 1.241606e-001 6.523047e-001 -1.631044e-001 -5.878337e-002 4.540095e-001 -7.701298e-002 -3.646816e-001 1.715446e-001 1.698891e-002 -4.035307e-002 -3.851081e-002 5.737824e-002 -1.684963e-001
<VARIANCE> 39
 2.838323e+001 3.313523e+001 1.800079e+001 3.312001e+001 2.207393e+001 2.853601e+001 2.300728e+001 2.725274e+001 2.904815e+001 2.133159e+001 1.883183e+001 1.647859e+001 2.046720e+000 1.106650e+000 2.184520e+000 1.291849e+000 1.144892e+000 1.700959e+000 1.180945e+000 1.307721e+000 1.098542e+000 1.315333e+000 1.166894e+000 9.287167e-001 8.070955e-001 3.107489e-001 2.475701e-001 4.166981e-001 2.223054e-001 2.221597e-001 1.918367e-001 2.976163e-001 2.190284e-001 2.413310e-001 2.391684e-001 2.083033e-001 1.459190e-001 1.441559e-001 4.312219e-002
<GCONST> 9.090163e+001
<MIXTURE> 2 2.449953e-001
<MEAN> 39
 -1.257350e+001 -5.171285e+000 -4.150683e+000 -1.665211e+001 -3.306684e+000 -1.182242e+001 -3.955402e+000 -4.903367e+000 -9.499583e-001 -3.859200e+000 -2.570849e-001 -6.399125e+000 1.402670e+001 -7.002023e-001 -9.721378e-001 -5.615965e-001 4.609466e-001 -9.833371e-001 1.462269e-001 3.097567e-001 -1.720410e-001 2.032227e-001 4.866580e-001 9.905401e-002 3.289528e-001 -1.055238e-001 9.647343e-002 3.466004e-001 3.137885e-001 -8.427858e-002 -3.355508e-001 3.403389e-001 -1.579505e-001 1.922957e-002 7.366842e-002 1.016346e-001 -1.178927e-001 3.604347e-002 1.559746e-001
<VARIANCE> 39
 2.446801e+000 7.317001e+000 7.507476e+000 9.614120e+000 1.497896e+001 1.757023e+001 1.586720e+001 2.231602e+001 1.788648e+001 1.508662e+001 1.481160e+001 1.393356e+001 2.688485e+000 1.513831e-001 6.534446e-001 8.646289e-001 6.598222e-001 1.505484e+000 1.307921e+000 1.093686e+000 1.068315e+000 1.144343e+000 9.111496e-001 1.025382e+000 7.507766e-001 8.534306e-002 2.550548e-002 1.120804e-001 1.377559e-001 1.734901e-001 2.808731e-001 2.265373e-001 2.110738e-001 1.721411e-001 1.805960e-001 1.716786e-001 1.589924e-001 1.241550e-001 1.002287e-002
<GCONST> 6.981528e+001
<MIXTURE> 3 2.424544e-001
<MEAN> 39
 -1.264078e+001 -5.137641e+000 -4.332255e+000 -1.706714e+001 -4.299419e+000 -1.222613e+001 -4.261051e+000 -5.855429e+000 -1.926270e+000 -4.309329e+000 -1.123316e+000 -7.054040e+000 1.399767e+001 -8.749308e-001 -1.124501e+000 -1.049265e+000 2.115473e-001 -8.159148e-001 -2.231812e-001 4.451352e-002 -5.530367e-001 -1.230508e-001 2.815102e-001 1.014141e-001 1.809243e-001 -2.524607e-001 1.134392e-001 2.957250e-001 2.495756e-001 -1.630146e-001 -3.470676e-001 2.210597e-001 -2.269754e-001 -1.602988e-002 5.946762e-002 -3.638014e-002 -1.564338e-001 2.144510e-003 1.759961e-001
<VARIANCE> 39
 2.796714e+000 5.685727e+000 6.403455e+000 1.057170e+001 1.685267e+001 1.531233e+001 1.431068e+001 1.914219e+001 1.764454e+001 1.650875e+001 1.719853e+001 1.425454e+001 2.230260e+000 1.880320e-001 6.141220e-001 7.607840e-001 6.480393e-001 1.435006e+000 1.255081e+000 1.355080e+000 9.942432e-001 1.137778e+000 1.004748e+000 9.335866e-001 8.331882e-001 7.306334e-002 3.016404e-002 9.299289e-002 1.268383e-001 1.424622e-001 3.261234e-001 2.397230e-001 2.310128e-001 1.847722e-001 1.877276e-001 2.401913e-001 1.734348e-001 1.661349e-001 1.126040e-002
<GCONST> 7.036476e+001
<STATE> 8
<NUMMIXES> 3
<MIXTURE> 1 4.329858e-001
<MEAN> 39
 -1.520235e+001 -3.659616e+000 -3.943759e+000 -7.636529e+000 -6.888419e+000 -4.606845e+000 -2.935399e+000 -6.476767e+000 -1.556661e+000 -2.315126e+000 -1.012046e+000 -5.762413e+000 1.138501e+001 5.974108e-001 2.604084e-001 5.026130e-002 2.518207e-001 4.216540e-001 -8.929221e-002 -5.526663e-002 2.206396e-001 -2.184535e-001 -2.401728e-002 -1.063094e-001 1.643191e-002 -1.978382e-001 9.074707e-002 -3.264767e-002 1.970989e-002 -8.422947e-002 9.458009e-002 -1.050352e-001 4.498731e-002 5.604002e-002 1.955219e-002 -1.196273e-001 1.177465e-002 1.176885e-002 -2.043890e-002
<VARIANCE> 39
 2.685948e+001 2.007228e+001 1.906066e+001 3.103379e+001 3.863359e+001 2.927582e+001 2.968346e+001 2.950894e+001 3.239704e+001 3.854761e+001 3.174452e+001 1.968479e+001 6.042132e+000 1.006711e+000 9.452333e-001 9.801332e-001 1.121235e+000 1.648980e+000 1.131224e+000 1.435822e+000 1.113223e+000 1.248349e+000 1.454322e+000 1.354870e+000 8.250644e-001 1.191099e-001 1.527721e-001 1.536380e-001 1.310386e-001 1.661808e-001 2.914473e-001 2.124950e-001 2.768860e-001 2.138185e-001 2.075098e-001 2.415385e-001 2.254082e-001 1.371083e-001 1.249411e-002
<GCONST> 8.919952e+001
<MIXTURE> 2 2.963346e-001
<MEAN> 39
 -1.724130e+001 -4.998843e+000 -5.267032e+000 -1.154948e+001 -5.901556e+000 -5.098341e+000 -3.975973e+000 -5.431959e+000 2.009805e+000 -4.492319e+000 -1.591933e+000 -4.181191e+000 1.209770e+001 -2.875448e-002 8.232607e-002 -4.655831e-001 1.448635e-001 3.229567e-001 -1.367669e-001 -1.987621e-001 1.994659e-001 1.980782e-002 -2.441183e-002 3.452466e-002 5.210613e-002 -1.028585e-001 2.333332e-001 -1.153381e-003 1.806102e-001 4.183026e-002 -3.978132e-002 -1.084216e-001 1.046785e-001 3.523076e-002 -9.469328e-002 7.012351e-002 5.596372e-002 -2.065186e-002 2.267212e-002
<VARIANCE> 39
 1.126796e+001 1.374060e+001 1.434676e+001 2.552592e+001 2.469385e+001 3.360473e+001 1.835730e+001 1.904476e+001 2.453461e+001 2.258966e+001 1.904691e+001 2.146818e+001 5.357466e+000 4.548228e-001 5.609235e-001 6.349744e-001 6.706551e-001 7.884465e-001 8.645540e-001 8.421972e-001 9.177955e-001 1.012883e+000 7.688191e-001 7.623003e-001 6.646990e-001 3.741331e-002 7.226081e-002 1.177891e-001 8.969775e-002 1.135051e-001 1.626594e-001 2.078647e-001 1.470896e-001 1.459604e-001 1.550675e-001 1.363214e-001 1.544514e-001 1.280957e-001 8.788122e-003
<GCONST> 7.303873e+001
<MIXTURE> 3 2.706783e-001
<MEAN> 39
 -1.712045e+001 -4.748998e+000 -5.072381e+000 -1.239559e+001 -6.635343e+000 -5.731699e+000 -4.660965e+000 -6.352297e+000 1.429627e+000 -4.787717e+000 -2.025779e+000 -4.910905e+000 1.230784e+001 -1.700652e-001 9.924909e-002 -5.515546e-001 -2.544376e-002 1.951757e-001 -3.372885e-001 -4.814287e-001 -1.957710e-001 -2.946667e-001 -2.567065e-001 -1.829240e-001 -2.298784e-001 -1.705901e-001 2.209056e-001 -9.437880e-002 8.230731e-002 -3.055672e-002 -3.492258e-002 -1.560618e-001 9.033287e-003 1.201835e-002 -1.234869e-001 7.853280e-003 5.304487e-002 -5.000889e-002 5.940413e-003
<VARIANCE> 39
 9.536801e+000 1.253094e+001 1.559405e+001 2.606454e+001 2.598561e+001 3.243085e+001 1.873682e+001 2.020098e+001 2.549674e+001 2.315816e+001 1.838151e+001 1.829083e+001 5.078335e+000 5.517304e-001 6.616393e-001 6.651964e-001 6.977016e-001 8.675243e-001 7.542452e-001 8.275159e-001 8.023362e-001 9.364175e-001 6.544133e-001 7.514999e-001 6.431178e-001 3.619535e-002 7.625173e-002 1.056497e-001 9.775430e-002 1.104233e-001 1.793592e-001 2.122608e-001 1.541899e-001 1.443596e-001 1.450534e-001 1.503110e-001 1.434508e-001 1.149491e-001 9.832824e-003
<GCONST> 7.284366e+001
<STATE> 9
<NUMMIXES> 3
<MIXTURE> 1 4.256492e-001
<MEAN> 39
 -1.381598e+001 -4.091469e+000 -4.428358e+000 -1.215838e+001 -5.911215e+000 -8.010303e+000 -3.862523e+000 -4.877710e+000 -1.112849e+000 -3.591607e+000 -2.240130e+000 -5.524579e+000 1.259539e+001 3.444043e-001 9.450949e-002 3.020312e-002 -1.975346e-001 2.434265e-001 -6.151609e-001 1.034199e-001 2.834861e-001 -1.689489e-001 5.409307e-003 2.835276e-001 6.366654e-002 -8.311237e-002 1.878063e-002 -2.555862e-002 5.042129e-002 2.771378e-003 -5.295356e-002 -1.198501e-002 2.886046e-003 -6.746983e-002 -3.581704e-002 -2.111193e-002 1.214515e-001 6.288350e-003 2.978082e-002
<VARIANCE> 39
 1.818209e+001 1.674928e+001 1.363752e+001 3.840384e+001 2.488948e+001 3.116590e+001 2.031317e+001 2.123387e+001 2.379311e+001 2.328716e+001 1.842247e+001 1.659143e+001 9.193405e+000 4.409519e-001 6.760496e-001 4.947647e-001 1.068172e+000 9.769242e-001 1.387363e+000 1.247108e+000 8.292755e-001 9.138647e-001 1.013247e+000 8.521781e-001 5.517436e-001 7.360284e-002 1.356504e-001 1.062451e-001 7.489980e-002 2.213477e-001 1.546171e-001 2.086157e-001 1.765750e-001 1.566425e-001 1.568394e-001 1.623680e-001 1.160430e-001 1.037415e-001 1.272843e-002
<GCONST> 7.786974e+001
<MIXTURE> 2 3.302712e-001
<MEAN> 39
 -1.363385e+001 -4.685256e+000 -4.921660e+000 -1.715393e+001 -5.952024e+000 -1.194767e+001 -5.837643e+000 -6.136090e+000 -1.369105e+000 -3.210772e+000 -1.148410e+000 -6.605845e+000 1.461243e+001 1.802490e-002 -8.191247e-002 -1.738090e-002 6.862053e-002 1.334260e-001 -1.393073e-001 -1.454700e-001 -1.728101e-001 -2.468190e-001 -1.278980e-001 1.250829e-001 9.377204e-002 -6.456648e-003 1.244969e-001 8.504413e-002 1.790276e-001 6.764245e-002 8.333053e-002 1.094062e-001 1.572995e-001 1.103386e-001 4.163044e-002 1.047673e-002 2.537883e-002 7.426666e-002 4.719703e-002
<VARIANCE> 39
 3.272520e+000 6.522005e+000 6.675581e+000 1.350647e+001 1.182526e+001 1.934282e+001 1.716784e+001 1.466231e+001 1.604454e+001 1.967797e+001 1.738596e+001 1.246820e+001 2.377940e+000 1.659126e-001 4.299330e-001 3.401884e-001 8.415270e-001 7.423269e-001 7.999327e-001 6.953699e-001 7.591026e-001 9.692918e-001 7.624590e-001 6.608913e-001 5.602516e-001 2.103606e-002 2.577816e-002 7.018933e-002 6.297129e-002 1.774630e-001 1.031215e-001 1.794746e-001 1.769923e-001 1.465781e-001 1.843346e-001 1.675653e-001 1.434770e-001 9.295500e-002 4.316162e-003
<GCONST> 6.030135e+001
<MIXTURE> 3 2.440797e-001
<MEAN> 39
 -1.380886e+001 -4.783313e+000 -5.095660e+000 -1.750242e+001 -6.739736e+000 -1.207698e+001 -6.034008e+000 -6.790399e+000 -2.010765e+000 -3.375269e+000 -1.642444e+000 -6.871716e+000 1.436777e+001 -7.668939e-002 -7.093017e-002 -2.689134e-001 -2.602144e-001 2.886831e-002 -2.471855e-001 -4.289820e-001 -4.279744e-001 -5.627401e-001 -4.510773e-001 -7.593772e-003 -1.036779e-001 -6.222096e-002 7.073557e-002 2.109750e-002 1.315127e-001 7.628442e-003 5.331085e-002 5.098039e-002 5.524648e-002 4.585841e-002 1.936162e-002 -5.883541e-002 -4.689367e-003 -9.764973e-004 2.766986e-002
<VARIANCE> 39
