~o
<STREAMINFO> 1 39
<VECSIZE> 39<NULLD><MFCC_E_D_A><DIAGC>
~s "silst"
<NUMMIXES> 3
<MIXTURE> 1 1.421090e-001
<MEAN> 39
 -1.235149e+001 -3.977999e+000 -3.913184e+000 -1.482698e+001 -4.010463e+000 -1.083172e+001 -4.596706e+000 -5.516352e+000 -1.613360e+000 -4.136938e+000 -1.076413e+000 -5.467377e+000 1.333498e+001 -1.369181e-001 -4.721864e-002 -1.804319e-001 -2.336440e-001 -1.368084e-001 -3.712478e-002 -3.388025e-003 -8.772432e-002 -1.204921e-001 -2.637951e-002 2.984771e-002 4.054897e-002 6.619287e-002 1.598118e-001 9.806413e-002 7.497036e-002 7.655767e-002 3.894529e-002 7.040201e-003 4.141477e-002 -2.354005e-002 -6.807815e-003 -2.849001e-002 -2.008307e-002 -6.787230e-002 6.753562e-002
<VARIANCE> 39
 1.708536e+001 1.345209e+001 1.500764e+001 3.453149e+001 2.213917e+001 2.492863e+001 2.107134e+001 2.205687e+001 2.085328e+001 2.527939e+001 2.068095e+001 2.014796e+001 1.236522e+001 3.231755e-001 5.073380e-001 6.240323e-001 7.382929e-001 9.000704e-001 9.052956e-001 9.104636e-001 1.026677e+000 9.180844e-001 9.785558e-001 7.990124e-001 7.375649e-001 4.497229e-002 9.269807e-002 1.073515e-001 1.397619e-001 1.496835e-001 1.607959e-001 1.601255e-001 1.712722e-001 1.860571e-001 1.727189e-001 1.718264e-001 1.598289e-001 1.458312e-001 2.001574e-002
<GCONST> 7.727134e+001
<MIXTURE> 2 4.467968e-001
<MEAN> 39
 -1.292530e+001 -5.194636e+000 -4.518709e+000 -1.689564e+001 -2.745357e+000 -1.244417e+001 -5.377962e+000 -6.341073e+000 -1.823836e+000 -4.724814e+000 -1.383871e+000 -6.760245e+000 1.434329e+001 -1.356756e-003 1.378121e-002 2.436782e-002 4.079204e-002 4.609783e-002 1.134422e-001 1.270425e-001 1.584106e-001 9.939782e-002 9.473680e-002 2.988769e-002 3.290690e-002 -5.888677e-003 1.339855e-002 3.665210e-002 -9.510575e-004 -6.676459e-002 -8.193667e-002 -5.457975e-002 3.356220e-002 2.168994e-002 2.214626e-002 3.624023e-002 5.293116e-002 2.906588e-002 1.505958e-002
<VARIANCE> 39
 2.539183e+000 4.610578e+000 5.603768e+000 8.603709e+000 1.129727e+001 1.264314e+001 1.571432e+001 1.671227e+001 1.591357e+001 1.663535e+001 1.461144e+001 1.263377e+001 2.538864e+000 7.335178e-002 1.580498e-001 2.741463e-001 3.628382e-001 5.054274e-001 5.465163e-001 6.352937e-001 6.480521e-001 7.183879e-001 6.768107e-001 6.872773e-001 5.893491e-001 8.057803e-003 1.236235e-002 2.766408e-002 4.686109e-002 6.311703e-002 8.969802e-002 9.783126e-002 1.287988e-001 1.236403e-001 1.293313e-001 1.291817e-001 1.134567e-001 1.004175e-001 9.827272e-004
<GCONST> 4.671722e+001
<MIXTURE> 3 4.110679e-001
<MEAN> 39
 -1.281355e+001 -4.503305e+000 -4.761468e+000 -1.851290e+001 -4.740985e+000 -1.389183e+001 -5.117919e+000 -6.162176e+000 -1.498910e+000 -4.309095e+000 -5.137064e-001 -6.314342e+000 1.467471e+001 -2.105980e-002 -4.440790e-002 -7.363079e-002 8.147106e-004 -7.899254e-002 -1.206159e-001 -1.571050e-001 -1.461153e-001 -9.281532e-002 -1.304902e-001 -4.613975e-002 -4.900726e-002 -1.983585e-002 6.906151e-003 -1.604112e-002 3.445260e-002 1.057405e-001 1.108514e-001 9.686154e-002 -1.503195e-002 -6.154238e-003 -1.798924e-002 -2.991118e-002 -5.981832e-002 -2.368811e-002 -7.518409e-003
<VARIANCE> 39
 3.298605e+000 4.134780e+000 6.421764e+000 8.586328e+000 1.035624e+001 1.161927e+001 1.411182e+001 1.529909e+001 1.486705e+001 1.687878e+001 1.763615e+001 1.349439e+001 2.464635e+000 7.618041e-002 1.396080e-001 2.413717e-001 4.332821e-001 4.910853e-001 5.553924e-001 6.259592e-001 5.863212e-001 6.408030e-001 7.722098e-001 7.549556e-001 5.985647e-001 6.226744e-003 1.227384e-002 2.415200e-002 4.888635e-002 6.569421e-002 7.961175e-002 8.919524e-002 1.106555e-001 1.042955e-001 1.207590e-001 1.276254e-001 1.366310e-001 1.057446e-001 8.326836e-004
<GCONST> 4.591013e+001
~h "four"
<BEGINHMM>
<NUMSTATES> 10
<STATE> 2
<NUMMIXES> 3
<MIXTURE> 1 2.594421e-001
<MEAN> 39
 -1.419360e+001 -8.186122e+000 -3.468232e+000 -9.410500e+000 -3.167033e+000 -1.059863e+001 -2.788321e+000 -4.900949e+000 3.925188e-001 -4.062132e+000 5.834905e-002 -4.102263e+000 1.242036e+001 3.541561e+000 9.660750e-001 -1.297554e+000 -6.652200e-001 7.241011e-001 6.397513e-001 -4.120950e-001 -3.667710e-001 -4.306530e-002 3.660654e-001 2.564193e-001 -2.376537e-001 9.860572e-001 9.024461e-001 4.393210e-001 -6.746280e-001 -5.876479e-001 4.970659e-002 1.804462e-001 -1.573504e-001 -1.779038e-001 -2.963639e-001 1.896432e-002 6.522212e-002 -1.700172e-001 2.450894e-001
<VARIANCE> 39
 8.336736e+000 8.810748e+000 9.218281e+000 2.074394e+001 1.350077e+001 1.761975e+001 1.940702e+001 1.643232e+001 1.642832e+001 1.454045e+001 1.430769e+001 1.027144e+001 1.837692e+000 1.437366e+000 6.634976e-001 1.114619e+000 9.144040e-001 6.994645e-001 9.060577e-001 8.481511e-001 8.675252e-001 1.158414e+000 8.660459e-001 1.267429e+000 8.004561e-001 1.370043e-001 1.510475e-001 1.042589e-001 1.019312e-001 1.169306e-001 1.747207e-001 1.887152e-001 1.821094e-001 1.506343e-001 1.572428e-001 2.014350e-001 2.404500e-001 1.577188e-001 9.355716e-003
<GCONST> 7.379218e+001
<MIXTURE> 2 3.510501e-001
<MEAN> 39
 -1.738943e+001 -7.262608e+000 -2.570736e+000 -8.432637e+000 -4.956410e+000 -9.320427e+000 -1.225454e+000 -5.605199e+000 -1.329770e+000 -5.373895e+000 4.193145e-001 -3.779640e+000 1.101551e+001 4.987429e-001 -2.321719e-001 -1.433410e-001 5.829412e-002 1.744714e-001 -2.167755e-001 -4.142478e-002 -4.422724e-002 -4.397981e-003 -1.077718e-001 -2.723118e-001 -1.983425e-001 3.914840e-001 7.083663e-001 1.530682e-001 -1.577825e-001 1.333765e-002 1.338260e-001 4.671465e-002 -9.734491e-002 -3.334047e-003 7.094054e-003 3.287715e-002 -1.168345e-001 -1.050063e-001 1.345826e-001
<VARIANCE> 39
 1.100738e+001 8.769918e+000 8.941641e+000 1.130093e+001 1.290152e+001 1.301571e+001 1.568564e+001 1.819670e+001 1.852044e+001 1.549793e+001 1.736113e+001 1.607759e+001 2.779958e+000 1.583875e+000 4.339911e-001 5.063521e-001 3.807183e-001 5.211185e-001 5.996817e-001 5.639716e-001 8.856930e-001 8.384575e-001 6.956609e-001 8.580939e-001 5.261233e-001 2.032677e-001 2.389251e-001 9.281084e-002 1.693777e-001 7.385959e-002 1.015429e-001 1.495840e-001 1.150722e-001 1.777669e-001 1.503807e-001 1.323926e-001 1.918738e-001 1.236464e-001 2.536271e-002
<GCONST> 6.954900e+001
<MIXTURE> 3 3.895074e-001
<MEAN> 39
 -1.296151e+001 -5.380978e+000 -4.366376e+000 -1.668928e+001 -4.655807e+000 -1.286919e+001 -4.450052e+000 -6.291330e+000 -1.693458e+000 -4.749214e+000 -7.557964e-001 -5.861250e+000 1.460415e+001 1.121531e+000 3.042900e-001 -2.334477e-001 2.182994e-001 5.535159e-001 4.240528e-001 1.518847e-001 2.989456e-002 1.276294e-001 1.232289e-001 5.567128e-003 1.460325e-002 3.716324e-001 5.686984e-001 1.948438e-001 -3.371441e-001 -1.679637e-001 2.549501e-001 1.703200e-001 -8.356072e-002 -1.568826e-002 -1.564296e-002 9.604436e-002 -1.195914e-002 -1.205363e-001 1.903607e-001
<VARIANCE> 39
 2.886797e+000 4.624138e+000 5.017317e+000 1.080032e+001 1.213647e+001 1.232997e+001 1.383032e+001 1.227570e+001 1.621003e+001 1.619690e+001 1.646663e+001 1.339691e+001 2.057189e+000 5.821217e-001 3.901290e-001 5.227374e-001 6.763433e-001 7.217988e-001 5.742894e-001 6.776515e-001 6.485783e-001 6.389414e-001 7.821956e-001 8.217589e-001 8.302197e-001 7.102954e-002 4.334698e-002 5.613099e-002 8.126128e-002 1.114889e-001 1.205113e-001 1.297667e-001 1.362038e-001 1.523543e-001 1.531126e-001 1.542193e-001 1.596215e-001 1.466891e-001 5.074669e-003
<GCONST> 6.060704e+001
<STATE> 3
<NUMMIXES> 3
<MIXTURE> 1 2.722102e-001
<MEAN> 39
 -7.315814e+000 -2.974984e+000 -4.299198e+000 -1.476422e+001 -8.235475e-001 -1.012545e+001 -4.758387e+000 -6.332257e+000 -2.020883e+000 -5.183875e+000 -2.504135e+000 -7.834703e+000 1.626942e+001 2.718152e+000 6.793584e-001 -1.541436e+000 -6.317114e-001 1.465713e+000 1.027195e+000 -1.899713e-001 1.068395e-001 3.090796e-001 6.996269e-001 1.929697e-001 -4.830723e-001 8.761024e-001 2.987344e-002 -2.008900e-002 -2.996105e-001 -2.371341e-001 2.055429e-002 1.401910e-001 1.132200e-001 9.296089e-002 3.329469e-002 2.510091e-001 2.951612e-001 1.685332e-001 2.528408e-002
<VARIANCE> 39
 1.401014e+001 7.804327e+000 1.150317e+001 2.139784e+001 8.675282e+000 1.234201e+001 1.252227e+001 1.463842e+001 1.369660e+001 1.154306e+001 1.309849e+001 1.105834e+001 2.646452e+000 9.698186e-001 4.459573e-001 4.653738e-001 6.389297e-001 7.401011e-001 6.876913e-001 6.607902e-001 8.226794e-001 7.525309e-001 9.453629e-001 1.211863e+000 1.547330e+000 6.562588e-002 5.132858e-002 3.451810e-002 5.456322e-002 8.637522e-002 8.638522e-002 9.131266e-002 1.416329e-001 1.022507e-001 1.204126e-001 8.198518e-002 8.807293e-002 1.427464e-001 5.110971e-003
<GCONST> 6.196165e+001
<MIXTURE> 2 4.340038e-001
<MEAN> 39
 3.582514e-001 -4.152783e+000 -7.727767e+000 -1.057401e+001 -1.744868e+000 -8.160062e+000 -3.147179e+000 -6.920549e+000 -2.056215e+000 -4.962039e+000 -1.485145e+000 -5.784064e+000 1.599803e+001 4.495526e+000 8.433017e-001 -2.981518e+000 -1.408489e+000 7.341774e-001 4.088042e-002 -4.919402e-001 -1.791036e-001 -2.968888e-001 1.451471e-001 -4.778567e-001 -7.672029e-001 1.370269e+000 -3.922166e-001 2.778524e-002 -2.495835e-001 -1.925362e-001 -1.021344e-001 -5.388412e-002 5.514137e-002 8.841353e-002 3.891595e-002 3.348302e-002 2.585207e-002 -1.160229e-002 -7.488798e-002
<VARIANCE> 39
 5.330147e+001 1.139707e+001 3.179815e+001 1.998574e+001 1.655301e+001 2.642066e+001 1.929685e+001 2.171279e+001 2.141842e+001 1.982950e+001 2.839044e+001 1.357212e+001 4.308712e+000 9.891237e-001 1.661376e+000 7.592052e-001 2.151277e+000 1.868142e+000 2.157696e+000 1.728059e+000 1.811635e+000 2.019562e+000 2.490623e+000 3.705454e+000 1.846840e+000 9.019702e-002 2.860431e-001 7.414763e-002 1.583669e-001 1.211056e-001 1.246773e-001 1.837410e-001 1.399899e-001 1.722302e-001 2.466171e-001 2.593364e-001 1.934577e-001 1.620710e-001 2.456332e-002
<GCONST> 8.955401e+001
<MIXTURE> 3 2.937860e-001
<MEAN> 39
 -5.756801e+000 -1.320841e+000 -4.517784e+000 -1.693040e+001 -4.776611e-001 -8.766521e+000 -2.648353e+000 -5.453531e+000 -5.839366e-001 -1.791235e+000 1.752766e+000 -3.870875e+000 1.700392e+001 2.479054e+000 1.301369e+000 -1.282778e+000 -1.416955e+000 7.121384e-002 9.004447e-001 -3.455062e-001 -9.078034e-001 -7.927946e-001 7.673495e-002 4.137280e-001 -1.195035e-001 8.160690e-001 -6.938212e-002 -3.082736e-002 -2.100474e-001 -2.654830e-001 -3.124409e-001 -1.702276e-001 -1.248782e-001 -1.754808e-001 -2.906607e-001 -2.483194e-001 -1.485275e-001 -1.100587e-001 1.578849e-003
<VARIANCE> 39
 1.338504e+001 7.219489e+000 1.010317e+001 2.005107e+001 1.181544e+001 1.105071e+001 1.432534e+001 1.630129e+001 1.379220e+001 1.075964e+001 9.959229e+000 1.432675e+001 2.365405e+000 9.844964e-001 4.637907e-001 7.744325e-001 6.168420e-001 7.536620e-001 8.542652e-001 1.359459e+000 8.103092e-001 6.801561e-001 1.111633e+000 9.289075e-001 8.977004e-001 9.341968e-002 4.324960e-002 3.741429e-002 5.232470e-002 1.037809e-001 8.658362e-002 8.496909e-002 1.152180e-001 9.216311e-002 1.073036e-001 1.160625e-001 8.021905e-002 1.148870e-001 4.522801e-003
<GCONST> 6.243710e+001
<STATE> 4
<NUMMIXES> 3
<MIXTURE> 1 3.694196e-001
<MEAN> 39
 2.162296e+000 -2.489551e+000 -1.522607e+001 -1.748532e+001 2.822143e+000 -6.674304e+000 -3.970467e+000 -6.294880e+000 9.609410e-001 8.110335e-001 9.012491e-001 -7.323003e+000 1.892707e+001 7.468690e-001 5.753912e-001 -7.756534e-001 -8.567420e-001 6.664468e-002 8.776156e-001 5.038056e-001 -2.896107e-001 -3.462882e-001 6.061659e-001 1.015531e+000 6.310646e-001 2.745096e-001 -5.020519e-001 -1.178329e-001 4.627956e-001 1.061864e-001 -3.281895e-001 -1.969507e-001 1.162677e-001 6.692308e-002 -2.119588e-001 -3.547167e-001 -5.366334e-002 1.976359e-001 -1.631635e-001
<VARIANCE> 39
 2.326812e+001 6.473225e+000 2.093651e+001 2.088264e+001 1.440819e+001 1.080115e+001 1.758297e+001 1.594175e+001 1.431396e+001 1.429551e+001 2.835938e+001 3.539001e+001 1.745729e+000 8.764831e-001 3.258355e-001 9.858214e-001 5.408091e-001 8.872828e-001 6.931108e-001 6.010230e-001 1.028995e+000 8.386420e-001 9.246528e-001 7.010272e-001 1.060853e+000 1.105638e-001 1.261256e-001 5.415554e-002 7.993647e-002 8.517728e-002 6.812374e-002 8.951230e-002 1.258209e-001 1.169292e-001 1.126452e-001 9.215938e-002 1.327538e-001 1.943148e-001 9.926168e-003
<GCONST> 6.851130e+001
<MIXTURE> 2 3.854643e-001
<MEAN> 39
 3.549637e+000 1.194088e+000 -1.364524e+001 -2.186959e+001 -3.130835e+000 -7.692559e+000 -6.104023e+000 -9.046668e+000 -5.578106e+000 -4.711176e+000 3.014496e+000 -5.706200e+000 1.860800e+001 1.462917e+000 8.551198e-001 -1.291870e+000 -1.529022e+000 -6.013232e-001 7.252348e-002 -2.488978e-001 -3.563972e-001 -8.771122e-001 -6.267076e-001 1.991614e-002 -1.272085e-001 5.396363e-001 -7.735867e-001 -4.114628e-001 4.701021e-001 4.682707e-001 -5.067302e-002 -1.243707e-001 1.272452e-001 2.143582e-001 3.035765e-001 2.205754e-002 -2.277145e-001 6.589963e-002 -2.340699e-001
<VARIANCE> 39
 2.486629e+001 9.281649e+000 2.159760e+001 1.248105e+001 2.424286e+001 2.717566e+001 2.366666e+001 1.980353e+001 2.307417e+001 2.875527e+001 3.069807e+001 1.829957e+001 1.175654e+000 1.423408e+000 7.207295e-001 1.190508e+000 9.941569e-001 9.678993e-001 1.034956e+000 1.179933e+000 6.994013e-001 1.091555e+000 1.195074e+000 1.276835e+000 1.060981e+000 1.394678e-001 1.211016e-001 1.259097e-001 1.297518e-001 1.296451e-001 1.378268e-001 1.618491e-001 1.982936e-001 1.344962e-001 1.635080e-001 2.533754e-001 2.003886e-001 1.522271e-001 7.654501e-003
<GCONST> 7.970797e+001
<MIXTURE> 3 2.451158e-001
<MEAN> 39
 3.458025e+000 -7.010918e+000 -1.564659e+001 -1.281251e+001 3.064557e+000 -1.246380e+001 -5.156747e+000 -3.765610e+000 -2.048139e-001 -4.664739e+000 -8.693839e+000 -1.206912e+001 1.861992e+001 1.546072e+000 2.533681e-001 -1.773660e+000 -4.461986e-001 1.022689e+000 7.716605e-001 -9.669949e-002 6.989371e-002 6.315175e-001 9.114178e-001 -3.424898e-001 -7.733625e-001 5.577558e-001 -7.069290e-001 1.336668e-001 4.950857e-001 -9.065320e-002 -3.490855e-001 2.902828e-001 2.118608e-001 -1.851472e-001 -1.581864e-001 5.486453e-002 5.355815e-001 3.746621e-001 -2.327969e-001
<VARIANCE> 39
 2.029094e+001 1.131960e+001 1.428615e+001 2.223393e+001 1.666740e+001 1.577052e+001 1.970733e+001 3.162297e+001 2.814582e+001 3.465559e+001 2.688456e+001 2.790178e+001 1.129666e+000 1.450636e+000 7.321309e-001 1.187286e+000 8.369985e-001 7.042172e-001 1.008561e+000 1.298672e+000 1.839137e+000 1.105706e+000 1.296146e+000 1.649588e+000 1.165433e+000 1.624752e-001 1.725918e-001 1.124561e-001 1.325659e-001 1.734049e-001 1.166766e-001 1.839412e-001 1.668699e-001 3.489046e-001 2.296915e-001 2.570377e-001 1.782107e-001 1.840290e-001 1.226709e-002
<GCONST> 8.323738e+001
<STATE> 5
<NUMMIXES> 3
<MIXTURE> 1 2.495064e-001
<MEAN> 39
 5.236088e+000 -1.039099e+000 -1.664167e+001 -1.687922e+001 2.301692e+000 -5.133797e+000 -1.844836e+000 -7.980927e+000 -1.485941e+000 -6.180910e-002 5.714717e-001 -5.889231e+000 1.857001e+001 -6.906123e-002 2.193865e-002 1.363463e-001 -1.517065e-001 4.418883e-002 1.917782e-001 1.135419e-001 8.189561e-002 -1.995487e-001 5.605179e-002 -2.528238e-002 2.099854e-001 -4.878065e-002 -6.715834e-002 -2.024181e-001 9.908698e-002 1.167628e-001 1.043436e-001 -1.991710e-001 -1.569641e-001 1.732126e-001 1.307269e-001 -9.326342e-002 -2.259683e-001 -1.170293e-001 -3.293785e-003
<VARIANCE> 39
 2.848367e+001 7.757258e+000 2.537759e+001 3.179670e+001 2.472270e+001 1.110730e+001 1.811353e+001 1.191811e+001 1.735776e+001 1.971866e+001 3.218449e+001 3.712648e+001 1.452784e+000 8.470557e-002 3.895084e-001 1.941975e-001 4.437208e-001 6.052257e-001 4.369617e-001 4.403192e-001 6.033792e-001 4.962004e-001 5.145469e-001 7.753114e-001 8.996019e-001 3.229449e-003 1.106803e-002 4.422990e-002 3.467658e-002 3.997062e-002 7.757761e-002 5.750027e-002 6.719907e-002 8.388028e-002 5.595484e-002 8.891781e-002 9.357813e-002 1.116405e-001 5.816195e-004
<GCONST> 4.996532e+001
<MIXTURE> 2 3.674431e-001
<MEAN> 39
 1.814739e+000 -1.189317e-001 -1.359486e+001 -2.206905e+001 -1.787544e+000 -6.183971e+000 -4.544591e+000 -7.681952e+000 -4.274170e+000 -2.557857e+000 3.215080e+000 -5.382672e+000 1.896464e+001 -1.113887e-001 -1.071672e+000 -1.873736e-001 7.424825e-001 7.331039e-001 1.397160e-001 -1.012889e+000 1.323555e-001 1.270417e+000 6.916217e-001 -1.854682e-001 -7.685623e-001 3.329009e-002 -9.431664e-002 -3.245767e-001 1.484844e-001 4.169600e-001 1.414679e-002 -2.174362e-001 -1.575145e-001 2.072076e-001 4.309833e-001 -9.947205e-002 -4.032377e-001 -1.923632e-001 -2.658292e-002
<VARIANCE> 39
 2.784000e+001 1.026175e+001 2.172675e+001 1.830562e+001 2.390648e+001 2.145552e+001 2.458684e+001 1.798951e+001 2.804154e+001 2.905666e+001 4.219737e+001 3.288473e+001 1.423976e+000 1.602954e-001 4.801643e-001 5.417175e-001 5.089462e-001 8.188770e-001 8.978819e-001 1.037362e+000 1.197335e+000 1.121197e+000 1.322227e+000 1.229892e+000 1.126536e+000 1.103597e-002 3.604551e-002 5.214738e-002 9.848363e-002 8.900014e-002 1.237381e-001 1.295421e-001 1.749787e-001 1.884228e-001 1.929843e-001 2.916820e-001 2.015467e-001 2.049828e-001 3.193952e-003
<GCONST> 7.184196e+001
<MIXTURE> 3 3.830496e-001
<MEAN> 39
 3.447050e-001 1.565213e+000 -1.163975e+001 -2.360038e+001 -4.116460e+000 -8.955925e+000 -2.473635e+000 -7.381252e+000 -4.958898e+000 -5.611163e+000 4.814401e-001 -5.258044e+000 1.913614e+001 1.209392e-002 6.713095e-002 2.722874e-002 -1.124667e-001 -1.758036e-001 1.058988e-001 1.049263e-001 9.435881e-002 -1.447050e-001 -7.771047e-002 8.208940e-002 9.876107e-002 -5.024273e-004 -6.205064e-002 -2.049350e-001 -3.016229e-002 1.953028e-001 2.144137e-001 7.288947e-002 -1.840024e-001 -4.637822e-002 1.849483e-001 2.325788e-001 9.742950e-002 -1.125847e-001 -2.069307e-002
<VARIANCE> 39
 2.240217e+001 8.105826e+000 2.525525e+001 1.037190e+001 1.862968e+001 1.785677e+001 1.751477e+001 1.541238e+001 2.015647e+001 1.989720e+001 2.990431e+001 2.891329e+001 1.197451e+000 1.127795e-001 2.605596e-001 4.074337e-001 3.218387e-001 5.288922e-001 3.945286e-001 4.687147e-001 4.379983e-001 5.480028e-001 7.578645e-001 7.674953e-001 5.971283e-001 8.082560e-003 1.984243e-002 2.788708e-002 6.427611e-002 6.062308e-002 6.983566e-002 8.383355e-002 9.286005e-002 8.128252e-002 1.006871e-001 1.047137e-001 1.321261e-001 9.659029e-002 2.150160e-003
<GCONST> 5.347292e+001
<STATE> 6
<NUMMIXES> 3
<MIXTURE> 1 2.247689e-001
<MEAN> 39
 6.209665e+000 -8.003052e+000 -1.635172e+001 -1.162418e+001 6.363634e+000 -8.660173e+000 -5.179629e+000 -1.120770e+000 -5.133429e-001 5.996374e-001 -6.733319e+000 -7.120187e+000 1.844603e+001 -5.071062e-001 -2.038403e+000 1.561454e+000 7.564790e-001 -1.374171e-001 2.661701e-002 -1.086917e+000 2.152474e+000 -2.614888e-001 -1.557940e+000 -1.270307e-001 -1.153327e-001 -2.489639e-002 5.055326e-003 -9.305981e-002 3.330941e-001 5.349690e-002 -6.655348e-001 3.275359e-001 1.840119e-001 -9.370917e-002 -1.561045e-001 -5.200632e-001 4.349177e-001 1.209656e-001 -1.983073e-002
<VARIANCE> 39
 1.158884e+001 1.346903e+001 1.160388e+001 1.507663e+001 9.881979e+000 1.647426e+001 1.813663e+001 3.212160e+001 2.368889e+001 2.852791e+001 3.057478e+001 4.131124e+001 1.631361e+000 1.442217e-001 4.511116e-001 5.224020e-001 5.835537e-001 1.561601e+000 1.072958e+000 1.686789e+000 1.182484e+000 2.422473e+000 1.900027e+000 1.546391e+000 1.659447e+000 9.467868e-003 1.869943e-002 5.581021e-002 5.693848e-002 6.231623e-002 1.592465e-001 1.226991e-001 1.714358e-001 3.188065e-001 2.701891e-001 2.398762e-001 2.163439e-001 1.726090e-001 9.127127e-004
<GCONST> 7.022274e+001
<MIXTURE> 2 3.098312e-001
<MEAN> 39
 5.741793e+000 -7.307800e+000 -1.494853e+001 -1.492612e+001 -5.373124e+000 -3.446456e+000 -1.087936e+001 -8.309854e+000 3.935778e+000 -2.785837e+000 -1.810487e-001 -9.312141e+000 1.915755e+001 -3.065532e-001 -2.160252e+000 9.016038e-001 2.507901e+000 -9.142728e-001 -7.120945e-001 3.644296e-002 4.443399e-001 1.886501e+000 8.065163e-003 -1.717097e+000 -4.502587e-001 -3.239649e-002 -6.851561e-002 1.182524e-001 2.911432e-001 1.643156e-001 -3.157904e-001 -4.508688e-001 6.617211e-001 2.107797e-001 -4.645082e-001 -2.918876e-001 -8.034541e-002 3.494952e-001 -4.644165e-002
<VARIANCE> 39
 2.098373e+001 2.232943e+001 1.482734e+001 4.505758e+001 6.512211e+001 4.022898e+001 3.644176e+001 6.144039e+001 5.073084e+001 4.640935e+001 4.841611e+001 3.407851e+001 1.943820e+000 2.085733e-001 7.104454e-001 9.679756e-001 1.356940e+000 1.642621e+000 2.233774e+000 1.866861e+000 2.587122e+000 2.793864e+000 5.264577e+000 1.822670e+000 1.955642e+000 1.977697e-002 4.029061e-002 1.210839e-001 1.150556e-001 2.734295e-001 2.467190e-001 2.395915e-001 3.667614e-001 4.568692e-001 4.065890e-001 4.635459e-001 3.324339e-001 3.483855e-001 1.889413e-003
<GCONST> 9.353471e+001
<MIXTURE> 3 4.653989e-001
<MEAN> 39
 -1.267936e+000 -5.164510e+000 -1.267800e+001 -1.784723e+001 2.935820e+000 -8.694766e+000 -7.468874e+000 -6.054735e+000 3.269648e+000 -9.175595e-001 -1.683741e+000 -1.063107e+001 1.876547e+001 -1.915534e-001 -1.214292e+000 2.464782e-001 1.595640e+000 5.013115e-002 -1.158112e+000 -1.177027e-001 1.314198e+000 9.108138e-001 -1.044927e+000 -1.232540e+000 -7.310284e-002 -4.903140e-002 -7.234887e-002 2.374185e-002 2.963400e-001 7.364254e-002 -4.332443e-001 -1.146244e-001 4.476851e-001 2.159100e-001 -4.765040e-001 -4.350121e-001 1.248104e-001 4.235204e-001 -2.435712e-002
<VARIANCE> 39
 9.879739e+000 7.534431e+000 1.080243e+001 1.232387e+001 1.657076e+001 2.258344e+001 1.447724e+001 1.844645e+001 1.676406e+001 2.071852e+001 2.568350e+001 2.344564e+001 1.307364e+000 7.496234e-002 2.105043e-001 3.192320e-001 4.786187e-001 7.725569e-001 6.797463e-001 1.085921e+000 8.909962e-001 1.539688e+000 1.361780e+000 9.201628e-001 1.280309e+000 7.167072e-003 9.645361e-003 4.410005e-002 4.988746e-002 6.674256e-002 9.671783e-002 1.192899e-001 1.147441e-001 1.353179e-001 1.717277e-001 1.552816e-001 1.825917e-001 1.592388e-001 9.054966e-004
<GCONST> 5.790679e+001
<STATE> 7
<NUMMIXES> 3
<MIXTURE> 1 4.215464e-001
<MEAN> 39
 3.468028e+000 -1.516755e+001 -8.833756e+000 -8.347968e+000 -5.899020e+000 -8.088908e+000 -7.137070e+000 4.356015e-001 4.189666e+000 -9.205903e+000 -5.575304e+000 -6.776211e+000 1.887256e+001 -4.133359e-001 -1.004301e+000 1.763427e+000 1.295480e+000 -2.285207e+000 -2.618355e-001 1.766767e+000 1.386581e-001 -8.535775e-001 -1.076890e+000 9.352142e-002 9.097682e-001 -1.502336e-001 -7.876097e-002 6.174219e-001 3.720267e-002 -3.985760e-001 8.467562e-002 1.947244e-001 2.926928e-001 -5.344720e-001 -5.222850e-001 5.058057e-001 3.645736e-001 -5.041613e-002 -5.433878e-002
<VARIANCE> 39
 1.933613e+001 2.209731e+001 1.496742e+001 2.301348e+001 4.950407e+001 4.618124e+001 3.374552e+001 5.307293e+001 5.892316e+001 4.928764e+001 3.082811e+001 4.036673e+001 1.712369e+000 4.025220e-001 6.793315e-001 9.123094e-001 1.310313e+000 1.617628e+000 2.967000e+000 2.410484e+000 2.520434e+000 2.190024e+000 2.087056e+000 2.142256e+000 1.315506e+000 1.876103e-002 3.940746e-002 8.863197e-002 1.183632e-001 1.955987e-001 2.991852e-001 2.836201e-001 2.735401e-001 4.173395e-001 5.330508e-001 4.458652e-001 3.441681e-001 3.037362e-001 2.537043e-003
<GCONST> 9.154276e+001
<MIXTURE> 2 3.648764e-001
<MEAN> 39
 -2.354087e+000 -9.276976e+000 -8.900168e+000 -1.056411e+001 1.840300e-003 -1.434995e+001 -2.274108e+000 1.977165e+000 4.899393e-001 -7.773658e+000 -2.665812e+000 -5.381060e+000 1.822089e+001 -4.673331e-001 -3.165680e-001 1.265949e+000 8.106666e-001 -1.176918e+000 -2.128966e-001 1.435729e+000 4.744456e-001 -1.276982e+000 -9.252003e-001 7.350563e-001 6.861362e-001 -1.696560e-001 -7.434753e-002 3.160934e-001 1.708099e-001 -3.755883e-001 -7.296531e-002 4.820278e-001 3.640714e-002 -6.036541e-001 -1.324271e-001 4.671710e-001 2.124442e-001 -1.977812e-001 -3.251862e-002
<VARIANCE> 39
 1.405942e+001 7.120433e+000 8.288928e+000 1.280836e+001 2.500991e+001 3.738873e+001 2.310858e+001 1.446553e+001 2.109471e+001 2.184172e+001 2.132425e+001 2.041914e+001 1.810905e+000 9.248600e-002 5.465518e-001 2.943358e-001 5.419775e-001 8.677745e-001 1.047965e+000 6.562181e-001 1.188086e+000 7.970049e-001 1.269312e+000 7.193401e-001 9.039777e-001 1.671442e-002 1.246311e-002 4.030611e-002 4.689783e-002 7.478834e-002 1.361343e-001 1.523552e-001 1.811110e-001 9.854215e-002 1.677981e-001 1.966761e-001 1.767483e-001 1.416204e-001 1.371239e-003
<GCONST> 6.188799e+001
<MIXTURE> 3 2.135768e-001
<MEAN> 39
 -2.682704e+000 -8.531354e+000 -9.547064e+000 -1.243960e+001 -2.598686e+000 -1.048668e+001 -3.305747e+000 -4.554918e+000 -2.462284e+000 -9.350639e+000 -6.426748e+000 -1.027067e+001 1.868014e+001 -3.308841e-001 9.097312e-002 8.464816e-001 3.388884e-001 -7.785959e-001 -5.649508e-001 4.742839e-001 4.184803e-003 -7.363983e-001 -4.718334e-001 2.244443e-002 -1.114239e-001 -1.104142e-001 -3.199626e-002 1.654175e-001 5.460928e-002 -5.470997e-002 9.364469e-002 -3.435542e-002 -9.577329e-002 -8.649687e-002 -6.997978e-003 1.209626e-001 1.016672e-001 -3.501871e-002 -2.191119e-002
<VARIANCE> 39
 1.003682e+001 3.151003e+001 1.253557e+001 3.379174e+001 4.942474e+001 1.517281e+001 2.226510e+001 1.589419e+001 5.093718e+001 2.701957e+001 2.370772e+001 3.059338e+001 1.731393e+000 1.666580e-001 4.947323e-001 5.890583e-001 4.564705e-001 5.551212e-001 7.962023e-001 1.018874e+000 8.875983e-001 1.230019e+000 1.399303e+000 9.082050e-001 1.057148e+000 6.295504e-003 1.434715e-002 4.125940e-002 7.396376e-002 4.811700e-002 1.083429e-001 7.684587e-002 1.534275e-001 6.179557e-002 1.805433e-001 1.691842e-001 1.493592e-001 1.701934e-001 8.666774e-004
<GCONST> 6.431365e+001
<STATE> 8
<NUMMIXES> 3
<MIXTURE> 1 2.507924e-001
<MEAN> 39
 4.661960e+000 -1.565946e+001 -4.880803e+000 -1.858456e+000 -1.369392e+001 -7.907081e+000 1.576469e+000 -4.505854e+000 3.012493e-001 -6.678496e+000 -2.996849e+000 -3.703277e+000 1.786976e+001 -6.735004e-001 1.159475e+000 1.737830e+000 2.353276e-001 1.557148e-001 3.119387e-001 1.003727e+000 -5.395668e-001 -1.210562e+000 3.139692e-001 7.909687e-001 2.218175e-001 -4.285221e-001 -3.089776e-001 4.613573e-001 4.788113e-002 -3.557476e-001 5.921724e-001 2.584179e-001 -3.422326e-001 -1.000709e-001 7.435525e-002 2.205867e-001 6.885126e-002 -1.865325e-001 -1.010200e-001
<VARIANCE> 39
 2.057061e+001 1.906410e+001 3.652513e+001 4.269051e+001 6.520386e+001 7.872379e+001 5.619298e+001 4.516952e+001 2.890277e+001 4.186053e+001 3.486514e+001 2.164727e+001 2.506364e+000 8.508667e-001 8.996873e-001 9.167299e-001 1.620290e+000 1.639421e+000 2.369271e+000 1.647287e+000 1.946903e+000 2.355263e+000 2.220132e+000 1.162828e+000 1.171080e+000 5.642776e-002 1.173483e-001 1.896958e-001 1.157332e-001 1.883931e-001 2.193452e-001 3.054827e-001 3.164696e-001 2.569551e-001 2.095672e-001 2.522891e-001 2.116744e-001 1.488152e-001 6.823619e-003
<GCONST> 9.353797e+001
<MIXTURE> 2 3.478765e-001
<MEAN> 39
 -1.343858e+000 -5.459698e+000 1.887587e+000 -7.711367e+000 -8.418119e+000 -6.841871e+000 -2.410167e+000 -8.793839e+000 -4.038744e+000 -6.688534e+000 -5.161622e+000 -9.547379e+000 1.630193e+001 -1.782245e+000 1.850713e+000 8.977146e-001 1.846513e-002 1.319695e+000 -1.085427e-002 -1.073391e-001 -4.620268e-001 -1.512507e-001 4.578178e-001 1.167565e-001 4.516359e-001 -7.411425e-001 -2.792082e-001 -2.430055e-001 -4.942884e-001 -9.355071e-002 1.352056e-001 -4.624374e-002 -7.124775e-002 3.291469e-001 1.657166e-001 3.324770e-002 2.546364e-001 2.601853e-001 -9.822287e-002
<VARIANCE> 39
 2.552406e+001 4.965967e+001 4.546955e+001 7.593391e+001 6.887160e+001 7.632944e+001 5.152870e+001 4.367428e+001 5.216780e+001 6.727335e+001 4.957051e+001 3.450660e+001 3.847744e+000 1.570086e+000 2.535488e+000 1.898768e+000 2.411346e+000 2.006114e+000 2.032117e+000 2.682611e+000 2.630912e+000 2.526340e+000 2.643354e+000 2.346221e+000 2.163891e+000 2.133780e-001 1.656972e-001 3.900629e-001 2.665676e-001 4.306037e-001 4.068377e-001 4.002329e-001 3.485474e-001 3.748511e-001 4.623627e-001 4.648453e-001 3.481154e-001 2.393840e-001 1.863499e-002
<GCONST> 1.116925e+002
<MIXTURE> 3 4.013300e-001
<MEAN> 39
 -3.218343e+000 -1.059545e+001 -2.516687e+000 -1.064833e+001 -7.187256e+000 -8.267441e+000 2.323556e+000 -1.169533e+000 -5.197854e+000 -6.984706e+000 5.223768e-001 -5.625488e+000 1.759966e+001 -7.956019e-001 8.813514e-001 1.388302e+000 -6.094615e-001 -5.015078e-001 1.008711e+000 2.539870e-001 -1.497671e+000 -5.767334e-001 9.043742e-001 5.922792e-002 -5.418247e-001 -2.882344e-001 -3.957077e-002 3.312179e-001 -2.448890e-001 -1.852671e-001 5.464597e-001 -7.153568e-002 -5.767292e-001 -1.520168e-001 4.433967e-001 1.467274e-001 -3.079039e-001 -1.338320e-001 -3.739314e-002
<VARIANCE> 39
 1.463243e+001 3.336707e+001 1.064782e+001 1.612637e+001 3.748490e+001 5.949059e+001 1.927324e+001 2.097093e+001 2.687064e+001 2.629158e+001 2.479653e+001 2.991733e+001 1.984227e+000 2.556348e-001 7.450054e-001 6.330531e-001 9.872528e-001 1.851952e+000 1.706123e+000 1.585006e+000 1.091911e+000 1.491441e+000 1.165329e+000 1.478899e+000 1.172140e+000 3.589837e-002 3.722857e-002 1.339161e-001 6.796134e-002 1.372928e-001 2.444394e-001 2.334813e-001 1.659057e-001 2.194466e-001 2.087238e-001 2.935517e-001 1.596410e-001 1.878328e-001 4.044631e-003
<GCONST> 7.996455e+001
<STATE> 9
<NUMMIXES> 3
<MIXTURE> 1 4.986971e-001
<MEAN> 39
 -6.964875e+000 -4.213999e+000 7.630573e-002 -1.029611e+001 -3.542568e+000 -7.014597e+000 -1.023410e+000 -6.900691e+000 -3.284838e+000 -3.577453e+000 -1.144485e-001 -6.244256e+000 1.436605e+001 -5.160235e-001 8.067610e-001 1.119738e-001 -3.146119e-001 4.177848e-001 -1.420893e-002 -5.888519e-001 -7.077390e-002 4.764504e-001 2.582607e-001 -9.342758e-002 -7.873372e-002 -3.115152e-001 2.079520e-002 -1.932215e-001 -2.371393e-001 1.250179e-002 -3.112587e-002 -1.163866e-001 -7.084634e-003 2.064563e-001 2.981464e-002 -1.228038e-001 -2.222885e-002 7.644815e-002 2.283472e-002
<VARIANCE> 39
 1.692079e+001 3.108864e+001 1.543890e+001 4.303291e+001 2.667293e+001 4.894213e+001 2.456511e+001 2.698641e+001 2.836924e+001 2.380572e+001 2.676592e+001 2.442492e+001 1.195912e+001 4.475726e-001 1.124962e+000 7.880220e-001 1.057216e+000 1.050708e+000 1.458578e+000 1.177691e+000 1.348731e+000 1.193648e+000 1.115563e+000 1.021196e+000 1.106718e+000 2.841135e-002 3.800138e-002 9.769312e-002 1.142868e-001 1.575932e-001 1.400941e-001 2.216690e-001 1.564579e-001 1.742720e-001 1.784159e-001 2.155097e-001 1.638373e-001 1.672526e-001 4.094409e-003
<GCONST> 8.141991e+001
<MIXTURE> 2 2.373616e-001
<MEAN> 39
 -1.282870e+001 -1.310664e+000 -8.886954e-001 -9.195758e+000 -3.532037e+000 -7.834384e+000 -2.510854e+000 -5.158652e+000 -1.470793e+000 -4.048153e+000 -3.294900e-001 -5.342745e+000 1.301711e+001 -1.915399e+000 -6.613310e-002 -8.594506e-001 -5.077644e-001 5.207679e-001 -3.055884e-002 9.569605e-003 4.462917e-001 1.043670e-001 6.239038e-001 7.931809e-001 7.062923e-001 -6.842832e-001 4.996324e-001 -4.834989e-001 -2.531224e-001 -9.770537e-002 -4.030018e-001 -8.926324e-002 -5.771670e-002 -6.930204e-002 -3.029160e-002 -1.174959e-001 -1.906108e-001 -1.647090e-001 1.869532e-001
<VARIANCE> 39
 2.325443e+001 3.055890e+001 2.087623e+001 4.341910e+001 2.577403e+001 3.321779e+001 2.585010e+001 2.390982e+001 2.481347e+001 3.127867e+001 1.496822e+001 2.421620e+001 5.954162e+000 1.626152e+000 2.024980e+000 1.775083e+000 1.816948e+000 1.991274e+000 1.401805e+000 1.448315e+000 1.253643e+000 1.549963e+000 1.554509e+000 1.734577e+000 1.097666e+000 1.698484e-001 1.721478e-001 2.975079e-001 2.611444e-001 3.213667e-001 2.105907e-001 2.309426e-001 2.336678e-001 2.085669e-001 1.896341e-001 2.426670e-001 2.053055e-001 2.036941e-001 2.745224e-002
<GCONST> 9.495679e+001
<MIXTURE> 3 2.639403e-001
<MEAN> 39
 -9.486725e+000 -7.786458e+000 1.356559e+000 -6.384033e+000 -2.438561e+000 -4.267292e+000 9.024266e-001 -7.231566e+000 -2.467584e+000 -2.368402e+000 -1.285919e-001 -4.444750e+000 1.238172e+001 -1.190816e+000 -2.676532e-001 -1.109238e+000 -1.330620e+000 -5.068316e-001 -7.818036e-001 -8.015720e-001 -4.981056e-001 -2.190831e-001 -3.656400e-002 5.294320e-002 -6.481063e-002 -4.712486e-001 3.353219e-001 5.122210e-002 -1.652896e-001 -8.070692e-002 -2.138159e-001 -2.604406e-001 -1.059440e-001 6.804735e-003 -5.021651e-002 -1.772000e-001 -8.118071e-002 -5.704531e-002 1.106233e-001
<VARIANCE> 39
 1.335856e+001 3.376427e+001 2.439050e+001 6.217846e+001 3.592547e+001 4.933669e+001 3.254841e+001 4.822285e+001 3.016490e+001 2.346880e+001 2.990835e+001 2.261422e+001 5.534666e+000 5.704697e-001 9.397280e-001 1.065185e+000 9.696441e-001 1.251621e+000 1.264232e+000 7.509832e-001 1.067660e+000 9.923497e-001 1.190105e+000 1.193094e+000 7.782128e-001 8.762092e-002 6.617231e-002 2.193843e-001 2.535827e-001 2.825927e-001 2.828366e-001 2.184523e-001 1.542142e-001 1.882705e-001 1.889719e-001 1.484290e-001 2.001226e-001 1.810431e-001 5.331541e-003
<GCONST> 8.672866e+001
<TRANSP> 10
 0.000000e+000 1.000000e+000 0.000000e+000 0.000000e+000 0.000000e+000 0.000000e+000 0.000000e+000 0.000000e+000 0.000000e+000 0.000000e+000
 0.000000e+000 7.574280e-001 2.425720e-001 0.000000e+000 0.000000e+000 0.000000e+000 0.000000e+000 0.000000e+000 0.000000e+000 0.000000e+000
 0.000000e+000 0.000000e+000 4.390733e-001 5.609267e-001 0.000000e+000 0.000000e+000 0.000000e+000 0.000000e+000 0.000000e+000 0.000000e+000
 0.000000e+000 0.000000e+000 0.000000e+000 7.340193e-001 2.659808e-001 0.000000e+000 0.000000e+000 0.000000e+000 0.000000e+000 0.000000e+000
 0.000000e+000 0.000000e+000 0.000000e+000 0.000000e+000 8.430310e-001 1.569690e-001 0.000000e+000 0.000000e+000 0.000000e+000 0.000000e+000
 0.000000e+000 0.000000e+000 0.000000e+000 0.000000e+000 0.000000e+000 7.278914e-001 2.721086e-001 0.000000e+000 0.000000e+000 0.000000e+000
 0.000000e+000 0.000000e+000 0.000000e+000 0.000000e+000 0.000000e+000 0.000000e+000 7.269589e-001 2.730411e-001 0.000000e+000 0.000000e+000
 0.000000e+000 0.000000e+000 0.000000e+000 0.000000e+000 0.000000e+000 0.000000e+000 0.000000e+000 7.785786e-001 2.214214e-001 0.000000e+000
 0.000000e+000 0.000000e+000 0.000000e+000 0.000000e+000 0.000000e+000 0.000000e+000 0.000000e+000 0.000000e+000 7.799946e-001 2.200054e-001
 0.000000e+000 0.000000e+000 0.000000e+000 0.000000e+000 0.000000e+000 0.000000e+000 0.000000e+000 0.000000e+000 0.000000e+000 0.000000e+000
<ENDHMM>
~h "seven"
<BEGINHMM>
<NUMSTATES> 10
<STATE> 2
<NUMMIXES> 3
<MIXTURE> 1 2.003571e-001
<MEAN> 39
 -1.569434e+001 -3.241751e+000 -7.242201e+000 -1.288458e+001 -7.200869e+000 -8.395971e+000 -5.894724e+000 -5.339402e+000 -1.586401e+000 -2.978785e+000 -2.711226e+000 -4.394793e+000 1.407789e+001 1.055028e+000 2.190430e-001 9.587786e-001 -5.068694e-003 3.643242e-002 -2.724861e-001 1.090854e+000 4.379930e-001 1.032447e-001 7.707153e-001 -1.017978e-002 9.098241e-002 3.654666e-001 5.529953e-001 3.602316e-002 3.082593e-001 -1.354180e-001 -3.091365e-001 -1.575179e-001 4.917665e-001 1.652879e-001 -2.529517e-001 3.063405e-001 -3.399150e-002 -2.477320e-001 2.325768e-001
<VARIANCE> 39
 7.854912e+000 9.063662e+000 1.472752e+001 2.378526e+001 1.701480e+001 2.476918e+001 2.154399e+001 1.616397e+001 1.436913e+001 1.693797e+001 1.704514e+001 1.769902e+001 2.304058e+000 4.209908e-001 3.059014e-001 4.522595e-001 5.443023e-001 5.735232e-001 4.855374e-001 7.561460e-001 9.935299e-001 7.308648e-001 9.019619e-001 8.057238e-001 6.432825e-001 6.361212e-002 6.200103e-002 8.102278e-002 1.266650e-001 1.159964e-001 1.403323e-001 1.345376e-001 1.418889e-001 1.682929e-001 1.600045e-001 1.709743e-001 1.386359e-001 1.571424e-001 4.985900e-003
<GCONST> 6.694706e+001
<MIXTURE> 2 4.595473e-001
<MEAN> 39
 -1.894929e+001 -5.440592e+000 -8.253915e+000 -8.179277e+000 -6.902037e+000 -5.340292e+000 -3.985142e+000 -4.229423e+000 6.229723e-001 -3.558804e+000 -2.140355e-001 -4.222758e+000 1.173641e+001 1.521586e-002 -1.690698e-001 -1.827761e-001 5.596874e-002 5.487802e-002 1.146723e-001 4.807120e-002 -1.636408e-001 2.237410e-002 -2.882428e-002 3.047977e-002 1.003410e-001 7.548234e-002 3.244492e-001 1.869971e-001 2.515520e-001 -8.950223e-002 4.701746e-002 -7.738101e-002 6.121289e-002 -8.395649e-002 -1.176830e-002 -5.954069e-002 -6.521713e-002 -1.739428e-002 5.529506e-002
<VARIANCE> 39
 6.482173e+000 2.470293e+001 1.100484e+001 2.049963e+001 1.620523e+001 2.160254e+001 1.874691e+001 1.896420e+001 2.109336e+001 2.685638e+001 2.080461e+001 1.633835e+001 2.433576e+000 2.242231e-001 3.891090e-001 4.196416e-001 4.767906e-001 5.867198e-001 5.892406e-001 5.828811e-001 5.684495e-001 7.787216e-001 8.226101e-001 7.620445e-001 6.480265e-001 3.059804e-002 7.661385e-002 9.823156e-002 7.828394e-002 9.465110e-002 1.177113e-001 1.198548e-001 1.112417e-001 9.548422e-002 1.346456e-001 1.514587e-001 1.439672e-001 1.109565e-001 1.387437e-002
<GCONST> 6.520135e+001
<MIXTURE> 3 3.400956e-001
<MEAN> 39
 -1.375334e+001 -5.159059e+000 -5.453834e+000 -1.613564e+001 -3.855372e+000 -1.234491e+001 -5.354212e+000 -5.190614e+000 -8.910962e-001 -4.862445e+000 -3.041809e-001 -6.039365e+000 1.396688e+001 9.347627e-001 5.033534e-001 3.595366e-001 -2.009820e-001 -2.025733e-001 4.784681e-001 8.562436e-001 -2.636651e-001 3.530356e-001 -4.713710e-001 -3.820298e-001 -5.782996e-002 4.457278e-001 4.523210e-001 9.299561e-002 7.910620e-002 -2.136333e-001 -1.325108e-001 3.584302e-001 3.991981e-001 -2.166966e-001 9.544508e-002 -2.678164e-001 -2.740063e-001 -1.130721e-001 2.112064e-001
<VARIANCE> 39
 3.463948e+000 3.713094e+000 6.321228e+000 1.449274e+001 9.320179e+000 1.118576e+001 1.472440e+001 1.701880e+001 1.711827e+001 1.686052e+001 1.926140e+001 1.552484e+001 2.850635e+000 5.068207e-001 2.902662e-001 3.405974e-001 4.507985e-001 6.911194e-001 5.749302e-001 9.530021e-001 7.735820e-001 8.863540e-001 1.054570e+000 8.953618e-001 6.101885e-001 7.963723e-002 4.934311e-002 5.463777e-002 5.713518e-002 9.775797e-002 1.022413e-001 1.090385e-001 1.553665e-001 1.390083e-001 1.366973e-001 2.119246e-001 1.993058e-001 1.861059e-001 6.869050e-003
<GCONST> 6.186061e+001
<STATE> 3
<NUMMIXES> 3
<MIXTURE> 1 3.443479e-001
<MEAN> 39
 -1.736858e+001 -3.803424e+000 -6.868323e+000 -9.426082e+000 -6.494787e+000 -4.672368e+000 -2.335761e+000 -5.883518e+000 4.978460e-001 -2.011382e+000 -2.416766e+000 -3.522682e+000 1.227687e+001 2.627976e+000 5.122454e-001 1.257396e+000 -1.137410e+000 -7.519321e-001 -8.258759e-001 1.121844e+000 1.773669e-001 -4.767992e-001 4.914672e-001 -3.020188e-001 -3.945911e-001 9.456695e-001 5.065666e-001 -1.357079e-001 6.355422e-002 -3.917786e-001 -3.145146e-001 -1.736794e-001 2.480896e-001 3.983831e-002 -2.168316e-001 -1.140391e-001 -1.774229e-001 -3.192475e-001 2.947782e-001
<VARIANCE> 39
 8.424715e+000 1.548050e+001 1.321228e+001 2.502125e+001 2.115187e+001 2.256430e+001 2.327186e+001 1.676910e+001 2.173842e+001 5.778394e+001 2.362015e+001 2.219274e+001 1.854102e+000 6.174092e-001 1.098244e+000 6.800926e-001 9.092155e-001 6.031152e-001 1.108560e+000 1.436557e+000 1.118145e+000 1.395816e+000 1.697541e+000 6.267312e-001 7.779074e-001 1.065421e-001 1.616291e-001 1.190882e-001 1.315306e-001 1.701148e-001 1.118735e-001 1.902880e-001 1.588693e-001 1.675121e-001 2.775960e-001 2.516250e-001 1.782042e-001 1.428242e-001 9.256733e-003
<GCONST> 7.936506e+001
<MIXTURE> 2 4.150296e-001
<MEAN> 39
 -8.292529e+000 -6.920803e-001 -8.409588e-001 -1.411897e+001 -5.312860e+000 -9.624834e+000 -4.697481e-001 -4.154688e+000 -8.271725e-001 -2.283657e+000 -1.536587e+000 -5.810304e+000 1.654154e+001 1.852595e+000 2.440920e-003 5.623977e-001 -7.154281e-001 -9.713538e-001 4.649570e-001 2.048180e+000 7.885976e-003 -2.343830e-001 1.364247e-001 -6.088315e-001 -5.757952e-001 9.256467e-001 -2.077529e-001 -3.434202e-001 -3.837898e-001 -1.087056e-001 -3.571076e-002 2.855540e-001 1.078745e-001 -7.036051e-002 -2.050291e-001 -2.348547e-001 -1.597213e-001 -6.339224e-002 2.315666e-002
<VARIANCE> 39
 1.177622e+001 7.451713e+000 6.604517e+000 1.964229e+001 1.939787e+001 1.335320e+001 1.544506e+001 2.040134e+001 1.790238e+001 3.549398e+001 1.678016e+001 1.180026e+001 2.125945e+000 6.268893e-001 5.449108e-001 6.210099e-001 1.018613e+000 9.724919e-001 2.182476e+000 1.402754e+000 1.683680e+000 1.753748e+000 2.063374e+000 1.143017e+000 1.468461e+000 9.602804e-002 5.710873e-002 5.020137e-002 6.154891e-002 6.875584e-002 1.606146e-001 1.121538e-001 1.215827e-001 1.324794e-001 1.499277e-001 1.965778e-001 1.760959e-001 1.719233e-001 4.484619e-003
<GCONST> 7.247100e+001
<MIXTURE> 3 2.406225e-001
<MEAN> 39
 -1.255850e+001 -3.655371e+000 -4.843586e+000 -1.168807e+001 -3.205536e+000 -8.269889e+000 -4.061992e+000 -5.564316e+000 8.244454e-001 -9.138227e+000 1.195856e+000 -5.741179e+000 1.344188e+001 2.551557e+000 7.061296e-001 1.307745e-001 -1.914821e+000 -7.103134e-001 8.811908e-001 8.684207e-001 -1.622630e+000 8.570879e-001 -2.064481e+000 -1.594515e+000 -1.124669e+000 1.276396e+000 2.475372e-002 -3.757713e-001 -1.401342e-001 -2.632112e-001 1.347081e-001 4.467754e-001 2.227508e-001 -2.143181e-001 1.315741e-001 -1.898980e-001 -1.046312e-001 -1.472968e-001 1.402238e-001
<VARIANCE> 39
 1.762365e+001 1.375799e+001 1.045805e+001 1.796513e+001 1.458125e+001 1.780724e+001 1.869718e+001 2.009914e+001 2.149043e+001 1.462268e+001 1.799737e+001 1.573153e+001 4.385479e+000 4.714448e-001 5.226921e-001 3.345180e-001 7.748296e-001 7.183391e-001 7.839165e-001 5.788705e-001 7.106470e-001 9.249167e-001 9.201733e-001 1.125284e+000 9.314138e-001 9.550716e-002 1.520497e-001 7.960235e-002 6.207336e-002 1.393526e-001 1.337995e-001 7.196434e-002 1.281246e-001 1.230596e-001 1.585480e-001 1.683446e-001 2.575243e-001 1.647699e-001 1.801026e-002
<GCONST> 7.133302e+001
<STATE> 4
<NUMMIXES> 3
<MIXTURE> 1 4.920818e-001
<MEAN> 39
 -4.238277e+000 -3.928053e+000 -4.654705e+000 -2.101376e+001 -5.402660e+000 -3.954761e+000 1.085360e+000 -1.153617e+001 3.726112e+000 -1.483435e+001 -4.501220e+000 -8.944804e+000 1.823069e+001 6.959066e-001 -8.566979e-001 -3.723188e-001 -6.651368e-001 9.584467e-001 2.003589e+000 1.158348e+000 -9.304169e-001 3.361337e-001 -8.856416e-001 -1.157894e-001 1.861927e-001 7.263178e-001 -6.236708e-001 -3.094074e-001 -7.761423e-002 5.175236e-001 4.123837e-001 -8.118232e-002 -2.152019e-001 2.500954e-001 -2.624273e-001 5.413274e-001 3.470824e-001 3.406661e-001 -2.422324e-001
<VARIANCE> 39
 7.932535e+000 1.119768e+001 7.972708e+000 1.071858e+001 2.271333e+001 2.372720e+001 1.809511e+001 1.520389e+001 1.834169e+001 2.655580e+001 3.072242e+001 3.071722e+001 1.049494e+000 1.141201e+000 5.319284e-001 3.649094e-001 1.139236e+000 1.096979e+000 5.720378e-001 8.552579e-001 6.901984e-001 9.638733e-001 1.679698e+000 1.155788e+000 1.474286e+000 1.586401e-001 7.353417e-002 9.113149e-002 6.078184e-002 1.061847e-001 1.434608e-001 1.747027e-001 1.037648e-001 1.080955e-001 1.263820e-001 1.519116e-001 1.653432e-001 1.467174e-001 9.389409e-003
<GCONST> 7.184354e+001
<MIXTURE> 2 2.566981e-001
<MEAN> 39
 -5.225020e+000 -2.849214e+000 -1.494572e+000 -1.544362e+001 -1.277655e+001 -1.148039e+001 4.963821e+000 -3.195233e+000 -3.783276e+000 3.937445e+000 -4.080070e+000 -7.709191e+000 1.837006e+001 1.340473e+000 -7.364765e-001 4.004720e-002 -9.403373e-001 -1.166258e+000 1.320612e-001 2.099915e+000 2.827161e-001 -1.103561e+000 -5.337550e-002 -9.544782e-001 -1.046574e+000 8.943341e-001 -5.674796e-001 -3.011272e-001 -4.878664e-001 4.238132e-002 3.081352e-001 3.612115e-001 -3.481221e-001 -1.382272e-001 -1.181010e-001 -6.718528e-001 6.800793e-003 6.027415e-002 -1.628430e-001
<VARIANCE> 39
 6.659486e+000 7.011686e+000 1.094908e+001 1.841823e+001 7.267464e+000 1.835781e+001 1.989685e+001 2.168917e+001 1.852209e+001 9.901200e+000 1.494285e+001 2.171596e+001 1.454920e+000 8.886741e-001 4.293687e-001 6.962158e-001 1.573367e+000 7.527260e-001 1.768282e+000 1.044605e+000 1.336389e+000 1.267574e+000 9.492078e-001 1.032502e+000 1.050551e+000 1.518129e-001 7.933273e-002 6.102491e-002 8.229151e-002 8.030725e-002 7.061791e-002 1.725350e-001 1.430907e-001 1.367981e-001 1.945443e-001 1.157819e-001 1.028946e-001 1.072796e-001 5.382381e-003
<GCONST> 6.907026e+001
<MIXTURE> 3 2.512201e-001
<MEAN> 39
 -5.475231e+000 -5.401340e+000 -3.159933e+000 -1.756375e+001 -1.425021e+001 -9.883109e+000 5.272460e+000 -2.859833e+000 -6.560384e+000 7.994139e-001 -7.206019e+000 -1.010768e+001 1.911591e+001 2.779015e-001 -1.250551e+000 -8.467736e-001 -8.776608e-001 -5.532697e-001 6.208749e-001 1.013909e+000 1.362712e-002 -1.428695e+000 -1.377092e+000 -9.150223e-001 -1.061157e+000 5.818514e-001 -5.933809e-001 -3.939658e-002 -2.944847e-001 3.808469e-001 5.695925e-001 3.595768e-001 -4.752793e-001 -7.458468e-002 1.258771e-001 -4.454869e-001 3.266577e-001 2.756856e-001 -2.825756e-001
<VARIANCE> 39
 6.729776e+000 1.011146e+001 8.659232e+000 2.201813e+001 9.997248e+000 1.899194e+001 1.799023e+001 3.488973e+001 2.787315e+001 1.521035e+001 2.697747e+001 2.218385e+001 1.229061e+000 6.898484e-001 4.136982e-001 4.286223e-001 8.293922e-001 9.028960e-001 1.076007e+000 7.065916e-001 1.223905e+000 1.214918e+000 9.892945e-001 1.289351e+000 8.189628e-001 1.109532e-001 7.265772e-002 6.941201e-002 8.269481e-002 1.489303e-001 8.223776e-002 1.685714e-001 1.621982e-001 2.009579e-001 1.780808e-001 1.068233e-001 1.379520e-001 1.056262e-001 6.118873e-003
<GCONST> 7.038804e+001
<STATE> 5
<NUMMIXES> 3
<MIXTURE> 1 4.958839e-001
<MEAN> 39
 -6.813656e+000 -8.379676e+000 -5.873629e+000 -1.730942e+001 1.504121e+000 1.087543e+000 2.035992e+000 -1.289331e+001 2.300674e+000 -1.230888e+001 -1.937899e+000 -4.831822e+000 1.861501e+001 8.067514e-003 -4.047459e-001 2.234591e-001 5.782022e-001 1.640620e-001 9.550011e-002 3.913368e-001 -2.316564e-001 -3.629117e-001 8.617243e-001 -2.988812e-001 6.113552e-001 -3.412789e-002 1.187643e-001 3.121299e-001 2.699574e-001 1.252367e-001 -4.747440e-001 -5.616864e-001 -1.716676e-002 2.066517e-001 -1.230989e-001 2.907685e-001 -2.062837e-001 -1.705125e-001 -1.174698e-001
<VARIANCE> 39
 8.878552e+000 1.141716e+001 6.095034e+000 1.333673e+001 1.830153e+001 9.272914e+000 2.043949e+001 1.573629e+001 1.936594e+001 3.368035e+001 2.771960e+001 2.824232e+001 1.438911e+000 2.501089e-001 4.221663e-001 3.320940e-001 3.671300e-001 1.448272e+000 9.934604e-001 5.891104e-001 5.308703e-001 6.426457e-001 7.877107e-001 9.089686e-001 5.621796e-001 2.042347e-002 5.326362e-002 5.126422e-002 6.934077e-002 1.131039e-001 1.204436e-001 1.076432e-001 1.148930e-001 1.107564e-001 1.113999e-001 1.808171e-001 1.268638e-001 1.145336e-001 5.878775e-003
<GCONST> 6.198041e+001
<MIXTURE> 2 2.793129e-001
<MEAN> 39
 -7.256338e+000 -9.127537e+000 -6.024251e+000 -1.609035e+001 -8.388881e+000 -4.510580e+000 7.436696e+000 -4.463995e+000 -9.533809e+000 -5.758787e+000 -4.451347e+000 -8.957360e+000 1.939981e+001 2.295651e-001 -2.440988e-001 -1.195712e-001 5.631633e-001 1.969502e-001 -4.245286e-001 -4.672672e-001 1.109939e+000 -3.591135e-001 -5.967618e-001 1.052552e+000 -3.613878e-001 -6.458084e-002 1.521683e-001 3.258474e-001 2.159184e-001 1.772787e-001 -1.244371e-001 -5.864477e-001 -4.336221e-001 3.395194e-001 3.712120e-001 1.262505e-001 1.682753e-001 4.718065e-002 -8.499122e-002
<VARIANCE> 39
 5.860344e+000 1.267386e+001 8.380939e+000 1.853611e+001 1.403488e+001 2.206335e+001 1.478825e+001 2.661953e+001 2.073230e+001 2.023771e+001 2.980938e+001 2.500680e+001 1.256008e+000 1.048404e-001 2.398493e-001 1.558299e-001 3.768741e-001 6.164954e-001 7.929646e-001 6.630930e-001 7.385781e-001 7.710372e-001 7.846417e-001 5.665550e-001 5.930734e-001 7.410155e-003 1.941453e-002 3.438258e-002 5.567912e-002 8.029000e-002 1.022886e-001 9.688558e-002 1.664757e-001 1.012561e-001 1.036378e-001 1.135932e-001 1.267391e-001 1.252595e-001 3.053577e-003
<GCONST> 5.538141e+001
<MIXTURE> 3 2.248019e-001
<MEAN> 39
 -7.172582e+000 -6.608127e+000 -5.537450e+000 -1.788240e+001 -1.109131e+001 -6.102131e+000 7.807235e+000 -4.667215e+000 -7.130304e+000 -3.417055e+000 -7.622488e+000 -9.273864e+000 1.930276e+001 -2.184220e-001 -8.590298e-001 -6.728075e-001 9.870522e-002 7.207322e-001 1.051639e+000 3.492408e-001 -1.107776e-002 -9.126906e-001 -1.389647e+000 2.071588e-001 -8.918229e-002 9.008890e-002 -3.058426e-002 1.857158e-001 1.768366e-001 3.487605e-001 2.859361e-001 -2.680382e-001 -5.465014e-001 2.115109e-001 2.307539e-001 6.210875e-002 5.546288e-001 1.959341e-001 -1.578702e-001
<VARIANCE> 39
 6.029771e+000 1.209346e+001 1.151867e+001 2.365860e+001 1.239545e+001 2.080900e+001 1.824051e+001 3.352203e+001 2.916223e+001 2.096475e+001 2.517385e+001 2.293906e+001 1.433106e+000 1.275056e-001 2.191762e-001 2.912337e-001 3.653960e-001 5.340856e-001 8.944588e-001 8.392981e-001 8.230667e-001 8.439672e-001 7.751784e-001 7.231023e-001 6.841770e-001 1.492579e-002 5.523885e-002 5.084590e-002 4.720905e-002 1.084539e-001 1.291052e-001 1.878702e-001 1.573815e-001 1.544490e-001 1.546378e-001 1.263479e-001 1.350994e-001 1.415484e-001 8.051934e-003
<GCONST> 6.311798e+001
<STATE> 6
<NUMMIXES> 3
<MIXTURE> 1 3.827897e-001
<MEAN> 39
 -4.467975e+000 -7.151024e+000 -2.604061e+000 -1.575439e+001 -3.654326e+000 -2.648432e+000 5.725794e+000 -1.232614e+001 1.664750e-001 -6.846372e+000 -6.321984e+000 -3.772170e+000 1.788064e+001 3.739717e-001 1.348823e+000 1.632169e+000 1.578342e+000 -9.241673e-001 -2.055671e+000 -1.107839e-001 1.312458e+000 -8.595530e-001 1.607094e+000 -2.148710e-001 -6.074690e-001 -5.302061e-001 -1.288063e-001 2.921947e-001 1.072719e-001 1.788516e-001 2.406674e-001 -1.413298e-001 -4.514988e-001 2.173948e-001 5.250360e-002 -2.678383e-001 2.777899e-001 -3.040455e-001 -6.760519e-002
<VARIANCE> 39
 8.534002e+000 1.425399e+001 1.215142e+001 1.816603e+001 1.775909e+001 1.669216e+001 1.685196e+001 2.701544e+001 2.568139e+001 3.559023e+001 1.954241e+001 2.237860e+001 1.689180e+000 5.421410e-001 7.504315e-001 9.870134e-001 8.163726e-001 8.463373e-001 9.272125e-001 1.117013e+000 1.144630e+000 9.780453e-001 1.486719e+000 1.263140e+000 9.428259e-001 4.230584e-002 3.733820e-002 1.274851e-001 1.465036e-001 1.491404e-001 1.244914e-001 2.299255e-001 1.317189e-001 1.628201e-001 1.174783e-001 2.267629e-001 1.051153e-001 1.099301e-001 1.039206e-002
<GCONST> 7.416564e+001
<MIXTURE> 2 3.100401e-001
<MEAN> 39
 -5.510706e+000 -8.313830e+000 -5.444876e+000 -1.479244e+001 -1.082516e+001 -8.196983e+000 5.590171e+000 5.757356e-001 -9.849561e+000 -5.177514e+000 -2.462595e+000 -1.099199e+001 1.887295e+001 4.548497e-001 7.287960e-001 5.873880e-001 1.315377e+000 4.113166e-001 -1.802865e+000 -2.109535e+000 1.324026e+000 8.446316e-001 -9.058154e-001 1.338647e+000 1.780391e-001 -3.781701e-001 -3.163893e-002 3.256830e-001 2.646697e-001 1.767533e-001 2.860388e-001 -1.881491e-001 -5.046174e-001 -3.976738e-001 4.144580e-001 -3.529067e-003 -1.001389e-001 2.891848e-001 -1.202935e-001
<VARIANCE> 39
 7.695593e+000 8.878343e+000 1.132441e+001 1.344933e+001 1.901216e+001 2.254069e+001 1.811612e+001 2.558721e+001 2.304425e+001 2.310933e+001 1.752460e+001 1.542874e+001 1.530529e+000 3.034764e-001 5.262566e-001 5.762143e-001 8.126416e-001 1.042365e+000 1.235478e+000 1.112560e+000 9.586891e-001 1.079010e+000 7.222273e-001 8.090143e-001 9.261251e-001 3.576743e-002 4.850877e-002 4.443184e-002 7.561768e-002 1.174823e-001 1.653299e-001 1.632718e-001 1.452395e-001 1.133035e-001 1.309361e-001 1.026046e-001 9.451822e-002 8.677512e-002 5.043389e-003
<GCONST> 6.629971e+001
<MIXTURE> 3 3.071697e-001
<MEAN> 39
 -4.025423e+000 -5.949846e+000 -4.201367e+000 -1.070850e+001 -8.949800e+000 -1.398380e+001 -1.796236e+000 4.516026e+000 -5.561827e+000 -8.935527e+000 1.322328e+000 -8.968712e+000 1.778371e+001 2.243279e-001 1.033612e+000 8.986692e-001 1.055613e+000 8.784396e-001 -1.365541e+000 -2.306162e+000 -1.716251e-001 1.257996e+000 -4.647916e-001 4.575425e-001 5.772851e-001 -5.136667e-001 -1.701652e-001 -3.475016e-002 7.021489e-003 -2.474162e-001 5.409481e-002 4.782400e-001 3.543258e-001 -6.138298e-001 -1.505022e-001 3.228341e-001 -3.465475e-001 2.540291e-002 2.064976e-002
<VARIANCE> 39
 1.119963e+001 6.264320e+000 1.427039e+001 1.567784e+001 1.811998e+001 2.056803e+001 3.570695e+001 2.172086e+001 2.761445e+001 2.241057e+001 9.862900e+000 1.355757e+001 1.499744e+000 4.786303e-001 4.194637e-001 8.287692e-001 9.378244e-001 1.490492e+000 8.481668e-001 1.154912e+000 1.287795e+000 1.015791e+000 9.327975e-001 9.388219e-001 9.084948e-001 5.182183e-002 2.446228e-002 4.478671e-002 8.835125e-002 7.328907e-002 9.183416e-002 1.687385e-001 2.379104e-001 1.131352e-001 1.742676e-001 9.587844e-002 1.051667e-001 8.072487e-002 8.550841e-003
<GCONST> 6.798155e+001
<STATE> 7
<NUMMIXES> 3
<MIXTURE> 1 4.901243e-001
<MEAN> 39
 -4.281237e+000 -4.827858e+000 -2.555543e+000 -1.263983e+001 -7.676790e+000 -5.984230e+000 -3.616374e-001 -7.455832e+000 -3.976184e+000 -8.150015e+000 -3.643126e+000 -9.577683e+000 1.750530e+001 1.567824e-001 4.151951e-001 2.270716e-001 -5.036795e-001 4.595723e-001 3.544068e-001 -2.263516e-001 -6.324006e-001 8.861575e-002 1.317085e-001 -3.256751e-001 -7.811361e-002 1.184387e-001 5.698911e-002 3.459811e-001 3.673068e-001 1.209550e-001 3.708492e-001 -5.461190e-001 -2.815607e-001 1.399958e-001 1.036200e-001 7.901909e-002 -5.736566e-002 4.291368e-002 -8.030339e-002
<VARIANCE> 39
 9.501613e+000 1.026760e+001 1.064866e+001 1.969611e+001 3.001524e+001 4.217433e+001 3.684213e+001 6.965257e+001 4.809830e+001 6.109512e+001 3.522924e+001 2.869012e+001 1.582387e+000 3.925142e-001 9.145942e-001 1.475298e+000 9.483942e-001 1.666585e+000 2.700098e+000 2.362778e+000 1.549816e+000 1.752544e+000 2.169044e+000 1.504889e+000 9.193572e-001 6.949360e-002 5.731546e-002 7.692631e-002 9.217123e-002 1.330177e-001 2.372480e-001 3.081734e-001 2.793362e-001 2.489520e-001 2.368336e-001 2.590293e-001 1.918131e-001 1.570687e-001 5.442810e-003
<GCONST> 8.645314e+001
<MIXTURE> 2 3.116537e-001
<MEAN> 39
 -5.550146e+000 -1.473491e+000 9.656327e-001 -9.587979e+000 -2.836863e+000 -1.228601e+001 -3.179067e+000 -3.200978e+000 -1.094201e+000 -5.222091e+000 -1.188940e+000 -6.766551e+000 1.580356e+001 -1.717975e-001 7.139093e-001 5.659152e-001 5.161123e-001 4.328952e-001 -4.063895e-001 -8.117818e-001 -9.430958e-002 1.826898e-001 8.539135e-002 2.567305e-002 -1.630073e-001 -2.630103e-001 3.508257e-002 -3.789107e-001 -4.048972e-001 -4.373793e-001 -2.460669e-001 5.557392e-001 5.180272e-001 -1.964571e-001 -2.071243e-001 -1.353576e-001 -1.644409e-001 -8.245657e-002 1.799968e-001
<VARIANCE> 39
 1.525985e+001 8.297396e+000 2.030603e+001 2.320675e+001 2.262644e+001 2.548578e+001 4.131069e+001 3.244310e+001 2.452438e+001 2.996013e+001 2.196449e+001 2.218718e+001 1.703415e+000 2.855183e-001 5.683163e-001 6.368409e-001 9.501809e-001 1.060556e+000 1.217248e+000 1.432700e+000 1.508152e+000 1.013618e+000 9.901899e-001 7.717938e-001 1.028536e+000 7.070880e-002 8.043434e-002 8.659382e-002 1.553939e-001 2.140246e-001 2.261230e-001 1.826368e-001 3.453524e-001 3.132142e-001 2.931393e-001 3.929196e-001 1.754358e-001 1.852078e-001 1.022737e-002
<GCONST> 8.142925e+001
<MIXTURE> 3 1.982201e-001
<MEAN> 39
 -4.302449e+000 -1.893647e+000 1.469967e+000 -8.500003e+000 -5.706341e+000 -1.180213e+001 -2.701171e+000 -5.548968e+000 -4.145735e+000 -8.311089e+000 -4.454466e+000 -9.684430e+000 1.587590e+001 3.921000e-002 -3.964003e-001 -6.451107e-001 -8.380307e-001 -4.591576e-001 1.012708e+000 4.468852e-001 -7.267652e-001 -3.156449e-001 -3.504370e-001 -4.122527e-001 -3.558708e-001 2.393849e-001 1.450141e-002 -3.461909e-001 -4.015916e-001 -4.634367e-001 -6.772773e-002 5.461968e-001 3.074639e-001 -2.485123e-001 5.635676e-002 -4.139183e-002 -1.248888e-002 1.052896e-001 1.813252e-001
<VARIANCE> 39
 1.342548e+001 1.352288e+001 1.832722e+001 2.667409e+001 2.531081e+001 2.990916e+001 2.952023e+001 4.495404e+001 3.467278e+001 3.267294e+001 4.318143e+001 2.780033e+001 1.313065e+000 3.371419e-001 6.624311e-001 7.548334e-001 1.230896e+000 7.634874e-001 1.268615e+000 1.656820e+000 1.015655e+000 1.061910e+000 2.615813e+000 1.077963e+000 9.097708e-001 6.663129e-002 9.491566e-002 1.588067e-001 1.862108e-001 2.922432e-001 1.838333e-001 2.917516e-001 2.794842e-001 2.342600e-001 2.228743e-001 3.399434e-001 2.444144e-001 1.695034e-001 1.086874e-002
<GCONST> 8.545238e+001
<STATE> 8
<NUMMIXES> 3
<MIXTURE> 1 2.294496e-001
<MEAN> 39
 -7.719815e-001 1.885466e+000 3.391366e+000 -1.422847e+001 6.046748e-001 -1.254668e+001 -2.628169e+000 -6.284025e+000 -9.007503e-001 -4.775926e+000 -3.813782e+000 -4.633816e+000 1.713139e+001 6.013119e-001 9.308763e-001 8.110823e-001 -9.644370e-002 1.439455e+000 -1.693297e+000 -2.157798e-001 1.197828e-001 3.318354e-001 -3.400722e-002 -2.753737e-001 2.582929e-001 -1.097319e-001 -1.054658e-001 -1.682349e-001 -1.066962e-001 2.671649e-001 -3.280966e-001 3.163486e-001 1.023673e-001 3.700667e-002 -7.826570e-002 -2.947705e-002 1.020899e-001 -9.498703e-002 -3.588659e-002
<VARIANCE> 39
 1.522506e+001 1.691071e+001 2.589537e+001 2.301664e+001 3.370621e+001 9.859314e+001 4.480730e+001 2.744636e+001 7.776477e+001 8.101163e+001 6.772150e+001 3.747395e+001 1.716759e+000 2.029399e-001 4.959050e-001 1.068676e+000 9.908255e-001 2.556356e+000 2.468261e+000 1.158400e+000 1.129700e+000 1.245741e+000 1.413183e+000 1.226892e+000 9.972088e-001 1.419358e-002 5.694649e-002 7.366622e-002 1.661868e-001 1.301245e-001 2.559953e-001 4.532984e-001 2.409162e-001 1.434465e-001 1.924672e-001 2.391072e-001 2.197119e-001 1.081156e-001 4.809191e-003
<GCONST> 8.537125e+001
<MIXTURE> 2 2.912967e-001
<MEAN> 39
 -3.356693e+000 2.493293e+000 2.784197e+000 -1.352522e+001 -1.431656e+000 -1.251988e+001 -7.625561e+000 -1.087077e+001 -5.628053e+000 -1.247141e+001 -1.041763e+001 -1.537681e+001 1.736605e+001 -5.772409e-002 4.124967e-001 3.883032e-001 2.715733e-001 2.470448e-001 -3.319854e-001 -3.131696e-001 -1.367248e-001 -2.336217e-001 1.893591e-001 -3.251119e-002 -1.800356e-001 -9.933744e-002 -1.405077e-001 -1.899779e-001 -1.701234e-001 1.180646e-002 -5.863133e-002 2.541286e-001 1.574687e-001 1.004110e-002 9.694444e-002 1.211649e-001 2.286795e-001 2.484711e-001 -5.930573e-002
<VARIANCE> 39
 1.626548e+001 8.036099e+000 1.178397e+001 1.572872e+001 2.094616e+001 3.079176e+001 2.287238e+001 3.683068e+001 3.492644e+001 5.306643e+001 4.981714e+001 3.868432e+001 1.310983e+000 2.752989e-001 6.447777e-001 5.539640e-001 4.321528e-001 8.140948e-001 1.494646e+000 9.322032e-001 1.249856e+000 1.237155e+000 1.083709e+000 1.259215e+000 1.070485e+000 2.471766e-002 2.838110e-002 7.064025e-002 8.225323e-002 8.168989e-002 9.859570e-002 1.633608e-001 1.335648e-001 1.802196e-001 1.843267e-001 2.025280e-001 2.063851e-001 1.395213e-001 3.236773e-003
<GCONST> 7.278059e+001
<MIXTURE> 3 4.792511e-001
<MEAN> 39
 -6.688845e+000 3.013608e-001 1.073312e+000 -1.254954e+001 -7.320153e-001 -9.222816e+000 -1.370558e+000 -4.221416e+000 -1.164986e+000 -4.317061e+000 -1.195978e+000 -6.799327e+000 1.657375e+001 -1.280126e-001 2.293779e-001 2.414217e-001 4.483566e-002 2.953821e-001 -2.701556e-002 -2.792256e-001 -9.373119e-002 -2.843976e-003 1.593205e-002 -1.030762e-001 -7.707242e-002 -7.307619e-002 -5.531676e-002 -1.020521e-001 -1.003848e-001 -4.203271e-002 -5.885996e-002 1.614973e-002 2.443825e-002 -9.540656e-003 -2.022651e-002 -3.380269e-002 -3.251666e-003 -4.216806e-002 -6.630319e-003
<VARIANCE> 39
 1.031908e+001 7.671709e+000 1.018044e+001 1.207518e+001 1.784588e+001 2.546505e+001 1.726457e+001 1.947776e+001 2.091113e+001 2.569948e+001 2.211189e+001 1.587947e+001 1.947619e+000 1.888857e-001 3.454786e-001 4.147772e-001 4.503869e-001 6.659674e-001 9.837163e-001 8.439397e-001 7.349867e-001 6.765990e-001 9.161115e-001 7.461479e-001 6.104113e-001 3.049409e-002 2.318407e-002 4.742542e-002 6.249223e-002 6.717970e-002 1.123559e-001 1.662152e-001 1.255354e-001 1.269859e-001 1.129497e-001 1.385909e-001 1.016570e-001 8.983493e-002 3.380919e-003
<GCONST> 6.060133e+001
<STATE> 9
<NUMMIXES> 3
<MIXTURE> 1 4.077539e-001
<MEAN> 39
 -9.899225e-001 3.790143e+000 5.926641e+000 -9.561757e+000 3.077402e-001 -1.197539e+001 -4.305451e+000 -8.557613e+000 -2.591411e+000 -5.902351e+000 -5.657371e+000 -7.540972e+000 1.572397e+001 -1.279660e+000 -5.522664e-001 -3.870302e-001 8.496939e-001 -1.295130e-001 1.076142e+000 1.962004e-001 -4.136209e-002 1.154179e-001 9.064032e-002 4.055342e-001 2.571056e-001 -6.302898e-001 -4.330302e-001 -4.448991e-001 -4.735666e-001 -1.300637e-001 -2.531542e-001 2.650925e-001 7.217539e-002 1.572650e-001 4.958253e-002 -4.172647e-002 1.730177e-001 4.602811e-002 -9.310521e-002
<VARIANCE> 39
 1.957420e+001 1.981491e+001 2.202090e+001 3.789562e+001 3.557114e+001 5.717841e+001 4.417862e+001 4.565074e+001 6.453438e+001 6.637177e+001 5.210022e+001 5.057812e+001 4.110897e+000 1.453879e+000 1.270268e+000 1.497569e+000 1.666527e+000 1.686790e+000 2.608941e+000 1.460080e+000 1.619991e+000 2.072254e+000 1.912678e+000 1.560085e+000 1.733649e+000 1.522734e-001 1.602043e-001 1.462938e-001 1.895382e-001 3.077207e-001 2.535819e-001 4.648453e-001 2.337691e-001 2.563968e-001 3.341149e-001 2.707289e-001 2.251056e-001 1.840229e-001 1.941296e-002
<GCONST> 1.005289e+002
<MIXTURE> 2 2.816787e-001
<MEAN> 39
 -1.250418e+001 -4.478074e+000 -3.097237e+000 -1.278615e+001 -3.644112e+000 -9.121228e+000 -4.513442e+000 -6.670393e+000 -1.470753e+000 -4.686912e+000 -1.868210e+000 -5.989539e+000 1.212684e+001 -1.434272e+000 -1.118392e+000 -1.490190e+000 -6.913227e-001 -7.994509e-001 -1.705543e-001 1.577680e-001 4.634263e-001 4.877077e-001 5.498383e-001 7.107623e-001 8.539917e-001 -3.640801e-001 3.978582e-001 3.596529e-001 3.292539e-001 1.183970e-001 1.830739e-001 -1.785675e-001 -2.465855e-002 -7.056991e-002 -1.134975e-001 -3.788185e-002 -1.837786e-001 -1.617426e-001 1.996161e-001
<VARIANCE> 39
 1.142826e+001 8.828402e+000 1.133353e+001 3.374713e+001 1.602083e+001 3.756009e+001 2.737588e+001 2.681830e+001 2.079116e+001 1.999538e+001 2.381360e+001 2.153642e+001 6.660574e+000 1.247299e+000 7.703996e-001 7.894474e-001 9.894122e-001 9.327241e-001 1.303440e+000 9.443499e-001 1.153190e+000 1.174601e+000 1.340061e+000 1.542435e+000 1.080167e+000 1.329678e-001 1.000285e-001 1.141462e-001 1.039087e-001 2.488400e-001 1.452591e-001 2.690965e-001 2.124391e-001 1.821231e-001 1.961437e-001 2.658189e-001 1.770748e-001 1.508074e-001 1.312006e-002
<GCONST> 8.281067e+001
<MIXTURE> 3 3.105667e-001
<MEAN> 39
 -8.663623e+000 -1.629354e-001 2.397314e+000 -1.078330e+001 1.035851e+000 -8.258394e+000 -2.224911e+000 -6.580965e+000 -2.217442e+000 -4.965350e+000 -2.420600e+000 -7.839892e+000 1.443497e+001 -1.228746e+000 -1.248260e+000 -1.284351e+000 -8.971583e-001 -6.617402e-001 7.740066e-002 -8.625168e-002 1.553776e-001 1.649501e-001 2.242500e-001 4.581619e-001 3.902222e-001 -4.533361e-001 3.561723e-002 -7.589836e-002 -2.380596e-001 -2.324300e-001 -2.572742e-001 -2.795286e-001 -1.440009e-001 2.803089e-002 -1.446371e-002 -6.370113e-003 -1.364946e-003 9.288564e-002 5.611340e-002
<VARIANCE> 39
 8.553915e+000 9.366245e+000 1.248922e+001 1.866951e+001 1.403378e+001 2.365227e+001 2.351057e+001 2.834212e+001 2.756510e+001 2.331304e+001 2.888771e+001 1.992875e+001 4.915239e+000 6.351742e-001 3.833357e-001 5.292152e-001 6.589237e-001 7.962008e-001 1.270741e+000 1.090265e+000 1.171436e+000 1.304434e+000 1.702670e+000 1.305511e+000 9.278490e-001 9.819094e-002 3.929097e-002 7.076425e-002 7.341378e-002 9.513213e-002 9.849127e-002 1.335508e-001 1.583846e-001 1.717470e-001 1.584140e-001 1.627757e-001 1.514152e-001 9.578785e-002 5.571334e-003
<GCONST> 7.282543e+001
<TRANSP> 10
 0.000000e+000 1.000000e+000 0.000000e+000 0.000000e+000 0.000000e+000 0.000000e+000 0.000000e+000 0.000000e+000 0.000000e+000 0.000000e+000
 0.000000e+000 7.268950e-001 2.731050e-001 0.000000e+000 0.000000e+000 0.000000e+000 0.000000e+000 0.000000e+000 0.000000e+000 0.000000e+000
 0.000000e+000 0.000000e+000 5.624337e-001 4.375663e-001 0.000000e+000 0.000000e+000 0.000000e+000 0.000000e+000 0.000000e+000 0.000000e+000
 0.000000e+000 0.000000e+000 0.000000e+000 6.614187e-001 3.385813e-001 0.000000e+000 0.000000e+000 0.000000e+000 0.000000e+000 0.000000e+000
 0.000000e+000 0.000000e+000 0.000000e+000 0.000000e+000 7.833506e-001 2.166494e-001 0.000000e+000 0.000000e+000 0.000000e+000 0.000000e+000
 0.000000e+000 0.000000e+000 0.000000e+000 0.000000e+000 0.000000e+000 7.270882e-001 2.729118e-001 0.000000e+000 0.000000e+000 0.000000e+000
 0.000000e+000 0.000000e+000 0.000000e+000 0.000000e+000 0.000000e+000 0.000000e+000 8.662231e-001 1.337770e-001 0.000000e+000 0.000000e+000
 0.000000e+000 0.000000e+000 0.000000e+000 0.000000e+000 0.000000e+000 0.000000e+000 0.000000e+000 8.540974e-001 1.459026e-001 0.000000e+000
 0.000000e+000 0.000000e+000 0.000000e+000 0.000000e+000 0.000000e+000 0.000000e+000 0.000000e+000 0.000000e+000 7.887225e-001 2.112776e-001
 0.000000e+000 0.000000e+000 0.000000e+000 0.000000e+000 0.000000e+000 0.000000e+000 0.000000e+000 0.000000e+000 0.000000e+000 0.000000e+000
<ENDHMM>
~h "sil"
<BEGINHMM>
<NUMSTATES> 5
<STATE> 2
<NUMMIXES> 3
<MIXTURE> 1 2.198971e-001
<MEAN> 39
 -5.543973e+000 -1.443403e+000 -3.421067e-002 -3.743695e+000 -2.135350e+000 -5.155148e+000 -2.538950e+000 -6.756993e+000 -3.151936e+000 -4.126612e+000 -1.541588e+000 -4.250730e+000 8.800931e+000 2.014371e-002 2.925185e-001 -2.835085e-002 1.691275e-001 -3.939018e-002 6.103255e-002 4.074898e-002 2.302222e-001 9.973451e-002 -8.388588e-002 4.012979e-002 8.802190e-002 -1.145479e-001 -5.515981e-002 -4.794742e-002 -4.042609e-002 -6.597646e-002 -6.618120e-003 -8.350773e-003 -7.333761e-003 -2.284017e-002 2.194881e-003 -5.221504e-003 -1.861785e-002 4.788259e-003 -3.368444e-003
<VARIANCE> 39
 1.035764e+001 3.319552e+001 1.576885e+001 1.892521e+001 2.100889e+001 2.286535e+001 2.077134e+001 2.524300e+001 2.619082e+001 2.657434e+001 2.036614e+001 1.550698e+001 1.468073e+000 2.104288e-001 3.845144e-001 4.207624e-001 5.246787e-001 7.091195e-001 7.417770e-001 7.078112e-001 9.053878e-001 9.605156e-001 9.360723e-001 6.983970e-001 5.515897e-001 3.039603e-002 2.614891e-002 5.326287e-002 6.628794e-002 9.988427e-002 1.256101e-001 1.194652e-001 1.199441e-001 1.408243e-001 1.667808e-001 1.616399e-001 1.362004e-001 9.468859e-002 3.483338e-003
<GCONST> 6.517265e+001
<MIXTURE> 2 4.100828e-001
<MEAN> 39
 -1.211873e+001 -3.689907e+000 -4.922839e+000 -1.113877e+001 -5.218816e+000 -9.030580e+000 -3.489265e+000 -4.440039e+000 -6.176265e-001 -3.806757e+000 -7.503483e-001 -3.733936e+000 8.592066e+000 -7.489490e-002 -6.904674e-002 -7.190143e-002 -9.505682e-002 -9.110151e-002 -6.804248e-002 -6.907518e-002 -6.266060e-002 -1.896879e-002 -1.182671e-002 3.258248e-003 7.829296e-003 -1.312160e-002 4.344870e-002 3.863100e-002 5.333886e-002 4.866300e-002 4.981064e-002 3.447255e-002 -2.310055e-004 -3.179033e-002 -4.322960e-002 -2.964387e-002 -3.631387e-002 -2.868505e-002 1.607497e-002
<VARIANCE> 39
 2.820616e+000 4.630509e+000 5.916155e+000 2.972928e+001 1.451690e+001 1.858237e+001 1.369799e+001 1.481460e+001 1.367168e+001 1.369180e+001 1.393846e+001 1.517154e+001 1.796414e+001 8.870108e-002 1.678286e-001 2.773607e-001 4.061556e-001 5.523482e-001 5.698904e-001 6.664831e-001 7.336549e-001 7.338939e-001 6.887060e-001 6.856847e-001 5.594797e-001 6.567089e-003 1.230346e-002 2.455095e-002 3.940936e-002 5.406051e-002 6.473470e-002 6.789710e-002 8.205526e-002 8.412743e-002 9.372555e-002 8.728508e-002 9.374507e-002 7.784284e-002 1.086637e-003
<GCONST> 4.766326e+001
<MIXTURE> 3 3.700157e-001
<MEAN> 39
 -9.717637e+000 -2.777764e+000 -2.785141e+000 -5.682041e+000 -4.711309e+000 -5.713069e+000 -3.678430e+000 -7.065752e+000 -2.887964e+000 -5.454845e+000 -2.654814e+000 -4.180049e+000 6.571025e+000 -8.532923e-002 1.202394e-001 -5.531541e-002 -3.976400e-002 -1.036046e-001 -8.355323e-002 7.452418e-002 1.716374e-001 1.515056e-002 -1.563240e-004 2.485807e-002 4.575495e-002 -7.402344e-002 -1.046441e-002 -1.432152e-002 -8.365228e-003 -2.150221e-002 1.196472e-002 -1.879118e-002 1.448203e-002 2.667315e-002 6.046645e-002 6.129844e-002 3.888701e-002 1.011993e-002 1.259780e-002
<VARIANCE> 39
 3.865570e+000 9.280252e+000 8.572611e+000 1.111284e+001 1.603340e+001 2.178885e+001 2.253109e+001 2.397664e+001 2.049402e+001 2.079132e+001 1.636979e+001 1.553627e+001 7.986814e-001 1.456790e-001 2.403837e-001 2.947681e-001 4.425227e-001 5.613716e-001 7.073765e-001 7.165320e-001 8.534615e-001 8.338292e-001 7.995270e-001 7.192408e-001 6.193472e-001 2.412029e-002 1.802563e-002 3.280394e-002 4.498884e-002 6.630581e-002 9.255765e-002 1.259532e-001 1.221902e-001 1.411356e-001 1.396336e-001 1.350593e-001 1.257589e-001 1.112066e-001 2.454514e-003
<GCONST> 5.557723e+001
<STATE> 3
~s "silst"
<STATE> 4
<NUMMIXES> 3
<MIXTURE> 1 4.540578e-001
<MEAN> 39
 -1.197200e+001 -3.838410e+000 -3.913222e+000 -7.289109e+000 -5.393762e+000 -6.932344e+000 -2.878013e+000 -5.711210e+000 -1.445621e+000 -4.555113e+000 -1.535609e+000 -4.232194e+000 7.785120e+000 -9.686911e-002 1.924335e-002 1.182340e-002 -3.758670e-002 2.072469e-002 -2.628121e-002 6.271913e-002 -1.913719e-002 -9.379043e-003 -4.483744e-002 5.318975e-002 -7.709982e-002 2.404938e-001 3.807113e-002 4.636721e-002 2.234793e-002 -1.769017e-002 2.540902e-002 1.757690e-002 -1.483957e-002 -1.225492e-002 -1.292511e-002 -2.274939e-002 -3.185579e-003 -2.529447e-004 5.088368e-002
<VARIANCE> 39
 1.404251e+001 1.498058e+001 1.726751e+001 2.651957e+001 2.330029e+001 2.487323e+001 2.183125e+001 2.434044e+001 2.075972e+001 2.050197e+001 1.896134e+001 1.575603e+001 5.048487e+000 8.995814e-001 8.978443e-001 8.702990e-001 1.182224e+000 1.155425e+000 1.189597e+000 9.694712e-001 1.127309e+000 9.567991e-001 8.854229e-001 8.852354e-001 7.395756e-001 2.966109e-001 1.565779e-001 1.512712e-001 1.577345e-001 1.969747e-001 2.002056e-001 1.983231e-001 1.920367e-001 2.267226e-001 1.907541e-001 1.668598e-001 1.597639e-001 1.376791e-001 5.010060e-002
<GCONST> 8.374704e+001
<MIXTURE> 2 2.369252e-001
<MEAN> 39
 -1.085837e+001 -2.653595e+000 -3.295295e+000 -6.399066e+000 -4.943126e+000 -5.655352e+000 -3.084386e+000 -5.725381e+000 -1.645939e+000 -4.599441e+000 -1.637160e+000 -3.729375e+000 6.882620e+000 -1.191181e-002 1.035411e-001 3.244414e-002 9.442715e-002 9.331767e-002 6.873845e-002 7.679596e-002 -2.196068e-002 5.155868e-003 7.690869e-002 -4.344328e-002 3.451227e-002 -3.815341e-002 -1.408246e-002 -2.708481e-002 -2.488361e-004 -4.221936e-003 -1.809039e-003 -3.764793e-002 6.590208e-003 -1.554494e-002 -1.627791e-003 -4.660162e-003 -1.070285e-004 -1.346306e-003 2.910785e-002
<VARIANCE> 39
 1.089980e+001 1.108247e+001 8.809019e+000 1.486827e+001 1.719403e+001 1.642995e+001 1.757847e+001 2.182719e+001 1.760302e+001 1.697562e+001 1.358826e+001 1.364038e+001 3.190443e+000 2.626636e-001 2.939563e-001 3.990985e-001 5.451781e-001 5.958406e-001 6.562204e-001 7.850636e-001 1.002374e+000 8.376785e-001 7.594476e-001 6.177236e-001 6.118703e-001 5.570710e-002 3.350231e-002 3.520598e-002 4.571657e-002 6.167617e-002 8.125865e-002 7.545540e-002 9.382063e-002 1.105971e-001 9.896102e-002 8.087014e-002 7.854597e-002 7.737558e-002 6.669851e-003
<GCONST> 5.822648e+001
<MIXTURE> 3 3.090137e-001
<MEAN> 39
 -1.278724e+001 -4.730335e+000 -4.355425e+000 -1.758201e+001 -4.324279e+000 -1.294040e+001 -4.964840e+000 -6.193972e+000 -1.983907e+000 -4.637907e+000 -1.015924e+000 -6.602072e+000 1.409873e+001 6.171655e-002 1.426566e-001 1.419242e-001 1.389955e-001 4.801251e-002 1.101940e-001 6.423775e-002 5.887074e-003 -2.309971e-003 6.596626e-002 -4.933826e-002 -1.472082e-003 6.334007e-002 7.602315e-002 4.481836e-002 1.747772e-002 4.644370e-002 4.698236e-002 4.110428e-002 5.624890e-002 2.796868e-002 1.802127e-002 -1.410739e-002 2.004907e-003 1.229744e-002 3.373360e-002
<VARIANCE> 39
 3.110566e+000 4.537144e+000 6.556963e+000 1.035297e+001 1.257452e+001 1.242884e+001 1.500026e+001 1.675159e+001 1.499806e+001 1.844572e+001 1.633804e+001 1.411720e+001 3.262007e+000 1.775209e-001 2.648413e-001 3.708407e-001 5.865919e-001 6.387132e-001 6.609728e-001 8.916034e-001 9.451433e-001 7.597322e-001 8.388504e-001 8.087945e-001 7.284887e-001 1.791625e-002 3.021802e-002 3.734205e-002 4.374817e-002 6.656531e-002 6.382811e-002 6.968858e-002 9.796593e-002 9.970981e-002 8.384009e-002 9.388755e-002 8.865566e-002 8.492947e-002 4.446784e-003
<GCONST> 5.292986e+001
<TRANSP> 5
 0.000000e+000 1.000000e+000 0.000000e+000 0.000000e+000 0.000000e+000
 0.000000e+000 8.207550e-001 1.792450e-001 0.000000e+000 0.000000e+000
 0.000000e+000 0.000000e+000 9.444327e-001 5.556731e-002 0.000000e+000
 0.000000e+000 0.000000e+000 0.000000e+000 7.362127e-001 2.637873e-001
 0.000000e+000 0.000000e+000 0.000000e+000 0.000000e+000 0.000000e+000
<ENDHMM>
~h "six"
<BEGINHMM>
<NUMSTATES> 10
<STATE> 2
<NUMMIXES> 3
<MIXTURE> 1 2.355252e-001
<MEAN> 39
 -1.491738e+001 -4.499362e+000 -6.229941e+000 -1.555152e+001 -5.669878e+000 -1.067043e+001 -6.734756e+000 -5.863281e+000 -1.990921e+000 -3.783070e+000 -2.375675e+000 -4.941972e+000 1.427569e+001 1.045977e+000 7.721004e-001 1.186059e+000 1.252007e-001 3.968379e-002 8.333923e-002 6.425158e-001 2.222808e-002 4.942286e-001 5.511608e-001 -3.210536e-002 4.660228e-001 4.165038e-001 4.439999e-001 2.805663e-001 3.772236e-001 -9.906600e-002 -4.043561e-001 -3.388653e-002 2.811725e-001 1.049341e-002 1.507069e-001 3.211051e-001 -1.347695e-002 -2.973430e-002 2.179459e-001
<VARIANCE> 39
 4.192635e+000 7.839270e+000 1.005016e+001 1.816560e+001 1.389979e+001 1.870619e+001 1.665091e+001 2.136007e+001 1.536252e+001 1.631657e+001 1.919860e+001 1.262438e+001 2.530043e+000 2.414414e-001 2.505532e-001 3.446514e-001 5.165595e-001 7.933153e-001 7.535726e-001 7.986630e-001 6.657009e-001 1.000480e+000 7.915424e-001 6.023059e-001 8.603619e-001 4.666943e-002 3.259719e-002 6.341708e-002 9.208240e-002 1.165524e-001 1.316951e-001 1.762991e-001 1.564132e-001 1.565467e-001 1.981559e-001 1.636680e-001 1.383121e-001 1.848057e-001 4.730984e-003
<GCONST> 6.348432e+001
<MIXTURE> 2 4.302159e-001
<MEAN> 39
 -1.940972e+001 -3.624419e+000 -7.215247e+000 -7.472926e+000 -6.168961e+000 -5.078647e+000 -2.930258e+000 -4.922713e+000 1.129921e+000 -3.118588e+000 -9.354702e-001 -3.013382e+000 1.179750e+001 -5.668115e-002 -6.076803e-002 -1.446764e-001 4.339429e-002 -1.514804e-002 -7.096451e-002 4.137095e-002 4.540726e-003 -5.433466e-002 -1.438392e-001 -1.775637e-002 9.045208e-002 1.263248e-001 2.997367e-001 7.223515e-002 1.726101e-001 -1.132878e-001 1.027749e-002 -6.952343e-002 -1.281431e-002 -6.232651e-002 -4.948269e-002 -2.165866e-002 -3.433252e-002 -6.333646e-002 4.459600e-002
<VARIANCE> 39
 5.639837e+000 2.518859e+001 1.416591e+001 1.655803e+001 1.806782e+001 2.248428e+001 2.028761e+001 2.391944e+001 1.759596e+001 2.722084e+001 2.771911e+001 1.630624e+001 4.102609e+000 3.946744e-001 5.086871e-001 4.857430e-001 6.723486e-001 5.592773e-001 7.582691e-001 9.782107e-001 1.028775e+000 7.191018e-001 8.380812e-001 7.320220e-001 6.066032e-001 4.584818e-002 7.237988e-002 1.189492e-001 8.413762e-002 1.230053e-001 1.075193e-001 1.514241e-001 1.608953e-001 1.956785e-001 1.369443e-001 1.450469e-001 1.262215e-001 1.094273e-001 1.329281e-002
<GCONST> 7.057958e+001
<MIXTURE> 3 3.342591e-001
<MEAN> 39
 -1.496537e+001 -4.156264e+000 -5.907782e+000 -1.410114e+001 -5.876860e+000 -9.904939e+000 -6.435097e+000 -6.640370e+000 -3.128110e+000 -4.002118e+000 -2.039682e+000 -6.118891e+000 1.364169e+001 4.329793e-002 9.296333e-002 8.608488e-002 -2.481200e-002 9.804846e-002 1.212254e-001 -2.677275e-003 -8.499380e-002 1.406447e-001 -6.968233e-002 -8.137590e-002 6.654846e-003 6.311611e-002 2.665707e-001 1.973408e-001 2.235010e-001 -6.013247e-002 2.677158e-002 1.777534e-002 1.750806e-001 8.313392e-002 2.200568e-001 -5.654788e-002 -3.987047e-002 4.666170e-002 1.105755e-001
<VARIANCE> 39
 4.851958e+000 7.047509e+000 1.088216e+001 1.809144e+001 1.542193e+001 1.802274e+001 2.046710e+001 1.957248e+001 1.511235e+001 1.787854e+001 1.516708e+001 1.460956e+001 2.858597e+000 9.177613e-002 1.695103e-001 2.769526e-001 4.445745e-001 6.068731e-001 7.451878e-001 7.539515e-001 6.358808e-001 7.020873e-001 7.750995e-001 7.654354e-001 6.862614e-001 1.890793e-002 2.971741e-002 4.142011e-002 7.263429e-002 1.020003e-001 1.189095e-001 1.292637e-001 1.324772e-001 1.421172e-001 1.374520e-001 2.486204e-001 1.230495e-001 1.450854e-001 5.333599e-003
<GCONST> 5.876699e+001
<STATE> 3
<NUMMIXES> 3
<MIXTURE> 1 3.610217e-001
<MEAN> 39
 -8.556540e+000 5.379235e-001 2.755730e-001 -1.350585e+001 -5.009933e+000 -9.926542e+000 -2.347533e+000 -5.177570e+000 -1.412786e+000 -1.234874e+000 -1.397996e+000 -4.697915e+000 1.650243e+001 1.724024e+000 8.309416e-001 1.312717e+000 -8.465946e-001 -1.538455e+000 -9.945904e-003 8.859102e-001 7.881150e-002 6.267467e-001 8.521056e-001 -5.795547e-002 -2.510365e-001 8.983902e-001 -2.092199e-001 -1.730862e-001 -2.053652e-001 -3.058839e-001 -2.703280e-001 2.122492e-001 -1.968396e-001 5.409172e-002 1.351342e-001 -1.190963e-001 -3.424385e-002 -8.325556e-002 2.318135e-002
<VARIANCE> 39
 1.128048e+001 9.482585e+000 8.670291e+000 1.446863e+001 2.075302e+001 2.157421e+001 1.848725e+001 1.393277e+001 1.867929e+001 3.280787e+001 1.614194e+001 1.576454e+001 2.154922e+000 6.818930e-001 8.601305e-001 7.814633e-001 1.373964e+000 1.120382e+000 1.404342e+000 1.138219e+000 1.513816e+000 1.545904e+000 2.170803e+000 1.220075e+000 1.680928e+000 8.624367e-002 5.259981e-002 4.251785e-002 6.672915e-002 8.688689e-002 1.493771e-001 1.293693e-001 2.700917e-001 1.207792e-001 1.331854e-001 1.954132e-001 1.439030e-001 1.870805e-001 6.147869e-003
<GCONST> 7.459802e+001
<MIXTURE> 2 3.667320e-001
<MEAN> 39
 -1.482751e+001 -4.998899e+000 -6.186779e+000 -1.285135e+001 -2.966003e+000 -9.387897e+000 -4.033669e+000 -4.676754e+000 1.228800e+000 -6.973094e+000 2.202559e+000 -6.551404e+000 1.281665e+001 1.841017e+000 1.377031e+000 5.744464e-001 -1.443762e+000 -4.992040e-001 -3.472408e-001 5.870690e-002 -3.241459e-001 6.507248e-001 -1.353125e+000 -7.267630e-001 -1.042475e+000 8.825331e-001 3.547936e-001 2.011544e-001 2.175738e-001 -5.372774e-001 -9.758046e-002 -5.804646e-002 1.973198e-001 -4.161378e-002 1.466589e-001 -1.384512e-001 -3.786519e-001 -3.123462e-001 2.039584e-001
<VARIANCE> 39
 9.555849e+000 1.117238e+001 9.455523e+000 2.431312e+001 1.358697e+001 1.945669e+001 1.423875e+001 1.647384e+001 1.826379e+001 3.194938e+001 1.903760e+001 1.554803e+001 2.841412e+000 8.406197e-001 6.599410e-001 4.960845e-001 1.070680e+000 6.661474e-001 6.387361e-001 7.226397e-001 8.657613e-001 7.221687e-001 9.724073e-001 1.279814e+000 1.376093e+000 1.147911e-001 1.150964e-001 9.512967e-002 7.397255e-002 1.082274e-001 1.013264e-001 1.284593e-001 1.161513e-001 1.550721e-001 1.141527e-001 2.687738e-001 2.671282e-001 2.127920e-001 1.171182e-002
<GCONST> 7.292751e+001
<MIXTURE> 3 2.722459e-001
<MEAN> 39
 -1.704375e+001 -1.978999e+000 -6.666621e+000 -1.010925e+001 -6.491491e+000 -4.824938e+000 -3.045380e+000 -6.300989e+000 1.142282e+000 -4.395955e-001 -4.454588e+000 -1.379711e+000 1.329735e+001 2.302594e+000 7.870294e-001 1.803171e+000 -1.040695e+000 -9.448812e-001 -9.963162e-001 8.576849e-001 -2.070338e-001 -1.707439e-001 1.171259e+000 -2.054518e-001 -9.448719e-002 8.890218e-001 3.801011e-001 3.694623e-002 2.910065e-001 -3.941568e-001 -5.014872e-001 -2.824893e-001 -1.325568e-002 1.868629e-002 -1.318903e-001 6.767350e-002 5.781726e-002 -3.064494e-001 2.213334e-001
<VARIANCE> 39
 9.637273e+000 1.461515e+001 1.808878e+001 2.643072e+001 1.853962e+001 2.976529e+001 2.563820e+001 1.615682e+001 2.913573e+001 3.045138e+001 2.209914e+001 3.040718e+001 1.653702e+000 5.074499e-001 6.785395e-001 5.063694e-001 1.212404e+000 8.543139e-001 8.662819e-001 9.883271e-001 1.178506e+000 9.145404e-001 7.350774e-001 1.050629e+000 7.989993e-001 1.312590e-001 1.596764e-001 1.258118e-001 1.679862e-001 1.124170e-001 1.202668e-001 1.855125e-001 2.753004e-001 1.944423e-001 1.318311e-001 2.484231e-001 1.785795e-001 1.981680e-001 9.223702e-003
<GCONST> 7.857711e+001
<STATE> 4
<NUMMIXES> 3
<MIXTURE> 1 2.671565e-001
<MEAN> 39
 -8.249365e+000 -1.024034e+000 -1.194994e-001 -2.218513e+001 -1.086338e+001 -6.305829e+000 -7.876456e-001 -4.787105e+000 3.897759e+000 -2.708483e+000 -5.511270e+000 -5.601108e+000 1.860669e+001 -2.508708e-001 9.707776e-002 8.175267e-002 -5.454060e-001 6.545280e-001 6.617593e-001 -6.110054e-001 8.641217e-001 2.054235e-001 -4.910766e-001 6.926469e-001 1.942520e-001 -7.989985e-002 -3.379992e-002 5.845734e-002 7.704881e-002 3.134659e-001 2.918387e-001 -2.075834e-001 -2.659858e-001 2.722922e-002 -3.176701e-001 3.504767e-002 2.656278e-001 3.277101e-002 -1.491133e-001
<VARIANCE> 39
 4.560858e+000 1.101650e+001 8.514102e+000 1.118970e+001 2.719139e+001 1.199686e+001 2.260894e+001 1.596533e+001 1.983415e+001 3.580212e+001 2.519563e+001 4.830488e+001 2.196301e+000 1.615224e-001 1.997426e-001 3.993352e-001 4.031249e-001 4.911056e-001 8.043787e-001 1.764377e+000 9.670758e-001 9.977895e-001 9.514436e-001 9.018001e-001 7.327163e-001 4.182668e-002 4.751896e-002 4.353505e-002 7.627022e-002 7.788454e-002 1.264540e-001 1.185681e-001 1.730917e-001 1.254631e-001 1.900273e-001 1.913317e-001 1.315720e-001 2.125906e-001 9.706099e-003
<GCONST> 6.612564e+001
<MIXTURE> 2 4.247580e-001
<MEAN> 39
 -5.625218e+000 4.862441e-001 1.703131e-001 -1.965587e+001 -1.133066e+001 -1.165481e+001 -1.486142e+000 -7.467234e+000 1.270012e+000 -3.991859e+000 -4.857026e+000 -8.296217e+000 1.824455e+001 8.890432e-001 3.849011e-001 6.093035e-001 -1.750900e+000 -7.714723e-001 7.662134e-002 1.996316e-001 2.538712e-001 4.567045e-001 -2.034214e-001 -5.994711e-001 -7.647179e-001 7.560639e-001 -5.842128e-001 -2.409182e-001 -2.819315e-001 1.756336e-001 4.700008e-001 2.806956e-001 -3.305578e-001 2.699445e-001 -1.172892e-001 -8.606514e-002 2.186816e-001 2.073977e-001 -2.546473e-001
<VARIANCE> 39
 6.951996e+000 9.930394e+000 1.151318e+001 2.634185e+001 2.748394e+001 1.431429e+001 2.439941e+001 2.445146e+001 3.545531e+001 9.680518e+001 2.957162e+001 4.928207e+001 1.511373e+000 1.016966e+000 9.119683e-001 1.077466e+000 9.991991e-001 1.739618e+000 1.567348e+000 2.179193e+000 1.114319e+000 1.209375e+000 1.920630e+000 1.859745e+000 2.275051e+000 1.341863e-001 5.638563e-002 7.968558e-002 9.219468e-002 1.923242e-001 1.193082e-001 2.046087e-001 2.721744e-001 1.948975e-001 2.341189e-001 5.373246e-001 2.107718e-001 2.661243e-001 1.312601e-002
<GCONST> 8.662243e+001
<MIXTURE> 3 3.080858e-001
<MEAN> 39
 -7.624563e+000 3.355456e-001 -4.232908e+000 -2.394069e+001 -3.497151e-001 -7.956555e+000 1.295393e+000 -2.765183e+000 3.812126e+000 -9.081614e+000 -3.288874e-002 -7.521519e+000 1.793374e+001 -2.074575e-001 6.141067e-002 2.540571e-002 -2.005310e-001 4.976757e-001 -4.067542e-001 -9.932573e-002 3.804401e-001 -8.465777e-001 5.626191e-001 -3.097214e-001 2.035512e-001 -1.519522e-001 2.479490e-002 3.119875e-002 1.687173e-001 1.867500e-001 -1.641424e-001 -2.104465e-001 -2.180526e-001 -1.179969e-001 -1.341980e-001 9.255247e-002 -1.453288e-001 -4.380411e-002 -9.388547e-002
<VARIANCE> 39
 9.014801e+000 8.118140e+000 8.202944e+000 8.300016e+000 1.468177e+001 1.898535e+001 1.277165e+001 1.565210e+001 2.168220e+001 1.904654e+001 3.305164e+001 4.675070e+001 1.009241e+000 1.602320e-001 2.324360e-001 3.705814e-001 4.104306e-001 6.484018e-001 7.698750e-001 9.004820e-001 7.757060e-001 6.647790e-001 7.549010e-001 9.082664e-001 1.190823e+000 2.707959e-002 4.191162e-002 4.305881e-002 4.745253e-002 9.391834e-002 7.348555e-002 1.174203e-001 9.939625e-002 1.287658e-001 1.414336e-001 1.200323e-001 1.164010e-001 2.047169e-001 8.466401e-003
<GCONST> 6.062120e+001
<STATE> 5
<NUMMIXES> 3
<MIXTURE> 1 3.831522e-001
<MEAN> 39
 -7.086276e+000 -2.538873e-001 3.306757e+000 -2.017313e+001 -1.625409e+001 -5.138076e+000 -7.883340e+000 -2.443869e+000 9.866695e-001 -5.523957e-001 -1.602177e+000 -5.355547e+000 1.870504e+001 7.630783e-002 4.614801e-001 1.164068e+000 -1.463345e-002 7.003945e-001 8.901802e-001 -1.923661e+000 -2.121709e-002 2.741116e-001 -1.253140e+000 6.879168e-001 1.357249e-001 -4.415014e-001 -1.269984e-001 -1.161955e-002 -2.711304e-001 6.172867e-001 7.620251e-001 -3.459949e-001 4.807782e-001 -2.354556e-001 -1.246764e-001 -6.354440e-002 -4.730619e-002 5.352174e-002 -3.343762e-001
<VARIANCE> 39
 1.252029e+001 2.558138e+001 2.117226e+001 3.661403e+001 3.024380e+001 2.452731e+001 5.467639e+001 3.939862e+001 1.832462e+001 3.089663e+001 3.040686e+001 3.348422e+001 2.069268e+000 7.959268e-001 7.691579e-001 8.713236e-001 1.736051e+000 2.757716e+000 2.106434e+000 2.064404e+000 2.748793e+000 2.201814e+000 2.101055e+000 1.768446e+000 1.426319e+000 2.480491e-001 1.701706e-001 2.072030e-001 3.226096e-001 2.810079e-001 3.991694e-001 3.706559e-001 5.875460e-001 4.429830e-001 2.823556e-001 3.817807e-001 2.698462e-001 2.436692e-001 1.902665e-002
<GCONST> 9.894315e+001
<MIXTURE> 2 3.417462e-001
<MEAN> 39
 -6.505789e+000 2.861617e+000 3.323899e-001 -2.626546e+001 -7.682172e-001 -1.496260e+001 -3.408164e+000 -2.176310e+000 -2.648383e+000 -6.635063e+000 -6.880215e+000 -1.144531e+001 1.713817e+001 7.414709e-002 3.721346e-001 8.380066e-001 1.564333e+000 5.002678e-002 -2.261394e-001 -8.537396e-001 4.471821e-002 -8.173717e-001 1.115227e+000 2.883702e-001 6.925918e-001 -8.264865e-001 -2.524072e-001 -4.195583e-001 -2.592954e-001 8.560392e-001 -4.102332e-001 4.962222e-001 -5.582969e-003 -3.514532e-001 2.966138e-001 -6.895544e-002 4.974749e-001 4.242797e-001 -2.844104e-001
<VARIANCE> 39
 1.094916e+001 1.595931e+001 1.941592e+001 9.662212e+000 1.612010e+001 2.597072e+001 3.523790e+001 2.422589e+001 2.289389e+001 4.677960e+001 4.505489e+001 4.195955e+001 2.104949e+000 5.565482e-001 8.470198e-001 8.575953e-001 2.080810e+000 1.642355e+000 1.609165e+000 8.765490e-001 1.144689e+000 1.443858e+000 1.767574e+000 1.594163e+000 2.398138e+000 2.582931e-001 1.126393e-001 1.848301e-001 2.004243e-001 2.290129e-001 1.732109e-001 1.849865e-001 3.339457e-001 2.311796e-001 2.835416e-001 3.302864e-001 2.982027e-001 3.278498e-001 2.082475e-002
<GCONST> 9.033301e+001
<MIXTURE> 3 2.751007e-001
<MEAN> 39
 -8.045401e+000 2.094458e+000 4.412436e+000 -2.069527e+001 -7.243833e+000 -7.839502e+000 -1.008027e+001 -3.155337e+000 9.481836e-001 -3.901907e+000 4.883261e-001 -4.519059e+000 1.717632e+001 -5.067513e-001 -5.351310e-001 -5.675834e-001 1.199774e+000 1.840181e+000 -7.781591e-001 1.637495e-001 -2.057789e-001 -8.029537e-001 -5.587322e-001 3.156390e-001 -4.100156e-001 -7.237771e-001 -2.087691e-001 -4.698930e-001 -5.720540e-001 1.822907e-001 -4.421506e-002 -2.020499e-001 6.264840e-001 -1.802371e-001 -1.760244e-002 1.880412e-001 -2.704782e-001 -8.306506e-002 -8.780561e-002
<VARIANCE> 39
 3.630238e+000 9.098536e+000 1.443947e+001 1.859106e+001 3.042531e+001 2.908928e+001 5.149978e+001 2.915814e+001 1.820099e+001 2.028351e+001 1.182409e+001 1.764175e+001 2.794937e+000 2.956491e-001 5.522859e-001 7.567219e-001 7.380278e-001 1.706396e+000 9.440973e-001 1.898574e+000 9.494885e-001 9.110559e-001 1.134320e+000 7.776216e-001 1.183360e+000 7.157474e-002 2.533138e-002 4.945973e-002 9.345650e-002 1.260238e-001 1.791891e-001 2.486759e-001 3.542300e-001 2.240522e-001 1.776945e-001 2.517574e-001 1.484469e-001 1.223029e-001 8.302533e-003
<GCONST> 7.445535e+001
<STATE> 6
<NUMMIXES> 3
<MIXTURE> 1 2.751704e-001
<MEAN> 39
 -3.660125e+000 5.500828e+000 7.852310e+000 -1.295028e+001 -7.903275e+000 -5.440306e+000 -9.894652e+000 -4.144433e+000 -6.462104e-001 -3.950875e+000 -5.104480e-001 -4.419141e+000 1.290314e+001 -8.901994e-001 -1.220526e+000 -9.260686e-001 3.184092e+000 -1.958108e-001 2.928852e-001 1.187835e+000 -5.849211e-001 4.135709e-001 2.558105e-001 5.661396e-001 9.203013e-001 -1.567347e+000 -5.507521e-001 -8.547040e-001 -7.829341e-001 -2.526838e-001 -6.953423e-002 -1.600200e-001 7.290521e-001 -2.460352e-002 1.216874e-001 3.363326e-002 -1.267471e-001 -6.543916e-002 1.519417e-001
<VARIANCE> 39
 2.083925e+001 2.724102e+001 2.754751e+001 4.721737e+001 5.463486e+001 5.587458e+001 3.584719e+001 5.131606e+001 4.357285e+001 5.214845e+001 4.243916e+001 1.794115e+001 6.369167e+000 1.272518e+000 2.437930e+000 2.204762e+000 1.591289e+000 4.208261e+000 3.024246e+000 3.395465e+000 1.955307e+000 1.787884e+000 1.514738e+000 1.658046e+000 1.536770e+000 2.677599e-001 2.027430e-001 2.554326e-001 2.580258e-001 3.567524e-001 3.302004e-001 4.906586e-001 3.074604e-001 3.995563e-001 3.842200e-001 4.939184e-001 3.002698e-001 2.626275e-001 7.078785e-002
<GCONST> 1.082706e+002
<MIXTURE> 2 3.652541e-001
<MEAN> 39
 -9.842614e+000 -4.951368e-001 5.336886e-001 -1.543781e+001 -1.679096e+000 -1.037234e+001 -4.175358e+000 -4.762625e+000 -1.719060e+000 -4.891457e+000 -1.764449e+000 -7.606885e+000 1.492384e+001 -9.053565e-001 -1.291110e+000 -1.246106e+000 9.759365e-001 6.518356e-001 -6.257238e-001 4.958201e-001 -5.871631e-001 -2.929499e-001 4.139339e-002 2.912056e-001 1.608405e-001 -7.045525e-001 -8.348427e-002 -2.124976e-001 -2.447391e-001 -3.047564e-001 -5.285756e-001 3.119700e-002 7.811388e-002 2.175780e-002 1.996239e-001 9.405204e-002 -4.936690e-002 7.129829e-002 1.153063e-001
<VARIANCE> 39
 4.458478e+000 5.691062e+000 9.718169e+000 1.322736e+001 1.546589e+001 1.813935e+001 2.173354e+001 1.803627e+001 2.385023e+001 2.012028e+001 2.114832e+001 1.704791e+001 3.399114e+000 2.298912e-001 6.613095e-001 9.288177e-001 9.641789e-001 2.290346e+000 1.914310e+000 2.412151e+000 1.489020e+000 1.064365e+000 1.625518e+000 1.615083e+000 1.594303e+000 6.492057e-002 3.778720e-002 5.439120e-002 7.979349e-002 1.315822e-001 2.111814e-001 1.686071e-001 2.337173e-001 1.819835e-001 1.950669e-001 2.110952e-001 1.589333e-001 1.665723e-001 8.961087e-003
<GCONST> 7.540911e+001
<MIXTURE> 3 3.595754e-001
<MEAN> 39
 -1.029967e+001 -2.828617e+000 -2.431318e+000 -7.033734e+000 -7.356488e+000 -7.702322e+000 -2.416940e+000 -3.959959e+000 3.852297e-001 -2.343524e+000 -1.584885e-001 -1.787676e+000 7.529917e+000 -1.118121e+000 -2.421119e+000 -1.005791e+000 8.353718e-001 -4.266301e-001 1.051446e-001 1.269196e+000 -3.145675e-001 7.032810e-002 -1.218377e-001 1.525377e-001 1.197068e-002 8.711454e-003 -1.007546e-002 7.154859e-002 3.824911e-001 -6.941152e-001 -1.191188e-001 1.555039e-001 -1.875219e-001 -2.266103e-002 -6.127024e-002 -1.423472e-001 -1.205854e-001 -3.729016e-001 5.171756e-001
<VARIANCE> 39
 1.224554e+001 2.905587e+001 1.704063e+001 1.508436e+001 1.890783e+001 1.903271e+001 2.069209e+001 1.303177e+001 1.915039e+001 2.027139e+001 1.793422e+001 1.267373e+001 5.334802e+000 1.954831e+000 2.302326e+000 2.225981e+000 1.958128e+000 1.848045e+000 2.638389e+000 2.073319e+000 1.476122e+000 1.810945e+000 1.825577e+000 1.258054e+000 1.338349e+000 7.983990e-001 2.063574e-001 4.280710e-001 2.834501e-001 3.093870e-001 4.561190e-001 2.870110e-001 3.308645e-001 1.867733e-001 2.620246e-001 2.634434e-001 1.785050e-001 1.496176e-001 5.746394e-002
<GCONST> 9.598635e+001
<STATE> 7
<NUMMIXES> 3
<MIXTURE> 1 4.122018e-001
<MEAN> 39
 -1.350679e+001 -1.041080e+001 -1.238013e-001 -9.159759e+000 -1.127635e+001 -5.721703e+000 5.016589e-002 -6.546744e+000 9.540459e-002 -3.564230e+000 -3.896194e-001 -4.658764e+000 1.312398e+001 -1.662254e+000 1.777184e-001 -6.064934e-002 -3.714957e-001 -4.246019e-001 1.184954e+000 1.707361e-001 -5.857164e-001 2.809206e-001 1.150622e-001 -2.873831e-001 -3.545502e-001 4.346654e-001 6.064153e-002 8.223356e-001 -9.860218e-002 -1.210177e-001 4.343732e-001 -1.346360e-002 -4.128858e-001 8.765631e-002 -7.564642e-004 1.206949e-002 -7.147538e-002 5.966295e-002 -1.757738e-001
<VARIANCE> 39
 3.064475e+001 3.310915e+001 2.109503e+001 3.135829e+001 2.300166e+001 2.620032e+001 2.277465e+001 2.585048e+001 2.705246e+001 2.030489e+001 1.691194e+001 1.459254e+001 1.640546e+000 1.021197e+000 2.661319e+000 1.279865e+000 1.054998e+000 1.603229e+000 1.101796e+000 1.244968e+000 9.968432e-001 1.427297e+000 1.256799e+000 9.101923e-001 7.264391e-001 3.424757e-001 2.813270e-001 3.137981e-001 2.714109e-001 2.301480e-001 2.201355e-001 2.778521e-001 2.059404e-001 2.347721e-001 2.249431e-001 2.149047e-001 1.497246e-001 1.409616e-001 5.147525e-002
<GCONST> 9.049137e+001
<MIXTURE> 2 2.440675e-001
<MEAN> 39
 -1.288551e+001 -6.523144e+000 -4.003669e+000 -1.597099e+001 -5.604422e+000 -1.172292e+001 -4.144521e+000 -6.261384e+000 -1.455486e+000 -3.838860e+000 -3.310227e-001 -6.681258e+000 1.400310e+001 -6.110031e-001 -4.883832e-001 -8.129432e-002 4.744652e-001 -1.532280e+000 6.606758e-001 1.395085e-002 -3.195102e-001 1.763263e-001 5.410269e-001 -1.380079e-001 4.035991e-001 9.977674e-002 4.499811e-002 4.698336e-001 1.916334e-001 3.780880e-002 -1.591000e-002 3.010668e-001 -1.890750e-001 4.884396e-002 1.896615e-002 -2.784212e-003 -1.562925e-001 -1.631699e-002 7.623327e-002
<VARIANCE> 39
 2.368501e+000 8.013418e+000 7.634534e+000 1.329499e+001 1.732017e+001 1.956793e+001 2.028986e+001 2.177296e+001 1.790975e+001 1.590634e+001 1.550597e+001 1.259734e+001 1.989424e+000 1.462853e-001 6.511843e-001 5.894673e-001 6.013343e-001 9.257638e-001 1.094417e+000 1.031902e+000 9.211745e-001 1.147223e+000 8.057597e-001 9.041027e-001 5.623047e-001 2.336779e-002 2.361627e-002 8.197114e-002 1.299897e-001 1.278802e-001 1.897893e-001 1.814247e-001 1.745046e-001 1.555484e-001 1.891742e-001 1.779670e-001 1.329741e-001 9.927483e-002 8.001348e-003
<GCONST> 6.496798e+001
<MIXTURE> 3 3.437300e-001
<MEAN> 39
 -1.247899e+001 -4.790187e+000 -4.507374e+000 -1.748033e+001 -3.157518e+000 -1.225656e+001 -4.319191e+000 -5.315983e+000 -1.491777e+000 -4.181468e+000 -8.479145e-001 -6.639721e+000 1.413163e+001 -8.280298e-001 -1.283522e+000 -1.181411e+000 1.964311e-001 -3.534910e-001 -4.348280e-001 2.197994e-001 -3.891324e-001 -1.038112e-001 2.042757e-001 2.604808e-001 9.868629e-002 -3.455668e-001 1.481481e-001 2.214341e-001 3.312367e-001 -2.154389e-001 -4.807565e-001 2.536251e-001 -1.436488e-001 4.408894e-002 9.407467e-002 3.722610e-002 -1.039013e-001 3.931635e-002 2.108414e-001
<VARIANCE> 39
 2.533211e+000 4.869723e+000 5.861288e+000 5.848076e+000 1.326105e+001 1.379870e+001 1.204469e+001 1.862865e+001 1.627036e+001 1.603935e+001 1.576223e+001 1.461749e+001 2.518693e+000 1.812136e-001 4.336832e-001 6.542009e-001 6.664920e-001 1.200955e+000 1.102366e+000 1.344640e+000 1.051328e+000 1.070885e+000 1.049647e+000 9.988568e-001 9.137894e-001 4.548423e-002 2.630649e-002 7.472713e-002 1.174830e-001 1.460765e-001 3.047850e-001 2.708091e-001 2.638517e-001 1.967164e-001 1.632291e-001 2.321402e-001 1.827087e-001 1.505153e-001 6.225245e-003
<GCONST> 6.676783e+001
<STATE> 8
<NUMMIXES> 3
<MIXTURE> 1 2.777188e-001
<MEAN> 39
 -1.536965e+001 -1.754980e+000 -3.562559e+000 -7.407652e+000 -8.903930e+000 -3.941627e+000 -3.432964e+000 -6.465958e+000 -3.026637e+000 -2.454887e+000 -1.030356e+000 -6.891201e+000 1.216668e+001 8.119013e-001 2.231707e-001 2.768856e-001 1.206030e-001 2.646956e-001 -1.876750e-001 -2.634155e-001 -6.424562e-002 -3.442527e-001 5.357441e-002 -2.038816e-001 -8.241770e-002 -1.934194e-001 7.699294e-002 -2.005076e-001 -5.356315e-002 -6.775428e-002 1.889184e-001 -1.654014e-001 6.786824e-002 1.002045e-001 1.481011e-001 -4.262970e-002 6.000390e-002 1.306308e-001 -6.665538e-002
<VARIANCE> 39
 2.613778e+001 2.208801e+001 2.887037e+001 4.380950e+001 4.232721e+001 2.522382e+001 3.401593e+001 3.069637e+001 3.463695e+001 4.419855e+001 3.773928e+001 2.351577e+001 5.683568e+000 1.068670e+000 1.093104e+000 1.185488e+000 1.242964e+000 1.940341e+000 1.357968e+000 1.530018e+000 1.401301e+000 1.426123e+000 1.498468e+000 1.356298e+000 9.352400e-001 1.072714e-001 2.120709e-001 1.263689e-001 1.923464e-001 1.992248e-001 3.030930e-001 2.352384e-001 3.096328e-001 2.331882e-001 2.424880e-001 2.850830e-001 2.185349e-001 1.505037e-001 7.502269e-003
<GCONST> 9.287227e+001
<MIXTURE> 2 4.234404e-001
<MEAN> 39
 -1.721602e+001 -5.700078e+000 -5.977578e+000 -1.111635e+001 -5.671824e+000 -6.679540e+000 -3.839144e+000 -5.307057e+000 1.895552e+000 -4.607344e+000 -8.624371e-001 -4.080995e+000 1.185303e+001 1.014912e-001 -2.086109e-002 -2.218362e-001 1.047824e-001 2.786694e-002 -2.778443e-001 6.188960e-002 9.613317e-002 -1.919920e-001 -5.036329e-002 -5.359291e-002 -9.830114e-002 -6.667803e-002 1.564815e-001 6.718528e-002 2.068953e-001 -5.009666e-002 -5.089133e-002 2.052467e-002 4.411615e-002 -5.316868e-002 -1.100991e-001 2.665165e-002 -6.865969e-002 -8.063444e-002 3.717094e-002
<VARIANCE> 39
 1.014053e+001 1.367414e+001 1.084760e+001 2.494809e+001 2.275830e+001 3.278096e+001 1.742854e+001 1.864239e+001 2.290138e+001 2.442704e+001 2.056512e+001 1.794611e+001 4.922873e+000 2.508877e-001 3.670126e-001 4.748470e-001 4.892995e-001 6.452562e-001 8.429242e-001 6.541806e-001 7.568752e-001 8.537243e-001 7.694339e-001 8.869223e-001 6.159185e-001 2.640789e-002 4.830900e-002 8.721633e-002 6.482901e-002 1.004023e-001 1.602858e-001 1.637445e-001 1.520941e-001 1.125171e-001 1.463430e-001 1.283267e-001 1.597189e-001 1.112180e-001 5.669466e-003
<GCONST> 6.723405e+001
<MIXTURE> 3 2.988398e-001
<MEAN> 39
 -1.828231e+001 -4.376016e+000 -3.055825e+000 -1.293206e+001 -8.244515e+000 -2.835711e+000 -4.566413e+000 -7.997694e+000 1.956562e+000 -2.654768e+000 -2.828772e+000 -4.400192e+000 1.298717e+001 -5.248984e-001 6.573899e-001 -8.743035e-001 4.328389e-002 6.094352e-001 8.917180e-002 -7.080283e-001 2.634884e-001 7.580116e-002 -1.931131e-001 -2.702571e-001 -4.358291e-004 -1.880576e-001 4.040665e-001 -1.198322e-001 -1.224160e-002 1.131887e-001 1.215349e-001 -4.371855e-001 7.651494e-002 2.151972e-001 -1.965519e-001 -9.534656e-002 1.672329e-001 -5.142235e-002 -3.944787e-002
<VARIANCE> 39
 8.163245e+000 1.041580e+001 1.482915e+001 2.362128e+001 2.377303e+001 2.945206e+001 2.465482e+001 2.193488e+001 2.354571e+001 2.440903e+001 1.786335e+001 1.685511e+001 2.948859e+000 7.706930e-001 7.333600e-001 5.535374e-001 9.656749e-001 8.951389e-001 1.073652e+000 8.252476e-001 9.516875e-001 9.489578e-001 8.905172e-001 7.584708e-001 7.209632e-001 5.459573e-002 9.215137e-002 1.374191e-001 9.955376e-002 1.253675e-001 2.238864e-001 1.596396e-001 1.546602e-001 1.947177e-001 1.399457e-001 1.814788e-001 1.251810e-001 1.112226e-001 1.051118e-002
<GCONST> 7.471857e+001
<STATE> 9
<NUMMIXES> 3
<MIXTURE> 1 2.610027e-001
<MEAN> 39
 -1.233000e+001 -4.559849e+000 -3.495441e+000 -8.955754e+000 -4.613398e+000 -7.110225e+000 -2.724427e+000 -5.467752e+000 -1.869954e+000 -4.138015e+000 -2.594717e+000 -5.195615e+000 1.027413e+001 5.814646e-001 -5.787580e-002 1.976412e-002 7.960797e-003 5.168557e-001 -3.954023e-001 2.103980e-001 2.356488e-001 -1.744215e-001 -6.094674e-002 3.016696e-001 1.445624e-001 -2.688736e-001 -6.277129e-002 1.877117e-002 -8.445773e-004 -5.698871e-002 -7.847008e-002 7.839278e-002 2.390809e-002 -1.656972e-004 6.797491e-002 -6.641382e-002 7.773596e-002 1.806969e-002 8.114628e-002
<VARIANCE> 39
 2.160378e+001 1.910661e+001 1.197760e+001 2.905237e+001 2.917372e+001 2.844637e+001 2.043298e+001 2.808136e+001 2.254887e+001 2.475529e+001 2.299632e+001 1.698199e+001 7.713387e+000 8.538972e-001 7.998731e-001 6.099519e-001 1.541549e+000 1.272067e+000 1.213840e+000 1.513193e+000 9.497350e-001 1.264160e+000 1.256874e+000 9.830994e-001 6.965085e-001 1.290451e-001 1.929336e-001 1.648879e-001 1.082688e-001 2.228756e-001 1.935513e-001 1.971450e-001 2.630792e-001 1.835383e-001 1.544185e-001 1.667877e-001 1.580441e-001 1.228063e-001 3.038868e-002
<GCONST> 8.478825e+001
<MIXTURE> 2 4.629791e-001
<MEAN> 39
 -1.328765e+001 -5.022276e+000 -4.443406e+000 -1.828906e+001 -5.150966e+000 -1.318398e+001 -5.769609e+000 -6.525535e+000 -1.657806e+000 -4.213507e+000 -1.014387e+000 -6.311521e+000 1.423267e+001 1.487603e-001 -8.856519e-002 1.013330e-001 5.521593e-002 1.212037e-001 -3.813923e-001 5.112514e-002 4.965013e-002 9.757700e-003 -5.033546e-002 2.336649e-001 5.852749e-002 4.921083e-002 3.358246e-002 5.092988e-002 6.072346e-002 1.753613e-001 -1.565823e-002 1.673336e-001 8.451463e-002 6.557441e-002 3.124613e-003 7.931702e-002 -2.228921e-003 3.322790e-002 2.723352e-002
<VARIANCE> 39
 2.596462e+000 4.897954e+000 5.619888e+000 1.250879e+001 9.757379e+000 1.317500e+001 1.320067e+001 1.594896e+001 1.411945e+001 1.677583e+001 1.710803e+001 1.410973e+001 2.500565e+000 1.328594e-001 3.501593e-001 3.411438e-001 8.175822e-001 6.133590e-001 8.849484e-001 6.780064e-001 6.891094e-001 8.086483e-001 7.826900e-001 7.107599e-001 6.132886e-001 2.680938e-002 3.137897e-002 5.743975e-002 6.897774e-002 1.613359e-001 9.460140e-002 1.428611e-001 1.344739e-001 1.543631e-001 1.273092e-001 1.359133e-001 1.404816e-001 1.011287e-001 4.888904e-003
<GCONST> 5.729855e+001
<MIXTURE> 3 2.760188e-001
<MEAN> 39
 -1.410767e+001 -4.320788e+000 -5.048178e+000 -1.545646e+001 -8.429037e+000 -1.085336e+001 -4.757628e+000 -4.983479e+000 -2.477629e+000 -2.077608e+000 -1.693983e+000 -6.967724e+000 1.430580e+001 3.708192e-002 1.941299e-001 -1.916804e-001 -4.160393e-001 3.390712e-001 -4.969682e-002 -3.292853e-001 -2.177044e-001 -2.917168e-001 -2.298826e-001 1.921264e-001 1.468232e-001 -2.647882e-002 3.509670e-002 -6.124655e-002 4.428624e-002 -9.129325e-002 2.094359e-001 -6.676897e-002 -1.037358e-002 -8.084327e-002 7.191609e-002 -1.129912e-001 5.993966e-002 6.459177e-002 -6.577820e-003
<VARIANCE> 39
