~o
<STREAMINFO> 1 39
<VECSIZE> 39<NULLD><MFCC_E_D_A><DIAGC>
~s "silst"
<NUMMIXES> 2
<MIXTURE> 1 5.000000e-001
<MEAN> 39
 -1.229202e+001 -4.185873e+000 -3.928996e+000 -1.656658e+001 -3.010394e+000 -1.206591e+001 -4.340865e+000 -5.319261e+000 -8.605164e-001 -3.614081e+000 -1.497889e-001 -5.675540e+000 1.481521e+001 3.631664e-002 7.033550e-002 6.818541e-002 1.160959e-001 1.130911e-001 1.487391e-001 1.544158e-001 1.660721e-001 1.649885e-001 1.675079e-001 1.708411e-001 1.629226e-001 2.071967e-002 5.953231e-002 6.045400e-002 7.286610e-002 8.470639e-002 8.069254e-002 8.355402e-002 8.770487e-002 7.641152e-002 7.367902e-002 7.175932e-002 6.750012e-002 6.233260e-002 2.064696e-002
<VARIANCE> 39
 5.025288e+000 5.938878e+000 7.443150e+000 1.293740e+001 1.337451e+001 1.468544e+001 1.575320e+001 1.683692e+001 1.604297e+001 1.791708e+001 1.684222e+001 1.410605e+001 3.835930e+000 1.071442e-001 1.986857e-001 3.155575e-001 4.590002e-001 5.538619e-001 6.072065e-001 6.873378e-001 7.015674e-001 7.230403e-001 7.687004e-001 7.357877e-001 6.197385e-001 1.400118e-002 2.195001e-002 3.577345e-002 5.918226e-002 8.121995e-002 1.012487e-001 1.062409e-001 1.263316e-001 1.224459e-001 1.292310e-001 1.332429e-001 1.304652e-001 1.087845e-001 2.580843e-003
<GCONST> 5.427050e+001
<MIXTURE> 2 5.000000e-001
<MEAN> 39
 -1.318870e+001 -5.160665e+000 -5.020282e+000 -1.800532e+001 -4.473241e+000 -1.359877e+001 -5.928477e+000 -6.960573e+000 -2.462663e+000 -5.307224e+000 -1.791360e+000 -7.177862e+000 1.403179e+001 -9.461492e-002 -1.079612e-001 -1.565126e-001 -1.549023e-001 -1.845965e-001 -1.629548e-001 -1.772075e-001 -1.689664e-001 -1.751386e-001 -1.831944e-001 -1.722712e-001 -1.519713e-001 -2.661096e-002 2.701684e-004 -1.520148e-002 -2.444352e-002 -2.929007e-002 -4.658586e-002 -4.682444e-002 -5.446775e-002 -6.355757e-002 -7.011583e-002 -7.425049e-002 -7.697974e-002 -6.959738e-002 3.261605e-004
<VARIANCE> 39
 5.025288e+000 5.938878e+000 7.443150e+000 1.293740e+001 1.337451e+001 1.468544e+001 1.575320e+001 1.683692e+001 1.604297e+001 1.791708e+001 1.684222e+001 1.410605e+001 3.835930e+000 1.071442e-001 1.986857e-001 3.155575e-001 4.590002e-001 5.538619e-001 6.072065e-001 6.873378e-001 7.015674e-001 7.230403e-001 7.687004e-001 7.357877e-001 6.197385e-001 1.400118e-002 2.195001e-002 3.577345e-002 5.918226e-002 8.121995e-002 1.012487e-001 1.062409e-001 1.263316e-001 1.224459e-001 1.292310e-001 1.332429e-001 1.304652e-001 1.087845e-001 2.580843e-003
<GCONST> 5.427050e+001
~h "four"
<BEGINHMM>
<NUMSTATES> 10
<STATE> 2
<NUMMIXES> 2
<MIXTURE> 1 5.000000e-001
<MEAN> 39
 -1.420898e+001 -6.128005e+000 -3.135996e+000 -1.121242e+001 -3.828183e+000 -1.029577e+001 -2.011729e+000 -4.881349e+000 -2.458363e-001 -3.896463e+000 7.949843e-001 -3.876914e+000 1.324312e+001 1.665371e+000 3.594198e-001 -2.161226e-001 1.635750e-001 6.919139e-001 4.130529e-001 9.111846e-002 7.389332e-002 2.782635e-001 2.806025e-001 1.301241e-001 5.036686e-002 5.986249e-001 8.222525e-001 3.042986e-001 -2.667002e-001 -1.160537e-001 2.560756e-001 2.231738e-001 -3.003232e-002 3.744604e-002 9.941824e-003 1.378547e-001 5.481699e-002 -5.853227e-002 2.212415e-001
<VARIANCE> 39
 1.107287e+001 8.157872e+000 8.056966e+000 2.656940e+001 1.275697e+001 1.706777e+001 1.759998e+001 1.516261e+001 1.674936e+001 1.663897e+001 1.697229e+001 1.474098e+001 5.367687e+000 1.984737e+000 6.286528e-001 7.051283e-001 6.873571e-001 6.792826e-001 7.958069e-001 6.590440e-001 7.762555e-001 8.095555e-001 8.158563e-001 9.135813e-001 7.459013e-001 1.690860e-001 1.630756e-001 9.715383e-002 1.572979e-001 1.439878e-001 1.365741e-001 1.591088e-001 1.505614e-001 1.685007e-001 1.631421e-001 1.578566e-001 1.933077e-001 1.355544e-001 1.509958e-002
<GCONST> 7.405566e+001
<MIXTURE> 2 5.000000e-001
<MEAN> 39
 -1.554002e+001 -7.270485e+000 -4.271388e+000 -1.327424e+001 -5.256859e+000 -1.194829e+001 -3.689821e+000 -6.438917e+000 -1.882876e+000 -5.528099e+000 -8.529133e-001 -5.412673e+000 1.231638e+001 1.101849e+000 4.226924e-002 -5.520102e-001 -1.680530e-001 3.622395e-001 5.622089e-002 -2.336076e-001 -2.785281e-001 -8.163770e-002 -8.069652e-002 -2.522017e-001 -2.950954e-001 4.341446e-001 6.607220e-001 1.796206e-001 -4.253434e-001 -2.678365e-001 1.082518e-001 6.362001e-002 -1.852413e-001 -1.267493e-001 -1.516216e-001 -2.107001e-002 -1.210501e-001 -2.058031e-001 1.720893e-001
<VARIANCE> 39
 1.107287e+001 8.157872e+000 8.056966e+000 2.656940e+001 1.275697e+001 1.706777e+001 1.759998e+001 1.516261e+001 1.674936e+001 1.663897e+001 1.697229e+001 1.474098e+001 5.367687e+000 1.984737e+000 6.286528e-001 7.051283e-001 6.873571e-001 6.792826e-001 7.958069e-001 6.590440e-001 7.762555e-001 8.095555e-001 8.158563e-001 9.135813e-001 7.459013e-001 1.690860e-001 1.630756e-001 9.715383e-002 1.572979e-001 1.439878e-001 1.365741e-001 1.591088e-001 1.505614e-001 1.685007e-001 1.631421e-001 1.578566e-001 1.933077e-001 1.355544e-001 1.509958e-002
<GCONST> 7.405566e+001
<STATE> 3
<NUMMIXES> 2
<MIXTURE> 1 5.000000e-001
<MEAN> 39
 -4.307733e+000 -3.128561e+000 -3.979806e+000 -1.108755e+001 -4.441097e-001 -8.171567e+000 -2.293972e+000 -4.820170e+000 -1.514424e-001 -3.432245e+000 2.773241e-001 -4.688910e+000 1.595524e+001 3.933390e+000 1.230884e+000 -1.915166e+000 -9.783710e-001 9.681456e-001 7.988507e-001 -1.955678e-001 -6.960946e-002 -9.140311e-002 5.004607e-001 3.092907e-001 -2.738125e-001 1.205351e+000 8.682780e-002 1.318922e-001 -3.110096e-001 -2.572584e-001 -5.240565e-002 6.080323e-002 3.964257e-002 5.352288e-002 -3.081379e-002 1.124641e-001 1.265115e-001 3.995256e-002 4.894922e-002
<VARIANCE> 39
 4.063859e+001 1.538859e+001 1.688648e+001 3.035275e+001 1.297427e+001 1.783846e+001 1.602812e+001 1.893022e+001 1.798649e+001 1.603167e+001 2.028003e+001 1.356746e+001 5.090723e+000 1.715835e+000 1.168098e+000 1.099670e+000 1.323662e+000 1.459972e+000 1.531880e+000 1.323126e+000 1.457977e+000 1.502681e+000 1.633997e+000 2.441150e+000 1.408236e+000 1.371498e-001 2.007182e-001 8.548183e-002 1.063643e-001 1.280077e-001 1.212845e-001 1.474605e-001 1.340960e-001 1.436354e-001 1.931458e-001 2.270774e-001 1.855102e-001 1.669650e-001 1.688158e-002
<GCONST> 8.408408e+001
<MIXTURE> 2 5.000000e-001
<MEAN> 39
 -6.857669e+000 -4.697693e+000 -5.623532e+000 -1.329129e+001 -1.884902e+000 -9.860991e+000 -3.895378e+000 -6.560524e+000 -1.847862e+000 -5.033827e+000 -1.524010e+000 -6.162271e+000 1.505274e+001 3.409430e+000 7.985699e-001 -2.334626e+000 -1.438573e+000 4.848284e-001 3.037741e-001 -6.556766e-001 -5.525963e-001 -5.817387e-001 -1.085088e-002 -3.156765e-001 -7.484890e-001 1.057217e+000 -9.237853e-002 1.494311e-002 -4.414638e-001 -4.003710e-001 -1.917093e-001 -9.279911e-002 -1.068339e-001 -9.807416e-002 -2.066072e-001 -7.814644e-002 -4.577203e-002 -1.234928e-001 -3.022437e-003
<VARIANCE> 39
 4.063859e+001 1.538859e+001 1.688648e+001 3.035275e+001 1.297427e+001 1.783846e+001 1.602812e+001 1.893022e+001 1.798649e+001 1.603167e+001 2.028003e+001 1.356746e+001 5.090723e+000 1.715835e+000 1.168098e+000 1.099670e+000 1.323662e+000 1.459972e+000 1.531880e+000 1.323126e+000 1.457977e+000 1.502681e+000 1.633997e+000 2.441150e+000 1.408236e+000 1.371498e-001 2.007182e-001 8.548183e-002 1.063643e-001 1.280077e-001 1.212845e-001 1.474605e-001 1.340960e-001 1.436354e-001 1.931458e-001 2.270774e-001 1.855102e-001 1.669650e-001 1.688158e-002
<GCONST> 8.408408e+001
<STATE> 4
<NUMMIXES> 2
<MIXTURE> 1 5.000000e-001
<MEAN> 39
 4.271781e+000 -1.317590e+000 -1.370551e+001 -1.669511e+001 1.402638e+000 -7.739827e+000 -4.367374e+000 -5.828040e+000 -9.469548e-001 -1.776714e+000 5.273368e-001 -6.838854e+000 1.889034e+001 1.713297e+000 7.720830e-001 -1.231783e+000 -8.457048e-001 3.738003e-001 7.668325e-001 1.975647e-001 -3.031328e-003 -1.102251e-002 5.298736e-001 5.002762e-001 1.404343e-001 6.066324e-001 -6.419311e-001 -1.028746e-001 5.470493e-001 2.830911e-001 -1.674372e-001 4.718064e-002 2.441777e-001 1.492289e-001 1.048313e-001 -2.291128e-004 1.492999e-001 2.956592e-001 -2.013118e-001
<VARIANCE> 39
 2.509879e+001 1.972155e+001 2.053925e+001 2.989348e+001 2.716795e+001 2.383704e+001 2.177615e+001 2.638608e+001 2.994061e+001 3.199638e+001 5.248905e+001 3.384710e+001 1.374015e+000 1.578124e+000 6.796061e-001 1.169811e+000 1.060388e+000 1.311106e+000 1.121487e+000 1.190886e+000 1.183214e+000 1.383751e+000 1.647398e+000 1.539695e+000 1.435222e+000 1.554460e-001 1.436802e-001 1.513018e-001 1.235544e-001 1.832805e-001 1.362714e-001 1.837487e-001 1.789419e-001 2.150446e-001 2.339010e-001 2.320622e-001 2.733844e-001 1.909327e-001 1.010669e-002
<GCONST> 8.754082e+001
<MIXTURE> 2 5.000000e-001
<MEAN> 39
 2.267833e+000 -3.093948e+000 -1.551833e+001 -1.888211e+001 -6.822776e-001 -9.692755e+000 -6.233972e+000 -7.882735e+000 -3.135675e+000 -4.039328e+000 -2.370636e+000 -9.165985e+000 1.842146e+001 1.210803e+000 4.423301e-001 -1.664415e+000 -1.257605e+000 -8.421388e-002 3.432313e-001 -2.389462e-001 -4.381339e-001 -4.815543e-001 1.646960e-002 3.938396e-003 -3.387687e-001 4.489258e-001 -7.935517e-001 -2.584648e-001 4.064481e-001 1.118461e-001 -3.150970e-001 -1.242830e-001 7.497155e-002 -3.626267e-002 -8.862197e-002 -1.929204e-001 -5.984482e-002 1.208758e-001 -2.415246e-001
<VARIANCE> 39
 2.509879e+001 1.972155e+001 2.053925e+001 2.989348e+001 2.716795e+001 2.383704e+001 2.177615e+001 2.638608e+001 2.994061e+001 3.199638e+001 5.248905e+001 3.384710e+001 1.374015e+000 1.578124e+000 6.796061e-001 1.169811e+000 1.060388e+000 1.311106e+000 1.121487e+000 1.190886e+000 1.183214e+000 1.383751e+000 1.647398e+000 1.539695e+000 1.435222e+000 1.554460e-001 1.436802e-001 1.513018e-001 1.235544e-001 1.832805e-001 1.362714e-001 1.837487e-001 1.789419e-001 2.150446e-001 2.339010e-001 2.320622e-001 2.733844e-001 1.909327e-001 1.010669e-002
<GCONST> 8.754082e+001
<STATE> 5
<NUMMIXES> 2
<MIXTURE> 1 5.000000e-001
<MEAN> 39
 3.179634e+000 7.239014e-001 -1.257994e+001 -2.007123e+001 -2.537744e-001 -6.016941e+000 -2.173587e+000 -6.695241e+000 -2.596492e+000 -1.941988e+000 2.552006e+000 -4.457319e+000 1.914963e+001 3.035262e-002 -1.089076e-001 1.253245e-001 2.665284e-001 3.260970e-001 3.052986e-001 -1.646764e-002 2.477553e-001 4.537098e-001 3.839469e-001 1.966206e-001 9.205950e-002 1.789119e-002 -4.935450e-002 -1.865378e-001 1.305107e-001 2.994292e-001 1.656738e-001 -3.407907e-002 -8.900112e-002 1.660046e-001 3.043599e-001 1.075947e-001 -6.822396e-002 -5.385213e-002 -1.231406e-002
<VARIANCE> 39
 2.953105e+001 1.053591e+001 2.740648e+001 2.671022e+001 3.031370e+001 1.959825e+001 2.125494e+001 1.589404e+001 2.463184e+001 2.778555e+001 3.524665e+001 3.260597e+001 1.405828e+000 1.301330e-001 6.420811e-001 4.321771e-001 6.307452e-001 8.400673e-001 6.101931e-001 9.217311e-001 7.417064e-001 1.137282e+000 1.064713e+000 9.655029e-001 1.035347e+000 8.759771e-003 2.392858e-002 4.641335e-002 7.238149e-002 8.148284e-002 9.373300e-002 1.101421e-001 1.142666e-001 1.291740e-001 1.445828e-001 1.879559e-001 1.796172e-001 1.447866e-001 2.471851e-003
<GCONST> 6.677892e+001
<MIXTURE> 2 5.000000e-001
<MEAN> 39
 1.005934e+000 -5.744612e-001 -1.467398e+001 -2.213851e+001 -2.456089e+000 -7.787737e+000 -4.017711e+000 -8.289935e+000 -4.581710e+000 -4.050468e+000 1.772502e-001 -6.741385e+000 1.867536e+001 -1.139432e-001 -4.294274e-001 -1.376362e-001 -5.114944e-002 -4.052377e-002 -7.160805e-003 -4.004950e-001 -9.673423e-002 2.713614e-002 -2.879286e-002 -1.964195e-001 -3.149485e-001 -1.954627e-002 -1.112300e-001 -2.727128e-001 2.289547e-002 1.852484e-001 4.321041e-002 -1.668297e-001 -2.242145e-001 2.224142e-002 1.522637e-001 -6.582081e-002 -2.377490e-001 -2.060555e-001 -3.220114e-002
<VARIANCE> 39
 2.953105e+001 1.053591e+001 2.740648e+001 2.671022e+001 3.031370e+001 1.959825e+001 2.125494e+001 1.589404e+001 2.463184e+001 2.778555e+001 3.524665e+001 3.260597e+001 1.405828e+000 1.301330e-001 6.420811e-001 4.321771e-001 6.307452e-001 8.400673e-001 6.101931e-001 9.217311e-001 7.417064e-001 1.137282e+000 1.064713e+000 9.655029e-001 1.035347e+000 8.759771e-003 2.392858e-002 4.641335e-002 7.238149e-002 8.148284e-002 9.373300e-002 1.101421e-001 1.142666e-001 1.291740e-001 1.445828e-001 1.879559e-001 1.796172e-001 1.447866e-001 2.471851e-003
<GCONST> 6.677892e+001
<STATE> 6
<NUMMIXES> 2
<MIXTURE> 1 5.000000e-001
<MEAN> 39
 3.264721e+000 -5.592298e+000 -1.328736e+001 -1.477816e+001 2.407455e+000 -6.057377e+000 -7.272160e+000 -4.380075e+000 3.843593e+000 -1.916532e-001 -8.366525e-001 -8.351408e+000 1.913626e+001 -2.306629e-001 -1.480097e+000 9.357061e-001 1.888951e+000 -7.610070e-002 -5.039881e-001 4.922390e-003 1.472036e+000 1.327642e+000 -4.929813e-001 -8.873999e-001 9.953795e-002 -1.931617e-002 -2.727164e-002 9.155678e-002 3.651974e-001 1.704977e-001 -3.751479e-001 -4.007692e-002 5.667796e-001 2.487469e-001 -2.887466e-001 -2.929855e-001 2.141194e-001 4.295814e-001 -2.340277e-002
<VARIANCE> 39
 2.555660e+001 1.548238e+001 1.482167e+001 2.752051e+001 4.547878e+001 3.300573e+001 2.577031e+001 4.080359e+001 3.440252e+001 3.268396e+001 4.244187e+001 3.136428e+001 1.639934e+000 1.436006e-001 7.340987e-001 8.129462e-001 1.142939e+000 1.437071e+000 1.455810e+000 1.835628e+000 1.850463e+000 2.741929e+000 2.999739e+000 1.606812e+000 1.744203e+000 1.238507e-002 2.104337e-002 7.858899e-002 7.137571e-002 1.290500e-001 1.592752e-001 2.244465e-001 2.209338e-001 2.900741e-001 3.133334e-001 2.807533e-001 2.906303e-001 2.258672e-001 1.199523e-003
<GCONST> 8.198746e+001
<MIXTURE> 2 5.000000e-001
<MEAN> 39
 1.242579e+000 -7.166204e+000 -1.482732e+001 -1.687656e+001 -2.900631e-001 -8.355401e+000 -9.302738e+000 -6.935182e+000 1.497447e+000 -2.478449e+000 -3.442549e+000 -1.059156e+001 1.862402e+001 -3.822415e-001 -1.822815e+000 5.750520e-001 1.461317e+000 -5.556123e-001 -9.866159e-001 -5.370190e-001 9.279086e-001 6.652912e-001 -1.185771e+000 -1.394440e+000 -4.287352e-001 -6.383146e-002 -8.529697e-002 -2.057814e-002 2.583325e-001 2.680361e-002 -5.347851e-001 -2.295801e-001 3.787652e-001 3.331284e-002 -5.126514e-001 -5.049301e-001 -1.521176e-003 2.394794e-001 -3.725643e-002
<VARIANCE> 39
 2.555660e+001 1.548238e+001 1.482167e+001 2.752051e+001 4.547878e+001 3.300573e+001 2.577031e+001 4.080359e+001 3.440252e+001 3.268396e+001 4.244187e+001 3.136428e+001 1.639934e+000 1.436006e-001 7.340987e-001 8.129462e-001 1.142939e+000 1.437071e+000 1.455810e+000 1.835628e+000 1.850463e+000 2.741929e+000 2.999739e+000 1.606812e+000 1.744203e+000 1.238507e-002 2.104337e-002 7.858899e-002 7.137571e-002 1.290500e-001 1.592752e-001 2.244465e-001 2.209338e-001 2.900741e-001 3.133334e-001 2.807533e-001 2.906303e-001 2.258672e-001 1.199523e-003
<GCONST> 8.198746e+001
<STATE> 7
<NUMMIXES> 2
<MIXTURE> 1 5.000000e-001
<MEAN> 39
 1.535797e+000 -1.136110e+001 -7.671611e+000 -7.763483e+000 -2.867805e+000 -9.351241e+000 -1.906527e+000 1.276532e+000 2.311796e+000 -7.501836e+000 -3.120259e+000 -4.931613e+000 1.877318e+001 -3.152103e-001 -2.086574e-001 1.607071e+000 9.906124e-001 -1.259385e+000 1.728293e-001 1.628373e+000 3.040547e-001 -8.782035e-001 -3.246764e-001 7.017279e-001 7.318980e-001 -1.397505e-001 -3.827950e-002 4.894459e-001 1.217503e-001 -2.709801e-001 2.100487e-001 3.742000e-001 1.004279e-001 -3.580503e-001 -3.853798e-002 5.322943e-001 3.074884e-001 -6.894616e-002 -3.288230e-002
<VARIANCE> 39
 2.671129e+001 2.793459e+001 1.491327e+001 2.794477e+001 5.529020e+001 4.700463e+001 3.731254e+001 3.546021e+001 4.763867e+001 3.587234e+001 3.014848e+001 3.331034e+001 1.853904e+000 2.730624e-001 8.460287e-001 7.299963e-001 1.080103e+000 1.571838e+000 1.893133e+000 1.591328e+000 1.872415e+000 1.448454e+000 1.896778e+000 1.312693e+000 1.284791e+000 1.848775e-002 2.416038e-002 8.975682e-002 8.363928e-002 1.335138e-001 2.182725e-001 2.291161e-001 2.658900e-001 2.606607e-001 3.729790e-001 3.019130e-001 2.679334e-001 2.010672e-001 2.000579e-003
<GCONST> 8.475764e+001
<MIXTURE> 2 5.000000e-001
<MEAN> 39
 -5.315216e-001 -1.347522e+001 -9.216319e+000 -9.877995e+000 -5.842101e+000 -1.209364e+001 -4.349887e+000 -1.105407e+000 -4.490345e-001 -9.897576e+000 -5.316565e+000 -7.240217e+000 1.822854e+001 -5.242319e-001 -5.765767e-001 1.265311e+000 5.749004e-001 -1.760877e+000 -3.775353e-001 1.123781e+000 -2.432902e-001 -1.359610e+000 -8.755707e-001 2.434367e-001 2.785034e-001 -1.941383e-001 -1.004539e-001 3.696081e-001 6.068484e-003 -4.171383e-001 2.317012e-002 1.827357e-001 -1.058302e-001 -5.622701e-001 -2.828260e-001 3.125079e-001 1.004392e-001 -2.483082e-001 -5.077343e-002
<VARIANCE> 39
 2.671129e+001 2.793459e+001 1.491327e+001 2.794477e+001 5.529020e+001 4.700463e+001 3.731254e+001 3.546021e+001 4.763867e+001 3.587234e+001 3.014848e+001 3.331034e+001 1.853904e+000 2.730624e-001 8.460287e-001 7.299963e-001 1.080103e+000 1.571838e+000 1.893133e+000 1.591328e+000 1.872415e+000 1.448454e+000 1.896778e+000 1.312693e+000 1.284791e+000 1.848775e-002 2.416038e-002 8.975682e-002 8.363928e-002 1.335138e-001 2.182725e-001 2.291161e-001 2.658900e-001 2.606607e-001 3.729790e-001 3.019130e-001 2.679334e-001 2.010672e-001 2.000579e-003
<GCONST> 8.475764e+001
<STATE> 8
<NUMMIXES> 2
<MIXTURE> 1 5.000000e-001
<MEAN> 39
 3.940881e-001 -8.429652e+000 4.815599e-002 -6.349110e+000 -7.753912e+000 -5.611814e+000 1.625962e+000 -4.141324e+000 -2.912738e+000 -5.067789e+000 -8.142543e-001 -5.991955e+000 1.742915e+001 -9.608524e-001 1.681162e+000 1.544521e+000 4.175096e-002 8.534860e-001 7.416785e-001 4.770166e-001 -6.172509e-001 -1.168467e-001 9.627038e-001 3.612089e-001 2.319481e-001 -4.137987e-001 -1.469459e-001 2.532895e-001 -1.988179e-001 -4.326598e-002 5.587677e-001 8.944488e-002 -2.126243e-001 2.176652e-001 3.855599e-001 1.941045e-001 9.846783e-002 1.569425e-001 -5.693667e-002
<VARIANCE> 39
 2.867430e+001 4.564722e+001 3.207965e+001 5.799805e+001 6.232228e+001 7.388251e+001 4.506431e+001 4.447491e+001 4.332029e+001 4.546442e+001 4.621326e+001 3.440557e+001 2.923961e+000 1.108762e+000 1.423470e+000 1.221434e+000 1.880263e+000 2.132349e+000 2.347751e+000 2.204235e+000 2.181001e+000 2.341893e+000 2.294205e+000 1.925646e+000 1.852581e+000 1.267131e-001 1.289750e-001 2.908270e-001 1.878920e-001 2.835846e-001 3.554184e-001 3.429587e-001 3.268827e-001 3.309018e-001 3.420425e-001 3.626724e-001 3.160219e-001 2.458988e-001 1.095779e-002
<GCONST> 1.041070e+002
<MIXTURE> 2 5.000000e-001
<MEAN> 39
 -1.747847e+000 -1.113216e+001 -2.217400e+000 -9.395369e+000 -1.091169e+001 -9.050011e+000 -1.059236e+000 -6.808904e+000 -5.545464e+000 -7.764881e+000 -3.533468e+000 -8.338205e+000 1.674517e+001 -1.382043e+000 1.203925e+000 1.102447e+000 -5.067397e-001 2.693834e-001 1.287836e-001 -1.168500e-001 -1.207979e+000 -7.289765e-001 3.568384e-001 -1.938616e-001 -3.124901e-001 -5.561858e-001 -2.905983e-001 3.757594e-002 -3.722039e-001 -2.562766e-001 3.202997e-001 -1.448058e-001 -4.413189e-001 -1.243103e-002 1.516223e-001 -4.678466e-002 -1.263955e-001 -4.141026e-002 -9.880846e-002
<VARIANCE> 39
 2.867430e+001 4.564722e+001 3.207965e+001 5.799805e+001 6.232228e+001 7.388251e+001 4.506431e+001 4.447491e+001 4.332029e+001 4.546442e+001 4.621326e+001 3.440557e+001 2.923961e+000 1.108762e+000 1.423470e+000 1.221434e+000 1.880263e+000 2.132349e+000 2.347751e+000 2.204235e+000 2.181001e+000 2.341893e+000 2.294205e+000 1.925646e+000 1.852581e+000 1.267131e-001 1.289750e-001 2.908270e-001 1.878920e-001 2.835846e-001 3.554184e-001 3.429587e-001 3.268827e-001 3.309018e-001 3.420425e-001 3.626724e-001 3.160219e-001 2.458988e-001 1.095779e-002
<GCONST> 1.041070e+002
<STATE> 9
<NUMMIXES> 2
<MIXTURE> 1 5.000000e-001
<MEAN> 39
 -8.205112e+000 -3.009693e+000 1.063257e+000 -7.282235e+000 -2.088058e+000 -5.240571e+000 9.976069e-003 -5.422153e+000 -1.559238e+000 -2.307103e+000 6.165984e-001 -4.369738e+000 1.399897e+001 -8.572302e-001 5.758269e-001 -2.579611e-001 -4.441424e-001 4.473644e-001 -3.274610e-002 -2.798659e-001 1.958385e-001 3.800670e-001 4.695759e-001 4.225345e-001 3.013592e-001 -3.689698e-001 3.022349e-001 -1.108975e-001 -1.252482e-001 5.049327e-002 -9.856192e-002 -3.008200e-002 6.048760e-002 1.694089e-001 9.255809e-002 -4.498040e-002 1.434319e-002 4.887302e-002 1.123822e-001
<VARIANCE> 39
 2.435383e+001 3.789066e+001 2.378827e+001 5.276387e+001 2.939328e+001 4.353244e+001 2.873009e+001 3.388209e+001 2.914310e+001 2.703415e+001 2.466842e+001 2.409816e+001 9.797845e+000 1.164260e+000 1.631409e+000 1.401807e+000 1.415466e+000 1.674861e+000 1.586936e+000 1.179658e+000 1.413119e+000 1.310997e+000 1.278638e+000 1.440486e+000 1.121091e+000 1.334599e-001 1.259907e-001 2.376998e-001 2.169463e-001 2.283019e-001 2.154778e-001 2.379815e-001 1.832947e-001 2.093671e-001 1.908313e-001 2.034975e-001 1.925938e-001 1.892991e-001 1.451884e-002
<GCONST> 9.327444e+001
<MIXTURE> 2 5.000000e-001
<MEAN> 39
 -1.017910e+001 -5.471909e+000 -8.876716e-001 -1.018779e+001 -4.256680e+000 -7.879735e+000 -2.134042e+000 -7.750485e+000 -3.718612e+000 -4.386878e+000 -1.370094e+000 -6.333333e+000 1.274691e+001 -1.288834e+000 6.492046e-002 -7.315528e-001 -9.200358e-001 -7.030123e-002 -5.366407e-001 -7.143142e-001 -2.796602e-001 -7.792816e-002 1.726844e-002 -5.754649e-002 -1.221671e-001 -5.150984e-001 1.602543e-001 -3.059153e-001 -3.115582e-001 -1.406305e-001 -2.842403e-001 -2.252154e-001 -1.107641e-001 -1.361768e-002 -8.217888e-002 -2.254232e-001 -1.611989e-001 -1.251611e-001 6.418453e-002
<VARIANCE> 39
 2.435383e+001 3.789066e+001 2.378827e+001 5.276387e+001 2.939328e+001 4.353244e+001 2.873009e+001 3.388209e+001 2.914310e+001 2.703415e+001 2.466842e+001 2.409816e+001 9.797845e+000 1.164260e+000 1.631409e+000 1.401807e+000 1.415466e+000 1.674861e+000 1.586936e+000 1.179658e+000 1.413119e+000 1.310997e+000 1.278638e+000 1.440486e+000 1.121091e+000 1.334599e-001 1.259907e-001 2.376998e-001 2.169463e-001 2.283019e-001 2.154778e-001 2.379815e-001 1.832947e-001 2.093671e-001 1.908313e-001 2.034975e-001 1.925938e-001 1.892991e-001 1.451884e-002
<GCONST> 9.327444e+001
<TRANSP> 10
 0.000000e+000 1.000000e+000 0.000000e+000 0.000000e+000 0.000000e+000 0.000000e+000 0.000000e+000 0.000000e+000 0.000000e+000 0.000000e+000
 0.000000e+000 7.195891e-001 2.804109e-001 0.000000e+000 0.000000e+000 0.000000e+000 0.000000e+000 0.000000e+000 0.000000e+000 0.000000e+000
 0.000000e+000 0.000000e+000 4.625832e-001 5.374168e-001 0.000000e+000 0.000000e+000 0.000000e+000 0.000000e+000 0.000000e+000 0.000000e+000
 0.000000e+000 0.000000e+000 0.000000e+000 7.161609e-001 2.838391e-001 0.000000e+000 0.000000e+000 0.000000e+000 0.000000e+000 0.000000e+000
 0.000000e+000 0.000000e+000 0.000000e+000 0.000000e+000 8.542196e-001 1.457804e-001 0.000000e+000 0.000000e+000 0.000000e+000 0.000000e+000
 0.000000e+000 0.000000e+000 0.000000e+000 0.000000e+000 0.000000e+000 7.407663e-001 2.592336e-001 0.000000e+000 0.000000e+000 0.000000e+000
 0.000000e+000 0.000000e+000 0.000000e+000 0.000000e+000 0.000000e+000 0.000000e+000 7.591217e-001 2.408783e-001 0.000000e+000 0.000000e+000
 0.000000e+000 0.000000e+000 0.000000e+000 0.000000e+000 0.000000e+000 0.000000e+000 0.000000e+000 7.311993e-001 2.688008e-001 0.000000e+000
 0.000000e+000 0.000000e+000 0.000000e+000 0.000000e+000 0.000000e+000 0.000000e+000 0.000000e+000 0.000000e+000 7.815993e-001 2.184007e-001
 0.000000e+000 0.000000e+000 0.000000e+000 0.000000e+000 0.000000e+000 0.000000e+000 0.000000e+000 0.000000e+000 0.000000e+000 0.000000e+000
<ENDHMM>
~h "seven"
<BEGINHMM>
<NUMSTATES> 10
<STATE> 2
<NUMMIXES> 2
<MIXTURE> 1 5.000000e-001
<MEAN> 39
 -1.630921e+001 -4.205688e+000 -6.804102e+000 -9.989040e+000 -5.290526e+000 -6.622533e+000 -3.712076e+000 -3.865289e+000 5.521182e-001 -2.926073e+000 4.219639e-001 -3.888138e+000 1.313548e+001 5.739594e-001 2.953546e-001 3.449875e-001 9.351775e-002 1.902365e-001 2.062163e-001 5.736841e-001 8.613626e-002 3.089131e-001 2.134466e-001 1.718486e-001 2.610494e-001 2.686721e-001 5.136755e-001 2.257976e-001 3.078623e-001 -7.350443e-002 -1.062590e-002 6.536178e-002 3.105199e-001 1.937172e-002 6.830063e-002 7.905795e-002 -4.521727e-002 -1.478916e-002 1.773322e-001
<VARIANCE> 39
 1.094324e+001 1.788350e+001 1.188262e+001 3.115590e+001 1.719263e+001 2.725921e+001 1.976260e+001 1.780394e+001 2.108135e+001 2.327238e+001 2.185382e+001 1.701117e+001 3.759661e+000 5.831506e-001 5.094174e-001 6.131300e-001 4.766066e-001 6.065648e-001 5.694119e-001 8.133512e-001 7.097555e-001 7.288529e-001 9.679866e-001 7.840519e-001 5.780112e-001 6.178606e-002 8.598828e-002 8.223610e-002 9.010740e-002 1.138093e-001 1.372748e-001 1.505775e-001 1.671247e-001 1.362342e-001 1.546345e-001 2.171455e-001 1.743719e-001 1.472107e-001 1.979538e-002
<GCONST> 7.216653e+001
<MIXTURE> 2 5.000000e-001
<MEAN> 39
 -1.763243e+001 -5.897243e+000 -8.182949e+000 -1.222174e+001 -6.949086e+000 -8.710947e+000 -5.490282e+000 -5.553078e+000 -1.284459e+000 -4.855731e+000 -1.447959e+000 -5.537922e+000 1.235988e+001 2.685022e-001 9.860638e-003 3.177707e-002 -1.826290e-001 -1.212926e-001 -9.562121e-002 2.129401e-001 -2.508517e-001 -3.257846e-002 -1.800987e-001 -1.823382e-001 -4.305879e-002 1.692449e-001 3.963804e-001 1.110902e-001 1.877907e-001 -2.084470e-001 -1.588283e-001 -8.985549e-002 1.469963e-001 -1.282679e-001 -8.899375e-002 -1.073375e-001 -2.122487e-001 -1.682613e-001 1.210538e-001
<VARIANCE> 39
 1.094324e+001 1.788350e+001 1.188262e+001 3.115590e+001 1.719263e+001 2.725921e+001 1.976260e+001 1.780394e+001 2.108135e+001 2.327238e+001 2.185382e+001 1.701117e+001 3.759661e+000 5.831506e-001 5.094174e-001 6.131300e-001 4.766066e-001 6.065648e-001 5.694119e-001 8.133512e-001 7.097555e-001 7.288529e-001 9.679866e-001 7.840519e-001 5.780112e-001 6.178606e-002 8.598828e-002 8.223610e-002 9.010740e-002 1.138093e-001 1.372748e-001 1.505775e-001 1.671247e-001 1.362342e-001 1.546345e-001 2.171455e-001 1.743719e-001 1.472107e-001 1.979538e-002
<GCONST> 7.216653e+001
<STATE> 3
<NUMMIXES> 2
<MIXTURE> 1 5.000000e-001
<MEAN> 39
 -1.187720e+001 -2.141476e+000 -3.355449e+000 -1.156242e+001 -4.089052e+000 -7.660191e+000 -1.800260e+000 -3.933268e+000 6.384248e-001 -2.175616e+000 -1.260931e-001 -4.183810e+000 1.471396e+001 2.379201e+000 5.233091e-001 9.298533e-001 -8.095385e-001 -6.742849e-001 3.523596e-001 1.695972e+000 1.789090e-002 2.194215e-001 1.470924e-001 -5.117775e-001 -4.473808e-001 1.048673e+000 2.243246e-001 -1.982415e-001 -8.940956e-002 -1.848392e-001 -5.410583e-002 3.008858e-001 3.344664e-001 -2.341826e-002 -4.037085e-002 -1.172005e-001 -1.059342e-001 -1.190645e-001 1.856332e-001
<VARIANCE> 39
 1.997827e+001 1.183603e+001 1.574202e+001 2.443449e+001 1.964378e+001 2.353495e+001 2.213282e+001 1.940218e+001 1.974200e+001 4.193264e+001 2.082521e+001 1.668030e+001 4.856432e+000 7.307771e-001 7.256463e-001 7.132349e-001 1.196622e+000 7.584926e-001 1.801779e+000 1.274343e+000 1.731177e+000 1.642912e+000 2.660279e+000 1.118586e+000 1.038761e+000 1.119241e-001 1.694886e-001 7.206815e-002 1.119372e-001 1.212073e-001 1.563497e-001 1.867859e-001 1.534215e-001 1.664927e-001 2.134350e-001 2.176349e-001 1.949605e-001 1.760835e-001 1.834114e-002
<GCONST> 8.284367e+001
<MIXTURE> 2 5.000000e-001
<MEAN> 39
 -1.366508e+001 -3.517617e+000 -4.942497e+000 -1.353968e+001 -5.861904e+000 -9.600704e+000 -3.682081e+000 -5.695184e+000 -1.138854e+000 -4.765832e+000 -1.951479e+000 -5.817472e+000 1.383246e+001 2.037259e+000 1.825695e-001 5.920404e-001 -1.247099e+000 -1.022651e+000 -1.845619e-001 1.244424e+000 -5.084059e-001 -2.932830e-001 -5.053220e-001 -9.348304e-001 -8.550593e-001 9.148527e-001 5.964861e-002 -3.056235e-001 -2.232376e-001 -3.240986e-001 -2.122702e-001 1.280108e-001 1.777902e-001 -1.866323e-001 -2.251669e-001 -3.038059e-001 -2.825516e-001 -2.869137e-001 1.314614e-001
<VARIANCE> 39
 1.997827e+001 1.183603e+001 1.574202e+001 2.443449e+001 1.964378e+001 2.353495e+001 2.213282e+001 1.940218e+001 1.974200e+001 4.193264e+001 2.082521e+001 1.668030e+001 4.856432e+000 7.307771e-001 7.256463e-001 7.132349e-001 1.196622e+000 7.584926e-001 1.801779e+000 1.274343e+000 1.731177e+000 1.642912e+000 2.660279e+000 1.118586e+000 1.038761e+000 1.119241e-001 1.694886e-001 7.206815e-002 1.119372e-001 1.212073e-001 1.563497e-001 1.867859e-001 1.534215e-001 1.664927e-001 2.134350e-001 2.176349e-001 1.949605e-001 1.760835e-001 1.834114e-002
<GCONST> 8.284367e+001
<STATE> 4
<NUMMIXES> 2
<MIXTURE> 1 5.000000e-001
<MEAN> 39
 -4.465181e+000 -3.185945e+000 -2.716244e+000 -1.775017e+001 -9.006300e+000 -6.909495e+000 4.421751e+000 -5.503973e+000 -2.275776e-001 -3.541627e+000 -4.483766e+000 -8.132305e+000 1.870148e+001 9.721862e-001 -7.072119e-001 -2.617684e-001 -5.971708e-001 2.382269e-001 1.438614e+000 1.602858e+000 -1.668149e-001 -1.915569e-001 -7.150484e-001 -3.615606e-001 -2.060933e-001 7.927217e-001 -4.897079e-001 -1.713705e-001 -1.656911e-001 4.302631e-001 5.111510e-001 2.675438e-001 -2.431810e-001 1.500348e-001 1.313195e-003 6.878404e-002 3.798745e-001 3.338708e-001 -1.957507e-001
<VARIANCE> 39
 7.772243e+000 1.128224e+001 1.082913e+001 2.067624e+001 2.684326e+001 2.780458e+001 2.458308e+001 3.837935e+001 4.076448e+001 8.335573e+001 2.621793e+001 2.512459e+001 1.459790e+000 1.050650e+000 5.191139e-001 5.535293e-001 1.043857e+000 1.549389e+000 1.565220e+000 1.141952e+000 1.345685e+000 1.801865e+000 1.469491e+000 1.271481e+000 1.508105e+000 1.722475e-001 9.427083e-002 9.890498e-002 9.737638e-002 1.494727e-001 1.109666e-001 2.007032e-001 1.512876e-001 1.669446e-001 1.856777e-001 3.819504e-001 1.652536e-001 1.287589e-001 1.139940e-002
<GCONST> 8.269466e+001
<MIXTURE> 2 5.000000e-001
<MEAN> 39
 -5.580331e+000 -4.529507e+000 -4.032550e+000 -1.956901e+001 -1.107872e+001 -9.018697e+000 2.438498e+000 -7.982016e+000 -2.781460e+000 -7.193601e+000 -6.531904e+000 -1.013728e+001 1.821820e+001 5.621814e-001 -9.954101e-001 -5.593666e-001 -1.005848e+000 -2.596709e-001 9.381785e-001 1.175410e+000 -6.308295e-001 -7.284911e-001 -1.199939e+000 -8.126004e-001 -6.973130e-001 6.267109e-001 -6.125221e-001 -2.971671e-001 -2.905119e-001 2.756163e-001 3.779044e-001 8.834418e-002 -3.987638e-001 -1.340063e-002 -1.710481e-001 -1.784245e-001 2.172689e-001 1.903388e-001 -2.384579e-001
<VARIANCE> 39
 7.772243e+000 1.128224e+001 1.082913e+001 2.067624e+001 2.684326e+001 2.780458e+001 2.458308e+001 3.837935e+001 4.076448e+001 8.335573e+001 2.621793e+001 2.512459e+001 1.459790e+000 1.050650e+000 5.191139e-001 5.535293e-001 1.043857e+000 1.549389e+000 1.565220e+000 1.141952e+000 1.345685e+000 1.801865e+000 1.469491e+000 1.271481e+000 1.508105e+000 1.722475e-001 9.427083e-002 9.890498e-002 9.737638e-002 1.494727e-001 1.109666e-001 2.007032e-001 1.512876e-001 1.669446e-001 1.856777e-001 3.819504e-001 1.652536e-001 1.287589e-001 1.139940e-002
<GCONST> 8.269466e+001
<STATE> 5
<NUMMIXES> 2
<MIXTURE> 1 5.000000e-001
<MEAN> 39
 -6.354171e+000 -7.599491e+000 -5.281448e+000 -1.628043e+001 -1.991416e+000 -5.594487e-001 5.628919e+000 -8.104535e+000 -9.746200e-001 -7.886756e+000 -2.546585e+000 -5.341432e+000 1.919484e+001 1.425486e-001 -2.749178e-001 1.426977e-001 6.838647e-001 4.841500e-001 2.893983e-001 2.957513e-001 4.546583e-001 -3.081832e-001 4.157830e-001 4.236510e-001 3.764449e-001 -3.396222e-003 1.336563e-001 3.516396e-001 2.982205e-001 2.553209e-001 -1.453843e-001 -4.782176e-001 -1.608761e-001 3.391042e-001 1.462286e-001 2.991447e-001 1.387824e-001 1.359253e-002 -1.027884e-001
<VARIANCE> 39
 7.540455e+000 1.228486e+001 7.479235e+000 1.673344e+001 4.263122e+001 2.227780e+001 2.605193e+001 3.897013e+001 5.222187e+001 4.078508e+001 3.187801e+001 3.067025e+001 1.508163e+000 2.397504e-001 4.421122e-001 4.037373e-001 4.012324e-001 1.221014e+000 1.330718e+000 7.477664e-001 1.007904e+000 7.987196e-001 1.675174e+000 1.087336e+000 8.015271e-001 2.332254e-002 5.301110e-002 5.345396e-002 5.982579e-002 1.029901e-001 1.832819e-001 1.125556e-001 1.856890e-001 1.276893e-001 1.695423e-001 1.644816e-001 1.998994e-001 1.506884e-001 5.939968e-003
<GCONST> 7.152112e+001
<MIXTURE> 2 5.000000e-001
<MEAN> 39
 -7.452567e+000 -9.001482e+000 -6.375376e+000 -1.791669e+001 -4.603120e+000 -2.447423e+000 3.587275e+000 -1.060158e+001 -3.865208e+000 -1.044128e+001 -4.805009e+000 -7.556661e+000 1.870361e+001 -5.330864e-002 -5.408838e-001 -1.114636e-001 4.304931e-001 4.215198e-002 -1.720287e-001 -5.014267e-002 5.308057e-002 -6.656676e-001 -1.019310e-001 6.549395e-003 1.833271e-002 -6.448310e-002 4.155974e-002 2.591592e-001 2.003833e-001 1.269527e-001 -3.166301e-001 -6.124148e-001 -3.332427e-001 1.961696e-001 -1.847348e-002 1.369193e-001 -4.005809e-002 -1.416819e-001 -1.336168e-001
<VARIANCE> 39
 7.540455e+000 1.228486e+001 7.479235e+000 1.673344e+001 4.263122e+001 2.227780e+001 2.605193e+001 3.897013e+001 5.222187e+001 4.078508e+001 3.187801e+001 3.067025e+001 1.508163e+000 2.397504e-001 4.421122e-001 4.037373e-001 4.012324e-001 1.221014e+000 1.330718e+000 7.477664e-001 1.007904e+000 7.987196e-001 1.675174e+000 1.087336e+000 8.015271e-001 2.332254e-002 5.301110e-002 5.345396e-002 5.982579e-002 1.029901e-001 1.832819e-001 1.125556e-001 1.856890e-001 1.276893e-001 1.695423e-001 1.644816e-001 1.998994e-001 1.506884e-001 5.939968e-003
<GCONST> 7.152112e+001
<STATE> 6
<NUMMIXES> 2
<MIXTURE> 1 5.000000e-001
<MEAN> 39
 -4.123527e+000 -6.503261e+000 -3.271060e+000 -1.307775e+001 -6.817964e+000 -6.780264e+000 4.964491e+000 -9.633926e-001 -4.114676e+000 -5.430600e+000 -1.700116e+000 -7.042207e+000 1.847700e+001 4.645735e-001 1.298463e+000 1.321616e+000 1.579404e+000 3.460476e-001 -1.681781e+000 -1.265141e+000 1.227705e+000 6.682030e-001 3.838963e-001 8.308403e-001 1.739438e-001 -4.542991e-001 -7.063439e-002 2.604630e-001 1.967361e-001 1.271405e-001 2.985381e-001 1.390871e-001 -1.696435e-001 -1.985824e-001 2.567013e-001 4.826499e-002 2.901647e-002 1.120459e-001 -3.912961e-002
<VARIANCE> 39
 9.217386e+000 1.112751e+001 1.416790e+001 1.883045e+001 2.661206e+001 3.634458e+001 2.760720e+001 7.416261e+001 4.034984e+001 2.888385e+001 2.422411e+001 2.628856e+001 1.785689e+000 4.909643e-001 6.321628e-001 1.010221e+000 8.991024e-001 1.677123e+000 1.013000e+000 2.018760e+000 1.479647e+000 1.837647e+000 2.265315e+000 1.454551e+000 1.190559e+000 4.467404e-002 3.787151e-002 8.902207e-002 1.089837e-001 1.490176e-001 1.252822e-001 2.262937e-001 2.566067e-001 2.203671e-001 1.761850e-001 1.931248e-001 1.582372e-001 1.481094e-001 9.950260e-003
<GCONST> 8.172242e+001
<MIXTURE> 2 5.000000e-001
<MEAN> 39
 -5.337933e+000 -7.837578e+000 -4.776670e+000 -1.481351e+001 -8.881439e+000 -9.191723e+000 2.862789e+000 -4.408101e+000 -6.655538e+000 -7.580348e+000 -3.668836e+000 -9.093102e+000 1.794248e+001 1.842981e-001 9.804287e-001 9.195765e-001 1.200120e+000 -1.719676e-001 -2.084373e+000 -1.833473e+000 7.411420e-001 1.259636e-001 -2.181422e-001 3.484212e-001 -2.625071e-001 -5.388440e-001 -1.484768e-001 1.411168e-001 6.468534e-002 -2.727066e-002 1.569571e-001 -5.119424e-002 -3.722689e-001 -3.863555e-001 8.880371e-002 -1.275189e-001 -1.300997e-001 -4.189407e-002 -7.903001e-002
<VARIANCE> 39
 9.217386e+000 1.112751e+001 1.416790e+001 1.883045e+001 2.661206e+001 3.634458e+001 2.760720e+001 7.416261e+001 4.034984e+001 2.888385e+001 2.422411e+001 2.628856e+001 1.785689e+000 4.909643e-001 6.321628e-001 1.010221e+000 8.991024e-001 1.677123e+000 1.013000e+000 2.018760e+000 1.479647e+000 1.837647e+000 2.265315e+000 1.454551e+000 1.190559e+000 4.467404e-002 3.787151e-002 8.902207e-002 1.089837e-001 1.490176e-001 1.252822e-001 2.262937e-001 2.566067e-001 2.203671e-001 1.761850e-001 1.931248e-001 1.582372e-001 1.481094e-001 9.950260e-003
<GCONST> 8.172242e+001
<STATE> 7
<NUMMIXES> 2
<MIXTURE> 1 5.000000e-001
<MEAN> 39
 -3.862012e+000 -2.475579e+000 3.520964e-001 -9.791878e+000 -4.819690e+000 -8.005980e+000 -2.394085e-001 -3.893363e+000 -1.773027e+000 -5.675421e+000 -1.518667e+000 -7.326982e+000 1.694721e+001 1.817879e-001 5.274634e-001 4.181712e-001 -1.061153e-002 5.463467e-001 5.157585e-001 -9.976381e-003 -2.613323e-001 2.911678e-001 3.172187e-001 -3.017035e-002 9.897307e-002 7.948996e-002 8.734680e-002 6.863616e-002 5.995996e-002 -6.743842e-002 2.049059e-001 1.912559e-001 2.143741e-001 5.434918e-002 9.290403e-002 1.090603e-001 -8.219774e-004 9.240438e-002 8.588356e-002
<VARIANCE> 39
 1.257269e+001 1.273405e+001 1.974104e+001 2.511975e+001 3.066366e+001 4.505838e+001 3.812677e+001 5.595063e+001 4.058201e+001 4.535252e+001 3.384033e+001 2.740066e+001 2.206824e+000 3.703077e-001 9.014015e-001 1.385719e+000 1.340379e+000 1.490419e+000 2.202372e+000 2.159498e+000 1.462063e+000 1.391779e+000 1.946474e+000 1.191291e+000 9.735129e-001 1.126413e-001 7.249796e-002 2.159708e-001 2.811271e-001 2.678533e-001 2.905487e-001 5.603248e-001 4.430935e-001 2.964789e-001 2.606997e-001 3.252309e-001 2.039862e-001 1.656780e-001 2.384970e-002
<GCONST> 9.363982e+001
<MIXTURE> 2 5.000000e-001
<MEAN> 39
 -5.280332e+000 -3.902971e+000 -1.425139e+000 -1.179666e+001 -7.034682e+000 -1.069100e+001 -2.709284e+000 -6.885369e+000 -4.321187e+000 -8.369192e+000 -3.845565e+000 -9.420808e+000 1.635299e+001 -6.162371e-002 1.476948e-001 -5.269503e-002 -4.737105e-001 5.801586e-002 -7.785711e-002 -5.977856e-001 -7.449955e-001 -1.807269e-001 -2.408457e-001 -4.667554e-001 -2.956940e-001 -5.475834e-002 -2.035498e-002 -1.172545e-001 -1.521257e-001 -2.744566e-001 -1.070435e-002 -1.081635e-001 -5.188702e-002 -1.634503e-001 -1.113310e-001 -1.190558e-001 -1.814813e-001 -7.040986e-002 2.411016e-002
<VARIANCE> 39
 1.257269e+001 1.273405e+001 1.974104e+001 2.511975e+001 3.066366e+001 4.505838e+001 3.812677e+001 5.595063e+001 4.058201e+001 4.535252e+001 3.384033e+001 2.740066e+001 2.206824e+000 3.703077e-001 9.014015e-001 1.385719e+000 1.340379e+000 1.490419e+000 2.202372e+000 2.159498e+000 1.462063e+000 1.391779e+000 1.946474e+000 1.191291e+000 9.735129e-001 1.126413e-001 7.249796e-002 2.159708e-001 2.811271e-001 2.678533e-001 2.905487e-001 5.603248e-001 4.430935e-001 2.964789e-001 2.606997e-001 3.252309e-001 2.039862e-001 1.656780e-001 2.384970e-002
<GCONST> 9.363982e+001
<STATE> 8
<NUMMIXES> 2
<MIXTURE> 1 5.000000e-001
<MEAN> 39
 -2.528234e+000 2.518560e+000 3.335729e+000 -1.251307e+001 6.407601e-001 -9.889190e+000 -3.184069e+000 -6.306088e+000 -1.225585e+000 -6.044448e+000 -4.025853e+000 -8.004182e+000 1.736711e+001 1.915128e-001 6.759126e-001 6.094689e-001 3.613357e-001 8.113794e-001 -2.569611e-001 -9.228378e-002 1.746190e-001 2.142107e-001 2.582145e-001 1.071521e-001 1.493047e-001 -6.976433e-002 -8.730610e-002 -1.100089e-001 -5.443807e-002 1.463620e-001 -7.064165e-002 3.107496e-001 2.004750e-001 9.982993e-002 7.795174e-002 1.059431e-001 2.001196e-001 1.145945e-001 -2.988825e-002
<VARIANCE> 39
 1.874440e+001 1.173676e+001 1.686712e+001 1.709490e+001 2.326277e+001 5.156754e+001 3.347683e+001 3.708086e+001 4.846325e+001 6.622780e+001 5.872095e+001 5.266894e+001 1.649302e+000 3.222346e-001 5.474986e-001 5.959238e-001 6.199141e-001 1.437009e+000 2.002005e+000 9.909330e-001 1.057329e+000 1.126639e+000 1.030195e+000 1.083642e+000 9.369658e-001 2.863349e-002 4.636332e-002 7.529189e-002 1.121598e-001 1.107492e-001 1.662187e-001 2.961863e-001 1.674048e-001 1.563582e-001 1.874645e-001 1.926967e-001 1.769871e-001 1.422336e-001 5.043762e-003
<GCONST> 7.955096e+001
<MIXTURE> 2 5.000000e-001
<MEAN> 39
 -4.260026e+000 1.148202e+000 1.692945e+000 -1.416691e+001 -1.288500e+000 -1.276161e+001 -5.498436e+000 -8.741850e+000 -4.010207e+000 -9.299666e+000 -7.091037e+000 -1.090712e+001 1.685341e+001 -3.555008e-002 3.799400e-001 3.006845e-001 4.639716e-002 3.318782e-001 -8.229300e-001 -4.904662e-001 -2.366870e-001 -2.103623e-001 -1.477796e-001 -3.092405e-001 -2.378833e-001 -1.374501e-001 -1.734347e-001 -2.197663e-001 -1.883991e-001 1.324597e-002 -2.337214e-001 9.305760e-002 3.681444e-002 -5.833869e-002 -9.523694e-002 -6.964582e-002 3.184023e-002 -3.626093e-002 -5.829603e-002
<VARIANCE> 39
 1.874440e+001 1.173676e+001 1.686712e+001 1.709490e+001 2.326277e+001 5.156754e+001 3.347683e+001 3.708086e+001 4.846325e+001 6.622780e+001 5.872095e+001 5.266894e+001 1.649302e+000 3.222346e-001 5.474986e-001 5.959238e-001 6.199141e-001 1.437009e+000 2.002005e+000 9.909330e-001 1.057329e+000 1.126639e+000 1.030195e+000 1.083642e+000 9.369658e-001 2.863349e-002 4.636332e-002 7.529189e-002 1.121598e-001 1.107492e-001 1.662187e-001 2.961863e-001 1.674048e-001 1.563582e-001 1.874645e-001 1.926967e-001 1.769871e-001 1.422336e-001 5.043762e-003
<GCONST> 7.955096e+001
<STATE> 9
<NUMMIXES> 2
<MIXTURE> 1 5.000000e-001
<MEAN> 39
 -6.010887e+000 1.068615e+000 3.003334e+000 -8.663716e+000 4.142389e-001 -7.924117e+000 -2.552392e+000 -6.018221e+000 -9.039667e-001 -3.984534e+000 -2.052927e+000 -5.856291e+000 1.445563e+001 -1.098596e+000 -7.397651e-001 -7.952253e-001 3.317853e-002 -2.881429e-001 7.050186e-001 3.203467e-001 4.169541e-001 5.097266e-001 4.502361e-001 8.012134e-001 6.385101e-001 -3.773002e-001 9.829694e-002 1.030833e-002 -4.826903e-002 -5.521727e-002 -2.492599e-002 3.724842e-002 7.744199e-002 1.363043e-001 7.179147e-002 8.270708e-002 1.003883e-001 8.803564e-002 8.297104e-002
<VARIANCE> 39
 3.471906e+001 2.536120e+001 2.929856e+001 3.550128e+001 2.719843e+001 4.158337e+001 3.139010e+001 3.591845e+001 3.729242e+001 3.636657e+001 3.848176e+001 3.033618e+001 8.859365e+000 1.245641e+000 9.676754e-001 1.143378e+000 1.769797e+000 1.309550e+000 2.135589e+000 1.317726e+000 1.431281e+000 1.604115e+000 1.754779e+000 1.493015e+000 1.365792e+000 1.784871e-001 2.367523e-001 2.204554e-001 2.351856e-001 2.403173e-001 2.260694e-001 3.186611e-001 2.170095e-001 2.161115e-001 2.304551e-001 2.406104e-001 2.012308e-001 1.616715e-001 2.717428e-002
<GCONST> 9.705907e+001
<MIXTURE> 2 5.000000e-001
<MEAN> 39
 -8.367803e+000 -9.457808e-001 8.382081e-001 -1.104703e+001 -1.671846e+000 -1.050352e+001 -4.793467e+000 -8.415501e+000 -3.346668e+000 -6.396722e+000 -4.534274e+000 -8.059422e+000 1.326505e+001 -1.545030e+000 -1.133247e+000 -1.222941e+000 -4.989564e-001 -7.458853e-001 1.204724e-001 -1.388222e-001 -6.159051e-002 3.111977e-003 -7.963615e-002 3.124574e-001 1.710417e-001 -5.462912e-001 -9.633186e-002 -1.775024e-001 -2.422528e-001 -2.513059e-001 -2.151130e-001 -1.885519e-001 -1.088951e-001 -4.964691e-002 -1.202315e-001 -1.135011e-001 -7.904668e-002 -7.279795e-002 1.703255e-002
<VARIANCE> 39
 3.471906e+001 2.536120e+001 2.929856e+001 3.550128e+001 2.719843e+001 4.158337e+001 3.139010e+001 3.591845e+001 3.729242e+001 3.636657e+001 3.848176e+001 3.033618e+001 8.859365e+000 1.245641e+000 9.676754e-001 1.143378e+000 1.769797e+000 1.309550e+000 2.135589e+000 1.317726e+000 1.431281e+000 1.604115e+000 1.754779e+000 1.493015e+000 1.365792e+000 1.784871e-001 2.367523e-001 2.204554e-001 2.351856e-001 2.403173e-001 2.260694e-001 3.186611e-001 2.170095e-001 2.161115e-001 2.304551e-001 2.406104e-001 2.012308e-001 1.616715e-001 2.717428e-002
<GCONST> 9.705907e+001
<TRANSP> 10
 0.000000e+000 1.000000e+000 0.000000e+000 0.000000e+000 0.000000e+000 0.000000e+000 0.000000e+000 0.000000e+000 0.000000e+000 0.000000e+000
 0.000000e+000 6.722031e-001 3.277970e-001 0.000000e+000 0.000000e+000 0.000000e+000 0.000000e+000 0.000000e+000 0.000000e+000 0.000000e+000
 0.000000e+000 0.000000e+000 6.027673e-001 3.972327e-001 0.000000e+000 0.000000e+000 0.000000e+000 0.000000e+000 0.000000e+000 0.000000e+000
 0.000000e+000 0.000000e+000 0.000000e+000 6.967225e-001 3.032775e-001 0.000000e+000 0.000000e+000 0.000000e+000 0.000000e+000 0.000000e+000
 0.000000e+000 0.000000e+000 0.000000e+000 0.000000e+000 7.889159e-001 2.110841e-001 0.000000e+000 0.000000e+000 0.000000e+000 0.000000e+000
 0.000000e+000 0.000000e+000 0.000000e+000 0.000000e+000 0.000000e+000 6.850170e-001 3.149829e-001 0.000000e+000 0.000000e+000 0.000000e+000
 0.000000e+000 0.000000e+000 0.000000e+000 0.000000e+000 0.000000e+000 0.000000e+000 8.726556e-001 1.273444e-001 0.000000e+000 0.000000e+000
 0.000000e+000 0.000000e+000 0.000000e+000 0.000000e+000 0.000000e+000 0.000000e+000 0.000000e+000 8.399744e-001 1.600256e-001 0.000000e+000
 0.000000e+000 0.000000e+000 0.000000e+000 0.000000e+000 0.000000e+000 0.000000e+000 0.000000e+000 0.000000e+000 7.809787e-001 2.190213e-001
 0.000000e+000 0.000000e+000 0.000000e+000 0.000000e+000 0.000000e+000 0.000000e+000 0.000000e+000 0.000000e+000 0.000000e+000 0.000000e+000
<ENDHMM>
~h "sil"
<BEGINHMM>
<NUMSTATES> 5
<STATE> 2
<NUMMIXES> 2
<MIXTURE> 1 5.000000e-001
<MEAN> 39
 -9.072799e+000 -2.018849e+000 -2.078667e+000 -6.596678e+000 -2.976316e+000 -5.923020e+000 -2.268412e+000 -4.846074e+000 -9.380313e-001 -3.605522e+000 -7.561498e-001 -3.340199e+000 9.090836e+000 -1.285629e-002 1.519200e-001 4.528749e-002 9.403715e-002 6.275254e-002 1.119105e-001 1.680306e-001 2.568605e-001 2.022084e-001 1.585331e-001 1.901700e-001 1.745797e-001 -3.851398e-002 2.807232e-002 2.882254e-002 4.077222e-002 4.410579e-002 6.825436e-002 5.710636e-002 6.416939e-002 5.800551e-002 7.593816e-002 7.961923e-002 6.906353e-002 5.819229e-002 1.773333e-002
<VARIANCE> 39
 1.053339e+001 1.311403e+001 1.243582e+001 2.926780e+001 1.979299e+001 2.328342e+001 1.969677e+001 2.214973e+001 2.088301e+001 2.042894e+001 1.774706e+001 1.596209e+001 1.202702e+001 1.357379e-001 2.623161e-001 3.162755e-001 4.606872e-001 5.858901e-001 6.549457e-001 6.953012e-001 8.234407e-001 8.148726e-001 7.858753e-001 7.155267e-001 5.924008e-001 1.804491e-002 1.647996e-002 3.284417e-002 4.692586e-002 6.930885e-002 8.947624e-002 1.005763e-001 1.060845e-001 1.175056e-001 1.290345e-001 1.204135e-001 1.159154e-001 9.418217e-002 1.808908e-003
<GCONST> 5.946523e+001
<MIXTURE> 2 5.000000e-001
<MEAN> 39
 -1.037101e+001 -3.467381e+000 -3.489245e+000 -8.760667e+000 -4.755888e+000 -7.853136e+000 -4.043654e+000 -6.728614e+000 -2.765949e+000 -5.413458e+000 -2.441240e+000 -4.938303e+000 7.703636e+000 -1.602268e-001 -5.294723e-002 -1.796660e-001 -1.774586e-001 -2.434213e-001 -2.118043e-001 -1.655083e-001 -1.061140e-001 -1.588727e-001 -1.960654e-001 -1.481853e-001 -1.332906e-001 -9.224652e-002 -2.327740e-002 -4.366931e-002 -4.587729e-002 -6.120051e-002 -5.139596e-002 -6.974870e-002 -6.611308e-002 -7.911085e-002 -6.774734e-002 -5.918337e-002 -6.712188e-002 -6.456417e-002 7.208295e-004
<VARIANCE> 39
 1.053339e+001 1.311403e+001 1.243582e+001 2.926780e+001 1.979299e+001 2.328342e+001 1.969677e+001 2.214973e+001 2.088301e+001 2.042894e+001 1.774706e+001 1.596209e+001 1.202702e+001 1.357379e-001 2.623161e-001 3.162755e-001 4.606872e-001 5.858901e-001 6.549457e-001 6.953012e-001 8.234407e-001 8.148726e-001 7.858753e-001 7.155267e-001 5.924008e-001 1.804491e-002 1.647996e-002 3.284417e-002 4.692586e-002 6.930885e-002 8.947624e-002 1.005763e-001 1.060845e-001 1.175056e-001 1.290345e-001 1.204135e-001 1.159154e-001 9.418217e-002 1.808908e-003
<GCONST> 5.946523e+001
<STATE> 3
~s "silst"
<STATE> 4
<NUMMIXES> 2
<MIXTURE> 1 5.000000e-001
<MEAN> 39
 -1.103968e+001 -2.980658e+000 -3.142220e+000 -8.236588e+000 -4.049602e+000 -6.960585e+000 -2.590442e+000 -4.856877e+000 -7.863600e-001 -3.678582e+000 -7.498484e-001 -3.819272e+000 9.653193e+000 1.358679e-001 2.249436e-001 2.028697e-001 2.705817e-001 2.379761e-001 2.187235e-001 2.687326e-001 2.229434e-001 1.955577e-001 2.117176e-001 1.903841e-001 1.670903e-001 1.609882e-001 8.926947e-002 7.396314e-002 7.447692e-002 7.123338e-002 8.303290e-002 7.837681e-002 8.658792e-002 6.740452e-002 7.026338e-002 5.539676e-002 6.303584e-002 6.049062e-002 7.603376e-002
<VARIANCE> 39
 1.037719e+001 1.146441e+001 1.157844e+001 3.637320e+001 1.941463e+001 2.615754e+001 1.968808e+001 2.175826e+001 1.842075e+001 1.909127e+001 1.652140e+001 1.674863e+001 1.260480e+001 4.734315e-001 5.309044e-001 5.607700e-001 8.383300e-001 8.534390e-001 8.886045e-001 8.824857e-001 1.017310e+000 8.678386e-001 8.444835e-001 7.819517e-001 7.014265e-001 1.288530e-001 8.073311e-002 8.622186e-002 9.304906e-002 1.259077e-001 1.330451e-001 1.313305e-001 1.418054e-001 1.564084e-001 1.382080e-001 1.339748e-001 1.180470e-001 1.114450e-001 2.264540e-002
<GCONST> 7.395061e+001
<MIXTURE> 2 5.000000e-001
<MEAN> 39
 -1.232822e+001 -4.335024e+000 -4.503304e+000 -1.064900e+001 -5.812084e+000 -9.006363e+000 -4.365292e+000 -6.722707e+000 -2.503136e+000 -5.426324e+000 -2.375710e+000 -5.456276e+000 8.233064e+000 -1.393576e-001 -6.650919e-002 -9.666861e-002 -9.565979e-002 -1.315509e-001 -1.583398e-001 -1.070302e-001 -1.805038e-001 -1.770737e-001 -1.558656e-001 -1.633280e-001 -1.679146e-001 1.740376e-002 -2.438483e-002 -4.349110e-002 -4.753886e-002 -7.070052e-002 -6.286850e-002 -6.658139e-002 -6.404030e-002 -9.078950e-002 -7.844197e-002 -9.101352e-002 -7.439604e-002 -7.304290e-002 1.584020e-002
<VARIANCE> 39
 1.037719e+001 1.146441e+001 1.157844e+001 3.637320e+001 1.941463e+001 2.615754e+001 1.968808e+001 2.175826e+001 1.842075e+001 1.909127e+001 1.652140e+001 1.674863e+001 1.260480e+001 4.734315e-001 5.309044e-001 5.607700e-001 8.383300e-001 8.534390e-001 8.886045e-001 8.824857e-001 1.017310e+000 8.678386e-001 8.444835e-001 7.819517e-001 7.014265e-001 1.288530e-001 8.073311e-002 8.622186e-002 9.304906e-002 1.259077e-001 1.330451e-001 1.313305e-001 1.418054e-001 1.564084e-001 1.382080e-001 1.339748e-001 1.180470e-001 1.114450e-001 2.264540e-002
<GCONST> 7.395061e+001
<TRANSP> 5
 0.000000e+000 1.000000e+000 0.000000e+000 0.000000e+000 0.000000e+000
 0.000000e+000 8.194219e-001 1.805781e-001 0.000000e+000 0.000000e+000
 0.000000e+000 0.000000e+000 9.476417e-001 5.235829e-002 0.000000e+000
 0.000000e+000 0.000000e+000 0.000000e+000 7.087758e-001 2.912242e-001
 0.000000e+000 0.000000e+000 0.000000e+000 0.000000e+000 0.000000e+000
<ENDHMM>
~h "six"
<BEGINHMM>
<NUMSTATES> 10
<STATE> 2
<NUMMIXES> 2
<MIXTURE> 1 5.000000e-001
<MEAN> 39
 -1.500434e+001 -2.842144e+000 -5.004302e+000 -8.003887e+000 -5.216543e+000 -5.907786e+000 -2.833216e+000 -4.942837e+000 3.054528e-002 -2.763151e+000 -7.150737e-001 -3.586397e+000 1.198072e+001 9.767489e-002 2.449026e-001 1.418452e-001 1.841772e-001 2.070265e-001 2.679849e-001 2.338772e-001 1.905933e-001 2.958775e-001 1.380401e-001 1.403828e-001 2.246491e-001 2.475233e-001 3.010389e-001 2.055772e-001 2.370697e-001 -5.213079e-003 3.959380e-002 4.353105e-002 1.449146e-001 9.938386e-002 1.375300e-001 9.251825e-002 5.986946e-002 5.575441e-002 9.771546e-002
<VARIANCE> 39
 1.992323e+001 1.962872e+001 2.078003e+001 3.061154e+001 1.681103e+001 2.750613e+001 2.131609e+001 2.469153e+001 2.100221e+001 2.336962e+001 2.162437e+001 1.676480e+001 7.589677e+000 6.306764e-001 6.072083e-001 7.480537e-001 6.423600e-001 6.880211e-001 8.418825e-001 9.188453e-001 9.867378e-001 8.594266e-001 8.339829e-001 7.591994e-001 6.602650e-001 1.254824e-001 1.259715e-001 1.293197e-001 1.413376e-001 1.341923e-001 1.184299e-001 1.625012e-001 1.805853e-001 2.077272e-001 1.731344e-001 1.854506e-001 1.419196e-001 1.255184e-001 2.544690e-002
<GCONST> 7.873033e+001
<MIXTURE> 2 5.000000e-001
<MEAN> 39
 -1.678976e+001 -4.614316e+000 -6.827706e+000 -1.021700e+001 -6.856593e+000 -8.005637e+000 -4.679990e+000 -6.930460e+000 -1.802581e+000 -4.696837e+000 -2.575154e+000 -5.224191e+000 1.087874e+001 -2.199856e-001 -6.679168e-002 -2.041152e-001 -1.364122e-001 -1.247616e-001 -9.903173e-002 -1.495485e-001 -2.067454e-001 -7.494353e-002 -2.272505e-001 -2.081454e-001 -1.003777e-001 1.058293e-001 1.590691e-001 6.173300e-002 8.669011e-002 -1.517421e-001 -9.806078e-002 -1.177147e-001 -2.506671e-002 -8.292454e-002 -2.890773e-002 -7.973766e-002 -9.081940e-002 -8.595989e-002 3.390712e-002
<VARIANCE> 39
 1.992323e+001 1.962872e+001 2.078003e+001 3.061154e+001 1.681103e+001 2.750613e+001 2.131609e+001 2.469153e+001 2.100221e+001 2.336962e+001 2.162437e+001 1.676480e+001 7.589677e+000 6.306764e-001 6.072083e-001 7.480537e-001 6.423600e-001 6.880211e-001 8.418825e-001 9.188453e-001 9.867378e-001 8.594266e-001 8.339829e-001 7.591994e-001 6.602650e-001 1.254824e-001 1.259715e-001 1.293197e-001 1.413376e-001 1.341923e-001 1.184299e-001 1.625012e-001 1.805853e-001 2.077272e-001 1.731344e-001 1.854506e-001 1.419196e-001 1.255184e-001 2.544690e-002
<GCONST> 7.873033e+001
<STATE> 3
<NUMMIXES> 2
<MIXTURE> 1 5.000000e-001
<MEAN> 39
 -1.403212e+001 -2.568258e+000 -4.587380e+000 -1.196045e+001 -3.495881e+000 -7.476931e+000 -3.306590e+000 -4.522246e+000 1.067925e+000 -2.581748e+000 -9.645598e-002 -3.263848e+000 1.416909e+001 2.015192e+000 1.209270e+000 1.415452e+000 -6.593966e-001 -5.691572e-001 -2.136484e-001 8.190174e-001 1.793757e-002 6.382058e-001 4.563027e-001 -1.439461e-001 -7.288855e-002 8.805459e-001 3.631877e-001 1.753158e-001 2.744471e-001 -3.027675e-001 -2.646885e-001 1.669163e-002 1.993743e-001 8.115936e-002 1.510029e-001 1.588687e-001 -3.734147e-002 -1.292240e-001 2.099310e-001
<VARIANCE> 39
 1.156611e+001 1.332729e+001 1.588013e+001 2.483886e+001 1.760747e+001 2.848488e+001 2.132830e+001 1.794764e+001 2.333766e+001 3.452818e+001 2.700699e+001 2.281863e+001 3.138803e+000 6.989987e-001 6.685317e-001 6.895436e-001 1.370961e+000 9.189836e-001 9.753226e-001 9.978004e-001 1.053429e+000 1.120367e+000 2.390217e+000 1.162533e+000 1.526866e+000 1.192678e-001 1.220036e-001 1.012358e-001 1.235953e-001 1.315058e-001 1.578584e-001 1.768120e-001 2.250658e-001 1.661720e-001 1.630988e-001 2.702276e-001 2.314857e-001 2.234613e-001 1.088690e-002
<GCONST> 8.169087e+001
<MIXTURE> 2 5.000000e-001
<MEAN> 39
 -1.539248e+001 -4.028520e+000 -6.181376e+000 -1.395399e+001 -5.174331e+000 -9.611780e+000 -5.153893e+000 -6.216832e+000 -8.644372e-001 -4.932175e+000 -2.175186e+000 -5.174602e+000 1.346043e+001 1.680768e+000 8.822145e-001 1.083297e+000 -1.127749e+000 -9.526118e-001 -6.086820e-001 4.194576e-001 -3.926092e-001 2.148162e-001 -1.621103e-001 -5.752295e-001 -5.671542e-001 7.424052e-001 2.234717e-001 4.804555e-002 1.338226e-001 -4.478225e-001 -4.236141e-001 -1.515044e-001 9.609898e-003 -8.189744e-002 -1.053903e-002 -4.906498e-002 -2.297933e-001 -3.183108e-001 1.681948e-001
<VARIANCE> 39
 1.156611e+001 1.332729e+001 1.588013e+001 2.483886e+001 1.760747e+001 2.848488e+001 2.132830e+001 1.794764e+001 2.333766e+001 3.452818e+001 2.700699e+001 2.281863e+001 3.138803e+000 6.989987e-001 6.685317e-001 6.895436e-001 1.370961e+000 9.189836e-001 9.753226e-001 9.978004e-001 1.053429e+000 1.120367e+000 2.390217e+000 1.162533e+000 1.526866e+000 1.192678e-001 1.220036e-001 1.012358e-001 1.235953e-001 1.315058e-001 1.578584e-001 1.768120e-001 2.250658e-001 1.661720e-001 1.630988e-001 2.702276e-001 2.314857e-001 2.234613e-001 1.088690e-002
<GCONST> 8.169087e+001
<STATE> 4
<NUMMIXES> 2
<MIXTURE> 1 5.000000e-001
<MEAN> 39
 -6.196347e+000 9.763715e-001 -1.143558e-001 -2.002778e+001 -6.739513e+000 -8.476046e+000 1.705978e-001 -4.249917e+000 3.189403e+000 -3.015134e+000 -2.540474e+000 -6.132659e+000 1.844180e+001 5.799195e-001 4.527528e-001 6.247482e-001 -7.412748e-001 1.232984e-001 3.276832e-001 1.526571e-001 6.651673e-001 2.838791e-001 3.055952e-001 7.485607e-002 4.789427e-002 4.040598e-001 -1.881784e-001 -3.653024e-002 8.656189e-003 3.045758e-001 3.107083e-001 1.409083e-001 -1.981399e-001 1.525472e-001 -4.919602e-002 8.873396e-002 2.370699e-001 2.224233e-001 -1.604600e-001
<VARIANCE> 39
 7.591511e+000 1.011057e+001 1.288512e+001 2.615224e+001 4.941751e+001 2.116854e+001 2.068432e+001 2.292610e+001 2.871385e+001 6.687148e+001 3.525047e+001 5.092185e+001 1.721956e+000 9.714466e-001 5.819217e-001 8.443804e-001 1.202181e+000 1.725639e+000 1.447086e+000 1.946044e+000 1.074371e+000 1.451042e+000 1.731925e+000 1.617096e+000 1.814919e+000 3.025699e-001 1.283997e-001 8.509833e-002 1.246077e-001 1.856119e-001 2.151437e-001 2.148493e-001 1.973082e-001 1.888597e-001 2.101172e-001 3.373832e-001 2.044506e-001 2.670226e-001 1.796503e-002
<GCONST> 8.822766e+001
<MIXTURE> 2 5.000000e-001
<MEAN> 39
 -7.298455e+000 -2.955134e-001 -1.550190e+000 -2.207335e+001 -9.551416e+000 -1.031642e+001 -1.648603e+000 -6.165165e+000 1.045991e+000 -6.286133e+000 -4.915358e+000 -8.987041e+000 1.791690e+001 1.856715e-001 1.476176e-001 2.571875e-001 -1.179851e+000 -4.021560e-001 -1.534963e-001 -4.053456e-001 2.505598e-001 -1.979577e-001 -2.208153e-001 -4.338043e-001 -4.909815e-001 1.840344e-001 -3.315100e-001 -1.532167e-001 -1.325431e-001 1.322450e-001 1.251739e-001 -4.449902e-002 -3.758175e-001 -2.128481e-002 -2.325502e-001 -1.436048e-001 5.620507e-002 1.572634e-002 -2.140734e-001
<VARIANCE> 39
 7.591511e+000 1.011057e+001 1.288512e+001 2.615224e+001 4.941751e+001 2.116854e+001 2.068432e+001 2.292610e+001 2.871385e+001 6.687148e+001 3.525047e+001 5.092185e+001 1.721956e+000 9.714466e-001 5.819217e-001 8.443804e-001 1.202181e+000 1.725639e+000 1.447086e+000 1.946044e+000 1.074371e+000 1.451042e+000 1.731925e+000 1.617096e+000 1.814919e+000 3.025699e-001 1.283997e-001 8.509833e-002 1.246077e-001 1.856119e-001 2.151437e-001 2.148493e-001 1.973082e-001 1.888597e-001 2.101172e-001 3.373832e-001 2.044506e-001 2.670226e-001 1.796503e-002
<GCONST> 8.822766e+001
<STATE> 5
<NUMMIXES> 2
<MIXTURE> 1 5.000000e-001
<MEAN> 39
 -5.773906e+000 2.966180e+000 5.009086e+000 -2.049483e+001 -7.148661e+000 -7.057360e+000 -6.710359e+000 -1.408249e+000 6.550992e-001 -2.234136e+000 -1.090318e+000 -5.397510e+000 1.778390e+001 7.732771e-002 2.597086e-001 7.029288e-001 1.602234e+000 1.192606e+000 4.147034e-001 -3.834992e-001 8.932720e-002 4.366959e-003 2.930431e-002 8.666714e-001 6.094197e-001 -7.037249e-001 -1.900686e-001 -2.759711e-001 -3.937399e-001 6.248692e-001 2.577004e-001 5.934751e-002 6.726144e-001 -1.050606e-001 1.782507e-001 1.557394e-001 1.288990e-001 1.876622e-001 -1.811482e-001
<VARIANCE> 39
 1.227875e+001 2.292276e+001 2.559008e+001 3.195622e+001 6.776282e+001 5.200680e+001 5.945052e+001 3.798766e+001 2.760352e+001 3.558160e+001 3.994027e+001 3.449551e+001 3.800694e+000 7.896847e-001 1.075737e+000 1.559748e+000 2.656983e+000 2.945971e+000 2.004891e+000 2.823032e+000 1.831034e+000 1.908539e+000 2.683342e+000 1.449184e+000 1.938341e+000 3.353049e-001 1.325227e-001 2.376629e-001 2.531933e-001 2.950680e-001 5.110584e-001 4.685820e-001 4.940622e-001 3.777300e-001 3.284123e-001 3.401516e-001 3.399015e-001 2.578558e-001 3.130431e-002
<GCONST> 1.043672e+002
<MIXTURE> 2 5.000000e-001
<MEAN> 39
 -7.175548e+000 1.051072e+000 2.985620e+000 -2.275603e+001 -1.044139e+001 -9.941990e+000 -9.794525e+000 -3.873615e+000 -1.446463e+000 -4.620148e+000 -3.618250e+000 -7.746824e+000 1.700408e+001 -2.781291e-001 -1.551623e-001 2.033694e-001 9.502239e-001 5.060525e-001 -1.516732e-001 -1.055574e+000 -4.519356e-001 -5.482326e-001 -6.259321e-001 3.851432e-001 5.252246e-002 -9.353470e-001 -3.356833e-001 -4.709739e-001 -5.950131e-001 4.075886e-001 -2.825300e-002 -2.144647e-001 3.914562e-001 -3.508996e-001 -5.097832e-002 -7.755068e-002 -1.043053e-001 -1.545579e-002 -2.519203e-001
<VARIANCE> 39
 1.227875e+001 2.292276e+001 2.559008e+001 3.195622e+001 6.776282e+001 5.200680e+001 5.945052e+001 3.798766e+001 2.760352e+001 3.558160e+001 3.994027e+001 3.449551e+001 3.800694e+000 7.896847e-001 1.075737e+000 1.559748e+000 2.656983e+000 2.945971e+000 2.004891e+000 2.823032e+000 1.831034e+000 1.908539e+000 2.683342e+000 1.449184e+000 1.938341e+000 3.353049e-001 1.325227e-001 2.376629e-001 2.531933e-001 2.950680e-001 5.110584e-001 4.685820e-001 4.940622e-001 3.777300e-001 3.284123e-001 3.401516e-001 3.399015e-001 2.578558e-001 3.130431e-002
<GCONST> 1.043672e+002
<STATE> 6
<NUMMIXES> 2
<MIXTURE> 1 5.000000e-001
<MEAN> 39
 -8.100141e+000 -7.381327e-001 1.124214e+000 -9.367043e+000 -4.445432e+000 -7.337443e+000 -2.738334e+000 -3.715999e+000 6.390049e-001 -2.815208e+000 5.272300e-001 -3.199348e+000 1.212673e+001 -9.203930e-001 -1.585304e+000 -7.743528e-001 1.351372e+000 2.758771e-001 3.415455e-001 1.350736e+000 -2.091055e-001 2.580479e-001 2.133202e-001 4.323267e-001 3.548197e-001 -1.696271e-001 -7.432386e-002 1.071160e-001 1.174642e-001 -3.913776e-001 -1.129171e-001 2.070597e-001 1.013492e-001 7.708336e-002 1.566066e-001 1.149876e-001 -2.942960e-002 -5.454937e-002 3.309455e-001
<VARIANCE> 39
 1.722340e+001 5.185276e+001 2.736243e+001 3.407793e+001 2.846212e+001 2.537204e+001 2.554871e+001 2.077997e+001 2.638020e+001 2.831346e+001 2.103524e+001 1.918715e+001 1.424717e+001 1.120761e+000 1.871113e+000 1.881838e+000 2.352802e+000 2.629231e+000 2.582717e+000 2.336586e+000 1.456237e+000 1.667205e+000 1.564776e+000 1.412362e+000 1.601870e+000 9.125395e-001 1.908084e-001 5.440102e-001 3.484091e-001 2.558601e-001 4.061429e-001 2.935708e-001 3.483322e-001 2.027683e-001 2.617723e-001 2.948911e-001 1.789768e-001 1.888334e-001 8.745927e-002
<GCONST> 1.026466e+002
<MIXTURE> 2 5.000000e-001
<MEAN> 39
 -9.760184e+000 -3.618487e+000 -9.681509e-001 -1.170210e+001 -6.579428e+000 -9.352269e+000 -4.760164e+000 -5.539401e+000 -1.415461e+000 -4.943624e+000 -1.307338e+000 -4.951474e+000 1.061691e+001 -1.343857e+000 -2.132458e+000 -1.323073e+000 7.378181e-001 -3.727190e-001 -3.012878e-001 7.393001e-001 -6.918041e-001 -2.584333e-001 -2.870438e-001 -4.304468e-002 -1.514403e-001 -5.517349e-001 -2.490503e-001 -1.879122e-001 -1.186406e-001 -5.937080e-001 -3.678345e-001 -9.668948e-003 -1.347295e-001 -1.030358e-001 -4.804820e-002 -1.022279e-001 -1.986522e-001 -2.283692e-001 2.126515e-001
<VARIANCE> 39
 1.722340e+001 5.185276e+001 2.736243e+001 3.407793e+001 2.846212e+001 2.537204e+001 2.554871e+001 2.077997e+001 2.638020e+001 2.831346e+001 2.103524e+001 1.918715e+001 1.424717e+001 1.120761e+000 1.871113e+000 1.881838e+000 2.352802e+000 2.629231e+000 2.582717e+000 2.336586e+000 1.456237e+000 1.667205e+000 1.564776e+000 1.412362e+000 1.601870e+000 9.125395e-001 1.908084e-001 5.440102e-001 3.484091e-001 2.558601e-001 4.061429e-001 2.935708e-001 3.483322e-001 2.027683e-001 2.617723e-001 2.948911e-001 1.789768e-001 1.888334e-001 8.745927e-002
<GCONST> 1.026466e+002
<STATE> 7
<NUMMIXES> 2
<MIXTURE> 1 5.000000e-001
<MEAN> 39
 -1.351806e+001 -5.359188e+000 -8.044304e-001 -1.257466e+001 -6.659656e+000 -6.339942e+000 -1.074230e+000 -5.636180e+000 6.221066e-001 -2.538570e+000 -3.597842e-001 -5.015272e+000 1.403177e+001 -1.000165e+000 2.714111e-001 -3.504980e-001 2.485165e-001 -2.157476e-001 8.393011e-001 2.000060e-001 -1.433942e-001 4.020837e-001 5.091053e-001 4.757103e-002 2.799343e-001 7.259013e-002 2.614889e-001 4.978669e-001 8.586626e-002 5.368424e-002 2.057722e-001 1.044649e-001 -1.738404e-001 2.264792e-001 1.131428e-001 6.419411e-002 2.513556e-002 1.120512e-001 2.859879e-002
<VARIANCE> 39
 1.648391e+001 1.913917e+001 1.605006e+001 3.198743e+001 3.622980e+001 3.617253e+001 2.348644e+001 2.584900e+001 2.754153e+001 1.880656e+001 1.814772e+001 1.660523e+001 2.739213e+000 8.076057e-001 1.984664e+000 1.152141e+000 1.017737e+000 1.975949e+000 1.681838e+000 1.300107e+000 1.207216e+000 1.209259e+000 1.014279e+000 9.973999e-001 8.132054e-001 1.800506e-001 1.387281e-001 2.741015e-001 2.272959e-001 1.979356e-001 4.293125e-001 2.941495e-001 2.251802e-001 2.167596e-001 2.234114e-001 2.065356e-001 1.616201e-001 1.605863e-001 5.275612e-002
<GCONST> 8.965866e+001
<MIXTURE> 2 5.000000e-001
<MEAN> 39
 -1.514208e+001 -7.109121e+000 -2.406931e+000 -1.483696e+001 -9.067304e+000 -8.745686e+000 -3.012742e+000 -7.669856e+000 -1.477094e+000 -4.273232e+000 -2.063790e+000 -6.645253e+000 1.336975e+001 -1.359633e+000 -2.921014e-001 -7.798493e-001 -1.550153e-001 -7.780214e-001 3.205583e-001 -2.560830e-001 -5.828878e-001 -3.778154e-002 1.062597e-001 -3.519086e-001 -8.077730e-002 -9.713935e-002 1.125041e-001 2.884481e-001 -1.048360e-001 -1.242756e-001 -5.631555e-002 -1.124773e-001 -3.636530e-001 4.024941e-002 -7.592288e-002 -1.175906e-001 -1.356725e-001 -4.824173e-002 -6.327601e-002
<VARIANCE> 39
 1.648391e+001 1.913917e+001 1.605006e+001 3.198743e+001 3.622980e+001 3.617253e+001 2.348644e+001 2.584900e+001 2.754153e+001 1.880656e+001 1.814772e+001 1.660523e+001 2.739213e+000 8.076057e-001 1.984664e+000 1.152141e+000 1.017737e+000 1.975949e+000 1.681838e+000 1.300107e+000 1.207216e+000 1.209259e+000 1.014279e+000 9.973999e-001 8.132054e-001 1.800506e-001 1.387281e-001 2.741015e-001 2.272959e-001 1.979356e-001 4.293125e-001 2.941495e-001 2.251802e-001 2.167596e-001 2.234114e-001 2.065356e-001 1.616201e-001 1.605863e-001 5.275612e-002
<GCONST> 8.965866e+001
<STATE> 8
<NUMMIXES> 2
<MIXTURE> 1 5.000000e-001
<MEAN> 39
 -1.499044e+001 -3.454699e+000 -3.919577e+000 -8.839683e+000 -5.203580e+000 -4.113602e+000 -2.593066e+000 -4.863351e+000 1.482871e+000 -2.660920e+000 -4.541742e-001 -4.167474e+000 1.229201e+001 4.326818e-001 2.619735e-001 -4.109836e-002 3.087895e-001 5.475123e-001 -1.775706e-002 1.161294e-001 3.354672e-001 2.510350e-002 1.471231e-001 1.743879e-001 1.149010e-001 -9.765825e-002 2.111042e-001 2.623327e-002 1.505611e-001 4.286942e-002 8.775622e-002 -7.072016e-003 1.380035e-001 9.739910e-002 2.189549e-002 6.745540e-002 1.086971e-001 5.946220e-002 2.976328e-002
<VARIANCE> 39
 2.063894e+001 1.717538e+001 1.676627e+001 3.350580e+001 3.118704e+001 2.966126e+001 2.394785e+001 2.456296e+001 3.017420e+001 3.106082e+001 2.419537e+001 1.945864e+001 6.607501e+000 8.095689e-001 7.807070e-001 8.835157e-001 9.065334e-001 1.219812e+000 9.894265e-001 1.174801e+000 1.039896e+000 1.076843e+000 1.073989e+000 1.059745e+000 7.198865e-001 6.632648e-002 1.197504e-001 1.289915e-001 1.113214e-001 1.410877e-001 2.263149e-001 2.035435e-001 2.201979e-001 1.774524e-001 1.763834e-001 1.854916e-001 1.860531e-001 1.281439e-001 1.131250e-002
<GCONST> 8.255856e+001
<MIXTURE> 2 5.000000e-001
<MEAN> 39
 -1.680764e+001 -5.112427e+000 -5.557443e+000 -1.115505e+001 -7.437394e+000 -6.292088e+000 -4.550528e+000 -6.845792e+000 -7.143710e-001 -4.890210e+000 -2.421726e+000 -5.931952e+000 1.126381e+001 7.277762e-002 -9.145697e-002 -4.170804e-001 -7.205870e-002 1.057319e-001 -4.156367e-001 -3.174236e-001 -7.243398e-002 -3.899807e-001 -2.674106e-001 -2.373878e-001 -2.244835e-001 -2.006740e-001 7.268436e-002 -1.174283e-001 1.710162e-002 -1.073771e-001 -1.025340e-001 -1.875352e-001 -4.969750e-002 -7.110130e-002 -1.460966e-001 -1.048195e-001 -6.383839e-002 -8.372658e-002 -1.278082e-002
<VARIANCE> 39
 2.063894e+001 1.717538e+001 1.676627e+001 3.350580e+001 3.118704e+001 2.966126e+001 2.394785e+001 2.456296e+001 3.017420e+001 3.106082e+001 2.419537e+001 1.945864e+001 6.607501e+000 8.095689e-001 7.807070e-001 8.835157e-001 9.065334e-001 1.219812e+000 9.894265e-001 1.174801e+000 1.039896e+000 1.076843e+000 1.073989e+000 1.059745e+000 7.198865e-001 6.632648e-002 1.197504e-001 1.289915e-001 1.113214e-001 1.410877e-001 2.263149e-001 2.035435e-001 2.201979e-001 1.774524e-001 1.763834e-001 1.854916e-001 1.860531e-001 1.281439e-001 1.131250e-002
<GCONST> 8.255856e+001
<STATE> 9
<NUMMIXES> 2
<MIXTURE> 1 5.000000e-001
<MEAN> 39
 -1.250384e+001 -3.614131e+000 -3.879297e+000 -1.541833e+001 -4.642458e+000 -9.637371e+000 -3.485724e+000 -4.650641e+000 1.306607e-001 -2.942010e+000 -6.034939e-001 -5.442575e+000 1.468868e+001 1.196267e-001 9.275834e-002 3.853173e-002 1.956238e-001 2.303845e-001 -8.845321e-002 -1.733089e-002 8.692129e-002 -1.159926e-001 2.020762e-001 2.524434e-001 1.568618e-001 -5.416222e-003 9.105748e-002 1.027961e-001 1.437984e-001 1.073812e-001 7.750936e-002 1.426942e-001 8.994774e-002 7.545972e-002 9.230834e-002 5.326676e-002 9.117432e-002 6.343586e-002 3.794823e-002
<VARIANCE> 39
 9.826757e+000 1.165030e+001 9.069215e+000 3.048372e+001 1.916238e+001 2.532651e+001 2.244706e+001 1.820369e+001 2.102772e+001 2.301598e+001 1.953393e+001 1.574408e+001 5.874815e+000 3.040920e-001 5.531228e-001 4.239080e-001 9.113984e-001 8.243479e-001 1.056382e+000 9.860888e-001 8.948099e-001 9.354987e-001 9.614085e-001 7.628390e-001 5.894020e-001 4.645141e-002 5.455805e-002 8.429863e-002 7.242158e-002 1.788273e-001 1.441125e-001 1.908912e-001 1.637171e-001 1.609616e-001 1.583571e-001 1.635140e-001 1.469019e-001 9.800515e-002 7.030773e-003
<GCONST> 7.113699e+001
<MIXTURE> 2 5.000000e-001
<MEAN> 39
 -1.375774e+001 -4.979433e+000 -5.083902e+000 -1.762681e+001 -6.393453e+000 -1.165039e+001 -5.380857e+000 -6.357273e+000 -1.703579e+000 -4.861009e+000 -2.371382e+000 -7.029727e+000 1.371916e+001 -1.009515e-001 -2.047306e-001 -2.219011e-001 -1.862450e-001 -1.327899e-001 -4.995750e-001 -4.145389e-001 -2.914563e-001 -5.028774e-001 -1.901295e-001 -9.691922e-002 -1.502283e-001 -9.162658e-002 -2.373180e-003 -1.334085e-002 3.615341e-002 -6.177069e-002 -7.433925e-002 -3.207018e-002 -7.190015e-002 -8.502036e-002 -6.686810e-002 -1.084807e-001 -6.213682e-002 -6.178724e-002 4.408349e-003
<VARIANCE> 39
 9.826757e+000 1.165030e+001 9.069215e+000 3.048372e+001 1.916238e+001 2.532651e+001 2.244706e+001 1.820369e+001 2.102772e+001 2.301598e+001 1.953393e+001 1.574408e+001 5.874815e+000 3.040920e-001 5.531228e-001 4.239080e-001 9.113984e-001 8.243479e-001 1.056382e+000 9.860888e-001 8.948099e-001 9.354987e-001 9.614085e-001 7.628390e-001 5.894020e-001 4.645141e-002 5.455805e-002 8.429863e-002 7.242158e-002 1.788273e-001 1.441125e-001 1.908912e-001 1.637171e-001 1.609616e-001 1.583571e-001 1.635140e-001 1.469019e-001 9.800515e-002 7.030773e-003
<GCONST> 7.113699e+001
<TRANSP> 10
 0.000000e+000 1.000000e+000 0.000000e+000 0.000000e+000 0.000000e+000 0.000000e+000 0.000000e+000 0.000000e+000 0.000000e+000 0.000000e+000
 0.000000e+000 7.373699e-001 2.626301e-001 0.000000e+000 0.000000e+000 0.000000e+000 0.000000e+000 0.000000e+000 0.000000e+000 0.000000e+000
 0.000000e+000 0.000000e+000 6.452227e-001 3.547773e-001 0.000000e+000 0.000000e+000 0.000000e+000 0.000000e+000 0.000000e+000 0.000000e+000
 0.000000e+000 0.000000e+000 0.000000e+000 8.429587e-001 1.570413e-001 0.000000e+000 0.000000e+000 0.000000e+000 0.000000e+000 0.000000e+000
 0.000000e+000 0.000000e+000 0.000000e+000 0.000000e+000 6.946980e-001 3.053020e-001 0.000000e+000 0.000000e+000 0.000000e+000 0.000000e+000
 0.000000e+000 0.000000e+000 0.000000e+000 0.000000e+000 0.000000e+000 6.665362e-001 3.334638e-001 0.000000e+000 0.000000e+000 0.000000e+000
 0.000000e+000 0.000000e+000 0.000000e+000 0.000000e+000 0.000000e+000 0.000000e+000 6.431185e-001 3.568815e-001 0.000000e+000 0.000000e+000
 0.000000e+000 0.000000e+000 0.000000e+000 0.000000e+000 0.000000e+000 0.000000e+000 0.000000e+000 7.713988e-001 2.286012e-001 0.000000e+000
 0.000000e+000 0.000000e+000 0.000000e+000 0.000000e+000 0.000000e+000 0.000000e+000 0.000000e+000 0.000000e+000 6.925014e-001 3.074986e-001
 0.000000e+000 0.000000e+000 0.000000e+000 0.000000e+000 0.000000e+000 0.000000e+000 0.000000e+000 0.000000e+000 0.000000e+000 0.000000e+000
<ENDHMM>
~h "three"
<BEGINHMM>
<NUMSTATES> 10
<STATE> 2
<NUMMIXES> 2
<MIXTURE> 1 5.000000e-001
<MEAN> 39
 -1.215879e+001 -3.073518e+000 -3.178184e+000 -1.279887e+001 -2.953511e+000 -9.354078e+000 -2.774246e+000 -4.895390e+000 3.950042e-001 -2.730175e+000 2.244260e-001 -4.142028e+000 1.408682e+001 1.015311e+000 5.758972e-001 1.072537e+000 4.460059e-001 3.595611e-002 2.595533e-001 5.418028e-001 2.399773e-001 4.135355e-002 1.628355e-001 1.202851e-001 -2.075120e-001 6.417554e-001 4.557831e-001 1.152418e-001 3.994938e-001 2.336641e-001 -1.721438e-001 -3.601361e-002 1.407429e-001 1.258174e-001 -1.447331e-002 -1.378937e-002 4.603110e-002 -5.168274e-002 1.337042e-001
<VARIANCE> 39
 1.000089e+001 1.055051e+001 1.183082e+001 2.472229e+001 1.868122e+001 2.193383e+001 2.105091e+001 2.394716e+001 1.963320e+001 2.432150e+001 1.944675e+001 1.630702e+001 7.346076e+000 8.839705e-001 6.624303e-001 9.619059e-001 1.101928e+000 1.174576e+000 1.248723e+000 9.256349e-001 1.195099e+000 1.044322e+000 1.225561e+000 1.441030e+000 1.038685e+000 3.246925e-001 1.269466e-001 1.568942e-001 1.664568e-001 1.926350e-001 2.497823e-001 2.654253e-001 2.149210e-001 2.188573e-001 1.947721e-001 2.478956e-001 2.747195e-001 2.229708e-001 3.416044e-002
<GCONST> 8.538043e+001
<MIXTURE> 2 5.000000e-001
<MEAN> 39
 -1.342375e+001 -4.372780e+000 -4.554022e+000 -1.478773e+001 -4.682383e+000 -1.122742e+001 -4.609497e+000 -6.852824e+000 -1.377370e+000 -4.702848e+000 -1.539513e+000 -5.757306e+000 1.300268e+001 6.392319e-001 2.503380e-001 6.802300e-001 2.611488e-002 -3.975553e-001 -1.874318e-001 1.569632e-001 -1.973051e-001 -3.674147e-001 -2.799847e-001 -3.598865e-001 -6.151756e-001 4.138282e-001 3.132648e-001 -4.319768e-002 2.362974e-001 5.810329e-002 -3.720568e-001 -2.420914e-001 -4.469543e-002 -6.131131e-002 -1.910053e-001 -2.129458e-001 -1.636237e-001 -2.405619e-001 5.977400e-002
<VARIANCE> 39
 1.000089e+001 1.055051e+001 1.183082e+001 2.472229e+001 1.868122e+001 2.193383e+001 2.105091e+001 2.394716e+001 1.963320e+001 2.432150e+001 1.944675e+001 1.630702e+001 7.346076e+000 8.839705e-001 6.624303e-001 9.619059e-001 1.101928e+000 1.174576e+000 1.248723e+000 9.256349e-001 1.195099e+000 1.044322e+000 1.225561e+000 1.441030e+000 1.038685e+000 3.246925e-001 1.269466e-001 1.568942e-001 1.664568e-001 1.926350e-001 2.497823e-001 2.654253e-001 2.149210e-001 2.188573e-001 1.947721e-001 2.478956e-001 2.747195e-001 2.229708e-001 3.416044e-002
<GCONST> 8.538043e+001
<STATE> 3
<NUMMIXES> 2
<MIXTURE> 1 5.000000e-001
<MEAN> 39
 -5.250448e+000 -1.432012e+000 2.836584e+000 -1.082397e+001 -5.205630e+000 -1.109666e+001 -1.588177e+000 -3.760491e+000 -1.326855e+000 -4.175518e+000 -2.267886e-001 -6.646523e+000 1.665471e+001 1.801607e+000 -4.209825e-001 1.017756e+000 1.146398e+000 -1.140489e+000 -7.081940e-001 4.744180e-001 3.595806e-001 6.157994e-002 6.174896e-003 2.140404e-001 1.339685e-004 5.900890e-001 2.295724e-004 -2.385822e-001 -1.458165e-001 1.047545e-001 -1.253462e-001 8.068234e-002 6.371848e-002 -1.953375e-002 2.064716e-001 1.673169e-001 8.050423e-002 2.134761e-001 -5.298908e-003
<VARIANCE> 39
 1.919492e+001 1.356758e+001 1.956668e+001 2.259218e+001 3.577192e+001 4.175583e+001 2.478248e+001 2.986680e+001 2.521188e+001 2.867761e+001 4.035765e+001 3.240060e+001 2.990931e+000 1.056267e+000 1.194057e+000 1.355624e+000 1.563509e+000 2.120335e+000 2.182164e+000 1.160915e+000 1.697254e+000 1.344042e+000 1.510720e+000 2.102285e+000 2.038908e+000 1.106712e-001 1.592775e-001 1.469506e-001 1.865316e-001 3.111904e-001 3.339028e-001 3.483513e-001 2.169934e-001 2.854933e-001 2.112208e-001 2.393144e-001 2.975388e-001 2.151799e-001 1.959159e-002
<GCONST> 9.405762e+001
<MIXTURE> 2 5.000000e-001
<MEAN> 39
 -7.002928e+000 -2.905380e+000 1.067214e+000 -1.272521e+001 -7.598016e+000 -1.368141e+001 -3.579457e+000 -5.946512e+000 -3.335313e+000 -6.317577e+000 -2.767895e+000 -8.923384e+000 1.596293e+001 1.390507e+000 -8.580741e-001 5.520307e-001 6.462366e-001 -1.722943e+000 -1.299080e+000 4.343498e-002 -1.615342e-001 -4.021513e-001 -4.854705e-001 -3.659299e-001 -5.710274e-001 4.570198e-001 -1.594088e-001 -3.919187e-001 -3.185737e-001 -1.183833e-001 -3.564835e-001 -1.554028e-001 -1.226117e-001 -2.332601e-001 2.263657e-002 -2.836219e-002 -1.376842e-001 2.792612e-002 -6.128689e-002
<VARIANCE> 39
 1.919492e+001 1.356758e+001 1.956668e+001 2.259218e+001 3.577192e+001 4.175583e+001 2.478248e+001 2.986680e+001 2.521188e+001 2.867761e+001 4.035765e+001 3.240060e+001 2.990931e+000 1.056267e+000 1.194057e+000 1.355624e+000 1.563509e+000 2.120335e+000 2.182164e+000 1.160915e+000 1.697254e+000 1.344042e+000 1.510720e+000 2.102285e+000 2.038908e+000 1.106712e-001 1.592775e-001 1.469506e-001 1.865316e-001 3.111904e-001 3.339028e-001 3.483513e-001 2.169934e-001 2.854933e-001 2.112208e-001 2.393144e-001 2.975388e-001 2.151799e-001 1.959159e-002
<GCONST> 9.405762e+001
<STATE> 4
<NUMMIXES> 2
<MIXTURE> 1 5.000000e-001
<MEAN> 39
 -7.732826e-002 -7.765285e+000 2.867815e+000 -5.707460e+000 -1.385593e+001 -1.536339e+001 5.182803e-001 -4.933426e+000 -1.105719e+000 -3.342523e+000 -1.520763e-001 -5.327155e+000 1.836398e+001 3.408036e-001 -2.203801e-001 8.911916e-001 -3.057059e-001 -1.505427e+000 1.308069e+000 3.901636e-001 -5.527782e-001 6.251385e-001 4.955965e-001 -2.434111e-002 1.697850e-001 3.662847e-001 -3.912676e-001 5.459379e-001 2.072619e-001 -5.810336e-001 5.135297e-001 7.688131e-001 -2.552792e-001 8.205135e-002 2.706101e-001 5.446450e-002 1.026632e-001 7.056071e-002 -6.499870e-002
<VARIANCE> 39
 2.026295e+001 2.199470e+001 1.727914e+001 4.307095e+001 4.174687e+001 5.414843e+001 2.295889e+001 3.297322e+001 2.530401e+001 2.432313e+001 3.156129e+001 4.411095e+001 1.295002e+000 9.541413e-001 1.163652e+000 1.051044e+000 2.668103e+000 1.643120e+000 2.867114e+000 1.638990e+000 1.501464e+000 1.096281e+000 1.075226e+000 1.002870e+000 1.157437e+000 6.186125e-002 1.137266e-001 1.126962e-001 1.730470e-001 2.274495e-001 3.648691e-001 2.999168e-001 2.978522e-001 2.444864e-001 1.927513e-001 1.987625e-001 1.818472e-001 2.130104e-001 5.526222e-003
<GCONST> 8.964280e+001
<MIXTURE> 2 5.000000e-001
<MEAN> 39
 -1.877904e+000 -9.641225e+000 1.205087e+000 -8.332599e+000 -1.644041e+001 -1.830681e+001 -1.398337e+000 -7.230318e+000 -3.117843e+000 -5.315262e+000 -2.399254e+000 -7.983798e+000 1.790878e+001 -4.991701e-002 -6.518709e-001 4.811099e-001 -9.590791e-001 -2.018164e+000 6.307668e-001 -1.219286e-001 -1.042915e+000 2.063247e-001 8.082410e-002 -4.249147e-001 -2.605520e-001 2.667971e-001 -5.261611e-001 4.116569e-001 4.086626e-002 -7.718003e-001 2.719121e-001 5.497545e-001 -4.735826e-001 -1.157309e-001 9.499630e-002 -1.238667e-001 -6.791095e-002 -1.140515e-001 -9.473413e-002
<VARIANCE> 39
 2.026295e+001 2.199470e+001 1.727914e+001 4.307095e+001 4.174687e+001 5.414843e+001 2.295889e+001 3.297322e+001 2.530401e+001 2.432313e+001 3.156129e+001 4.411095e+001 1.295002e+000 9.541413e-001 1.163652e+000 1.051044e+000 2.668103e+000 1.643120e+000 2.867114e+000 1.638990e+000 1.501464e+000 1.096281e+000 1.075226e+000 1.002870e+000 1.157437e+000 6.186125e-002 1.137266e-001 1.126962e-001 1.730470e-001 2.274495e-001 3.648691e-001 2.999168e-001 2.978522e-001 2.444864e-001 1.927513e-001 1.987625e-001 1.818472e-001 2.130104e-001 5.526222e-003
<GCONST> 8.964280e+001
<STATE> 5
<NUMMIXES> 2
<MIXTURE> 1 5.000000e-001
<MEAN> 39
 -3.631596e+000 -4.758289e+000 7.432551e+000 -1.499169e+001 -1.702183e+001 -4.825637e+000 -2.859297e+000 -8.673535e+000 2.831787e+000 -3.064685e+000 -1.082446e+000 -6.532078e+000 1.889032e+001 -8.051555e-001 1.866608e+000 5.832013e-001 -2.165322e+000 1.451369e+000 1.754658e+000 -1.775267e+000 5.859121e-001 7.643004e-001 -2.810923e-001 1.086024e-001 1.830766e-001 6.039667e-002 -2.374033e-002 4.501783e-001 -3.390122e-001 2.597638e-001 9.204164e-001 -5.832951e-001 -1.464207e-002 5.240916e-001 -2.439803e-001 -2.167644e-002 1.359955e-001 1.665377e-001 -5.555535e-002
<VARIANCE> 39
 1.059575e+001 2.821878e+001 1.428922e+001 2.980769e+001 4.303643e+001 4.525227e+001 4.079115e+001 3.559955e+001 2.383886e+001 2.848916e+001 4.288581e+001 3.549352e+001 1.226357e+000 4.459931e-001 1.000064e+000 6.325686e-001 1.259259e+000 1.780351e+000 1.958900e+000 1.356952e+000 1.391231e+000 9.681644e-001 8.192799e-001 7.833821e-001 8.368371e-001 1.693613e-002 6.365541e-002 9.814529e-002 9.331871e-002 2.231841e-001 2.036433e-001 2.478905e-001 2.752399e-001 1.517555e-001 1.695272e-001 1.744063e-001 1.485330e-001 1.434385e-001 3.047598e-003
<GCONST> 8.018521e+001
<MIXTURE> 2 5.000000e-001
<MEAN> 39
 -4.933640e+000 -6.883143e+000 5.920508e+000 -1.717555e+001 -1.964591e+001 -7.516429e+000 -5.414015e+000 -1.106015e+001 8.787849e-001 -5.199695e+000 -3.701936e+000 -8.915135e+000 1.844736e+001 -1.072286e+000 1.466596e+000 2.650645e-001 -2.614188e+000 9.176494e-001 1.194816e+000 -2.241220e+000 1.141103e-001 3.707190e-001 -6.431486e-001 -2.454331e-001 -1.828386e-001 8.341113e-003 -1.246604e-001 3.248657e-001 -4.612046e-001 7.079438e-002 7.399090e-001 -7.824495e-001 -2.244953e-001 3.682684e-001 -4.086751e-001 -1.887244e-001 -1.816443e-002 1.504464e-002 -7.763737e-002
<VARIANCE> 39
 1.059575e+001 2.821878e+001 1.428922e+001 2.980769e+001 4.303643e+001 4.525227e+001 4.079115e+001 3.559955e+001 2.383886e+001 2.848916e+001 4.288581e+001 3.549352e+001 1.226357e+000 4.459931e-001 1.000064e+000 6.325686e-001 1.259259e+000 1.780351e+000 1.958900e+000 1.356952e+000 1.391231e+000 9.681644e-001 8.192799e-001 7.833821e-001 8.368371e-001 1.693613e-002 6.365541e-002 9.814529e-002 9.331871e-002 2.231841e-001 2.036433e-001 2.478905e-001 2.752399e-001 1.517555e-001 1.695272e-001 1.744063e-001 1.485330e-001 1.434385e-001 3.047598e-003
<GCONST> 8.018521e+001
<STATE> 6
<NUMMIXES> 2
<MIXTURE> 1 5.000000e-001
<MEAN> 39
 -6.890224e+000 2.791295e+000 5.187863e+000 -2.174639e+001 -7.007205e+000 -6.529036e+000 -8.473174e+000 -2.553495e+000 1.140608e+000 -4.733385e+000 -5.744771e-001 -5.856089e+000 1.870812e+001 -4.277227e-001 2.086889e+000 -7.396331e-001 -1.532930e-001 2.281414e+000 -1.188801e+000 -1.347021e-001 8.446812e-001 -4.723279e-001 1.345389e-001 2.316211e-001 2.986706e-001 -7.108738e-002 2.004856e-001 -1.069597e-001 -9.713479e-002 6.820105e-001 -1.385299e-001 -2.528412e-001 6.277629e-001 -2.198836e-001 -1.786887e-002 2.019452e-001 4.784324e-002 3.316520e-002 -2.621692e-002
<VARIANCE> 39
 7.171707e+000 2.682648e+001 1.487742e+001 1.789296e+001 3.363194e+001 3.080761e+001 5.020193e+001 3.924659e+001 2.961406e+001 2.850887e+001 3.845735e+001 3.949350e+001 1.266047e+000 2.509055e-001 7.676521e-001 5.001413e-001 1.121390e+000 1.180448e+000 1.564769e+000 1.546894e+000 1.038259e+000 1.057454e+000 8.947714e-001 7.691629e-001 7.090148e-001 1.334480e-002 3.350353e-002 8.530570e-002 7.805795e-002 1.270857e-001 1.632141e-001 2.248714e-001 2.082441e-001 1.694151e-001 1.609103e-001 1.320424e-001 1.266328e-001 1.133277e-001 1.134311e-003
<GCONST> 7.323656e+001
<MIXTURE> 2 5.000000e-001
<MEAN> 39
 -7.961426e+000 7.195233e-001 3.645013e+000 -2.343839e+001 -9.326927e+000 -8.749220e+000 -1.130731e+001 -5.059379e+000 -1.036144e+000 -6.869133e+000 -3.055037e+000 -8.369843e+000 1.825804e+001 -6.280846e-001 1.736426e+000 -1.022516e+000 -5.768758e-001 1.846820e+000 -1.689163e+000 -6.321989e-001 4.371012e-001 -8.836583e-001 -2.438305e-001 -1.191866e-001 -3.814143e-002 -1.172953e-001 1.272698e-001 -2.237883e-001 -2.088902e-001 5.394141e-001 -3.001289e-001 -4.425236e-001 4.452279e-001 -3.845238e-001 -1.783234e-001 5.659462e-002 -9.449876e-002 -1.014915e-001 -3.968874e-002
<VARIANCE> 39
 7.171707e+000 2.682648e+001 1.487742e+001 1.789296e+001 3.363194e+001 3.080761e+001 5.020193e+001 3.924659e+001 2.961406e+001 2.850887e+001 3.845735e+001 3.949350e+001 1.266047e+000 2.509055e-001 7.676521e-001 5.001413e-001 1.121390e+000 1.180448e+000 1.564769e+000 1.546894e+000 1.038259e+000 1.057454e+000 8.947714e-001 7.691629e-001 7.090148e-001 1.334480e-002 3.350353e-002 8.530570e-002 7.805795e-002 1.270857e-001 1.632141e-001 2.248714e-001 2.082441e-001 1.694151e-001 1.609103e-001 1.320424e-001 1.266328e-001 1.133277e-001 1.134311e-003
<GCONST> 7.323656e+001
<STATE> 7
<NUMMIXES> 2
<MIXTURE> 1 5.000000e-001
<MEAN> 39
 -7.448743e+000 8.344728e+000 7.603166e-001 -1.709107e+001 -2.976066e+000 -1.470543e+001 -4.895962e+000 -5.843316e+000 -3.288292e-001 -4.361610e+000 -1.449724e+000 -6.861214e+000 1.805225e+001 9.522239e-002 5.393589e-001 -7.843509e-002 8.983100e-001 5.926816e-001 -1.894619e-001 3.582419e-001 -2.618816e-001 -4.579107e-002 9.611458e-002 8.122495e-002 1.603444e-001 -1.311115e-001 7.061124e-002 -2.191333e-001 1.779417e-001 8.065578e-002 -2.998579e-002 3.388900e-001 8.397467e-002 1.122057e-001 1.530033e-001 9.096721e-002 9.023964e-002 8.995833e-002 -1.907724e-002
<VARIANCE> 39
 8.613129e+000 2.350660e+001 1.552285e+001 1.911880e+001 1.697801e+001 2.267734e+001 3.871912e+001 3.214690e+001 3.502135e+001 4.041710e+001 5.300072e+001 5.071745e+001 1.404300e+000 1.432581e-001 7.219905e-001 5.240631e-001 6.620215e-001 7.603332e-001 1.099931e+000 8.305452e-001 1.004947e+000 7.841504e-001 9.222966e-001 7.691446e-001 7.976761e-001 1.433315e-002 2.360431e-002 6.727766e-002 6.953360e-002 1.082095e-001 1.245928e-001 1.353346e-001 1.375294e-001 1.312398e-001 1.332398e-001 1.401967e-001 1.254644e-001 1.246287e-001 2.120556e-003
<GCONST> 6.878055e+001
<MIXTURE> 2 5.000000e-001
<MEAN> 39
 -8.622668e+000 6.405384e+000 -8.156453e-001 -1.884007e+001 -4.624242e+000 -1.661025e+001 -7.384950e+000 -8.111245e+000 -2.695983e+000 -6.904588e+000 -4.361788e+000 -9.709862e+000 1.757823e+001 -5.617541e-002 1.994788e-001 -3.680039e-001 5.728512e-001 2.438933e-001 -6.089723e-001 -6.295103e-003 -6.628698e-001 -4.000002e-001 -2.880305e-001 -2.695786e-001 -1.969065e-001 -1.789999e-001 9.156460e-003 -3.228851e-001 7.246485e-002 -5.092506e-002 -1.711766e-001 1.917386e-001 -6.436516e-002 -3.270248e-002 6.995197e-003 -5.880419e-002 -5.144418e-002 -5.125283e-002 -3.749704e-002
<VARIANCE> 39
 8.613129e+000 2.350660e+001 1.552285e+001 1.911880e+001 1.697801e+001 2.267734e+001 3.871912e+001 3.214690e+001 3.502135e+001 4.041710e+001 5.300072e+001 5.071745e+001 1.404300e+000 1.432581e-001 7.219905e-001 5.240631e-001 6.620215e-001 7.603332e-001 1.099931e+000 8.305452e-001 1.004947e+000 7.841504e-001 9.222966e-001 7.691446e-001 7.976761e-001 1.433315e-002 2.360431e-002 6.727766e-002 6.953360e-002 1.082095e-001 1.245928e-001 1.353346e-001 1.375294e-001 1.312398e-001 1.332398e-001 1.401967e-001 1.254644e-001 1.246287e-001 2.120556e-003
<GCONST> 6.878055e+001
<STATE> 8
<NUMMIXES> 2
<MIXTURE> 1 5.000000e-001
<MEAN> 39
 -5.816793e+000 9.289538e+000 2.934716e+000 -1.235171e+001 6.493637e-001 -1.214863e+001 -5.775136e+000 -6.821341e+000 -2.092333e+000 -4.574840e+000 -1.982685e+000 -6.234534e+000 1.644924e+001 -1.705792e-001 -9.984274e-001 -1.193754e-002 1.145117e+000 8.262015e-001 9.512325e-001 1.095465e+000 6.479239e-001 4.795372e-001 6.739851e-001 6.588292e-001 5.700797e-001 -4.985665e-001 -1.507832e-001 -3.041215e-001 -8.711174e-002 -4.405158e-002 -1.162061e-001 2.461431e-001 1.998721e-001 2.297662e-001 2.260757e-001 1.619270e-001 1.966323e-001 1.345712e-001 -4.245855e-002
<VARIANCE> 39
 1.163968e+001 3.222630e+001 2.626619e+001 3.520856e+001 4.812223e+001 4.071237e+001 4.327238e+001 3.768472e+001 4.463829e+001 5.248158e+001 4.474175e+001 4.573449e+001 3.919143e+000 6.938138e-001 1.401271e+000 1.073163e+000 1.922587e+000 2.334750e+000 1.498635e+000 2.099893e+000 1.742200e+000 1.685549e+000 2.017335e+000 2.021369e+000 1.750111e+000 1.000832e-001 6.436517e-002 1.557343e-001 1.781387e-001 2.727013e-001 2.711642e-001 2.360334e-001 2.481513e-001 2.431673e-001 2.036036e-001 3.027502e-001 2.124890e-001 1.875511e-001 9.826067e-003
<GCONST> 9.577528e+001
<MIXTURE> 2 5.000000e-001
<MEAN> 39
 -7.181473e+000 7.018810e+000 8.846940e-001 -1.472519e+001 -2.125444e+000 -1.470088e+001 -8.406406e+000 -9.276855e+000 -4.764809e+000 -7.472607e+000 -4.658256e+000 -8.939626e+000 1.565736e+001 -5.037612e-001 -1.471929e+000 -4.263119e-001 5.904876e-001 2.150059e-001 4.615575e-001 5.158252e-001 1.199542e-001 -3.977758e-002 1.058535e-001 9.012970e-002 4.091267e-002 -6.251102e-001 -2.522644e-001 -4.619743e-001 -2.559377e-001 -2.529348e-001 -3.244999e-001 5.181006e-002 6.129286e-004 3.251821e-002 4.558589e-002 -5.816394e-002 1.224614e-002 -3.865752e-002 -8.210916e-002
<VARIANCE> 39
 1.163968e+001 3.222630e+001 2.626619e+001 3.520856e+001 4.812223e+001 4.071237e+001 4.327238e+001 3.768472e+001 4.463829e+001 5.248158e+001 4.474175e+001 4.573449e+001 3.919143e+000 6.938138e-001 1.401271e+000 1.073163e+000 1.922587e+000 2.334750e+000 1.498635e+000 2.099893e+000 1.742200e+000 1.685549e+000 2.017335e+000 2.021369e+000 1.750111e+000 1.000832e-001 6.436517e-002 1.557343e-001 1.781387e-001 2.727013e-001 2.711642e-001 2.360334e-001 2.481513e-001 2.431673e-001 2.036036e-001 3.027502e-001 2.124890e-001 1.875511e-001 9.826067e-003
<GCONST> 9.577528e+001
<STATE> 9
<NUMMIXES> 2
<MIXTURE> 1 5.000000e-001
<MEAN> 39
 -9.966849e+000 -3.545406e-001 -9.626081e-001 -1.123439e+001 -2.648210e-001 -8.401386e+000 -2.453387e+000 -3.980667e+000 5.580323e-001 -2.514169e+000 3.364137e-001 -4.681829e+000 1.378060e+001 -4.290679e-001 -1.119208e+000 -6.390666e-001 -1.033753e-001 -2.565427e-001 5.224834e-001 4.332647e-001 4.280946e-001 3.947545e-001 3.614844e-001 4.504412e-001 3.687402e-001 -2.921684e-001 2.060692e-001 3.748585e-001 1.704036e-001 -1.158164e-002 1.242474e-002 -1.219688e-001 -1.293491e-001 -8.173645e-002 -7.971869e-002 -1.944153e-002 2.112923e-003 2.333743e-002 1.411468e-001
<VARIANCE> 39
 1.529203e+001 1.911383e+001 2.174380e+001 3.029276e+001 2.537837e+001 2.866954e+001 2.842865e+001 2.290634e+001 3.071283e+001 2.364728e+001 2.140988e+001 2.089858e+001 7.516185e+000 5.321590e-001 1.005858e+000 1.052543e+000 1.046819e+000 1.186157e+000 1.389399e+000 1.496978e+000 1.296430e+000 1.314972e+000 1.706227e+000 1.558758e+000 1.173021e+000 9.915508e-002 6.480010e-002 1.346225e-001 1.578707e-001 1.699237e-001 1.894168e-001 1.870889e-001 2.475147e-001 1.786848e-001 1.933665e-001 2.223489e-001 1.998954e-001 1.754318e-001 1.154393e-002
<GCONST> 8.558015e+001
<MIXTURE> 2 5.000000e-001
<MEAN> 39
 -1.153105e+001 -2.103315e+000 -2.827818e+000 -1.343595e+001 -2.279899e+000 -1.054314e+001 -4.586127e+000 -5.895090e+000 -1.658734e+000 -4.459308e+000 -1.514419e+000 -6.510428e+000 1.268398e+001 -7.208648e-001 -1.520378e+000 -1.049441e+000 -5.126320e-001 -6.921860e-001 5.099234e-002 -5.613951e-002 -2.734896e-002 -6.393446e-002 -1.610060e-001 -4.895977e-002 -6.448419e-002 -4.181240e-001 1.042458e-001 2.280947e-001 1.147181e-002 -1.764688e-001 -1.616634e-001 -2.949840e-001 -3.283525e-001 -2.508210e-001 -2.556125e-001 -2.080571e-001 -1.767257e-001 -1.442009e-001 9.816977e-002
<VARIANCE> 39
 1.529203e+001 1.911383e+001 2.174380e+001 3.029276e+001 2.537837e+001 2.866954e+001 2.842865e+001 2.290634e+001 3.071283e+001 2.364728e+001 2.140988e+001 2.089858e+001 7.516185e+000 5.321590e-001 1.005858e+000 1.052543e+000 1.046819e+000 1.186157e+000 1.389399e+000 1.496978e+000 1.296430e+000 1.314972e+000 1.706227e+000 1.558758e+000 1.173021e+000 9.915508e-002 6.480010e-002 1.346225e-001 1.578707e-001 1.699237e-001 1.894168e-001 1.870889e-001 2.475147e-001 1.786848e-001 1.933665e-001 2.223489e-001 1.998954e-001 1.754318e-001 1.154393e-002
<GCONST> 8.558015e+001
<TRANSP> 10
 0.000000e+000 1.000000e+000 0.000000e+000 0.000000e+000 0.000000e+000 0.000000e+000 0.000000e+000 0.000000e+000 0.000000e+000 0.000000e+000
 0.000000e+000 6.902204e-001 3.097796e-001 0.000000e+000 0.000000e+000 0.000000e+000 0.000000e+000 0.000000e+000 0.000000e+000 0.000000e+000
 0.000000e+000 0.000000e+000 7.399933e-001 2.600068e-001 0.000000e+000 0.000000e+000 0.000000e+000 0.000000e+000 0.000000e+000 0.000000e+000
 0.000000e+000 0.000000e+000 0.000000e+000 7.330351e-001 2.669649e-001 0.000000e+000 0.000000e+000 0.000000e+000 0.000000e+000 0.000000e+000
 0.000000e+000 0.000000e+000 0.000000e+000 0.000000e+000 6.660432e-001 3.339569e-001 0.000000e+000 0.000000e+000 0.000000e+000 0.000000e+000
 0.000000e+000 0.000000e+000 0.000000e+000 0.000000e+000 0.000000e+000 7.124077e-001 2.875923e-001 0.000000e+000 0.000000e+000 0.000000e+000
 0.000000e+000 0.000000e+000 0.000000e+000 0.000000e+000 0.000000e+000 0.000000e+000 8.350232e-001 1.649768e-001 0.000000e+000 0.000000e+000
 0.000000e+000 0.000000e+000 0.000000e+000 0.000000e+000 0.000000e+000 0.000000e+000 0.000000e+000 7.256258e-001 2.743742e-001 0.000000e+000
 0.000000e+000 0.000000e+000 0.000000e+000 0.000000e+000 0.000000e+000 0.000000e+000 0.000000e+000 0.000000e+000 7.154627e-001 2.845373e-001
 0.000000e+000 0.000000e+000 0.000000e+000 0.000000e+000 0.000000e+000 0.000000e+000 0.000000e+000 0.000000e+000 0.000000e+000 0.000000e+000
<ENDHMM>
~h "two"
<BEGINHMM>
<NUMSTATES> 10
<STATE> 2
<NUMMIXES> 2
<MIXTURE> 1 5.000000e-001
<MEAN> 39
 -1.155686e+001 1.756272e-001 -3.814754e+000 -8.590748e+000 -5.067201e+000 -7.353000e+000 -3.493613e+000 -3.984799e+000 7.789968e-001 -2.721342e+000 8.684742e-001 -3.076842e+000 1.339293e+001 -3.950189e-001 7.606249e-001 3.287102e-002 1.468972e-001 2.739075e-001 6.171486e-001 2.438549e-001 3.105934e-001 6.180147e-001 2.238313e-001 1.837409e-001 3.315989e-001 5.297552e-001 2.855438e-001 2.255993e-001 4.408851e-001 -6.461911e-002 2.104968e-001 5.913725e-002 1.056384e-001 6.072829e-002 6.290495e-002 9.555664e-002 1.105602e-002 2.710653e-002 1.044840e-001
<VARIANCE> 39
 3.261697e+001 2.637276e+001 4.197669e+001 3.184903e+001 2.516829e+001 2.885726e+001 2.486433e+001 2.532646e+001 2.709812e+001 2.359624e+001 2.764798e+001 2.401078e+001 1.559662e+001 1.032058e+000 1.708127e+000 2.067262e+000 1.866783e+000 1.602417e+000 1.322603e+000 1.112528e+000 1.322618e+000 1.534483e+000 1.724130e+000 1.459179e+000 1.367281e+000 9.443027e-001 2.101708e-001 2.756204e-001 4.011190e-001 2.184515e-001 2.267855e-001 2.054683e-001 2.114224e-001 2.492035e-001 2.623197e-001 2.956554e-001 2.327729e-001 1.960625e-001 1.176147e-001
<GCONST> 9.995549e+001
<MIXTURE> 2 5.000000e-001
<MEAN> 39
 -1.384131e+001 -1.878549e+000 -6.406331e+000 -1.084815e+001 -7.073921e+000 -9.501758e+000 -5.488179e+000 -5.997815e+000 -1.303237e+000 -4.664380e+000 -1.234780e+000 -5.036874e+000 1.181323e+001 -8.013799e-001 2.378435e-001 -5.422480e-001 -3.996238e-001 -2.324390e-001 1.571307e-001 -1.780509e-001 -1.494271e-001 1.225177e-001 -3.013933e-001 -2.994450e-001 -1.361242e-001 1.410542e-001 1.021662e-001 1.560108e-002 1.875493e-001 -2.515743e-001 2.000880e-002 -1.221772e-001 -7.828441e-002 -1.389529e-001 -1.419637e-001 -1.219402e-001 -1.819302e-001 -1.500093e-001 -3.269603e-002
<VARIANCE> 39
 3.261697e+001 2.637276e+001 4.197669e+001 3.184903e+001 2.516829e+001 2.885726e+001 2.486433e+001 2.532646e+001 2.709812e+001 2.359624e+001 2.764798e+001 2.401078e+001 1.559662e+001 1.032058e+000 1.708127e+000 2.067262e+000 1.866783e+000 1.602417e+000 1.322603e+000 1.112528e+000 1.322618e+000 1.534483e+000 1.724130e+000 1.459179e+000 1.367281e+000 9.443027e-001 2.101708e-001 2.756204e-001 4.011190e-001 2.184515e-001 2.267855e-001 2.054683e-001 2.114224e-001 2.492035e-001 2.623197e-001 2.956554e-001 2.327729e-001 1.960625e-001 1.176147e-001
<GCONST> 9.995549e+001
<STATE> 3
<NUMMIXES> 2
<MIXTURE> 1 5.000000e-001
<MEAN> 39
 -1.406040e+001 4.159461e-001 -3.142359e+000 -1.368810e+001 -2.235712e+000 -6.698636e+000 -3.464077e+000 -3.488020e+000 1.903350e+000 -2.726985e+000 3.951889e-001 -3.573951e+000 1.494568e+001 1.587606e+000 1.194540e+000 2.107026e+000 -3.901658e-001 1.676091e-001 2.915688e-002 2.091455e-002 -2.515292e-001 -7.391925e-002 1.508402e-001 -9.442814e-002 -2.551296e-001 5.504398e-001 4.800286e-001 9.813072e-002 3.190359e-001 -4.884936e-002 -2.510102e-001 -2.380577e-001 -7.730543e-002 -9.159736e-002 -9.182364e-002 2.577341e-002 8.380818e-002 -1.229762e-001 1.585503e-001
<VARIANCE> 39
 8.824266e+000 1.183942e+001 1.925964e+001 1.317789e+001 2.659117e+001 2.727743e+001 2.258043e+001 2.510630e+001 2.296656e+001 3.842825e+001 3.307073e+001 2.988933e+001 1.628278e+000 7.065174e-001 5.462646e-001 9.393229e-001 9.441456e-001 1.186256e+000 1.141020e+000 1.116403e+000 1.373898e+000 1.191410e+000 1.948646e+000 2.223908e+000 1.134066e+000 9.060805e-002 1.239254e-001 9.310623e-002 1.905285e-001 1.411146e-001 1.787472e-001 1.649210e-001 2.097501e-001 2.642615e-001 2.437395e-001 2.715820e-001 4.530437e-001 2.133061e-001 1.101162e-002
<GCONST> 8.392484e+001
<MIXTURE> 2 5.000000e-001
<MEAN> 39
 -1.524862e+001 -9.603922e-001 -4.897791e+000 -1.514016e+001 -4.298377e+000 -8.787748e+000 -5.364832e+000 -5.492268e+000 -1.358759e-002 -5.206606e+000 -1.905097e+000 -5.760796e+000 1.443526e+001 1.251388e+000 8.989016e-001 1.719352e+000 -7.788344e-001 -2.680525e-001 -3.981173e-001 -4.017254e-001 -7.203828e-001 -5.105262e-001 -4.075354e-001 -6.909391e-001 -6.810998e-001 4.300351e-001 3.392164e-001 -2.392254e-002 1.444377e-001 -1.991102e-001 -4.201242e-001 -4.004995e-001 -2.604994e-001 -2.972229e-001 -2.893036e-001 -1.826807e-001 -1.854259e-001 -3.077165e-001 1.165758e-001
<VARIANCE> 39
 8.824266e+000 1.183942e+001 1.925964e+001 1.317789e+001 2.659117e+001 2.727743e+001 2.258043e+001 2.510630e+001 2.296656e+001 3.842825e+001 3.307073e+001 2.988933e+001 1.628278e+000 7.065174e-001 5.462646e-001 9.393229e-001 9.441456e-001 1.186256e+000 1.141020e+000 1.116403e+000 1.373898e+000 1.191410e+000 1.948646e+000 2.223908e+000 1.134066e+000 9.060805e-002 1.239254e-001 9.310623e-002 1.905285e-001 1.411146e-001 1.787472e-001 1.649210e-001 2.097501e-001 2.642615e-001 2.437395e-001 2.715820e-001 4.530437e-001 2.133061e-001 1.101162e-002
<GCONST> 8.392484e+001
<STATE> 4
<NUMMIXES> 2
<MIXTURE> 1 5.000000e-001
<MEAN> 39
 -5.637322e+000 5.375922e+000 5.199935e+000 -1.501760e+001 -5.618680e+000 -9.575985e+000 -6.282969e+000 -7.433058e+000 -5.299681e-001 -3.364633e+000 -5.025724e-001 -5.638791e+000 1.803777e+001 1.754256e+000 9.125780e-001 1.550356e+000 -5.634774e-001 -1.134941e+000 -7.638217e-001 -5.889521e-001 -5.063412e-001 -3.078759e-001 -1.756296e-001 1.721851e-002 -5.673037e-001 8.286189e-001 -3.472409e-001 -2.201559e-001 -4.654956e-001 1.139097e-001 -8.492403e-003 9.573050e-002 1.196711e-001 2.603656e-001 1.159358e-001 6.007545e-002 8.726459e-002 1.093025e-001 -7.037447e-002
<VARIANCE> 39
 7.455319e+000 1.234017e+001 2.090919e+001 1.919375e+001 4.166073e+001 3.376918e+001 2.588192e+001 2.761365e+001 2.741941e+001 5.654000e+001 3.602218e+001 3.555500e+001 1.651402e+000 7.443510e-001 5.967677e-001 8.298298e-001 1.220337e+000 9.805509e-001 1.062709e+000 1.626418e+000 1.799903e+000 1.829394e+000 2.392036e+000 4.250086e+000 1.935053e+000 4.190214e-002 6.438405e-002 6.380711e-002 8.306357e-002 1.076662e-001 1.587063e-001 1.690648e-001 2.071059e-001 2.166982e-001 1.686892e-001 2.434772e-001 2.520186e-001 1.766776e-001 1.190076e-002
<GCONST> 8.407611e+001
<MIXTURE> 2 5.000000e-001
<MEAN> 39
 -6.729500e+000 3.970779e+000 3.370873e+000 -1.677002e+001 -8.200484e+000 -1.190043e+001 -8.317940e+000 -9.535006e+000 -2.624510e+000 -6.372357e+000 -2.903311e+000 -8.023911e+000 1.752375e+001 1.409153e+000 6.035750e-001 1.185976e+000 -1.005353e+000 -1.531031e+000 -1.176173e+000 -1.099077e+000 -1.042983e+000 -8.488963e-001 -7.942780e-001 -8.074110e-001 -1.123728e+000 7.467389e-001 -4.487369e-001 -3.211961e-001 -5.807786e-001 -1.734040e-002 -1.678443e-001 -6.873946e-002 -6.236449e-002 7.416219e-002 -4.835138e-002 -1.372982e-001 -1.135412e-001 -5.882967e-002 -1.140107e-001
<VARIANCE> 39
 7.455319e+000 1.234017e+001 2.090919e+001 1.919375e+001 4.166073e+001 3.376918e+001 2.588192e+001 2.761365e+001 2.741941e+001 5.654000e+001 3.602218e+001 3.555500e+001 1.651402e+000 7.443510e-001 5.967677e-001 8.298298e-001 1.220337e+000 9.805509e-001 1.062709e+000 1.626418e+000 1.799903e+000 1.829394e+000 2.392036e+000 4.250086e+000 1.935053e+000 4.190214e-002 6.438405e-002 6.380711e-002 8.306357e-002 1.076662e-001 1.587063e-001 1.690648e-001 2.071059e-001 2.166982e-001 1.686892e-001 2.434772e-001 2.520186e-001 1.766776e-001 1.190076e-002
<GCONST> 8.407611e+001
<STATE> 5
<NUMMIXES> 2
<MIXTURE> 1 5.000000e-001
<MEAN> 39
 -5.988275e+000 4.720466e+000 3.749510e+000 -1.917880e+001 -7.322137e+000 -1.167122e+001 -6.413543e+000 -6.836675e+000 -2.919602e-001 -5.807066e+000 -3.745953e+000 -9.402602e+000 1.899691e+001 3.396652e-001 1.412112e-001 2.930847e-001 -2.652465e-001 -4.291882e-001 3.260688e-002 1.460820e-001 3.957139e-001 2.091175e-001 3.370465e-001 8.678910e-002 -9.132207e-002 3.005154e-001 -2.210298e-001 -1.803213e-001 -1.905133e-001 4.309660e-001 4.080426e-001 2.529057e-001 2.934891e-001 2.681958e-001 1.815938e-001 2.949958e-001 4.275741e-001 3.876021e-001 -1.858573e-001
<VARIANCE> 39
 7.086096e+000 1.157479e+001 2.205823e+001 2.188985e+001 3.671692e+001 1.970883e+001 3.071389e+001 3.287744e+001 4.325179e+001 7.544247e+001 6.809832e+001 5.553805e+001 1.121918e+000 3.501385e-001 3.828070e-001 2.941861e-001 9.238463e-001 8.607692e-001 9.390442e-001 1.242878e+000 1.322279e+000 1.547799e+000 1.858120e+000 2.153910e+000 1.934514e+000 5.420902e-002 7.618475e-002 5.163503e-002 7.654041e-002 8.889260e-002 1.321283e-001 1.215999e-001 1.652912e-001 2.379903e-001 2.107068e-001 2.512473e-001 3.058451e-001 2.271450e-001 3.930371e-003
<GCONST> 7.970989e+001
<MIXTURE> 2 5.000000e-001
<MEAN> 39
 -7.053063e+000 3.359596e+000 1.870862e+000 -2.105026e+001 -9.745917e+000 -1.344700e+001 -8.630347e+000 -9.130229e+000 -2.922604e+000 -9.281371e+000 -7.046821e+000 -1.238356e+001 1.857323e+001 1.029752e-001 -1.062744e-001 7.612896e-002 -6.497142e-001 -8.002988e-001 -3.550103e-001 -2.998557e-001 -6.424768e-002 -2.885248e-001 -2.082050e-001 -5.002591e-001 -6.476693e-001 2.073841e-001 -3.314362e-001 -2.712147e-001 -3.011771e-001 3.117066e-001 2.626448e-001 1.134209e-001 1.308651e-001 7.305880e-002 -2.017437e-003 9.449755e-002 2.063611e-001 1.969631e-001 -2.109343e-001
<VARIANCE> 39
