~o
<STREAMINFO> 1 39
<VECSIZE> 39<NULLD><MFCC_E_D_A><DIAGC>
~s "silst"
<NUMMIXES> 3
<MIXTURE> 1 1.650378e-001
<MEAN> 39
 -1.244470e+001 -4.052355e+000 -3.890254e+000 -1.526322e+001 -4.035808e+000 -1.115434e+001 -4.709638e+000 -5.541813e+000 -1.603984e+000 -4.092008e+000 -1.006870e+000 -5.553748e+000 1.358254e+001 -1.229785e-001 -3.561112e-002 -1.539413e-001 -2.160935e-001 -1.261309e-001 -1.914946e-002 -2.121464e-003 -8.420231e-002 -1.204331e-001 -2.733021e-002 2.270504e-002 3.976395e-002 6.887691e-002 1.503064e-001 9.617276e-002 6.878158e-002 7.789509e-002 4.419814e-002 9.261057e-003 4.568644e-002 -1.750691e-002 -3.462889e-003 -2.916212e-002 -2.015032e-002 -6.341282e-002 6.165938e-002
<VARIANCE> 39
 1.503206e+001 1.249981e+001 1.429127e+001 3.221100e+001 2.117798e+001 2.357110e+001 2.034304e+001 2.139415e+001 2.017200e+001 2.449372e+001 2.043435e+001 1.945793e+001 1.098058e+001 2.981962e-001 4.783102e-001 6.040220e-001 7.253582e-001 8.815754e-001 8.576604e-001 8.955719e-001 1.010247e+000 8.913031e-001 9.474028e-001 7.784218e-001 7.239435e-001 4.052657e-002 8.456775e-002 9.895389e-002 1.311021e-001 1.457711e-001 1.567067e-001 1.536221e-001 1.655332e-001 1.793027e-001 1.671533e-001 1.669037e-001 1.572057e-001 1.432455e-001 1.783585e-002
<GCONST> 7.543354e+001
<MIXTURE> 2 4.370608e-001
<MEAN> 39
 -1.292836e+001 -5.177782e+000 -4.580308e+000 -1.709610e+001 -3.045176e+000 -1.263629e+001 -5.384382e+000 -6.339695e+000 -1.728978e+000 -4.629627e+000 -1.213111e+000 -6.647267e+000 1.438407e+001 7.160481e-003 2.896038e-002 4.241060e-002 6.013494e-002 6.829824e-002 1.195905e-001 1.371866e-001 1.709131e-001 1.186723e-001 1.162221e-001 4.994991e-002 4.017847e-002 -6.114122e-003 1.516977e-002 3.689427e-002 7.018866e-003 -4.501554e-002 -5.346795e-002 -3.478551e-002 3.538944e-002 2.299216e-002 1.550779e-002 2.787389e-002 3.651014e-002 1.843965e-002 1.339368e-002
<VARIANCE> 39
 2.568440e+000 4.563097e+000 5.562881e+000 8.802733e+000 1.166282e+001 1.276365e+001 1.520395e+001 1.662510e+001 1.581324e+001 1.660125e+001 1.482002e+001 1.250521e+001 2.524525e+000 7.307556e-002 1.557842e-001 2.690695e-001 3.621286e-001 4.887107e-001 5.416833e-001 6.314336e-001 6.332604e-001 7.070228e-001 6.640638e-001 6.844844e-001 5.821909e-001 7.720460e-003 1.255972e-002 2.763783e-002 4.662833e-002 6.680994e-002 9.161668e-002 1.001378e-001 1.256085e-001 1.239227e-001 1.277203e-001 1.295065e-001 1.161849e-001 9.953316e-002 1.035815e-003
<GCONST> 4.666823e+001
<MIXTURE> 3 3.978806e-001
<MEAN> 39
 -1.279799e+001 -4.515035e+000 -4.707750e+000 -1.829323e+001 -4.428849e+000 -1.370498e+001 -5.104011e+000 -6.183751e+000 -1.608504e+000 -4.438110e+000 -7.083182e-001 -6.463924e+000 1.462674e+001 -2.679455e-002 -5.817340e-002 -8.935676e-002 -1.193469e-002 -9.946515e-002 -1.278945e-001 -1.685147e-001 -1.573592e-001 -1.066696e-001 -1.510814e-001 -7.065595e-002 -5.849351e-002 -2.133832e-002 4.912278e-003 -1.617253e-002 2.739491e-002 8.205864e-002 8.139530e-002 7.771285e-002 -1.758666e-002 -6.754329e-003 -1.030283e-002 -1.998800e-002 -4.215138e-002 -1.066349e-002 -5.535098e-003
<VARIANCE> 39
 3.213837e+000 4.161334e+000 6.374076e+000 8.757280e+000 1.087071e+001 1.182413e+001 1.452600e+001 1.536043e+001 1.492074e+001 1.682480e+001 1.755316e+001 1.363884e+001 2.474538e+000 7.581676e-002 1.378058e-001 2.391121e-001 4.296430e-001 4.960505e-001 5.566989e-001 6.228715e-001 5.866292e-001 6.406384e-001 7.733198e-001 7.558524e-001 6.044803e-001 6.191254e-003 1.176087e-002 2.370149e-002 4.861713e-002 6.657495e-002 8.526617e-002 9.088957e-002 1.129221e-001 1.030252e-001 1.210885e-001 1.268408e-001 1.361608e-001 1.068135e-001 7.994429e-004
<GCONST> 4.599501e+001
~h "four"
<BEGINHMM>
<NUMSTATES> 10
<STATE> 2
<NUMMIXES> 3
<MIXTURE> 1 2.462683e-001
<MEAN> 39
 -1.440055e+001 -8.280942e+000 -3.613991e+000 -9.319165e+000 -3.265075e+000 -1.080882e+001 -2.907208e+000 -4.866256e+000 4.401624e-001 -3.933462e+000 8.989353e-002 -4.038281e+000 1.232975e+001 3.445493e+000 9.771721e-001 -1.189919e+000 -6.265599e-001 6.710384e-001 6.713889e-001 -3.667678e-001 -3.223337e-001 -2.441276e-002 3.844134e-001 3.603496e-001 -1.810862e-001 9.526760e-001 9.430680e-001 4.653752e-001 -6.637185e-001 -6.085539e-001 4.409643e-002 2.197568e-001 -1.439269e-001 -1.799546e-001 -3.144223e-001 1.327376e-002 9.748513e-002 -1.452988e-001 2.545593e-001
<VARIANCE> 39
 7.507537e+000 8.313791e+000 9.553464e+000 2.013975e+001 1.262189e+001 1.800241e+001 1.831705e+001 1.658708e+001 1.655825e+001 1.554218e+001 1.432094e+001 9.802801e+000 1.774807e+000 1.493840e+000 6.315925e-001 1.124977e+000 9.301639e-001 6.852137e-001 8.653036e-001 9.047406e-001 8.976861e-001 1.079097e+000 7.417020e-001 1.076352e+000 7.997609e-001 1.379158e-001 1.351173e-001 1.012593e-001 1.077780e-001 1.092826e-001 1.645843e-001 1.955372e-001 1.810768e-001 1.510276e-001 1.429179e-001 2.058502e-001 2.164930e-001 1.534798e-001 8.111664e-003
<GCONST> 7.267078e+001
<MIXTURE> 2 3.714475e-001
<MEAN> 39
 -1.733120e+001 -7.294566e+000 -2.566635e+000 -8.512188e+000 -5.022552e+000 -9.240463e+000 -1.124330e+000 -5.606628e+000 -1.322588e+000 -5.368440e+000 4.482803e-001 -3.782667e+000 1.105019e+001 5.849509e-001 -2.369295e-001 -1.722153e-001 6.433719e-002 2.005309e-001 -2.344573e-001 -5.220337e-002 -6.341077e-002 -6.081058e-003 -1.371612e-001 -3.135489e-001 -2.207941e-001 4.109202e-001 7.158523e-001 1.533557e-001 -1.786700e-001 1.210627e-002 1.448588e-001 3.145772e-002 -1.027551e-001 -2.058648e-003 1.460412e-002 2.986640e-002 -1.339974e-001 -1.176615e-001 1.369067e-001
<VARIANCE> 39
 1.142090e+001 8.999239e+000 8.846461e+000 1.155880e+001 1.301913e+001 1.314372e+001 1.538162e+001 1.812785e+001 1.871033e+001 1.537688e+001 1.744621e+001 1.638433e+001 2.876034e+000 1.882195e+000 4.338964e-001 5.573327e-001 3.967669e-001 5.548162e-001 6.268775e-001 5.614018e-001 9.075125e-001 8.449867e-001 7.257570e-001 8.920292e-001 5.385561e-001 2.141956e-001 2.397355e-001 9.310753e-002 1.804943e-001 7.410207e-002 1.069867e-001 1.481269e-001 1.190115e-001 1.813702e-001 1.548758e-001 1.339546e-001 1.999633e-001 1.290208e-001 2.599497e-002
<GCONST> 7.059937e+001
<MIXTURE> 3 3.822829e-001
<MEAN> 39
 -1.291668e+001 -5.408886e+000 -4.394169e+000 -1.666736e+001 -4.601545e+000 -1.283542e+001 -4.467396e+000 -6.255530e+000 -1.697002e+000 -4.836653e+000 -7.392447e-001 -5.842515e+000 1.462877e+001 1.226420e+000 3.516889e-001 -2.950472e-001 1.824198e-001 6.063325e-001 4.530348e-001 1.071724e-001 4.742870e-003 1.224940e-001 1.437127e-001 -1.433704e-002 -2.018795e-002 4.064722e-001 5.710832e-001 1.982017e-001 -3.603952e-001 -1.930749e-001 2.490491e-001 1.715922e-001 -9.417221e-002 -1.841971e-002 -1.290556e-002 1.148366e-001 -3.510787e-003 -1.327246e-001 1.929659e-001
<VARIANCE> 39
 2.863034e+000 4.704977e+000 5.011686e+000 1.078981e+001 1.170976e+001 1.180803e+001 1.384058e+001 1.201928e+001 1.581385e+001 1.564830e+001 1.676232e+001 1.340838e+001 2.014456e+000 6.081958e-001 3.776412e-001 5.752878e-001 6.963781e-001 7.031634e-001 5.776815e-001 6.799378e-001 6.086327e-001 6.386356e-001 8.031740e-001 8.326437e-001 8.570273e-001 7.569262e-002 4.302241e-002 5.261611e-002 8.007584e-002 1.064083e-001 1.230858e-001 1.246731e-001 1.389749e-001 1.513395e-001 1.523262e-001 1.504147e-001 1.624507e-001 1.491723e-001 4.946921e-003
<GCONST> 6.048313e+001
<STATE> 3
<NUMMIXES> 3
<MIXTURE> 1 2.549880e-001
<MEAN> 39
 -7.502236e+000 -3.322243e+000 -3.887362e+000 -1.402581e+001 -7.130883e-001 -9.625944e+000 -4.370213e+000 -6.066268e+000 -1.722468e+000 -5.100172e+000 -2.152857e+000 -7.542681e+000 1.598260e+001 2.912205e+000 7.806517e-001 -1.599319e+000 -7.317250e-001 1.481095e+000 1.066878e+000 -2.088739e-001 -1.553050e-002 2.465506e-001 8.001215e-001 3.490337e-001 -3.683470e-001 9.174794e-001 5.692434e-002 -4.308807e-003 -3.410299e-001 -2.731901e-001 3.418999e-002 1.209299e-001 9.775147e-002 6.543812e-002 7.127430e-003 2.467287e-001 3.071010e-001 1.644761e-001 3.525304e-002
<VARIANCE> 39
 1.424243e+001 8.894923e+000 1.133076e+001 2.544105e+001 8.443857e+000 1.159978e+001 1.353496e+001 1.464153e+001 1.445948e+001 1.122473e+001 1.325273e+001 1.030395e+001 3.091996e+000 1.305406e+000 4.003826e-001 5.258878e-001 6.386511e-001 6.259333e-001 6.662426e-001 6.294017e-001 8.044859e-001 7.106169e-001 8.028559e-001 1.108640e+000 1.426721e+000 8.237831e-002 5.826498e-002 3.856084e-002 6.198151e-002 1.058545e-001 8.782563e-002 8.572528e-002 1.494078e-001 1.152210e-001 1.345526e-001 9.245613e-002 9.630645e-002 1.444176e-001 5.522748e-003
<GCONST> 6.336038e+001
<MIXTURE> 2 4.453835e-001
<MEAN> 39
 -2.312341e-001 -4.412051e+000 -7.590880e+000 -1.051068e+001 -1.722851e+000 -8.792521e+000 -3.213292e+000 -6.774358e+000 -2.100767e+000 -5.204728e+000 -2.016970e+000 -5.905369e+000 1.597491e+001 4.395982e+000 7.293342e-001 -2.941034e+000 -1.239998e+000 8.159006e-001 -6.527430e-003 -5.054985e-001 -9.359614e-002 -2.055554e-001 1.423050e-001 -6.104475e-001 -8.338973e-001 1.349884e+000 -3.613054e-001 4.549958e-002 -2.546617e-001 -1.995586e-001 -8.490685e-002 -7.756928e-003 5.365341e-002 7.227905e-002 6.122678e-002 6.879828e-002 4.116243e-002 -2.312572e-002 -7.186619e-002
<VARIANCE> 39
 5.578213e+001 1.211832e+001 3.066069e+001 1.929514e+001 1.627218e+001 2.995594e+001 1.995789e+001 2.189762e+001 2.238159e+001 2.019723e+001 2.799133e+001 1.423587e+001 4.320893e+000 1.086910e+000 1.729346e+000 8.133153e-001 2.328822e+000 1.850593e+000 2.047774e+000 1.664786e+000 1.824918e+000 2.253752e+000 2.346346e+000 3.531225e+000 1.829785e+000 1.037171e-001 2.947854e-001 7.958794e-002 1.533444e-001 1.159660e-001 1.192957e-001 2.075328e-001 1.413462e-001 1.859213e-001 2.549022e-001 2.555378e-001 2.034551e-001 1.613583e-001 2.528479e-002
<GCONST> 9.044405e+001
<MIXTURE> 3 2.996275e-001
<MEAN> 39
 -5.885032e+000 -1.441195e+000 -4.408699e+000 -1.686060e+001 -4.818579e-001 -8.973742e+000 -2.656366e+000 -5.440637e+000 -6.252878e-001 -1.915314e+000 1.508192e+000 -4.036337e+000 1.692140e+001 2.484199e+000 1.292763e+000 -1.267943e+000 -1.399375e+000 7.156917e-002 8.708480e-001 -3.413860e-001 -9.031596e-001 -7.810121e-001 6.249056e-002 3.781362e-001 -1.520788e-001 8.135272e-001 -5.876212e-002 -2.280043e-002 -2.193727e-001 -2.630414e-001 -3.138028e-001 -1.529222e-001 -1.210800e-001 -1.758834e-001 -2.879889e-001 -2.439340e-001 -1.367740e-001 -9.357462e-002 4.597746e-003
<VARIANCE> 39
 1.291523e+001 7.824844e+000 9.679880e+000 2.039744e+001 1.211793e+001 1.225195e+001 1.420028e+001 1.639637e+001 1.404505e+001 1.094927e+001 1.042719e+001 1.612102e+001 2.575310e+000 1.013275e+000 4.867427e-001 7.716527e-001 6.180609e-001 7.589307e-001 7.858498e-001 1.325627e+000 8.141608e-001 6.969495e-001 1.192046e+000 9.659615e-001 9.522756e-001 9.419373e-002 4.367928e-002 3.847317e-002 5.431380e-002 1.047821e-001 8.852226e-002 8.956054e-002 1.133185e-001 8.985261e-002 1.116944e-001 1.166620e-001 8.500671e-002 1.257461e-001 4.592721e-003
<GCONST> 6.337178e+001
<STATE> 4
<NUMMIXES> 3
<MIXTURE> 1 3.606205e-001
<MEAN> 39
 2.451401e+000 -2.505848e+000 -1.536259e+001 -1.720159e+001 2.992501e+000 -6.667677e+000 -3.894020e+000 -6.453157e+000 1.050821e+000 8.341120e-001 9.232389e-001 -7.128922e+000 1.888232e+001 8.202450e-001 5.944529e-001 -8.382377e-001 -8.593153e-001 1.218899e-001 8.980336e-001 5.046743e-001 -2.866692e-001 -3.068996e-001 6.628791e-001 1.038135e+000 6.503445e-001 2.931373e-001 -5.212321e-001 -1.223303e-001 4.676821e-001 9.795681e-002 -3.421709e-001 -1.926459e-001 1.140012e-001 7.598353e-002 -2.218881e-001 -3.520805e-001 -5.179742e-002 1.904373e-001 -1.668323e-001
<VARIANCE> 39
 2.415892e+001 6.475490e+000 2.052170e+001 2.078045e+001 1.413248e+001 1.085041e+001 1.716264e+001 1.580088e+001 1.413945e+001 1.417778e+001 2.800758e+001 3.472123e+001 1.774391e+000 1.049013e+000 3.458102e-001 1.070212e+000 5.455557e-001 9.127908e-001 7.027373e-001 5.982354e-001 1.014002e+000 8.241560e-001 8.774081e-001 6.917853e-001 1.033492e+000 1.217102e-001 1.390121e-001 5.499138e-002 8.380514e-002 8.511087e-002 6.839586e-002 8.995212e-002 1.221165e-001 1.157077e-001 1.123391e-001 8.924190e-002 1.313724e-001 1.930345e-001 1.054256e-002
<GCONST> 6.891616e+001
<MIXTURE> 2 3.960264e-001
<MEAN> 39
 3.509639e+000 1.151811e+000 -1.361726e+001 -2.181125e+001 -3.088785e+000 -7.771165e+000 -6.088153e+000 -9.012891e+000 -5.539493e+000 -4.660293e+000 2.926749e+000 -5.767686e+000 1.861896e+001 1.476178e+000 8.596107e-001 -1.306609e+000 -1.536036e+000 -5.928171e-001 8.031129e-002 -2.373797e-001 -3.547868e-001 -8.795016e-001 -6.101094e-001 3.682208e-002 -1.353905e-001 5.445172e-001 -7.728710e-001 -4.046396e-001 4.653265e-001 4.598531e-001 -5.262476e-002 -1.223477e-001 1.267512e-001 2.099795e-001 2.968895e-001 1.685467e-002 -2.206236e-001 6.946122e-002 -2.336385e-001
<VARIANCE> 39
 2.501605e+001 9.315391e+000 2.149069e+001 1.248024e+001 2.381676e+001 2.687341e+001 2.328311e+001 1.970154e+001 2.288032e+001 2.879345e+001 3.168821e+001 1.854935e+001 1.173890e+000 1.461197e+000 7.065347e-001 1.192677e+000 9.883570e-001 9.650863e-001 1.024385e+000 1.180952e+000 7.020431e-001 1.094464e+000 1.220982e+000 1.314259e+000 1.078145e+000 1.422099e-001 1.204963e-001 1.253452e-001 1.272554e-001 1.304599e-001 1.370343e-001 1.630498e-001 1.956126e-001 1.330115e-001 1.613324e-001 2.509152e-001 1.994282e-001 1.526707e-001 7.562346e-003
<GCONST> 7.969819e+001
<MIXTURE> 3 2.433530e-001
<MEAN> 39
 3.056954e+000 -6.904860e+000 -1.556561e+001 -1.309273e+001 3.105656e+000 -1.217712e+001 -5.361103e+000 -3.644381e+000 -5.452223e-002 -4.531960e+000 -8.610576e+000 -1.233991e+001 1.866519e+001 1.432467e+000 2.751342e-001 -1.671408e+000 -4.942032e-001 9.746116e-001 8.271654e-001 -8.702579e-002 4.439067e-002 5.946334e-001 9.050004e-001 -3.048698e-001 -7.801415e-001 5.258760e-001 -6.708164e-001 1.286515e-001 4.979846e-001 -8.877289e-002 -3.540624e-001 2.583391e-001 2.211297e-001 -1.845612e-001 -1.882247e-001 3.666592e-002 5.252218e-001 3.827103e-001 -2.240638e-001
<VARIANCE> 39
 2.044494e+001 1.136069e+001 1.456985e+001 2.333485e+001 1.681548e+001 1.491378e+001 2.006571e+001 3.098986e+001 2.619716e+001 3.365598e+001 2.693587e+001 2.675113e+001 1.087004e+000 1.350657e+000 6.814964e-001 1.124235e+000 7.621112e-001 7.066117e-001 9.440365e-001 1.307852e+000 1.911365e+000 1.056665e+000 1.301209e+000 1.593687e+000 1.047217e+000 1.518643e-001 1.683080e-001 1.119406e-001 1.264952e-001 1.745911e-001 1.105456e-001 1.826817e-001 1.697613e-001 3.417565e-001 2.041398e-001 2.585912e-001 1.772597e-001 1.864804e-001 1.224701e-002
<GCONST> 8.228884e+001
<STATE> 5
<NUMMIXES> 3
<MIXTURE> 1 2.401176e-001
<MEAN> 39
 5.650218e+000 -5.864383e-001 -1.705430e+001 -1.714811e+001 2.000522e+000 -5.385555e+000 -1.582630e+000 -7.923843e+000 -1.811111e+000 -2.068520e-002 1.071164e+000 -5.329649e+000 1.869331e+001 -5.790643e-002 -1.378593e-003 1.080627e-001 -1.295788e-001 5.829104e-002 2.022950e-001 9.200851e-002 1.218387e-001 -1.949754e-001 8.837125e-002 -2.912646e-002 2.181220e-001 -4.788407e-002 -7.080679e-002 -2.176218e-001 9.959690e-002 1.136088e-001 1.211876e-001 -1.738628e-001 -1.802403e-001 1.676667e-001 1.447540e-001 -7.550346e-002 -2.184326e-001 -1.328745e-001 -2.967467e-003
<VARIANCE> 39
 2.654630e+001 8.353243e+000 2.426635e+001 3.410640e+001 2.334445e+001 1.254026e+001 1.671995e+001 1.176132e+001 2.085444e+001 1.879525e+001 3.291685e+001 3.462254e+001 1.566709e+000 8.780390e-002 3.815330e-001 1.686951e-001 3.778535e-001 5.830358e-001 4.217022e-001 4.282784e-001 5.464727e-001 4.501930e-001 4.669259e-001 7.772157e-001 8.882880e-001 3.454048e-003 1.071257e-002 4.360949e-002 3.340429e-002 3.610313e-002 7.728140e-002 6.172166e-002 6.598484e-002 8.265354e-002 5.457878e-002 8.657452e-002 9.684330e-002 1.131470e-001 6.228836e-004
<GCONST> 4.941813e+001
<MIXTURE> 2 3.927002e-001
<MEAN> 39
 1.620915e+000 -1.595512e-002 -1.328948e+001 -2.224417e+001 -1.955128e+000 -6.283010e+000 -4.496247e+000 -7.682478e+000 -4.423846e+000 -2.688255e+000 3.147593e+000 -5.316334e+000 1.896340e+001 -9.629648e-002 -1.008336e+000 -1.864392e-001 6.880216e-001 6.803678e-001 1.418969e-001 -9.545254e-001 1.220045e-001 1.190420e+000 6.532398e-001 -1.500963e-001 -7.198234e-001 3.388948e-002 -9.319448e-002 -3.227897e-001 1.316849e-001 4.175475e-001 3.294647e-002 -2.047970e-001 -1.621249e-001 1.941840e-001 4.321314e-001 -7.304703e-002 -3.765945e-001 -1.938758e-001 -2.731473e-002
<VARIANCE> 39
 2.813619e+001 1.013989e+001 2.209509e+001 1.770125e+001 2.384063e+001 2.153013e+001 2.392886e+001 1.789090e+001 2.721215e+001 2.875187e+001 4.058446e+001 3.218887e+001 1.418959e+000 1.620952e-001 5.120503e-001 5.495825e-001 5.411313e-001 8.467066e-001 8.915662e-001 1.048019e+000 1.164794e+000 1.162503e+000 1.342204e+000 1.198529e+000 1.115291e+000 1.154730e-002 3.755139e-002 5.041244e-002 1.019672e-001 8.766774e-002 1.265323e-001 1.355201e-001 1.739502e-001 1.877041e-001 1.889581e-001 2.949294e-001 2.038590e-001 2.017812e-001 3.306733e-003
<GCONST> 7.201315e+001
<MIXTURE> 3 3.671809e-001
<MEAN> 39
 2.643948e-001 1.245680e+000 -1.164082e+001 -2.331377e+001 -3.812504e+000 -8.736605e+000 -2.535733e+000 -7.407412e+000 -4.554583e+000 -5.562479e+000 1.035015e-001 -5.679573e+000 1.906524e+001 -5.195935e-004 1.023675e-001 6.802859e-002 -1.396001e-001 -2.078544e-001 1.006801e-001 1.530135e-001 6.453329e-002 -1.831820e-001 -1.197963e-001 7.563035e-002 1.201408e-001 -5.322798e-003 -6.041899e-002 -1.887989e-001 -2.300128e-002 1.850621e-001 1.970789e-001 5.304743e-002 -1.662765e-001 -4.205400e-002 1.592811e-001 2.100512e-001 9.058066e-002 -9.556168e-002 -1.989474e-002
<VARIANCE> 39
 2.119681e+001 9.023402e+000 2.391731e+001 1.157231e+001 2.247013e+001 1.797843e+001 1.820049e+001 1.536116e+001 1.960043e+001 2.102032e+001 2.957985e+001 3.093146e+001 1.186955e+000 1.078073e-001 2.611842e-001 4.105338e-001 3.613570e-001 5.328678e-001 3.850491e-001 4.672016e-001 4.476218e-001 5.682594e-001 7.483962e-001 7.590889e-001 6.301515e-001 7.140347e-003 1.749545e-002 2.795895e-002 6.175048e-002 6.082289e-002 6.895190e-002 8.282776e-002 8.847158e-002 7.987933e-002 9.503493e-002 1.142971e-001 1.366322e-001 9.273520e-002 1.914690e-003
<GCONST> 5.356477e+001
<STATE> 6
<NUMMIXES> 3
<MIXTURE> 1 2.302624e-001
<MEAN> 39
 6.006178e+000 -7.908328e+000 -1.614905e+001 -1.165665e+001 6.416992e+000 -8.537512e+000 -5.223552e+000 -9.505682e-001 -3.253828e-001 4.519010e-001 -6.428685e+000 -6.923634e+000 1.841579e+001 -4.871649e-001 -1.998260e+000 1.515313e+000 7.922076e-001 -1.740107e-001 -1.083861e-002 -9.985335e-001 2.136069e+000 -2.165092e-001 -1.589132e+000 -1.533201e-001 -9.227769e-002 -2.458678e-002 2.266373e-003 -8.991173e-002 3.351065e-001 4.767224e-002 -6.555761e-001 3.191784e-001 1.978577e-001 -1.060028e-001 -1.709243e-001 -4.916101e-001 4.311316e-001 1.206421e-001 -1.944532e-002
<VARIANCE> 39
 1.290893e+001 1.319326e+001 1.161266e+001 1.456608e+001 9.573965e+000 1.615752e+001 1.834304e+001 3.029591e+001 2.371856e+001 2.817155e+001 3.078467e+001 3.994042e+001 1.685973e+000 1.374169e-001 4.708548e-001 5.319601e-001 5.821881e-001 1.510382e+000 1.057444e+000 1.811888e+000 1.141359e+000 2.316364e+000 1.831135e+000 1.490190e+000 1.602804e+000 8.822037e-003 1.810549e-002 5.388687e-002 5.785444e-002 6.125770e-002 1.602148e-001 1.185236e-001 1.798339e-001 3.065823e-001 2.619833e-001 2.443343e-001 2.125553e-001 1.704463e-001 8.976726e-004
<GCONST> 6.979939e+001
<MIXTURE> 2 3.134623e-001
<MEAN> 39
 5.678329e+000 -7.308891e+000 -1.507783e+001 -1.483528e+001 -5.400440e+000 -3.621515e+000 -1.062114e+001 -8.459539e+000 4.007684e+000 -2.609734e+000 -3.306460e-001 -9.356844e+000 1.917263e+001 -3.262035e-001 -2.131195e+000 8.995041e-001 2.479792e+000 -8.521400e-001 -7.443492e-001 3.643190e-002 4.860284e-001 1.843818e+000 2.688332e-002 -1.715093e+000 -4.477398e-001 -3.745035e-002 -7.341576e-002 1.230133e-001 2.974787e-001 1.520887e-001 -3.095484e-001 -4.383383e-001 6.423492e-001 2.276696e-001 -4.659312e-001 -3.133268e-001 -7.214674e-002 3.537704e-001 -4.730875e-002
<VARIANCE> 39
 2.100472e+001 2.247334e+001 1.563252e+001 4.585760e+001 6.394921e+001 4.097109e+001 3.820326e+001 5.884575e+001 5.090138e+001 4.568131e+001 4.915431e+001 3.433349e+001 1.897473e+000 2.149487e-001 7.260444e-001 9.725527e-001 1.377649e+000 1.717529e+000 2.197333e+000 1.911267e+000 2.574647e+000 2.861074e+000 5.076742e+000 1.817526e+000 1.963208e+000 2.092485e-002 4.012503e-002 1.250492e-001 1.115194e-001 2.720660e-001 2.404924e-001 2.416318e-001 3.657217e-001 4.427323e-001 4.109597e-001 4.410317e-001 3.475850e-001 3.441111e-001 1.918376e-003
<GCONST> 9.371507e+001
<MIXTURE> 3 4.562750e-001
<MEAN> 39
 -1.305256e+000 -5.186717e+000 -1.264171e+001 -1.782941e+001 2.901193e+000 -8.736991e+000 -7.545692e+000 -6.066912e+000 3.272681e+000 -9.789112e-001 -1.723956e+000 -1.076593e+001 1.877576e+001 -1.926664e-001 -1.206206e+000 2.494911e-001 1.593754e+000 3.878045e-002 -1.154089e+000 -1.187751e-001 1.310547e+000 9.098907e-001 -1.052317e+000 -1.237219e+000 -6.616056e-002 -4.889624e-002 -7.227826e-002 2.797529e-002 2.922247e-001 7.095299e-002 -4.317195e-001 -1.163262e-001 4.487356e-001 2.121268e-001 -4.771694e-001 -4.342882e-001 1.231391e-001 4.264835e-001 -2.426507e-002
<VARIANCE> 39
 9.847683e+000 7.642977e+000 1.081309e+001 1.237953e+001 1.680970e+001 2.319202e+001 1.418809e+001 1.809746e+001 1.722488e+001 2.127879e+001 2.648218e+001 2.277187e+001 1.304479e+000 7.582310e-002 2.158942e-001 3.238712e-001 4.777364e-001 7.854844e-001 6.847298e-001 1.075104e+000 8.915682e-001 1.528337e+000 1.334145e+000 9.011589e-001 1.279415e+000 7.069144e-003 9.650295e-003 4.465918e-002 4.965659e-002 6.685838e-002 9.663119e-002 1.190450e-001 1.152271e-001 1.356114e-001 1.735727e-001 1.559416e-001 1.826426e-001 1.569595e-001 8.888768e-004
<GCONST> 5.797449e+001
<STATE> 7
<NUMMIXES> 3
<MIXTURE> 1 4.286901e-001
<MEAN> 39
 3.557259e+000 -1.534539e+001 -8.770177e+000 -8.121058e+000 -6.050010e+000 -8.033998e+000 -6.928769e+000 5.696456e-001 3.998848e+000 -9.436915e+000 -5.463110e+000 -6.564616e+000 1.885865e+001 -3.952461e-001 -9.836617e-001 1.755494e+000 1.254308e+000 -2.310235e+000 -2.055458e-001 1.760258e+000 8.679161e-002 -9.086216e-001 -1.027636e+000 1.457355e-001 8.912452e-001 -1.458105e-001 -7.565795e-002 6.134209e-001 3.106369e-002 -4.050496e-001 9.760603e-002 2.049895e-001 2.680900e-001 -5.427921e-001 -4.891956e-001 5.273354e-001 3.447835e-001 -7.944201e-002 -5.257858e-002
<VARIANCE> 39
 1.896593e+001 2.106765e+001 1.549956e+001 2.350140e+001 5.125076e+001 4.769751e+001 3.519717e+001 5.177860e+001 5.856076e+001 4.768584e+001 3.072842e+001 4.054642e+001 1.741259e+000 3.973990e-001 7.119507e-001 9.413732e-001 1.327772e+000 1.563832e+000 2.906975e+000 2.418945e+000 2.445385e+000 2.187919e+000 2.133857e+000 2.093967e+000 1.309662e+000 1.738835e-002 3.831216e-002 8.856801e-002 1.142645e-001 1.929514e-001 3.039818e-001 2.904629e-001 2.863018e-001 4.106297e-001 5.338913e-001 4.239440e-001 3.353834e-001 2.833596e-001 2.430152e-003
<GCONST> 9.131462e+001
<MIXTURE> 2 3.655573e-001
<MEAN> 39
 -2.457355e+000 -9.308864e+000 -8.851218e+000 -1.058290e+001 -1.348273e-001 -1.432715e+001 -2.067795e+000 1.918487e+000 4.420497e-001 -7.747848e+000 -2.770945e+000 -5.355844e+000 1.823874e+001 -4.785745e-001 -2.869133e-001 1.251560e+000 7.924428e-001 -1.136648e+000 -2.100094e-001 1.428385e+000 4.493119e-001 -1.276083e+000 -8.863770e-001 7.521392e-001 6.885051e-001 -1.772385e-001 -7.497838e-002 3.154901e-001 1.628956e-001 -3.720304e-001 -5.836647e-002 4.716109e-001 1.614240e-002 -5.928190e-001 -1.217187e-001 4.563236e-001 2.135770e-001 -1.987525e-001 -3.317885e-002
<VARIANCE> 39
 1.367164e+001 7.327651e+000 8.151030e+000 1.278313e+001 2.554923e+001 3.684498e+001 2.286571e+001 1.409559e+001 2.114489e+001 2.175097e+001 2.171669e+001 2.001433e+001 1.798014e+000 1.014058e-001 5.303636e-001 2.863210e-001 5.429986e-001 8.269450e-001 1.068583e+000 6.446716e-001 1.227377e+000 7.946340e-001 1.339321e+000 7.087340e-001 9.202421e-001 1.774927e-002 1.261449e-002 3.924818e-002 4.750006e-002 7.478737e-002 1.348377e-001 1.497460e-001 1.802727e-001 1.008456e-001 1.705692e-001 1.987166e-001 1.844469e-001 1.461257e-001 1.418500e-003
<GCONST> 6.208995e+001
<MIXTURE> 3 2.057528e-001
<MEAN> 39
 -2.781861e+000 -8.159927e+000 -9.542891e+000 -1.265014e+001 -2.336535e+000 -1.056130e+001 -3.509697e+000 -4.709204e+000 -2.734863e+000 -9.270254e+000 -6.422192e+000 -1.053392e+001 1.859271e+001 -3.392600e-001 1.139888e-001 8.894112e-001 3.237347e-001 -7.643960e-001 -5.697857e-001 4.285806e-001 -7.954775e-003 -7.496734e-001 -4.710997e-001 1.212716e-002 -1.458509e-001 -1.162627e-001 -3.701122e-002 1.623257e-001 5.958773e-002 -4.454608e-002 9.252568e-002 -3.715728e-002 -8.661825e-002 -8.712718e-002 -6.356429e-003 1.173659e-001 1.061074e-001 -2.131706e-002 -2.329368e-002
<VARIANCE> 39
 9.731592e+000 2.995465e+001 1.337824e+001 3.248776e+001 4.147766e+001 1.501995e+001 2.130622e+001 1.655079e+001 5.145479e+001 2.894672e+001 2.487617e+001 3.099121e+001 1.587719e+000 1.742645e-001 5.103102e-001 6.329004e-001 4.754535e-001 5.743805e-001 8.095508e-001 1.012248e+000 9.573653e-001 1.276326e+000 1.361204e+000 8.671781e-001 1.072031e+000 7.863817e-003 1.610063e-002 4.420912e-002 7.923250e-002 4.793932e-002 1.117385e-001 7.746667e-002 1.580103e-001 6.267820e-002 1.947523e-001 1.776681e-001 1.523568e-001 1.795064e-001 1.094250e-003
<GCONST> 6.539286e+001
<STATE> 8
<NUMMIXES> 3
<MIXTURE> 1 2.509888e-001
<MEAN> 39
 4.587216e+000 -1.548582e+001 -4.480257e+000 -1.880446e+000 -1.358803e+001 -7.840082e+000 1.848766e+000 -4.562635e+000 1.109201e-002 -6.627670e+000 -2.628646e+000 -3.635354e+000 1.779248e+001 -6.761303e-001 1.184219e+000 1.758324e+000 2.177815e-001 1.868451e-001 3.513386e-001 9.647603e-001 -6.044112e-001 -1.160982e+000 3.206057e-001 7.605878e-001 1.642022e-001 -4.252045e-001 -2.992965e-001 4.426719e-001 4.305908e-002 -3.325112e-001 5.861018e-001 2.455574e-001 -3.485869e-001 -8.905894e-002 8.596098e-002 2.180084e-001 3.028224e-002 -1.841979e-001 -9.905849e-002
<VARIANCE> 39
 2.058274e+001 1.984322e+001 3.419670e+001 4.068209e+001 6.839917e+001 8.038778e+001 5.411084e+001 4.525478e+001 2.812395e+001 4.109827e+001 3.529057e+001 2.042458e+001 2.714982e+000 8.049877e-001 8.658047e-001 8.659258e-001 1.600562e+000 1.606922e+000 2.385447e+000 1.615546e+000 1.822465e+000 2.404622e+000 2.203743e+000 1.206136e+000 1.133953e+000 5.513131e-002 1.108048e-001 1.884104e-001 1.088385e-001 1.873607e-001 2.268322e-001 3.044288e-001 3.060697e-001 2.525572e-001 2.002078e-001 2.445033e-001 2.026415e-001 1.465630e-001 6.404705e-003
<GCONST> 9.286740e+001
<MIXTURE> 2 3.475596e-001
<MEAN> 39
 -1.283932e+000 -5.487760e+000 1.767091e+000 -7.584144e+000 -8.437349e+000 -6.903275e+000 -2.599782e+000 -8.816027e+000 -3.890282e+000 -6.764577e+000 -5.257369e+000 -9.608439e+000 1.629602e+001 -1.800415e+000 1.842387e+000 9.029894e-001 4.755341e-002 1.317642e+000 -4.551589e-002 -5.160307e-002 -4.322575e-001 -1.738480e-001 4.641035e-001 1.516149e-001 4.895946e-001 -7.497540e-001 -2.896119e-001 -2.366339e-001 -4.880136e-001 -1.046129e-001 1.342983e-001 -3.126567e-002 -5.793621e-002 3.267215e-001 1.551720e-001 4.666625e-002 2.668264e-001 2.606941e-001 -1.013920e-001
<VARIANCE> 39
 2.608832e+001 5.048337e+001 4.781669e+001 7.730803e+001 6.910822e+001 7.590661e+001 5.177730e+001 4.389193e+001 5.340585e+001 6.681019e+001 4.887698e+001 3.409861e+001 3.893822e+000 1.591697e+000 2.575202e+000 1.941565e+000 2.397979e+000 2.020567e+000 2.001168e+000 2.668112e+000 2.678788e+000 2.539417e+000 2.650069e+000 2.330593e+000 2.134301e+000 2.132293e-001 1.741978e-001 4.076549e-001 2.794739e-001 4.427189e-001 4.026677e-001 4.023097e-001 3.525594e-001 3.843334e-001 4.656204e-001 4.636458e-001 3.514672e-001 2.419881e-001 1.895555e-002
<GCONST> 1.120885e+002
<MIXTURE> 3 4.014506e-001
<MEAN> 39
 -3.303860e+000 -1.057278e+001 -2.412718e+000 -1.078987e+001 -7.332077e+000 -8.224022e+000 2.356295e+000 -1.264216e+000 -5.218471e+000 -6.879961e+000 4.233429e-001 -5.698240e+000 1.762141e+001 -8.073580e-001 9.136229e-001 1.368569e+000 -6.421379e-001 -4.607345e-001 1.022788e+000 2.049962e-001 -1.500779e+000 -5.536137e-001 9.043542e-001 3.699248e-002 -5.447842e-001 -2.926573e-001 -3.834797e-002 3.278331e-001 -2.576241e-001 -1.825443e-001 5.527126e-001 -8.336080e-002 -5.823268e-001 -1.407606e-001 4.458561e-001 1.267723e-001 -3.013173e-001 -1.241783e-001 -3.759994e-002
<VARIANCE> 39
 1.405236e+001 3.362085e+001 1.071576e+001 1.579641e+001 3.717955e+001 5.868032e+001 1.927357e+001 2.111276e+001 2.634726e+001 2.680069e+001 2.584849e+001 3.010094e+001 1.961174e+000 2.640449e-001 7.616695e-001 6.281260e-001 9.936518e-001 1.865354e+000 1.702496e+000 1.644222e+000 1.097646e+000 1.495048e+000 1.201775e+000 1.514641e+000 1.220482e+000 3.831931e-002 3.752817e-002 1.371409e-001 6.771914e-002 1.344390e-001 2.465966e-001 2.365920e-001 1.661953e-001 2.219702e-001 2.105561e-001 2.981008e-001 1.634091e-001 1.904535e-001 4.133383e-003
<GCONST> 8.032607e+001
<STATE> 9
<NUMMIXES> 3
<MIXTURE> 1 5.047320e-001
<MEAN> 39
 -6.961453e+000 -4.365031e+000 7.088003e-002 -1.014310e+001 -3.654497e+000 -6.913916e+000 -1.024963e+000 -7.030082e+000 -3.419762e+000 -3.635237e+000 -1.392202e-001 -6.186459e+000 1.425424e+001 -4.962028e-001 8.245429e-001 1.106884e-001 -3.031892e-001 4.217066e-001 -3.397702e-002 -5.834820e-001 -7.428135e-002 4.647693e-001 2.569311e-001 -8.964959e-002 -7.626611e-002 -3.129258e-001 2.765666e-002 -1.819478e-001 -2.243076e-001 1.975521e-002 -2.268172e-002 -1.073771e-001 -4.235896e-003 2.062142e-001 3.455769e-002 -1.173026e-001 -2.596780e-002 7.118886e-002 2.470059e-002
<VARIANCE> 39
 1.684332e+001 3.239783e+001 1.562898e+001 4.315929e+001 2.700274e+001 4.952706e+001 2.516134e+001 2.798117e+001 2.850973e+001 2.427210e+001 2.688242e+001 2.438354e+001 1.230234e+001 4.501385e-001 1.111911e+000 7.754462e-001 1.047300e+000 1.057887e+000 1.466926e+000 1.190407e+000 1.369795e+000 1.208748e+000 1.121646e+000 1.050952e+000 1.091003e+000 2.812106e-002 4.064254e-002 1.017848e-001 1.191504e-001 1.562063e-001 1.374554e-001 2.212664e-001 1.568208e-001 1.783399e-001 1.773381e-001 2.167798e-001 1.654963e-001 1.692146e-001 4.235110e-003
<GCONST> 8.184178e+001
<MIXTURE> 2 2.345967e-001
<MEAN> 39
 -1.289372e+001 -1.336336e+000 -9.294506e-001 -9.301072e+000 -3.547921e+000 -7.828424e+000 -2.506106e+000 -5.147542e+000 -1.501832e+000 -4.094707e+000 -3.126691e-001 -5.253391e+000 1.302972e+001 -1.903384e+000 -6.025773e-002 -8.584239e-001 -4.985496e-001 5.250314e-001 -2.756965e-002 6.519789e-003 4.601834e-001 1.207327e-001 6.393557e-001 8.048772e-001 7.108610e-001 -6.812023e-001 4.995244e-001 -4.784992e-001 -2.494536e-001 -8.856152e-002 -3.968468e-001 -8.953238e-002 -5.904841e-002 -7.424991e-002 -2.622620e-002 -1.214103e-001 -2.000729e-001 -1.756162e-001 1.860950e-001
<VARIANCE> 39
 2.336028e+001 3.040639e+001 2.103299e+001 4.348281e+001 2.521472e+001 3.285926e+001 2.600335e+001 2.389542e+001 2.487616e+001 3.135929e+001 1.486966e+001 2.438005e+001 5.945542e+000 1.648653e+000 2.029143e+000 1.750217e+000 1.809304e+000 2.008922e+000 1.400987e+000 1.464552e+000 1.218523e+000 1.557009e+000 1.549358e+000 1.704055e+000 1.101292e+000 1.696945e-001 1.708214e-001 3.019713e-001 2.626145e-001 3.226770e-001 2.117230e-001 2.317346e-001 2.335116e-001 2.041792e-001 1.915441e-001 2.453548e-001 2.061431e-001 2.003754e-001 2.636326e-002
<GCONST> 9.488777e+001
<MIXTURE> 3 2.606703e-001
<MEAN> 39
 -9.480558e+000 -7.502882e+000 1.459892e+000 -6.321510e+000 -2.175488e+000 -4.326536e+000 8.918568e-001 -7.031522e+000 -2.243351e+000 -2.272087e+000 -1.266579e-001 -4.584603e+000 1.249411e+001 -1.244938e+000 -3.124315e-001 -1.124308e+000 -1.349690e+000 -5.017075e-001 -7.509007e-001 -7.998556e-001 -4.837832e-001 -2.188791e-001 -3.426000e-002 5.058150e-002 -7.122431e-002 -4.794933e-001 3.322876e-001 2.262397e-002 -1.927564e-001 -1.093497e-001 -2.483560e-001 -2.789881e-001 -1.074240e-001 -1.312197e-003 -5.720330e-002 -1.805196e-001 -6.900125e-002 -4.115595e-002 1.108356e-001
<VARIANCE> 39
 1.348375e+001 3.442429e+001 2.420241e+001 6.190561e+001 3.539142e+001 4.925888e+001 3.213905e+001 4.715931e+001 2.975735e+001 2.290789e+001 2.988431e+001 2.251554e+001 5.403275e+000 5.402185e-001 8.680089e-001 1.090939e+000 9.539823e-001 1.252093e+000 1.281379e+000 7.270553e-001 1.065785e+000 9.637679e-001 1.157055e+000 1.197326e+000 7.833341e-001 8.882424e-002 7.228556e-002 2.277050e-001 2.499644e-001 2.816726e-001 2.807183e-001 2.166891e-001 1.560161e-001 1.828022e-001 1.898367e-001 1.459311e-001 1.976246e-001 1.753982e-001 5.560244e-003
<GCONST> 8.650632e+001
<TRANSP> 10
 0.000000e+000 1.000000e+000 0.000000e+000 0.000000e+000 0.000000e+000 0.000000e+000 0.000000e+000 0.000000e+000 0.000000e+000 0.000000e+000
 0.000000e+000 7.457116e-001 2.542884e-001 0.000000e+000 0.000000e+000 0.000000e+000 0.000000e+000 0.000000e+000 0.000000e+000 0.000000e+000
 0.000000e+000 0.000000e+000 4.549081e-001 5.450920e-001 0.000000e+000 0.000000e+000 0.000000e+000 0.000000e+000 0.000000e+000 0.000000e+000
 0.000000e+000 0.000000e+000 0.000000e+000 7.334169e-001 2.665832e-001 0.000000e+000 0.000000e+000 0.000000e+000 0.000000e+000 0.000000e+000
 0.000000e+000 0.000000e+000 0.000000e+000 0.000000e+000 8.429025e-001 1.570974e-001 0.000000e+000 0.000000e+000 0.000000e+000 0.000000e+000
 0.000000e+000 0.000000e+000 0.000000e+000 0.000000e+000 0.000000e+000 7.327744e-001 2.672255e-001 0.000000e+000 0.000000e+000 0.000000e+000
 0.000000e+000 0.000000e+000 0.000000e+000 0.000000e+000 0.000000e+000 0.000000e+000 7.286541e-001 2.713459e-001 0.000000e+000 0.000000e+000
 0.000000e+000 0.000000e+000 0.000000e+000 0.000000e+000 0.000000e+000 0.000000e+000 0.000000e+000 7.750577e-001 2.249423e-001 0.000000e+000
 0.000000e+000 0.000000e+000 0.000000e+000 0.000000e+000 0.000000e+000 0.000000e+000 0.000000e+000 0.000000e+000 7.801249e-001 2.198751e-001
 0.000000e+000 0.000000e+000 0.000000e+000 0.000000e+000 0.000000e+000 0.000000e+000 0.000000e+000 0.000000e+000 0.000000e+000 0.000000e+000
<ENDHMM>
~h "seven"
<BEGINHMM>
<NUMSTATES> 10
<STATE> 2
<NUMMIXES> 3
<MIXTURE> 1 2.070782e-001
<MEAN> 39
 -1.575161e+001 -3.342694e+000 -7.210309e+000 -1.282284e+001 -7.051112e+000 -8.297162e+000 -5.693485e+000 -5.236840e+000 -1.471834e+000 -2.975341e+000 -2.590778e+000 -4.358580e+000 1.401535e+001 1.051132e+000 2.494103e-001 9.521269e-001 -7.159723e-003 4.352411e-002 -2.629577e-001 1.079093e+000 4.327340e-001 1.225251e-001 7.467812e-001 -9.375219e-003 1.151273e-001 3.615761e-001 5.629901e-001 4.609193e-002 3.101843e-001 -1.392249e-001 -3.116300e-001 -1.571541e-001 4.832098e-001 1.590390e-001 -2.523015e-001 3.009617e-001 -4.105612e-002 -2.427067e-001 2.360488e-001
<VARIANCE> 39
 8.015806e+000 9.270929e+000 1.474642e+001 2.352418e+001 1.698927e+001 2.565819e+001 2.245265e+001 1.623123e+001 1.492639e+001 1.760332e+001 1.664231e+001 1.825301e+001 2.469166e+000 4.084373e-001 3.196529e-001 4.403496e-001 5.386879e-001 5.634757e-001 4.897859e-001 7.550107e-001 9.744205e-001 7.370177e-001 9.137798e-001 8.127750e-001 6.244289e-001 5.980967e-002 6.263949e-002 8.223803e-002 1.255902e-001 1.149464e-001 1.390496e-001 1.378429e-001 1.470834e-001 1.692495e-001 1.606323e-001 1.755983e-001 1.391906e-001 1.567639e-001 5.398151e-003
<GCONST> 6.727345e+001
<MIXTURE> 2 4.475572e-001
<MEAN> 39
 -1.901237e+001 -5.418827e+000 -8.292430e+000 -8.072648e+000 -6.954862e+000 -5.241652e+000 -3.912774e+000 -4.208124e+000 5.999900e-001 -3.519051e+000 -2.449727e-001 -4.194183e+000 1.173988e+001 1.046885e-002 -1.895094e-001 -1.842569e-001 5.781415e-002 4.915761e-002 1.147487e-001 4.457917e-002 -1.662617e-001 1.423716e-002 -2.112052e-002 2.494901e-002 9.954217e-002 7.220738e-002 3.174907e-001 1.812342e-001 2.514303e-001 -9.034000e-002 5.003284e-002 -8.031162e-002 5.632038e-002 -8.205295e-002 -1.170009e-002 -5.721005e-002 -5.710399e-002 -1.415653e-002 5.210376e-002
<VARIANCE> 39
 6.467683e+000 2.492467e+001 1.118353e+001 2.048764e+001 1.614790e+001 2.114870e+001 1.850697e+001 1.914494e+001 2.117475e+001 2.687640e+001 2.088136e+001 1.621949e+001 2.449023e+000 2.214672e-001 3.720857e-001 4.173004e-001 4.645217e-001 5.858288e-001 5.893978e-001 5.663835e-001 5.637474e-001 7.801871e-001 8.168451e-001 7.553625e-001 6.499922e-001 3.034959e-002 7.450785e-002 9.547094e-002 7.804493e-002 9.397512e-002 1.154908e-001 1.197795e-001 1.100994e-001 9.391855e-002 1.334774e-001 1.501487e-001 1.413092e-001 1.102871e-001 1.325255e-002
<GCONST> 6.485551e+001
<MIXTURE> 3 3.453636e-001
<MEAN> 39
 -1.389675e+001 -5.320052e+000 -5.499844e+000 -1.587300e+001 -3.786967e+000 -1.225282e+001 -5.397718e+000 -5.208924e+000 -7.741684e-001 -5.006078e+000 -1.727501e-001 -5.945234e+000 1.382657e+001 9.598030e-001 5.422304e-001 3.522665e-001 -2.193926e-001 -1.848859e-001 4.770374e-001 8.221433e-001 -2.976985e-001 3.494782e-001 -5.160558e-001 -3.761632e-001 -8.000692e-002 4.548630e-001 4.648235e-001 1.064799e-001 7.897776e-002 -2.297463e-001 -1.356208e-001 3.590934e-001 3.962018e-001 -2.259991e-001 1.055870e-001 -2.835580e-001 -2.850346e-001 -1.248620e-001 2.159062e-001
<VARIANCE> 39
 4.077803e+000 4.299370e+000 6.434273e+000 1.658829e+001 9.485264e+000 1.162399e+001 1.456569e+001 1.687461e+001 1.652373e+001 1.705286e+001 1.958889e+001 1.566211e+001 3.105359e+000 5.196218e-001 3.031984e-001 3.311271e-001 4.573500e-001 6.996412e-001 5.702375e-001 9.352979e-001 7.723018e-001 9.077558e-001 1.041763e+000 9.357976e-001 6.041406e-001 8.128899e-002 5.139244e-002 5.910140e-002 5.601212e-002 9.898887e-002 1.025432e-001 1.088446e-001 1.535388e-001 1.372768e-001 1.344577e-001 2.057904e-001 1.992081e-001 1.842541e-001 7.066830e-003
<GCONST> 6.261250e+001
<STATE> 3
<NUMMIXES> 3
<MIXTURE> 1 3.496990e-001
<MEAN> 39
 -1.729489e+001 -3.780320e+000 -6.854791e+000 -9.475164e+000 -6.511969e+000 -4.829226e+000 -2.472010e+000 -5.908911e+000 4.987007e-001 -2.158152e+000 -2.462260e+000 -3.581308e+000 1.231829e+001 2.676051e+000 5.071443e-001 1.260336e+000 -1.173592e+000 -7.669025e-001 -8.008493e-001 1.158049e+000 1.276892e-001 -4.481153e-001 4.637579e-001 -3.458620e-001 -4.028921e-001 9.650333e-001 4.949245e-001 -1.553976e-001 5.834454e-002 -3.986104e-001 -3.051590e-001 -1.559864e-001 2.617741e-001 3.435987e-002 -2.123556e-001 -1.063803e-001 -1.732307e-001 -3.092017e-001 2.919921e-001
<VARIANCE> 39
 8.426341e+000 1.496424e+001 1.289328e+001 2.481587e+001 2.108451e+001 2.336938e+001 2.299122e+001 1.708638e+001 2.223850e+001 5.822864e+001 2.476826e+001 2.130643e+001 1.815558e+000 5.771369e-001 1.101282e+000 6.683854e-001 9.320079e-001 5.864993e-001 1.158728e+000 1.381844e+000 1.203773e+000 1.438169e+000 1.780078e+000 6.157879e-001 7.838505e-001 9.885550e-002 1.553558e-001 1.080295e-001 1.267428e-001 1.720910e-001 1.135665e-001 1.948518e-001 1.568399e-001 1.702345e-001 2.745472e-001 2.497681e-001 1.792518e-001 1.462550e-001 9.094883e-003
<GCONST> 7.921263e+001
<MIXTURE> 2 4.304662e-001
<MEAN> 39
 -8.301704e+000 -7.342887e-001 -8.535653e-001 -1.412322e+001 -5.452966e+000 -9.715470e+000 -5.064371e-001 -4.133396e+000 -8.741376e-001 -2.183260e+000 -1.559437e+000 -5.905011e+000 1.652642e+001 1.852332e+000 -7.117399e-003 5.782967e-001 -7.319669e-001 -9.734052e-001 4.636358e-001 2.047303e+000 2.639622e-002 -2.457272e-001 1.632097e-001 -5.949707e-001 -5.826178e-001 9.187229e-001 -2.065900e-001 -3.379768e-001 -3.806406e-001 -1.053730e-001 -3.678232e-002 2.881746e-001 1.129233e-001 -6.864475e-002 -2.007813e-001 -2.388026e-001 -1.502031e-001 -5.812331e-002 2.282088e-002
<VARIANCE> 39
 1.213557e+001 7.376713e+000 6.861016e+000 1.989013e+001 2.011320e+001 1.358873e+001 1.542761e+001 2.000459e+001 1.815557e+001 3.691661e+001 1.652813e+001 1.144355e+001 2.186485e+000 6.658997e-001 5.507190e-001 6.575243e-001 1.066591e+000 9.703041e-001 2.159856e+000 1.375723e+000 1.686599e+000 1.753986e+000 1.979682e+000 1.124422e+000 1.480166e+000 9.658356e-002 5.834404e-002 5.102000e-002 6.294472e-002 6.735358e-002 1.562105e-001 1.123583e-001 1.205201e-001 1.308298e-001 1.563774e-001 1.981413e-001 1.745693e-001 1.682576e-001 4.667071e-003
<GCONST> 7.276163e+001
<MIXTURE> 3 2.198343e-001
<MEAN> 39
 -1.241920e+001 -3.443932e+000 -4.799323e+000 -1.163230e+001 -3.180987e+000 -8.207586e+000 -4.013487e+000 -5.484948e+000 7.714511e-001 -8.834331e+000 1.330273e+000 -5.623800e+000 1.351829e+001 2.537230e+000 6.596276e-001 1.280766e-001 -1.948542e+000 -7.927300e-001 8.703891e-001 8.698792e-001 -1.603386e+000 8.340375e-001 -2.070139e+000 -1.661411e+000 -1.203557e+000 1.300530e+000 -8.587782e-003 -3.965597e-001 -1.511455e-001 -2.543449e-001 1.521782e-001 4.495192e-001 2.081057e-001 -2.155683e-001 1.236178e-001 -2.046601e-001 -1.243207e-001 -1.703855e-001 1.323406e-001
<VARIANCE> 39
 1.636198e+001 1.356229e+001 1.061046e+001 1.695437e+001 1.483192e+001 1.681555e+001 1.973762e+001 2.064522e+001 2.185978e+001 1.615080e+001 1.672446e+001 1.687955e+001 4.357681e+000 4.550266e-001 5.046696e-001 3.198417e-001 7.854823e-001 6.806624e-001 8.293971e-001 6.172266e-001 7.843604e-001 9.139805e-001 1.191367e+000 1.134972e+000 8.796423e-001 9.122121e-002 1.393068e-001 6.968969e-002 6.528389e-002 1.269388e-001 1.348418e-001 7.193612e-002 1.300599e-001 1.218503e-001 1.641134e-001 1.639637e-001 2.614992e-001 1.670906e-001 1.697809e-002
<GCONST> 7.129185e+001
<STATE> 4
<NUMMIXES> 3
<MIXTURE> 1 4.935231e-001
<MEAN> 39
 -4.238445e+000 -3.860486e+000 -4.620090e+000 -2.098623e+001 -5.427771e+000 -3.980220e+000 1.089473e+000 -1.148086e+001 3.698410e+000 -1.474874e+001 -4.483983e+000 -8.925735e+000 1.822275e+001 7.124106e-001 -8.453510e-001 -3.731452e-001 -6.734744e-001 9.458768e-001 2.003574e+000 1.165293e+000 -9.380690e-001 3.386676e-001 -8.965037e-001 -1.318665e-001 1.822096e-001 7.321902e-001 -6.235763e-001 -3.146460e-001 -8.191770e-002 5.161943e-001 4.138595e-001 -7.559396e-002 -2.156217e-001 2.490530e-001 -2.613690e-001 5.360779e-001 3.480994e-001 3.368892e-001 -2.405533e-001
<VARIANCE> 39
 7.951308e+000 1.115049e+001 8.034345e+000 1.068408e+001 2.273027e+001 2.368592e+001 1.820953e+001 1.518413e+001 1.847344e+001 2.685976e+001 3.100737e+001 3.056926e+001 1.081379e+000 1.150792e+000 5.468753e-001 3.679025e-001 1.139454e+000 1.093837e+000 5.697647e-001 8.433717e-001 6.995882e-001 9.644768e-001 1.683563e+000 1.167326e+000 1.473097e+000 1.603216e-001 7.307284e-002 9.043176e-002 6.145307e-002 1.061912e-001 1.426842e-001 1.760390e-001 1.044218e-001 1.085302e-001 1.261832e-001 1.532447e-001 1.658688e-001 1.473487e-001 9.743109e-003
<GCONST> 7.202392e+001
<MIXTURE> 2 2.514016e-001
<MEAN> 39
 -5.460200e+000 -3.067717e+000 -1.717672e+000 -1.543251e+001 -1.257984e+001 -1.142524e+001 5.505632e+000 -2.987356e+000 -3.603070e+000 3.609645e+000 -4.126236e+000 -7.786929e+000 1.841235e+001 1.216857e+000 -7.300945e-001 -4.731255e-002 -8.280248e-001 -1.073231e+000 2.536672e-001 2.122776e+000 2.595841e-001 -1.007704e+000 -1.125226e-001 -9.245175e-001 -9.233519e-001 8.525791e-001 -5.300553e-001 -2.912249e-001 -4.556430e-001 4.077667e-002 3.207574e-001 3.399618e-001 -3.929932e-001 -1.428243e-001 -1.208242e-001 -6.506138e-001 3.366328e-002 8.330925e-002 -1.616337e-001
<VARIANCE> 39
 6.620101e+000 7.615649e+000 1.099699e+001 1.693592e+001 7.127832e+000 1.917095e+001 1.908897e+001 2.176500e+001 1.656275e+001 1.035713e+001 1.460147e+001 2.174267e+001 1.446677e+000 8.696376e-001 4.228708e-001 5.932331e-001 1.389977e+000 8.402664e-001 1.731303e+000 1.023378e+000 1.350523e+000 1.303006e+000 9.713412e-001 1.089194e+000 1.056934e+000 1.734236e-001 7.788309e-002 6.351344e-002 8.836010e-002 7.804549e-002 6.959621e-002 1.924330e-001 1.486103e-001 1.329823e-001 1.815248e-001 1.326553e-001 1.119544e-001 1.108678e-001 4.912013e-003
<GCONST> 6.922109e+001
<MIXTURE> 3 2.550747e-001
<MEAN> 39
 -5.298206e+000 -5.223467e+000 -2.947007e+000 -1.765662e+001 -1.439057e+001 -9.863792e+000 4.928335e+000 -2.979709e+000 -6.705126e+000 1.063515e+000 -7.168397e+000 -1.013220e+001 1.905109e+001 3.628691e-001 -1.249063e+000 -7.789457e-001 -9.424235e-001 -5.993107e-001 5.333205e-001 1.001814e+000 4.153305e-002 -1.465466e+000 -1.348366e+000 -9.250151e-001 -1.146136e+000 6.036171e-001 -6.176271e-001 -4.757463e-002 -3.199481e-001 3.902063e-001 5.617856e-001 3.631520e-001 -4.454135e-001 -6.893359e-002 1.333090e-001 -4.586647e-001 3.117796e-001 2.665561e-001 -2.825327e-001
<VARIANCE> 39
 6.606197e+000 1.029282e+001 8.797333e+000 2.251355e+001 9.600184e+000 1.880877e+001 1.819676e+001 3.470742e+001 2.773246e+001 1.589976e+001 2.674931e+001 2.261156e+001 1.267716e+000 8.229678e-001 3.965431e-001 5.405949e-001 9.644234e-001 9.141142e-001 1.170004e+000 7.177665e-001 1.229876e+000 1.214598e+000 9.853292e-001 1.234298e+000 8.112336e-001 1.164671e-001 7.761645e-002 7.151429e-002 8.756189e-002 1.459088e-001 8.500841e-002 1.626410e-001 1.606615e-001 2.004307e-001 1.812668e-001 1.039239e-001 1.392803e-001 1.082199e-001 5.987384e-003
<GCONST> 7.120699e+001
<STATE> 5
<NUMMIXES> 3
<MIXTURE> 1 4.958749e-001
<MEAN> 39
 -6.816710e+000 -8.399073e+000 -5.868460e+000 -1.728915e+001 1.485496e+000 1.079764e+000 2.078128e+000 -1.291056e+001 2.293311e+000 -1.228123e+001 -2.004213e+000 -4.794683e+000 1.861593e+001 1.748799e-002 -3.890380e-001 2.393930e-001 5.851550e-001 1.373485e-001 6.262656e-002 3.897597e-001 -2.163251e-001 -3.720215e-001 8.787233e-001 -3.025031e-001 5.948727e-001 -3.905991e-002 1.194613e-001 3.175945e-001 2.726980e-001 1.272174e-001 -4.723473e-001 -5.634478e-001 -2.127554e-002 2.120424e-001 -1.238452e-001 2.894967e-001 -1.992922e-001 -1.767122e-001 -1.178902e-001
<VARIANCE> 39
 8.826989e+000 1.138405e+001 6.085379e+000 1.330289e+001 1.839263e+001 9.215844e+000 2.044450e+001 1.584556e+001 1.934839e+001 3.363365e+001 2.779752e+001 2.807481e+001 1.439319e+000 2.538175e-001 4.323701e-001 3.465785e-001 3.744762e-001 1.466053e+000 1.015038e+000 5.868662e-001 5.455995e-001 6.498980e-001 7.960268e-001 9.054869e-001 5.754038e-001 2.130147e-002 5.301098e-002 5.288044e-002 6.949664e-002 1.128750e-001 1.212506e-001 1.079150e-001 1.161702e-001 1.128546e-001 1.112231e-001 1.807769e-001 1.296990e-001 1.152664e-001 5.855263e-003
<GCONST> 6.229812e+001
<MIXTURE> 2 2.883239e-001
<MEAN> 39
 -7.141612e+000 -9.032237e+000 -5.907063e+000 -1.613185e+001 -8.569786e+000 -4.614034e+000 7.370851e+000 -4.168332e+000 -9.526879e+000 -5.514435e+000 -4.456348e+000 -9.163550e+000 1.933208e+001 2.402701e-001 -2.298475e-001 -1.122586e-001 5.642979e-001 1.964098e-001 -4.462575e-001 -4.860028e-001 1.135736e+000 -3.164450e-001 -6.312539e-001 1.058419e+000 -3.607842e-001 -6.771498e-002 1.497669e-001 3.278045e-001 2.146897e-001 1.927036e-001 -1.018974e-001 -5.891039e-001 -4.504691e-001 3.174932e-001 3.781643e-001 1.074916e-001 1.780628e-001 6.973567e-002 -8.776977e-002
<VARIANCE> 39
 6.058843e+000 1.277784e+001 8.929463e+000 1.855597e+001 1.454833e+001 2.207606e+001 1.475400e+001 2.633390e+001 2.083737e+001 2.136323e+001 2.943520e+001 2.456329e+001 1.339301e+000 1.062549e-001 2.399990e-001 1.603845e-001 3.798577e-001 6.218084e-001 8.158913e-001 7.010521e-001 7.176758e-001 8.158919e-001 7.760395e-001 5.642770e-001 5.983272e-001 7.813596e-003 2.087521e-002 3.455130e-002 5.971057e-002 8.929747e-002 1.126813e-001 1.007487e-001 1.637666e-001 1.069756e-001 1.016825e-001 1.134545e-001 1.327719e-001 1.246792e-001 3.151444e-003
<GCONST> 5.630291e+001
<MIXTURE> 3 2.158009e-001
<MEAN> 39
 -7.268124e+000 -6.750021e+000 -5.775564e+000 -1.787062e+001 -1.083313e+001 -5.998991e+000 7.791317e+000 -5.086757e+000 -7.119902e+000 -3.971660e+000 -7.615573e+000 -9.010707e+000 1.939874e+001 -2.418585e-001 -8.780814e-001 -6.903700e-001 1.044813e-001 7.511860e-001 1.075092e+000 3.229820e-001 -5.551745e-002 -9.593128e-001 -1.373261e+000 2.095922e-001 -6.325326e-002 9.294885e-002 -3.438621e-002 1.886085e-001 1.896497e-001 3.352851e-001 2.605622e-001 -2.641581e-001 -5.312357e-001 2.227768e-001 2.228884e-001 9.368466e-002 5.395158e-001 1.717236e-001 -1.583323e-001
<VARIANCE> 39
 5.986262e+000 1.220301e+001 1.058171e+001 2.390438e+001 1.296249e+001 2.103540e+001 1.918951e+001 3.510503e+001 3.023450e+001 2.260065e+001 2.562739e+001 2.320973e+001 1.313045e+000 1.203080e-001 2.170065e-001 2.839576e-001 3.583198e-001 5.394138e-001 8.736764e-001 8.019569e-001 7.835648e-001 7.738926e-001 8.141534e-001 7.099079e-001 6.971257e-001 1.459043e-002 5.498939e-002 4.890974e-002 3.877808e-002 1.020855e-001 1.336233e-001 1.746977e-001 1.614259e-001 1.560952e-001 1.579233e-001 1.276443e-001 1.371725e-001 1.494558e-001 8.291486e-003
<GCONST> 6.279701e+001
<STATE> 6
<NUMMIXES> 3
<MIXTURE> 1 3.929999e-001
<MEAN> 39
 -4.414494e+000 -7.100832e+000 -2.532514e+000 -1.571421e+001 -3.763129e+000 -2.776038e+000 5.778355e+000 -1.222012e+001 4.780084e-002 -6.678139e+000 -6.307155e+000 -3.831374e+000 1.785356e+001 3.657261e-001 1.370348e+000 1.635218e+000 1.588477e+000 -9.071677e-001 -2.065468e+000 -1.401015e-001 1.331386e+000 -8.474864e-001 1.582242e+000 -1.958226e-001 -6.244813e-001 -5.351814e-001 -1.347303e-001 2.826663e-001 9.751190e-002 1.711286e-001 2.556971e-001 -1.230980e-001 -4.531365e-001 2.028882e-001 6.360281e-002 -2.832599e-001 2.761133e-001 -2.927076e-001 -6.480080e-002
<VARIANCE> 39
 8.442481e+000 1.430582e+001 1.215999e+001 1.809487e+001 1.737904e+001 1.681198e+001 1.720291e+001 2.733806e+001 2.609985e+001 3.548220e+001 1.966628e+001 2.274850e+001 1.681983e+000 5.479146e-001 7.374094e-001 9.898919e-001 8.124919e-001 8.493862e-001 9.262728e-001 1.139830e+000 1.152270e+000 9.839042e-001 1.528669e+000 1.277959e+000 9.486016e-001 4.132633e-002 3.522075e-002 1.255592e-001 1.460227e-001 1.508031e-001 1.174728e-001 2.245654e-001 1.324116e-001 1.622398e-001 1.178574e-001 2.195739e-001 1.055882e-001 1.115814e-001 1.030682e-002
<GCONST> 7.409009e+001
<MIXTURE> 2 2.990470e-001
<MEAN> 39
 -5.504407e+000 -8.202009e+000 -5.312997e+000 -1.483897e+001 -1.094945e+001 -8.214460e+000 5.565522e+000 5.791123e-001 -9.875704e+000 -4.971796e+000 -2.514917e+000 -1.106224e+001 1.885922e+001 4.540644e-001 7.269263e-001 5.950319e-001 1.355871e+000 4.584155e-001 -1.828445e+000 -2.135641e+000 1.312748e+000 8.374546e-001 -9.184295e-001 1.382363e+000 2.075667e-001 -3.838541e-001 -3.369778e-002 3.217380e-001 2.592941e-001 1.762204e-001 2.978202e-001 -1.782183e-001 -5.044034e-001 -4.019379e-001 4.153163e-001 -5.958249e-003 -1.033618e-001 2.993173e-001 -1.189997e-001
<VARIANCE> 39
 7.531475e+000 8.845791e+000 1.108681e+001 1.352072e+001 1.928512e+001 2.241857e+001 1.774094e+001 2.458085e+001 2.363234e+001 2.106414e+001 1.693009e+001 1.541856e+001 1.565364e+000 3.155312e-001 5.165137e-001 5.824537e-001 8.073573e-001 1.054002e+000 1.261096e+000 1.101563e+000 9.679888e-001 1.077617e+000 7.137681e-001 7.745092e-001 9.106538e-001 3.501435e-002 4.938894e-002 4.656238e-002 7.507621e-002 1.166783e-001 1.659576e-001 1.628300e-001 1.470358e-001 1.092340e-001 1.323890e-001 9.884612e-002 9.397916e-002 8.562159e-002 5.398679e-003
<GCONST> 6.613753e+001
<MIXTURE> 3 3.079518e-001
<MEAN> 39
 -4.067444e+000 -6.180830e+000 -4.537237e+000 -1.091586e+001 -9.008807e+000 -1.374648e+001 -1.412922e+000 4.743631e+000 -5.625486e+000 -9.021623e+000 1.394428e+000 -9.123678e+000 1.788039e+001 2.364816e-001 1.058632e+000 8.976206e-001 1.051560e+000 8.320414e-001 -1.403834e+000 -2.355881e+000 -1.262460e-001 1.304114e+000 -4.722263e-001 4.641460e-001 5.712605e-001 -5.148261e-001 -1.662984e-001 -1.231671e-002 3.531095e-002 -2.197107e-001 6.593508e-002 4.417084e-001 3.114072e-001 -6.248023e-001 -1.331296e-001 3.170711e-001 -3.438386e-001 3.712175e-002 8.474859e-003
<VARIANCE> 39
 1.122541e+001 6.666345e+000 1.447264e+001 1.519841e+001 1.804721e+001 2.033300e+001 3.434605e+001 2.119781e+001 2.793076e+001 2.331750e+001 9.089526e+000 1.351872e+001 1.519062e+000 4.709836e-001 4.042417e-001 8.430631e-001 9.349144e-001 1.475445e+000 8.017079e-001 1.109165e+000 1.318886e+000 1.009050e+000 9.445735e-001 9.177923e-001 9.018547e-001 5.103074e-002 2.307809e-002 4.532385e-002 8.934355e-002 7.193501e-002 9.132133e-002 1.686486e-001 2.255867e-001 1.101591e-001 1.682859e-001 9.433325e-002 9.778011e-002 7.888138e-002 8.389581e-003
<GCONST> 6.746212e+001
<STATE> 7
<NUMMIXES> 3
<MIXTURE> 1 4.890585e-001
<MEAN> 39
 -4.315881e+000 -4.788891e+000 -2.486255e+000 -1.262844e+001 -7.676265e+000 -6.071935e+000 -3.192371e-001 -7.415818e+000 -4.047493e+000 -8.046215e+000 -3.635224e+000 -9.532763e+000 1.749152e+001 1.617793e-001 4.043664e-001 2.215077e-001 -5.114525e-001 4.534607e-001 3.681440e-001 -2.144244e-001 -6.418056e-001 9.090853e-002 1.330612e-001 -3.370131e-001 -7.566120e-002 1.230566e-001 5.623394e-002 3.420463e-001 3.611165e-001 1.202005e-001 3.691457e-001 -5.347679e-001 -2.830039e-001 1.384455e-001 1.058747e-001 7.427333e-002 -5.341800e-002 4.279131e-002 -7.841247e-002
<VARIANCE> 39
 9.561862e+000 1.036471e+001 1.078201e+001 1.967749e+001 2.975868e+001 4.166993e+001 3.609244e+001 6.909476e+001 4.746040e+001 6.083827e+001 3.525512e+001 2.845101e+001 1.589549e+000 3.900936e-001 9.202808e-001 1.491595e+000 9.492279e-001 1.679512e+000 2.692547e+000 2.355354e+000 1.522453e+000 1.736358e+000 2.169912e+000 1.489180e+000 9.151276e-001 7.021924e-002 5.705477e-002 7.746638e-002 9.283006e-002 1.314251e-001 2.344415e-001 3.106019e-001 2.732469e-001 2.463292e-001 2.327632e-001 2.571126e-001 1.915935e-001 1.551131e-001 5.633120e-003
<GCONST> 8.634949e+001
<MIXTURE> 2 3.302844e-001
<MEAN> 39
 -5.578576e+000 -1.572089e+000 8.765814e-001 -9.631642e+000 -2.925740e+000 -1.226732e+001 -3.017040e+000 -3.020997e+000 -1.140437e+000 -5.150281e+000 -9.154093e-001 -6.549875e+000 1.584515e+001 -1.438493e-001 6.404570e-001 5.000036e-001 4.673226e-001 4.123495e-001 -3.213880e-001 -7.519757e-001 -1.313087e-001 2.015310e-001 7.437736e-002 3.974564e-002 -1.271510e-001 -2.385848e-001 4.161366e-002 -3.603366e-001 -3.900650e-001 -4.266213e-001 -2.441867e-001 5.455697e-001 5.103751e-001 -2.032123e-001 -1.980867e-001 -1.124330e-001 -1.756276e-001 -8.750480e-002 1.773152e-001
<VARIANCE> 39
 1.487827e+001 8.632074e+000 1.995466e+001 2.217488e+001 2.241416e+001 2.568558e+001 4.064949e+001 3.168048e+001 2.542185e+001 2.930373e+001 2.057890e+001 2.126687e+001 1.753634e+000 2.892073e-001 6.039161e-001 6.779120e-001 9.931832e-001 1.107764e+000 1.320935e+000 1.517356e+000 1.458384e+000 9.724711e-001 1.003538e+000 7.769574e-001 1.006776e+000 8.228211e-002 7.693367e-002 8.598440e-002 1.488998e-001 2.074709e-001 2.162886e-001 1.738116e-001 3.383981e-001 3.003381e-001 2.849016e-001 3.774424e-001 1.754937e-001 1.752650e-001 1.025788e-002
<GCONST> 8.131041e+001
<MIXTURE> 3 1.806552e-001
<MEAN> 39
 -4.081026e+000 -1.879459e+000 1.530865e+000 -8.325294e+000 -5.923284e+000 -1.204771e+001 -3.074708e+000 -5.762908e+000 -4.347253e+000 -8.901862e+000 -5.121928e+000 -1.036205e+001 1.587985e+001 2.619408e-002 -3.363857e-001 -5.820203e-001 -8.153358e-001 -4.532582e-001 9.019386e-001 3.800758e-001 -7.119044e-001 -3.693184e-001 -3.935416e-001 -4.639117e-001 -3.962096e-001 2.195611e-001 -1.052034e-002 -3.691906e-001 -4.221861e-001 -4.886070e-001 -5.464377e-002 5.770165e-001 3.231239e-001 -2.607884e-001 4.830531e-002 -4.460458e-002 9.514966e-003 1.321348e-001 1.847251e-001
<VARIANCE> 39
 1.394877e+001 1.340109e+001 1.901726e+001 2.801458e+001 2.555383e+001 2.998420e+001 3.076623e+001 4.627911e+001 3.250240e+001 3.044157e+001 4.279762e+001 2.518878e+001 1.250627e+000 3.592124e-001 7.714199e-001 8.772613e-001 1.312076e+000 7.182418e-001 1.434683e+000 1.719805e+000 1.065364e+000 1.090078e+000 2.637887e+000 1.084857e+000 9.095517e-001 7.854803e-002 1.014683e-001 1.635556e-001 1.964215e-001 3.005742e-001 1.854042e-001 3.155157e-001 2.889705e-001 2.402863e-001 2.388303e-001 3.607986e-001 2.436445e-001 1.731682e-001 1.037580e-002
<GCONST> 8.656433e+001
<STATE> 8
<NUMMIXES> 3
<MIXTURE> 1 2.214024e-001
<MEAN> 39
 -7.186036e-001 2.022864e+000 3.185889e+000 -1.424401e+001 7.589202e-001 -1.208583e+001 -2.597299e+000 -6.029674e+000 -4.508449e-001 -4.896444e+000 -3.449705e+000 -4.240277e+000 1.712159e+001 5.995682e-001 9.195184e-001 7.722914e-001 -6.620653e-002 1.413614e+000 -1.667555e+000 -2.141490e-001 1.365277e-001 3.070758e-001 -4.726866e-002 -2.412421e-001 2.386458e-001 -1.059607e-001 -1.029043e-001 -1.567462e-001 -7.798787e-002 2.607992e-001 -3.186074e-001 2.883274e-001 1.079862e-001 2.885442e-002 -8.883651e-002 -2.333671e-003 8.551043e-002 -1.029659e-001 -3.729936e-002
<VARIANCE> 39
 1.525771e+001 1.687616e+001 2.641074e+001 2.291745e+001 3.298081e+001 1.054595e+002 4.339967e+001 2.524932e+001 7.704694e+001 8.189784e+001 6.737076e+001 3.554121e+001 1.816420e+000 2.059658e-001 4.858750e-001 1.037098e+000 1.000922e+000 2.581659e+000 2.502930e+000 1.105471e+000 1.070375e+000 1.235668e+000 1.386730e+000 1.244948e+000 1.015004e+000 1.433833e-002 5.590473e-002 7.147584e-002 1.612636e-001 1.288842e-001 2.611299e-001 4.799335e-001 2.400750e-001 1.397637e-001 1.811156e-001 2.436722e-001 2.213765e-001 1.069516e-001 4.613660e-003
<GCONST> 8.510236e+001
<MIXTURE> 2 3.051706e-001
<MEAN> 39
 -3.403600e+000 2.357578e+000 2.747709e+000 -1.347826e+001 -1.386487e+000 -1.256821e+001 -7.599641e+000 -1.083757e+001 -5.675946e+000 -1.237059e+001 -1.031176e+001 -1.517882e+001 1.734421e+001 -6.064939e-002 3.937370e-001 3.726892e-001 2.493614e-001 2.555064e-001 -3.062632e-001 -2.931728e-001 -1.324542e-001 -2.228694e-001 1.983114e-001 -1.930857e-002 -1.535203e-001 -1.030515e-001 -1.452480e-001 -1.856004e-001 -1.693097e-001 1.044161e-002 -6.067483e-002 2.465343e-001 1.606665e-001 2.044423e-002 9.710342e-002 1.210873e-001 2.272887e-001 2.439060e-001 -6.005979e-002
<VARIANCE> 39
 1.594648e+001 8.641279e+000 1.192778e+001 1.567625e+001 2.060800e+001 2.981001e+001 2.317264e+001 3.666084e+001 3.482849e+001 5.299859e+001 4.911387e+001 3.832478e+001 1.301230e+000 2.888660e-001 6.475463e-001 5.702156e-001 4.441201e-001 8.234495e-001 1.553195e+000 9.245162e-001 1.233126e+000 1.256552e+000 1.097934e+000 1.265201e+000 1.053141e+000 2.717206e-002 2.891495e-002 7.331637e-002 8.416543e-002 8.569948e-002 1.008881e-001 1.642698e-001 1.358260e-001 1.778574e-001 1.885761e-001 2.027864e-001 2.021828e-001 1.368278e-001 3.288817e-003
<GCONST> 7.317400e+001
<MIXTURE> 3 4.734260e-001
<MEAN> 39
 -6.692637e+000 3.637332e-001 1.186959e+000 -1.248516e+001 -6.093068e-001 -9.329241e+000 -1.476537e+000 -4.314074e+000 -1.256871e+000 -4.276258e+000 -1.233582e+000 -6.879691e+000 1.656062e+001 -1.474579e-001 2.326308e-001 2.435493e-001 3.158902e-002 3.237170e-001 -3.394981e-002 -2.998385e-001 -9.170959e-002 8.417752e-003 6.667105e-003 -1.050614e-001 -6.978615e-002 -8.165945e-002 -5.307644e-002 -1.122388e-001 -1.121204e-001 -4.582706e-002 -7.615505e-002 2.189025e-002 3.011978e-002 -5.256735e-003 -2.176533e-002 -4.188457e-002 -3.291100e-003 -4.327450e-002 -5.997423e-003
<VARIANCE> 39
 1.017534e+001 7.634241e+000 1.022335e+001 1.210598e+001 1.822969e+001 2.531845e+001 1.772097e+001 1.962141e+001 2.112745e+001 2.536070e+001 2.201783e+001 1.570515e+001 1.941089e+000 1.831330e-001 3.657532e-001 4.385898e-001 4.532160e-001 7.196490e-001 1.003668e+000 8.741593e-001 7.594760e-001 6.916861e-001 9.359439e-001 7.345597e-001 6.187049e-001 2.657674e-002 2.201742e-002 4.686865e-002 6.254704e-002 6.792843e-002 1.163634e-001 1.636350e-001 1.304402e-001 1.305442e-001 1.135399e-001 1.410032e-001 1.012256e-001 8.983727e-002 3.080578e-003
<GCONST> 6.073312e+001
<STATE> 9
<NUMMIXES> 3
<MIXTURE> 1 4.161306e-001
<MEAN> 39
 -1.009880e+000 3.649194e+000 5.879518e+000 -9.650013e+000 3.401901e-001 -1.194368e+001 -4.224299e+000 -8.433659e+000 -2.606176e+000 -5.835711e+000 -5.684292e+000 -7.573337e+000 1.571488e+001 -1.272014e+000 -5.549364e-001 -3.746798e-001 8.244781e-001 -1.360873e-001 1.035885e+000 2.341937e-001 -1.999746e-002 1.247122e-001 1.019656e-001 4.018112e-001 2.654616e-001 -6.301944e-001 -4.282282e-001 -4.405368e-001 -4.803061e-001 -1.181950e-001 -2.569302e-001 2.593653e-001 6.428666e-002 1.557040e-001 4.721305e-002 -4.398627e-002 1.780770e-001 3.762981e-002 -9.152659e-002
<VARIANCE> 39
 1.980169e+001 2.037101e+001 2.243540e+001 3.854769e+001 3.582656e+001 5.760749e+001 4.385676e+001 4.598849e+001 6.477063e+001 6.587245e+001 5.177078e+001 5.199566e+001 4.144754e+000 1.478219e+000 1.310809e+000 1.505377e+000 1.714396e+000 1.673400e+000 2.699148e+000 1.498489e+000 1.636485e+000 2.066156e+000 1.898630e+000 1.562804e+000 1.754761e+000 1.568621e-001 1.614844e-001 1.519305e-001 1.924341e-001 3.269693e-001 2.572159e-001 4.765521e-001 2.327386e-001 2.634188e-001 3.425459e-001 2.706739e-001 2.279368e-001 1.861288e-001 1.965623e-002
<GCONST> 1.010653e+002
<MIXTURE> 2 2.971006e-001
<MEAN> 39
 -1.230400e+001 -4.089458e+000 -2.885237e+000 -1.265918e+001 -3.244538e+000 -9.209914e+000 -4.673116e+000 -6.688480e+000 -1.646890e+000 -4.585966e+000 -1.670999e+000 -5.899043e+000 1.235742e+001 -1.321786e+000 -1.033848e+000 -1.405163e+000 -6.622096e-001 -6.862768e-001 -1.277168e-001 2.148627e-001 5.260804e-001 5.513025e-001 6.143113e-001 7.380908e-001 8.649645e-001 -3.239990e-001 3.644283e-001 3.158513e-001 2.994056e-001 9.954192e-002 1.421054e-001 -1.643570e-001 -7.951899e-003 -6.288660e-002 -1.243036e-001 -5.948581e-002 -1.838845e-001 -1.581174e-001 1.846925e-001
<VARIANCE> 39
 1.249870e+001 9.670472e+000 1.133768e+001 3.358038e+001 1.607556e+001 3.459801e+001 2.599581e+001 2.519250e+001 2.126115e+001 1.964780e+001 2.289099e+001 1.917700e+001 7.815367e+000 1.170354e+000 7.054012e-001 8.081326e-001 9.124137e-001 8.813472e-001 1.238633e+000 8.470733e-001 1.065304e+000 1.040923e+000 1.202239e+000 1.502903e+000 1.056639e+000 1.220867e-001 1.071877e-001 1.214686e-001 1.151467e-001 2.239720e-001 1.511285e-001 2.482546e-001 2.213937e-001 1.711444e-001 1.911931e-001 2.509336e-001 1.688265e-001 1.424902e-001 1.487119e-002
<GCONST> 8.193957e+001
<MIXTURE> 3 2.867681e-001
<MEAN> 39
 -8.736987e+000 -2.843193e-001 2.516816e+000 -1.042981e+001 8.541530e-001 -7.910602e+000 -1.944246e+000 -6.665659e+000 -2.104348e+000 -4.943468e+000 -2.608861e+000 -7.917699e+000 1.406825e+001 -1.333379e+000 -1.344852e+000 -1.395240e+000 -9.300616e-001 -7.857209e-001 3.825181e-002 -1.712195e-001 9.830415e-002 9.389132e-002 1.279439e-001 4.279079e-001 3.484382e-001 -4.949021e-001 5.754227e-002 -5.070395e-002 -2.256190e-001 -2.349655e-001 -2.385067e-001 -2.973024e-001 -1.608939e-001 1.995010e-002 -4.415223e-003 1.984939e-003 -5.960736e-004 1.114879e-001 6.879802e-002
<VARIANCE> 39
 8.278752e+000 1.021887e+001 1.295577e+001 1.977207e+001 1.522797e+001 2.514992e+001 2.399913e+001 3.036175e+001 2.764493e+001 2.382020e+001 2.922217e+001 1.993052e+001 5.571844e+000 7.482827e-001 4.004492e-001 5.237845e-001 7.102618e-001 8.066577e-001 1.348374e+000 1.160432e+000 1.246417e+000 1.393130e+000 1.819441e+000 1.326522e+000 9.088665e-001 9.622992e-002 4.934730e-002 7.862982e-002 7.936602e-002 1.059687e-001 1.041441e-001 1.438227e-001 1.615172e-001 1.752146e-001 1.480383e-001 1.630147e-001 1.511311e-001 9.572623e-002 6.758471e-003
<GCONST> 7.475701e+001
<TRANSP> 10
 0.000000e+000 1.000000e+000 0.000000e+000 0.000000e+000 0.000000e+000 0.000000e+000 0.000000e+000 0.000000e+000 0.000000e+000 0.000000e+000
 0.000000e+000 7.240390e-001 2.759611e-001 0.000000e+000 0.000000e+000 0.000000e+000 0.000000e+000 0.000000e+000 0.000000e+000 0.000000e+000
 0.000000e+000 0.000000e+000 5.593925e-001 4.406076e-001 0.000000e+000 0.000000e+000 0.000000e+000 0.000000e+000 0.000000e+000 0.000000e+000
 0.000000e+000 0.000000e+000 0.000000e+000 6.630518e-001 3.369481e-001 0.000000e+000 0.000000e+000 0.000000e+000 0.000000e+000 0.000000e+000
 0.000000e+000 0.000000e+000 0.000000e+000 0.000000e+000 7.861469e-001 2.138531e-001 0.000000e+000 0.000000e+000 0.000000e+000 0.000000e+000
 0.000000e+000 0.000000e+000 0.000000e+000 0.000000e+000 0.000000e+000 7.165034e-001 2.834966e-001 0.000000e+000 0.000000e+000 0.000000e+000
 0.000000e+000 0.000000e+000 0.000000e+000 0.000000e+000 0.000000e+000 0.000000e+000 8.685499e-001 1.314501e-001 0.000000e+000 0.000000e+000
 0.000000e+000 0.000000e+000 0.000000e+000 0.000000e+000 0.000000e+000 0.000000e+000 0.000000e+000 8.543727e-001 1.456272e-001 0.000000e+000
 0.000000e+000 0.000000e+000 0.000000e+000 0.000000e+000 0.000000e+000 0.000000e+000 0.000000e+000 0.000000e+000 7.871752e-001 2.128248e-001
 0.000000e+000 0.000000e+000 0.000000e+000 0.000000e+000 0.000000e+000 0.000000e+000 0.000000e+000 0.000000e+000 0.000000e+000 0.000000e+000
<ENDHMM>
~h "sil"
<BEGINHMM>
<NUMSTATES> 5
<STATE> 2
<NUMMIXES> 3
<MIXTURE> 1 2.128495e-001
<MEAN> 39
 -5.596395e+000 -1.294837e+000 -8.739537e-002 -3.816207e+000 -2.220365e+000 -5.280881e+000 -2.500886e+000 -6.615798e+000 -3.022258e+000 -3.997105e+000 -1.454999e+000 -4.270695e+000 8.755904e+000 3.850560e-002 3.185874e-001 9.169215e-003 2.126023e-001 -7.044156e-003 7.243907e-002 5.237661e-002 2.328762e-001 1.096649e-001 -8.512977e-002 3.279554e-002 9.057226e-002 -1.025393e-001 -5.246336e-002 -4.815715e-002 -3.490538e-002 -5.528372e-002 1.543493e-003 3.109620e-004 -5.887264e-003 -2.627274e-002 -7.129162e-003 -1.251843e-002 -2.152511e-002 7.525985e-003 -2.863967e-003
<VARIANCE> 39
 1.084651e+001 3.206879e+001 1.590333e+001 1.887109e+001 2.032109e+001 2.202368e+001 1.974003e+001 2.433392e+001 2.523165e+001 2.574076e+001 1.988077e+001 1.530924e+001 1.646568e+000 1.985368e-001 3.702190e-001 4.104040e-001 5.215780e-001 7.035257e-001 7.334704e-001 7.064366e-001 8.925520e-001 9.180854e-001 9.282460e-001 6.943192e-001 5.484039e-001 2.950280e-002 2.572273e-002 5.391590e-002 6.686921e-002 1.011944e-001 1.251886e-001 1.186163e-001 1.152125e-001 1.394430e-001 1.625008e-001 1.606341e-001 1.366192e-001 9.278996e-002 3.469588e-003
<GCONST> 6.468624e+001
<MIXTURE> 2 4.329417e-001
<MEAN> 39
 -1.203597e+001 -3.608829e+000 -4.847252e+000 -1.091226e+001 -5.161291e+000 -8.901058e+000 -3.441326e+000 -4.439771e+000 -6.281812e-001 -3.802449e+000 -7.803093e-001 -3.746519e+000 8.517562e+000 -7.900885e-002 -6.673607e-002 -7.298930e-002 -1.002191e-001 -9.525850e-002 -6.899735e-002 -6.602429e-002 -5.713571e-002 -1.843322e-002 -7.262674e-003 7.684111e-003 1.234325e-002 -1.481083e-002 4.212893e-002 3.568443e-002 5.142163e-002 4.498388e-002 4.576633e-002 3.082439e-002 -3.020477e-003 -3.492010e-002 -4.262387e-002 -3.044752e-002 -3.602045e-002 -2.697911e-002 1.697956e-002
<VARIANCE> 39
 2.871565e+000 4.581413e+000 6.068238e+000 2.900809e+001 1.489902e+001 1.842277e+001 1.382649e+001 1.474479e+001 1.391324e+001 1.384051e+001 1.415578e+001 1.504437e+001 1.769455e+001 9.225809e-002 1.736586e-001 2.840925e-001 4.078772e-001 5.552028e-001 5.722745e-001 6.678890e-001 7.326452e-001 7.327688e-001 6.870541e-001 6.847654e-001 5.574763e-001 7.013060e-003 1.233347e-002 2.463467e-002 3.961966e-002 5.416855e-002 6.582858e-002 6.922400e-002 8.371472e-002 8.666987e-002 9.557887e-002 8.903317e-002 9.676919e-002 7.891351e-002 1.140470e-003
<GCONST> 4.811436e+001
<MIXTURE> 3 3.542069e-001
<MEAN> 39
 -9.596098e+000 -2.826448e+000 -2.640657e+000 -5.543723e+000 -4.565556e+000 -5.547592e+000 -3.679260e+000 -7.221635e+000 -3.004092e+000 -5.580172e+000 -2.701905e+000 -4.184327e+000 6.656891e+000 -9.607882e-002 1.109586e-001 -7.517307e-002 -5.348776e-002 -1.163523e-001 -9.190723e-002 7.374117e-002 1.746914e-001 5.936232e-003 -3.046843e-003 2.461871e-002 4.180456e-002 -8.285096e-002 -1.528922e-002 -1.676464e-002 -1.557507e-002 -3.326912e-002 4.007197e-003 -2.623185e-002 1.336753e-002 2.986251e-002 6.766785e-002 7.046158e-002 4.176182e-002 8.080753e-003 1.062721e-002
<VARIANCE> 39
 4.080181e+000 1.022494e+001 8.720168e+000 1.158023e+001 1.685841e+001 2.247735e+001 2.350529e+001 2.471332e+001 2.131720e+001 2.144238e+001 1.659499e+001 1.572869e+001 8.669975e-001 1.521632e-001 2.426071e-001 3.013813e-001 4.383513e-001 5.620660e-001 7.110595e-001 7.175632e-001 8.645614e-001 8.609927e-001 8.070259e-001 7.282165e-001 6.234086e-001 2.553800e-002 1.881325e-002 3.268352e-002 4.534958e-002 6.615177e-002 9.410338e-002 1.278361e-001 1.241266e-001 1.424509e-001 1.422619e-001 1.351483e-001 1.244316e-001 1.124524e-001 2.509036e-003
<GCONST> 5.646527e+001
<STATE> 3
~s "silst"
<STATE> 4
<NUMMIXES> 3
<MIXTURE> 1 4.967700e-001
<MEAN> 39
 -1.197873e+001 -3.819316e+000 -3.924550e+000 -7.382250e+000 -5.357353e+000 -6.997799e+000 -2.866901e+000 -5.611148e+000 -1.402629e+000 -4.514906e+000 -1.497086e+000 -4.189110e+000 7.843032e+000 -7.835402e-002 2.957154e-002 1.643410e-002 -2.726426e-002 3.038350e-002 -1.836942e-002 6.690574e-002 -1.571657e-002 -8.733572e-003 -4.245843e-002 4.680093e-002 -7.670677e-002 2.397673e-001 4.158196e-002 4.711562e-002 2.270974e-002 -1.911967e-002 2.654345e-002 1.625302e-002 -1.631775e-002 -1.870142e-002 -1.704744e-002 -2.757831e-002 -5.997303e-003 -5.433979e-003 5.571042e-002
<VARIANCE> 39
 1.370180e+001 1.485180e+001 1.699108e+001 2.705218e+001 2.316255e+001 2.477094e+001 2.184013e+001 2.401344e+001 2.062321e+001 2.033724e+001 1.861012e+001 1.564033e+001 5.659428e+000 8.949596e-001 9.032974e-001 8.732336e-001 1.179159e+000 1.153095e+000 1.184572e+000 9.563311e-001 1.116500e+000 9.593127e-001 8.866463e-001 8.829840e-001 7.324396e-001 2.883149e-001 1.555980e-001 1.513621e-001 1.577871e-001 1.953360e-001 2.003739e-001 1.961564e-001 1.941204e-001 2.263222e-001 1.918134e-001 1.677775e-001 1.586638e-001 1.384869e-001 4.948163e-002
<GCONST> 8.368617e+001
<MIXTURE> 2 2.429530e-001
<MEAN> 39
 -1.084932e+001 -2.691624e+000 -3.281003e+000 -6.829098e+000 -4.803023e+000 -5.811311e+000 -3.068565e+000 -5.796422e+000 -1.722629e+000 -4.664351e+000 -1.706896e+000 -3.967617e+000 7.268673e+000 -1.060188e-002 1.108412e-001 3.770591e-002 1.361221e-001 1.107491e-001 9.996482e-002 1.244352e-001 2.555845e-002 5.145539e-002 1.150129e-001 -1.021346e-002 6.105201e-002 -3.922812e-002 -1.656066e-002 -2.891030e-002 -4.247915e-003 -5.049274e-003 -7.899858e-003 -4.054958e-002 8.983108e-003 -9.571746e-003 9.830332e-003 4.542734e-003 1.362754e-002 1.224717e-002 2.713259e-002
<VARIANCE> 39
 1.117351e+001 1.130599e+001 8.896294e+000 1.802466e+001 1.812640e+001 1.771374e+001 1.740858e+001 2.295372e+001 1.792908e+001 1.706933e+001 1.458622e+001 1.436389e+001 5.199687e+000 2.740549e-001 3.077219e-001 4.070668e-001 5.699894e-001 6.072186e-001 6.639382e-001 7.898863e-001 1.048956e+000 8.609133e-001 7.643820e-001 6.462700e-001 6.222626e-001 5.572714e-002 3.364334e-002 3.563236e-002 4.454422e-002 6.351572e-002 8.087014e-002 7.567508e-002 9.463710e-002 1.170917e-001 9.719265e-002 8.207583e-002 8.111116e-002 7.786754e-002 6.529202e-003
<GCONST> 5.970541e+001
<MIXTURE> 3 2.602739e-001
<MEAN> 39
 -1.274428e+001 -4.686556e+000 -4.394529e+000 -1.716094e+001 -4.259616e+000 -1.272661e+001 -5.063552e+000 -6.391542e+000 -2.112537e+000 -4.917490e+000 -1.165163e+000 -6.667687e+000 1.381866e+001 5.344033e-002 1.056269e-001 1.013856e-001 8.952338e-002 1.465174e-002 7.392429e-002 -1.451333e-003 -5.987625e-002 -3.969123e-002 -1.418654e-003 -6.113278e-002 -1.908271e-002 5.743734e-002 7.402365e-002 3.144568e-002 1.067136e-002 4.068736e-002 3.036418e-002 3.858383e-002 5.620515e-002 2.925640e-002 7.726922e-003 -1.158795e-002 -2.098114e-003 1.529172e-002 3.210792e-002
<VARIANCE> 39
 3.448656e+000 4.712267e+000 6.545788e+000 1.290717e+001 1.259995e+001 1.347446e+001 1.517666e+001 1.624379e+001 1.483350e+001 1.750987e+001 1.614727e+001 1.416919e+001 5.043071e+000 1.799124e-001 2.574436e-001 3.453198e-001 5.845217e-001 6.194107e-001 6.834314e-001 8.942840e-001 9.361098e-001 7.644397e-001 8.470339e-001 8.247970e-001 7.378569e-001 1.825875e-002 2.914342e-002 3.118974e-002 3.779483e-002 5.804854e-002 6.023080e-002 6.316389e-002 9.061368e-002 8.887879e-002 7.956558e-002 8.751044e-002 8.147874e-002 7.518829e-002 4.377762e-003
<GCONST> 5.249816e+001
<TRANSP> 5
 0.000000e+000 1.000000e+000 0.000000e+000 0.000000e+000 0.000000e+000
 0.000000e+000 8.226568e-001 1.773431e-001 0.000000e+000 0.000000e+000
 0.000000e+000 0.000000e+000 9.455734e-001 5.442656e-002 0.000000e+000
 0.000000e+000 0.000000e+000 0.000000e+000 7.163336e-001 2.836664e-001
 0.000000e+000 0.000000e+000 0.000000e+000 0.000000e+000 0.000000e+000
<ENDHMM>
~h "six"
<BEGINHMM>
<NUMSTATES> 10
<STATE> 2
<NUMMIXES> 3
<MIXTURE> 1 2.349364e-001
<MEAN> 39
 -1.506852e+001 -4.455201e+000 -6.413756e+000 -1.524056e+001 -5.801304e+000 -1.039782e+001 -6.812224e+000 -5.920957e+000 -1.997527e+000 -3.716490e+000 -2.475925e+000 -4.922857e+000 1.420677e+001 9.982714e-001 7.296426e-001 1.136676e+000 1.147527e-001 1.347651e-001 8.171184e-002 5.976658e-001 5.163338e-002 4.757870e-001 4.734515e-001 -2.081288e-002 4.714572e-001 3.834689e-001 4.643043e-001 2.901611e-001 3.979802e-001 -9.163342e-002 -3.835176e-001 -4.469807e-002 2.929980e-001 1.257902e-002 1.509933e-001 3.265572e-001 2.403611e-003 -2.869658e-002 2.196868e-001
<VARIANCE> 39
 4.714429e+000 8.477909e+000 1.005443e+001 2.035377e+001 1.371223e+001 1.912738e+001 1.577266e+001 2.077741e+001 1.530259e+001 1.630652e+001 1.967825e+001 1.266527e+001 2.580252e+000 2.333538e-001 2.618709e-001 3.411995e-001 5.213345e-001 7.053464e-001 7.089295e-001 8.220763e-001 6.619964e-001 9.815976e-001 7.531753e-001 5.848498e-001 8.566433e-001 4.452220e-002 2.974922e-002 6.443750e-002 8.618093e-002 1.141696e-001 1.231316e-001 1.772658e-001 1.534452e-001 1.545790e-001 2.004758e-001 1.649010e-001 1.460658e-001 1.832937e-001 4.662348e-003
<GCONST> 6.326328e+001
<MIXTURE> 2 4.329197e-001
<MEAN> 39
 -1.940721e+001 -3.563356e+000 -7.215585e+000 -7.431521e+000 -6.240150e+000 -5.059365e+000 -2.888332e+000 -4.932258e+000 1.229888e+000 -3.133757e+000 -9.309371e-001 -3.058351e+000 1.176703e+001 -7.561340e-002 -5.279711e-002 -1.592648e-001 6.535830e-002 -1.371232e-002 -6.275272e-002 2.291261e-002 2.612988e-004 -5.579892e-002 -1.291954e-001 -4.196867e-003 9.952727e-002 1.324520e-001 2.923134e-001 5.992155e-002 1.626637e-001 -1.090485e-001 1.585812e-002 -6.702934e-002 -1.597567e-002 -5.897890e-002 -6.063503e-002 -2.837406e-002 -3.377534e-002 -6.193715e-002 3.829527e-002
<VARIANCE> 39
 5.704018e+000 2.552342e+001 1.422771e+001 1.652847e+001 1.807535e+001 2.316938e+001 2.034805e+001 2.433378e+001 1.742472e+001 2.756546e+001 2.773532e+001 1.652509e+001 4.150168e+000 4.131629e-001 5.268916e-001 4.920591e-001 6.667143e-001 5.530459e-001 7.719773e-001 9.816216e-001 1.022669e+000 7.122810e-001 8.446251e-001 7.343603e-001 6.079758e-001 4.792317e-002 7.182375e-002 1.178505e-001 8.157009e-002 1.260113e-001 1.085867e-001 1.555433e-001 1.604714e-001 1.962059e-001 1.366479e-001 1.405393e-001 1.260045e-001 1.099380e-001 1.294221e-002
<GCONST> 7.077854e+001
<MIXTURE> 3 3.321427e-001
<MEAN> 39
 -1.510298e+001 -4.236350e+000 -5.899549e+000 -1.386779e+001 -5.713465e+000 -9.808624e+000 -6.269893e+000 -6.639081e+000 -3.065698e+000 -3.988903e+000 -1.927986e+000 -5.976021e+000 1.351552e+001 5.710116e-002 1.048741e-001 8.243673e-002 -4.472254e-002 7.360964e-002 9.377456e-002 9.157323e-003 -7.623568e-002 1.560590e-001 -7.539001e-002 -7.590900e-002 1.530628e-002 6.319997e-002 2.811697e-001 2.086243e-001 2.334684e-001 -7.080429e-002 1.637528e-002 1.749919e-002 1.761111e-001 7.536335e-002 2.286843e-001 -5.652241e-002 -4.554690e-002 4.545982e-002 1.176083e-001
<VARIANCE> 39
 5.235926e+000 6.931162e+000 1.108075e+001 1.859044e+001 1.549363e+001 1.854751e+001 1.981535e+001 1.930629e+001 1.558059e+001 1.788286e+001 1.490497e+001 1.488858e+001 3.024814e+000 8.908150e-002 1.717444e-001 2.673731e-001 4.531702e-001 5.880606e-001 7.540169e-001 7.085804e-001 6.290904e-001 7.045764e-001 7.708375e-001 7.438191e-001 6.861085e-001 1.865645e-002 3.061652e-002 4.204172e-002 7.415674e-002 1.033307e-001 1.179841e-001 1.297064e-001 1.310153e-001 1.487080e-001 1.343580e-001 2.503431e-001 1.198316e-001 1.474070e-001 5.329796e-003
<GCONST> 5.885939e+001
<STATE> 3
<NUMMIXES> 3
<MIXTURE> 1 3.431629e-001
<MEAN> 39
 -9.316236e+000 1.806102e-001 -1.506899e-001 -1.348483e+001 -4.349587e+000 -9.846396e+000 -2.530072e+000 -5.003227e+000 -1.492612e+000 -1.521606e+000 -1.311559e+000 -4.544531e+000 1.628627e+001 1.752787e+000 8.394982e-001 1.367041e+000 -6.810969e-001 -1.558326e+000 -3.123163e-002 8.960442e-001 7.154922e-002 6.456265e-001 9.792923e-001 2.326214e-002 -1.703462e-001 8.819262e-001 -1.576982e-001 -1.467693e-001 -1.741964e-001 -2.993799e-001 -3.505091e-001 2.051322e-001 -1.688486e-001 5.839385e-002 1.538263e-001 -7.090244e-002 -3.363336e-002 -6.459714e-002 4.016399e-002
<VARIANCE> 39
 1.269794e+001 1.077447e+001 9.558392e+000 1.544895e+001 1.776494e+001 2.206627e+001 1.905885e+001 1.450886e+001 1.946702e+001 3.101967e+001 1.565511e+001 1.585062e+001 2.224636e+000 6.638681e-001 8.735381e-001 7.256732e-001 1.233690e+000 1.147421e+000 1.289620e+000 1.094549e+000 1.538605e+000 1.528310e+000 1.679889e+000 1.143459e+000 1.508932e+000 8.834834e-002 5.647417e-002 5.057763e-002 6.908008e-002 8.949769e-002 1.484792e-001 1.284509e-001 2.857165e-001 1.278412e-001 1.378885e-001 2.107140e-001 1.439594e-001 1.950911e-001 6.805786e-003
<GCONST> 7.490619e+001
<MIXTURE> 2 3.805285e-001
<MEAN> 39
 -1.477033e+001 -4.950026e+000 -6.128268e+000 -1.291245e+001 -2.941533e+000 -9.429512e+000 -4.097696e+000 -4.729796e+000 1.181602e+000 -6.947176e+000 2.121272e+000 -6.517016e+000 1.286681e+001 1.828836e+000 1.374391e+000 5.727431e-001 -1.448736e+000 -5.068759e-001 -3.369467e-001 7.662761e-002 -3.294368e-001 6.482687e-001 -1.377850e+000 -7.404125e-001 -1.048843e+000 8.827919e-001 3.473561e-001 1.964376e-001 2.130438e-001 -5.298935e-001 -9.192123e-002 -5.090972e-002 2.003630e-001 -3.806141e-002 1.466183e-001 -1.386219e-001 -3.761245e-001 -3.126654e-001 2.017550e-001
<VARIANCE> 39
 9.733497e+000 1.118496e+001 9.579550e+000 2.431560e+001 1.344418e+001 1.968588e+001 1.456202e+001 1.667039e+001 1.847439e+001 3.164579e+001 1.899517e+001 1.552223e+001 2.957006e+000 8.438604e-001 6.611734e-001 4.936423e-001 1.069625e+000 6.611128e-001 6.488723e-001 7.362619e-001 8.940317e-001 7.314876e-001 1.030395e+000 1.285119e+000 1.386384e+000 1.131950e-001 1.167341e-001 9.487808e-002 7.444695e-002 1.113328e-001 1.021596e-001 1.313645e-001 1.154206e-001 1.543016e-001 1.157922e-001 2.676416e-001 2.637426e-001 2.119361e-001 1.196989e-002
<GCONST> 7.324110e+001
<MIXTURE> 3 2.763087e-001
<MEAN> 39
 -1.699080e+001 -2.149273e+000 -6.688305e+000 -1.033873e+001 -6.628637e+000 -4.902950e+000 -3.152137e+000 -6.309868e+000 1.199031e+000 -4.148390e-001 -4.399974e+000 -1.404749e+000 1.327733e+001 2.273721e+000 8.096184e-001 1.791793e+000 -1.006377e+000 -9.135810e-001 -9.725837e-001 8.670418e-001 -2.143247e-001 -1.897932e-001 1.203839e+000 -2.357796e-001 -9.301084e-002 8.839301e-001 3.852466e-001 5.170597e-002 2.973061e-001 -3.906476e-001 -4.971895e-001 -2.959024e-001 -1.240836e-002 3.980376e-003 -1.509883e-001 7.155041e-002 3.604073e-002 -3.175976e-001 2.248972e-001
<VARIANCE> 39
 9.683552e+000 1.418377e+001 1.822562e+001 2.701725e+001 1.833548e+001 3.057821e+001 2.601629e+001 1.600962e+001 2.718488e+001 2.961238e+001 2.261637e+001 2.970519e+001 1.557353e+000 4.795803e-001 6.138217e-001 4.973203e-001 1.237702e+000 7.810300e-001 9.211560e-001 9.772394e-001 1.126370e+000 8.730505e-001 7.237511e-001 9.981011e-001 7.958198e-001 1.268373e-001 1.565467e-001 1.229101e-001 1.711453e-001 1.155163e-001 1.196889e-001 1.696763e-001 2.662058e-001 1.955997e-001 1.225957e-001 2.445611e-001 1.748087e-001 1.844659e-001 8.971218e-003
<GCONST> 7.772684e+001
<STATE> 4
<NUMMIXES> 3
<MIXTURE> 1 2.593127e-001
<MEAN> 39
 -8.205935e+000 -9.619979e-001 -3.564849e-002 -2.217564e+001 -1.078118e+001 -6.253556e+000 -7.141728e-001 -4.679547e+000 4.007067e+000 -2.523471e+000 -5.262016e+000 -5.409198e+000 1.859331e+001 -2.430862e-001 9.570874e-002 7.637331e-002 -5.388436e-001 6.544240e-001 6.602504e-001 -6.018031e-001 8.529793e-001 1.923650e-001 -5.024077e-001 6.956382e-001 1.978242e-001 -8.175894e-002 -3.540174e-002 5.367299e-002 7.075316e-002 3.140790e-001 2.861233e-001 -2.069469e-001 -2.658301e-001 2.230910e-002 -3.195012e-001 2.405808e-002 2.485497e-001 1.858919e-002 -1.467380e-001
<VARIANCE> 39
 4.545308e+000 1.095067e+001 8.267879e+000 1.122708e+001 2.790574e+001 1.200315e+001 2.244402e+001 1.536589e+001 1.979166e+001 3.192987e+001 2.542795e+001 4.711861e+001 2.229243e+000 1.604379e-001 2.007587e-001 4.049053e-001 4.082674e-001 4.824236e-001 8.066056e-001 1.775331e+000 9.459280e-001 1.006329e+000 9.085190e-001 8.916630e-001 7.361679e-001 4.175353e-002 4.833244e-002 4.411808e-002 7.824579e-002 7.808109e-002 1.260291e-001 1.122454e-001 1.703870e-001 1.248405e-001 1.894075e-001 1.720202e-001 1.300440e-001 2.081116e-001 9.424971e-003
<GCONST> 6.570900e+001
<MIXTURE> 2 4.361090e-001
<MEAN> 39
 -5.639361e+000 5.426754e-001 2.009877e-001 -1.940534e+001 -1.120858e+001 -1.162094e+001 -1.462884e+000 -7.378177e+000 1.170804e+000 -3.827093e+000 -4.789008e+000 -8.222821e+000 1.820804e+001 9.197032e-001 4.039617e-001 6.398097e-001 -1.742151e+000 -7.895553e-001 7.214876e-002 2.275443e-001 2.544032e-001 4.622901e-001 -1.581965e-001 -5.935277e-001 -7.446932e-001 7.609163e-001 -5.741506e-001 -2.417028e-001 -2.796554e-001 1.565560e-001 4.491785e-001 2.780020e-001 -3.302473e-001 2.587004e-001 -1.104472e-001 -9.357460e-002 2.159448e-001 1.999368e-001 -2.456846e-001
<VARIANCE> 39
 6.904370e+000 9.848873e+000 1.144295e+001 2.707969e+001 2.751130e+001 1.470634e+001 2.385507e+001 2.419927e+001 3.482801e+001 9.519579e+001 2.954165e+001 4.884896e+001 1.563074e+000 1.044553e+000 9.109942e-001 1.093439e+000 1.018710e+000 1.730355e+000 1.608558e+000 2.132141e+000 1.118844e+000 1.230122e+000 2.027936e+000 1.836400e+000 2.269048e+000 1.354329e-001 5.709622e-002 7.763553e-002 9.194597e-002 2.040003e-001 1.271782e-001 2.032283e-001 2.672199e-001 1.915935e-001 2.296672e-001 5.226452e-001 2.102657e-001 2.737594e-001 1.496855e-002
<GCONST> 8.691570e+001
<MIXTURE> 3 3.045784e-001
<MEAN> 39
 -7.668408e+000 3.109482e-001 -4.273326e+000 -2.401375e+001 -3.900689e-001 -8.132824e+000 1.242175e+000 -2.819695e+000 3.621107e+000 -9.245781e+000 -3.073435e-001 -7.782940e+000 1.794305e+001 -2.101796e-001 6.894168e-002 4.721872e-002 -1.906582e-001 4.967646e-001 -4.281646e-001 -1.179751e-001 3.755465e-001 -8.565703e-001 5.912369e-001 -3.197764e-001 2.213820e-001 -1.583084e-001 2.742343e-002 3.078451e-002 1.717201e-001 1.954488e-001 -1.681942e-001 -2.017776e-001 -2.199432e-001 -1.231088e-001 -1.290139e-001 1.029085e-001 -1.271480e-001 -2.736751e-002 -9.766743e-002
<VARIANCE> 39
 8.980161e+000 8.487969e+000 8.067555e+000 8.143559e+000 1.480095e+001 1.973319e+001 1.293614e+001 1.640559e+001 2.201197e+001 2.078106e+001 3.513338e+001 4.807730e+001 9.990306e-001 1.599791e-001 2.348620e-001 3.784259e-001 4.130210e-001 6.472987e-001 7.860882e-001 9.137527e-001 8.055390e-001 6.781275e-001 7.690215e-001 9.172632e-001 1.252052e+000 2.844213e-002 4.060402e-002 4.334080e-002 4.865594e-002 9.694246e-002 7.847056e-002 1.249435e-001 1.021199e-001 1.359398e-001 1.412984e-001 1.288519e-001 1.256397e-001 2.158899e-001 8.991430e-003
<GCONST> 6.166914e+001
<STATE> 5
<NUMMIXES> 3
<MIXTURE> 1 3.995403e-001
<MEAN> 39
 -7.104053e+000 -2.895695e-001 3.185091e+000 -2.047715e+001 -1.575825e+001 -5.233969e+000 -7.919397e+000 -2.620364e+000 9.354967e-001 -1.001422e+000 -1.899034e+000 -5.476720e+000 1.865745e+001 9.401947e-002 4.806877e-001 1.157552e+000 1.735166e-002 6.981297e-001 7.872237e-001 -1.883913e+000 -1.961585e-002 1.979593e-001 -1.152769e+000 6.648424e-001 1.366234e-001 -4.496697e-001 -1.252545e-001 -1.415069e-002 -2.612522e-001 6.340204e-001 7.220537e-001 -3.355154e-001 4.836548e-001 -2.290847e-001 -1.188341e-001 -5.194060e-002 -3.288901e-002 5.946058e-002 -3.325431e-001
<VARIANCE> 39
 1.251309e+001 2.527426e+001 2.149619e+001 3.710129e+001 3.482926e+001 2.476656e+001 5.471254e+001 4.160615e+001 1.870484e+001 3.550958e+001 3.419852e+001 3.366026e+001 2.073342e+000 7.994094e-001 7.662166e-001 8.500070e-001 1.768564e+000 2.700896e+000 2.222319e+000 2.061168e+000 2.754372e+000 2.267146e+000 2.307881e+000 1.759539e+000 1.485103e+000 2.475869e-001 1.722322e-001 2.079097e-001 3.234377e-001 2.760506e-001 4.206798e-001 3.699897e-001 5.887842e-001 4.598052e-001 2.906996e-001 3.887606e-001 2.773809e-001 2.442541e-001 1.876787e-002
<GCONST> 9.978724e+001
<MIXTURE> 2 3.219942e-001
<MEAN> 39
 -6.348815e+000 3.252839e+000 8.566418e-001 -2.614075e+001 -7.041474e-001 -1.502413e+001 -3.928200e+000 -1.885573e+000 -3.005956e+000 -6.329160e+000 -6.583611e+000 -1.133216e+001 1.699102e+001 5.805136e-002 3.155296e-001 7.822121e-001 1.777701e+000 5.481972e-003 -1.168890e-001 -7.973833e-001 8.253439e-003 -7.101377e-001 1.077294e+000 3.981733e-001 7.113236e-001 -8.936058e-001 -2.782473e-001 -4.680453e-001 -3.171129e-001 8.420855e-001 -4.323538e-001 5.071621e-001 4.397778e-002 -3.682173e-001 3.447386e-001 -6.671970e-002 4.770243e-001 4.333446e-001 -2.783380e-001
<VARIANCE> 39
 1.081379e+001 1.507769e+001 2.248634e+001 1.059724e+001 1.664198e+001 2.644712e+001 3.910970e+001 2.288296e+001 2.266345e+001 4.414443e+001 4.606995e+001 3.922133e+001 2.271064e+000 5.603175e-001 8.654191e-001 9.511907e-001 1.994086e+000 1.728213e+000 1.595856e+000 9.893587e-001 1.029469e+000 1.528178e+000 1.803006e+000 1.559290e+000 2.289722e+000 2.602820e-001 1.040366e-001 1.778083e-001 2.097135e-001 2.381203e-001 1.811202e-001 1.873521e-001 3.646353e-001 2.047526e-001 2.697619e-001 3.243378e-001 3.332215e-001 3.130671e-001 2.154296e-002
<GCONST> 9.074643e+001
<MIXTURE> 3 2.784645e-001
<MEAN> 39
 -8.025686e+000 2.119620e+000 4.341469e+000 -2.053198e+001 -6.977626e+000 -8.019773e+000 -9.883849e+000 -3.152376e+000 8.770738e-001 -3.869980e+000 4.862955e-001 -4.646070e+000 1.712571e+001 -5.297784e-001 -5.629113e-001 -5.774857e-001 1.207009e+000 1.791806e+000 -7.683882e-001 1.614771e-001 -2.323762e-001 -7.859954e-001 -5.380758e-001 2.910799e-001 -3.882692e-001 -7.281155e-001 -2.085034e-001 -4.682341e-001 -5.707942e-001 1.638882e-001 -6.219313e-002 -1.827217e-001 6.101556e-001 -1.780922e-001 -9.853223e-003 1.726596e-001 -2.634946e-001 -7.521462e-002 -8.324261e-002
<VARIANCE> 39
 3.660328e+000 9.145443e+000 1.448895e+001 1.841991e+001 3.172223e+001 2.980252e+001 5.244677e+001 2.893064e+001 1.834476e+001 1.997260e+001 1.218925e+001 1.812156e+001 2.830543e+000 2.921018e-001 5.453327e-001 7.660056e-001 7.379823e-001 1.790605e+000 9.678955e-001 1.882808e+000 9.867386e-001 9.144227e-001 1.150467e+000 7.824501e-001 1.224681e+000 6.921709e-002 2.434740e-002 4.945259e-002 9.248815e-002 1.240021e-001 1.786378e-001 2.549724e-001 3.604767e-001 2.200883e-001 1.760266e-001 2.586349e-001 1.516482e-001 1.227463e-001 8.193025e-003
<GCONST> 7.470144e+001
<STATE> 6
<NUMMIXES> 3
<MIXTURE> 1 2.700589e-001
<MEAN> 39
 -3.700287e+000 5.441197e+000 7.643585e+000 -1.220479e+001 -8.021934e+000 -5.449116e+000 -9.627062e+000 -4.334816e+000 -4.412083e-001 -3.923931e+000 -5.566393e-001 -4.244299e+000 1.264572e+001 -9.651821e-001 -1.308719e+000 -1.001799e+000 3.157734e+000 -2.011591e-001 3.062660e-001 1.229509e+000 -5.823089e-001 4.110680e-001 2.598962e-001 5.622481e-001 9.488372e-001 -1.558397e+000 -5.478042e-001 -8.572762e-001 -7.618955e-001 -3.204435e-001 -5.171851e-002 -1.609329e-001 6.962164e-001 2.172205e-004 1.028176e-001 1.850290e-002 -1.155290e-001 -9.088776e-002 1.795469e-001
<VARIANCE> 39
 2.184011e+001 2.736657e+001 2.769226e+001 4.219489e+001 5.351373e+001 5.637223e+001 3.325703e+001 4.807585e+001 4.399129e+001 5.345059e+001 4.052255e+001 1.807407e+001 6.267578e+000 1.211950e+000 2.498919e+000 2.169186e+000 1.649867e+000 4.292872e+000 3.084936e+000 3.384271e+000 1.996009e+000 1.822984e+000 1.499332e+000 1.691025e+000 1.522603e+000 2.844267e-001 2.113693e-001 2.588967e-001 2.562521e-001 3.236592e-001 3.053873e-001 4.959942e-001 2.941125e-001 3.759816e-001 3.748269e-001 5.007976e-001 2.929485e-001 2.421150e-001 6.859324e-002
<GCONST> 1.078050e+002
<MIXTURE> 2 3.617673e-001
<MEAN> 39
 -9.944667e+000 -5.991915e-001 4.738098e-001 -1.533774e+001 -1.671480e+000 -1.031276e+001 -4.069785e+000 -4.815742e+000 -1.683207e+000 -4.869622e+000 -1.748105e+000 -7.502882e+000 1.487197e+001 -9.080288e-001 -1.307588e+000 -1.271603e+000 9.572375e-001 6.593984e-001 -6.408203e-001 5.224108e-001 -5.758344e-001 -2.866007e-001 2.063501e-002 2.699713e-001 1.505095e-001 -7.031898e-001 -7.782601e-002 -2.050774e-001 -2.350846e-001 -3.089304e-001 -5.336001e-001 2.973607e-002 7.019071e-002 2.832814e-002 1.951815e-001 9.969527e-002 -4.944982e-002 6.062551e-002 1.203291e-001
<VARIANCE> 39
 4.257810e+000 5.458239e+000 9.861189e+000 1.311972e+001 1.500480e+001 1.785457e+001 2.092878e+001 1.796149e+001 2.332666e+001 1.930685e+001 2.077253e+001 1.659267e+001 3.465630e+000 2.304028e-001 6.596118e-001 9.224669e-001 9.559700e-001 2.309958e+000 1.924602e+000 2.419899e+000 1.493277e+000 1.062245e+000 1.562827e+000 1.588936e+000 1.590468e+000 6.477239e-002 3.856686e-002 5.345086e-002 8.058809e-002 1.328538e-001 2.138221e-001 1.656793e-001 2.297038e-001 1.815818e-001 1.956476e-001 2.090415e-001 1.569078e-001 1.633576e-001 8.574982e-003
<GCONST> 7.500725e+001
<MIXTURE> 3 3.681737e-001
<MEAN> 39
 -1.031488e+001 -3.187583e+000 -2.538291e+000 -6.990923e+000 -7.328871e+000 -7.598735e+000 -2.284752e+000 -3.932758e+000 4.711345e-001 -2.370999e+000 -1.131164e-001 -1.778152e+000 7.621982e+000 -1.126171e+000 -2.417329e+000 -9.810916e-001 7.811869e-001 -4.357697e-001 1.118638e-001 1.270980e+000 -3.119206e-001 5.551776e-002 -1.149449e-001 1.432977e-001 -1.879413e-002 4.726776e-002 -1.137444e-002 1.098366e-001 3.982651e-001 -6.875677e-001 -1.196525e-001 1.611926e-001 -2.014827e-001 -3.220393e-002 -7.067472e-002 -1.412886e-001 -1.214392e-001 -3.724266e-001 5.087747e-001
<VARIANCE> 39
 1.245584e+001 3.190938e+001 1.753503e+001 1.535676e+001 1.931462e+001 1.893102e+001 2.061197e+001 1.304842e+001 1.905371e+001 1.994999e+001 1.781624e+001 1.254722e+001 5.831253e+000 1.976530e+000 2.261902e+000 2.229987e+000 1.951284e+000 1.832712e+000 2.613887e+000 2.068490e+000 1.460059e+000 1.799370e+000 1.829528e+000 1.252488e+000 1.315193e+000 8.009032e-001 2.061617e-001 4.480380e-001 2.799937e-001 3.068417e-001 4.597334e-001 2.895019e-001 3.294465e-001 1.936413e-001 2.600825e-001 2.583766e-001 1.771151e-001 1.483577e-001 6.076824e-002
<GCONST> 9.623110e+001
<STATE> 7
<NUMMIXES> 3
<MIXTURE> 1 4.304448e-001
<MEAN> 39
 -1.378248e+001 -1.011087e+001 -8.478690e-002 -9.457574e+000 -1.133080e+001 -5.629885e+000 -5.507787e-002 -6.685951e+000 1.767828e-001 -3.443679e+000 -4.479764e-001 -4.700690e+000 1.314149e+001 -1.650373e+000 2.528951e-001 -8.206595e-002 -3.408768e-001 -3.830823e-001 1.192467e+000 1.394939e-001 -5.667303e-001 2.926418e-001 1.152704e-001 -3.057264e-001 -3.288391e-001 3.985187e-001 8.070652e-002 7.851413e-001 -1.179684e-001 -9.791154e-002 4.432857e-001 -3.599553e-002 -4.052663e-001 1.059753e-001 -8.050095e-003 3.803999e-004 -6.458028e-002 5.875321e-002 -1.775426e-001
<VARIANCE> 39
 3.042726e+001 3.266478e+001 2.018989e+001 3.124244e+001 2.234289e+001 2.638707e+001 2.279681e+001 2.574994e+001 2.772673e+001 2.056033e+001 1.713175e+001 1.475793e+001 1.700615e+000 9.878814e-001 2.530229e+000 1.274555e+000 1.066874e+000 1.655873e+000 1.092848e+000 1.222023e+000 1.020499e+000 1.391950e+000 1.258206e+000 9.231519e-001 7.161382e-001 3.331362e-001 2.809589e-001 3.203233e-001 2.554982e-001 2.308224e-001 2.036943e-001 2.758522e-001 2.025565e-001 2.274169e-001 2.275377e-001 2.114527e-001 1.481576e-001 1.404217e-001 4.840502e-002
<GCONST> 9.014413e+001
<MIXTURE> 2 2.411626e-001
<MEAN> 39
 -1.285813e+001 -6.421588e+000 -4.077635e+000 -1.609992e+001 -5.283423e+000 -1.191987e+001 -4.304094e+000 -6.113770e+000 -1.423730e+000 -3.905364e+000 -2.876130e-001 -6.696911e+000 1.398770e+001 -6.045587e-001 -5.491902e-001 -9.535357e-002 4.766522e-001 -1.521239e+000 6.380978e-001 4.213023e-002 -2.791329e-001 1.924748e-001 5.491134e-001 -1.059282e-001 4.336414e-001 9.023207e-002 4.829596e-002 4.628568e-001 2.211043e-001 3.543306e-002 -6.043283e-002 3.299679e-001 -1.826330e-001 3.669862e-002 2.164399e-002 5.683321e-003 -1.652014e-001 -5.083884e-003 8.701041e-002
<VARIANCE> 39
 2.252678e+000 7.361979e+000 7.423320e+000 1.297974e+001 1.567036e+001 1.921668e+001 2.058561e+001 2.143290e+001 1.760531e+001 1.522578e+001 1.538039e+001 1.205793e+001 2.075158e+000 1.463698e-001 6.611000e-001 5.836198e-001 5.918835e-001 9.453088e-001 1.075767e+000 1.015399e+000 9.311928e-001 1.162478e+000 8.176185e-001 9.107789e-001 5.617193e-001 2.585997e-002 2.409571e-002 8.355575e-002 1.327244e-001 1.345341e-001 1.921788e-001 1.781765e-001 1.740370e-001 1.594931e-001 1.954111e-001 1.769692e-001 1.323041e-001 9.962519e-002 8.332314e-003
<GCONST> 6.490810e+001
<MIXTURE> 3 3.283921e-001
<MEAN> 39
 -1.246686e+001 -4.764130e+000 -4.472651e+000 -1.748404e+001 -3.092359e+000 -1.224530e+001 -4.252783e+000 -5.293788e+000 -1.521461e+000 -4.172510e+000 -8.839685e-001 -6.672402e+000 1.412886e+001 -8.388513e-001 -1.293405e+000 -1.200740e+000 1.925226e-001 -3.385180e-001 -4.423494e-001 2.222035e-001 -4.080972e-001 -1.120765e-001 2.046169e-001 2.531002e-001 8.948179e-002 -3.537392e-001 1.472925e-001 2.190417e-001 3.245803e-001 -2.219111e-001 -4.878229e-001 2.490936e-001 -1.511463e-001 4.183454e-002 9.863076e-002 3.633573e-002 -1.059502e-001 4.111091e-002 2.119815e-001
<VARIANCE> 39
 2.550819e+000 4.862041e+000 5.902942e+000 5.811896e+000 1.341026e+001 1.372679e+001 1.141767e+001 1.882005e+001 1.668824e+001 1.575532e+001 1.575673e+001 1.473676e+001 2.522784e+000 1.810647e-001 4.294768e-001 6.460177e-001 6.657028e-001 1.183445e+000 1.108504e+000 1.365430e+000 1.042224e+000 1.054056e+000 1.041885e+000 1.009434e+000 9.170665e-001 4.372101e-002 2.661798e-002 7.415125e-002 1.175817e-001 1.454495e-001 3.076030e-001 2.738881e-001 2.626251e-001 1.948639e-001 1.625502e-001 2.345192e-001 1.862655e-001 1.533215e-001 6.276808e-003
<GCONST> 6.673714e+001
<STATE> 8
<NUMMIXES> 3
<MIXTURE> 1 2.936974e-001
<MEAN> 39
 -1.550082e+001 -1.962539e+000 -3.451645e+000 -7.400345e+000 -8.622337e+000 -3.694583e+000 -3.293516e+000 -6.667348e+000 -2.718809e+000 -2.512773e+000 -1.172523e+000 -6.716695e+000 1.206424e+001 7.627158e-001 2.657744e-001 2.081557e-001 1.719929e-001 3.157377e-001 -1.674480e-001 -2.734836e-001 -7.860834e-003 -3.413627e-001 6.222028e-002 -1.830464e-001 -5.307416e-002 -2.124631e-001 1.025078e-001 -1.835219e-001 -4.562851e-002 -6.380821e-002 1.750712e-001 -1.847453e-001 6.614389e-002 1.120041e-001 1.290727e-001 -4.758287e-002 7.123002e-002 1.145101e-001 -6.260569e-002
<VARIANCE> 39
 2.681524e+001 2.192972e+001 2.672633e+001 4.156596e+001 4.207830e+001 2.523772e+001 3.277241e+001 3.202824e+001 3.524376e+001 4.363291e+001 3.755959e+001 2.401189e+001 5.674465e+000 1.162635e+000 1.087685e+000 1.228366e+000 1.253849e+000 1.923264e+000 1.315891e+000 1.569088e+000 1.410779e+000 1.395104e+000 1.552352e+000 1.356686e+000 9.190788e-001 1.195192e-001 2.139540e-001 1.325511e-001 1.779946e-001 1.965469e-001 3.094693e-001 2.329603e-001 3.049088e-001 2.434155e-001 2.420830e-001 2.851572e-001 2.138827e-001 1.551760e-001 8.479738e-003
<GCONST> 9.313358e+001
<MIXTURE> 2 4.033391e-001
<MEAN> 39
 -1.737033e+001 -5.701298e+000 -6.021930e+000 -1.091477e+001 -5.704976e+000 -6.441164e+000 -3.763216e+000 -5.241257e+000 2.031881e+000 -4.624923e+000 -8.368710e-001 -4.005110e+000 1.176092e+001 1.036395e-001 -2.748234e-002 -2.356817e-001 1.078285e-001 3.661982e-002 -2.767143e-001 8.836459e-002 1.410903e-001 -1.523474e-001 -2.951683e-002 -1.937929e-002 -6.905434e-002 -6.409187e-002 1.573821e-001 6.181689e-002 2.059549e-001 -4.288480e-002 -5.928566e-002 1.436557e-002 4.166669e-002 -6.151787e-002 -1.124672e-001 2.847726e-002 -7.389360e-002 -8.472560e-002 3.636152e-002
<VARIANCE> 39
 1.001397e+001 1.403730e+001 1.096463e+001 2.339809e+001 2.334648e+001 3.201321e+001 1.736548e+001 1.933575e+001 2.313632e+001 2.453385e+001 2.059888e+001 1.901408e+001 4.787118e+000 2.414850e-001 3.508104e-001 4.717236e-001 4.820564e-001 6.472783e-001 8.365589e-001 6.449791e-001 7.810304e-001 8.683621e-001 7.534162e-001 8.691280e-001 6.124885e-001 2.603609e-002 5.004325e-002 8.843114e-002 6.510282e-002 9.919813e-002 1.587460e-001 1.628867e-001 1.524467e-001 1.125166e-001 1.483253e-001 1.243677e-001 1.605615e-001 1.132099e-001 5.511712e-003
<GCONST> 6.714450e+001
<MIXTURE> 3 3.029628e-001
<MEAN> 39
 -1.785044e+001 -4.294806e+000 -3.502054e+000 -1.319031e+001 -8.171108e+000 -3.670878e+000 -4.929522e+000 -7.695594e+000 1.573887e+000 -2.673636e+000 -2.821299e+000 -4.639821e+000 1.312632e+001 -4.356640e-001 5.592477e-001 -8.053171e-001 1.258641e-002 4.996427e-001 1.292995e-002 -6.979799e-001 1.566732e-001 -1.673417e-002 -2.106408e-001 -2.767495e-001 -5.856531e-002 -1.755985e-001 3.629500e-001 -1.178123e-001 1.020927e-002 7.799271e-002 1.225005e-001 -3.933313e-001 8.959270e-002 1.913052e-001 -1.725284e-001 -8.711369e-002 1.658262e-001 -4.614189e-002 -2.760504e-002
<VARIANCE> 39
 8.523530e+000 1.049207e+001 1.536599e+001 2.466181e+001 2.339163e+001 3.442135e+001 2.349855e+001 2.049511e+001 2.314245e+001 2.451279e+001 1.709125e+001 1.540942e+001 3.107940e+000 6.649973e-001 7.549884e-001 5.946127e-001 9.217147e-001 8.890459e-001 1.017365e+000 7.460467e-001 9.282024e-001 9.327069e-001 8.522320e-001 7.481236e-001 7.394652e-001 4.653051e-002 8.401362e-002 1.301860e-001 1.015276e-001 1.222899e-001 2.108701e-001 1.740918e-001 1.477339e-001 1.828052e-001 1.388822e-001 1.833909e-001 1.252748e-001 1.042901e-001 9.722044e-003
<GCONST> 7.391498e+001
<STATE> 9
<NUMMIXES> 3
<MIXTURE> 1 2.818349e-001
<MEAN> 39
 -1.245027e+001 -4.514453e+000 -3.684949e+000 -9.355286e+000 -4.789125e+000 -7.493498e+000 -2.832422e+000 -5.205972e+000 -2.216337e+000 -4.098964e+000 -2.451346e+000 -5.191263e+000 1.060925e+001 5.965214e-001 -4.123658e-002 6.274489e-002 -7.767608e-002 5.407643e-001 -4.532463e-001 1.991661e-001 2.255114e-001 -1.633306e-001 -1.258251e-001 2.805688e-001 1.195407e-001 -2.414629e-001 -6.191277e-002 8.288053e-003 -3.914256e-004 -4.891745e-002 -7.397683e-002 9.235305e-002 2.044271e-002 -2.529278e-002 7.562619e-002 -7.033496e-002 7.609075e-002 1.193953e-002 7.189716e-002
<VARIANCE> 39
 2.026680e+001 1.844300e+001 1.366828e+001 2.896575e+001 2.839136e+001 2.719079e+001 2.022155e+001 2.651524e+001 2.070469e+001 2.540856e+001 2.157621e+001 1.601246e+001 8.630495e+000 7.445388e-001 7.510135e-001 5.712812e-001 1.494363e+000 1.254340e+000 1.303801e+000 1.496151e+000 9.023653e-001 1.246640e+000 1.158259e+000 9.294537e-001 7.085049e-001 1.164421e-001 1.940978e-001 1.590777e-001 1.135991e-001 2.227539e-001 1.846301e-001 1.887541e-001 2.505026e-001 1.781713e-001 1.456138e-001 1.651036e-001 1.551154e-001 1.165463e-001 2.787302e-002
<GCONST> 8.369136e+001
<MIXTURE> 2 4.548181e-001
<MEAN> 39
 -1.340949e+001 -5.101399e+000 -4.600801e+000 -1.822129e+001 -5.362421e+000 -1.314943e+001 -5.730186e+000 -6.323903e+000 -1.485844e+000 -4.105939e+000 -9.895042e-001 -6.451872e+000 1.420218e+001 1.463308e-001 -8.323622e-002 1.077743e-001 8.354133e-002 1.025384e-001 -4.217522e-001 5.351989e-002 7.024146e-002 4.149143e-002 -2.910508e-002 2.867186e-001 7.586417e-002 4.313134e-002 5.109284e-002 6.110884e-002 7.439924e-002 1.805569e-001 1.465112e-002 1.694283e-001 7.998955e-002 4.956970e-002 -1.838122e-002 6.768302e-002 -8.523345e-003 5.528340e-002 2.979186e-002
<VARIANCE> 39
 2.629007e+000 5.103397e+000 5.669939e+000 1.271677e+001 9.715345e+000 1.363174e+001 1.340231e+001 1.546062e+001 1.411339e+001 1.714356e+001 1.702489e+001 1.449057e+001 2.459365e+000 1.232711e-001 3.472693e-001 3.451580e-001 8.002138e-001 6.303921e-001 8.457463e-001 6.562599e-001 6.803893e-001 8.054255e-001 7.862725e-001 6.731235e-001 5.815883e-001 2.547658e-002 3.014004e-002 5.932572e-002 6.905379e-002 1.660586e-001 9.633996e-002 1.427362e-001 1.335822e-001 1.496889e-001 1.261511e-001 1.419472e-001 1.381496e-001 9.725070e-002 4.761905e-003
<GCONST> 5.705761e+001
<MIXTURE> 3 2.633477e-001
<MEAN> 39
 -1.398648e+001 -4.424593e+000 -4.954633e+000 -1.597530e+001 -8.247220e+000 -1.105195e+001 -4.665333e+000 -5.275255e+000 -2.454373e+000 -2.227758e+000 -1.653757e+000 -6.788254e+000 1.432165e+001 1.463370e-002 1.867958e-001 -2.425740e-001 -4.347113e-001 2.976421e-001 -2.254470e-002 -3.530526e-001 -2.707871e-001 -3.829777e-001 -2.700231e-001 1.571208e-001 1.463765e-001 -3.085542e-002 3.657966e-002 -5.830690e-002 5.598298e-002 -6.666776e-002 1.906680e-001 -5.341172e-002 4.172316e-003 -3.660316e-002 8.261993e-002 -1.033997e-001 4.184729e-002 4.128399e-002 -4.465541e-003
<VARIANCE> 39
