~o
<STREAMINFO> 1 39
<VECSIZE> 39<NULLD><MFCC_E_D_A><DIAGC>
~s "silst"
<NUMMIXES> 2
<MIXTURE> 1 4.170254e-001
<MEAN> 39
 -1.255389e+001 -4.440813e+000 -4.205128e+000 -1.660807e+001 -3.638690e+000 -1.225183e+001 -4.942526e+000 -5.942168e+000 -1.558545e+000 -4.331655e+000 -9.245415e-001 -6.175997e+000 1.432358e+001 -1.575061e-002 4.331041e-002 8.387855e-003 1.309216e-002 6.342298e-002 1.058962e-001 1.155369e-001 1.292633e-001 1.146292e-001 1.432120e-001 1.004130e-001 8.437925e-002 2.051391e-002 6.541248e-002 4.914541e-002 3.666110e-002 3.715365e-002 2.532288e-002 2.388573e-002 5.468185e-002 2.345828e-002 2.072251e-002 1.001463e-002 9.089913e-003 -2.996392e-003 2.553415e-002
<VARIANCE> 39
 7.913290e+000 8.103539e+000 9.407053e+000 1.766096e+001 1.531289e+001 1.738521e+001 1.664621e+001 1.777131e+001 1.701577e+001 1.917279e+001 1.759513e+001 1.496785e+001 5.539073e+000 1.462275e-001 2.575985e-001 3.813576e-001 5.107806e-001 6.050628e-001 6.414199e-001 7.165563e-001 7.639188e-001 7.665504e-001 7.657863e-001 7.334478e-001 6.358173e-001 2.086133e-002 3.971672e-002 5.324718e-002 7.856816e-002 9.930006e-002 1.114427e-001 1.219181e-001 1.348615e-001 1.384699e-001 1.376603e-001 1.407033e-001 1.361545e-001 1.128311e-001 5.743639e-003
<GCONST> 6.109766e+001
<MIXTURE> 2 5.829539e-001
<MEAN> 39
 -1.288356e+001 -4.836514e+000 -4.658512e+000 -1.774041e+001 -3.807060e+000 -1.321658e+001 -5.261402e+000 -6.265211e+000 -1.728068e+000 -4.552796e+000 -1.004812e+000 -6.589442e+000 1.448594e+001 -3.413567e-002 -5.949637e-002 -7.861912e-002 -3.914990e-002 -1.009703e-001 -8.289222e-002 -9.588058e-002 -8.872583e-002 -8.443478e-002 -1.105829e-001 -6.929632e-002 -4.933855e-002 -1.646822e-002 1.116500e-002 7.705890e-003 1.834851e-002 2.234807e-002 1.189318e-002 1.612050e-002 -8.032728e-003 -5.184249e-003 -1.108044e-002 -9.811395e-003 -1.537660e-002 -5.102130e-003 3.053568e-003
<VARIANCE> 39
 2.867801e+000 4.373701e+000 5.940911e+000 9.243382e+000 1.194041e+001 1.240383e+001 1.513853e+001 1.615282e+001 1.526960e+001 1.702245e+001 1.623525e+001 1.348478e+001 2.596282e+000 7.815931e-002 1.540750e-001 2.663381e-001 4.236072e-001 5.115645e-001 5.689980e-001 6.509534e-001 6.356611e-001 6.756985e-001 7.422053e-001 7.196506e-001 5.993638e-001 7.353724e-003 1.190339e-002 2.553891e-002 4.746659e-002 7.025900e-002 9.470956e-002 9.587353e-002 1.196859e-001 1.121261e-001 1.231038e-001 1.282192e-001 1.266312e-001 1.065111e-001 1.035851e-003
<GCONST> 4.730952e+001
~h "four"
<BEGINHMM>
<NUMSTATES> 10
<STATE> 2
<NUMMIXES> 2
<MIXTURE> 1 5.235335e-001
<MEAN> 39
 -1.415130e+001 -6.867186e+000 -4.071902e+000 -1.291107e+001 -4.111825e+000 -1.183570e+001 -3.548652e+000 -5.495780e+000 -7.913801e-001 -4.286352e+000 -2.987790e-001 -4.817523e+000 1.326533e+001 1.889030e+000 5.100227e-001 -4.848630e-001 4.255564e-002 7.258267e-001 5.316331e-001 1.386051e-002 2.362878e-002 3.221354e-001 4.347953e-001 2.659299e-001 3.703841e-002 5.556991e-001 8.180831e-001 3.438928e-001 -4.289028e-001 -3.169555e-001 2.003120e-001 2.635881e-001 -8.360527e-002 -9.113102e-002 -1.271821e-001 1.116806e-001 1.218101e-001 -8.508794e-002 2.306696e-001
<VARIANCE> 39
 6.739846e+000 7.481545e+000 7.131135e+000 2.695221e+001 1.229959e+001 1.753208e+001 1.581634e+001 1.414556e+001 1.764479e+001 1.721215e+001 1.558361e+001 1.336566e+001 3.276104e+000 1.582474e+000 4.855691e-001 7.325305e-001 8.418223e-001 6.222273e-001 7.698923e-001 7.106843e-001 8.117753e-001 7.006878e-001 6.467786e-001 7.489287e-001 7.395144e-001 1.319494e-001 1.192417e-001 9.093000e-002 1.305470e-001 1.473019e-001 1.384193e-001 1.474781e-001 1.678683e-001 1.598511e-001 1.755380e-001 1.546188e-001 1.509995e-001 1.272821e-001 8.422459e-003
<GCONST> 7.012077e+001
<MIXTURE> 2 4.764666e-001
<MEAN> 39
 -1.577164e+001 -6.639144e+000 -3.142685e+000 -1.115461e+001 -5.001848e+000 -1.028304e+001 -1.999985e+000 -5.923699e+000 -1.404700e+000 -5.128475e+000 4.260729e-001 -4.340093e+000 1.222651e+001 1.078023e+000 -6.893644e-002 -3.595808e-001 -4.305130e-002 3.653165e-001 -7.236589e-002 -2.009379e-001 -2.444008e-001 -1.813172e-001 -2.706535e-001 -4.612007e-001 -3.091998e-001 5.207559e-001 7.139534e-001 1.417684e-001 -3.179977e-001 -1.019696e-001 1.670530e-001 1.057091e-002 -1.448024e-001 2.760998e-003 -2.793497e-002 -5.530165e-003 -2.118454e-001 -2.108047e-001 1.703533e-001
<VARIANCE> 39
 1.468221e+001 8.645587e+000 8.148470e+000 2.408093e+001 1.253910e+001 1.514740e+001 1.829912e+001 1.583685e+001 1.594692e+001 1.431269e+001 1.848749e+001 1.594695e+001 6.148229e+000 2.119760e+000 5.698783e-001 7.124797e-001 5.282146e-001 6.664063e-001 6.798904e-001 5.749477e-001 7.289264e-001 8.231736e-001 7.672663e-001 8.891804e-001 6.444247e-001 2.179329e-001 1.924112e-001 8.968268e-002 1.681186e-001 1.163230e-001 1.352455e-001 1.455872e-001 1.305076e-001 1.805799e-001 1.502358e-001 1.624233e-001 1.993477e-001 1.299874e-001 1.958978e-002
<GCONST> 7.369091e+001
<STATE> 3
<NUMMIXES> 2
<MIXTURE> 1 5.124213e-001
<MEAN> 39
 -6.827414e+000 -3.962212e+000 -3.924631e+000 -1.221305e+001 -3.561962e-001 -8.841568e+000 -3.041346e+000 -4.854615e+000 -3.528624e-001 -4.043168e+000 -7.065031e-001 -5.854090e+000 1.554837e+001 3.521342e+000 1.139344e+000 -1.991082e+000 -1.092658e+000 9.956029e-001 8.707345e-001 -1.099798e-001 -1.593777e-001 -1.432312e-001 7.065389e-001 6.205577e-001 -1.440923e-001 1.065526e+000 4.349059e-002 9.369149e-002 -3.962677e-001 -3.634262e-001 -8.523497e-002 2.544177e-002 1.805249e-002 -5.341066e-002 -1.531675e-001 1.129574e-001 1.733260e-001 6.623344e-002 4.415797e-002
<VARIANCE> 39
 2.872292e+001 1.424553e+001 1.274586e+001 2.865462e+001 9.844392e+000 1.273793e+001 1.426253e+001 1.580748e+001 1.754717e+001 1.252414e+001 1.684781e+001 1.400109e+001 4.288379e+000 1.737389e+000 8.750008e-001 8.992104e-001 1.113129e+000 1.140479e+000 9.395127e-001 8.393611e-001 1.364650e+000 1.299628e+000 1.091769e+000 1.298175e+000 1.089649e+000 1.237484e-001 1.234572e-001 8.022918e-002 9.049359e-002 1.194708e-001 1.045050e-001 1.063705e-001 1.306478e-001 1.020983e-001 1.835594e-001 1.760154e-001 1.588518e-001 1.658374e-001 1.139302e-002
<GCONST> 7.588311e+001
<MIXTURE> 2 4.875787e-001
<MEAN> 39
 -4.524013e+000 -3.709855e+000 -5.394972e+000 -1.230566e+001 -2.015776e+000 -9.205879e+000 -3.085656e+000 -6.463777e+000 -1.791672e+000 -4.389579e+000 -5.124844e-001 -4.897752e+000 1.548701e+001 3.779305e+000 8.912836e-001 -2.208499e+000 -1.348215e+000 4.074293e-001 2.395302e-001 -7.698240e-001 -5.093951e-001 -5.776577e-001 -2.733984e-001 -6.510400e-001 -9.037028e-001 1.184743e+000 -5.105161e-002 4.580680e-002 -3.496361e-001 -2.913425e-001 -1.692583e-001 -5.965244e-002 -8.317646e-002 1.046977e-002 -7.787574e-002 -8.697399e-002 -9.196822e-002 -1.542953e-001 2.659241e-003
<VARIANCE> 39
 4.546292e+001 1.602776e+001 1.830142e+001 3.243474e+001 1.476939e+001 2.315201e+001 1.821413e+001 1.986536e+001 1.686021e+001 1.989079e+001 2.287809e+001 1.294722e+001 5.553332e+000 1.756109e+000 1.442346e+000 1.339915e+000 1.493006e+000 1.583673e+000 1.911389e+000 1.601324e+000 1.475807e+000 1.561921e+000 1.684053e+000 2.727454e+000 1.467431e+000 1.516641e-001 2.439362e-001 7.916009e-002 1.172964e-001 1.330180e-001 1.357722e-001 1.919374e-001 1.348025e-001 1.829860e-001 2.042269e-001 2.637083e-001 1.678347e-001 1.405390e-001 1.918989e-002
<GCONST> 8.758046e+001
<STATE> 4
<NUMMIXES> 2
<MIXTURE> 1 5.361968e-001
<MEAN> 39
 3.025730e+000 -4.147526e+000 -1.520135e+001 -1.523309e+001 2.963844e+000 -8.888026e+000 -4.127943e+000 -5.331544e+000 5.960622e-001 -1.278358e+000 -2.656728e+000 -8.757884e+000 1.872581e+001 1.199253e+000 4.825609e-001 -1.320987e+000 -6.666390e-001 5.662938e-001 9.272395e-001 2.804904e-001 -1.007020e-001 2.175406e-001 9.068795e-001 6.315252e-001 1.941477e-001 4.262977e-001 -6.312775e-001 -3.344463e-002 4.795274e-001 2.120037e-002 -3.567912e-001 3.314250e-003 1.356522e-001 -4.893994e-002 -2.034228e-001 -1.790763e-001 1.810198e-001 2.629477e-001 -2.013714e-001
<VARIANCE> 39
 2.588818e+001 1.478648e+001 2.061141e+001 2.750723e+001 1.638930e+001 1.753559e+001 1.898363e+001 2.722276e+001 2.060464e+001 2.769031e+001 4.966722e+001 3.887259e+001 1.524159e+000 1.498803e+000 5.306218e-001 1.179880e+000 6.605971e-001 9.570959e-001 8.491085e-001 9.096892e-001 1.384262e+000 1.077896e+000 9.610069e-001 1.281574e+000 1.439304e+000 1.499864e-001 1.587977e-001 1.118680e-001 1.203207e-001 1.406577e-001 9.977505e-002 1.659551e-001 1.548103e-001 2.368982e-001 1.661808e-001 1.894877e-001 2.554161e-001 2.011015e-001 1.166268e-002
<GCONST> 8.210789e+001
<MIXTURE> 2 4.638037e-001
<MEAN> 39
 3.642159e+000 -8.875162e-002 -1.400483e+001 -2.049005e+001 -2.409353e+000 -8.439212e+000 -6.594150e+000 -8.575807e+000 -4.873968e+000 -4.704828e+000 9.777209e-001 -7.103532e+000 1.856898e+001 1.780571e+000 7.720129e-001 -1.584628e+000 -1.494459e+000 -3.202778e-001 1.438790e-001 -3.509163e-001 -3.460420e-001 -7.702090e-001 -4.275453e-001 -1.560223e-001 -4.252194e-001 6.434853e-001 -7.992766e-001 -3.411938e-001 4.584374e-001 3.809620e-001 -1.110259e-001 -9.042488e-002 1.859129e-001 1.753262e-001 2.364430e-001 -2.284986e-003 -1.121930e-001 1.380699e-001 -2.392750e-001
<VARIANCE> 39
 2.353802e+001 1.612286e+001 1.931166e+001 1.759293e+001 2.436036e+001 3.059231e+001 2.126965e+001 1.975013e+001 2.468132e+001 3.034771e+001 4.753237e+001 2.613719e+001 1.196137e+000 1.614259e+000 8.025012e-001 1.176356e+000 1.150000e+000 1.331372e+000 1.096245e+000 1.283555e+000 9.311296e-001 1.217201e+000 1.450552e+000 1.524755e+000 1.220045e+000 1.485078e-001 1.158400e-001 1.423111e-001 1.295206e-001 1.613037e-001 1.390789e-001 1.935440e-001 2.005076e-001 1.594196e-001 2.037583e-001 2.587285e-001 2.376575e-001 1.687131e-001 7.882901e-003
<GCONST> 8.438648e+001
<STATE> 5
<NUMMIXES> 2
<MIXTURE> 1 5.117181e-001
<MEAN> 39
 2.858657e+000 3.296648e-001 -1.431927e+001 -2.036471e+001 -9.040093e-001 -6.452686e+000 -2.150631e+000 -6.977429e+000 -3.027123e+000 -2.167403e+000 2.240074e+000 -4.467570e+000 1.895996e+001 -1.380821e-002 -1.175736e-001 -1.760742e-002 -1.209497e-002 7.204972e-002 2.123642e-001 -7.422775e-002 5.844519e-002 2.187637e-002 1.420250e-001 1.683543e-001 9.318942e-002 -1.209991e-002 -6.004845e-002 -2.160901e-001 4.108555e-002 1.774367e-001 1.407200e-001 -8.037917e-002 -1.854445e-001 6.497717e-002 1.985613e-001 3.401672e-002 -1.450489e-001 -1.458782e-001 -1.303657e-002
<VARIANCE> 39
 3.121181e+001 9.920596e+000 2.899157e+001 3.115856e+001 2.928866e+001 1.819143e+001 1.851936e+001 1.420058e+001 2.520885e+001 2.656301e+001 3.465932e+001 3.091710e+001 1.557797e+000 1.147357e-001 5.238123e-001 3.911097e-001 5.083380e-001 7.045786e-001 4.896742e-001 7.813888e-001 6.053063e-001 8.109712e-001 7.883810e-001 9.511955e-001 9.377431e-001 7.219416e-003 1.755793e-002 3.975410e-002 6.090760e-002 5.635179e-002 7.745608e-002 9.394768e-002 8.896994e-002 1.102318e-001 1.129755e-001 1.459726e-001 1.641953e-001 1.315678e-001 1.531566e-003
<GCONST> 6.135240e+001
<MIXTURE> 2 4.882804e-001
<MEAN> 39
 1.212567e+000 -2.164684e-002 -1.277768e+001 -2.208346e+001 -2.104684e+000 -7.435039e+000 -3.976556e+000 -8.144836e+000 -4.340714e+000 -4.036099e+000 4.938414e-001 -6.709720e+000 1.886318e+001 -6.620778e-002 -4.030041e-001 2.430070e-003 2.135569e-001 1.977742e-001 7.543156e-002 -3.269983e-001 7.979155e-002 4.291397e-001 2.147303e-001 -1.676887e-001 -2.983798e-001 1.165782e-002 -1.021710e-001 -2.486249e-001 1.031955e-001 3.145856e-001 8.528972e-002 -1.156726e-001 -1.405923e-001 1.211425e-001 2.720216e-001 2.913307e-002 -1.569552e-001 -1.231311e-001 -3.162699e-002
<VARIANCE> 39
 2.647792e+001 1.072969e+001 2.489874e+001 1.976386e+001 2.983481e+001 2.076887e+001 2.214723e+001 1.672061e+001 2.247499e+001 2.727772e+001 3.405030e+001 3.178979e+001 1.212464e+000 1.463400e-001 6.691496e-001 4.810373e-001 6.956453e-001 9.714606e-001 6.941200e-001 1.000630e+000 8.510783e-001 1.320441e+000 1.348284e+000 8.894674e-001 1.003665e+000 1.036664e-002 3.031923e-002 5.192540e-002 8.202790e-002 9.685320e-002 1.048751e-001 1.266183e-001 1.367435e-001 1.460485e-001 1.667690e-001 2.268845e-001 1.968248e-001 1.556011e-001 3.325823e-003
<GCONST> 6.939738e+001
<STATE> 6
<NUMMIXES> 2
<MIXTURE> 1 5.135764e-001
<MEAN> 39
 2.206252e+000 -6.212877e+000 -1.413835e+001 -1.569624e+001 3.250877e+000 -6.996476e+000 -7.722510e+000 -3.446164e+000 2.563523e+000 -1.249365e+000 -1.156200e+000 -7.888834e+000 1.884308e+001 -2.747112e-001 -1.663007e+000 8.070233e-001 1.469542e+000 -3.410032e-001 -4.820736e-001 -4.383930e-001 1.374102e+000 1.010481e+000 -1.254006e+000 -1.072687e+000 -7.068417e-003 -2.947631e-002 -2.623648e-002 -1.118094e-002 3.031141e-001 1.146680e-001 -5.144050e-001 -4.994108e-002 4.771936e-001 1.055811e-002 -3.188491e-001 -3.427494e-001 1.016446e-001 3.037150e-001 -2.217829e-002
<VARIANCE> 39
 2.346227e+001 1.450111e+001 1.407661e+001 2.345369e+001 2.742788e+001 2.754090e+001 2.703337e+001 2.775517e+001 3.259497e+001 2.645648e+001 4.055126e+001 2.880013e+001 1.847284e+000 8.945804e-002 6.353621e-001 8.158504e-001 7.735456e-001 1.405676e+000 1.361889e+000 1.791777e+000 1.560278e+000 2.527992e+000 1.968369e+000 1.614556e+000 1.451530e+000 8.871124e-003 1.579520e-002 6.496079e-002 6.962068e-002 1.045554e-001 1.304661e-001 1.826948e-001 2.241955e-001 2.404842e-001 2.861914e-001 2.277755e-001 2.924191e-001 1.909990e-001 7.766387e-004
<GCONST> 7.583364e+001
<MIXTURE> 2 4.864226e-001
<MEAN> 39
 2.494369e+000 -6.236979e+000 -1.415201e+001 -1.627759e+001 -1.263623e+000 -7.135914e+000 -8.749278e+000 -8.157517e+000 2.441908e+000 -1.149348e+000 -2.762134e+000 -1.097759e+001 1.893591e+001 -3.307579e-001 -1.646781e+000 6.389539e-001 1.862000e+000 -1.855979e-001 -9.800677e-001 -1.915243e-001 9.865516e-001 1.071938e+000 -3.117722e-001 -1.208302e+000 -4.418479e-001 -4.889585e-002 -8.836938e-002 6.120972e-002 3.203537e-001 1.053027e-001 -3.776529e-001 -2.402410e-001 4.428667e-001 3.032503e-001 -4.426941e-001 -4.813269e-001 7.074154e-002 3.612413e-001 -3.837304e-002
<VARIANCE> 39
 2.806779e+001 1.721840e+001 1.532987e+001 3.315150e+001 5.420668e+001 3.649866e+001 2.455054e+001 4.218879e+001 3.733536e+001 3.777923e+001 4.425772e+001 2.974312e+001 1.439137e+000 1.974688e-001 8.137096e-001 8.132410e-001 1.461377e+000 1.460184e+000 1.469293e+000 1.789062e+000 2.077966e+000 2.868072e+000 3.603963e+000 1.580597e+000 1.947954e+000 1.581743e-002 2.491847e-002 9.371113e-002 7.153999e-002 1.569478e-001 1.796952e-001 2.428290e-001 2.227812e-001 2.890857e-001 3.528062e-001 3.114905e-001 2.950465e-001 2.658084e-001 1.515738e-003
<GCONST> 8.548521e+001
<STATE> 7
<NUMMIXES> 2
<MIXTURE> 1 5.085908e-001
<MEAN> 39
 1.662931e+000 -1.324151e+001 -8.540113e+000 -7.507957e+000 -4.834051e+000 -9.591325e+000 -2.491810e+000 1.012932e+000 2.555906e+000 -7.781435e+000 -2.620132e+000 -3.788792e+000 1.848287e+001 -3.515665e-001 -5.435090e-001 1.461391e+000 9.687722e-001 -1.627902e+000 -5.296317e-002 1.586696e+000 3.761604e-002 -1.105076e+000 -5.895720e-001 5.085812e-001 5.895411e-001 -1.560781e-001 -5.532618e-002 4.323440e-001 6.156233e-002 -3.539008e-001 1.081059e-001 2.806537e-001 3.816682e-002 -4.918740e-001 -2.275728e-001 4.352349e-001 2.153422e-001 -1.978308e-001 -3.790868e-002
<VARIANCE> 39
 2.726724e+001 2.669649e+001 1.566834e+001 2.988908e+001 6.304182e+001 5.272458e+001 3.786501e+001 3.862121e+001 4.531333e+001 3.100796e+001 2.643846e+001 2.489572e+001 2.300040e+000 2.751011e-001 8.064640e-001 7.450658e-001 1.022153e+000 1.658056e+000 1.938896e+000 1.607868e+000 1.859201e+000 1.277961e+000 1.710023e+000 1.420484e+000 1.169228e+000 1.542994e-002 2.105008e-002 7.796514e-002 7.278475e-002 1.195974e-001 2.081505e-001 2.489319e-001 2.617445e-001 2.876973e-001 3.986956e-001 2.956416e-001 2.499413e-001 1.743181e-001 1.363285e-003
<GCONST> 8.341402e+001
<MIXTURE> 2 4.914085e-001
<MEAN> 39
 -1.063242e+000 -1.116884e+001 -8.430385e+000 -1.069187e+001 -3.203340e+000 -1.189703e+001 -3.954144e+000 -8.408163e-001 -9.743365e-001 -9.698094e+000 -5.890526e+000 -8.780882e+000 1.850173e+001 -4.756283e-001 -2.674993e-001 1.362541e+000 5.805225e-001 -1.374849e+000 -1.734363e-001 1.103410e+000 2.606694e-002 -1.070314e+000 -6.371422e-001 3.629616e-001 3.879933e-001 -1.684265e-001 -7.537699e-002 4.022194e-001 6.357613e-002 -3.130338e-001 9.694175e-002 2.507998e-001 -3.244066e-002 -4.193301e-001 -9.660571e-002 3.942319e-001 1.830399e-001 -1.065731e-001 -4.217062e-002
<VARIANCE> 39
 2.145137e+001 2.707965e+001 1.421494e+001 1.791925e+001 3.996066e+001 3.781585e+001 3.517601e+001 2.801411e+001 4.642219e+001 3.685265e+001 2.789807e+001 3.079045e+001 1.372773e+000 2.390682e-001 8.419940e-001 6.982197e-001 1.056962e+000 1.437421e+000 1.782635e+000 1.498675e+000 1.873739e+000 1.574166e+000 2.106243e+000 1.224447e+000 1.430297e+000 1.953612e-002 2.353886e-002 9.395603e-002 9.358156e-002 1.359503e-001 2.249546e-001 1.971622e-001 2.687063e-001 2.176175e-001 3.353727e-001 3.006728e-001 2.771408e-001 2.181854e-001 2.303557e-003
<GCONST> 8.259676e+001
<STATE> 8
<NUMMIXES> 2
<MIXTURE> 1 5.565317e-001
<MEAN> 39
 7.494012e-001 -1.198373e+001 -2.257738e+000 -6.775685e+000 -1.097912e+001 -7.182096e+000 1.587478e+000 -3.792657e+000 -2.812967e+000 -5.252060e+000 -4.326071e-002 -5.162814e+000 1.746023e+001 -9.555638e-001 1.387575e+000 1.587428e+000 -2.970110e-001 3.564569e-001 6.706823e-001 5.350847e-001 -9.252322e-001 -6.654059e-001 7.716585e-001 2.162512e-001 -1.204856e-001 -4.321126e-001 -2.227917e-001 3.505908e-001 -1.792136e-001 -1.939407e-001 5.984421e-001 3.305940e-002 -4.210907e-001 -8.317517e-003 2.525418e-001 7.009400e-002 -1.505583e-001 -5.167085e-002 -8.096406e-002
<VARIANCE> 39
 2.973596e+001 3.610023e+001 2.786629e+001 5.567116e+001 6.991907e+001 8.243771e+001 4.088221e+001 3.549428e+001 3.816103e+001 3.398727e+001 3.291750e+001 2.308436e+001 2.761513e+000 7.236381e-001 1.220376e+000 9.985145e-001 1.807913e+000 2.013874e+000 2.575564e+000 1.933409e+000 2.166280e+000 2.741229e+000 2.306189e+000 1.738925e+000 1.414831e+000 7.542980e-002 1.360331e-001 2.163176e-001 1.686667e-001 2.838707e-001 3.229703e-001 3.908872e-001 3.032257e-001 2.825285e-001 3.441319e-001 3.272329e-001 2.570890e-001 2.029566e-001 1.043823e-002
<GCONST> 9.967255e+001
<MIXTURE> 2 4.434679e-001
<MEAN> 39
 -2.148463e+000 -7.177503e+000 1.768696e-001 -8.970324e+000 -7.633215e+000 -7.730906e+000 -1.649659e+000 -7.751346e+000 -5.618230e+000 -7.935802e+000 -5.257317e+000 -9.746566e+000 1.667751e+001 -1.431928e+000 1.491066e+000 1.008291e+000 -1.410048e-001 7.735555e-001 9.348798e-002 -2.157743e-001 -8.257455e-001 -1.874742e-001 4.831958e-001 -1.052026e-002 1.316714e-001 -5.555368e-001 -2.213225e-001 -9.631172e-002 -4.023227e-001 -1.197710e-001 2.377788e-001 -6.766918e-002 -1.811607e-001 2.410214e-001 2.671736e-001 9.335604e-002 1.957548e-001 2.010289e-001 -7.767390e-002
<VARIANCE> 39
 2.484246e+001 4.684456e+001 3.619843e+001 5.900813e+001 4.850124e+001 6.389942e+001 4.590809e+001 4.854464e+001 4.614769e+001 5.687637e+001 4.959471e+001 3.780995e+001 2.857859e+000 1.488529e+000 1.655190e+000 1.387655e+000 2.017614e+000 2.228591e+000 1.903680e+000 2.270567e+000 2.301843e+000 1.871326e+000 2.282471e+000 2.173688e+000 2.358432e+000 1.803535e-001 1.183263e-001 2.960205e-001 1.953632e-001 2.846282e-001 3.325483e-001 2.942358e-001 3.417297e-001 3.728564e-001 3.563868e-001 4.120257e-001 3.386838e-001 2.714362e-001 1.144182e-002
<GCONST> 1.056128e+002
<STATE> 9
<NUMMIXES> 2
<MIXTURE> 1 4.901125e-001
<MEAN> 39
 -7.484998e+000 -4.263569e+000 -7.768372e-002 -9.430068e+000 -4.075565e+000 -6.538171e+000 -1.259517e+000 -7.249255e+000 -3.442611e+000 -3.531103e+000 -2.036893e-001 -5.205097e+000 1.363986e+001 -6.605019e-001 8.506734e-001 -1.236290e-001 -2.523961e-001 5.074625e-001 -1.914349e-001 -3.592522e-001 7.926194e-002 3.802218e-001 2.824176e-001 1.211997e-001 4.780350e-002 -3.530548e-001 1.172323e-001 -1.705289e-001 -1.626903e-001 6.925640e-002 -4.160853e-002 -3.295292e-002 3.385704e-002 1.630729e-001 4.701821e-002 -9.951435e-002 -5.553335e-002 -3.002263e-002 5.171456e-002
<VARIANCE> 39
 2.465509e+001 4.224034e+001 2.011931e+001 5.236673e+001 2.895748e+001 4.402996e+001 2.991134e+001 3.182954e+001 2.987220e+001 2.684090e+001 2.676531e+001 2.501708e+001 1.365837e+001 9.004689e-001 1.565534e+000 1.152910e+000 1.330467e+000 1.397179e+000 1.743684e+000 1.428667e+000 1.501449e+000 1.236236e+000 1.332417e+000 1.369399e+000 1.182632e+000 1.019731e-001 9.487908e-002 1.869085e-001 1.679993e-001 2.026600e-001 1.506202e-001 2.523330e-001 1.941348e-001 2.033930e-001 1.837983e-001 2.115034e-001 1.947025e-001 1.930268e-001 1.578403e-002
<GCONST> 9.193417e+001
<MIXTURE> 2 5.098866e-001
<MEAN> 39
 -1.058430e+001 -4.069250e+000 3.712651e-001 -8.146157e+000 -2.361777e+000 -6.562582e+000 -9.065872e-001 -5.928319e+000 -1.704460e+000 -3.127778e+000 -4.617413e-001 -5.472085e+000 1.320906e+001 -1.462157e+000 -1.491726e-001 -8.365007e-001 -1.026398e+000 -8.796909e-002 -3.469609e-001 -5.895106e-001 -1.442012e-001 -2.966881e-002 1.825208e-001 2.453817e-001 1.382192e-001 -5.341879e-001 3.315770e-001 -2.473837e-001 -2.679867e-001 -1.465583e-001 -3.315026e-001 -2.172110e-001 -8.533798e-002 -7.553938e-003 -4.456573e-002 -1.682998e-001 -9.729525e-002 -4.815375e-002 1.202376e-001
<VARIANCE> 39
 1.952574e+001 3.423600e+001 2.585712e+001 5.370960e+001 2.846515e+001 4.325745e+001 2.784202e+001 3.377303e+001 2.636693e+001 2.609696e+001 2.211480e+001 2.203550e+001 6.548540e+000 1.090376e+000 1.239230e+000 1.378478e+000 1.282627e+000 1.741945e+000 1.465485e+000 9.338226e-001 1.306370e+000 1.267962e+000 1.236461e+000 1.521584e+000 1.045040e+000 1.396456e-001 1.334570e-001 2.740741e-001 2.537210e-001 2.384962e-001 2.311378e-001 2.091000e-001 1.646237e-001 1.948873e-001 1.916321e-001 1.888806e-001 1.905763e-001 1.772720e-001 1.118351e-002
<GCONST> 9.115195e+001
<TRANSP> 10
 0.000000e+000 1.000000e+000 0.000000e+000 0.000000e+000 0.000000e+000 0.000000e+000 0.000000e+000 0.000000e+000 0.000000e+000 0.000000e+000
 0.000000e+000 7.005601e-001 2.994398e-001 0.000000e+000 0.000000e+000 0.000000e+000 0.000000e+000 0.000000e+000 0.000000e+000 0.000000e+000
 0.000000e+000 0.000000e+000 4.463420e-001 5.536580e-001 0.000000e+000 0.000000e+000 0.000000e+000 0.000000e+000 0.000000e+000 0.000000e+000
 0.000000e+000 0.000000e+000 0.000000e+000 7.226610e-001 2.773390e-001 0.000000e+000 0.000000e+000 0.000000e+000 0.000000e+000 0.000000e+000
 0.000000e+000 0.000000e+000 0.000000e+000 0.000000e+000 8.505548e-001 1.494452e-001 0.000000e+000 0.000000e+000 0.000000e+000 0.000000e+000
 0.000000e+000 0.000000e+000 0.000000e+000 0.000000e+000 0.000000e+000 7.441807e-001 2.558193e-001 0.000000e+000 0.000000e+000 0.000000e+000
 0.000000e+000 0.000000e+000 0.000000e+000 0.000000e+000 0.000000e+000 0.000000e+000 7.623542e-001 2.376458e-001 0.000000e+000 0.000000e+000
 0.000000e+000 0.000000e+000 0.000000e+000 0.000000e+000 0.000000e+000 0.000000e+000 0.000000e+000 7.341317e-001 2.658683e-001 0.000000e+000
 0.000000e+000 0.000000e+000 0.000000e+000 0.000000e+000 0.000000e+000 0.000000e+000 0.000000e+000 0.000000e+000 7.837931e-001 2.162069e-001
 0.000000e+000 0.000000e+000 0.000000e+000 0.000000e+000 0.000000e+000 0.000000e+000 0.000000e+000 0.000000e+000 0.000000e+000 0.000000e+000
<ENDHMM>
~h "seven"
<BEGINHMM>
<NUMSTATES> 10
<STATE> 2
<NUMMIXES> 2
<MIXTURE> 1 4.899922e-001
<MEAN> 39
 -1.580845e+001 -4.606132e+000 -7.088509e+000 -1.307463e+001 -5.775564e+000 -8.973604e+000 -4.817349e+000 -5.051482e+000 -7.809298e-001 -3.407497e+000 -1.126511e+000 -4.780872e+000 1.346411e+001 9.107305e-001 4.297719e-001 6.072812e-001 -1.247938e-001 5.043831e-002 8.183087e-002 8.114832e-001 6.465485e-002 2.511371e-001 1.987051e-001 -7.785998e-002 1.376113e-001 3.410535e-001 5.900009e-001 1.596650e-001 2.952458e-001 -1.770839e-001 -2.149253e-001 6.740359e-003 3.861917e-001 -2.336082e-002 -6.081185e-002 5.466058e-002 -1.537848e-001 -1.610716e-001 2.357560e-001
<VARIANCE> 39
 8.871037e+000 1.068210e+001 1.170013e+001 2.657377e+001 1.725444e+001 2.875300e+001 2.081693e+001 1.534873e+001 1.803857e+001 2.128612e+001 1.905762e+001 1.852648e+001 3.305620e+000 4.730518e-001 4.370085e-001 4.951607e-001 4.797219e-001 6.158707e-001 5.799513e-001 7.918769e-001 8.260438e-001 7.865920e-001 1.150496e+000 8.155178e-001 5.945072e-001 5.706381e-002 6.298577e-002 8.025111e-002 1.003067e-001 1.252867e-001 1.270972e-001 1.916862e-001 1.712417e-001 1.686555e-001 1.950319e-001 2.642829e-001 1.776470e-001 1.568469e-001 8.539340e-003
<GCONST> 7.056718e+001
<MIXTURE> 2 5.100074e-001
<MEAN> 39
 -1.831285e+001 -5.488738e+000 -7.988975e+000 -8.890347e+000 -6.636508e+000 -6.132213e+000 -4.397491e+000 -4.370559e+000 2.171925e-001 -4.156011e+000 1.107032e-002 -4.373548e+000 1.197925e+001 6.903806e-002 -1.053305e-001 -1.416942e-001 2.215997e-002 1.274842e-002 4.121713e-002 2.320781e-002 -2.262027e-001 -5.578172e-003 -1.307011e-001 2.011311e-002 3.895832e-002 1.089354e-001 3.340637e-001 1.724842e-001 2.088334e-001 -1.413623e-001 2.680993e-002 -4.270478e-002 8.554278e-002 -1.012394e-001 1.384674e-002 -1.017411e-001 -1.134351e-001 -5.202533e-002 7.607259e-002
<VARIANCE> 39
 9.414073e+000 2.376638e+001 1.155715e+001 2.564960e+001 1.767085e+001 2.261414e+001 1.891610e+001 1.985533e+001 2.287328e+001 2.631095e+001 2.331655e+001 1.586961e+001 2.970038e+000 3.015037e-001 4.101930e-001 4.555512e-001 4.496596e-001 5.881933e-001 5.592101e-001 6.087883e-001 5.757528e-001 6.655194e-001 8.080207e-001 7.191876e-001 5.532936e-001 4.143064e-002 8.007289e-002 7.989056e-002 7.334106e-002 9.784739e-002 1.194765e-001 1.131299e-001 1.222948e-001 1.063406e-001 1.356357e-001 1.547409e-001 1.663307e-001 1.315939e-001 1.689721e-002
<GCONST> 6.713772e+001
<STATE> 3
<NUMMIXES> 2
<MIXTURE> 1 4.688427e-001
<MEAN> 39
 -1.349512e+001 -2.677433e+000 -4.586980e+000 -1.226118e+001 -5.056542e+000 -7.888982e+000 -3.010916e+000 -5.581110e+000 3.789966e-002 -4.342065e+000 -2.035795e+000 -4.809566e+000 1.418499e+001 2.348962e+000 4.081583e-001 9.815022e-001 -1.061751e+000 -5.467188e-001 1.435893e-001 1.638335e+000 -1.362415e-001 2.098271e-001 1.051120e-002 -3.821543e-001 -2.545595e-001 9.568855e-001 1.924389e-001 -2.592994e-001 -8.852754e-002 -2.502638e-001 -1.196318e-001 1.740259e-001 3.435569e-001 -2.712109e-002 -1.122123e-001 -2.808089e-002 -1.385410e-002 -2.589141e-002 1.718748e-001
<VARIANCE> 39
 1.802597e+001 1.277313e+001 1.761229e+001 2.989077e+001 1.835553e+001 3.029712e+001 1.914364e+001 2.042579e+001 1.718084e+001 4.225014e+001 1.973234e+001 1.865978e+001 3.985035e+000 7.716216e-001 8.958036e-001 6.222147e-001 1.229299e+000 6.566245e-001 2.043694e+000 1.201408e+000 1.557174e+000 1.751909e+000 2.274422e+000 8.781530e-001 8.613491e-001 9.510521e-002 1.606695e-001 8.006291e-002 1.078515e-001 1.254818e-001 1.690186e-001 2.126024e-001 1.263091e-001 1.619660e-001 1.622082e-001 2.085119e-001 1.442017e-001 2.009259e-001 1.642619e-002
<GCONST> 8.167619e+001
<MIXTURE> 2 5.311569e-001
<MEAN> 39
 -1.195125e+001 -2.924853e+000 -3.612645e+000 -1.275444e+001 -4.956218e+000 -9.327822e+000 -2.310786e+000 -4.099388e+000 -5.595097e-001 -2.678585e+000 -5.726564e-002 -5.179675e+000 1.441285e+001 2.117784e+000 2.905151e-001 5.343537e-001 -1.034932e+000 -1.175452e+000 1.492892e-002 1.327966e+000 -3.726040e-001 -2.806883e-001 -3.779038e-001 -1.070242e+000 -1.057660e+000 1.022639e+000 6.981826e-002 -2.574365e-001 -2.423417e-001 -2.561049e-001 -1.352154e-001 2.596720e-001 1.588558e-001 -1.718121e-001 -1.358667e-001 -3.930347e-001 -3.601596e-001 -3.566398e-001 1.388239e-001
<VARIANCE> 39
 2.075854e+001 1.113955e+001 1.356627e+001 1.984084e+001 2.086136e+001 1.648616e+001 2.460937e+001 1.795445e+001 2.183171e+001 4.022900e+001 2.020771e+001 1.440896e+001 5.836718e+000 6.731395e-001 5.914941e-001 7.237117e-001 1.184170e+000 6.501428e-001 1.580135e+000 1.294595e+000 1.856690e+000 1.465205e+000 2.904208e+000 1.126830e+000 8.971133e-001 1.234205e-001 1.609288e-001 6.256998e-002 9.290890e-002 1.146512e-001 1.438861e-001 1.543063e-001 1.560059e-001 1.568492e-001 2.448024e-001 1.596227e-001 1.873164e-001 1.015687e-001 1.972959e-002
<GCONST> 8.027097e+001
<STATE> 4
<NUMMIXES> 2
<MIXTURE> 1 4.795759e-001
<MEAN> 39
 -4.643639e+000 -3.156453e+000 -3.831055e+000 -2.018700e+001 -5.908440e+000 -5.259311e+000 1.863955e+000 -9.868387e+000 2.643615e+000 -1.162233e+001 -4.241304e+000 -8.529971e+000 1.812664e+001 8.318538e-001 -6.906400e-001 -2.895153e-001 -6.567862e-001 6.597112e-001 1.892396e+000 1.479079e+000 -7.776352e-001 3.783959e-001 -8.518168e-001 -1.463213e-001 2.485274e-001 7.260265e-001 -5.472218e-001 -3.267608e-001 -1.370950e-001 4.384012e-001 3.725563e-001 -1.631495e-003 -2.244779e-001 2.042008e-001 -2.084186e-001 3.640173e-001 3.101209e-001 3.082034e-001 -2.004721e-001
<VARIANCE> 39
 8.106656e+000 1.120748e+001 9.294255e+000 1.218795e+001 2.077600e+001 2.672945e+001 2.425780e+001 2.188677e+001 2.223089e+001 5.405599e+001 2.519570e+001 2.582241e+001 1.352254e+000 1.097514e+000 5.852193e-001 4.187385e-001 1.030441e+000 1.288471e+000 7.466728e-001 1.196051e+000 9.025301e-001 1.042569e+000 1.573456e+000 1.022217e+000 1.371164e+000 1.649846e-001 9.024721e-002 8.529727e-002 7.000166e-002 1.278450e-001 1.251291e-001 1.953353e-001 1.358083e-001 1.161425e-001 1.401270e-001 2.615959e-001 1.448208e-001 1.269495e-001 1.369839e-002
<GCONST> 7.613020e+001
<MIXTURE> 2 5.204227e-001
<MEAN> 39
 -5.406515e+000 -4.600706e+000 -3.094675e+000 -1.728362e+001 -1.338819e+001 -1.004661e+001 4.869666e+000 -4.015565e+000 -5.140234e+000 -1.040853e-001 -6.499762e+000 -9.623467e+000 1.877169e+001 6.514017e-001 -1.018081e+000 -5.269883e-001 -8.776958e-001 -5.375330e-001 5.835088e-001 1.265992e+000 -4.230201e-002 -1.180178e+000 -1.035941e+000 -9.193853e-001 -1.021935e+000 6.720979e-001 -5.462240e-001 -1.365718e-001 -2.924526e-001 2.821055e-001 4.949518e-001 3.074736e-001 -4.107535e-001 -4.584211e-002 2.639103e-002 -4.012398e-001 2.833120e-001 2.230073e-001 -2.339869e-001
<VARIANCE> 39
 7.176581e+000 1.046747e+001 1.219319e+001 2.407290e+001 9.849687e+000 2.011229e+001 2.027917e+001 3.690051e+001 2.971615e+001 4.703681e+001 2.513378e+001 2.417464e+001 1.390193e+000 1.026616e+000 4.187217e-001 6.444868e-001 1.068079e+000 1.164950e+000 1.467805e+000 1.069736e+000 1.451988e+000 1.327123e+000 1.362966e+000 1.231465e+000 8.860980e-001 1.793102e-001 9.796350e-002 9.582485e-002 1.143557e-001 1.524505e-001 9.514279e-002 1.800075e-001 1.495454e-001 1.817824e-001 2.020829e-001 2.207440e-001 1.789491e-001 1.275769e-001 8.734114e-003
<GCONST> 7.826681e+001
<STATE> 5
<NUMMIXES> 2
<MIXTURE> 1 4.769415e-001
<MEAN> 39
 -6.078427e+000 -7.701879e+000 -5.080839e+000 -1.784968e+001 -1.265036e+000 -3.534743e-001 4.696333e+000 -1.057933e+001 2.734345e-001 -9.186568e+000 -2.748801e+000 -4.262788e+000 1.869672e+001 1.670602e-001 -2.152706e-001 2.794122e-001 5.934957e-001 -1.154041e-001 -2.334254e-001 2.736640e-001 2.783686e-001 -3.939575e-001 6.793971e-001 -1.349834e-003 3.066465e-001 -9.426152e-002 7.967395e-002 3.414206e-001 2.813790e-001 2.484970e-001 -2.905562e-001 -5.800516e-001 -2.177063e-001 3.065113e-001 -4.850683e-002 2.322136e-001 -1.361671e-002 -1.870485e-001 -1.212240e-001
<VARIANCE> 39
 8.132276e+000 1.137739e+001 7.357996e+000 1.264401e+001 3.866516e+001 1.657997e+001 2.184294e+001 2.689737e+001 4.658157e+001 3.677543e+001 3.415762e+001 2.964156e+001 1.642288e+000 2.303658e-001 4.683288e-001 4.219587e-001 4.021386e-001 1.219609e+000 1.226031e+000 7.417400e-001 9.897568e-001 7.817206e-001 1.479411e+000 1.245899e+000 8.250564e-001 2.280904e-002 4.976561e-002 6.593299e-002 7.582837e-002 9.823071e-002 1.598939e-001 1.127288e-001 1.723397e-001 1.179396e-001 1.608946e-001 1.651332e-001 1.736378e-001 1.350465e-001 5.320045e-003
<GCONST> 6.977574e+001
<MIXTURE> 2 5.230570e-001
<MEAN> 39
 -7.712159e+000 -8.907830e+000 -6.551470e+000 -1.637594e+001 -5.026663e+000 -2.527500e+000 4.461017e+000 -8.328235e+000 -4.918198e+000 -9.117801e+000 -4.549824e+000 -8.408669e+000 1.918144e+001 -7.153564e-002 -5.855863e-001 -2.189818e-001 5.121580e-001 5.990174e-001 3.412418e-001 -2.118568e-002 1.835313e-001 -5.961201e-001 -3.092935e-001 3.761761e-001 1.086372e-001 1.915384e-002 1.124772e-001 2.773788e-001 2.233285e-001 1.249764e-001 -2.065287e-001 -5.136347e-001 -2.515649e-001 2.334216e-001 1.666401e-001 2.037686e-001 9.529435e-002 3.176356e-002 -1.095784e-001
<VARIANCE> 39
 5.898882e+000 1.241219e+001 6.509857e+000 1.954686e+001 3.970472e+001 2.494652e+001 3.037736e+001 4.720740e+001 4.384885e+001 4.374932e+001 2.872580e+001 2.309090e+001 1.326907e+000 2.036875e-001 2.999409e-001 2.458409e-001 3.767836e-001 9.056050e-001 1.082326e+000 6.699260e-001 9.485872e-001 7.465206e-001 1.353893e+000 8.596615e-001 7.403358e-001 1.305117e-002 4.887100e-002 3.671306e-002 4.380922e-002 9.979753e-002 1.940393e-001 1.100150e-001 1.971274e-001 1.332550e-001 1.515593e-001 1.563306e-001 2.214242e-001 1.369478e-001 5.946536e-003
<GCONST> 6.728926e+001
<STATE> 6
<NUMMIXES> 2
<MIXTURE> 1 4.673398e-001
<MEAN> 39
 -4.385798e+000 -6.920720e+000 -2.582949e+000 -1.558439e+001 -5.957439e+000 -4.039378e+000 5.954369e+000 -8.256304e+000 -2.486303e+000 -5.127038e+000 -5.262301e+000 -5.522737e+000 1.805028e+001 3.701000e-001 1.261149e+000 1.394541e+000 1.691011e+000 -4.898959e-001 -1.994233e+000 -7.240524e-001 1.353076e+000 -4.353472e-001 8.822818e-001 3.716964e-001 -4.084033e-001 -5.199508e-001 -1.111001e-001 2.639380e-001 1.110661e-001 1.822024e-001 3.250155e-001 -1.042098e-001 -4.697359e-001 -7.016701e-003 2.028589e-001 -2.371501e-001 2.120863e-001 -9.017461e-002 -7.049344e-002
<VARIANCE> 39
 8.577275e+000 1.314220e+001 1.203705e+001 1.799967e+001 3.040341e+001 2.264109e+001 1.843769e+001 5.181804e+001 4.618316e+001 3.255769e+001 2.085611e+001 3.005296e+001 1.870923e+000 5.089973e-001 7.289475e-001 1.243291e+000 8.653768e-001 1.422856e+000 8.739601e-001 1.776113e+000 1.185079e+000 1.396906e+000 2.671699e+000 1.793537e+000 1.062397e+000 4.630688e-002 4.304052e-002 1.043662e-001 1.337280e-001 1.624748e-001 1.209726e-001 2.077663e-001 1.494008e-001 1.879054e-001 1.680311e-001 1.914782e-001 1.223924e-001 1.726299e-001 9.873611e-003
<GCONST> 8.009001e+001
<MIXTURE> 2 5.326602e-001
<MEAN> 39
 -5.111215e+000 -7.604639e+000 -5.325245e+000 -1.283918e+001 -9.452459e+000 -1.078715e+001 2.712940e+000 1.600061e+000 -7.887541e+000 -7.585243e+000 -7.919171e-001 -1.020111e+001 1.840349e+001 3.191839e-001 9.956858e-001 8.513750e-001 1.136291e+000 4.943018e-001 -1.815997e+000 -2.165969e+000 7.889490e-001 1.023038e+000 -5.922841e-001 8.041092e-001 2.188284e-001 -4.604276e-001 -9.930134e-002 1.759240e-001 1.642344e-001 -3.394667e-002 1.595237e-001 1.100067e-001 -1.633911e-001 -4.975418e-001 1.736012e-001 1.133775e-001 -2.409230e-001 1.454827e-001 -5.971121e-002
<VARIANCE> 39
 9.302057e+000 9.170065e+000 1.260820e+001 1.464933e+001 1.795844e+001 2.639760e+001 2.669231e+001 4.924418e+001 2.324118e+001 2.385543e+001 1.786203e+001 1.480350e+001 1.656405e+000 4.385863e-001 5.331100e-001 6.851876e-001 7.647872e-001 1.383759e+000 1.057124e+000 1.322199e+000 1.426649e+000 1.247188e+000 9.433635e-001 1.105707e+000 1.096802e+000 4.400465e-002 3.449157e-002 6.744837e-002 8.668563e-002 1.079078e-001 1.158036e-001 2.227594e-001 2.662551e-001 1.489726e-001 1.659826e-001 1.362085e-001 9.649403e-002 1.058180e-001 8.915542e-003
<GCONST> 7.251840e+001
<STATE> 7
<NUMMIXES> 2
<MIXTURE> 1 4.921348e-001
<MEAN> 39
 -4.427516e+000 -2.950062e+000 -1.439245e-001 -1.120486e+001 -6.153478e+000 -7.550229e+000 8.805100e-001 -4.938334e+000 -2.215147e+000 -3.619431e+000 -1.249552e+000 -6.455375e+000 1.680415e+001 1.526990e-001 5.078639e-001 3.647053e-001 -2.618147e-001 6.268762e-001 3.141940e-002 -3.607915e-001 -4.016749e-001 2.984737e-001 2.712561e-001 -2.618357e-001 8.574956e-002 5.863187e-003 5.061764e-002 7.460059e-002 3.433480e-002 -8.976581e-002 2.583526e-001 -1.541126e-001 -1.406344e-001 1.393885e-002 7.279450e-002 -1.496318e-001 -6.877723e-002 3.310151e-002 7.819524e-003
<VARIANCE> 39
 1.171196e+001 1.382970e+001 2.099548e+001 2.208297e+001 3.357843e+001 4.250293e+001 2.931769e+001 3.769553e+001 5.125459e+001 3.534655e+001 2.527739e+001 2.634359e+001 2.631511e+000 3.363039e-001 8.764235e-001 1.620202e+000 1.542970e+000 1.789942e+000 2.384499e+000 1.974738e+000 1.575499e+000 1.209022e+000 1.936862e+000 1.308284e+000 9.645896e-001 1.180027e-001 5.722308e-002 1.830234e-001 2.771654e-001 2.598113e-001 2.981161e-001 5.135665e-001 3.334661e-001 2.575294e-001 2.131558e-001 2.828246e-001 2.052085e-001 1.600908e-001 2.244128e-002
<GCONST> 9.183031e+001
<MIXTURE> 2 5.078639e-001
<MEAN> 39
 -4.794709e+000 -3.411740e+000 -9.914659e-001 -1.047422e+001 -5.593218e+000 -1.121313e+001 -3.849668e+000 -5.699758e+000 -3.927135e+000 -1.017723e+001 -3.965808e+000 -1.025920e+001 1.651945e+001 -2.383378e-002 1.890792e-001 2.797058e-002 -1.980070e-001 3.059352e-002 3.564268e-001 -2.878870e-001 -5.982848e-001 -1.499392e-001 -1.916765e-001 -2.274295e-001 -2.591873e-001 7.917144e-003 1.550711e-002 -1.230962e-001 -1.215757e-001 -2.452984e-001 -6.856804e-002 2.413780e-001 3.101722e-001 -1.267695e-001 -9.411488e-002 1.326375e-001 -1.156796e-001 -7.410803e-003 9.874134e-002
<VARIANCE> 39
 1.382306e+001 1.132078e+001 1.810435e+001 2.770828e+001 2.759696e+001 3.983622e+001 3.632549e+001 7.361446e+001 2.802381e+001 3.531902e+001 3.888660e+001 2.135127e+001 1.752779e+000 3.958514e-001 8.701006e-001 1.076546e+000 1.111004e+000 1.084376e+000 2.014172e+000 2.366920e+000 1.324528e+000 1.513931e+000 1.781454e+000 1.098092e+000 9.504375e-001 1.089016e-001 8.654670e-002 2.209132e-001 2.623335e-001 2.579385e-001 2.230235e-001 5.122097e-001 4.436478e-001 3.192407e-001 2.924570e-001 3.183725e-001 2.027725e-001 1.711125e-001 2.042565e-002
<GCONST> 9.147664e+001
<STATE> 8
<NUMMIXES> 2
<MIXTURE> 1 4.903510e-001
<MEAN> 39
 -2.889239e+000 1.934421e+000 2.385045e+000 -1.324335e+001 6.815401e-001 -1.001225e+001 -2.407664e+000 -5.320720e+000 -1.876312e-001 -5.170424e+000 -2.583295e+000 -5.866437e+000 1.695616e+001 2.289818e-001 6.563870e-001 4.964426e-001 2.239505e-001 7.555608e-001 -7.786277e-001 -2.201396e-001 9.030863e-002 6.556774e-002 5.454379e-002 -5.284555e-002 4.706833e-002 -8.951577e-002 -1.081915e-001 -1.178527e-001 -4.893663e-002 1.368620e-001 -1.989341e-001 1.587017e-001 9.229281e-002 8.811638e-003 -7.059741e-002 1.700026e-002 4.787566e-002 -7.026374e-002 -3.507140e-002
<VARIANCE> 39
 2.066329e+001 1.292839e+001 1.833961e+001 1.690006e+001 2.471442e+001 6.883452e+001 2.835742e+001 2.534810e+001 4.799871e+001 5.219184e+001 4.310773e+001 3.466783e+001 1.875283e+000 2.767561e-001 4.954198e-001 6.404228e-001 6.775679e-001 1.713273e+000 2.208711e+000 1.049462e+000 8.739319e-001 9.172283e-001 1.060985e+000 9.651224e-001 8.661262e-001 1.967926e-002 4.221209e-002 6.645145e-002 1.079799e-001 1.125846e-001 1.819700e-001 3.443616e-001 1.735187e-001 1.371089e-001 1.530028e-001 1.857390e-001 1.524108e-001 1.014529e-001 4.177736e-003
<GCONST> 7.706766e+001
<MIXTURE> 2 5.096475e-001
<MEAN> 39
 -4.267817e+000 1.732588e+000 2.501507e+000 -1.334587e+001 -1.232537e+000 -1.242714e+001 -6.247176e+000 -9.607366e+000 -5.030459e+000 -1.031660e+001 -8.396949e+000 -1.295290e+001 1.721341e+001 -8.875528e-002 3.537805e-001 3.686233e-001 1.427433e-001 3.467881e-001 -3.043046e-001 -3.635512e-001 -1.465355e-001 -7.475074e-002 3.179657e-002 -1.398047e-001 -1.125330e-001 -1.141020e-001 -1.357491e-001 -2.043659e-001 -1.950199e-001 2.599915e-003 -1.071255e-001 2.189933e-001 1.407811e-001 2.876687e-002 5.060500e-002 4.620549e-002 1.807435e-001 1.482977e-001 -4.821823e-002
<VARIANCE> 39
 1.438206e+001 9.291158e+000 1.359733e+001 1.661757e+001 1.972601e+001 3.028252e+001 2.892442e+001 3.821798e+001 3.467693e+001 6.282084e+001 5.563029e+001 4.127752e+001 1.353453e+000 3.032608e-001 5.596826e-001 5.395847e-001 4.919105e-001 1.008846e+000 1.556014e+000 8.832108e-001 1.162625e+000 1.213798e+000 1.047098e+000 1.104992e+000 9.281795e-001 3.285356e-002 3.687368e-002 7.633179e-002 9.400968e-002 9.717718e-002 1.367600e-001 2.291691e-001 1.500901e-001 1.753416e-001 2.007379e-001 1.938642e-001 1.814919e-001 1.481910e-001 4.919322e-003
<GCONST> 7.550241e+001
<STATE> 9
<NUMMIXES> 2
<MIXTURE> 1 4.723554e-001
<MEAN> 39
 -5.093328e+000 9.706216e-001 2.203267e+000 -9.340263e+000 -7.466303e-001 -9.831648e+000 -3.388306e+000 -6.568907e+000 -1.682728e+000 -4.706349e+000 -2.887596e+000 -5.642943e+000 1.402061e+001 -1.033491e+000 -3.746656e-001 -4.256301e-001 3.459659e-001 -1.064459e-001 5.848316e-001 2.284628e-001 1.152921e-001 2.533724e-001 2.653207e-001 4.366594e-001 2.527097e-001 -3.752618e-001 -1.278991e-001 -1.785487e-001 -1.519534e-001 -8.331531e-002 -1.174788e-001 1.123693e-001 4.581020e-002 4.329553e-002 -3.609868e-002 -5.649657e-002 3.123814e-002 -6.861202e-002 5.680067e-004
<VARIANCE> 39
 4.859833e+001 3.111068e+001 3.566798e+001 4.070522e+001 3.514163e+001 5.480439e+001 3.270852e+001 3.846650e+001 4.522082e+001 4.295228e+001 3.905313e+001 3.659934e+001 1.196281e+001 1.312271e+000 1.071246e+000 1.156257e+000 1.964858e+000 1.268829e+000 2.581499e+000 1.315117e+000 1.419338e+000 1.631401e+000 1.686502e+000 1.429581e+000 1.481272e+000 2.131784e-001 3.263629e-001 2.629150e-001 3.042985e-001 2.683082e-001 2.804101e-001 4.151178e-001 2.545753e-001 2.185548e-001 2.220788e-001 2.425826e-001 1.955361e-001 1.736160e-001 3.645311e-002
<GCONST> 1.018701e+002
<MIXTURE> 2 5.276428e-001
<MEAN> 39
 -8.596599e+000 -5.802264e-001 1.781924e+000 -1.024877e+001 -6.956139e-001 -8.789686e+000 -3.802430e+000 -7.738211e+000 -2.403948e+000 -5.572173e+000 -3.587544e+000 -7.765622e+000 1.367036e+001 -1.585835e+000 -1.357299e+000 -1.502859e+000 -6.571048e-001 -8.500297e-001 2.973621e-001 -3.530362e-002 1.819752e-001 2.048475e-001 1.640942e-001 6.207857e-001 5.270132e-001 -5.655973e-001 8.419791e-002 -9.866045e-003 -1.415557e-001 -1.994308e-001 -1.255656e-001 -2.130605e-001 -7.260426e-002 5.199923e-002 -5.664056e-003 4.085022e-003 -1.074888e-002 4.715692e-002 8.572786e-002
<VARIANCE> 39
 2.051246e+001 1.960105e+001 2.492293e+001 3.104902e+001 2.307523e+001 3.397641e+001 3.058328e+001 3.464735e+001 3.266791e+001 3.244718e+001 3.912596e+001 2.505183e+001 6.733418e+000 1.091899e+000 5.952033e-001 6.900228e-001 1.215048e+000 1.044632e+000 1.877638e+000 1.300223e+000 1.436341e+000 1.602504e+000 1.881469e+000 1.582117e+000 1.303703e+000 1.404752e-001 1.505128e-001 1.697691e-001 1.939684e-001 2.116517e-001 1.717476e-001 2.392040e-001 1.825091e-001 2.178664e-001 2.281612e-001 2.389404e-001 2.083072e-001 1.435229e-001 1.847931e-002
<GCONST> 9.058486e+001
<TRANSP> 10
 0.000000e+000 1.000000e+000 0.000000e+000 0.000000e+000 0.000000e+000 0.000000e+000 0.000000e+000 0.000000e+000 0.000000e+000 0.000000e+000
 0.000000e+000 6.666111e-001 3.333890e-001 0.000000e+000 0.000000e+000 0.000000e+000 0.000000e+000 0.000000e+000 0.000000e+000 0.000000e+000
 0.000000e+000 0.000000e+000 5.915763e-001 4.084238e-001 0.000000e+000 0.000000e+000 0.000000e+000 0.000000e+000 0.000000e+000 0.000000e+000
 0.000000e+000 0.000000e+000 0.000000e+000 7.044699e-001 2.955301e-001 0.000000e+000 0.000000e+000 0.000000e+000 0.000000e+000 0.000000e+000
 0.000000e+000 0.000000e+000 0.000000e+000 0.000000e+000 7.804056e-001 2.195943e-001 0.000000e+000 0.000000e+000 0.000000e+000 0.000000e+000
 0.000000e+000 0.000000e+000 0.000000e+000 0.000000e+000 0.000000e+000 6.875466e-001 3.124534e-001 0.000000e+000 0.000000e+000 0.000000e+000
 0.000000e+000 0.000000e+000 0.000000e+000 0.000000e+000 0.000000e+000 0.000000e+000 8.760954e-001 1.239047e-001 0.000000e+000 0.000000e+000
 0.000000e+000 0.000000e+000 0.000000e+000 0.000000e+000 0.000000e+000 0.000000e+000 0.000000e+000 8.392657e-001 1.607342e-001 0.000000e+000
 0.000000e+000 0.000000e+000 0.000000e+000 0.000000e+000 0.000000e+000 0.000000e+000 0.000000e+000 0.000000e+000 7.853744e-001 2.146256e-001
 0.000000e+000 0.000000e+000 0.000000e+000 0.000000e+000 0.000000e+000 0.000000e+000 0.000000e+000 0.000000e+000 0.000000e+000 0.000000e+000
<ENDHMM>
~h "sil"
<BEGINHMM>
<NUMSTATES> 5
<STATE> 2
<NUMMIXES> 2
<MIXTURE> 1 4.785162e-001
<MEAN> 39
 -8.845556e+000 -2.180426e+000 -2.304842e+000 -6.014652e+000 -4.020183e+000 -6.003554e+000 -2.912373e+000 -6.006914e+000 -2.180321e+000 -4.385162e+000 -1.630092e+000 -3.864552e+000 7.552298e+000 -6.265862e-003 1.931712e-001 3.403198e-002 1.224260e-001 4.245361e-002 7.248328e-002 9.613047e-002 1.945126e-001 1.302145e-001 2.944800e-002 6.848261e-002 7.188074e-002 -6.334728e-002 -8.231569e-004 -5.839542e-003 1.581291e-002 1.765268e-002 3.890931e-002 1.964175e-002 2.388816e-002 1.798028e-002 2.230495e-002 1.612264e-002 7.476068e-003 6.716742e-003 8.156325e-003
<VARIANCE> 39
 1.357394e+001 1.667286e+001 1.442297e+001 1.937825e+001 1.900226e+001 2.019046e+001 1.840241e+001 2.258560e+001 2.080346e+001 2.104462e+001 1.709048e+001 1.509969e+001 5.725656e+000 1.208594e-001 2.363281e-001 2.793443e-001 3.879756e-001 5.411096e-001 5.976752e-001 6.201658e-001 7.796283e-001 7.701045e-001 7.419040e-001 6.539117e-001 5.472619e-001 1.894432e-002 1.830766e-002 3.582990e-002 4.870340e-002 7.335218e-002 9.292829e-002 1.024129e-001 1.064722e-001 1.235557e-001 1.362496e-001 1.341967e-001 1.204488e-001 9.662144e-002 2.100450e-003
<GCONST> 5.833433e+001
<MIXTURE> 2 5.214764e-001
<MEAN> 39
 -1.066885e+001 -3.280797e+000 -3.398244e+000 -9.034400e+000 -4.119126e+000 -7.684438e+000 -3.472571e+000 -5.603889e+000 -1.595771e+000 -4.678396e+000 -1.581901e+000 -4.230844e+000 8.715939e+000 -1.426550e-001 -7.558512e-002 -1.659256e-001 -1.885016e-001 -2.134689e-001 -1.687167e-001 -9.479463e-002 -4.759657e-002 -7.852457e-002 -5.723835e-002 -2.199979e-002 -1.605249e-002 -5.813020e-002 8.445280e-003 -5.006505e-003 -1.227711e-002 -2.638044e-002 -1.290774e-002 -2.408125e-002 -2.363869e-002 -3.514359e-002 -1.527131e-002 5.986854e-003 -7.174014e-003 -1.381674e-002 1.115262e-002
<VARIANCE> 39
 6.207991e+000 8.959330e+000 9.832893e+000 3.305448e+001 1.921317e+001 2.479084e+001 1.985444e+001 2.144127e+001 2.054465e+001 1.923940e+001 1.794754e+001 1.604632e+001 1.486882e+001 1.366262e-001 2.459310e-001 3.243640e-001 4.738138e-001 5.943466e-001 6.756986e-001 7.384948e-001 8.305036e-001 8.335989e-001 8.189018e-001 7.549363e-001 6.121594e-001 1.797885e-002 1.536665e-002 2.928487e-002 4.386012e-002 6.222878e-002 8.421239e-002 9.792950e-002 1.029541e-001 1.104962e-001 1.212525e-001 1.075540e-001 1.101254e-001 9.023744e-002 1.656103e-003
<GCONST> 5.796329e+001
<STATE> 3
~s "silst"
<STATE> 4
<NUMMIXES> 2
<MIXTURE> 1 4.830423e-001
<MEAN> 39
 -1.167073e+001 -3.262075e+000 -3.751791e+000 -9.235285e+000 -4.747045e+000 -7.936202e+000 -3.173602e+000 -5.244856e+000 -1.333571e+000 -4.075831e+000 -1.382113e+000 -4.509176e+000 8.849594e+000 8.048648e-002 2.079864e-001 1.808320e-001 2.469079e-001 1.698896e-001 1.408551e-001 3.115800e-001 2.271465e-001 1.079954e-001 1.803497e-001 1.321240e-001 9.781192e-002 1.056308e-001 8.170151e-002 1.856491e-002 3.408544e-002 3.783903e-003 4.016189e-002 3.445291e-002 2.969561e-002 -2.500199e-002 -1.267245e-002 -2.610937e-002 8.425089e-003 3.627444e-003 8.025158e-002
<VARIANCE> 39
 1.098561e+001 1.101015e+001 1.215783e+001 3.619866e+001 1.791570e+001 2.481426e+001 1.792653e+001 2.080591e+001 1.755518e+001 1.867166e+001 1.690264e+001 1.629621e+001 1.302817e+001 5.543368e-001 6.048627e-001 6.275551e-001 8.938591e-001 9.145509e-001 8.836629e-001 8.212143e-001 1.050955e+000 8.697207e-001 8.393967e-001 8.119993e-001 6.920938e-001 1.495370e-001 1.061198e-001 1.055579e-001 1.088408e-001 1.377971e-001 1.369799e-001 1.376097e-001 1.524764e-001 1.766865e-001 1.499925e-001 1.406981e-001 1.310959e-001 1.155019e-001 2.907531e-002
<GCONST> 7.587042e+001
<MIXTURE> 2 5.169541e-001
<MEAN> 39
 -1.184588e+001 -4.213415e+000 -3.997132e+000 -9.553593e+000 -5.148500e+000 -7.968828e+000 -3.748455e+000 -6.309257e+000 -1.896320e+000 -5.098666e+000 -1.778075e+000 -4.798196e+000 9.065214e+000 -9.672987e-002 -5.106870e-002 -6.769557e-002 -7.952820e-002 -5.113993e-002 -7.399026e-002 -1.182045e-001 -1.781163e-001 -7.930595e-002 -1.287550e-001 -8.502097e-002 -1.064621e-001 1.147981e-001 -5.684723e-004 2.486989e-002 -4.540615e-003 -9.912467e-003 -1.615747e-002 -2.661987e-002 -8.390583e-003 -4.196381e-003 2.977405e-003 -4.813184e-003 -1.863340e-002 -1.723042e-002 2.234842e-002
<VARIANCE> 39
 1.053853e+001 1.202729e+001 1.254515e+001 3.560368e+001 2.101097e+001 2.773909e+001 2.114609e+001 2.319220e+001 1.957281e+001 1.913551e+001 1.660520e+001 1.704405e+001 1.157970e+001 4.986297e-001 5.281458e-001 5.754849e-001 8.091195e-001 8.235140e-001 9.447942e-001 8.887179e-001 9.481561e-001 8.775517e-001 8.253812e-001 7.722827e-001 7.141831e-001 1.567904e-001 7.881417e-002 8.143816e-002 9.595133e-002 1.242044e-001 1.335687e-001 1.350127e-001 1.392639e-001 1.507200e-001 1.381326e-001 1.300666e-001 1.147701e-001 1.110876e-001 2.323045e-002
<GCONST> 7.441227e+001
<TRANSP> 5
 0.000000e+000 1.000000e+000 0.000000e+000 0.000000e+000 0.000000e+000
 0.000000e+000 8.191513e-001 1.808487e-001 0.000000e+000 0.000000e+000
 0.000000e+000 0.000000e+000 9.481101e-001 5.188987e-002 0.000000e+000
 0.000000e+000 0.000000e+000 0.000000e+000 7.070205e-001 2.929795e-001
 0.000000e+000 0.000000e+000 0.000000e+000 0.000000e+000 0.000000e+000
<ENDHMM>
~h "six"
<BEGINHMM>
<NUMSTATES> 10
<STATE> 2
<NUMMIXES> 2
<MIXTURE> 1 5.150655e-001
<MEAN> 39
 -1.656490e+001 -3.496403e+000 -6.266504e+000 -1.044988e+001 -5.967153e+000 -7.078306e+000 -5.094457e+000 -6.204800e+000 -1.188388e+000 -3.372245e+000 -2.434199e+000 -4.873542e+000 1.269190e+001 2.418369e-001 2.507156e-001 3.252271e-001 7.642795e-002 2.759084e-001 1.642486e-001 2.929655e-001 1.188603e-001 2.119759e-001 4.357126e-002 -3.630735e-002 2.651984e-001 1.865144e-001 3.757714e-001 1.907135e-001 2.722171e-001 -1.028261e-001 -1.074929e-001 -4.686046e-002 1.928024e-001 4.377533e-002 9.590022e-002 1.161694e-001 2.633071e-002 3.590548e-002 1.253703e-001
<VARIANCE> 39
 1.326351e+001 1.605026e+001 1.691972e+001 3.338607e+001 1.642671e+001 2.869190e+001 2.013411e+001 2.171856e+001 1.723908e+001 2.078758e+001 2.120612e+001 1.572087e+001 5.641574e+000 4.828602e-001 4.718412e-001 5.121460e-001 5.960013e-001 5.971876e-001 8.228913e-001 7.840400e-001 6.994525e-001 8.302042e-001 7.985429e-001 6.146542e-001 7.176037e-001 5.116081e-002 8.239418e-002 1.130830e-001 1.293839e-001 1.273035e-001 1.201509e-001 1.645669e-001 1.574237e-001 1.569221e-001 1.601761e-001 1.916404e-001 1.421038e-001 1.277381e-001 1.667720e-002
<GCONST> 7.285969e+001
<MIXTURE> 2 4.849343e-001
<MEAN> 39
 -1.701342e+001 -4.058301e+000 -6.541313e+000 -8.191513e+000 -6.029205e+000 -6.415660e+000 -2.530988e+000 -5.558468e+000 -8.596776e-002 -3.483107e+000 -6.080483e-001 -3.838459e+000 1.115771e+001 -1.663772e-001 5.487552e-002 -2.961439e-001 -4.159591e-002 -2.027666e-001 3.652040e-003 -1.639724e-001 -7.409604e-002 -2.376381e-003 -1.459501e-001 -9.280827e-002 -1.213930e-001 1.786344e-001 2.080713e-001 9.621462e-002 1.295857e-001 -1.128412e-001 1.567955e-002 -5.887767e-002 -3.764417e-002 -3.334119e-002 6.957415e-003 -1.048796e-001 -7.013130e-002 -8.570730e-002 4.093989e-002
<VARIANCE> 39
 1.708579e+001 2.286348e+001 1.817918e+001 2.540710e+001 1.727559e+001 2.671650e+001 2.022790e+001 2.790742e+001 2.279174e+001 2.684269e+001 2.280695e+001 1.921425e+001 5.733408e+000 6.162449e-001 6.591253e-001 6.368968e-001 6.511253e-001 6.723701e-001 8.079774e-001 9.449804e-001 1.181587e+000 8.169274e-001 8.915659e-001 9.097143e-001 5.994802e-001 1.102532e-001 9.524377e-002 1.419635e-001 9.630883e-002 1.340034e-001 1.208790e-001 1.627884e-001 1.682746e-001 2.494757e-001 1.662125e-001 1.684950e-001 1.489295e-001 1.319935e-001 2.043885e-002
<GCONST> 7.793958e+001
<STATE> 3
<NUMMIXES> 2
<MIXTURE> 1 5.598089e-001
<MEAN> 39
 -1.478886e+001 -2.771821e+000 -4.997721e+000 -1.281400e+001 -4.441386e+000 -7.950945e+000 -3.753920e+000 -5.525629e+000 -1.508625e-001 -3.089457e+000 -2.485512e+000 -3.675634e+000 1.416776e+001 1.933395e+000 1.042844e+000 1.548883e+000 -7.064919e-001 -8.469633e-001 -3.582394e-001 8.678426e-001 8.870390e-003 5.416361e-001 8.411927e-001 -1.086774e-002 1.557704e-001 8.175928e-001 2.798548e-001 8.222435e-002 1.949319e-001 -3.182081e-001 -4.408930e-001 -4.614202e-002 6.520500e-002 4.378141e-002 9.838380e-002 2.150832e-001 8.159734e-002 -4.621443e-002 1.830286e-001
<VARIANCE> 39
 1.243748e+001 1.287358e+001 1.783420e+001 2.530514e+001 1.939310e+001 3.264273e+001 2.440570e+001 1.797490e+001 2.765461e+001 3.227074e+001 2.440910e+001 2.482367e+001 3.265737e+000 6.582366e-001 7.129052e-001 5.285052e-001 1.383689e+000 1.043398e+000 1.109285e+000 9.571912e-001 1.013753e+000 1.346571e+000 1.429182e+000 8.949022e-001 1.043750e+000 1.190622e-001 1.230381e-001 1.039818e-001 1.395761e-001 1.334996e-001 1.540126e-001 1.969796e-001 2.543344e-001 1.590972e-001 1.858307e-001 2.194436e-001 1.372404e-001 2.016613e-001 1.181189e-002
<GCONST> 8.101890e+001
<MIXTURE> 2 4.401908e-001
<MEAN> 39
 -1.421766e+001 -3.692689e+000 -5.460183e+000 -1.316008e+001 -4.049498e+000 -9.252033e+000 -4.512969e+000 -5.161463e+000 5.116088e-001 -4.589647e+000 5.515163e-001 -4.960798e+000 1.346060e+001 1.845655e+000 1.109163e+000 9.222678e-001 -1.258880e+000 -7.960203e-001 -5.523725e-001 3.071486e-001 -4.691261e-001 3.041999e-001 -7.526171e-001 -8.435656e-001 -1.032713e+000 8.756054e-001 2.571000e-001 1.144545e-001 1.715003e-001 -4.623875e-001 -2.218040e-001 -8.801044e-002 1.186517e-001 -5.648176e-002 3.395962e-002 -1.715197e-001 -4.068529e-001 -4.598020e-001 1.843593e-001
<VARIANCE> 39
 1.158644e+001 1.447154e+001 1.471675e+001 2.357355e+001 1.518289e+001 2.208801e+001 1.698490e+001 1.728475e+001 1.877675e+001 3.899298e+001 2.548381e+001 2.041258e+001 2.834316e+000 6.913702e-001 6.318053e-001 7.031885e-001 1.195421e+000 7.257880e-001 7.681655e-001 8.897583e-001 1.027429e+000 8.419052e-001 2.418160e+000 1.210194e+000 1.465842e+000 9.976877e-002 1.282787e-001 9.511998e-002 1.038043e-001 1.163542e-001 1.480179e-001 1.472766e-001 1.945566e-001 1.681767e-001 1.282359e-001 2.535455e-001 2.172134e-001 1.621318e-001 1.111945e-002
<GCONST> 7.800150e+001
<STATE> 4
<NUMMIXES> 2
<MIXTURE> 1 5.531923e-001
<MEAN> 39
 -6.755880e+000 7.294304e-001 -8.698491e-001 -2.119714e+001 -6.545956e+000 -8.121690e+000 -9.723060e-002 -4.532136e+000 3.651630e+000 -4.215394e+000 -1.914950e+000 -5.802757e+000 1.818021e+001 3.076771e-001 2.980767e-001 3.923796e-001 -7.330391e-001 1.387684e-001 2.159092e-001 -7.400724e-002 5.890703e-001 9.470569e-002 2.820456e-001 2.743804e-001 3.324133e-001 1.731556e-001 -1.712606e-001 -7.151067e-002 -4.679885e-003 1.837651e-001 1.179278e-001 -5.994911e-002 -2.796036e-001 3.001603e-002 -2.215423e-001 -3.829495e-002 6.506936e-002 1.323869e-002 -1.477133e-001
<VARIANCE> 39
 7.450959e+000 1.024642e+001 1.393904e+001 2.292219e+001 4.846492e+001 1.820760e+001 1.902795e+001 1.829539e+001 2.283202e+001 4.208934e+001 3.187926e+001 4.069387e+001 1.934889e+000 9.734927e-001 5.561010e-001 8.358095e-001 1.023600e+000 1.520841e+000 1.228731e+000 1.790818e+000 9.284217e-001 1.458870e+000 1.348661e+000 1.065818e+000 1.041476e+000 2.600935e-001 1.081442e-001 8.483898e-002 1.204290e-001 1.592275e-001 1.781865e-001 1.481648e-001 1.746728e-001 1.487593e-001 1.799783e-001 1.906116e-001 1.566447e-001 2.084624e-001 1.449557e-002
<GCONST> 8.195080e+001
<MIXTURE> 2 4.468060e-001
<MEAN> 39
 -6.690116e+000 -1.860479e-001 -8.699255e-001 -2.096776e+001 -1.019819e+001 -1.106747e+001 -1.402705e+000 -6.035223e+000 2.928725e-001 -5.099827e+000 -5.841109e+000 -9.679935e+000 1.825051e+001 4.514262e-001 2.668069e-001 4.792931e-001 -1.253048e+000 -4.586580e-001 -6.838303e-002 -1.966552e-001 2.730155e-001 -2.790473e-002 -2.765320e-001 -7.531323e-001 -8.991730e-001 4.352050e-001 -3.722499e-001 -1.193500e-001 -1.329910e-001 2.612589e-001 3.534049e-001 1.835873e-001 -2.992485e-001 1.125580e-001 -4.421800e-002 -1.820777e-002 2.394660e-001 2.512701e-001 -2.368768e-001
<VARIANCE> 39
 7.877032e+000 9.625084e+000 1.192289e+001 2.894787e+001 4.271407e+001 2.088594e+001 2.304368e+001 2.732230e+001 3.001306e+001 9.779340e+001 3.161171e+001 5.397673e+001 1.423146e+000 9.214514e-001 6.250772e-001 8.472651e-001 1.244745e+000 1.721468e+000 1.665233e+000 2.150508e+000 1.237109e+000 1.415135e+000 1.964906e+000 1.674710e+000 1.843267e+000 2.993473e-001 1.332304e-001 8.468981e-002 1.225884e-001 2.084535e-001 2.293946e-001 2.770277e-001 2.288758e-001 2.347692e-001 2.304064e-001 5.211532e-001 2.434988e-001 3.032362e-001 1.759271e-002
<GCONST> 9.074760e+001
<STATE> 5
<NUMMIXES> 2
<MIXTURE> 1 4.389799e-001
<MEAN> 39
 -5.951481e+000 1.579339e+000 4.303699e+000 -2.163595e+001 -1.172333e+001 -6.823977e+000 -8.830258e+000 -1.957917e+000 8.353683e-002 -2.001489e+000 -1.258627e+000 -5.530559e+000 1.807380e+001 3.116291e-001 5.504349e-001 1.191778e+000 9.095083e-001 5.750768e-001 6.179851e-001 -1.338049e+000 4.540562e-002 5.405313e-003 -4.982740e-001 7.365829e-001 3.267365e-001 -7.312497e-001 -2.317839e-001 -2.295746e-001 -3.967361e-001 7.616003e-001 3.279391e-001 -1.555709e-001 6.000312e-001 -2.956498e-001 4.066214e-002 -1.659837e-003 -3.748307e-002 8.046900e-002 -3.217487e-001
<VARIANCE> 39
 1.499630e+001 3.007531e+001 2.863252e+001 4.084508e+001 7.716830e+001 5.180067e+001 5.718457e+001 3.954763e+001 2.384407e+001 2.822474e+001 3.379374e+001 3.301490e+001 3.016086e+000 9.383975e-001 1.085081e+000 1.226073e+000 2.968589e+000 2.930932e+000 2.095212e+000 3.040074e+000 2.412628e+000 2.340178e+000 3.240704e+000 1.727728e+000 1.861346e+000 3.874131e-001 2.112862e-001 3.343891e-001 3.572316e-001 3.068666e-001 6.856098e-001 5.593787e-001 5.709071e-001 4.359592e-001 3.504333e-001 3.635417e-001 3.248162e-001 2.915792e-001 2.689353e-002
<GCONST> 1.076235e+002
<MIXTURE> 2 5.610204e-001
<MEAN> 39
 -7.116895e+000 2.339925e+000 3.582941e+000 -2.159742e+001 -6.117352e+000 -9.870671e+000 -7.876905e+000 -3.244479e+000 -7.508677e-001 -4.845689e+000 -3.222033e+000 -7.453979e+000 1.681679e+001 -4.643859e-001 -3.574254e-001 -1.751514e-001 1.590910e+000 1.121840e+000 -2.986600e-001 -2.025324e-001 -3.368227e-001 -5.501493e-001 -9.888704e-002 5.592133e-001 3.334127e-001 -8.881603e-001 -2.702459e-001 -4.817164e-001 -5.566852e-001 3.132849e-001 -8.434346e-002 -1.896077e-002 4.766701e-001 -1.779374e-001 8.069453e-002 8.656701e-002 6.044846e-002 9.157588e-002 -1.276820e-001
<VARIANCE> 39
 8.839374e+000 1.527411e+001 2.280360e+001 2.510176e+001 4.692831e+001 4.559486e+001 5.513285e+001 3.492064e+001 2.934644e+001 3.507393e+001 4.181841e+001 3.509274e+001 3.499634e+000 4.112472e-001 6.837967e-001 1.014804e+000 1.868556e+000 2.713720e+000 1.543758e+000 2.019200e+000 1.261292e+000 1.382501e+000 2.202252e+000 1.163265e+000 2.010998e+000 2.331145e-001 6.124008e-002 1.113976e-001 1.492352e-001 2.030841e-001 2.841653e-001 3.588042e-001 4.025342e-001 3.185320e-001 3.034334e-001 3.060624e-001 3.439312e-001 2.263796e-001 1.795533e-002
<GCONST> 9.411945e+001
<STATE> 6
<NUMMIXES> 2
<MIXTURE> 1 4.874278e-001
<MEAN> 39
 -8.334732e+000 -7.730541e-001 6.223099e-001 -9.262314e+000 -6.397391e+000 -7.252004e+000 -4.097321e+000 -4.132703e+000 6.673711e-001 -2.923244e+000 1.824915e-001 -2.996790e+000 1.030881e+001 -1.055826e+000 -1.876060e+000 -1.041996e+000 1.445195e+000 -2.509135e-001 1.719649e-001 1.137336e+000 -3.903700e-001 2.543828e-001 1.037458e-001 2.794855e-001 2.956003e-001 -4.957629e-001 -1.896801e-001 -2.021745e-001 -2.876820e-002 -5.284965e-001 -1.429477e-001 6.959513e-002 7.954935e-002 -2.874991e-002 -2.927757e-002 -6.781856e-002 -1.243125e-001 -2.163683e-001 3.317093e-001
<VARIANCE> 39
 2.526670e+001 5.525664e+001 3.850338e+001 2.969035e+001 2.655543e+001 2.963298e+001 2.770187e+001 2.310632e+001 2.521869e+001 3.192852e+001 2.378591e+001 1.832642e+001 1.285065e+001 1.335632e+000 1.893808e+000 2.160504e+000 3.084746e+000 2.750554e+000 2.550824e+000 2.676683e+000 1.685509e+000 1.653832e+000 1.367134e+000 1.451519e+000 1.593468e+000 1.175845e+000 2.607907e-001 6.043640e-001 4.749745e-001 2.523457e-001 3.638544e-001 3.271236e-001 3.487276e-001 2.203269e-001 2.666887e-001 3.126824e-001 2.045074e-001 1.952236e-001 8.422974e-002
<GCONST> 1.056651e+002
<MIXTURE> 2 5.125718e-001
<MEAN> 39
 -9.440217e+000 -1.995912e+000 -4.385531e-001 -1.190274e+001 -4.085032e+000 -9.482486e+000 -3.878146e+000 -4.825257e+000 -1.485569e+000 -4.524831e+000 -9.084446e-001 -5.160250e+000 1.208158e+001 -1.140728e+000 -1.943493e+000 -1.241620e+000 9.127045e-001 1.316037e-001 -2.243530e-001 1.006970e+000 -4.673828e-001 -2.349592e-001 -1.589894e-001 1.659919e-001 4.683913e-002 -4.055532e-001 -1.157973e-001 -4.566684e-002 2.561533e-002 -4.891993e-001 -3.898012e-001 1.102923e-001 -6.127786e-002 1.121013e-002 1.405128e-001 4.812396e-002 -1.123636e-001 -9.097129e-002 2.734686e-001
<VARIANCE> 39
 1.080433e+001 3.252338e+001 1.811580e+001 3.466080e+001 2.670950e+001 2.043505e+001 2.130138e+001 1.834740e+001 2.552590e+001 2.466971e+001 1.945434e+001 1.913976e+001 1.449704e+001 8.999230e-001 1.847856e+000 1.359789e+000 1.430880e+000 2.523259e+000 2.602040e+000 2.173287e+000 1.380084e+000 1.564110e+000 1.726179e+000 1.411348e+000 1.571624e+000 5.401471e-001 1.263835e-001 3.254226e-001 2.554277e-001 2.649205e-001 4.100634e-001 2.597878e-001 3.253534e-001 1.810392e-001 2.506006e-001 2.822403e-001 1.628110e-001 1.863570e-001 6.542462e-002
<GCONST> 9.679306e+001
<STATE> 7
<NUMMIXES> 2
<MIXTURE> 1 4.972190e-001
<MEAN> 39
 -1.485041e+001 -7.457778e+000 -5.024614e-001 -1.144096e+001 -1.032812e+001 -6.072394e+000 -1.169010e+000 -6.966187e+000 -2.273352e-001 -3.006423e+000 -5.857940e-001 -5.183260e+000 1.358852e+001 -1.358307e+000 4.353997e-001 -8.767522e-002 -7.333305e-002 -5.116177e-001 1.159370e+000 6.651935e-004 -3.446702e-001 3.840918e-001 3.967001e-001 -2.642260e-001 -1.973228e-002 2.467076e-001 1.583416e-001 5.095063e-001 -1.252417e-001 7.303111e-003 3.438209e-001 -3.624650e-002 -2.795103e-001 1.766353e-001 3.116289e-002 -2.243537e-002 -5.879952e-002 5.169066e-002 -1.308461e-001
<VARIANCE> 39
 2.371973e+001 2.979883e+001 1.808529e+001 3.857502e+001 3.084258e+001 3.685773e+001 2.730472e+001 3.112315e+001 3.147176e+001 2.087739e+001 1.857461e+001 1.639046e+001 2.721293e+000 9.788418e-001 1.931457e+000 1.242714e+000 1.284446e+000 1.896082e+000 1.251685e+000 1.277122e+000 1.156671e+000 1.290994e+000 1.100846e+000 1.063179e+000 8.694126e-001 2.556009e-001 2.131599e-001 3.732942e-001 2.221049e-001 2.048497e-001 2.565195e-001 3.110313e-001 2.349305e-001 2.444607e-001 2.502364e-001 1.826693e-001 1.432697e-001 1.535516e-001 4.576699e-002
<GCONST> 9.204852e+001
<MIXTURE> 2 5.027817e-001
<MEAN> 39
 -1.292394e+001 -6.309985e+000 -2.683627e+000 -1.518632e+001 -5.816815e+000 -9.588642e+000 -2.575695e+000 -6.098545e+000 -9.687537e-001 -3.910221e+000 -1.466008e+000 -6.214261e+000 1.375976e+001 -1.062925e+000 -6.207439e-001 -8.414375e-001 8.644962e-002 -6.320243e-001 1.251104e-001 5.538346e-002 -4.780420e-001 -1.928919e-003 2.373989e-001 -3.984959e-002 1.079498e-001 -1.277987e-001 1.123807e-001 4.195198e-001 1.179747e-001 -1.314748e-001 -1.502215e-001 1.048484e-001 -2.905137e-001 5.243562e-002 3.553841e-002 -1.376364e-002 -8.451139e-002 -5.174630e-004 7.924217e-002
<VARIANCE> 39
 7.577130e+000 1.607514e+001 1.280070e+001 2.058727e+001 2.995016e+001 2.437670e+001 1.872923e+001 2.054526e+001 2.122930e+001 1.612745e+001 1.719927e+001 1.540454e+001 2.571642e+000 5.020012e-001 1.506149e+000 9.491289e-001 7.458260e-001 1.832826e+000 1.498185e+000 1.242045e+000 1.120901e+000 1.148075e+000 9.411817e-001 9.221190e-001 8.134937e-001 1.526355e-001 5.433422e-002 2.196725e-001 2.039992e-001 1.818642e-001 4.651274e-001 2.576470e-001 2.192261e-001 1.887366e-001 1.875376e-001 2.310945e-001 1.767713e-001 1.638978e-001 4.284044e-002
<GCONST> 8.272644e+001
<STATE> 8
<NUMMIXES> 2
<MIXTURE> 1 4.687806e-001
<MEAN> 39
 -1.570882e+001 -4.291669e+000 -4.326106e+000 -8.589613e+000 -6.329006e+000 -4.471186e+000 -2.997138e+000 -6.143322e+000 -1.125430e-001 -3.018582e+000 -1.031385e+000 -5.049771e+000 1.136439e+001 3.988301e-001 1.861302e-001 -1.060447e-001 2.448850e-001 4.221572e-001 -6.479095e-002 5.979643e-002 3.918763e-001 -1.476118e-002 3.409724e-002 4.925998e-003 1.026349e-001 -1.375044e-001 1.496705e-001 1.159989e-002 8.776575e-002 -3.615232e-002 2.527858e-002 -1.186982e-001 6.681271e-002 5.033681e-002 -5.821829e-002 -5.800098e-002 -3.957903e-003 -1.683881e-002 1.050434e-002
<VARIANCE> 39
 2.457474e+001 1.895730e+001 1.725560e+001 3.393325e+001 3.567463e+001 2.986187e+001 2.583944e+001 2.610291e+001 3.299464e+001 3.281589e+001 2.850574e+001 2.091893e+001 6.327843e+000 8.673512e-001 8.673384e-001 8.839896e-001 9.606211e-001 1.359642e+000 1.043822e+000 1.220790e+000 1.001286e+000 1.047156e+000 1.319512e+000 1.332972e+000 7.240850e-001 7.912821e-002 1.255758e-001 1.452183e-001 1.147603e-001 1.471165e-001 2.635790e-001 2.142470e-001 2.431084e-001 1.995339e-001 1.790913e-001 2.031197e-001 2.106515e-001 1.294952e-001 1.127412e-002
<GCONST> 8.536901e+001
<MIXTURE> 2 5.312188e-001
<MEAN> 39
 -1.630819e+001 -4.324882e+000 -4.801196e+000 -1.115903e+001 -6.249797e+000 -5.432915e+000 -3.984282e+000 -5.859239e+000 9.087385e-001 -4.405898e+000 -1.926504e+000 -4.942790e+000 1.205958e+001 5.133865e-002 5.630814e-002 -3.940340e-001 2.477410e-002 2.989054e-001 -3.074463e-001 -2.905904e-001 -7.129589e-002 -3.049349e-001 -1.851767e-001 -1.034058e-001 -1.739787e-001 -1.854918e-001 1.591706e-001 -9.426588e-002 7.426273e-002 -2.767543e-002 -3.458517e-002 -1.115225e-001 1.589222e-002 6.891791e-003 -5.996485e-002 1.344344e-002 6.275815e-002 -1.155651e-002 2.482290e-003
<VARIANCE> 39
 1.570753e+001 1.446992e+001 1.631014e+001 3.012198e+001 2.796445e+001 3.026679e+001 2.221034e+001 2.275154e+001 2.873369e+001 2.844862e+001 2.005508e+001 1.875321e+001 6.010297e+000 7.342232e-001 7.274372e-001 8.759556e-001 8.181641e-001 1.019470e+000 8.913521e-001 1.076543e+000 9.382732e-001 1.085962e+000 8.404211e-001 8.015922e-001 6.941357e-001 5.553328e-002 1.100975e-001 1.116002e-001 1.095956e-001 1.325078e-001 1.916041e-001 2.101631e-001 1.902670e-001 1.582660e-001 1.793896e-001 1.702991e-001 1.626141e-001 1.237794e-001 1.187017e-002
<GCONST> 7.890769e+001
<STATE> 9
<NUMMIXES> 2
<MIXTURE> 1 4.843898e-001
<MEAN> 39
 -1.337347e+001 -4.028071e+000 -4.464697e+000 -1.544222e+001 -5.359776e+000 -9.583801e+000 -4.227033e+000 -5.044179e+000 -1.765846e-001 -3.874989e+000 -1.877495e+000 -6.111338e+000 1.376964e+001 1.288907e-001 1.947078e-002 1.924620e-002 1.539018e-002 5.927208e-002 -3.771930e-001 -4.887335e-002 1.869508e-001 -1.329073e-001 1.604363e-001 2.107643e-001 9.121563e-002 -4.007006e-002 6.598078e-002 4.164807e-002 1.044922e-001 7.379394e-002 -1.667638e-002 3.965560e-002 1.042179e-002 -1.836644e-002 -4.814836e-002 -6.630120e-003 7.102842e-002 1.996221e-002 2.671861e-002
<VARIANCE> 39
 1.394003e+001 1.347597e+001 1.116401e+001 4.139851e+001 2.125722e+001 3.059212e+001 2.168423e+001 1.964309e+001 2.403578e+001 2.179220e+001 1.973803e+001 1.726319e+001 8.078491e+000 3.942248e-001 5.587492e-001 4.153092e-001 9.373411e-001 8.609715e-001 1.294273e+000 9.849429e-001 8.549955e-001 9.274334e-001 1.079704e+000 8.616682e-001 5.281479e-001 5.627320e-002 9.179919e-002 9.438485e-002 7.180317e-002 1.837829e-001 1.403175e-001 2.175874e-001 1.585786e-001 1.637869e-001 1.653093e-001 1.586222e-001 1.349829e-001 1.082338e-001 8.535014e-003
<GCONST> 7.473178e+001
<MIXTURE> 2 5.156099e-001
<MEAN> 39
 -1.335644e+001 -4.311437e+000 -4.815178e+000 -1.693697e+001 -6.032253e+000 -1.091806e+001 -4.911634e+000 -5.712179e+000 -1.244642e+000 -3.737095e+000 -1.395254e+000 -6.482381e+000 1.429239e+001 -7.347824e-002 -1.275438e-001 -2.260912e-001 -7.943003e-002 2.192130e-002 -3.283848e-001 -4.304147e-001 -4.036674e-001 -5.082196e-001 -1.484417e-001 3.135180e-003 -9.413024e-002 -8.587842e-002 5.345989e-002 4.079189e-002 1.173343e-001 -1.616346e-002 2.403023e-002 4.882947e-002 6.264625e-003 -2.210074e-002 4.347441e-002 -5.156958e-002 -1.687417e-002 -8.133423e-003 2.840239e-002
<VARIANCE> 39
 7.337232e+000 9.840938e+000 8.666004e+000 2.415563e+001 1.679567e+001 2.201717e+001 2.362024e+001 1.793670e+001 1.795528e+001 2.541152e+001 1.878604e+001 1.431890e+001 4.540534e+000 2.388289e-001 5.631108e-001 4.113460e-001 9.513700e-001 8.087028e-001 9.504905e-001 9.158675e-001 7.905222e-001 9.097332e-001 8.484938e-001 6.883953e-001 6.508664e-001 3.416516e-002 4.039893e-002 8.292667e-002 7.514288e-002 1.835724e-001 1.396299e-001 1.722739e-001 1.824243e-001 1.542708e-001 1.532286e-001 1.727878e-001 1.571589e-001 8.789604e-002 6.074801e-003
<GCONST> 6.822720e+001
<TRANSP> 10
 0.000000e+000 1.000000e+000 0.000000e+000 0.000000e+000 0.000000e+000 0.000000e+000 0.000000e+000 0.000000e+000 0.000000e+000 0.000000e+000
 0.000000e+000 7.012093e-001 2.987907e-001 0.000000e+000 0.000000e+000 0.000000e+000 0.000000e+000 0.000000e+000 0.000000e+000 0.000000e+000
 0.000000e+000 0.000000e+000 6.296793e-001 3.703207e-001 0.000000e+000 0.000000e+000 0.000000e+000 0.000000e+000 0.000000e+000 0.000000e+000
 0.000000e+000 0.000000e+000 0.000000e+000 8.434979e-001 1.565021e-001 0.000000e+000 0.000000e+000 0.000000e+000 0.000000e+000 0.000000e+000
 0.000000e+000 0.000000e+000 0.000000e+000 0.000000e+000 6.997541e-001 3.002459e-001 0.000000e+000 0.000000e+000 0.000000e+000 0.000000e+000
 0.000000e+000 0.000000e+000 0.000000e+000 0.000000e+000 0.000000e+000 6.455362e-001 3.544637e-001 0.000000e+000 0.000000e+000 0.000000e+000
 0.000000e+000 0.000000e+000 0.000000e+000 0.000000e+000 0.000000e+000 0.000000e+000 6.530323e-001 3.469677e-001 0.000000e+000 0.000000e+000
 0.000000e+000 0.000000e+000 0.000000e+000 0.000000e+000 0.000000e+000 0.000000e+000 0.000000e+000 7.707734e-001 2.292266e-001 0.000000e+000
 0.000000e+000 0.000000e+000 0.000000e+000 0.000000e+000 0.000000e+000 0.000000e+000 0.000000e+000 0.000000e+000 6.568083e-001 3.431917e-001
 0.000000e+000 0.000000e+000 0.000000e+000 0.000000e+000 0.000000e+000 0.000000e+000 0.000000e+000 0.000000e+000 0.000000e+000 0.000000e+000
<ENDHMM>
~h "three"
<BEGINHMM>
<NUMSTATES> 10
<STATE> 2
<NUMMIXES> 2
<MIXTURE> 1 5.067292e-001
<MEAN> 39
 -1.248106e+001 -3.183521e+000 -3.418242e+000 -1.362948e+001 -3.178360e+000 -9.416028e+000 -3.484667e+000 -5.497725e+000 -3.919429e-001 -2.888036e+000 -9.561471e-001 -5.097898e+000 1.344434e+001 9.287461e-001 5.069211e-001 1.191825e+000 2.885317e-001 -9.002108e-002 2.600175e-001 5.817795e-001 2.743071e-001 1.569433e-002 2.635052e-001 2.105735e-001 -2.861314e-001 6.149388e-001 4.082147e-001 -1.430780e-002 3.458430e-001 3.008924e-001 -3.541060e-001 -1.622115e-001 9.932211e-002 2.762796e-002 -5.776038e-002 -1.226446e-001 8.832090e-002 -9.215517e-003 6.519680e-002
<VARIANCE> 39
 9.051320e+000 1.327341e+001 1.170717e+001 2.540835e+001 2.116056e+001 2.364686e+001 2.283422e+001 2.411875e+001 2.231786e+001 2.774035e+001 2.120877e+001 1.916321e+001 6.299454e+000 8.783575e-001 7.129925e-001 1.129619e+000 1.173732e+000 1.357321e+000 1.203900e+000 8.340896e-001 1.272819e+000 9.607763e-001 9.664319e-001 1.333133e+000 8.646230e-001 3.500772e-001 1.476864e-001 2.058453e-001 1.903336e-001 2.155665e-001 2.745873e-001 2.741160e-001 2.168162e-001 2.362690e-001 2.071218e-001 2.898305e-001 2.500665e-001 2.274130e-001 4.266344e-002
<GCONST> 8.726794e+001
<MIXTURE> 2 4.932707e-001
<MEAN> 39
 -1.301809e+001 -3.949584e+000 -3.939551e+000 -1.419046e+001 -3.960396e+000 -1.083333e+001 -3.932298e+000 -6.453102e+000 -6.544933e-001 -4.338231e+000 -2.128880e-001 -5.076062e+000 1.411796e+001 9.782082e-001 3.786515e-001 8.126678e-001 2.090203e-001 -4.326493e-001 -2.333048e-001 2.374465e-002 -3.374866e-001 -4.448071e-001 -5.331814e-001 -6.135618e-001 -6.892671e-001 4.919071e-001 3.921863e-001 -1.352787e-003 2.589478e-001 3.191639e-002 -3.094080e-001 -1.869755e-001 -2.747828e-002 1.999594e-002 -1.632350e-001 -1.302149e-001 -2.288053e-001 -2.872873e-001 1.042996e-001
<VARIANCE> 39
 1.014497e+001 8.790507e+000 1.345770e+001 2.146597e+001 1.898042e+001 2.136176e+001 1.995717e+001 2.398396e+001 1.898297e+001 2.149098e+001 1.822883e+001 1.368230e+001 5.184131e+000 9.608974e-001 6.219981e-001 7.446474e-001 1.152887e+000 1.125484e+000 1.340692e+000 9.767457e-001 1.071725e+000 1.117355e+000 1.381410e+000 1.531794e+000 1.261723e+000 2.588047e-001 1.029771e-001 1.259348e-001 1.480211e-001 1.651221e-001 2.434981e-001 2.805622e-001 2.121429e-001 2.324117e-001 1.984000e-001 2.319120e-001 2.660527e-001 1.955518e-001 1.800085e-002
<GCONST> 8.291466e+001
<STATE> 3
<NUMMIXES> 2
<MIXTURE> 1 5.265248e-001
<MEAN> 39
 -6.381890e+000 -1.679015e+000 2.547252e+000 -1.201667e+001 -6.183164e+000 -1.086418e+001 -9.938021e-001 -3.944570e+000 -1.392233e+000 -3.028965e+000 1.315482e-001 -7.114484e+000 1.621952e+001 1.578420e+000 -5.773739e-001 9.677944e-001 1.032276e+000 -1.269964e+000 -8.466351e-001 4.875295e-001 3.487618e-001 1.526475e-001 1.214833e-001 5.984727e-001 2.877328e-001 4.889996e-001 -3.702674e-002 -3.550022e-001 -2.963412e-001 5.403426e-002 -2.071207e-001 -1.620639e-001 -1.480597e-001 -1.526549e-001 1.283257e-001 -9.088496e-002 -6.272478e-002 2.106027e-001 -3.944860e-002
<VARIANCE> 39
 1.749641e+001 1.288806e+001 1.888761e+001 1.846303e+001 3.457106e+001 3.807801e+001 2.085359e+001 2.342294e+001 2.227442e+001 1.814550e+001 3.369182e+001 2.635800e+001 3.042078e+000 9.539616e-001 1.265494e+000 1.284874e+000 1.290426e+000 1.920666e+000 1.820543e+000 9.345188e-001 1.616877e+000 1.260563e+000 1.239328e+000 1.299016e+000 1.406257e+000 1.041203e-001 1.577023e-001 1.576011e-001 2.032709e-001 2.787660e-001 3.450450e-001 3.523884e-001 1.965773e-001 2.672201e-001 1.858742e-001 1.966501e-001 3.262232e-001 2.036024e-001 2.410215e-002
<GCONST> 9.000706e+001
<MIXTURE> 2 4.734756e-001
<MEAN> 39
 -5.022076e+000 -2.956701e+000 1.650061e+000 -1.119399e+001 -7.461585e+000 -1.473252e+001 -4.325904e+000 -5.834055e+000 -3.468451e+000 -7.976508e+000 -3.475489e+000 -8.911179e+000 1.666109e+001 1.558144e+000 -8.095189e-001 4.622790e-001 7.785009e-001 -1.618726e+000 -1.229316e+000 3.573974e-002 -1.252784e-001 -4.811096e-001 -5.771978e-001 -7.793653e-001 -8.294734e-001 5.381185e-001 -1.911489e-001 -2.391996e-001 -1.818336e-001 -1.258281e-001 -2.224859e-001 1.563921e-001 1.141880e-001 -1.081020e-001 1.052143e-001 2.730791e-001 1.225919e-002 4.187335e-002 -3.371259e-002
<VARIANCE> 39
 1.719428e+001 1.343980e+001 1.947367e+001 2.677004e+001 3.288922e+001 3.842678e+001 2.384909e+001 3.425000e+001 2.505751e+001 2.670094e+001 4.345678e+001 3.987904e+001 2.538118e+000 1.165238e+000 1.033273e+000 1.176339e+000 1.818114e+000 2.323091e+000 2.384129e+000 1.214146e+000 1.596543e+000 1.186213e+000 1.457429e+000 1.830050e+000 2.069019e+000 1.080054e-001 1.079210e-001 1.220340e-001 1.571971e-001 3.093324e-001 2.892337e-001 2.872630e-001 2.135434e-001 2.860292e-001 2.358011e-001 2.139749e-001 2.687685e-001 2.095684e-001 1.320098e-002
<GCONST> 9.226376e+001
<STATE> 4
<NUMMIXES> 2
<MIXTURE> 1 5.820023e-001
<MEAN> 39
 -1.506196e+000 -9.232312e+000 2.108966e+000 -7.555049e+000 -1.496982e+001 -1.622589e+001 1.052263e+000 -4.827884e+000 -5.711262e-001 -2.632081e+000 5.178577e-001 -4.663261e+000 1.840539e+001 -4.609619e-002 -3.516368e-001 7.858150e-001 -7.320782e-001 -1.627545e+000 1.403697e+000 3.109671e-001 -6.659347e-001 5.928168e-001 4.455420e-001 1.698647e-002 1.978369e-001 2.304154e-001 -3.567697e-001 4.742483e-001 1.133894e-001 -6.292429e-001 3.543862e-001 6.188875e-001 -4.409308e-001 -6.632989e-002 1.441422e-001 -1.242824e-001 -2.867126e-002 -1.128428e-001 -6.336329e-002
<VARIANCE> 39
 1.774826e+001 2.561263e+001 1.286817e+001 3.148113e+001 3.990608e+001 5.515630e+001 1.744686e+001 2.125169e+001 1.907026e+001 1.577167e+001 2.140262e+001 3.626319e+001 1.284593e+000 6.358812e-001 1.057669e+000 8.768711e-001 1.992564e+000 1.235052e+000 2.108776e+000 1.325131e+000 1.219812e+000 9.720336e-001 7.644932e-001 8.177892e-001 1.152643e+000 3.152559e-002 5.429602e-002 9.145518e-002 1.138297e-001 1.687970e-001 2.538714e-001 2.372127e-001 2.503119e-001 1.644368e-001 1.646413e-001 1.705820e-001 1.603730e-001 2.103151e-001 2.651157e-003
<GCONST> 7.965794e+001
<MIXTURE> 2 4.179977e-001
<MEAN> 39
 -2.020349e-001 -8.078616e+000 1.848292e+000 -6.222394e+000 -1.556283e+001 -1.766085e+001 -2.408611e+000 -7.999968e+000 -4.278690e+000 -6.573330e+000 -3.726607e+000 -9.225051e+000 1.779398e+001 3.987553e-001 -5.313725e-001 5.720596e-001 -5.318922e-001 -1.999173e+000 4.343544e-001 -1.157850e-001 -1.033762e+000 1.956255e-001 7.813387e-002 -5.798277e-001 -4.004929e-001 4.404527e-001 -6.098981e-001 5.001532e-001 1.529504e-001 -7.517703e-001 4.647063e-001 7.223704e-001 -2.832303e-001 7.130451e-002 2.505925e-001 7.346134e-002 9.309363e-002 1.011996e-001 -1.052220e-001
<VARIANCE> 39
 2.316546e+001 1.622666e+001 2.316710e+001 5.970096e+001 4.516479e+001 5.155631e+001 2.354429e+001 4.368611e+001 2.622228e+001 2.703946e+001 3.436323e+001 4.141537e+001 1.090685e+000 1.312083e+000 1.307691e+000 1.279781e+000 3.561374e+000 2.097103e+000 3.323986e+000 2.022946e+000 1.809623e+000 1.175029e+000 1.448101e+000 1.046876e+000 9.746427e-001 8.208071e-002 1.624011e-001 1.355253e-001 2.543252e-001 3.047965e-001 5.133507e-001 3.832040e-001 3.380812e-001 3.474539e-001 2.177818e-001 2.057184e-001 1.991491e-001 1.869371e-001 8.336512e-003
<GCONST> 9.546218e+001
<STATE> 5
<NUMMIXES> 2
<MIXTURE> 1 5.512126e-001
<MEAN> 39
 -3.854986e+000 -7.133553e+000 6.337807e+000 -1.460750e+001 -1.874053e+001 -6.245724e+000 -1.801220e+000 -8.845099e+000 2.765691e+000 -1.910063e+000 -2.163249e-001 -5.756601e+000 1.876426e+001 -9.393389e-001 1.476637e+000 5.825952e-001 -2.431120e+000 8.244764e-001 1.864131e+000 -1.818655e+000 1.108249e-001 8.106143e-001 -3.404605e-001 1.183676e-002 3.268623e-002 2.716594e-002 -7.459731e-002 3.907595e-001 -3.476907e-001 2.747201e-002 8.033364e-001 -5.896204e-001 -2.673350e-001 4.396351e-001 -2.530289e-001 -1.647280e-001 3.623305e-002 6.811382e-002 -5.573611e-002
<VARIANCE> 39
 1.073024e+001 2.984560e+001 1.135833e+001 2.979459e+001 4.610340e+001 5.602911e+001 2.899641e+001 3.323370e+001 1.732281e+001 1.447292e+001 1.783832e+001 1.924837e+001 1.287492e+000 4.149985e-001 7.335461e-001 5.900854e-001 1.291068e+000 1.467891e+000 1.656008e+000 1.145962e+000 1.244315e+000 7.744667e-001 6.999046e-001 7.407326e-001 9.883664e-001 1.346050e-002 4.222904e-002 7.959544e-002 6.548988e-002 1.572102e-001 1.709459e-001 2.368849e-001 2.266260e-001 1.256052e-001 1.317251e-001 1.326676e-001 1.122830e-001 1.373676e-001 1.552352e-003
<GCONST> 7.243947e+001
<MIXTURE> 2 4.487869e-001
<MEAN> 39
 -4.753842e+000 -4.292988e+000 7.069755e+000 -1.770080e+001 -1.799512e+001 -6.266262e+000 -6.852413e+000 -1.131568e+001 6.824900e-001 -6.890281e+000 -5.084577e+000 -1.019146e+001 1.854660e+001 -9.400155e-001 1.879693e+000 2.648298e-001 -2.361197e+000 1.571100e+000 1.061175e+000 -2.256523e+000 6.304873e-001 2.928620e-001 -6.115093e-001 -1.519103e-001 -5.328913e-002 4.781964e-002 -8.426213e-002 3.965837e-001 -4.613731e-001 3.121274e-001 8.840548e-001 -7.865232e-001 3.776332e-002 4.657905e-001 -4.161401e-001 -3.826121e-002 8.606255e-002 1.121534e-001 -8.062734e-002
<VARIANCE> 39
 1.028947e+001 2.205226e+001 1.783951e+001 2.389538e+001 3.827114e+001 3.130365e+001 4.056662e+001 3.380197e+001 2.922312e+001 3.300959e+001 6.156983e+001 4.546108e+001 1.122027e+000 4.910047e-001 1.248764e+000 6.038974e-001 1.236249e+000 1.795328e+000 1.915368e+000 1.514675e+000 1.420874e+000 1.047206e+000 9.187748e-001 8.265949e-001 6.595203e-001 2.065849e-002 9.232327e-002 1.239412e-001 1.208028e-001 2.541062e-001 2.331277e-001 2.419339e-001 2.726776e-001 1.783635e-001 2.030578e-001 2.166667e-001 1.931156e-001 1.526856e-001 4.609999e-003
<GCONST> 8.320822e+001
<STATE> 6
<NUMMIXES> 2
<MIXTURE> 1 5.619866e-001
<MEAN> 39
 -7.117946e+000 6.953908e-001 4.791770e+000 -2.234031e+001 -8.790884e+000 -5.576643e+000 -8.459854e+000 -3.030941e+000 1.928298e+000 -3.541632e+000 2.652210e-001 -4.454706e+000 1.848546e+001 -5.061843e-001 1.904190e+000 -7.874517e-001 -5.928481e-001 2.082871e+000 -1.286422e+000 -4.365015e-001 7.559621e-001 -4.698392e-001 -1.209376e-002 2.054131e-001 3.277733e-001 -1.043909e-001 1.657594e-001 -1.213343e-001 -1.603979e-001 5.737708e-001 -1.658008e-001 -4.115511e-001 4.571182e-001 -2.381081e-001 -1.191605e-001 1.077690e-001 4.321438e-004 -3.788977e-002 -3.003253e-002
<VARIANCE> 39
 6.328363e+000 2.771356e+001 1.481094e+001 1.863464e+001 3.946640e+001 3.105916e+001 5.169344e+001 4.085327e+001 2.000034e+001 1.560674e+001 1.252075e+001 1.741153e+001 1.268257e+000 2.793713e-001 6.525823e-001 3.322971e-001 1.131722e+000 1.023956e+000 1.390256e+000 1.336962e+000 9.072527e-001 7.902185e-001 6.862407e-001 6.677402e-001 7.045482e-001 1.609669e-002 2.998187e-002 7.297337e-002 6.256648e-002 9.538952e-002 1.362451e-001 1.991674e-001 1.749802e-001 1.251134e-001 1.304616e-001 1.072910e-001 1.090440e-001 1.213242e-001 9.285440e-004
<GCONST> 6.671714e+001
<MIXTURE> 2 4.380124e-001
<MEAN> 39
 -7.696741e+000 2.746485e+000 4.232794e+000 -2.292900e+001 -7.677628e+000 -9.954117e+000 -1.183216e+001 -4.803776e+000 -2.276138e+000 -8.678306e+000 -4.733324e+000 -1.075241e+001 1.854956e+001 -6.118061e-001 2.009257e+000 -1.007763e+000 -1.984557e-001 2.146290e+000 -1.613135e+000 -3.827997e-001 5.206577e-001 -9.159101e-001 -1.407337e-001 -1.462549e-001 -8.853216e-002 -7.556463e-002 1.657368e-001 -2.041158e-001 -1.630797e-001 6.823543e-001 -2.850003e-001 -3.050504e-001 6.570778e-001 -3.797968e-001 -8.351646e-002 1.538398e-001 -3.462083e-002 -1.738271e-002 -3.668240e-002
<VARIANCE> 39
 8.437992e+000 2.481633e+001 1.410187e+001 1.698749e+001 2.798171e+001 2.331079e+001 4.134622e+001 3.526374e+001 3.408656e+001 2.892469e+001 5.990008e+001 4.665517e+001 1.161102e+000 2.045600e-001 8.760675e-001 6.870643e-001 1.072860e+000 1.259137e+000 1.818176e+000 1.904950e+000 1.304053e+000 1.309894e+000 1.132653e+000 8.049929e-001 5.927529e-001 8.832620e-003 3.688898e-002 9.783678e-002 1.035233e-001 1.557989e-001 2.106220e-001 2.760880e-001 2.135768e-001 2.174289e-001 2.062419e-001 1.651017e-001 1.368634e-001 1.017737e-001 1.306040e-003
<GCONST> 7.592302e+001
<STATE> 7
<NUMMIXES> 2
<MIXTURE> 1 5.397244e-001
<MEAN> 39
 -7.511025e+000 7.877159e+000 5.334169e-001 -1.802922e+001 -3.621043e+000 -1.431742e+001 -6.129486e+000 -4.879354e+000 2.676382e-001 -2.766599e+000 7.600519e-001 -4.892560e+000 1.776840e+001 6.017798e-002 4.360649e-001 -2.322323e-001 7.483010e-001 5.715247e-001 -5.281447e-001 2.774462e-001 -3.214185e-001 -1.795248e-001 1.166735e-001 -3.793397e-002 -8.293276e-003 -1.662395e-001 4.723243e-002 -2.670525e-001 1.125464e-001 4.671513e-002 -1.133585e-001 2.442195e-001 3.818376e-002 -1.283010e-002 8.198133e-002 -9.184716e-004 -5.048672e-002 -3.034197e-002 -3.046015e-002
<VARIANCE> 39
 7.973722e+000 2.015945e+001 1.590040e+001 2.120159e+001 1.861616e+001 2.491612e+001 4.574076e+001 2.475641e+001 3.043450e+001 2.373222e+001 2.053368e+001 2.633347e+001 1.461342e+000 1.551261e-001 7.423715e-001 4.981973e-001 6.209342e-001 8.046585e-001 1.158691e+000 6.962859e-001 8.445012e-001 6.847604e-001 7.400387e-001 7.976586e-001 7.872347e-001 1.491507e-002 2.525331e-002 7.145774e-002 6.614244e-002 1.111620e-001 1.219549e-001 1.321496e-001 1.259527e-001 1.182216e-001 1.262953e-001 1.216662e-001 1.202186e-001 1.146995e-001 2.151851e-003
<GCONST> 6.555151e+001
<MIXTURE> 2 4.602732e-001
<MEAN> 39
 -8.735034e+000 6.240831e+000 -6.305472e-001 -1.800294e+001 -4.180942e+000 -1.699296e+001 -5.944642e+000 -9.263318e+000 -3.311473e+000 -9.052157e+000 -7.112370e+000 -1.227830e+001 1.787514e+001 -6.328864e-002 3.124816e-001 -2.232464e-001 6.624343e-001 2.117417e-001 -2.802258e-001 -1.502025e-002 -5.966215e-001 -3.089114e-001 -3.551975e-001 -1.368469e-001 -2.490144e-002 -1.241498e-001 4.008175e-002 -2.478484e-001 1.276667e-001 -2.101753e-002 -8.960056e-002 2.581801e-001 -2.746128e-002 7.864685e-002 5.359361e-002 4.112495e-002 8.476178e-002 7.433216e-002 -2.052995e-002
<VARIANCE> 39
 7.946746e+000 2.610285e+001 1.382505e+001 1.691496e+001 1.381202e+001 1.785413e+001 2.883692e+001 3.234216e+001 3.179364e+001 3.885399e+001 5.747480e+001 4.877357e+001 1.336091e+000 9.450112e-002 6.581128e-001 5.081129e-001 6.375189e-001 5.573757e-001 1.030380e+000 8.831931e-001 1.042802e+000 8.749338e-001 9.768192e-001 7.007588e-001 7.896301e-001 8.709026e-003 1.914263e-002 5.504012e-002 7.097176e-002 9.506116e-002 1.090247e-001 1.397376e-001 1.523751e-001 1.454395e-001 1.287808e-001 1.530238e-001 1.238099e-001 1.252401e-001 1.360297e-003
<GCONST> 6.558478e+001
<STATE> 8
<NUMMIXES> 2
<MIXTURE> 1 5.261405e-001
<MEAN> 39
 -6.505430e+000 9.668348e+000 1.852682e+000 -1.572722e+001 -2.348282e+000 -1.363533e+001 -8.874783e+000 -7.130280e+000 -3.142165e+000 -5.291879e+000 -2.460534e+000 -7.105064e+000 1.678041e+001 5.701379e-002 -6.056592e-001 -1.088020e-001 1.114288e+000 1.013029e+000 4.507033e-001 9.508389e-001 3.455284e-001 2.513953e-001 5.600087e-001 2.187843e-001 2.101198e-001 -4.877545e-001 -1.706881e-001 -4.853867e-001 -2.874209e-002 6.810212e-002 -1.129529e-001 2.886668e-001 2.386249e-001 1.117243e-001 1.748009e-001 1.623136e-002 9.466279e-002 4.826364e-002 -8.931464e-002
<VARIANCE> 39
 1.358993e+001 3.357050e+001 2.543562e+001 2.956276e+001 3.724687e+001 3.343536e+001 4.652950e+001 3.335070e+001 4.069034e+001 4.897397e+001 4.016196e+001 4.438894e+001 2.626459e+000 4.960659e-001 1.323689e+000 1.085253e+000 2.181756e+000 2.391717e+000 1.322067e+000 1.429803e+000 1.613719e+000 1.389290e+000 1.807040e+000 1.962250e+000 1.520685e+000 6.197846e-002 7.537847e-002 1.570041e-001 1.686346e-001 2.753122e-001 2.655286e-001 2.121031e-001 2.341854e-001 2.166144e-001 2.159763e-001 2.853785e-001 2.027075e-001 1.963418e-001 8.795614e-003
<GCONST> 9.249889e+001
<MIXTURE> 2 4.738590e-001
<MEAN> 39
 -6.506938e+000 7.190582e+000 1.909448e+000 -1.188059e+001 4.433165e-001 -1.348331e+001 -5.686707e+000 -9.124176e+000 -3.676155e+000 -6.540544e+000 -3.925586e+000 -7.810804e+000 1.558241e+001 -6.452582e-001 -1.663448e+000 -3.230138e-001 6.702233e-001 1.306996e-001 8.591576e-001 6.376266e-001 3.417144e-001 1.371890e-001 2.024026e-001 4.474619e-001 3.457994e-001 -6.150456e-001 -2.270950e-001 -3.178791e-001 -2.854655e-001 -3.253115e-001 -3.105594e-001 4.238920e-002 -4.193792e-003 1.650542e-001 1.086832e-001 9.053902e-002 1.067019e-001 3.637869e-002 -4.455332e-002
<VARIANCE> 39
 9.912956e+000 2.496057e+001 2.692396e+001 3.488033e+001 5.489704e+001 4.366814e+001 3.650547e+001 3.906212e+001 4.840835e+001 5.413010e+001 4.701620e+001 4.856131e+001 3.984055e+000 6.631899e-001 1.140283e+000 1.013809e+000 1.476276e+000 1.826017e+000 1.688343e+000 2.608661e+000 1.980637e+000 1.952083e+000 2.120454e+000 2.031227e+000 1.914561e+000 1.266674e-001 5.039301e-002 1.238087e-001 1.505197e-001 2.033676e-001 2.538512e-001 2.159859e-001 2.234462e-001 2.605187e-001 1.999753e-001 3.084204e-001 2.210843e-001 1.727544e-001 8.170986e-003
<GCONST> 9.450043e+001
<STATE> 9
<NUMMIXES> 2
<MIXTURE> 1 4.447521e-001
<MEAN> 39
 -9.040048e+000 1.562153e-002 -1.800678e+000 -1.061012e+001 -5.578331e-001 -9.619432e+000 -3.706298e+000 -5.654617e+000 -1.494213e+000 -2.999762e+000 -5.004055e-001 -5.390205e+000 1.217367e+001 -2.087279e-001 -1.003861e+000 -2.649367e-001 5.457402e-002 -4.824405e-001 5.467401e-001 1.900069e-001 2.286547e-001 4.562542e-002 1.381188e-001 1.281292e-001 6.122217e-002 -3.053026e-001 1.341103e-001 2.540104e-001 1.121127e-001 -2.610335e-002 -5.722296e-003 -7.644075e-002 -9.163576e-002 -6.302921e-002 -5.481407e-002 -9.532617e-002 -8.890115e-002 -5.726848e-002 1.007896e-001
<VARIANCE> 39
 1.677636e+001 2.685978e+001 3.114979e+001 4.067842e+001 3.419782e+001 4.096090e+001 3.738332e+001 2.883277e+001 4.333783e+001 2.989323e+001 2.580017e+001 2.344158e+001 1.005630e+001 5.270571e-001 1.189567e+000 1.088708e+000 1.288487e+000 1.740443e+000 1.638503e+000 1.780339e+000 1.373112e+000 1.555511e+000 2.103715e+000 1.555408e+000 9.753194e-001 1.098022e-001 6.390148e-002 1.607009e-001 1.994939e-001 1.931682e-001 2.436524e-001 1.858677e-001 2.622468e-001 1.972258e-001 2.083514e-001 2.521711e-001 2.330753e-001 2.027191e-001 1.481782e-002
<GCONST> 9.214434e+001
<MIXTURE> 2 5.552480e-001
<MEAN> 39
 -1.174555e+001 -1.975393e+000 -1.600351e+000 -1.317851e+001 -1.516907e+000 -9.134003e+000 -3.269117e+000 -4.503314e+000 -1.223544e-001 -3.946363e+000 -9.002483e-001 -5.879570e+000 1.394389e+001 -8.882457e-001 -1.622582e+000 -1.294251e+000 -5.226650e-001 -4.567395e-001 1.334552e-001 2.448593e-001 2.063405e-001 2.570354e-001 6.132824e-002 2.627183e-001 2.339876e-001 -4.272101e-001 1.560258e-001 3.229249e-001 3.819407e-002 -1.800652e-001 -1.472903e-001 -3.275663e-001 -3.480982e-001 -2.361428e-001 -2.375552e-001 -1.236965e-001 -7.337938e-002 -4.906246e-002 1.335592e-001
<VARIANCE> 39
 1.166255e+001 1.164354e+001 1.553568e+001 2.001184e+001 2.007739e+001 1.963922e+001 2.179521e+001 1.879689e+001 2.126574e+001 1.958932e+001 1.874425e+001 1.894057e+001 4.265499e+000 3.501445e-001 7.475908e-001 5.950631e-001 7.894232e-001 8.284081e-001 1.129003e+000 1.365541e+000 1.226686e+000 1.166767e+000 1.416645e+000 1.590246e+000 1.353741e+000 8.641450e-002 6.784777e-002 1.138803e-001 1.337962e-001 1.469601e-001 1.473991e-001 1.622113e-001 2.041762e-001 1.574430e-001 1.690141e-001 2.067693e-001 1.758948e-001 1.610993e-001 8.753979e-003
<GCONST> 7.723010e+001
<TRANSP> 10
 0.000000e+000 1.000000e+000 0.000000e+000 0.000000e+000 0.000000e+000 0.000000e+000 0.000000e+000 0.000000e+000 0.000000e+000 0.000000e+000
 0.000000e+000 6.766254e-001 3.233746e-001 0.000000e+000 0.000000e+000 0.000000e+000 0.000000e+000 0.000000e+000 0.000000e+000 0.000000e+000
 0.000000e+000 0.000000e+000 7.321519e-001 2.678482e-001 0.000000e+000 0.000000e+000 0.000000e+000 0.000000e+000 0.000000e+000 0.000000e+000
 0.000000e+000 0.000000e+000 0.000000e+000 7.276906e-001 2.723095e-001 0.000000e+000 0.000000e+000 0.000000e+000 0.000000e+000 0.000000e+000
 0.000000e+000 0.000000e+000 0.000000e+000 0.000000e+000 6.611824e-001 3.388175e-001 0.000000e+000 0.000000e+000 0.000000e+000 0.000000e+000
 0.000000e+000 0.000000e+000 0.000000e+000 0.000000e+000 0.000000e+000 7.040708e-001 2.959292e-001 0.000000e+000 0.000000e+000 0.000000e+000
 0.000000e+000 0.000000e+000 0.000000e+000 0.000000e+000 0.000000e+000 0.000000e+000 8.343772e-001 1.656229e-001 0.000000e+000 0.000000e+000
 0.000000e+000 0.000000e+000 0.000000e+000 0.000000e+000 0.000000e+000 0.000000e+000 0.000000e+000 7.344569e-001 2.655431e-001 0.000000e+000
 0.000000e+000 0.000000e+000 0.000000e+000 0.000000e+000 0.000000e+000 0.000000e+000 0.000000e+000 0.000000e+000 7.216225e-001 2.783776e-001
 0.000000e+000 0.000000e+000 0.000000e+000 0.000000e+000 0.000000e+000 0.000000e+000 0.000000e+000 0.000000e+000 0.000000e+000 0.000000e+000
<ENDHMM>
~h "two"
<BEGINHMM>
<NUMSTATES> 10
<STATE> 2
<NUMMIXES> 2
<MIXTURE> 1 4.620073e-001
<MEAN> 39
 -1.327469e+001 3.557028e-001 -5.106793e+000 -1.107146e+001 -7.145483e+000 -6.911592e+000 -5.849005e+000 -5.019879e+000 8.722855e-001 -3.358586e+000 -1.138810e+000 -3.809625e+000 1.457203e+001 -3.310632e-001 1.087276e+000 5.040773e-001 -8.396245e-002 1.852415e-001 6.548826e-001 8.532004e-002 1.223553e-001 3.831438e-001 2.983029e-001 -4.460956e-001 4.240212e-001 1.323132e-001 3.626229e-001 1.684146e-002 5.108203e-001 -2.937181e-002 1.783420e-001 -7.173230e-002 1.488399e-001 2.674238e-002 -1.390748e-001 7.714611e-002 4.526675e-002 -3.159811e-002 -1.192373e-001
<VARIANCE> 39
 4.480080e+001 3.044537e+001 5.296088e+001 3.476431e+001 2.913043e+001 3.105105e+001 3.104983e+001 2.828300e+001 2.561244e+001 2.918872e+001 3.463033e+001 3.234570e+001 4.827807e+000 8.992794e-001 1.355383e+000 1.749973e+000 2.181669e+000 1.833151e+000 1.410116e+000 1.288897e+000 1.423016e+000 1.283976e+000 2.014024e+000 1.693720e+000 1.198004e+000 7.884938e-001 2.653825e-001 3.331706e-001 4.819383e-001 2.246449e-001 1.966994e-001 2.167033e-001 2.445202e-001 2.545841e-001 2.456492e-001 2.982512e-001 2.730452e-001 2.213296e-001 4.987165e-002
<GCONST> 1.007262e+002
<MIXTURE> 2 5.379922e-001
<MEAN> 39
 -1.339952e+001 -2.368714e+000 -6.264131e+000 -8.915983e+000 -5.519207e+000 -8.953980e+000 -3.579189e+000 -4.505905e+000 -4.476046e-001 -4.034924e+000 9.003857e-001 -4.386783e+000 1.096231e+001 -5.948619e-001 2.137741e-001 -5.464110e-001 -3.772783e-001 3.609176e-002 4.247374e-002 -5.106625e-002 -1.956858e-002 2.425167e-001 -3.294379e-001 1.318349e-001 -1.518826e-001 6.210654e-001 1.359205e-001 2.310960e-001 2.680447e-001 -2.535760e-001 7.164113e-002 -1.875650e-002 -9.314587e-002 -1.382527e-001 -3.006974e-002 -1.003305e-001 -2.252516e-001 -7.509194e-002 1.554126e-001
<VARIANCE> 39
 1.062455e+001 1.529548e+001 1.732738e+001 2.405503e+001 1.780947e+001 1.987441e+001 1.897452e+001 2.289749e+001 1.940773e+001 2.081760e+001 1.999567e+001 1.644440e+001 1.781474e+001 8.617033e-001 1.374748e+000 1.379757e+000 9.726430e-001 1.254594e+000 9.115440e-001 9.439301e-001 1.226001e+000 1.164512e+000 1.259754e+000 1.132136e+000 1.138497e+000 7.842125e-001 1.019734e-001 1.812120e-001 2.178307e-001 1.392955e-001 2.206485e-001 1.791547e-001 1.649688e-001 2.347381e-001 1.852887e-001 2.396983e-001 1.886109e-001 1.689180e-001 1.196482e-001
<GCONST> 8.790652e+001
<STATE> 3
<NUMMIXES> 2
<MIXTURE> 1 5.461258e-001
<MEAN> 39
 -1.477510e+001 8.075465e-002 -2.814731e+000 -1.411790e+001 -4.541199e+000 -5.635223e+000 -4.848513e+000 -4.571023e+000 7.424949e-001 -1.473044e+000 -3.056002e+000 -2.945786e+000 1.481355e+001 1.603900e+000 1.020296e+000 2.316424e+000 -3.780745e-001 -2.338369e-001 1.434786e-001 8.734762e-002 -1.732071e-001 -9.059060e-002 6.215877e-001 2.798541e-001 -1.378827e-001 5.105950e-001 4.230143e-001 3.879919e-002 2.188099e-001 -5.867916e-002 -3.539881e-001 -4.135367e-001 -2.003619e-001 -1.600319e-001 -9.014505e-002 -8.571468e-002 3.701919e-001 -1.789990e-001 1.472115e-001
<VARIANCE> 39
 1.035952e+001 1.111316e+001 1.887202e+001 1.349762e+001 2.894133e+001 2.568707e+001 2.376156e+001 2.463610e+001 1.925734e+001 3.601804e+001 3.106940e+001 3.347162e+001 1.912092e+000 6.583643e-001 6.234909e-001 8.156984e-001 8.518612e-001 1.161385e+000 1.084675e+000 1.055408e+000 1.023755e+000 1.035747e+000 1.240479e+000 1.584046e+000 9.817872e-001 8.266469e-002 1.406904e-001 1.080488e-001 2.150699e-001 1.545710e-001 1.870437e-001 1.758853e-001 2.071431e-001 2.243140e-001 2.185855e-001 3.443670e-001 2.330357e-001 2.739933e-001 9.971553e-003
<GCONST> 8.231760e+001
<MIXTURE> 2 4.538736e-001
<MEAN> 39
 -1.436237e+001 -5.623630e-001 -5.067134e+000 -1.502101e+001 -1.344275e+000 -1.044384e+001 -3.699740e+000 -4.568792e+000 1.103548e+000 -6.984026e+000 2.009372e+000 -6.994533e+000 1.451779e+001 1.374747e+000 1.098964e+000 1.538812e+000 -8.813851e-001 8.992534e-002 -7.018916e-001 -5.851920e-001 -9.904894e-001 -6.593232e-001 -1.093931e+000 -1.235616e+000 -9.788201e-001 5.173308e-001 3.605187e-001 2.178953e-002 1.761993e-001 -2.109882e-001 -3.729219e-001 -2.185023e-001 -1.636297e-001 -2.153669e-001 -2.962772e-001 -9.149946e-002 -5.705765e-001 -2.823355e-001 1.489363e-001
<VARIANCE> 39
 6.459573e+000 1.259518e+001 1.516198e+001 1.221921e+001 1.949795e+001 1.857608e+001 1.974068e+001 2.642570e+001 2.755060e+001 2.541881e+001 2.133236e+001 1.535580e+001 1.196663e+000 5.206748e-001 4.345467e-001 6.925964e-001 8.491891e-001 1.080522e+000 7.631533e-001 9.555417e-001 1.410041e+000 1.086909e+000 1.157133e+000 2.003193e+000 9.429944e-001 8.103289e-002 9.653357e-002 7.634390e-002 1.227329e-001 1.028184e-001 1.524674e-001 1.416621e-001 2.074597e-001 3.258097e-001 2.611499e-001 2.012990e-001 2.588684e-001 1.312697e-001 7.798026e-003
<GCONST> 7.541698e+001
<STATE> 4
<NUMMIXES> 2
<MIXTURE> 1 5.352167e-001
<MEAN> 39
 -5.942143e+000 4.480981e+000 4.702918e+000 -1.475372e+001 -5.918933e+000 -8.961815e+000 -4.889807e+000 -6.067363e+000 1.131352e+000 -1.975315e+000 -4.460438e-001 -5.382307e+000 1.776825e+001 1.788024e+000 8.272218e-001 1.635307e+000 -6.436609e-001 -1.384030e+000 -9.452451e-001 -5.779079e-001 -3.638400e-001 -4.924305e-003 2.716725e-001 5.517477e-001 -2.109650e-001 8.260298e-001 -3.575262e-001 -2.474294e-001 -5.352803e-001 -1.597868e-002 -2.022879e-001 -1.153816e-001 -1.625339e-001 -1.245249e-003 -4.930753e-002 -1.410209e-001 5.724739e-002 7.513153e-002 -5.926925e-002
<VARIANCE> 39
 8.871382e+000 1.134553e+001 1.483281e+001 1.712715e+001 3.710982e+001 2.964034e+001 1.548664e+001 1.651294e+001 1.845343e+001 4.339172e+001 2.617573e+001 3.494759e+001 1.840225e+000 8.473291e-001 6.865324e-001 8.353149e-001 1.144720e+000 9.540814e-001 1.218449e+000 1.466158e+000 1.644781e+000 1.539483e+000 2.021132e+000 1.947532e+000 1.972555e+000 3.794969e-002 6.388987e-002 6.372111e-002 7.551083e-002 9.251983e-002 1.324345e-001 1.773644e-001 1.572120e-001 1.518466e-001 1.548897e-001 2.470938e-001 2.480178e-001 1.950831e-001 1.140390e-002
<GCONST> 7.942205e+001
<MIXTURE> 2 4.647829e-001
<MEAN> 39
 -6.503725e+000 4.860398e+000 4.067387e+000 -1.688526e+001 -8.054387e+000 -1.231000e+001 -9.911976e+000 -1.093388e+001 -4.327430e+000 -7.687866e+000 -2.560009e+000 -7.867358e+000 1.778549e+001 1.380288e+000 6.807578e-001 1.132863e+000 -9.188765e-001 -1.314774e+000 -9.997720e-001 -1.199125e+000 -1.267418e+000 -1.240221e+000 -1.278872e+000 -1.322683e+000 -1.495671e+000 7.470795e-001 -4.345115e-001 -2.906108e-001 -5.201032e-001 1.116672e-001 2.599468e-002 1.342058e-001 2.135616e-001 3.238967e-001 9.214177e-002 5.432239e-002 -1.304098e-001 -4.112304e-002 -1.225617e-001
<VARIANCE> 39
 6.001376e+000 1.325726e+001 2.733500e+001 1.829664e+001 4.439178e+001 3.216269e+001 2.487783e+001 2.741578e+001 2.132751e+001 5.089714e+001 4.015324e+001 3.138528e+001 1.483907e+000 5.689107e-001 4.953881e-001 6.782958e-001 1.280038e+000 1.025286e+000 8.848770e-001 1.600079e+000 1.568512e+000 1.297026e+000 1.557977e+000 4.806985e+000 1.099425e+000 4.127361e-002 6.395127e-002 6.343696e-002 9.429049e-002 1.146204e-001 1.669655e-001 1.278256e-001 1.882617e-001 2.286026e-001 1.659197e-001 2.121778e-001 2.112877e-001 1.393874e-001 1.052161e-002
<GCONST> 8.072348e+001
<STATE> 5
<NUMMIXES> 2
<MIXTURE> 1 4.665516e-001
<MEAN> 39
 -5.910947e+000 4.506110e+000 2.181116e+000 -2.142398e+001 -7.225645e+000 -1.313503e+001 -4.730531e+000 -4.654809e+000 2.371722e+000 -5.374441e+000 -3.896170e+000 -1.042805e+001 1.894399e+001 2.051745e-001 1.143653e-001 3.017246e-001 -6.603174e-001 -5.575953e-001 -5.322306e-002 1.525361e-001 4.915627e-001 6.775583e-001 8.818916e-001 4.462852e-001 4.572022e-001 2.607916e-001 -2.899314e-001 -2.264604e-001 -1.986879e-001 4.030781e-001 3.031502e-001 2.240637e-001 5.628855e-002 -5.377989e-002 -6.186327e-002 1.079840e-001 3.017643e-001 3.346567e-001 -2.042994e-001
<VARIANCE> 39
 9.539907e+000 1.086184e+001 1.725063e+001 1.879684e+001 3.082226e+001 1.604618e+001 2.039930e+001 1.931031e+001 3.176964e+001 6.014091e+001 5.545229e+001 6.853227e+001 1.095345e+000 3.544312e-001 3.843449e-001 2.362344e-001 8.139172e-001 8.994685e-001 1.072752e+000 7.992995e-001 1.131764e+000 1.385106e+000 1.333879e+000 1.292537e+000 1.852932e+000 6.518990e-002 7.638332e-002 5.142094e-002 6.964670e-002 8.973537e-002 1.295009e-001 1.099110e-001 1.289803e-001 1.641763e-001 2.008015e-001 2.404705e-001 3.266895e-001 3.198792e-001 4.246643e-003
<GCONST> 7.567422e+001
<MIXTURE> 2 5.334478e-001
<MEAN> 39
 -6.954618e+000 3.628414e+000 3.310622e+000 -1.887022e+001 -9.667220e+000 -1.227018e+001 -9.924347e+000 -1.112980e+001 -5.181247e+000 -9.423278e+000 -6.639249e+000 -1.135818e+001 1.859752e+001 2.814699e-001 -1.649633e-002 9.915934e-002 -3.225481e-001 -6.843496e-001 -3.081096e-001 -2.786673e-001 -1.103925e-001 -6.750939e-001 -6.994220e-001 -8.494106e-001 -1.140030e+000 2.770723e-001 -2.951131e-001 -2.303139e-001 -3.037912e-001 3.322872e-001 3.668002e-001 1.618038e-001 3.576882e-001 4.135861e-001 2.488234e-001 2.786359e-001 3.470809e-001 2.562099e-001 -1.973689e-001
<VARIANCE> 39
