~o
<STREAMINFO> 1 39
<VECSIZE> 39<NULLD><MFCC_E_D_A><DIAGC>
~s "silst"
<NUMMIXES> 3
<MIXTURE> 1 2.528515e-001
<MEAN> 39
 -1.250517e+001 -4.182151e+000 -3.868436e+000 -1.600864e+001 -3.918379e+000 -1.174438e+001 -4.895665e+000 -5.645062e+000 -1.652830e+000 -4.239281e+000 -9.857314e-001 -5.830397e+000 1.403664e+001 -9.460613e-002 -1.569923e-002 -1.133245e-001 -1.736195e-001 -1.089462e-001 -1.662830e-002 4.980009e-004 -3.526204e-002 -6.451117e-002 9.154415e-003 2.114269e-002 3.784264e-002 5.798788e-002 1.229014e-001 7.986558e-002 5.167261e-002 6.725218e-002 4.041768e-002 1.367340e-002 4.965711e-002 -5.071349e-003 6.696432e-003 -1.895034e-002 -1.855352e-002 -4.350636e-002 4.771467e-002
<VARIANCE> 39
 1.146260e+001 1.045283e+001 1.245927e+001 2.573552e+001 1.929704e+001 2.090136e+001 1.886858e+001 1.983400e+001 1.867971e+001 2.231070e+001 1.954080e+001 1.767141e+001 8.045767e+000 2.423273e-001 3.932684e-001 5.278699e-001 6.678562e-001 7.839247e-001 7.508568e-001 8.259446e-001 9.461774e-001 8.499997e-001 8.672936e-001 7.613966e-001 6.967027e-001 3.196579e-002 6.482272e-002 8.073487e-002 1.118982e-001 1.354676e-001 1.461459e-001 1.398140e-001 1.548574e-001 1.643372e-001 1.549798e-001 1.574084e-001 1.496701e-001 1.347269e-001 1.183814e-002
<GCONST> 7.051126e+001
<MIXTURE> 2 3.925529e-001
<MEAN> 39
 -1.286530e+001 -4.913515e+000 -4.644129e+000 -1.746679e+001 -3.521296e+000 -1.293843e+001 -5.139410e+000 -6.222001e+000 -1.504919e+000 -4.399450e+000 -8.502149e-001 -6.469803e+000 1.456101e+001 2.607082e-002 4.327259e-002 4.962841e-002 9.075248e-002 8.493900e-002 1.048132e-001 1.080322e-001 1.430528e-001 1.211712e-001 1.124177e-001 8.176868e-002 6.590890e-002 -1.108381e-002 1.603480e-002 2.722399e-002 2.456143e-002 1.226396e-002 1.356285e-002 2.021674e-002 3.239451e-002 2.956321e-002 1.612459e-002 1.974333e-002 1.650521e-002 1.144130e-002 7.773814e-003
<VARIANCE> 39
 2.676541e+000 4.381285e+000 5.498979e+000 8.696694e+000 1.137612e+001 1.243242e+001 1.430109e+001 1.595985e+001 1.543470e+001 1.629316e+001 1.561470e+001 1.259003e+001 2.492324e+000 6.974787e-002 1.439915e-001 2.540836e-001 3.654371e-001 4.675042e-001 5.489377e-001 6.295064e-001 6.082249e-001 6.761664e-001 6.739663e-001 7.023250e-001 5.711352e-001 6.398442e-003 1.168146e-002 2.558573e-002 4.461359e-002 6.815742e-002 8.784353e-002 9.839880e-002 1.173071e-001 1.171200e-001 1.235515e-001 1.285008e-001 1.244712e-001 9.781206e-002 9.129675e-004
<GCONST> 4.556198e+001
<MIXTURE> 3 3.545765e-001
<MEAN> 39
 -1.284831e+001 -4.821793e+000 -4.746454e+000 -1.791466e+001 -3.890210e+000 -1.342909e+001 -5.372554e+000 -6.397013e+000 -1.867398e+000 -4.700583e+000 -1.119135e+000 -6.742771e+000 1.441422e+001 -3.526976e-002 -7.719459e-002 -9.527886e-002 -2.060706e-002 -1.092953e-001 -1.108396e-001 -1.427394e-001 -1.292035e-001 -1.013980e-001 -1.528786e-001 -1.071144e-001 -8.682068e-002 -2.443136e-002 7.361466e-006 -7.609244e-003 1.198732e-002 1.984299e-002 7.818785e-003 2.206902e-002 -1.829277e-002 -1.003386e-002 -1.484484e-002 -1.258793e-002 -1.898411e-002 8.110882e-004 -1.055238e-004
<VARIANCE> 39
 2.909389e+000 4.212677e+000 5.831348e+000 8.689441e+000 1.141518e+001 1.208519e+001 1.509259e+001 1.569862e+001 1.504545e+001 1.673068e+001 1.635074e+001 1.336938e+001 2.505486e+000 7.130206e-002 1.360731e-001 2.376938e-001 4.021392e-001 4.911818e-001 5.560659e-001 6.347160e-001 6.041525e-001 6.602671e-001 7.634948e-001 7.160479e-001 6.035614e-001 6.067314e-003 1.089400e-002 2.375844e-002 4.657381e-002 6.522223e-002 9.230737e-002 9.446382e-002 1.179376e-001 1.053296e-001 1.217853e-001 1.256413e-001 1.263609e-001 1.064245e-001 7.705529e-004
<GCONST> 4.562558e+001
~h "four"
<BEGINHMM>
<NUMSTATES> 10
<STATE> 2
<NUMMIXES> 3
<MIXTURE> 1 2.355875e-001
<MEAN> 39
 -1.401157e+001 -7.476775e+000 -4.022862e+000 -1.183570e+001 -3.760243e+000 -1.174293e+001 -3.675087e+000 -5.300375e+000 -1.508852e-001 -3.572875e+000 9.754716e-002 -4.576170e+000 1.305601e+001 2.451961e+000 7.351334e-001 -6.794384e-001 -8.653209e-002 7.908629e-001 7.232668e-001 1.332101e-001 8.402888e-002 3.405281e-001 6.001914e-001 5.205196e-001 7.076070e-002 6.746961e-001 8.890250e-001 4.342389e-001 -5.538953e-001 -4.649242e-001 1.599271e-001 2.981220e-001 -8.490173e-002 -1.369307e-001 -2.384327e-001 5.817055e-002 1.861042e-001 -6.069180e-002 2.577099e-001
<VARIANCE> 39
 6.191950e+000 7.773119e+000 8.068873e+000 3.016946e+001 1.217690e+001 1.933627e+001 1.518650e+001 1.444701e+001 1.876249e+001 1.708020e+001 1.519393e+001 1.068267e+001 2.531763e+000 1.818671e+000 4.416140e-001 1.021505e+000 1.020961e+000 4.978986e-001 6.483926e-001 8.097820e-001 8.974460e-001 7.746860e-001 6.118039e-001 6.808631e-001 6.816721e-001 1.366600e-001 1.009316e-001 1.125126e-001 1.299499e-001 1.672452e-001 1.380675e-001 1.805750e-001 1.651242e-001 1.557252e-001 1.647359e-001 1.656890e-001 1.342810e-001 1.228663e-001 7.429198e-003
<GCONST> 7.028799e+001
<MIXTURE> 2 4.797593e-001
<MEAN> 39
 -1.680500e+001 -6.975664e+000 -2.678633e+000 -9.169137e+000 -5.071781e+000 -9.352528e+000 -1.119149e+000 -5.808503e+000 -1.398152e+000 -5.309683e+000 4.603583e-001 -3.742795e+000 1.130683e+001 8.219497e-001 -2.483404e-001 -2.497213e-001 8.452373e-002 3.355035e-001 -2.234897e-001 -9.708157e-002 -8.657894e-002 -6.765760e-003 -1.858361e-001 -4.047722e-001 -2.839971e-001 4.812412e-001 7.392221e-001 1.348906e-001 -2.569748e-001 -9.278689e-003 1.840619e-001 9.542235e-003 -1.276820e-001 2.142747e-002 2.146567e-002 2.816917e-002 -1.748562e-001 -1.525353e-001 1.547185e-001
<VARIANCE> 39
 1.278075e+001 9.342654e+000 9.380831e+000 1.702291e+001 1.259422e+001 1.355002e+001 1.605606e+001 1.830610e+001 1.870952e+001 1.456524e+001 1.791170e+001 1.597311e+001 4.180394e+000 2.286410e+000 4.578426e-001 6.845031e-001 4.673086e-001 6.546305e-001 6.337324e-001 5.710966e-001 9.010915e-001 8.498875e-001 7.571623e-001 9.752007e-001 5.819010e-001 2.442734e-001 2.465907e-001 9.497903e-002 1.916128e-001 9.048534e-002 1.268981e-001 1.451412e-001 1.289545e-001 1.981979e-001 1.710104e-001 1.402646e-001 1.999735e-001 1.385954e-001 2.533503e-002
<GCONST> 7.353349e+001
<MIXTURE> 3 2.846532e-001
<MEAN> 39
 -1.322624e+001 -6.290464e+000 -4.565571e+000 -1.501731e+001 -4.288187e+000 -1.255875e+001 -4.245472e+000 -5.850386e+000 -1.461704e+000 -4.785612e+000 -5.892295e-001 -5.719852e+000 1.411423e+001 1.937710e+000 6.600404e-001 -6.135425e-001 -1.812249e-001 6.557611e-001 5.525575e-001 -2.898952e-001 -2.940449e-001 -8.405089e-002 1.112301e-001 4.859831e-003 -1.659697e-001 6.015159e-001 6.541321e-001 2.883372e-001 -4.324828e-001 -3.760628e-001 1.464619e-001 1.724407e-001 -1.492450e-001 -1.045495e-001 -1.042787e-001 9.515019e-002 1.288414e-002 -1.818117e-001 2.096532e-001
<VARIANCE> 39
 3.656272e+000 6.939231e+000 6.221646e+000 1.646913e+001 1.145046e+001 1.072519e+001 1.516404e+001 1.220621e+001 1.453759e+001 1.624215e+001 1.640611e+001 1.262533e+001 2.601212e+000 1.248665e+000 4.351888e-001 6.571536e-001 8.194602e-001 6.843579e-001 6.839138e-001 6.461561e-001 5.246750e-001 7.056599e-001 7.750729e-001 8.192835e-001 9.779849e-001 1.103695e-001 6.666788e-002 5.834353e-002 9.035403e-002 9.353573e-002 1.452313e-001 1.199469e-001 1.664750e-001 1.390540e-001 1.483881e-001 1.785829e-001 2.000679e-001 1.512832e-001 4.690351e-003
<GCONST> 6.459750e+001
<STATE> 3
<NUMMIXES> 3
<MIXTURE> 1 2.137089e-001
<MEAN> 39
 -7.893984e+000 -3.701673e+000 -3.324086e+000 -1.310994e+001 -6.503987e-001 -8.424094e+000 -2.996728e+000 -5.375186e+000 -6.404420e-001 -4.242240e+000 -9.755822e-001 -6.364402e+000 1.544978e+001 3.341408e+000 1.057612e+000 -1.851343e+000 -8.685917e-001 1.241294e+000 1.186898e+000 4.165956e-002 -1.588554e-001 4.958898e-002 9.416827e-001 7.872785e-001 1.037934e-001 1.008658e+000 8.274867e-002 4.559653e-002 -4.043913e-001 -2.983031e-001 2.163730e-002 5.105674e-002 7.515850e-002 2.615507e-002 -6.822391e-002 2.217695e-001 3.113866e-001 1.854802e-001 4.846718e-002
<VARIANCE> 39
 1.676283e+001 1.452407e+001 9.149728e+000 2.842621e+001 8.110116e+000 1.017808e+001 1.390537e+001 1.464981e+001 1.493460e+001 1.137808e+001 1.565872e+001 1.273426e+001 3.913013e+000 1.983461e+000 5.286242e-001 7.716774e-001 7.505071e-001 7.552127e-001 8.166390e-001 6.447794e-001 9.286374e-001 7.645345e-001 6.655893e-001 1.106190e+000 1.091924e+000 1.339413e-001 5.853856e-002 6.529362e-002 8.102451e-002 1.060085e-001 9.199377e-002 8.339404e-002 1.451904e-001 1.029560e-001 1.191440e-001 1.486303e-001 1.441361e-001 1.696877e-001 5.994223e-003
<GCONST> 6.800716e+001
<MIXTURE> 2 4.413017e-001
<MEAN> 39
 -1.751927e+000 -4.965492e+000 -6.990267e+000 -1.021878e+001 -1.635222e+000 -9.584752e+000 -3.198314e+000 -5.943490e+000 -2.196877e+000 -5.454069e+000 -2.013914e+000 -5.778347e+000 1.567245e+001 4.279525e+000 6.704654e-001 -2.769131e+000 -1.083022e+000 7.710684e-001 4.724559e-002 -7.209206e-001 -3.133091e-002 -1.966508e-001 2.780449e-002 -7.100806e-001 -9.271953e-001 1.310956e+000 -2.407591e-001 8.456980e-002 -2.995568e-001 -2.491984e-001 -1.158184e-001 8.126719e-002 -1.332739e-003 1.853937e-002 6.034696e-002 7.719117e-002 2.852403e-002 -6.350598e-002 -4.939900e-002
<VARIANCE> 39
 5.511996e+001 1.516396e+001 2.460173e+001 1.903348e+001 1.635544e+001 3.286871e+001 1.932801e+001 2.151616e+001 2.342345e+001 2.183040e+001 2.939504e+001 1.541174e+001 5.155360e+000 1.218776e+000 1.864793e+000 9.179387e-001 2.310285e+000 1.933039e+000 2.146763e+000 1.790656e+000 1.912461e+000 2.367086e+000 2.103140e+000 3.165506e+000 1.622031e+000 1.143193e-001 2.903439e-001 8.422678e-002 1.310485e-001 1.120859e-001 1.380982e-001 2.448658e-001 1.336627e-001 1.968323e-001 2.525442e-001 2.822540e-001 2.018044e-001 1.569693e-001 2.461007e-002
<GCONST> 9.141006e+001
<MIXTURE> 3 3.449897e-001
<MEAN> 39
 -6.791678e+000 -2.154895e+000 -3.861419e+000 -1.581604e+001 -7.921494e-001 -9.682142e+000 -3.286091e+000 -5.583880e+000 -9.673820e-001 -3.199028e+000 2.842640e-001 -4.888422e+000 1.650418e+001 2.592740e+000 1.202419e+000 -1.307002e+000 -1.375202e+000 3.097159e-001 7.717043e-001 -2.727475e-001 -7.727270e-001 -6.321895e-001 1.116765e-001 2.484277e-001 -4.116769e-001 8.385603e-001 1.263103e-002 1.329438e-002 -2.791680e-001 -3.137887e-001 -2.421558e-001 -8.592853e-002 -6.375555e-002 -1.217641e-001 -2.422886e-001 -1.334137e-001 -5.982034e-002 -7.182787e-002 2.911667e-002
<VARIANCE> 39
 1.454185e+001 7.795220e+000 9.549591e+000 2.674940e+001 1.087637e+001 1.249575e+001 1.330141e+001 1.626185e+001 1.578602e+001 1.358978e+001 1.417752e+001 1.723355e+001 3.127173e+000 1.093142e+000 4.909112e-001 8.071886e-001 6.520113e-001 1.012200e+000 5.631546e-001 8.085961e-001 8.555028e-001 8.413832e-001 1.197392e+000 1.003052e+000 1.123322e+000 9.025230e-002 5.721482e-002 4.011219e-002 7.037205e-002 1.199234e-001 8.351259e-002 9.849072e-002 1.197971e-001 1.113928e-001 1.481435e-001 1.537570e-001 1.192530e-001 1.366302e-001 5.965991e-003
<GCONST> 6.678352e+001
<STATE> 4
<NUMMIXES> 3
<MIXTURE> 1 2.771124e-001
<MEAN> 39
 3.819765e+000 -3.614682e+000 -1.558008e+001 -1.494828e+001 4.136720e+000 -7.589046e+000 -3.523963e+000 -6.041374e+000 1.560988e+000 1.998938e-001 -6.601864e-001 -6.848704e+000 1.859812e+001 1.181978e+000 5.738001e-001 -1.271402e+000 -6.708154e-001 6.225587e-001 1.018428e+000 4.454417e-001 -1.213506e-001 2.638440e-001 1.038880e+000 9.134127e-001 5.985205e-001 3.929419e-001 -6.441343e-001 -8.481051e-002 4.988074e-001 1.325537e-002 -4.091211e-001 -7.624918e-002 1.049564e-001 4.139026e-002 -2.553896e-001 -2.611945e-001 7.103141e-002 1.841859e-001 -1.929122e-001
<VARIANCE> 39
 2.795251e+001 9.675076e+000 1.757505e+001 2.525731e+001 1.264387e+001 1.182887e+001 1.588375e+001 2.170134e+001 1.620416e+001 2.079819e+001 3.512287e+001 3.227617e+001 1.753508e+000 1.569188e+000 4.251612e-001 1.178957e+000 5.895656e-001 9.633526e-001 8.104237e-001 7.059299e-001 9.282731e-001 1.061986e+000 6.392428e-001 9.514747e-001 1.150634e+000 1.526645e-001 1.675116e-001 8.225384e-002 1.028509e-001 1.194410e-001 7.436357e-002 1.191416e-001 1.088095e-001 1.570982e-001 1.284551e-001 1.248077e-001 1.773369e-001 1.865429e-001 1.112705e-002
<GCONST> 7.450358e+001
<MIXTURE> 2 4.568771e-001
<MEAN> 39
 3.798263e+000 7.217373e-001 -1.385550e+001 -2.117841e+001 -2.759964e+000 -7.631320e+000 -5.904914e+000 -9.020269e+000 -5.032041e+000 -4.292931e+000 2.335850e+000 -6.098588e+000 1.856875e+001 1.690070e+000 8.732221e-001 -1.487110e+000 -1.562998e+000 -4.451613e-001 1.865585e-001 -1.835540e-001 -3.589410e-001 -8.413283e-001 -4.570944e-001 6.293028e-002 -1.535371e-001 6.044407e-001 -8.129565e-001 -3.899380e-001 4.631262e-001 4.343233e-001 -8.265854e-002 -1.482279e-001 1.363128e-001 2.173367e-001 2.602033e-001 -9.366034e-003 -1.941775e-001 9.399647e-002 -2.404889e-001
<VARIANCE> 39
 2.549289e+001 1.014101e+001 2.044200e+001 1.393534e+001 2.371243e+001 2.564299e+001 2.309066e+001 1.881587e+001 2.225132e+001 2.867707e+001 3.902904e+001 2.269188e+001 1.157397e+000 1.676368e+000 6.927420e-001 1.193381e+000 9.750270e-001 1.163088e+000 1.080773e+000 1.267003e+000 7.686444e-001 1.111799e+000 1.421994e+000 1.552166e+000 1.236869e+000 1.473906e-001 1.229904e-001 1.211195e-001 1.276181e-001 1.314373e-001 1.338502e-001 1.519000e-001 1.930452e-001 1.367650e-001 1.661458e-001 2.383567e-001 2.054895e-001 1.630338e-001 7.320134e-003
<GCONST> 8.109190e+001
<MIXTURE> 3 2.660100e-001
<MEAN> 39
 1.675268e+000 -5.593509e+000 -1.555929e+001 -1.503452e+001 2.616788e+000 -1.093656e+001 -6.115053e+000 -4.140792e+000 3.948928e-001 -3.029188e+000 -6.309292e+000 -1.218457e+001 1.898057e+001 1.093881e+000 3.407214e-001 -1.321226e+000 -6.937950e-001 5.571837e-001 7.932060e-001 -8.082577e-002 -1.758761e-001 1.230320e-001 7.086353e-001 6.083798e-002 -5.625147e-001 4.348597e-001 -5.483854e-001 8.656877e-002 4.926088e-001 -5.481639e-002 -3.461762e-001 1.239389e-001 2.625774e-001 -1.596612e-001 -2.489287e-001 -1.165448e-001 3.964368e-001 4.079458e-001 -1.979065e-001
<VARIANCE> 39
 1.665173e+001 1.389945e+001 1.877007e+001 2.402491e+001 1.489207e+001 1.763475e+001 2.098770e+001 2.632450e+001 1.932089e+001 3.253193e+001 4.055963e+001 2.699176e+001 1.236956e+000 1.020133e+000 5.465285e-001 1.071611e+000 6.470171e-001 8.584328e-001 8.118368e-001 1.208421e+000 2.004737e+000 1.012318e+000 1.311861e+000 1.421317e+000 1.164865e+000 1.396918e-001 1.308569e-001 9.906930e-002 1.143758e-001 1.387831e-001 9.321021e-002 1.981357e-001 1.780123e-001 2.765877e-001 1.474797e-001 2.626852e-001 2.138944e-001 1.736493e-001 1.235279e-002
<GCONST> 8.073601e+001
<STATE> 5
<NUMMIXES> 3
<MIXTURE> 1 2.477623e-001
<MEAN> 39
 4.354088e+000 2.935091e-001 -1.588335e+001 -1.919280e+001 5.832154e-002 -6.204481e+000 -1.182140e+000 -7.395733e+000 -2.493421e+000 -1.426320e+000 1.991134e+000 -4.081066e+000 1.896218e+001 -1.406273e-002 6.962960e-002 5.858860e-002 -1.499056e-001 -5.271110e-002 1.961497e-001 1.893208e-001 1.002970e-001 -2.217522e-001 5.204831e-002 1.158389e-001 2.954494e-001 -3.267302e-002 -6.065290e-002 -2.017257e-001 5.308011e-002 1.244796e-001 1.592571e-001 -9.684607e-002 -1.781325e-001 7.291485e-002 1.475267e-001 4.240070e-002 -1.220851e-001 -1.310169e-001 -8.202543e-003
<VARIANCE> 39
 2.780631e+001 8.791715e+000 2.781016e+001 3.581228e+001 2.495008e+001 1.679581e+001 1.424252e+001 1.310137e+001 2.477990e+001 2.553132e+001 3.189068e+001 3.044327e+001 1.617215e+000 9.270507e-002 3.684008e-001 2.220669e-001 3.504641e-001 5.183656e-001 3.838503e-001 4.739991e-001 5.045231e-001 4.874693e-001 5.179286e-001 8.516302e-001 8.617142e-001 4.618033e-003 1.071645e-002 3.551868e-002 4.309098e-002 3.796806e-002 7.089763e-002 7.137398e-002 7.247314e-002 7.823452e-002 6.609955e-002 1.086662e-001 1.259408e-001 1.076907e-001 8.667370e-004
<GCONST> 5.208130e+001
<MIXTURE> 2 4.579389e-001
<MEAN> 39
 9.998859e-001 2.564457e-001 -1.249256e+001 -2.263386e+001 -2.540117e+000 -6.833001e+000 -4.392738e+000 -7.605556e+000 -4.656725e+000 -3.225265e+000 2.711997e+000 -5.280159e+000 1.895973e+001 -5.010998e-002 -7.894453e-001 -1.555340e-001 4.958848e-001 4.851483e-001 1.550605e-001 -7.160548e-001 1.140003e-001 9.155939e-001 5.083387e-001 -6.369831e-002 -5.225320e-001 3.979136e-002 -1.069903e-001 -3.102071e-001 1.137206e-001 4.075085e-001 7.209513e-002 -1.566370e-001 -1.605424e-001 1.445589e-001 4.004449e-001 -9.737709e-003 -2.947494e-001 -1.802405e-001 -3.580505e-002
<VARIANCE> 39
 2.687663e+001 1.020304e+001 2.292592e+001 1.577828e+001 2.328197e+001 2.207236e+001 2.153147e+001 1.797978e+001 2.512512e+001 2.887067e+001 3.516257e+001 2.998265e+001 1.355543e+000 1.701043e-001 6.444966e-001 5.784915e-001 6.360317e-001 9.321252e-001 8.479674e-001 1.164798e+000 1.076918e+000 1.307635e+000 1.379476e+000 1.178278e+000 1.202370e+000 1.204886e-002 4.154753e-002 4.866445e-002 1.011428e-001 8.638872e-002 1.221922e-001 1.536143e-001 1.641490e-001 1.866931e-001 1.831559e-001 2.897443e-001 2.150202e-001 1.940462e-001 3.980835e-003
<GCONST> 7.249108e+001
<MIXTURE> 3 2.942978e-001
<MEAN> 39
 1.594874e+000 1.326914e-001 -1.321746e+001 -2.130736e+001 -1.504761e+000 -7.694191e+000 -2.698806e+000 -7.734910e+000 -3.364789e+000 -4.170223e+000 -7.669118e-001 -7.198106e+000 1.887895e+001 -5.326638e-002 1.045998e-001 1.505851e-001 -1.616140e-001 -1.795771e-001 1.156977e-001 9.596764e-002 1.975982e-002 -2.098325e-001 -1.352084e-001 -3.068394e-002 4.229286e-002 -2.890517e-002 -6.449325e-002 -1.674733e-001 3.199705e-002 1.424359e-001 1.179194e-001 -3.649088e-002 -1.460656e-001 4.922738e-002 1.057364e-001 5.456623e-002 1.179296e-003 -7.228483e-002 -1.228949e-002
<VARIANCE> 39
 2.685214e+001 1.119870e+001 2.645184e+001 2.441864e+001 3.623627e+001 1.771917e+001 2.030740e+001 1.374971e+001 2.051162e+001 2.501344e+001 3.156525e+001 3.282430e+001 1.223734e+000 8.812487e-002 3.152696e-001 3.453000e-001 5.192145e-001 6.325552e-001 4.416644e-001 4.332255e-001 4.771087e-001 6.450707e-001 6.777726e-001 6.969270e-001 6.512042e-001 4.842805e-003 1.222309e-002 3.296741e-002 5.245674e-002 5.439753e-002 7.617707e-002 8.341458e-002 7.802600e-002 8.678429e-002 8.245304e-002 1.299771e-001 1.466066e-001 9.273611e-002 1.180733e-003
<GCONST> 5.492978e+001
<STATE> 6
<NUMMIXES> 3
<MIXTURE> 1 2.764657e-001
<MEAN> 39
 2.978231e+000 -6.634546e+000 -1.411396e+001 -1.397758e+001 6.183409e+000 -7.420325e+000 -5.880655e+000 -1.379025e+000 1.955682e+000 -3.027771e-001 -2.225940e+000 -5.978637e+000 1.840538e+001 -3.005245e-001 -1.621850e+000 9.395059e-001 1.164927e+000 -2.616006e-001 -3.564635e-001 -5.247057e-001 1.820256e+000 5.182658e-001 -1.641993e+000 -7.153684e-001 1.154481e-002 -2.830864e-002 -1.686718e-002 -4.568407e-002 3.087727e-001 7.645392e-002 -5.599195e-001 1.275186e-001 3.981400e-001 -9.014233e-002 -2.815957e-001 -3.459686e-001 2.696276e-001 2.580334e-001 -1.735192e-002
<VARIANCE> 39
 2.476335e+001 1.270232e+001 1.226376e+001 2.079980e+001 1.051260e+001 1.647391e+001 2.165000e+001 2.348648e+001 2.307076e+001 2.080462e+001 2.360321e+001 2.456198e+001 2.004993e+000 8.800086e-002 5.365779e-001 8.061550e-001 6.017163e-001 1.144614e+000 1.192051e+000 1.601153e+000 1.046386e+000 2.019240e+000 1.207565e+000 1.344598e+000 1.179479e+000 7.158955e-003 1.405542e-002 4.387101e-002 5.885470e-002 6.511785e-002 1.305627e-001 1.319949e-001 1.931452e-001 2.215237e-001 2.332724e-001 1.871001e-001 2.161642e-001 1.963976e-001 6.847305e-004
<GCONST> 6.730581e+001
<MIXTURE> 2 3.817935e-001
<MEAN> 39
 4.573581e+000 -6.839079e+000 -1.492437e+001 -1.522739e+001 -4.717521e+000 -4.623137e+000 -9.256563e+000 -9.299939e+000 4.077122e+000 -1.129321e+000 -8.579594e-001 -9.481731e+000 1.908922e+001 -3.564207e-001 -1.849688e+000 7.385374e-001 2.242023e+000 -4.636640e-001 -9.909731e-001 7.757634e-002 6.405325e-001 1.404262e+000 1.983368e-001 -1.624456e+000 -4.570909e-001 -5.837496e-002 -9.513310e-002 1.125473e-001 3.221076e-001 1.166244e-001 -2.688422e-001 -4.110701e-001 5.112824e-001 3.617771e-001 -5.195096e-001 -4.197245e-001 6.386808e-003 3.423210e-001 -4.796609e-002
<VARIANCE> 39
 2.711154e+001 2.260977e+001 1.769223e+001 4.342648e+001 5.397385e+001 4.006176e+001 3.604866e+001 4.574292e+001 4.355756e+001 4.118948e+001 4.817878e+001 3.365232e+001 1.609805e+000 2.280829e-001 8.155336e-001 8.805563e-001 1.659976e+000 1.982483e+000 1.761229e+000 1.814230e+000 2.343977e+000 3.170622e+000 4.010265e+000 1.851894e+000 1.924470e+000 2.010861e-002 3.448330e-002 1.296446e-001 9.220869e-002 2.347761e-001 1.909824e-001 2.344906e-001 3.234456e-001 3.372155e-001 3.690335e-001 3.630581e-001 3.661967e-001 2.988995e-001 1.864377e-003
<GCONST> 9.141665e+001
<MIXTURE> 3 3.417401e-001
<MEAN> 39
 -1.704294e-001 -6.033146e+000 -1.342325e+001 -1.689814e+001 3.371134e+000 -9.422542e+000 -8.548134e+000 -5.052668e+000 2.053407e+000 -1.933773e+000 -4.099705e+000 -1.225603e+001 1.894590e+001 -2.591619e-001 -1.397700e+000 6.075243e-001 1.424508e+000 -1.393250e-001 -8.667613e-001 -3.782380e-001 1.402384e+000 7.570900e-001 -1.349863e+000 -9.456476e-001 3.676943e-002 -3.570788e-002 -5.235061e-002 2.870647e-002 3.002983e-001 4.841144e-002 -5.296455e-001 -8.998879e-003 4.439132e-001 8.142440e-002 -4.125219e-001 -4.440233e-001 1.530641e-001 4.152168e-001 -2.283643e-002
<VARIANCE> 39
 1.612641e+001 9.807195e+000 1.281798e+001 1.516866e+001 1.529846e+001 2.234111e+001 1.564200e+001 2.051847e+001 2.588261e+001 2.932977e+001 4.145246e+001 2.009754e+001 1.281091e+000 9.791492e-002 6.170521e-001 6.828973e-001 4.808298e-001 9.340895e-001 1.011836e+000 1.540090e+000 1.066743e+000 2.182436e+000 1.233076e+000 1.149649e+000 1.467219e+000 7.119967e-003 1.307703e-002 5.079496e-002 5.880865e-002 6.657404e-002 1.240752e-001 1.306096e-001 1.559200e-001 1.700438e-001 2.376190e-001 2.129537e-001 2.210554e-001 1.633167e-001 7.241595e-004
<GCONST> 6.616125e+001
<STATE> 7
<NUMMIXES> 3
<MIXTURE> 1 4.693034e-001
<MEAN> 39
 3.710438e+000 -1.531794e+001 -8.649602e+000 -7.036352e+000 -6.640437e+000 -8.034167e+000 -5.366086e+000 8.687819e-001 3.466969e+000 -9.453635e+000 -4.467582e+000 -5.266031e+000 1.873155e+001 -3.419439e-001 -8.223078e-001 1.679417e+000 1.073813e+000 -2.199048e+000 -2.553860e-002 1.729815e+000 -5.200352e-002 -1.070756e+000 -8.068020e-001 3.071843e-001 7.214788e-001 -1.349134e-001 -6.428976e-002 5.648747e-001 3.257912e-002 -4.091420e-001 1.287386e-001 2.431788e-001 1.504733e-001 -5.442355e-001 -3.709372e-001 5.395966e-001 2.666428e-001 -1.787331e-001 -4.575847e-002
<VARIANCE> 39
 2.023155e+001 2.149793e+001 1.693678e+001 2.850717e+001 5.932011e+001 4.993164e+001 4.203022e+001 5.085943e+001 5.270341e+001 3.956136e+001 3.090394e+001 3.576667e+001 1.977970e+000 3.925594e-001 8.381010e-001 9.814475e-001 1.296454e+000 1.655034e+000 2.463438e+000 2.215029e+000 2.073893e+000 1.941643e+000 2.213110e+000 1.840917e+000 1.231968e+000 1.328631e-002 3.006372e-002 9.214309e-002 9.835013e-002 1.700820e-001 2.806950e-001 3.009852e-001 3.120846e-001 3.965139e-001 4.927208e-001 3.574386e-001 2.957515e-001 2.094025e-001 1.948277e-003
<GCONST> 8.964130e+001
<MIXTURE> 2 3.479607e-001
<MEAN> 39
 -2.887516e+000 -9.354995e+000 -8.625067e+000 -1.095369e+001 -7.104503e-001 -1.394974e+001 -1.596701e+000 1.111752e+000 2.128894e-001 -7.422955e+000 -3.274760e+000 -5.791955e+000 1.830212e+001 -5.043134e-001 -1.917441e-001 1.185900e+000 7.816298e-001 -9.417909e-001 -2.951074e-001 1.320545e+000 4.571445e-001 -1.140710e+000 -7.027822e-001 7.346829e-001 6.723297e-001 -1.998038e-001 -7.587931e-002 2.971267e-001 1.188153e-001 -3.112081e-001 1.810890e-004 3.948372e-001 -3.713536e-002 -4.897792e-001 -7.201163e-002 3.794105e-001 2.156984e-001 -1.465834e-001 -3.389593e-002
<VARIANCE> 39
 1.014567e+001 1.203623e+001 9.258664e+000 1.364006e+001 3.007447e+001 3.187070e+001 2.298935e+001 1.425746e+001 2.204341e+001 2.570038e+001 2.289974e+001 1.976875e+001 1.652439e+000 1.433370e-001 4.880903e-001 3.390795e-001 6.219625e-001 6.536288e-001 1.195313e+000 6.915490e-001 1.368749e+000 8.013116e-001 1.395670e+000 7.128379e-001 1.056862e+000 2.313070e-002 1.303632e-002 3.921953e-002 5.687030e-002 7.865202e-002 1.298206e-001 1.391502e-001 1.806358e-001 1.286764e-001 1.732184e-001 2.168359e-001 1.939581e-001 1.632911e-001 1.431518e-003
<GCONST> 6.443256e+001
<MIXTURE> 3 1.827354e-001
<MEAN> 39
 -2.681571e+000 -9.080938e+000 -9.312193e+000 -1.206126e+001 -1.457238e+000 -1.264870e+001 -3.829849e+000 -3.421758e+000 -3.334376e+000 -9.997737e+000 -7.336072e+000 -1.128161e+001 1.840338e+001 -4.450059e-001 -3.976467e-002 1.166656e+000 3.116366e-001 -9.605198e-001 -4.536720e-001 5.926768e-001 -2.748979e-002 -1.032423e+000 -6.436552e-001 1.852559e-001 3.652231e-002 -1.526549e-001 -5.269158e-002 2.650673e-001 8.701657e-002 -1.785588e-001 3.356464e-002 1.367575e-001 -5.381584e-002 -2.612909e-001 -8.294213e-003 2.436183e-001 1.794499e-001 -4.476212e-002 -3.225707e-002
<VARIANCE> 39
 1.172227e+001 2.252705e+001 1.433749e+001 1.856579e+001 2.090161e+001 2.019402e+001 2.180825e+001 1.790927e+001 4.974949e+001 3.261842e+001 2.705481e+001 2.847851e+001 1.225589e+000 1.795675e-001 7.832513e-001 6.367515e-001 6.565287e-001 8.773112e-001 1.029055e+000 1.234559e+000 1.445756e+000 1.659895e+000 1.641075e+000 1.045875e+000 1.558871e+000 1.855153e-002 2.297661e-002 6.564360e-002 8.322711e-002 8.033581e-002 1.645803e-001 1.502464e-001 1.990728e-001 1.271155e-001 2.638191e-001 2.235798e-001 2.108335e-001 2.199197e-001 1.993636e-003
<GCONST> 7.323933e+001
<STATE> 8
<NUMMIXES> 3
<MIXTURE> 1 2.673654e-001
<MEAN> 39
 2.608746e+000 -1.384159e+001 -2.818769e+000 -4.235722e+000 -1.182727e+001 -7.412511e+000 2.595611e+000 -3.704704e+000 -1.650628e+000 -5.817344e+000 -6.266743e-002 -3.558452e+000 1.756579e+001 -6.961965e-001 1.249717e+000 1.777628e+000 -5.397242e-003 1.580509e-001 6.443081e-001 7.614627e-001 -9.531586e-001 -7.809941e-001 5.176333e-001 4.818389e-001 -1.486914e-001 -4.013882e-001 -2.373383e-001 4.183805e-001 -4.941292e-002 -2.326852e-001 6.293741e-001 1.372458e-001 -3.893837e-001 -3.558363e-002 2.138593e-001 1.788874e-001 -1.516189e-001 -1.409782e-001 -9.192485e-002
<VARIANCE> 39
 2.784657e+001 2.623666e+001 2.462412e+001 4.208174e+001 7.320495e+001 8.819620e+001 4.328751e+001 3.804996e+001 2.987352e+001 3.400795e+001 3.241772e+001 1.963324e+001 2.743706e+000 5.270970e-001 8.715607e-001 6.614755e-001 1.519080e+000 1.753394e+000 2.457165e+000 1.647258e+000 1.786951e+000 2.578352e+000 1.715332e+000 1.418056e+000 9.984410e-001 4.420243e-002 9.646466e-002 1.702851e-001 1.222872e-001 2.008862e-001 2.808395e-001 3.769998e-001 2.917261e-001 2.182966e-001 2.422747e-001 2.544204e-001 1.933016e-001 1.524246e-001 6.557229e-003
<GCONST> 9.211268e+001
<MIXTURE> 2 3.899755e-001
<MEAN> 39
 -1.023814e+000 -5.656441e+000 1.361117e+000 -7.158366e+000 -8.478237e+000 -6.901159e+000 -3.109407e+000 -8.974027e+000 -3.596154e+000 -7.181310e+000 -5.584852e+000 -9.803237e+000 1.629581e+001 -1.802998e+000 1.792565e+000 8.816124e-001 1.549351e-001 1.268735e+000 -1.215729e-001 5.724686e-002 -3.553287e-001 -2.155641e-001 5.010425e-001 2.322302e-001 5.151261e-001 -7.426524e-001 -3.081217e-001 -2.399350e-001 -4.586118e-001 -1.324423e-001 1.271198e-001 -1.597285e-002 -1.366500e-002 3.174535e-001 1.188642e-001 8.177603e-002 2.813103e-001 2.646081e-001 -1.013386e-001
<VARIANCE> 39
 2.984596e+001 5.521307e+001 5.008200e+001 8.037653e+001 6.523335e+001 6.767149e+001 5.161423e+001 4.264206e+001 5.517599e+001 6.640994e+001 4.761921e+001 3.587363e+001 3.834965e+000 1.649283e+000 2.563271e+000 1.985379e+000 2.360726e+000 2.122201e+000 1.928735e+000 2.646402e+000 2.673567e+000 2.199569e+000 2.563934e+000 2.310460e+000 2.068568e+000 2.184077e-001 1.846554e-001 4.360990e-001 2.903845e-001 4.462251e-001 3.735335e-001 3.467884e-001 3.285013e-001 3.837425e-001 4.473296e-001 4.648285e-001 3.456544e-001 2.592786e-001 1.914313e-002
<GCONST> 1.119770e+002
<MIXTURE> 3 3.426584e-001
<MEAN> 39
 -2.653432e+000 -1.113813e+001 -2.246957e+000 -1.044070e+001 -8.775160e+000 -8.034624e+000 2.252526e+000 -1.955348e+000 -5.325758e+000 -6.779908e+000 -5.104688e-001 -6.123554e+000 1.766061e+001 -8.941330e-001 1.057014e+000 1.377324e+000 -7.531652e-001 -3.003155e-001 1.019982e+000 1.284827e-001 -1.485233e+000 -6.543185e-001 8.878212e-001 2.409634e-002 -5.125990e-001 -3.262771e-001 -6.487880e-002 3.424877e-001 -2.693924e-001 -1.829115e-001 5.985131e-001 -8.187411e-002 -6.222911e-001 -1.281027e-001 4.227524e-001 7.289998e-002 -2.541507e-001 -1.251485e-001 -4.604568e-002
<VARIANCE> 39
 1.618810e+001 3.496894e+001 1.194847e+001 2.133138e+001 4.469623e+001 6.544104e+001 2.464170e+001 2.772023e+001 2.714181e+001 2.989008e+001 2.779413e+001 2.924025e+001 1.901493e+000 3.796041e-001 8.439404e-001 7.270944e-001 1.124784e+000 1.930847e+000 1.934859e+000 1.759599e+000 1.320554e+000 1.941776e+000 1.899573e+000 1.736335e+000 1.499327e+000 5.177988e-002 5.595104e-002 1.551911e-001 7.804788e-002 1.510207e-001 2.567098e-001 2.597434e-001 1.924527e-001 2.478118e-001 2.415341e-001 3.091418e-001 1.854708e-001 1.906470e-001 4.805458e-003
<GCONST> 8.601608e+001
<STATE> 9
<NUMMIXES> 3
<MIXTURE> 1 5.448134e-001
<MEAN> 39
 -6.992614e+000 -4.939597e+000 -1.436038e-001 -9.803137e+000 -3.991848e+000 -6.781440e+000 -8.174087e-001 -7.319510e+000 -3.837098e+000 -3.809750e+000 -1.238688e-001 -5.841016e+000 1.397351e+001 -4.822657e-001 8.663945e-001 1.051171e-001 -3.324642e-001 3.951674e-001 -7.371418e-002 -5.562057e-001 -1.231660e-001 4.038707e-001 2.461791e-001 -9.602536e-002 -8.965488e-002 -3.205554e-001 5.102253e-002 -1.379754e-001 -1.840876e-001 5.134726e-002 8.302034e-003 -8.045242e-002 -1.726341e-002 1.986580e-001 5.810155e-002 -1.062960e-001 -4.059783e-002 3.756443e-002 2.914956e-002
<VARIANCE> 39
 1.587584e+001 3.511771e+001 1.603914e+001 4.354847e+001 2.645858e+001 4.913693e+001 2.601829e+001 3.157719e+001 2.939073e+001 2.499000e+001 2.772288e+001 2.599345e+001 1.346884e+001 4.495955e-001 1.086845e+000 8.400058e-001 1.048601e+000 1.090253e+000 1.504836e+000 1.196455e+000 1.405771e+000 1.217996e+000 1.229439e+000 1.101178e+000 1.052948e+000 2.706031e-002 4.870024e-002 1.156022e-001 1.256272e-001 1.547348e-001 1.328202e-001 2.212448e-001 1.659579e-001 1.859882e-001 1.731892e-001 2.074362e-001 1.743467e-001 1.856566e-001 4.801935e-003
<GCONST> 8.310366e+001
<MIXTURE> 2 2.293342e-001
<MEAN> 39
 -1.237982e+001 -2.405779e+000 -2.193541e-001 -8.905952e+000 -3.103948e+000 -6.597642e+000 -1.913782e+000 -5.095809e+000 -1.190361e+000 -3.449736e+000 1.129489e-001 -4.830612e+000 1.296273e+001 -1.758233e+000 -8.782120e-002 -8.619063e-001 -5.931258e-001 4.209345e-001 -9.903521e-002 -1.669860e-001 3.315279e-001 9.613576e-002 5.505731e-001 6.640117e-001 5.808366e-001 -6.287232e-001 4.513523e-001 -3.958704e-001 -2.515019e-001 -7.878086e-002 -3.936408e-001 -1.600591e-001 -5.952181e-002 -8.603244e-002 -2.778447e-002 -1.431781e-001 -1.929312e-001 -1.641309e-001 1.706708e-001
<VARIANCE> 39
 2.437336e+001 3.685794e+001 2.314113e+001 4.227782e+001 2.466885e+001 3.941124e+001 2.886197e+001 2.564537e+001 2.430079e+001 3.020329e+001 1.706486e+001 2.352387e+001 5.938386e+000 1.554233e+000 1.687256e+000 1.466863e+000 1.788254e+000 2.011628e+000 1.510538e+000 1.399805e+000 1.222064e+000 1.503232e+000 1.549141e+000 1.489411e+000 1.201498e+000 1.704061e-001 1.593624e-001 3.278498e-001 2.665462e-001 3.232276e-001 2.230756e-001 2.433746e-001 2.263075e-001 1.737710e-001 1.966359e-001 2.379306e-001 1.865680e-001 1.826310e-001 2.349778e-002
<GCONST> 9.471456e+001
<MIXTURE> 3 2.258514e-001
<MEAN> 39
 -1.012924e+001 -5.726384e+000 1.167681e+000 -6.426894e+000 -1.670497e+000 -5.153395e+000 3.451487e-001 -6.359458e+000 -1.795197e+000 -2.523079e+000 -5.569134e-001 -5.252177e+000 1.278243e+001 -1.420318e+000 -4.560358e-001 -1.170366e+000 -1.312686e+000 -4.653035e-001 -6.408530e-001 -7.173058e-001 -3.660254e-001 -2.049658e-001 2.096101e-002 1.459804e-001 2.245229e-002 -5.314583e-001 3.664013e-001 -1.101784e-001 -2.577067e-001 -2.210837e-001 -3.532282e-001 -2.982098e-001 -1.180372e-001 -2.052411e-002 -6.581206e-002 -1.927857e-001 -5.944637e-002 -2.310549e-002 1.221048e-001
<VARIANCE> 39
 1.665621e+001 3.403092e+001 2.820392e+001 6.549304e+001 3.449909e+001 4.652691e+001 3.178996e+001 4.111337e+001 2.751017e+001 2.450027e+001 2.514374e+001 2.139674e+001 5.147159e+000 6.719890e-001 8.380496e-001 1.264131e+000 1.104498e+000 1.355440e+000 1.365384e+000 7.691612e-001 1.269014e+000 1.032013e+000 1.030959e+000 1.435505e+000 8.329205e-001 1.077437e-001 1.064563e-001 2.460601e-001 2.613020e-001 2.492138e-001 2.513304e-001 2.057407e-001 1.487533e-001 1.998937e-001 1.944322e-001 1.537467e-001 2.092050e-001 1.728738e-001 8.531906e-003
<GCONST> 8.845329e+001
<TRANSP> 10
 0.000000e+000 1.000000e+000 0.000000e+000 0.000000e+000 0.000000e+000 0.000000e+000 0.000000e+000 0.000000e+000 0.000000e+000 0.000000e+000
 0.000000e+000 7.125045e-001 2.874954e-001 0.000000e+000 0.000000e+000 0.000000e+000 0.000000e+000 0.000000e+000 0.000000e+000 0.000000e+000
 0.000000e+000 0.000000e+000 4.703280e-001 5.296720e-001 0.000000e+000 0.000000e+000 0.000000e+000 0.000000e+000 0.000000e+000 0.000000e+000
 0.000000e+000 0.000000e+000 0.000000e+000 7.173095e-001 2.826905e-001 0.000000e+000 0.000000e+000 0.000000e+000 0.000000e+000 0.000000e+000
 0.000000e+000 0.000000e+000 0.000000e+000 0.000000e+000 8.507316e-001 1.492684e-001 0.000000e+000 0.000000e+000 0.000000e+000 0.000000e+000
 0.000000e+000 0.000000e+000 0.000000e+000 0.000000e+000 0.000000e+000 7.394267e-001 2.605733e-001 0.000000e+000 0.000000e+000 0.000000e+000
 0.000000e+000 0.000000e+000 0.000000e+000 0.000000e+000 0.000000e+000 0.000000e+000 7.426351e-001 2.573649e-001 0.000000e+000 0.000000e+000
 0.000000e+000 0.000000e+000 0.000000e+000 0.000000e+000 0.000000e+000 0.000000e+000 0.000000e+000 7.534689e-001 2.465310e-001 0.000000e+000
 0.000000e+000 0.000000e+000 0.000000e+000 0.000000e+000 0.000000e+000 0.000000e+000 0.000000e+000 0.000000e+000 7.843418e-001 2.156582e-001
 0.000000e+000 0.000000e+000 0.000000e+000 0.000000e+000 0.000000e+000 0.000000e+000 0.000000e+000 0.000000e+000 0.000000e+000 0.000000e+000
<ENDHMM>
~h "seven"
<BEGINHMM>
<NUMSTATES> 10
<STATE> 2
<NUMMIXES> 3
<MIXTURE> 1 2.352722e-001
<MEAN> 39
 -1.566924e+001 -4.365691e+000 -6.915748e+000 -1.335616e+001 -5.742277e+000 -9.076938e+000 -4.780715e+000 -4.571505e+000 -6.506479e-001 -3.028976e+000 -1.430256e+000 -4.671237e+000 1.369327e+001 1.109382e+000 5.406063e-001 8.852442e-001 -1.021751e-001 7.359910e-002 1.203622e-002 1.038604e+000 2.919925e-001 3.636681e-001 3.818021e-001 -6.003163e-002 1.106601e-001 4.010291e-001 6.091477e-001 1.252854e-001 2.954725e-001 -1.633650e-001 -2.899982e-001 -1.919396e-002 4.340420e-001 3.532221e-003 -1.022438e-001 1.428319e-001 -1.056427e-001 -1.670517e-001 2.527582e-001
<VARIANCE> 39
 7.887422e+000 8.997031e+000 1.236623e+001 2.081381e+001 1.680046e+001 2.721247e+001 2.171252e+001 1.518866e+001 1.725752e+001 2.090850e+001 1.700738e+001 1.886799e+001 2.970856e+000 3.760201e-001 4.003734e-001 4.169995e-001 4.973756e-001 5.535519e-001 6.169402e-001 8.096284e-001 9.085929e-001 8.806164e-001 1.226737e+000 7.938281e-001 5.608701e-001 5.216571e-002 6.068609e-002 7.547366e-002 9.995341e-002 1.094779e-001 1.274957e-001 1.885761e-001 1.762903e-001 1.956839e-001 2.183642e-001 2.496275e-001 1.627097e-001 1.646332e-001 6.026965e-003
<GCONST> 6.899200e+001
<MIXTURE> 2 4.857534e-001
<MEAN> 39
 -1.905776e+001 -5.384196e+000 -8.299896e+000 -8.009286e+000 -6.994931e+000 -5.129560e+000 -3.838555e+000 -4.171354e+000 6.277325e-001 -3.482965e+000 -2.587691e-001 -4.153833e+000 1.173871e+001 7.668559e-003 -2.031672e-001 -1.699543e-001 6.366042e-002 4.564118e-002 1.013019e-001 5.815382e-002 -1.840471e-001 5.140823e-003 1.950706e-002 2.884948e-002 1.235479e-001 6.769807e-002 3.118313e-001 1.742685e-001 2.550478e-001 -8.417732e-002 5.105503e-002 -8.444176e-002 4.841314e-002 -8.497094e-002 -2.647166e-002 -5.134625e-002 -5.337178e-002 -1.379656e-002 5.213897e-002
<VARIANCE> 39
 6.403856e+000 2.448033e+001 1.181423e+001 2.006783e+001 1.626616e+001 2.090329e+001 1.806322e+001 1.927579e+001 2.109747e+001 2.762242e+001 2.143216e+001 1.580916e+001 2.398894e+000 2.180862e-001 3.626927e-001 4.203803e-001 4.621056e-001 6.018032e-001 5.851793e-001 5.576384e-001 5.589945e-001 7.468203e-001 8.171046e-001 7.386008e-001 6.631452e-001 3.048100e-002 7.698915e-002 9.194248e-002 8.205409e-002 9.062846e-002 1.143807e-001 1.226545e-001 1.111653e-001 9.675927e-002 1.359169e-001 1.459424e-001 1.428117e-001 1.070072e-001 1.297432e-002
<GCONST> 6.477007e+001
<MIXTURE> 3 2.789738e-001
<MEAN> 39
 -1.460050e+001 -5.556642e+000 -5.671390e+000 -1.485873e+001 -4.281420e+000 -1.134432e+001 -5.946831e+000 -5.568664e+000 -8.776680e-001 -5.091427e+000 2.115349e-002 -5.222002e+000 1.361272e+001 9.720535e-001 5.469615e-001 3.718798e-001 -1.670174e-001 -2.498909e-001 2.087379e-001 6.331279e-001 -2.840633e-001 6.850233e-002 -3.889919e-001 -3.183910e-001 -1.622963e-001 4.405082e-001 5.112423e-001 1.413182e-001 9.301241e-002 -2.579709e-001 -1.808194e-001 2.632097e-001 3.946158e-001 -1.798805e-001 4.450804e-002 -2.517686e-001 -3.485087e-001 -2.694089e-001 2.302745e-001
<VARIANCE> 39
 6.378918e+000 6.742365e+000 7.383820e+000 2.388400e+001 1.344371e+001 1.452282e+001 1.561264e+001 1.638017e+001 1.774157e+001 1.892752e+001 2.330995e+001 1.621049e+001 3.792555e+000 4.044347e-001 3.079021e-001 3.577225e-001 4.419460e-001 6.640031e-001 5.662405e-001 9.149912e-001 7.616811e-001 7.470282e-001 1.117493e+000 8.639415e-001 5.430523e-001 6.038330e-002 5.856739e-002 5.903803e-002 6.809700e-002 1.265893e-001 1.183123e-001 1.321188e-001 1.414820e-001 1.590548e-001 1.432159e-001 2.563538e-001 2.042875e-001 1.515674e-001 8.531287e-003
<GCONST> 6.558521e+001
<STATE> 3
<NUMMIXES> 3
<MIXTURE> 1 4.375369e-001
<MEAN> 39
 -1.581759e+001 -3.423726e+000 -6.337517e+000 -1.071102e+001 -5.840284e+000 -6.384266e+000 -3.244434e+000 -6.027560e+000 3.034713e-001 -4.324273e+000 -2.402825e+000 -4.466322e+000 1.284807e+001 2.598790e+000 5.060251e-001 1.098507e+000 -1.233584e+000 -5.789508e-001 -2.646844e-001 1.244440e+000 -2.791192e-001 4.190369e-002 -3.438583e-002 -4.877877e-001 -3.306521e-001 9.841259e-001 3.775369e-001 -2.286008e-001 2.664432e-002 -3.620410e-001 -1.657063e-001 1.741087e-002 3.400732e-001 -5.145390e-004 -1.148201e-001 -3.411841e-002 -4.867337e-002 -1.381073e-001 2.469827e-001
<VARIANCE> 39
 1.158619e+001 1.236349e+001 1.407768e+001 2.956348e+001 2.088911e+001 2.954015e+001 2.063296e+001 1.830514e+001 1.958867e+001 5.080824e+001 2.292508e+001 2.130860e+001 2.354424e+000 5.860417e-001 9.652400e-001 7.025489e-001 9.826941e-001 6.441395e-001 1.751081e+000 1.131188e+000 1.385822e+000 1.676479e+000 2.201327e+000 8.807213e-001 8.469306e-001 9.146446e-002 1.391539e-001 7.483634e-002 9.850700e-002 1.534383e-001 1.599778e-001 2.440079e-001 1.404494e-001 1.809337e-001 2.170945e-001 2.280217e-001 1.550681e-001 2.178226e-001 1.285305e-002
<GCONST> 8.081271e+001
<MIXTURE> 2 3.588835e-001
<MEAN> 39
 -9.224399e+000 -1.017260e+000 -1.227052e+000 -1.339977e+001 -4.806621e+000 -9.440187e+000 -7.605708e-001 -3.805591e+000 -4.872552e-001 -2.027081e+000 -1.035126e+000 -5.265268e+000 1.622706e+001 1.919152e+000 4.948549e-002 5.883457e-001 -8.883021e-001 -1.048495e+000 4.090563e-001 2.079329e+000 4.913099e-002 -1.916380e-001 1.871415e-001 -6.953140e-001 -7.900116e-001 9.852956e-001 -1.706715e-001 -3.350401e-001 -3.776262e-001 -1.415447e-001 -6.737145e-002 3.255304e-001 1.440545e-001 -6.360627e-002 -2.050983e-001 -2.590908e-001 -1.617879e-001 -1.336004e-001 4.157145e-002
<VARIANCE> 39
 1.148117e+001 8.100703e+000 9.142157e+000 1.842565e+001 1.837519e+001 1.630482e+001 1.650297e+001 1.959500e+001 1.608163e+001 3.342869e+001 1.374049e+001 1.181417e+001 3.117950e+000 6.930613e-001 5.651105e-001 6.416129e-001 1.461506e+000 7.799583e-001 1.821018e+000 1.241459e+000 1.915052e+000 1.711380e+000 2.593199e+000 1.109106e+000 1.045889e+000 1.232314e-001 6.593395e-002 5.219925e-002 6.163938e-002 6.722964e-002 1.536243e-001 1.193668e-001 1.246050e-001 1.309125e-001 1.587171e-001 1.614812e-001 1.566848e-001 1.324710e-001 6.321839e-003
<GCONST> 7.321669e+001
<MIXTURE> 3 2.035789e-001
<MEAN> 39
 -1.122196e+001 -2.654348e+000 -3.589410e+000 -1.263488e+001 -5.041823e+000 -9.424894e+000 -2.540361e+000 -4.494244e+000 -7.092179e-001 -3.421813e+000 9.635983e-001 -5.564434e+000 1.443412e+001 2.284246e+000 2.418967e-001 3.008561e-001 -1.355002e+000 -1.335549e+000 1.544195e-001 1.099432e+000 -8.566211e-001 -2.148378e-001 -1.067931e+000 -1.540815e+000 -1.380684e+000 1.145016e+000 -5.884979e-002 -3.676472e-001 -2.757862e-001 -2.082889e-001 -2.724883e-002 3.214619e-001 1.024529e-001 -2.207301e-001 -6.854738e-002 -4.637584e-001 -4.168901e-001 -3.718373e-001 1.068335e-001
<VARIANCE> 39
 2.295847e+001 1.231916e+001 1.229342e+001 1.908703e+001 2.460644e+001 1.383481e+001 2.632115e+001 1.833098e+001 2.452833e+001 4.441510e+001 1.965523e+001 1.527447e+001 5.682400e+000 6.320735e-001 5.198795e-001 5.631111e-001 1.015292e+000 5.925106e-001 1.912349e+000 1.104577e+000 1.882960e+000 1.651414e+000 2.721484e+000 1.271953e+000 7.949442e-001 1.287257e-001 1.375579e-001 5.834585e-002 8.126688e-002 1.025954e-001 1.324117e-001 1.039862e-001 1.505942e-001 1.221242e-001 2.652096e-001 1.328395e-001 2.195059e-001 1.071255e-001 1.729325e-002
<GCONST> 7.882695e+001
<STATE> 4
<NUMMIXES> 3
<MIXTURE> 1 4.922568e-001
<MEAN> 39
 -4.384928e+000 -3.552886e+000 -4.430424e+000 -2.082064e+001 -5.459801e+000 -4.379787e+000 1.054463e+000 -1.125508e+001 3.394137e+000 -1.418394e+001 -4.562124e+000 -8.812019e+000 1.817797e+001 7.679085e-001 -7.716087e-001 -3.551176e-001 -7.030715e-001 8.768237e-001 2.011103e+000 1.198638e+000 -9.446129e-001 3.738433e-001 -9.454538e-001 -1.634210e-001 2.189720e-001 7.388609e-001 -5.977268e-001 -3.220227e-001 -8.646122e-002 4.905533e-001 4.024468e-001 -3.618771e-002 -1.986116e-001 2.345311e-001 -2.453595e-001 4.967184e-001 3.440214e-001 3.349343e-001 -2.255189e-001
<VARIANCE> 39
 8.140122e+000 1.175827e+001 8.321687e+000 1.071158e+001 2.247547e+001 2.419555e+001 1.847660e+001 1.506427e+001 1.949678e+001 2.867793e+001 3.039742e+001 2.815214e+001 1.321741e+000 1.186642e+000 5.891937e-001 3.987451e-001 1.097973e+000 1.105108e+000 5.574247e-001 9.176849e-001 7.178462e-001 9.825678e-001 1.657572e+000 1.183458e+000 1.501587e+000 1.629782e-001 7.714925e-002 8.996721e-002 6.200506e-002 1.100361e-001 1.431171e-001 1.807312e-001 1.080554e-001 1.075092e-001 1.306705e-001 1.662935e-001 1.630533e-001 1.413700e-001 1.207706e-002
<GCONST> 7.309284e+001
<MIXTURE> 2 2.420768e-001
<MEAN> 39
 -5.965539e+000 -4.131915e+000 -2.435224e+000 -1.607874e+001 -1.230014e+001 -1.033259e+001 6.423168e+000 -2.305187e+000 -4.225939e+000 2.019717e+000 -4.684671e+000 -8.763932e+000 1.854090e+001 7.565431e-001 -8.972821e-001 -2.500063e-001 -5.506373e-001 -5.000837e-001 6.273629e-001 1.930896e+000 2.704054e-001 -7.771997e-001 -5.459768e-001 -6.301145e-001 -5.721031e-001 6.424574e-001 -4.177535e-001 -1.673073e-001 -3.335908e-001 1.664483e-001 3.777474e-001 2.339647e-001 -4.802819e-001 -9.369926e-002 2.686959e-003 -5.079373e-001 2.231215e-001 1.940242e-001 -1.708509e-001
<VARIANCE> 39
 6.785273e+000 1.040865e+001 1.154686e+001 1.772848e+001 7.847675e+000 2.261766e+001 1.891980e+001 2.251497e+001 1.632893e+001 1.505762e+001 1.723744e+001 2.618059e+001 1.577664e+000 1.062140e+000 5.296189e-001 6.579672e-001 9.614094e-001 1.217319e+000 1.480126e+000 1.238964e+000 1.341068e+000 1.363789e+000 1.432303e+000 1.146740e+000 9.289497e-001 1.954665e-001 8.371499e-002 8.823492e-002 1.015118e-001 1.380343e-001 7.710520e-002 2.476637e-001 1.531269e-001 1.581378e-001 1.766902e-001 1.547538e-001 1.469365e-001 1.237291e-001 7.252854e-003
<GCONST> 7.433803e+001
<MIXTURE> 3 2.656660e-001
<MEAN> 39
 -5.172540e+000 -4.545213e+000 -2.745404e+000 -1.734873e+001 -1.437817e+001 -1.038803e+001 4.508959e+000 -3.735973e+000 -6.377829e+000 1.721570e+000 -6.962428e+000 -9.616669e+000 1.889615e+001 6.054876e-001 -1.089988e+000 -6.667934e-001 -1.035417e+000 -8.484419e-001 3.436764e-001 1.114887e+000 -6.668170e-003 -1.571960e+000 -1.093397e+000 -1.073255e+000 -1.305130e+000 6.918857e-001 -6.322570e-001 -1.136062e-001 -3.489901e-001 3.003635e-001 5.180157e-001 3.776774e-001 -3.949180e-001 -6.335131e-002 5.619586e-002 -5.093298e-001 2.232945e-001 2.030605e-001 -2.644144e-001
<VARIANCE> 39
 6.164604e+000 1.013656e+001 1.096843e+001 2.313162e+001 8.632274e+000 1.811656e+001 1.775327e+001 3.170216e+001 2.868986e+001 1.743135e+001 2.558265e+001 2.177873e+001 1.290421e+000 9.710197e-001 3.639325e-001 5.938723e-001 1.126619e+000 8.576518e-001 1.315904e+000 8.700578e-001 1.208138e+000 9.909710e-001 1.077253e+000 1.093169e+000 7.153962e-001 1.433042e-001 7.808473e-002 7.957763e-002 1.067196e-001 1.512505e-001 8.917636e-002 1.544007e-001 1.546886e-001 1.808326e-001 1.950986e-001 1.232405e-001 1.544672e-001 1.162332e-001 6.793920e-003
<GCONST> 7.232308e+001
<STATE> 5
<NUMMIXES> 3
<MIXTURE> 1 4.987471e-001
<MEAN> 39
 -6.637254e+000 -8.421550e+000 -5.712944e+000 -1.720288e+001 1.565689e+000 1.112748e+000 2.440020e+000 -1.292964e+001 2.512405e+000 -1.194206e+001 -2.090677e+000 -4.369169e+000 1.860053e+001 8.246696e-002 -2.961367e-001 3.321047e-001 5.896880e-001 -5.043198e-002 -1.015205e-001 4.473429e-001 -1.238488e-001 -3.772919e-001 9.789383e-001 -3.937969e-001 5.116250e-001 -6.517143e-002 1.189493e-001 3.419744e-001 2.839031e-001 1.343617e-001 -4.676868e-001 -5.723221e-001 -4.047637e-002 2.502372e-001 -1.422672e-001 2.650875e-001 -1.824443e-001 -2.237720e-001 -1.206052e-001
<VARIANCE> 39
 8.818946e+000 1.155311e+001 6.476449e+000 1.236092e+001 1.804672e+001 8.807332e+000 1.984286e+001 1.574299e+001 1.943820e+001 3.355363e+001 2.820092e+001 2.678065e+001 1.452854e+000 2.560594e-001 4.769314e-001 3.863673e-001 3.889132e-001 1.395021e+000 1.038634e+000 5.452359e-001 6.109501e-001 6.809603e-001 8.515176e-001 8.519101e-001 6.196403e-001 2.545840e-002 5.323675e-002 5.970961e-002 7.137106e-002 1.133112e-001 1.287401e-001 1.094593e-001 1.244305e-001 1.203209e-001 1.085641e-001 1.801311e-001 1.368707e-001 1.038422e-001 5.615141e-003
<GCONST> 6.299348e+001
<MIXTURE> 2 2.998300e-001
<MEAN> 39
 -6.965382e+000 -8.291990e+000 -5.521678e+000 -1.715585e+001 -8.845103e+000 -4.584886e+000 7.589331e+000 -4.746834e+000 -8.558643e+000 -5.154561e+000 -5.333749e+000 -9.324541e+000 1.930569e+001 1.663594e-001 -3.590917e-001 -1.933018e-001 5.464194e-001 4.178597e-001 -1.655724e-001 -4.033797e-001 9.684560e-001 -4.186902e-001 -7.877934e-001 1.068050e+000 -2.191803e-001 -4.815627e-002 1.359556e-001 3.031888e-001 2.164811e-001 2.567097e-001 -5.006203e-002 -5.666458e-001 -4.889060e-001 2.991649e-001 3.489892e-001 1.459848e-001 2.498275e-001 1.174509e-001 -9.561108e-002
<VARIANCE> 39
 6.326829e+000 1.390851e+001 9.698713e+000 2.206016e+001 1.729757e+001 2.370678e+001 1.728774e+001 2.633326e+001 2.477878e+001 2.404698e+001 2.966643e+001 2.602481e+001 1.429832e+000 1.298944e-001 2.658036e-001 1.958115e-001 3.753061e-001 6.967857e-001 1.212030e+000 8.798234e-001 9.097399e-001 7.917693e-001 8.286743e-001 5.278703e-001 7.017564e-001 9.307609e-003 2.428438e-002 4.335012e-002 6.142152e-002 9.709255e-002 1.375569e-001 1.180887e-001 1.691439e-001 1.090363e-001 1.200265e-001 1.204316e-001 1.631507e-001 1.416973e-001 3.757742e-003
<GCONST> 6.091502e+001
<MIXTURE> 3 2.014214e-001
<MEAN> 39
 -7.683412e+000 -7.951636e+000 -6.536802e+000 -1.665927e+001 -8.773496e+000 -4.815363e+000 6.116787e+000 -5.773837e+000 -7.451324e+000 -6.539324e+000 -5.949139e+000 -8.637792e+000 1.933089e+001 -2.084391e-001 -7.523540e-001 -5.082840e-001 3.610682e-001 7.462028e-001 7.516809e-001 3.793476e-003 4.835501e-002 -8.719049e-001 -9.154279e-001 3.953191e-001 2.536587e-002 5.782332e-002 2.678156e-002 2.296379e-001 2.068217e-001 2.196037e-001 7.080196e-002 -3.801984e-001 -4.028900e-001 2.246166e-001 2.532238e-001 1.587843e-001 3.476128e-001 9.601852e-002 -1.285392e-001
<VARIANCE> 39
 5.690000e+000 1.172766e+001 6.874003e+000 2.078536e+001 2.239325e+001 2.113919e+001 2.726890e+001 4.629248e+001 3.531916e+001 3.459184e+001 2.880224e+001 2.108863e+001 1.227383e+000 1.710249e-001 2.547518e-001 2.735493e-001 3.578025e-001 6.300286e-001 9.853518e-001 6.115962e-001 8.865950e-001 7.670932e-001 1.208605e+000 6.324850e-001 7.604710e-001 1.236198e-002 5.228900e-002 3.627669e-002 3.637850e-002 8.331209e-002 1.589439e-001 1.300459e-001 1.815647e-001 1.716237e-001 1.458922e-001 1.238765e-001 1.756393e-001 1.371956e-001 8.531973e-003
<GCONST> 6.419849e+001
<STATE> 6
<NUMMIXES> 3
<MIXTURE> 1 4.350710e-001
<MEAN> 39
 -4.448400e+000 -7.107624e+000 -2.572104e+000 -1.547775e+001 -4.717248e+000 -3.284392e+000 6.122800e+000 -1.125954e+001 -1.254541e+000 -5.965745e+000 -6.293836e+000 -4.428274e+000 1.792447e+001 3.543505e-001 1.389142e+000 1.566304e+000 1.614984e+000 -8.136033e-001 -2.137317e+000 -3.227041e-001 1.423991e+000 -7.331134e-001 1.344858e+000 5.109778e-002 -6.758527e-001 -5.392107e-001 -1.417332e-001 2.627672e-001 8.604811e-002 1.574012e-001 3.122494e-001 -9.511077e-002 -4.748691e-001 1.152287e-001 1.394658e-001 -3.194685e-001 2.676087e-001 -2.076862e-001 -6.136512e-002
<VARIANCE> 39
 8.475026e+000 1.498912e+001 1.266998e+001 1.853971e+001 1.907588e+001 1.697052e+001 1.784169e+001 3.090284e+001 3.299419e+001 3.281120e+001 1.876640e+001 2.336867e+001 1.927575e+000 5.556776e-001 7.021849e-001 1.020644e+000 8.473401e-001 8.516063e-001 9.358234e-001 1.220272e+000 1.139977e+000 1.048923e+000 1.755638e+000 1.533034e+000 8.939841e-001 3.833066e-002 3.256381e-002 1.190577e-001 1.401897e-001 1.585703e-001 9.204193e-002 2.161625e-001 1.319035e-001 1.481339e-001 1.318237e-001 1.971219e-001 1.026038e-001 1.334389e-001 1.025510e-002
<GCONST> 7.474820e+001
<MIXTURE> 2 2.809836e-001
<MEAN> 39
 -4.876558e+000 -7.100160e+000 -4.243923e+000 -1.348960e+001 -1.041408e+001 -9.755336e+000 3.769259e+000 2.103428e+000 -8.105483e+000 -4.980235e+000 -8.592734e-001 -1.060439e+001 1.832034e+001 3.634123e-001 7.663538e-001 6.402602e-001 1.382145e+000 8.171888e-001 -1.595770e+000 -2.232010e+000 7.948794e-001 9.791930e-001 -8.666553e-001 1.307739e+000 5.178932e-001 -4.138663e-001 -6.393681e-002 2.189385e-001 1.623463e-001 3.881003e-002 2.337984e-001 3.289161e-002 -2.967280e-001 -4.564815e-001 2.637817e-001 7.680223e-002 -1.915231e-001 2.405804e-001 -7.259154e-002
<VARIANCE> 39
 1.005799e+001 8.674172e+000 1.341391e+001 1.643837e+001 2.394048e+001 2.485427e+001 2.329411e+001 2.103589e+001 3.220106e+001 2.150550e+001 1.836415e+001 1.721574e+001 2.009454e+000 3.978225e-001 5.889680e-001 7.443347e-001 8.953754e-001 1.241484e+000 1.215861e+000 9.273847e-001 1.320437e+000 1.083214e+000 7.890164e-001 7.704927e-001 8.413694e-001 4.666420e-002 4.902691e-002 5.734291e-002 1.027862e-001 1.282541e-001 1.737073e-001 2.337417e-001 2.307270e-001 1.190871e-001 1.865624e-001 1.147703e-001 9.930469e-002 8.611725e-002 1.003029e-002
<GCONST> 7.201258e+001
<MIXTURE> 3 2.839448e-001
<MEAN> 39
 -4.994490e+000 -7.586988e+000 -5.869088e+000 -1.219314e+001 -9.575373e+000 -1.220335e+001 1.328143e+000 4.214847e+000 -8.017502e+000 -8.824534e+000 3.684292e-001 -9.979817e+000 1.846126e+001 3.161814e-001 1.018115e+000 8.361753e-001 1.023494e+000 5.536095e-001 -1.665238e+000 -2.409794e+000 5.145535e-001 1.294094e+000 -6.692372e-001 5.668633e-001 3.357127e-001 -4.797515e-001 -1.169370e-001 1.264945e-001 1.583894e-001 -8.748154e-002 1.144023e-001 2.028376e-001 3.268541e-002 -6.252406e-001 1.008870e-001 2.181043e-001 -3.026087e-001 1.115438e-001 -4.999083e-002
<VARIANCE> 39
 8.505304e+000 8.252360e+000 1.195610e+001 1.315500e+001 1.499205e+001 2.114972e+001 3.262298e+001 2.428647e+001 2.217725e+001 2.250712e+001 1.002792e+001 1.340555e+001 1.472850e+000 3.739471e-001 3.488843e-001 5.975091e-001 7.578128e-001 1.312016e+000 7.296413e-001 1.052346e+000 1.490401e+000 9.709064e-001 7.833931e-001 9.311833e-001 9.581332e-001 4.500266e-002 2.717698e-002 5.386352e-002 7.501699e-002 9.536806e-002 9.529829e-002 1.885196e-001 2.843805e-001 1.078218e-001 1.730772e-001 9.775589e-002 8.530952e-002 8.597209e-002 8.592940e-003
<GCONST> 6.628831e+001
<STATE> 7
<NUMMIXES> 3
<MIXTURE> 1 4.825879e-001
<MEAN> 39
 -4.366187e+000 -4.428382e+000 -1.873315e+000 -1.258569e+001 -7.674538e+000 -6.469853e+000 6.394442e-001 -6.929204e+000 -4.095027e+000 -6.577574e+000 -3.184583e+000 -8.873389e+000 1.739810e+001 1.675453e-001 3.823294e-001 1.633782e-001 -5.768325e-001 5.256850e-001 3.653558e-001 -1.986240e-001 -7.020800e-001 1.729972e-001 1.607528e-001 -3.915613e-001 -1.362799e-002 1.300855e-001 5.044242e-002 3.084156e-001 3.010651e-001 1.190276e-001 3.810475e-001 -4.821518e-001 -3.197736e-001 1.359045e-001 1.340079e-001 1.405670e-002 -3.880695e-002 5.216935e-002 -6.937365e-002
<VARIANCE> 39
 9.103007e+000 1.137121e+001 1.305575e+001 1.970846e+001 2.821465e+001 4.048187e+001 2.731468e+001 5.952229e+001 4.719244e+001 5.384995e+001 3.558244e+001 2.691812e+001 1.815729e+000 3.712288e-001 9.485558e-001 1.623698e+000 1.013804e+000 1.909861e+000 2.779647e+000 2.147154e+000 1.449052e+000 1.540077e+000 2.228344e+000 1.416543e+000 9.293077e-001 7.608780e-002 5.443893e-002 9.122509e-002 1.203730e-001 1.337909e-001 2.162959e-001 3.234645e-001 2.343826e-001 2.303958e-001 2.137319e-001 2.483795e-001 1.972675e-001 1.470404e-001 7.053475e-003
<GCONST> 8.635184e+001
<MIXTURE> 2 3.432106e-001
<MEAN> 39
 -5.223263e+000 -1.597203e+000 8.589116e-001 -9.350389e+000 -3.290775e+000 -1.219958e+001 -2.918704e+000 -2.611390e+000 -1.124507e+000 -5.277664e+000 -5.376763e-001 -6.396614e+000 1.593897e+001 -7.162593e-002 4.520648e-001 3.278431e-001 3.497829e-001 2.833049e-001 -8.017662e-002 -5.668556e-001 -1.710931e-001 1.404808e-001 9.692647e-002 5.402252e-002 -3.675532e-002 -1.683336e-001 3.556374e-002 -3.286297e-001 -3.798592e-001 -4.331711e-001 -2.042232e-001 5.282295e-001 4.912799e-001 -2.285100e-001 -1.762537e-001 -5.980218e-002 -1.860789e-001 -7.829861e-002 1.696209e-001
<VARIANCE> 39
 1.531925e+001 1.064158e+001 2.267418e+001 2.189308e+001 2.329329e+001 2.687888e+001 3.798292e+001 3.344472e+001 2.829322e+001 2.912223e+001 2.080210e+001 2.046791e+001 1.721198e+000 3.199012e-001 7.103474e-001 8.935952e-001 1.178082e+000 1.153705e+000 1.381422e+000 2.047496e+000 1.360479e+000 1.126378e+000 1.174241e+000 8.046144e-001 1.021353e+000 1.091612e-001 7.660014e-002 1.063963e-001 1.805557e-001 2.385967e-001 1.918834e-001 1.879171e-001 3.235054e-001 2.795753e-001 2.548389e-001 3.686599e-001 1.891008e-001 1.682397e-001 1.178788e-002
<GCONST> 8.387109e+001
<MIXTURE> 3 1.741984e-001
<MEAN> 39
 -4.576133e+000 -2.751940e+000 8.479595e-002 -9.170483e+000 -5.660654e+000 -1.210529e+001 -5.441891e+000 -6.764403e+000 -4.425447e+000 -1.167026e+001 -5.928450e+000 -1.193695e+001 1.615741e+001 3.991014e-003 3.956210e-002 -7.295834e-002 -4.008252e-001 -1.761420e-001 3.015545e-001 -1.551584e-001 -5.126127e-001 -4.027636e-001 -4.747212e-001 -3.719632e-001 -4.577716e-001 4.451457e-002 -1.413420e-002 -3.242237e-001 -2.914054e-001 -4.068823e-001 -1.145331e-001 4.804882e-001 4.240406e-001 -2.359038e-001 -9.043534e-002 4.478336e-002 -3.058660e-002 9.415998e-002 1.557425e-001
<VARIANCE> 39
 1.726601e+001 1.033995e+001 1.975348e+001 2.909826e+001 2.779044e+001 3.751360e+001 3.900203e+001 6.619945e+001 2.578785e+001 3.721146e+001 3.735408e+001 2.113086e+001 1.441512e+000 4.326091e-001 9.677563e-001 1.136511e+000 1.243178e+000 8.417400e-001 2.184566e+000 2.136412e+000 1.440547e+000 1.324815e+000 1.893975e+000 1.140024e+000 8.976440e-001 1.040495e-001 1.064740e-001 1.750189e-001 2.501949e-001 2.519677e-001 2.077962e-001 4.673103e-001 3.165194e-001 2.978510e-001 3.077689e-001 3.748120e-001 2.168245e-001 1.946589e-001 1.353260e-002
<GCONST> 9.074565e+001
<STATE> 8
<NUMMIXES> 3
<MIXTURE> 1 2.150269e-001
<MEAN> 39
 -1.600385e+000 2.231561e+000 2.130657e+000 -1.358522e+001 1.186778e+000 -9.176323e+000 -1.253552e+000 -4.867274e+000 2.099684e+000 -4.952403e+000 -4.030417e-001 -3.072079e+000 1.683678e+001 4.361548e-001 7.768814e-001 4.678697e-001 1.962447e-001 8.241031e-001 -1.175388e+000 -3.825098e-002 2.590773e-001 1.026599e-001 5.929242e-002 2.524687e-002 1.030753e-001 -8.406983e-002 -8.711112e-002 -9.455354e-002 3.193313e-003 1.799445e-001 -2.041454e-001 1.486786e-001 7.482465e-002 -1.239191e-003 -7.803296e-002 7.339371e-002 -5.594300e-003 -1.165203e-001 -3.355504e-002
<VARIANCE> 39
 2.176183e+001 1.652344e+001 2.377611e+001 1.923098e+001 2.477106e+001 9.450079e+001 3.229442e+001 2.118611e+001 4.987649e+001 6.211868e+001 4.494506e+001 2.706823e+001 2.207326e+000 2.758642e-001 5.064105e-001 9.210904e-001 8.639845e-001 1.797225e+000 2.731042e+000 9.898221e-001 8.733506e-001 1.015910e+000 1.180375e+000 1.157812e+000 9.635465e-001 1.478066e-002 3.655541e-002 5.219163e-002 1.247570e-001 1.208963e-001 1.754794e-001 4.087428e-001 2.001142e-001 1.390651e-001 1.506456e-001 2.120769e-001 1.688087e-001 9.141506e-002 3.306337e-003
<GCONST> 7.923383e+001
<MIXTURE> 2 4.324076e-001
<MEAN> 39
 -3.936357e+000 2.173335e+000 2.722137e+000 -1.316884e+001 -1.030624e+000 -1.217108e+001 -6.799783e+000 -1.020728e+001 -5.524872e+000 -1.147209e+001 -9.393934e+000 -1.420102e+001 1.721554e+001 -1.055740e-001 3.254410e-001 3.464850e-001 2.079447e-001 2.614364e-001 -2.679456e-001 -2.472755e-001 -1.348600e-001 -1.657616e-001 1.820593e-001 -2.733769e-002 -1.182641e-001 -1.090389e-001 -1.426540e-001 -1.857718e-001 -1.738417e-001 -6.778887e-003 -6.472053e-002 2.125280e-001 1.397670e-001 4.007227e-002 1.095343e-001 9.634922e-002 2.081813e-001 2.183797e-001 -5.877621e-002
<VARIANCE> 39
 1.519045e+001 8.831082e+000 1.150642e+001 1.484106e+001 1.948816e+001 2.788053e+001 2.532843e+001 3.654623e+001 3.247077e+001 5.308429e+001 5.021143e+001 3.784340e+001 1.273304e+000 3.073298e-001 6.246039e-001 5.757572e-001 4.714177e-001 8.178512e-001 1.616839e+000 8.466822e-001 1.191587e+000 1.220338e+000 1.076000e+000 1.248036e+000 9.917873e-001 3.435203e-002 3.096818e-002 7.408443e-002 8.062065e-002 8.822513e-002 1.034756e-001 1.718187e-001 1.324030e-001 1.722052e-001 1.854405e-001 2.009503e-001 1.892371e-001 1.371150e-001 3.587167e-003
<GCONST> 7.313082e+001
<MIXTURE> 3 3.525641e-001
<MEAN> 39
 -5.656271e+000 7.523284e-001 1.645637e+000 -1.282747e+001 -1.410415e-001 -1.073089e+001 -2.602388e+000 -5.071548e+000 -1.858943e+000 -4.301219e+000 -2.272128e+000 -6.741971e+000 1.683187e+001 -3.874503e-002 4.316436e-001 4.269324e-001 -2.057235e-003 6.644937e-001 -3.726383e-001 -5.390764e-001 -9.674149e-002 1.280055e-001 -1.708629e-001 -2.374966e-001 -3.618592e-002 -1.063329e-001 -6.019832e-002 -1.519092e-001 -1.322879e-001 5.007968e-003 -2.167563e-001 1.211669e-001 1.069423e-001 1.644542e-002 -7.595915e-002 -5.714327e-002 1.122625e-002 -8.512218e-002 -6.883745e-003
<VARIANCE> 39
 1.318716e+001 7.010974e+000 1.212102e+001 1.528575e+001 2.177106e+001 4.248146e+001 2.087109e+001 2.007586e+001 2.788135e+001 3.747750e+001 2.989667e+001 1.517890e+001 2.008280e+000 2.092454e-001 3.950996e-001 5.375002e-001 4.940596e-001 1.402669e+000 1.264764e+000 9.305055e-001 8.205586e-001 7.443051e-001 1.067856e+000 6.527445e-001 6.712209e-001 1.718820e-002 2.475055e-002 4.518836e-002 7.376356e-002 9.194478e-002 1.705970e-001 2.284995e-001 1.457518e-001 1.308286e-001 1.014293e-001 1.611512e-001 1.013503e-001 8.288601e-002 3.362930e-003
<GCONST> 6.584434e+001
<STATE> 9
<NUMMIXES> 3
<MIXTURE> 1 4.326245e-001
<MEAN> 39
 -1.180651e+000 3.402707e+000 5.518242e+000 -9.422461e+000 3.453673e-001 -1.138813e+001 -3.956794e+000 -7.589836e+000 -1.977165e+000 -5.511882e+000 -5.564337e+000 -6.798309e+000 1.539198e+001 -1.220130e+000 -4.477940e-001 -3.105331e-001 8.047966e-001 -5.381523e-002 9.370779e-001 2.438684e-001 -8.096009e-002 8.243836e-002 1.272363e-001 3.170325e-001 1.963540e-001 -6.034166e-001 -3.951199e-001 -4.129133e-001 -4.356498e-001 -1.271819e-001 -2.551824e-001 2.415801e-001 5.411304e-002 8.919138e-002 -1.055619e-002 -6.377284e-002 1.869226e-001 -2.110536e-002 -7.921637e-002
<VARIANCE> 39
 2.428721e+001 2.267818e+001 2.852394e+001 4.434560e+001 3.873638e+001 6.495658e+001 4.095779e+001 4.872408e+001 6.667831e+001 6.367521e+001 5.311729e+001 5.059332e+001 5.799397e+000 1.616078e+000 1.428733e+000 1.445108e+000 1.735674e+000 1.664676e+000 2.986733e+000 1.456993e+000 1.490255e+000 2.041951e+000 1.870023e+000 1.553239e+000 1.726544e+000 1.701676e-001 1.918335e-001 1.811917e-001 2.146327e-001 3.570329e-001 2.798307e-001 5.130559e-001 2.481527e-001 2.617734e-001 3.409885e-001 2.807721e-001 2.269258e-001 1.857622e-001 2.376073e-002
<GCONST> 1.034039e+002
<MIXTURE> 2 3.243235e-001
<MEAN> 39
 -1.070715e+001 -2.042098e+000 -5.945435e-001 -1.082162e+001 -1.419772e+000 -8.675789e+000 -4.166021e+000 -7.051528e+000 -2.295119e+000 -4.697713e+000 -1.862504e+000 -6.393257e+000 1.296604e+001 -1.176034e+000 -9.625743e-001 -1.224153e+000 -6.122453e-001 -4.971092e-001 1.568686e-001 3.180885e-001 6.020747e-001 6.155217e-001 6.154018e-001 7.776335e-001 7.773066e-001 -3.462198e-001 2.094618e-001 1.119382e-001 7.626317e-002 -6.327587e-002 -3.388912e-002 -1.906913e-001 -5.005409e-003 1.373676e-002 -9.501833e-002 -1.894899e-002 -1.124734e-001 -4.116192e-002 1.308984e-001
<VARIANCE> 39
 1.503636e+001 1.428506e+001 1.567329e+001 3.129122e+001 1.882726e+001 2.700420e+001 2.640120e+001 2.477926e+001 2.264160e+001 1.911187e+001 2.214030e+001 2.117470e+001 1.001295e+001 9.670241e-001 5.408574e-001 7.935903e-001 7.212059e-001 7.612664e-001 1.058990e+000 8.113656e-001 9.957260e-001 9.804151e-001 1.225794e+000 1.371141e+000 1.003509e+000 1.054269e-001 1.293005e-001 1.450782e-001 1.719062e-001 1.843870e-001 1.655391e-001 2.001303e-001 2.130473e-001 1.718458e-001 1.670987e-001 2.152401e-001 1.661676e-001 1.282822e-001 1.798800e-002
<GCONST> 8.176552e+001
<MIXTURE> 3 2.430503e-001
<MEAN> 39
 -9.566690e+000 -1.315611e+000 1.342789e+000 -1.085297e+001 -3.941105e-001 -8.090767e+000 -2.590657e+000 -7.154890e+000 -2.028235e+000 -5.115735e+000 -2.898593e+000 -8.108030e+000 1.340312e+001 -1.580256e+000 -1.514630e+000 -1.672609e+000 -1.088742e+000 -1.104299e+000 -1.051351e-001 -3.095257e-001 1.033489e-002 -2.749351e-002 -3.324640e-002 3.818165e-001 4.057327e-001 -5.435941e-001 1.599695e-001 7.515556e-002 -9.408723e-002 -1.685722e-001 -1.276315e-001 -2.886333e-001 -1.459681e-001 2.002437e-002 2.173584e-002 3.891902e-003 -4.065644e-002 8.505318e-002 1.103478e-001
<VARIANCE> 39
 1.105669e+001 1.255591e+001 1.768785e+001 2.519884e+001 1.885346e+001 3.076401e+001 2.692153e+001 3.194804e+001 2.895261e+001 2.575756e+001 3.254843e+001 1.874314e+001 5.972859e+000 9.354835e-001 4.483141e-001 4.848790e-001 6.774073e-001 8.097309e-001 1.479123e+000 1.188050e+000 1.362224e+000 1.484908e+000 1.911045e+000 1.580798e+000 1.049607e+000 1.082744e-001 8.630116e-002 1.176646e-001 1.260035e-001 1.509364e-001 1.350238e-001 1.912209e-001 1.613623e-001 1.929392e-001 1.744672e-001 1.873630e-001 1.543849e-001 1.241979e-001 1.027184e-002
<GCONST> 8.101962e+001
<TRANSP> 10
 0.000000e+000 1.000000e+000 0.000000e+000 0.000000e+000 0.000000e+000 0.000000e+000 0.000000e+000 0.000000e+000 0.000000e+000 0.000000e+000
 0.000000e+000 6.990726e-001 3.009273e-001 0.000000e+000 0.000000e+000 0.000000e+000 0.000000e+000 0.000000e+000 0.000000e+000 0.000000e+000
 0.000000e+000 0.000000e+000 5.608842e-001 4.391158e-001 0.000000e+000 0.000000e+000 0.000000e+000 0.000000e+000 0.000000e+000 0.000000e+000
 0.000000e+000 0.000000e+000 0.000000e+000 6.957120e-001 3.042880e-001 0.000000e+000 0.000000e+000 0.000000e+000 0.000000e+000 0.000000e+000
 0.000000e+000 0.000000e+000 0.000000e+000 0.000000e+000 7.819981e-001 2.180019e-001 0.000000e+000 0.000000e+000 0.000000e+000 0.000000e+000
 0.000000e+000 0.000000e+000 0.000000e+000 0.000000e+000 0.000000e+000 6.968917e-001 3.031083e-001 0.000000e+000 0.000000e+000 0.000000e+000
 0.000000e+000 0.000000e+000 0.000000e+000 0.000000e+000 0.000000e+000 0.000000e+000 8.770105e-001 1.229895e-001 0.000000e+000 0.000000e+000
 0.000000e+000 0.000000e+000 0.000000e+000 0.000000e+000 0.000000e+000 0.000000e+000 0.000000e+000 8.399630e-001 1.600370e-001 0.000000e+000
 0.000000e+000 0.000000e+000 0.000000e+000 0.000000e+000 0.000000e+000 0.000000e+000 0.000000e+000 0.000000e+000 7.838171e-001 2.161830e-001
 0.000000e+000 0.000000e+000 0.000000e+000 0.000000e+000 0.000000e+000 0.000000e+000 0.000000e+000 0.000000e+000 0.000000e+000 0.000000e+000
<ENDHMM>
~h "sil"
<BEGINHMM>
<NUMSTATES> 5
<STATE> 2
<NUMMIXES> 3
<MIXTURE> 1 2.123936e-001
<MEAN> 39
 -6.906192e+000 -1.406584e+000 -9.328244e-001 -4.364811e+000 -2.990437e+000 -5.368189e+000 -2.810050e+000 -6.617454e+000 -2.801322e+000 -4.317990e+000 -1.734717e+000 -4.206019e+000 7.964308e+000 6.002949e-002 3.499591e-001 1.017918e-001 2.744885e-001 9.248836e-002 1.366335e-001 1.571411e-001 3.188750e-001 1.978134e-001 2.141362e-002 1.026001e-001 1.432138e-001 -7.260146e-002 -2.089695e-002 -1.238457e-002 1.538061e-002 3.497002e-003 3.539256e-002 2.817580e-002 3.214720e-002 2.382774e-002 2.697462e-002 2.446615e-002 1.401450e-002 1.833581e-002 7.884664e-003
<VARIANCE> 39
 1.311195e+001 2.311769e+001 1.477161e+001 1.559497e+001 1.879945e+001 2.009603e+001 1.844101e+001 2.298185e+001 2.166542e+001 2.303873e+001 1.815465e+001 1.541120e+001 2.430974e+000 1.470802e-001 2.864075e-001 3.433905e-001 4.637621e-001 6.527606e-001 6.409805e-001 6.428716e-001 8.453900e-001 7.961121e-001 8.413212e-001 6.484879e-001 5.559847e-001 2.491235e-002 2.103601e-002 4.394361e-002 5.791399e-002 8.803185e-002 1.097830e-001 1.110924e-001 1.048692e-001 1.333855e-001 1.470520e-001 1.532413e-001 1.298814e-001 9.632479e-002 2.770470e-003
<GCONST> 6.094702e+001
<MIXTURE> 2 4.906586e-001
<MEAN> 39
 -1.172511e+001 -3.403929e+000 -4.415054e+000 -1.065983e+001 -4.750082e+000 -8.720201e+000 -3.289203e+000 -4.397327e+000 -6.945885e-001 -3.943358e+000 -9.523981e-001 -3.888221e+000 8.778687e+000 -1.182825e-001 -9.951691e-002 -1.165024e-001 -1.657649e-001 -1.438950e-001 -9.912765e-002 -6.979411e-002 -6.653531e-002 -1.458296e-002 2.085890e-002 1.808963e-002 1.120837e-002 -2.707844e-002 3.875733e-002 2.676851e-002 3.614005e-002 3.267920e-002 3.067293e-002 1.699386e-002 -1.222241e-002 -4.370068e-002 -3.368595e-002 -2.413134e-002 -2.810839e-002 -2.123533e-002 1.802291e-002
<VARIANCE> 39
 3.261362e+000 4.780373e+000 7.144898e+000 2.798141e+001 1.658907e+001 1.894542e+001 1.509940e+001 1.549003e+001 1.501725e+001 1.461236e+001 1.511753e+001 1.528165e+001 1.826763e+001 1.113608e-001 2.008580e-001 3.152185e-001 4.486238e-001 5.750105e-001 6.163656e-001 6.979981e-001 7.437115e-001 7.699487e-001 7.217463e-001 7.280701e-001 5.808407e-001 1.001976e-002 1.247311e-002 2.532032e-002 4.089323e-002 5.437756e-002 7.040039e-002 7.912304e-002 9.276947e-002 9.074347e-002 1.024878e-001 9.236065e-002 1.022116e-001 8.200770e-002 1.247812e-003
<GCONST> 5.090054e+001
<MIXTURE> 3 2.969425e-001
<MEAN> 39
 -8.989712e+000 -2.826324e+000 -2.205828e+000 -5.074553e+000 -4.183516e+000 -5.326793e+000 -3.517737e+000 -7.476128e+000 -3.214911e+000 -5.548637e+000 -2.479902e+000 -4.129520e+000 7.017219e+000 -9.738270e-002 1.046192e-001 -1.103339e-001 -5.351541e-002 -1.320613e-001 -1.203179e-001 8.712900e-003 1.342752e-001 -6.415799e-002 -9.099395e-002 -4.800610e-002 -9.194461e-003 -9.510108e-002 -3.765585e-002 -4.283705e-002 -4.929065e-002 -7.312871e-002 -2.184582e-002 -4.809980e-002 -4.581413e-003 1.318277e-002 4.734249e-002 5.425984e-002 1.797300e-002 -9.984956e-004 5.791394e-004
<VARIANCE> 39
 7.121212e+000 1.556380e+001 1.079820e+001 1.380731e+001 1.936913e+001 2.257208e+001 2.451504e+001 2.470746e+001 2.312612e+001 2.387373e+001 1.832123e+001 1.542683e+001 1.449513e+000 1.471011e-001 2.361351e-001 2.924850e-001 4.071204e-001 5.470252e-001 6.967880e-001 6.946051e-001 8.432184e-001 8.669444e-001 7.860722e-001 7.107955e-001 5.994961e-001 2.567481e-002 1.987472e-002 3.476432e-002 4.828688e-002 7.235204e-002 9.775853e-002 1.239812e-001 1.226827e-001 1.449921e-001 1.487674e-001 1.391169e-001 1.255812e-001 1.118566e-001 2.550646e-003
<GCONST> 5.882857e+001
<STATE> 3
~s "silst"
<STATE> 4
<NUMMIXES> 3
<MIXTURE> 1 5.056089e-001
<MEAN> 39
 -1.227120e+001 -3.613726e+000 -4.026102e+000 -8.398158e+000 -5.346045e+000 -7.936481e+000 -2.997904e+000 -4.813137e+000 -9.747282e-001 -4.238441e+000 -1.276275e+000 -4.256007e+000 8.410317e+000 4.096854e-003 9.655393e-002 8.556627e-002 1.426407e-001 6.079479e-002 5.787036e-002 2.372148e-001 1.310635e-001 4.525002e-002 5.264247e-002 1.071438e-001 2.112393e-002 1.909462e-001 9.688433e-002 2.468485e-002 2.851563e-002 -2.544945e-002 4.926485e-002 4.113777e-002 -1.761444e-002 -9.081326e-002 -6.184799e-002 -6.091372e-002 -2.895219e-002 -1.866014e-002 8.469022e-002
<VARIANCE> 39
 1.169998e+001 1.252404e+001 1.532746e+001 3.336709e+001 1.922487e+001 2.457178e+001 2.048732e+001 2.086589e+001 1.851838e+001 1.879383e+001 1.740888e+001 1.603066e+001 1.041327e+001 7.480729e-001 8.465984e-001 8.281353e-001 1.141156e+000 1.113768e+000 1.124890e+000 9.316016e-001 1.099671e+000 9.494489e-001 8.665879e-001 8.691902e-001 6.978437e-001 2.381703e-001 1.433683e-001 1.469181e-001 1.599190e-001 1.906028e-001 1.838252e-001 1.883198e-001 2.001491e-001 2.170355e-001 1.852832e-001 1.694956e-001 1.598892e-001 1.382300e-001 4.566474e-002
<GCONST> 8.234075e+001
<MIXTURE> 2 2.782136e-001
<MEAN> 39
 -1.110282e+001 -3.393286e+000 -3.548558e+000 -9.443336e+000 -4.341358e+000 -7.133062e+000 -3.330180e+000 -6.366164e+000 -1.881955e+000 -4.602514e+000 -1.653297e+000 -4.704468e+000 9.114080e+000 1.705775e-002 1.124528e-001 7.077669e-002 6.460859e-002 1.122259e-001 1.274626e-001 1.195807e-001 6.640030e-002 9.007301e-002 1.498179e-001 3.831088e-002 5.175079e-002 3.219157e-002 -1.116817e-002 2.118978e-002 6.601625e-003 1.743375e-002 -1.245290e-002 -2.134199e-002 6.144154e-002 8.037205e-002 6.132840e-002 4.385953e-002 4.717535e-002 2.406706e-002 2.102933e-002
<VARIANCE> 39
 1.086162e+001 1.233037e+001 1.025889e+001 3.474891e+001 2.061333e+001 2.651773e+001 1.781178e+001 2.259162e+001 1.789996e+001 1.781453e+001 1.636946e+001 1.597790e+001 1.259404e+001 3.805806e-001 3.833163e-001 4.605128e-001 6.322303e-001 6.799469e-001 7.648694e-001 8.294858e-001 9.537451e-001 8.197076e-001 7.997554e-001 7.567097e-001 6.776229e-001 9.089108e-002 4.968306e-002 5.028121e-002 5.571880e-002 7.247124e-002 9.606631e-002 9.149978e-002 9.769943e-002 1.149747e-001 1.013983e-001 8.958862e-002 8.194365e-002 8.237752e-002 9.589347e-003
<GCONST> 6.600764e+001
<MIXTURE> 3 2.161743e-001
<MEAN> 39
 -1.189516e+001 -4.530708e+000 -4.238901e+000 -1.197145e+001 -4.942290e+000 -9.298633e+000 -4.771081e+000 -7.182950e+000 -2.355694e+000 -5.725769e+000 -2.030890e+000 -5.721424e+000 1.045313e+001 -1.122200e-001 -6.900217e-002 -8.715209e-002 -1.586115e-001 -6.633364e-002 -1.330000e-001 -2.902930e-001 -3.613153e-001 -1.863556e-001 -2.514651e-001 -1.828622e-001 -2.012410e-001 1.264996e-001 -1.737391e-002 2.818904e-002 -6.305455e-003 1.958415e-002 -3.088468e-002 -2.966932e-002 1.528033e-002 3.938490e-002 1.241779e-002 1.088993e-002 -1.240655e-002 6.306755e-003 4.131388e-003
<VARIANCE> 39
 8.594327e+000 9.676549e+000 9.100291e+000 3.610676e+001 1.893846e+001 2.899203e+001 1.944274e+001 1.980330e+001 1.798111e+001 1.791595e+001 1.570810e+001 1.538258e+001 1.343051e+001 3.999370e-001 3.876201e-001 4.270193e-001 6.439769e-001 6.586164e-001 8.135088e-001 8.425707e-001 8.832732e-001 8.491187e-001 8.218971e-001 7.437134e-001 7.220455e-001 1.168283e-001 5.001847e-002 4.555003e-002 5.132280e-002 7.230613e-002 9.298801e-002 8.553855e-002 9.557134e-002 9.729204e-002 1.018850e-001 9.030854e-002 8.407815e-002 8.297792e-002 1.142399e-002
<GCONST> 6.549272e+001
<TRANSP> 5
 0.000000e+000 1.000000e+000 0.000000e+000 0.000000e+000 0.000000e+000
 0.000000e+000 8.264689e-001 1.735311e-001 0.000000e+000 0.000000e+000
 0.000000e+000 0.000000e+000 9.473774e-001 5.262255e-002 0.000000e+000
 0.000000e+000 0.000000e+000 0.000000e+000 6.854472e-001 3.145528e-001
 0.000000e+000 0.000000e+000 0.000000e+000 0.000000e+000 0.000000e+000
<ENDHMM>
~h "six"
<BEGINHMM>
<NUMSTATES> 10
<STATE> 2
<NUMMIXES> 3
<MIXTURE> 1 2.466980e-001
<MEAN> 39
 -1.546036e+001 -4.332200e+000 -6.354613e+000 -1.394097e+001 -5.901671e+000 -9.488137e+000 -6.585741e+000 -5.921731e+000 -1.775861e+000 -3.724259e+000 -2.580578e+000 -5.079032e+000 1.397228e+001 7.609580e-001 5.646376e-001 8.835523e-001 8.250665e-002 3.359166e-001 1.734469e-001 4.495420e-001 1.537199e-001 4.777176e-001 2.799464e-001 -4.088812e-002 4.125715e-001 2.706426e-001 4.899906e-001 3.211667e-001 4.323201e-001 -8.218475e-002 -2.696670e-001 -4.355429e-002 3.165931e-001 4.220022e-002 1.620610e-001 3.175084e-001 3.137732e-002 4.762396e-002 2.085760e-001
<VARIANCE> 39
 6.694923e+000 9.653877e+000 1.035860e+001 2.578887e+001 1.543857e+001 2.166525e+001 1.647269e+001 1.713434e+001 1.489778e+001 1.539372e+001 1.940521e+001 1.287389e+001 2.930251e+000 2.470694e-001 3.277089e-001 3.674927e-001 5.429469e-001 5.823097e-001 7.635882e-001 8.196515e-001 5.488540e-001 9.050767e-001 7.753593e-001 5.802188e-001 7.873558e-001 4.190007e-002 3.247927e-002 6.667918e-002 8.023035e-002 1.033780e-001 1.081508e-001 1.685065e-001 1.259294e-001 1.490718e-001 1.804605e-001 1.423255e-001 1.492395e-001 1.543769e-001 5.942327e-003
<GCONST> 6.340950e+001
<MIXTURE> 2 4.926312e-001
<MEAN> 39
 -1.848499e+001 -3.782403e+000 -6.653192e+000 -7.370296e+000 -6.282967e+000 -4.996801e+000 -2.250742e+000 -5.649318e+000 8.589121e-001 -3.093979e+000 -8.819407e-001 -3.412716e+000 1.130287e+001 -1.770637e-001 7.561462e-003 -2.259784e-001 1.044270e-001 -5.850793e-002 5.145822e-003 -5.765869e-004 -3.218764e-002 -1.794205e-002 -1.206300e-001 -5.210663e-002 8.824989e-002 1.452559e-001 2.331799e-001 3.898862e-002 1.258660e-001 -7.745102e-002 4.554334e-002 -5.728412e-002 -4.404987e-002 -2.265626e-002 -5.430714e-002 -4.648755e-002 -3.333561e-002 -5.766739e-002 2.114081e-002
<VARIANCE> 39
 1.254165e+001 2.376977e+001 1.785831e+001 1.943568e+001 1.693222e+001 2.357574e+001 1.882718e+001 2.907351e+001 1.903313e+001 2.738441e+001 2.654228e+001 1.870884e+001 4.672290e+000 5.368348e-001 5.630613e-001 5.157599e-001 7.035006e-001 5.867180e-001 7.807526e-001 9.937616e-001 1.123912e+000 6.406675e-001 8.692815e-001 9.082932e-001 6.549716e-001 5.768188e-002 7.886603e-002 1.104576e-001 8.318654e-002 1.395489e-001 1.147874e-001 1.682084e-001 1.661097e-001 2.238539e-001 1.346204e-001 1.300995e-001 1.401142e-001 1.270545e-001 1.205311e-002
<GCONST> 7.375663e+001
<MIXTURE> 3 2.606699e-001
<MEAN> 39
 -1.563940e+001 -4.352927e+000 -6.474368e+000 -1.294248e+001 -5.588439e+000 -8.980036e+000 -5.983962e+000 -6.405467e+000 -2.800781e+000 -3.756835e+000 -1.829847e+000 -5.952784e+000 1.324554e+001 1.427820e-001 1.316796e-001 1.219223e-001 -1.194404e-001 4.504274e-002 -6.607266e-002 2.078698e-002 -1.076682e-001 1.336098e-001 -1.130323e-001 -4.390052e-002 2.045865e-002 9.432387e-002 3.384491e-001 2.346489e-001 2.751616e-001 -1.506975e-001 -4.079357e-002 -4.433795e-002 1.687521e-001 2.275672e-002 2.136278e-001 -8.788641e-002 -6.524080e-002 1.946917e-002 1.386000e-001
<VARIANCE> 39
 6.720006e+000 8.359859e+000 1.152809e+001 2.086025e+001 1.400589e+001 2.200492e+001 1.843841e+001 1.924303e+001 1.625584e+001 2.032537e+001 1.694071e+001 1.534731e+001 3.309112e+000 1.159641e-001 2.259637e-001 2.868041e-001 4.575861e-001 5.211242e-001 7.639191e-001 6.954176e-001 6.775573e-001 7.660379e-001 7.134541e-001 6.564442e-001 7.161632e-001 2.676915e-002 4.250117e-002 4.699477e-002 7.118362e-002 1.052198e-001 1.012772e-001 1.191224e-001 1.273087e-001 1.541917e-001 1.191051e-001 2.781564e-001 1.277076e-001 1.441800e-001 6.388001e-003
<GCONST> 6.110907e+001
<STATE> 3
<NUMMIXES> 3
<MIXTURE> 1 2.653474e-001
<MEAN> 39
 -1.347631e+001 -1.431290e+000 -2.917436e+000 -1.267943e+001 -3.891318e+000 -8.312529e+000 -3.041719e+000 -5.908581e+000 -5.040825e-001 -2.790147e+000 -2.678416e+000 -3.243504e+000 1.514182e+001 1.909228e+000 9.569470e-001 1.653286e+000 -6.548081e-001 -1.211193e+000 -1.582796e-001 9.230810e-001 1.485637e-001 6.904765e-001 1.287030e+000 1.633963e-001 4.255548e-001 8.533247e-001 1.594500e-001 -1.872410e-002 4.907443e-002 -3.232859e-001 -4.757650e-001 6.765600e-002 -8.990716e-002 1.497731e-001 1.360423e-001 1.790690e-001 1.235270e-001 -2.140605e-002 1.391690e-001
<VARIANCE> 39
 1.829180e+001 1.306421e+001 1.558124e+001 2.732088e+001 1.482764e+001 3.703911e+001 2.244559e+001 1.636226e+001 2.903435e+001 3.147561e+001 1.877001e+001 2.422952e+001 3.154656e+000 7.323866e-001 7.966275e-001 4.534569e-001 1.258119e+000 1.028209e+000 1.107714e+000 1.023403e+000 1.155859e+000 1.379492e+000 1.105395e+000 1.079288e+000 1.062742e+000 1.140189e-001 1.437919e-001 9.009184e-002 1.009575e-001 1.087385e-001 1.263064e-001 1.954459e-001 2.758043e-001 1.505305e-001 1.653610e-001 2.697103e-001 1.505184e-001 1.752857e-001 1.291498e-002
<GCONST> 8.025817e+001
<MIXTURE> 2 4.134329e-001
<MEAN> 39
 -1.437479e+001 -4.630859e+000 -5.828783e+000 -1.318736e+001 -2.938040e+000 -9.670007e+000 -4.318805e+000 -4.736628e+000 9.443437e-001 -6.984259e+000 1.979990e+000 -6.434629e+000 1.313957e+001 1.828268e+000 1.375949e+000 6.096472e-001 -1.481777e+000 -5.459664e-001 -3.089784e-001 1.295016e-001 -3.143049e-001 6.711968e-001 -1.389549e+000 -8.194252e-001 -1.104842e+000 8.959000e-001 3.110146e-001 1.693195e-001 1.888068e-001 -5.136102e-001 -8.232695e-002 -3.653009e-002 2.170251e-001 -2.806597e-002 1.504585e-001 -1.186106e-001 -3.705472e-001 -3.092152e-001 1.914851e-001
<VARIANCE> 39
 1.062479e+001 1.215695e+001 1.110863e+001 2.447907e+001 1.288888e+001 2.014709e+001 1.524403e+001 1.640274e+001 1.878046e+001 3.133878e+001 1.857365e+001 1.521213e+001 3.451979e+000 8.254874e-001 6.570659e-001 4.452706e-001 1.041569e+000 6.413006e-001 6.693537e-001 7.749140e-001 9.227350e-001 7.607417e-001 1.184916e+000 1.262482e+000 1.472024e+000 1.103016e-001 1.244680e-001 9.265075e-002 7.965416e-002 1.123219e-001 1.022172e-001 1.358040e-001 1.201969e-001 1.516922e-001 1.194111e-001 2.662944e-001 2.563564e-001 2.217734e-001 1.295076e-002
<GCONST> 7.411252e+001
<MIXTURE> 3 3.212195e-001
<MEAN> 39
 -1.512606e+001 -2.134463e+000 -5.655920e+000 -1.188667e+001 -6.118177e+000 -6.636263e+000 -3.699580e+000 -5.525918e+000 5.593758e-002 -3.181110e-001 -3.517730e+000 -2.087735e+000 1.373840e+001 2.076225e+000 7.916620e-001 1.709419e+000 -6.881657e-001 -1.033049e+000 -8.659490e-001 9.076333e-001 -3.540103e-001 -2.068778e-001 1.120638e+000 -2.748084e-001 -2.787034e-001 8.409525e-001 2.579340e-001 3.927753e-002 2.170258e-001 -3.298746e-001 -5.339038e-001 -1.983392e-001 -1.016943e-002 -7.068288e-002 -1.283562e-001 1.503733e-002 -9.259840e-002 -3.624422e-001 1.927601e-001
<VARIANCE> 39
 1.381920e+001 1.305071e+001 2.194323e+001 2.300879e+001 1.962172e+001 3.013802e+001 2.552934e+001 1.954733e+001 2.485650e+001 2.307311e+001 2.396104e+001 2.234015e+001 2.156618e+000 4.420906e-001 5.090677e-001 5.355339e-001 1.249627e+000 8.866611e-001 1.011632e+000 8.963127e-001 1.210091e+000 9.260502e-001 7.372480e-001 7.950695e-001 8.845829e-001 8.861496e-002 1.345972e-001 1.024477e-001 1.898830e-001 1.265314e-001 1.344193e-001 1.822926e-001 2.822682e-001 1.669736e-001 1.359467e-001 2.267798e-001 1.453337e-001 1.709726e-001 1.032261e-002
<GCONST> 7.749314e+001
<STATE> 4
<NUMMIXES> 3
<MIXTURE> 1 2.248519e-001
<MEAN> 39
 -7.502378e+000 5.400815e-003 -7.191157e-001 -2.243268e+001 -7.580748e+000 -6.744090e+000 -3.502257e-001 -4.045078e+000 4.203214e+000 -4.194267e+000 -3.123692e+000 -5.775080e+000 1.829216e+001 -1.395540e-001 1.409131e-001 7.902916e-002 -4.402789e-001 7.083430e-001 4.697312e-001 -2.714605e-001 8.363803e-001 1.223604e-002 -8.802579e-002 6.422069e-001 3.318816e-001 -8.609218e-002 -2.757350e-002 3.951642e-002 1.034358e-001 2.737997e-001 1.462691e-001 -1.655132e-001 -2.215249e-001 -1.171321e-002 -2.652343e-001 6.380587e-002 1.282279e-001 1.857408e-002 -1.257194e-001
<VARIANCE> 39
 6.392572e+000 1.022276e+001 1.081538e+001 1.126801e+001 4.849260e+001 1.275110e+001 2.172429e+001 1.491775e+001 1.976505e+001 2.943637e+001 3.581610e+001 3.859627e+001 2.104241e+000 1.705148e-001 2.513095e-001 4.169171e-001 4.042568e-001 4.622295e-001 8.348483e-001 1.631109e+000 8.586579e-001 1.171156e+000 1.016151e+000 9.540555e-001 7.253141e-001 4.213157e-002 5.374573e-002 4.697168e-002 7.831933e-002 1.005447e-001 1.160865e-001 8.459027e-002 1.360023e-001 1.032632e-001 1.543167e-001 1.125799e-001 1.396782e-001 1.763324e-001 9.714705e-003
<GCONST> 6.619705e+001
<MIXTURE> 2 4.757651e-001
<MEAN> 39
 -5.843234e+000 5.716435e-001 2.911913e-001 -1.893891e+001 -1.110193e+001 -1.143069e+001 -1.531509e+000 -7.069858e+000 8.206133e-001 -3.166605e+000 -4.805211e+000 -8.092517e+000 1.816401e+001 9.094617e-001 4.093226e-001 6.859022e-001 -1.612909e+000 -8.399610e-001 1.174524e-001 1.765717e-001 2.763038e-001 4.622705e-001 -8.811861e-002 -5.079023e-001 -6.719292e-001 7.300625e-001 -5.337657e-001 -2.297268e-001 -2.675140e-001 1.370137e-001 4.044169e-001 2.780035e-001 -3.359742e-001 2.259568e-001 -7.588841e-002 -1.163105e-001 2.299858e-001 1.971332e-001 -2.326914e-001
<VARIANCE> 39
 6.929200e+000 9.837292e+000 1.115587e+001 2.895359e+001 2.761884e+001 1.493236e+001 2.336567e+001 2.367309e+001 3.359898e+001 9.241780e+001 2.907011e+001 4.679911e+001 1.648904e+000 1.148247e+000 8.844348e-001 1.047510e+000 1.111361e+000 1.775717e+000 1.634271e+000 2.169865e+000 1.179520e+000 1.265904e+000 2.044211e+000 1.784385e+000 2.114807e+000 1.639318e-001 6.205456e-002 7.956023e-002 9.420628e-002 2.188798e-001 1.683746e-001 2.018618e-001 2.694433e-001 1.973537e-001 2.321282e-001 4.995919e-001 2.215824e-001 2.750108e-001 1.826198e-002
<GCONST> 8.795042e+001
<MIXTURE> 3 2.993825e-001
<MEAN> 39
 -8.126847e+000 -3.692437e-001 -3.563720e+000 -2.399666e+001 -2.538246e+000 -7.807814e+000 8.426141e-001 -2.998371e+000 3.394481e+000 -8.295752e+000 -1.850029e+000 -7.715443e+000 1.812199e+001 -2.428527e-001 5.387644e-002 5.113811e-002 -2.312739e-001 4.859267e-001 -3.510744e-001 -3.165354e-001 3.904918e-001 -7.452509e-001 3.484261e-001 -2.098557e-001 1.026047e-001 -1.639836e-001 1.867161e-002 2.925783e-002 1.422775e-001 2.462438e-001 -9.819578e-002 -2.279240e-001 -2.461671e-001 -1.417975e-001 -1.800805e-001 9.752484e-002 -4.963714e-002 -4.414683e-003 -1.124467e-001
<VARIANCE> 39
 7.582528e+000 1.042131e+001 1.045990e+001 8.823124e+000 3.008329e+001 2.152537e+001 1.473168e+001 1.680133e+001 2.072526e+001 3.171448e+001 3.826655e+001 5.720702e+001 1.305043e+000 1.694107e-001 2.145037e-001 3.897509e-001 4.274871e-001 6.504212e-001 1.016393e+000 1.106851e+000 8.760176e-001 8.745998e-001 1.060230e+000 1.059902e+000 1.300821e+000 3.642872e-002 4.494646e-002 4.707400e-002 5.975801e-002 1.008288e-001 1.143736e-001 1.494290e-001 1.232152e-001 1.601772e-001 1.742466e-001 1.533707e-001 1.603944e-001 2.521550e-001 9.312654e-003
<GCONST> 6.761271e+001
<STATE> 5
<NUMMIXES> 3
<MIXTURE> 1 5.046573e-001
<MEAN> 39
 -6.520683e+000 7.588741e-001 3.200166e+000 -2.167442e+001 -1.226129e+001 -7.130838e+000 -7.325139e+000 -2.788026e+000 5.607854e-001 -1.885453e+000 -2.274369e+000 -6.171254e+000 1.831423e+001 2.182620e-001 6.411793e-001 1.235355e+000 4.859666e-001 6.289439e-001 5.719630e-001 -1.620499e+000 3.672828e-002 -1.003693e-001 -6.487816e-001 5.085373e-001 3.606191e-001 -6.148733e-001 -1.708317e-001 -1.434509e-001 -3.036937e-001 7.565433e-001 4.219354e-001 -1.640419e-001 4.401155e-001 -2.204406e-001 -2.562722e-002 -5.363168e-002 7.064418e-002 9.373644e-002 -3.385836e-001
<VARIANCE> 39
 1.309634e+001 2.588451e+001 2.563005e+001 3.791492e+001 8.003482e+001 4.585965e+001 5.375556e+001 3.937694e+001 2.120830e+001 3.489304e+001 3.727771e+001 3.903627e+001 2.344263e+000 8.313293e-001 7.886770e-001 8.870890e-001 2.434383e+000 2.698364e+000 2.174100e+000 2.115047e+000 2.386146e+000 2.373870e+000 3.202922e+000 1.658419e+000 1.817159e+000 3.001212e-001 1.751318e-001 2.785372e-001 3.369997e-001 2.967606e-001 6.931183e-001 5.054352e-001 5.850065e-001 4.531747e-001 3.200713e-001 3.718698e-001 3.213138e-001 3.111708e-001 1.895732e-002
<GCONST> 1.045573e+002
<MIXTURE> 2 2.399551e-001
<MEAN> 39
 -7.012392e+000 3.169772e+000 3.011915e+000 -2.422707e+001 -4.335452e+000 -1.186690e+001 -7.916037e+000 -1.479720e+000 -2.583107e+000 -5.498111e+000 -4.275152e+000 -8.678161e+000 1.672960e+001 -2.504497e-001 -1.359172e-001 1.581941e-001 2.134748e+000 5.467768e-001 -1.634894e-001 -3.331959e-001 -1.978097e-001 -3.133906e-001 4.776152e-001 8.024980e-001 4.052731e-001 -9.770285e-001 -2.916009e-001 -5.059677e-001 -5.065929e-001 5.383113e-001 -1.720824e-001 1.993155e-001 4.815670e-001 -3.510494e-001 2.804299e-001 6.868657e-002 1.174798e-001 2.513127e-001 -1.858300e-001
<VARIANCE> 39
 9.548972e+000 1.358336e+001 2.716069e+001 1.921732e+001 3.017848e+001 4.841832e+001 6.296905e+001 2.642799e+001 2.807251e+001 3.572062e+001 4.814082e+001 3.613718e+001 3.046366e+000 3.712410e-001 5.323635e-001 8.309776e-001 1.532241e+000 2.564318e+000 1.357223e+000 1.686044e+000 8.935243e-001 1.462442e+000 2.210543e+000 1.204382e+000 1.841683e+000 2.908253e-001 7.431778e-002 8.250617e-002 1.836849e-001 1.934963e-001 1.949989e-001 3.500396e-001 4.787973e-001 1.974202e-001 3.014112e-001 2.894224e-001 4.564779e-001 2.249418e-001 1.451311e-002
<GCONST> 9.157954e+001
<MIXTURE> 3 2.553868e-001
<MEAN> 39
 -7.808414e+000 2.320862e+000 3.851507e+000 -2.021148e+001 -5.039726e+000 -9.221724e+000 -8.454112e+000 -3.230149e+000 -9.096862e-002 -4.673900e+000 -1.141745e+000 -6.299856e+000 1.670184e+001 -6.525909e-001 -6.903026e-001 -5.801397e-001 1.420688e+000 1.345612e+000 -6.332483e-001 5.267349e-004 -4.143919e-001 -7.622035e-001 -2.271326e-001 3.622092e-001 -8.151628e-002 -8.176998e-001 -2.255462e-001 -4.842868e-001 -5.709690e-001 1.118681e-001 -1.943178e-001 -8.110034e-002 4.716499e-001 -2.112420e-001 6.079936e-002 1.102275e-001 -1.060308e-001 4.398556e-003 -6.994138e-002
<VARIANCE> 39
 4.471721e+000 1.026608e+001 1.810516e+001 1.956360e+001 3.468239e+001 3.542344e+001 5.241944e+001 2.837477e+001 2.287210e+001 2.214668e+001 2.735202e+001 2.711958e+001 3.149439e+000 3.043798e-001 5.306928e-001 8.601640e-001 9.206366e-001 2.280612e+000 1.513652e+000 2.007666e+000 1.162877e+000 9.148775e-001 1.453405e+000 1.023188e+000 1.566794e+000 1.077676e-001 2.556749e-002 5.630889e-002 9.354892e-002 1.227157e-001 1.612436e-001 2.650692e-001 3.601852e-001 2.230972e-001 1.983197e-001 2.822048e-001 2.449867e-001 1.621552e-001 9.251107e-003
<GCONST> 8.085940e+001
<STATE> 6
<NUMMIXES> 3
<MIXTURE> 1 2.659446e-001
<MEAN> 39
 -5.140793e+000 3.813813e+000 4.957495e+000 -1.017230e+001 -7.487635e+000 -6.144050e+000 -7.154205e+000 -4.442376e+000 1.487103e-002 -3.653301e+000 -5.641549e-001 -3.570734e+000 1.112434e+001 -9.918530e-001 -1.620546e+000 -1.205960e+000 2.678080e+000 -2.089809e-001 2.418865e-001 1.345171e+000 -4.633597e-001 4.054136e-001 3.516001e-001 5.454301e-001 8.517479e-001 -1.221128e+000 -4.265599e-001 -7.200588e-001 -4.958279e-001 -4.378810e-001 -9.923674e-002 -4.626470e-002 4.315862e-001 3.492855e-002 5.950325e-002 -4.573262e-002 -7.050542e-002 -1.820064e-001 2.962291e-001
<VARIANCE> 39
 3.146720e+001 4.232779e+001 4.062058e+001 3.628909e+001 4.156258e+001 4.538894e+001 3.410901e+001 3.975873e+001 3.694705e+001 5.000432e+001 3.758710e+001 1.967724e+001 8.767171e+000 1.346714e+000 1.887538e+000 2.309031e+000 2.724608e+000 4.049958e+000 3.038889e+000 3.443333e+000 2.174595e+000 1.822764e+000 1.458196e+000 1.786785e+000 1.625373e+000 8.041469e-001 2.968756e-001 4.457271e-001 4.118743e-001 2.619362e-001 3.427396e-001 4.004301e-001 3.113155e-001 2.887659e-001 3.621796e-001 4.380193e-001 2.538143e-001 2.476565e-001 6.091624e-002
<GCONST> 1.102918e+002
<MIXTURE> 2 3.981262e-001
<MEAN> 39
 -1.015585e+001 -9.212663e-001 1.643457e-001 -1.504814e+001 -1.892872e+000 -9.813331e+000 -3.868631e+000 -4.789085e+000 -1.568504e+000 -4.627379e+000 -1.491137e+000 -6.776161e+000 1.428106e+001 -8.700106e-001 -1.302107e+000 -1.315763e+000 8.505878e-001 6.904615e-001 -7.204894e-001 6.253051e-001 -4.606638e-001 -2.804472e-001 -7.136960e-003 1.646914e-001 1.090488e-002 -6.606028e-001 -4.661565e-002 -1.906207e-001 -1.850267e-001 -3.014938e-001 -5.611655e-001 2.016215e-002 4.434565e-002 5.217821e-002 1.708582e-001 1.140646e-001 -6.895288e-002 3.994710e-002 1.424055e-001
<VARIANCE> 39
 4.480233e+000 5.650853e+000 1.087576e+001 1.562243e+001 1.447121e+001 1.860524e+001 2.057942e+001 1.867109e+001 2.323503e+001 1.850337e+001 1.856631e+001 1.550010e+001 7.424615e+000 2.663672e-001 7.511510e-001 1.013351e+000 8.878875e-001 2.330867e+000 1.763257e+000 2.312995e+000 1.501622e+000 1.099748e+000 1.493249e+000 1.382876e+000 1.509609e+000 1.108346e-001 4.747888e-002 6.097582e-002 1.089982e-001 1.428234e-001 2.362239e-001 1.778348e-001 2.360364e-001 1.729649e-001 1.974387e-001 2.291083e-001 1.523822e-001 1.630185e-001 1.175747e-002
<GCONST> 7.768752e+001
<MIXTURE> 3 3.359288e-001
<MEAN> 39
 -9.602876e+000 -2.824615e+000 -2.010273e+000 -7.140438e+000 -7.649200e+000 -7.849154e+000 -3.060076e+000 -4.284030e+000 4.042892e-001 -2.218975e+000 1.185096e-001 -1.947155e+000 8.064833e+000 -1.281069e+000 -2.681023e+000 -9.957187e-001 9.068264e-001 -6.218633e-001 3.119397e-001 1.304140e+000 -4.628107e-001 5.205921e-002 -3.186397e-001 9.774773e-002 3.475765e-002 -1.052037e-002 -9.258788e-002 1.022803e-001 3.778271e-001 -7.596774e-001 -5.670776e-002 1.602613e-001 -1.572396e-001 -3.576159e-002 -6.436545e-002 -1.546890e-001 -1.498449e-001 -3.547934e-001 5.077766e-001
<VARIANCE> 39
 1.731877e+001 4.379088e+001 2.475121e+001 1.617968e+001 2.070146e+001 2.202834e+001 2.116736e+001 1.638008e+001 2.211303e+001 2.375473e+001 1.789861e+001 1.323716e+001 7.126733e+000 1.855887e+000 2.205674e+000 2.026644e+000 2.154285e+000 1.846433e+000 2.865287e+000 2.027669e+000 1.353813e+000 1.872647e+000 1.838132e+000 1.256089e+000 1.436931e+000 8.684292e-001 2.410562e-001 4.808944e-001 3.317649e-001 2.902071e-001 4.526664e-001 3.095747e-001 3.665156e-001 1.931250e-001 2.739134e-001 2.725700e-001 1.745555e-001 1.489001e-001 6.670238e-002
<GCONST> 9.915127e+001
<STATE> 7
<NUMMIXES> 3
<MIXTURE> 1 4.992532e-001
<MEAN> 39
 -1.435642e+001 -9.488145e+000 -1.391528e-001 -9.787997e+000 -1.132386e+001 -5.310766e+000 -1.031152e-001 -6.999823e+000 1.757662e-001 -3.256482e+000 -7.165605e-001 -4.797737e+000 1.318750e+001 -1.589168e+000 3.850629e-001 -1.016131e-001 -2.808842e-001 -3.458352e-001 1.196169e+000 4.796289e-002 -5.403020e-001 3.026201e-001 1.803015e-001 -3.248883e-001 -2.484298e-001 3.472334e-001 1.207791e-001 6.988466e-001 -1.421967e-001 -6.309047e-002 4.392853e-001 -7.305373e-002 -3.875277e-001 1.475500e-001 -1.413357e-003 -3.417929e-002 -3.901520e-002 5.652060e-002 -1.696326e-001
<VARIANCE> 39
 2.818301e+001 3.159375e+001 1.783738e+001 3.221677e+001 2.231250e+001 2.674637e+001 2.221179e+001 2.522965e+001 2.855121e+001 2.048193e+001 1.838992e+001 1.571038e+001 1.981289e+000 9.509425e-001 2.185557e+000 1.255064e+000 1.050215e+000 1.720685e+000 1.072136e+000 1.272220e+000 1.062646e+000 1.307753e+000 1.184408e+000 9.283311e-001 7.953161e-001 3.161366e-001 2.500032e-001 3.745508e-001 2.297766e-001 2.215664e-001 1.921443e-001 2.899687e-001 1.997131e-001 2.321831e-001 2.340546e-001 2.066556e-001 1.442293e-001 1.419407e-001 4.433389e-002
<GCONST> 8.983002e+001
<MIXTURE> 2 2.444151e-001
<MEAN> 39
 -1.267908e+001 -5.527341e+000 -4.339715e+000 -1.644100e+001 -3.671084e+000 -1.241413e+001 -4.368642e+000 -5.180468e+000 -1.185413e+000 -4.086574e+000 -2.784820e-001 -6.577314e+000 1.395659e+001 -6.445937e-001 -9.121540e-001 -3.829845e-001 4.667168e-001 -1.202041e+000 2.685774e-001 2.625607e-001 -1.586472e-001 2.164229e-001 5.382119e-001 2.271870e-002 3.483427e-001 -3.702619e-002 8.056498e-002 3.866671e-001 3.205742e-001 -5.614196e-002 -2.861589e-001 3.761537e-001 -1.648644e-001 -7.122272e-003 4.108382e-002 8.965620e-002 -1.264564e-001 2.849879e-002 1.410748e-001
<VARIANCE> 39
 2.190804e+000 6.911384e+000 7.329778e+000 9.660896e+000 1.426057e+001 1.660445e+001 1.775722e+001 2.136309e+001 1.728798e+001 1.498186e+001 1.344777e+001 1.239265e+001 2.531355e+000 1.434803e-001 6.423389e-001 7.350394e-001 6.271503e-001 1.291459e+000 1.240729e+000 1.009999e+000 1.004002e+000 1.126066e+000 8.010264e-001 1.036941e+000 6.612029e-001 6.805195e-002 2.349920e-002 1.054842e-001 1.377779e-001 1.795290e-001 2.482033e-001 2.016442e-001 1.988060e-001 1.621438e-001 1.872613e-001 1.638455e-001 1.513446e-001 1.029875e-001 8.541740e-003
<GCONST> 6.728342e+001
<MIXTURE> 3 2.563315e-001
<MEAN> 39
 -1.259068e+001 -4.904139e+000 -4.341242e+000 -1.741389e+001 -3.761986e+000 -1.228856e+001 -4.308963e+000 -5.724967e+000 -1.898216e+000 -4.222258e+000 -1.050624e+000 -6.823168e+000 1.408143e+001 -8.831614e-001 -1.213222e+000 -1.170677e+000 1.694974e-001 -5.558723e-001 -3.527564e-001 7.916876e-002 -5.478794e-001 -1.357223e-001 2.357315e-001 2.349815e-001 1.663605e-001 -3.212714e-001 1.359620e-001 2.510035e-001 2.797771e-001 -1.945034e-001 -4.068805e-001 2.323383e-001 -1.937803e-001 2.363568e-002 9.344531e-002 -2.706834e-002 -1.384520e-001 2.510139e-002 1.998724e-001
<VARIANCE> 39
 2.729158e+000 4.672627e+000 5.775486e+000 8.250145e+000 1.477159e+001 1.398471e+001 1.199546e+001 1.879070e+001 1.757954e+001 1.622266e+001 1.698455e+001 1.476546e+001 2.285722e+000 1.875093e-001 5.052195e-001 6.780936e-001 6.759501e-001 1.292734e+000 1.134922e+000 1.403549e+000 9.881977e-001 1.084728e+000 1.062250e+000 9.295626e-001 9.065006e-001 5.725690e-002 3.093984e-002 7.847577e-002 1.178262e-001 1.349256e-001 3.328677e-001 2.664201e-001 2.540819e-001 1.950118e-001 1.725520e-001 2.449550e-001 1.782313e-001 1.719080e-001 8.827682e-003
<GCONST> 6.855492e+001
<STATE> 8
<NUMMIXES> 3
<MIXTURE> 1 3.889901e-001
<MEAN> 39
 -1.511534e+001 -3.090545e+000 -3.577068e+000 -7.609380e+000 -7.311120e+000 -4.193632e+000 -2.993275e+000 -6.634700e+000 -2.100628e+000 -2.251272e+000 -1.349612e+000 -6.023552e+000 1.152521e+001 6.788111e-001 3.151796e-001 1.149090e-001 2.487945e-001 4.002534e-001 -1.272312e-001 -1.541385e-001 1.312671e-001 -2.819179e-001 8.906337e-003 -1.569719e-001 -1.793349e-002 -2.104109e-001 9.189193e-002 -8.803918e-002 -1.453779e-002 -8.397495e-002 1.208962e-001 -1.325491e-001 4.635600e-002 8.159630e-002 6.939439e-002 -1.000407e-001 4.885573e-002 5.189200e-002 -3.803874e-002
<VARIANCE> 39
 2.806493e+001 2.065412e+001 2.087715e+001 3.471692e+001 3.970374e+001 2.964785e+001 3.105850e+001 3.176747e+001 3.278304e+001 4.078814e+001 3.243636e+001 2.095731e+001 5.931434e+000 1.141609e+000 1.023202e+000 1.131574e+000 1.285003e+000 1.772747e+000 1.208402e+000 1.489268e+000 1.177902e+000 1.322372e+000 1.529630e+000 1.358813e+000 8.292579e-001 1.295650e-001 1.820200e-001 1.599325e-001 1.447123e-001 1.713160e-001 2.903607e-001 2.229510e-001 2.938931e-001 2.302515e-001 2.218793e-001 2.599308e-001 2.194965e-001 1.390407e-001 1.106743e-002
<GCONST> 9.121430e+001
<MIXTURE> 2 3.351029e-001
<MEAN> 39
 -1.750451e+001 -5.494862e+000 -5.739826e+000 -1.133383e+001 -6.029385e+000 -5.439376e+000 -4.060539e+000 -5.535043e+000 2.082960e+000 -4.466768e+000 -1.278339e+000 -4.040406e+000 1.187228e+001 -2.174428e-003 3.899713e-002 -4.311998e-001 1.157057e-001 2.256923e-001 -1.389023e-001 -9.788010e-002 2.784127e-001 5.574955e-002 1.804895e-004 5.290053e-002 6.800064e-002 -8.031320e-002 2.124224e-001 2.714037e-002 2.004641e-001 2.686795e-002 -5.466654e-002 -8.815174e-002 1.063237e-001 3.543492e-003 -1.146533e-001 4.167197e-002 -1.991809e-002 -6.709068e-002 2.985317e-002
<VARIANCE> 39
 1.034412e+001 1.396376e+001 1.241354e+001 2.349914e+001 2.435628e+001 3.356810e+001 1.768017e+001 1.934518e+001 2.333332e+001 2.277940e+001 2.050797e+001 2.219873e+001 4.920020e+000 3.222055e-001 4.390137e-001 5.781845e-001 5.763056e-001 7.182440e-001 8.893067e-001 7.693033e-001 8.911679e-001 9.737871e-001 7.775106e-001 7.759038e-001 6.608350e-001 3.151255e-002 6.374105e-002 1.118464e-001 7.527880e-002 1.052265e-001 1.596139e-001 1.924208e-001 1.437691e-001 1.357236e-001 1.504371e-001 1.292807e-001 1.550395e-001 1.254385e-001 6.671346e-003
<GCONST> 7.048148e+001
<MIXTURE> 3 2.759061e-001
<MEAN> 39
 -1.712545e+001 -4.455272e+000 -4.675329e+000 -1.271930e+001 -7.071799e+000 -5.480165e+000 -4.755218e+000 -6.604743e+000 1.427463e+000 -4.011346e+000 -2.047483e+000 -4.871700e+000 1.268741e+001 -2.043249e-001 2.151719e-001 -5.561434e-001 -1.095549e-002 2.372618e-001 -2.740625e-001 -5.122355e-001 -1.491087e-001 -2.930616e-001 -2.388877e-001 -2.256527e-001 -2.389590e-001 -1.629148e-001 2.501258e-001 -8.805654e-002 7.617667e-002 -1.601333e-002 2.947389e-002 -1.896215e-001 3.086370e-002 6.332625e-002 -1.267864e-001 -1.426294e-002 8.230171e-002 -6.009100e-002 1.372148e-003
<VARIANCE> 39
 8.576311e+000 1.170107e+001 1.595762e+001 2.630002e+001 2.610010e+001 3.476088e+001 1.897132e+001 1.959111e+001 2.367819e+001 2.387506e+001 1.878449e+001 1.584951e+001 4.645457e+000 5.425864e-001 7.074574e-001 6.514204e-001 7.077662e-001 8.613886e-001 7.808365e-001 7.744587e-001 7.627391e-001 8.655034e-001 6.533251e-001 7.689319e-001 6.293368e-001 3.346475e-002 7.223839e-002 1.062998e-001 9.828039e-002 1.110844e-001 1.960727e-001 2.203444e-001 1.465766e-001 1.479288e-001 1.387570e-001 1.584004e-001 1.463721e-001 1.002005e-001 9.329429e-003
<GCONST> 7.220113e+001
<STATE> 9
<NUMMIXES> 3
<MIXTURE> 1 3.781300e-001
<MEAN> 39
 -1.346398e+001 -3.994768e+000 -4.060829e+000 -1.129951e+001 -5.887389e+000 -8.089571e+000 -3.607941e+000 -4.775400e+000 -1.570927e+000 -3.720299e+000 -2.175930e+000 -5.316471e+000 1.217150e+001 4.379206e-001 5.008496e-002 6.606980e-002 -2.833843e-001 3.597633e-001 -6.171510e-001 1.637886e-001 2.439697e-001 -1.741451e-001 -7.951442e-002 3.192446e-001 7.939842e-002 -1.160090e-001 -1.362555e-002 -3.751517e-002 1.028132e-002 -2.156948e-002 -4.395407e-002 3.242376e-002 5.330536e-003 -8.612794e-002 1.219581e-002 -4.904443e-002 1.116272e-001 6.603684e-003 3.934213e-002
<VARIANCE> 39
 1.871400e+001 1.747592e+001 1.554773e+001 3.593747e+001 2.449353e+001 2.823736e+001 1.863727e+001 2.270362e+001 2.385369e+001 2.450601e+001 1.793335e+001 1.709142e+001 9.282494e+000 4.523080e-001 6.931747e-001 4.818361e-001 1.166539e+000 1.056063e+000 1.361317e+000 1.366957e+000 8.786333e-001 1.027017e+000 9.471580e-001 7.960540e-001 5.930300e-001 8.249805e-002 1.624717e-001 1.205534e-001 9.545576e-002 2.368932e-001 1.702259e-001 1.965862e-001 1.881758e-001 1.660245e-001 1.562998e-001 1.617378e-001 1.228292e-001 1.124014e-001 1.610215e-002
<GCONST> 7.956635e+001
<MIXTURE> 2 3.900680e-001
<MEAN> 39
 -1.370308e+001 -5.130354e+000 -4.869771e+000 -1.750935e+001 -5.865702e+000 -1.229536e+001 -5.890063e+000 -6.563270e+000 -1.594902e+000 -3.603933e+000 -1.178686e+000 -6.688369e+000 1.441587e+001 5.814933e-002 -8.074617e-002 6.386848e-002 1.417750e-001 9.133772e-002 -2.210433e-001 -2.414478e-002 -3.999831e-002 -9.687222e-002 -6.734039e-002 2.040716e-001 1.088832e-001 1.625178e-002 1.158153e-001 8.992731e-002 1.492516e-001 1.057011e-001 7.261692e-002 1.036737e-001 1.314212e-001 1.055797e-001 1.644557e-002 5.315772e-003 -6.236981e-003 7.987372e-002 4.077566e-002
<VARIANCE> 39
 2.910399e+000 6.064641e+000 6.130281e+000 1.269363e+001 1.067525e+001 1.764351e+001 1.556453e+001 1.314625e+001 1.609355e+001 1.872744e+001 1.698509e+001 1.372965e+001 2.259887e+000 1.401834e-001 3.747802e-001 3.468404e-001 7.811944e-001 6.803948e-001 7.756784e-001 6.933695e-001 7.171417e-001 9.157283e-001 7.644445e-001 6.897608e-001 5.520814e-001 1.991630e-002 2.461000e-002 6.183897e-002 6.002990e-002 1.692563e-001 9.514786e-002 1.662243e-001 1.589927e-001 1.381531e-001 1.716420e-001 1.685942e-001 1.366083e-001 9.619008e-002 4.113139e-003
<GCONST> 5.819886e+001
<MIXTURE> 3 2.318026e-001
<MEAN> 39
 -1.382445e+001 -4.815598e+000 -5.001080e+000 -1.737894e+001 -7.046525e+000 -1.188184e+001 -5.614019e+000 -6.610250e+000 -2.096476e+000 -3.185846e+000 -1.715586e+000 -6.623741e+000 1.434804e+001 -3.924686e-002 4.014470e-002 -2.852738e-001 -3.060760e-001 9.899461e-002 -1.728457e-001 -3.771445e-001 -3.326435e-001 -5.271894e-001 -4.259231e-001 6.052897e-002 -2.318967e-002 -4.182841e-002 6.354164e-002 6.545523e-003 1.202731e-001 3.322185e-002 8.427484e-002 3.191917e-002 6.410930e-002 6.741665e-002 5.508798e-002 -4.138464e-002 1.127008e-002 1.400832e-002 1.480241e-002
<VARIANCE> 39
