~o
<STREAMINFO> 1 39
<VECSIZE> 39<NULLD><MFCC_E_D_A><DIAGC>
~s "silst"
<MEAN> 39
 -1.274458e+001 -4.690615e+000 -4.491885e+000 -1.729698e+001 -3.761166e+000 -1.284377e+001 -5.140076e+000 -6.144452e+000 -1.654452e+000 -4.468957e+000 -9.749439e-001 -6.422507e+000 1.441368e+001 -2.805156e-002 -1.839308e-002 -4.245263e-002 -1.562736e-002 -3.324762e-002 -5.182213e-003 -1.230570e-002 -1.188898e-003 -4.952347e-003 -9.538690e-003 -2.365379e-003 6.178461e-003 -3.891607e-003 2.805943e-002 2.143922e-002 2.373024e-002 2.702905e-002 1.686139e-002 1.842209e-002 1.608859e-002 6.312632e-003 1.314454e-003 -9.311594e-004 -4.264026e-003 -3.730524e-003 9.545296e-003
<VARIANCE> 39
 5.022029e+000 5.890251e+000 7.383033e+000 1.301657e+001 1.325322e+001 1.469103e+001 1.575152e+001 1.682349e+001 1.602917e+001 1.782148e+001 1.682669e+001 1.408298e+001 3.902731e+000 1.059164e-001 1.947519e-001 3.109911e-001 4.518269e-001 5.488990e-001 6.055601e-001 6.873074e-001 6.993756e-001 7.212066e-001 7.645255e-001 7.349002e-001 6.177034e-001 1.399091e-002 2.095135e-002 3.483086e-002 5.820641e-002 8.032183e-002 1.006149e-001 1.056003e-001 1.260995e-001 1.217234e-001 1.288186e-001 1.327533e-001 1.299115e-001 1.083200e-001 2.353505e-003
<GCONST> 5.393981e+001
~h "four"
<BEGINHMM>
<NUMSTATES> 10
<STATE> 2
<MEAN> 39
 -1.475332e+001 -6.614068e+000 -3.612251e+000 -1.197204e+001 -4.605292e+000 -1.098281e+001 -2.858495e+000 -5.604806e+000 -1.113449e+000 -4.765646e+000 6.684809e-003 -4.601137e+000 1.264666e+001 1.290231e+000 1.705219e-001 -3.570192e-001 -3.918278e-002 4.960190e-001 2.129264e-001 -5.350910e-002 -1.016477e-001 8.918528e-002 9.351407e-002 -5.132198e-002 -1.170254e-001 4.966589e-001 7.015327e-001 2.307803e-001 -3.259467e-001 -1.820101e-001 1.788973e-001 1.367221e-001 -1.041031e-001 -4.234492e-002 -6.527995e-002 5.550657e-002 -3.553680e-002 -1.267100e-001 1.872407e-001
<VARIANCE> 39
 1.152264e+001 8.481859e+000 8.964124e+000 3.150679e+001 1.326317e+001 1.791441e+001 1.754942e+001 1.556904e+001 1.696698e+001 1.738994e+001 1.698703e+001 1.439254e+001 6.135171e+000 2.043926e+000 6.619566e-001 7.402350e-001 7.437145e-001 7.262460e-001 8.253909e-001 6.551760e-001 7.728506e-001 8.124011e-001 8.269347e-001 9.234166e-001 7.315324e-001 1.714601e-001 1.873342e-001 1.006670e-001 1.636777e-001 1.514463e-001 1.420556e-001 1.645944e-001 1.490502e-001 1.674612e-001 1.650168e-001 1.552828e-001 1.899355e-001 1.330787e-001 1.715014e-002
<GCONST> 7.542149e+001
<STATE> 3
<MEAN> 39
 -5.295630e+000 -3.962630e+000 -5.045872e+000 -1.216034e+001 -1.109471e+000 -9.051833e+000 -3.146733e+000 -5.726539e+000 -9.857906e-001 -4.262891e+000 -7.118445e-001 -5.492279e+000 1.555542e+001 3.689698e+000 1.007075e+000 -2.161160e+000 -1.206918e+000 7.465602e-001 5.499923e-001 -4.365064e-001 -2.969021e-001 -3.175493e-001 2.704055e-001 -1.383719e-002 -5.234725e-001 1.137002e+000 -2.003438e-002 7.422508e-002 -3.670010e-001 -3.277344e-001 -1.254122e-001 -1.072153e-002 -3.124305e-002 -2.278214e-002 -1.160720e-001 2.088061e-002 4.255301e-002 -3.936202e-002 1.771856e-002
<VARIANCE> 39
 4.343911e+001 1.521192e+001 1.873359e+001 2.961086e+001 1.313092e+001 1.831340e+001 1.604374e+001 1.927771e+001 1.819956e+001 1.637201e+001 2.115856e+001 1.369610e+001 5.201287e+000 1.681061e+000 1.164691e+000 1.086624e+000 1.347203e+000 1.484518e+000 1.545954e+000 1.335284e+000 1.459231e+000 1.533005e+000 1.639833e+000 2.468106e+000 1.417706e+000 1.333600e-001 2.157897e-001 8.494706e-002 1.115125e-001 1.261762e-001 1.213626e-001 1.494602e-001 1.338724e-001 1.471246e-001 1.946020e-001 2.273414e-001 1.880885e-001 1.664587e-001 1.839769e-002
<GCONST> 8.465400e+001
<STATE> 4
<MEAN> 39
 3.215456e+000 -2.161289e+000 -1.458452e+001 -1.786397e+001 3.171568e-001 -8.723102e+000 -5.301429e+000 -6.854278e+000 -2.084443e+000 -2.915104e+000 -8.952820e-001 -8.004134e+000 1.865672e+001 1.446714e+000 6.087678e-001 -1.441976e+000 -1.057497e+000 1.335226e-001 5.556114e-001 -1.888221e-002 -2.293208e-001 -2.552343e-001 2.623999e-001 2.573740e-001 -9.727637e-002 5.232389e-001 -7.202378e-001 -1.846464e-001 4.806821e-001 2.032408e-001 -2.396550e-001 -4.028198e-002 1.600755e-001 5.731813e-002 1.025397e-002 -9.755013e-002 4.524659e-002 2.102426e-001 -2.220763e-001
<VARIANCE> 39
 2.537061e+001 1.977270e+001 2.096504e+001 3.000158e+001 2.729922e+001 2.372253e+001 2.192498e+001 2.636743e+001 2.992139e+001 3.199432e+001 5.267125e+001 3.422876e+001 1.381500e+000 1.507560e+000 6.757465e-001 1.127782e+000 1.045013e+000 1.284926e+000 1.112614e+000 1.183907e+000 1.174183e+000 1.372464e+000 1.652169e+000 1.520893e+000 1.424700e+000 1.486186e-001 1.437872e-001 1.519178e-001 1.239080e-001 1.827789e-001 1.374168e-001 1.839742e-001 1.805248e-001 2.151292e-001 2.336535e-001 2.326417e-001 2.749121e-001 1.930138e-001 1.012143e-002
<GCONST> 8.743271e+001
<STATE> 5
<MEAN> 39
 2.149462e+000 3.654692e-002 -1.370751e+001 -2.105347e+001 -1.281905e+000 -6.888248e+000 -3.168314e+000 -7.480461e+000 -3.531063e+000 -2.915903e+000 1.370505e+000 -5.651441e+000 1.892086e+001 -3.733429e-002 -2.850569e-001 -1.098585e-002 1.155062e-001 1.433994e-001 1.493369e-001 -2.223537e-001 8.073411e-002 2.591932e-001 1.744049e-001 -6.852586e-003 -1.181149e-001 1.115429e-003 -8.266977e-002 -2.297361e-001 8.529932e-002 2.435606e-001 9.645880e-002 -1.043369e-001 -1.507626e-001 9.915939e-002 2.248977e-001 8.753899e-003 -1.561637e-001 -1.246973e-001 -2.321848e-002
<VARIANCE> 39
 2.918067e+001 1.066020e+001 2.698566e+001 2.671190e+001 3.033151e+001 1.950472e+001 2.147740e+001 1.604783e+001 2.495718e+001 2.772971e+001 3.548441e+001 3.281873e+001 1.406207e+000 1.222086e-001 6.646720e-001 4.280826e-001 6.419315e-001 8.327621e-001 6.178055e-001 9.434497e-001 7.577485e-001 1.175709e+000 1.058791e+000 9.803593e-001 1.061614e+000 8.056544e-003 2.378776e-002 4.684659e-002 7.307643e-002 8.186741e-002 9.339893e-002 1.101508e-001 1.168514e-001 1.311692e-001 1.473571e-001 1.881248e-001 1.797821e-001 1.470091e-001 2.493918e-003
<GCONST> 6.691302e+001
<STATE> 6
<MEAN> 39
 2.307156e+000 -6.545195e+000 -1.405069e+001 -1.567706e+001 1.026223e+000 -7.318321e+000 -8.352738e+000 -5.524757e+000 2.814940e+000 -1.417881e+000 -2.258015e+000 -9.475640e+000 1.889573e+001 -3.147810e-001 -1.658612e+000 7.958596e-001 1.693712e+000 -3.617899e-001 -7.568664e-001 -2.197104e-001 1.218545e+000 9.572486e-001 -8.769130e-001 -1.138723e+000 -1.269398e-001 -4.408290e-002 -5.718385e-002 4.541789e-002 3.116193e-001 8.915954e-002 -4.598948e-001 -1.239904e-001 4.849133e-001 1.273756e-001 -4.195712e-001 -3.874560e-001 1.234973e-001 3.351788e-001 -3.085461e-002
<VARIANCE> 39
 2.472764e+001 1.520378e+001 1.461141e+001 2.741943e+001 4.635709e+001 3.436097e+001 2.577249e+001 4.164536e+001 3.407422e+001 3.338776e+001 4.216116e+001 3.156463e+001 1.610090e+000 1.440662e-001 7.381518e-001 7.863806e-001 1.145776e+000 1.426650e+000 1.463650e+000 1.848802e+000 1.864968e+000 2.792423e+000 3.026507e+000 1.628560e+000 1.728831e+000 1.271953e-002 2.144600e-002 7.777188e-002 7.219088e-002 1.294839e-001 1.641645e-001 2.292679e-001 2.201418e-001 2.953016e-001 3.059982e-001 2.890650e-001 2.903595e-001 2.278178e-001 1.221547e-003
<GCONST> 8.216106e+001
<STATE> 7
<MEAN> 39
 7.670553e-001 -1.267499e+001 -8.481265e+000 -8.615124e+000 -4.666359e+000 -1.069989e+001 -3.215735e+000 3.173443e-002 1.021013e+000 -8.657887e+000 -4.264724e+000 -6.081423e+000 1.853293e+001 -4.259433e-001 -3.991169e-001 1.462918e+000 7.977981e-001 -1.529729e+000 -1.094626e-001 1.416356e+000 4.528215e-002 -1.145571e+000 -6.198147e-001 4.921648e-001 5.362968e-001 -1.718920e-001 -7.379475e-002 4.424907e-001 6.449950e-002 -3.550949e-001 1.258710e-001 2.859359e-001 2.804386e-003 -4.645123e-001 -1.653109e-001 4.277285e-001 2.121265e-001 -1.544742e-001 -4.380314e-002
<VARIANCE> 39
 2.644499e+001 2.749937e+001 1.476493e+001 2.901926e+001 5.689693e+001 4.790091e+001 3.793339e+001 3.759269e+001 4.784993e+001 3.744732e+001 3.064001e+001 3.358899e+001 1.831209e+000 2.850750e-001 8.546375e-001 7.411420e-001 1.098368e+000 1.594437e+000 1.933218e+000 1.577739e+000 1.898052e+000 1.495918e+000 1.883964e+000 1.333772e+000 1.260482e+000 1.946007e-002 2.688114e-002 9.390678e-002 8.442280e-002 1.381119e-001 2.225997e-001 2.363173e-001 2.677947e-001 2.709371e-001 3.784040e-001 3.103800e-001 2.724139e-001 2.062212e-001 2.210225e-003
<GCONST> 8.561569e+001
<STATE> 8
<MEAN> 39
 -7.510665e-001 -9.715029e+000 -9.675245e-001 -7.864394e+000 -9.239709e+000 -7.237689e+000 4.068352e-001 -5.383275e+000 -4.325597e+000 -6.476407e+000 -2.035565e+000 -7.047500e+000 1.705481e+001 -1.193670e+000 1.433973e+000 1.308140e+000 -2.409485e-001 5.691401e-001 4.603536e-001 1.834505e-001 -9.243618e-001 -4.177099e-001 6.791544e-001 8.901380e-002 -6.121711e-002 -4.890756e-001 -2.135921e-001 1.366408e-001 -2.969148e-001 -1.478300e-001 4.382906e-001 -3.148774e-002 -3.397727e-001 9.886770e-002 2.785462e-001 8.380456e-002 -2.410693e-002 4.815286e-002 -7.609078e-002
<VARIANCE> 39
 2.788581e+001 4.564568e+001 3.172719e+001 5.825317e+001 6.252722e+001 7.308263e+001 4.430031e+001 4.436092e+001 4.294524e+001 4.463173e+001 4.533189e+001 3.354283e+001 2.947935e+000 1.134359e+000 1.459292e+000 1.222807e+000 1.871336e+000 2.170575e+000 2.313374e+000 2.190371e+000 2.165939e+000 2.286314e+000 2.287607e+000 1.923933e+000 1.844069e+000 1.322134e-001 1.288683e-001 2.912970e-001 1.855438e-001 2.802010e-001 3.576943e-001 3.365374e-001 3.183614e-001 3.295774e-001 3.366686e-001 3.621932e-001 3.126603e-001 2.447072e-001 1.092544e-002
<GCONST> 1.039230e+002
<STATE> 9
<MEAN> 39
 -9.198148e+000 -4.326300e+000 -5.661023e-002 -9.066517e+000 -3.160177e+000 -6.583237e+000 -1.045794e+000 -6.592508e+000 -2.637081e+000 -3.309701e+000 -3.829111e-001 -5.370021e+000 1.347376e+001 -1.053053e+000 3.297639e-001 -4.796534e-001 -6.692908e-001 2.024639e-001 -2.930315e-001 -5.104823e-001 -4.930936e-002 1.566071e-001 2.416393e-001 1.626164e-001 7.569364e-002 -4.296739e-001 2.358942e-001 -1.979031e-001 -2.107403e-001 -3.124819e-002 -1.886342e-001 -1.267246e-001 -2.463450e-002 7.791594e-002 4.171555e-003 -1.407187e-001 -7.408563e-002 -3.794530e-002 8.722531e-002
<VARIANCE> 39
 2.414543e+001 3.733009e+001 2.382305e+001 5.442148e+001 2.936083e+001 4.328173e+001 2.866761e+001 3.397591e+001 2.918874e+001 2.667090e+001 2.444564e+001 2.361975e+001 9.783595e+000 1.127786e+000 1.593585e+000 1.395225e+000 1.413480e+000 1.665483e+000 1.582219e+000 1.178047e+000 1.409793e+000 1.297315e+000 1.274071e+000 1.441971e+000 1.114667e+000 1.263930e-001 1.223506e-001 2.311708e-001 2.114355e-001 2.251064e-001 2.143980e-001 2.392601e-001 1.825936e-001 2.104478e-001 1.894259e-001 2.058196e-001 1.917311e-001 1.876033e-001 1.361262e-002
<GCONST> 9.291827e+001
<TRANSP> 10
 0.000000e+000 1.000000e+000 0.000000e+000 0.000000e+000 0.000000e+000 0.000000e+000 0.000000e+000 0.000000e+000 0.000000e+000 0.000000e+000
 0.000000e+000 7.378336e-001 2.621663e-001 0.000000e+000 0.000000e+000 0.000000e+000 0.000000e+000 0.000000e+000 0.000000e+000 0.000000e+000
 0.000000e+000 0.000000e+000 4.724593e-001 5.275406e-001 0.000000e+000 0.000000e+000 0.000000e+000 0.000000e+000 0.000000e+000 0.000000e+000
 0.000000e+000 0.000000e+000 0.000000e+000 7.100034e-001 2.899966e-001 0.000000e+000 0.000000e+000 0.000000e+000 0.000000e+000 0.000000e+000
 0.000000e+000 0.000000e+000 0.000000e+000 0.000000e+000 8.563938e-001 1.436062e-001 0.000000e+000 0.000000e+000 0.000000e+000 0.000000e+000
 0.000000e+000 0.000000e+000 0.000000e+000 0.000000e+000 0.000000e+000 7.344158e-001 2.655842e-001 0.000000e+000 0.000000e+000 0.000000e+000
 0.000000e+000 0.000000e+000 0.000000e+000 0.000000e+000 0.000000e+000 0.000000e+000 7.509195e-001 2.490804e-001 0.000000e+000 0.000000e+000
 0.000000e+000 0.000000e+000 0.000000e+000 0.000000e+000 0.000000e+000 0.000000e+000 0.000000e+000 7.298221e-001 2.701780e-001 0.000000e+000
 0.000000e+000 0.000000e+000 0.000000e+000 0.000000e+000 0.000000e+000 0.000000e+000 0.000000e+000 0.000000e+000 7.820904e-001 2.179097e-001
 0.000000e+000 0.000000e+000 0.000000e+000 0.000000e+000 0.000000e+000 0.000000e+000 0.000000e+000 0.000000e+000 0.000000e+000 0.000000e+000
<ENDHMM>
~h "seven"
<BEGINHMM>
<NUMSTATES> 10
<STATE> 2
<MEAN> 39
 -1.685601e+001 -4.962236e+000 -7.390131e+000 -1.126481e+001 -6.064034e+000 -7.760844e+000 -4.632325e+000 -4.725339e+000 -4.229628e-001 -3.934225e+000 -5.842276e-001 -4.839085e+000 1.278420e+001 3.730019e-001 1.429673e-001 1.619828e-001 -4.901775e-002 2.085452e-002 3.477013e-002 3.747493e-001 -7.816254e-002 1.469901e-001 1.124684e-002 3.104434e-003 1.117375e-001 2.202557e-001 4.422337e-001 1.630087e-001 2.392706e-001 -1.259697e-001 -8.250794e-002 -7.773025e-003 2.292424e-001 -5.018895e-002 -4.777639e-003 -6.959036e-003 -1.204863e-001 -7.830048e-002 1.433660e-001
<VARIANCE> 39
 1.104240e+001 1.770024e+001 1.209119e+001 3.193214e+001 1.704991e+001 2.720173e+001 1.955100e+001 1.795414e+001 2.123882e+001 2.313217e+001 2.162038e+001 1.707506e+001 3.953098e+000 6.299896e-001 5.313352e-001 6.341517e-001 4.961658e-001 6.103995e-001 5.841212e-001 8.004149e-001 7.153974e-001 7.343867e-001 9.611115e-001 7.907078e-001 5.934265e-001 6.558777e-002 8.777028e-002 8.303512e-002 9.419323e-002 1.164732e-001 1.362816e-001 1.524794e-001 1.653877e-001 1.365733e-001 1.520070e-001 2.137852e-001 1.734310e-001 1.471852e-001 2.031025e-002
<GCONST> 7.263330e+001
<STATE> 3
<MEAN> 39
 -1.276604e+001 -2.824832e+000 -4.149129e+000 -1.254957e+001 -4.987961e+000 -8.622457e+000 -2.730800e+000 -4.806859e+000 -2.441530e-001 -3.460733e+000 -1.041304e+000 -4.998432e+000 1.427994e+001 2.203585e+000 3.510841e-001 7.619710e-001 -1.024509e+000 -8.439592e-001 8.571061e-002 1.473442e+000 -2.433541e-001 -3.858243e-002 -1.740721e-001 -7.228098e-001 -6.490576e-001 9.794340e-001 1.433011e-001 -2.516864e-001 -1.549727e-001 -2.557208e-001 -1.332042e-001 2.140004e-001 2.567498e-001 -1.054822e-001 -1.343202e-001 -2.097639e-001 -1.951905e-001 -2.041414e-001 1.586307e-001
<VARIANCE> 39
 2.009589e+001 1.181861e+001 1.574258e+001 2.428336e+001 1.979219e+001 2.352005e+001 2.214100e+001 1.938934e+001 1.974006e+001 4.192306e+001 2.092146e+001 1.672057e+001 4.872033e+000 7.311061e-001 7.235671e-001 7.124993e-001 1.194372e+000 7.631754e-001 1.799211e+000 1.273454e+000 1.730393e+000 1.640007e+000 2.655301e+000 1.116184e+000 1.037761e+000 1.125952e-001 1.705253e-001 7.208615e-002 1.125622e-001 1.215984e-001 1.560224e-001 1.863413e-001 1.548572e-001 1.665078e-001 2.136874e-001 2.189883e-001 1.949884e-001 1.760933e-001 1.851963e-002
<GCONST> 8.289320e+001
<STATE> 4
<MEAN> 39
 -4.998609e+000 -3.828503e+000 -3.341051e+000 -1.868826e+001 -1.007732e+001 -7.988960e+000 3.404698e+000 -6.781036e+000 -1.461516e+000 -5.335938e+000 -5.543221e+000 -9.126192e+000 1.845639e+001 7.800744e-001 -8.498903e-001 -4.079983e-001 -8.172618e-001 -2.387335e-002 1.188619e+000 1.400087e+000 -4.054249e-001 -4.671498e-001 -9.566841e-001 -6.022769e-001 -4.616485e-001 7.181938e-001 -5.579782e-001 -2.398750e-001 -2.335951e-001 3.533572e-001 4.473267e-001 1.843767e-001 -3.185416e-001 6.811461e-002 -8.876774e-002 -5.934286e-002 2.987469e-001 2.613790e-001 -2.174744e-001
<VARIANCE> 39
 7.781058e+000 1.121865e+001 1.072939e+001 2.063516e+001 2.655760e+001 2.745611e+001 2.451319e+001 3.813323e+001 4.058521e+001 8.382533e+001 2.615243e+001 2.508074e+001 1.460220e+000 1.048573e+000 5.209702e-001 5.555866e-001 1.040983e+000 1.544092e+000 1.573541e+000 1.130386e+000 1.345962e+000 1.809374e+000 1.456978e+000 1.265940e+000 1.508188e+000 1.702939e-001 9.189460e-002 9.770551e-002 9.606480e-002 1.496774e-001 1.104262e-001 1.963233e-001 1.505505e-001 1.655693e-001 1.841650e-001 3.834928e-001 1.645414e-001 1.286834e-001 1.132834e-002
<GCONST> 8.251257e+001
<STATE> 5
<MEAN> 39
 -6.925629e+000 -8.308620e+000 -5.838552e+000 -1.711303e+001 -3.474878e+000 -1.564883e+000 4.680828e+000 -9.273977e+000 -2.516526e+000 -9.139903e+000 -3.703836e+000 -6.535839e+000 1.897093e+001 4.634375e-002 -4.063508e-001 1.329805e-002 5.618891e-001 2.610134e-001 4.709043e-002 1.181301e-001 2.718791e-001 -4.814241e-001 1.405700e-001 2.369984e-001 1.899977e-001 -3.460290e-002 8.421875e-002 3.054220e-001 2.495601e-001 1.961771e-001 -2.191214e-001 -5.450311e-001 -2.569951e-001 2.655331e-001 6.995270e-002 2.170719e-001 5.536394e-002 -5.443970e-002 -1.203430e-001
<VARIANCE> 39
 7.339773e+000 1.221648e+001 7.385543e+000 1.675907e+001 4.244188e+001 2.271537e+001 2.579140e+001 3.929612e+001 5.282228e+001 4.096126e+001 3.176503e+001 3.072178e+001 1.457148e+000 2.433942e-001 4.536557e-001 4.146158e-001 4.091291e-001 1.229836e+000 1.383346e+000 7.765777e-001 1.043934e+000 8.084538e-001 1.706067e+000 1.098905e+000 8.030155e-001 2.474405e-002 5.411640e-002 5.371870e-002 5.958878e-002 1.041394e-001 1.877353e-001 1.138036e-001 1.855018e-001 1.286328e-001 1.723789e-001 1.654584e-001 2.003808e-001 1.512393e-001 6.034879e-003
<GCONST> 7.189658e+001
<STATE> 6
<MEAN> 39
 -4.627782e+000 -7.045633e+000 -4.033360e+000 -1.383502e+001 -7.965104e+000 -8.380401e+000 3.484319e+000 -2.223361e+000 -5.493463e+000 -6.611652e+000 -2.314853e+000 -8.131671e+000 1.817805e+001 3.084163e-001 1.103102e+000 1.116040e+000 1.321582e+000 1.362561e-001 -1.795442e+000 -1.502779e+000 8.289033e-001 4.229318e-001 1.044628e-001 5.398436e-001 7.413579e-004 -4.851230e-001 -1.074823e-001 1.844666e-001 1.269670e-001 3.190185e-002 2.146325e-001 6.705953e-002 -2.269006e-001 -3.019263e-001 1.541216e-001 -1.659896e-002 -7.125899e-002 3.314965e-002 -5.273036e-002
<VARIANCE> 39
 9.634562e+000 1.102153e+001 1.405485e+001 1.873942e+001 2.603213e+001 3.712407e+001 2.990493e+001 7.405128e+001 4.004470e+001 2.893630e+001 2.414328e+001 2.572391e+001 1.721999e+000 4.810877e-001 6.453479e-001 9.949074e-001 9.647053e-001 1.655704e+000 1.220040e+000 2.130223e+000 1.751470e+000 1.823246e+000 2.219395e+000 1.419527e+000 1.158529e+000 4.835172e-002 3.819132e-002 9.187622e-002 1.084421e-001 1.488665e-001 1.278942e-001 2.435766e-001 2.785656e-001 2.293622e-001 1.880089e-001 1.948414e-001 1.547004e-001 1.444051e-001 1.033286e-002
<GCONST> 8.251876e+001
<STATE> 7
<MEAN> 39
 -4.625505e+000 -3.160583e+000 -4.616099e-001 -1.070178e+001 -5.899467e+000 -9.211341e+000 -1.456164e+000 -5.703478e+000 -2.911736e+000 -6.974877e+000 -2.758132e+000 -8.319558e+000 1.663461e+001 6.150519e-002 3.382311e-001 1.664677e-001 -2.581099e-001 2.969108e-001 2.344409e-001 -3.102310e-001 -4.792304e-001 4.703042e-002 2.796249e-002 -2.535311e-001 -1.118570e-001 1.783118e-002 3.536827e-002 -2.274190e-002 -4.877675e-002 -1.728712e-001 1.019807e-001 3.033848e-002 7.443537e-002 -4.309073e-002 -8.080000e-003 -1.580331e-002 -8.801381e-002 8.851489e-003 5.586496e-002
<VARIANCE> 39
 1.240046e+001 1.274414e+001 1.953782e+001 2.519932e+001 3.067815e+001 4.542689e+001 3.804818e+001 5.432310e+001 4.037212e+001 4.629539e+001 3.395042e+001 2.761029e+001 2.203981e+000 3.718561e-001 9.266238e-001 1.395080e+000 1.365967e+000 1.512621e+000 2.210977e+000 2.152727e+000 1.458830e+000 1.370287e+000 1.974367e+000 1.205150e+000 9.739717e-001 1.129226e-001 7.273950e-002 2.200174e-001 2.857101e-001 2.721059e-001 2.954549e-001 5.641371e-001 4.453482e-001 2.946168e-001 2.564207e-001 3.313735e-001 2.062731e-001 1.671707e-001 2.429823e-002
<GCONST> 9.382260e+001
<STATE> 8
<MEAN> 39
 -3.150133e+000 1.847745e+000 2.570270e+000 -1.341171e+001 -2.404528e-001 -1.143707e+001 -4.421576e+000 -7.594054e+000 -2.663728e+000 -7.769421e+000 -5.777193e+000 -9.500590e+000 1.710329e+001 8.669890e-002 5.449005e-001 4.699992e-001 2.315181e-001 5.595498e-001 -5.463995e-001 -2.749522e-001 -2.420747e-002 -1.610868e-002 5.168177e-002 -1.097444e-001 -6.949148e-002 -1.041191e-001 -1.382275e-001 -1.693172e-001 -1.244557e-001 8.961678e-002 -1.592877e-001 2.210112e-001 1.225384e-001 1.755723e-002 -7.355457e-003 1.642258e-002 1.211031e-001 3.803835e-002 -4.624157e-002
<VARIANCE> 39
 1.878200e+001 1.231655e+001 1.762234e+001 1.709035e+001 2.367641e+001 5.237447e+001 3.446196e+001 3.748446e+001 4.992649e+001 6.708006e+001 5.889393e+001 5.416553e+001 1.665483e+000 3.326827e-001 5.341867e-001 5.993232e-001 6.427796e-001 1.448037e+000 2.041711e+000 9.901674e-001 1.059929e+000 1.169159e+000 1.051235e+000 1.118922e+000 9.583333e-001 3.275622e-002 5.360804e-002 7.972051e-002 1.174318e-001 1.123134e-001 1.715134e-001 3.022846e-001 1.709431e-001 1.574274e-001 1.976739e-001 1.954354e-001 1.819249e-001 1.485608e-001 5.665824e-003
<GCONST> 8.072175e+001
<STATE> 9
<MEAN> 39
 -7.291499e+000 -2.172000e-002 1.908538e+000 -1.001710e+001 -7.174087e-001 -9.196440e+000 -3.611309e+000 -7.094273e+000 -2.140530e+000 -5.174116e+000 -3.208685e+000 -7.072459e+000 1.398688e+001 -1.339497e+000 -9.612273e-001 -1.029144e+000 -2.660089e-001 -5.336514e-001 3.941441e-001 8.285651e-002 1.854489e-001 2.842792e-001 1.750899e-001 5.546381e-001 4.147942e-001 -4.634228e-001 7.846244e-003 -7.767954e-002 -1.473698e-001 -1.630199e-001 -1.131370e-001 -8.781371e-002 -2.042180e-002 3.651171e-002 -2.547076e-002 -8.573214e-003 1.177509e-002 1.708300e-002 5.228674e-002
<VARIANCE> 39
 3.358316e+001 2.529560e+001 2.863306e+001 3.445845e+001 2.536369e+001 3.943957e+001 3.107271e+001 3.490523e+001 3.595188e+001 3.459794e+001 3.769394e+001 2.894281e+001 8.343333e+000 1.224587e+000 9.331431e-001 1.127203e+000 1.738790e+000 1.318544e+000 2.109042e+000 1.318245e+000 1.432497e+000 1.593382e+000 1.718034e+000 1.478954e+000 1.339900e+000 1.780709e-001 2.256094e-001 2.201077e-001 2.330286e-001 2.394547e-001 2.227011e-001 3.036014e-001 2.150832e-001 2.173798e-001 2.285871e-001 2.356421e-001 1.981820e-001 1.525012e-001 2.572437e-002
<GCONST> 9.615958e+001
<TRANSP> 10
 0.000000e+000 1.000000e+000 0.000000e+000 0.000000e+000 0.000000e+000 0.000000e+000 0.000000e+000 0.000000e+000 0.000000e+000 0.000000e+000
 0.000000e+000 6.877287e-001 3.122713e-001 0.000000e+000 0.000000e+000 0.000000e+000 0.000000e+000 0.000000e+000 0.000000e+000 0.000000e+000
 0.000000e+000 0.000000e+000 6.055892e-001 3.944108e-001 0.000000e+000 0.000000e+000 0.000000e+000 0.000000e+000 0.000000e+000 0.000000e+000
 0.000000e+000 0.000000e+000 0.000000e+000 6.906876e-001 3.093124e-001 0.000000e+000 0.000000e+000 0.000000e+000 0.000000e+000 0.000000e+000
 0.000000e+000 0.000000e+000 0.000000e+000 0.000000e+000 7.925790e-001 2.074210e-001 0.000000e+000 0.000000e+000 0.000000e+000 0.000000e+000
 0.000000e+000 0.000000e+000 0.000000e+000 0.000000e+000 0.000000e+000 6.963567e-001 3.036434e-001 0.000000e+000 0.000000e+000 0.000000e+000
 0.000000e+000 0.000000e+000 0.000000e+000 0.000000e+000 0.000000e+000 0.000000e+000 8.683608e-001 1.316392e-001 0.000000e+000 0.000000e+000
 0.000000e+000 0.000000e+000 0.000000e+000 0.000000e+000 0.000000e+000 0.000000e+000 0.000000e+000 8.387582e-001 1.612418e-001 0.000000e+000
 0.000000e+000 0.000000e+000 0.000000e+000 0.000000e+000 0.000000e+000 0.000000e+000 0.000000e+000 0.000000e+000 7.752539e-001 2.247461e-001
 0.000000e+000 0.000000e+000 0.000000e+000 0.000000e+000 0.000000e+000 0.000000e+000 0.000000e+000 0.000000e+000 0.000000e+000 0.000000e+000
<ENDHMM>
~h "sil"
<BEGINHMM>
<NUMSTATES> 5
<STATE> 2
<MEAN> 39
 -9.663334e+000 -2.730991e+000 -2.694046e+000 -7.963960e+000 -3.618348e+000 -7.000508e+000 -3.111743e+000 -5.746608e+000 -1.832407e+000 -4.513585e+000 -1.593747e+000 -4.305037e+000 8.763379e+000 -9.946025e-002 4.325054e-002 -7.240476e-002 -5.210533e-002 -9.763992e-002 -5.393506e-002 -5.171996e-003 6.821568e-002 1.696931e-002 -1.783631e-002 1.772767e-002 1.766286e-002 -7.017741e-002 1.272952e-003 -1.027871e-002 -6.422309e-003 -1.027767e-002 4.015917e-003 -1.040650e-002 -4.217455e-003 -1.287443e-002 5.034122e-003 9.102723e-003 6.555531e-004 -2.051896e-003 9.011529e-003
<VARIANCE> 39
 1.037908e+001 1.314736e+001 1.261587e+001 3.053218e+001 2.060135e+001 2.378003e+001 1.981927e+001 2.259194e+001 2.115305e+001 2.075846e+001 1.800180e+001 1.662130e+001 1.372463e+001 1.402684e-001 2.755501e-001 3.354785e-001 4.776371e-001 6.018714e-001 6.701548e-001 7.039752e-001 8.350922e-001 8.285133e-001 7.989830e-001 7.276966e-001 6.100370e-001 1.813015e-002 1.636451e-002 3.395205e-002 4.883294e-002 7.050423e-002 9.163278e-002 1.023957e-001 1.081768e-001 1.189056e-001 1.305495e-001 1.228963e-001 1.172384e-001 9.647332e-002 1.834005e-003
<GCONST> 6.038733e+001
<STATE> 3
~s "silst"
<STATE> 4
<MEAN> 39
 -1.165836e+001 -3.588039e+000 -3.831511e+000 -9.660143e+000 -4.843845e+000 -8.156487e+000 -3.512343e+000 -5.786000e+000 -1.682920e+000 -4.549913e+000 -1.545932e+000 -4.623999e+000 9.003581e+000 8.824087e-003 9.147068e-002 6.125503e-002 1.023196e-001 5.030980e-002 2.742434e-002 7.611982e-002 1.533712e-002 5.955417e-003 3.087683e-002 7.639080e-003 -1.077647e-003 7.834000e-002 3.012386e-002 1.480932e-002 1.491576e-002 2.474918e-003 1.032341e-002 6.641675e-003 1.105282e-002 -9.036792e-003 -4.324275e-003 -1.717613e-002 -4.725707e-003 -7.678675e-003 4.284862e-002
<VARIANCE> 39
 9.833310e+000 1.126838e+001 1.103251e+001 3.633531e+001 1.916113e+001 2.579920e+001 1.943892e+001 2.100902e+001 1.793398e+001 1.917760e+001 1.621507e+001 1.682599e+001 1.316590e+001 4.255070e-001 4.940287e-001 5.163549e-001 7.842818e-001 8.215438e-001 8.502816e-001 8.594136e-001 9.841764e-001 8.461775e-001 8.329018e-001 7.645620e-001 6.828123e-001 1.120195e-001 7.330569e-002 8.119648e-002 8.540360e-002 1.192393e-001 1.277418e-001 1.261485e-001 1.366513e-001 1.496032e-001 1.343575e-001 1.318336e-001 1.159890e-001 1.080280e-001 1.961196e-002
<GCONST> 7.236845e+001
<TRANSP> 5
 0.000000e+000 1.000000e+000 0.000000e+000 0.000000e+000 0.000000e+000
 0.000000e+000 8.234792e-001 1.765209e-001 0.000000e+000 0.000000e+000
 0.000000e+000 0.000000e+000 9.468378e-001 5.316213e-002 0.000000e+000
 0.000000e+000 0.000000e+000 0.000000e+000 7.202191e-001 2.797810e-001
 0.000000e+000 0.000000e+000 0.000000e+000 0.000000e+000 0.000000e+000
<ENDHMM>
~h "six"
<BEGINHMM>
<NUMSTATES> 10
<STATE> 2
<MEAN> 39
 -1.574589e+001 -3.762712e+000 -5.880570e+000 -9.289161e+000 -6.072241e+000 -7.057020e+000 -3.836808e+000 -5.932017e+000 -9.639695e-001 -3.733858e+000 -1.695825e+000 -4.454035e+000 1.139956e+001 -8.509114e-002 7.078241e-002 -3.664586e-002 2.542400e-002 3.525612e-002 7.833837e-002 4.005350e-002 -1.917605e-002 1.112713e-001 -3.953140e-002 -2.174196e-002 6.931321e-002 1.766929e-001 2.183062e-001 1.316426e-001 1.560177e-001 -6.852536e-002 -2.302638e-002 -3.280903e-002 5.934245e-002 7.938490e-003 5.628369e-002 5.866974e-003 -1.340171e-002 -1.145852e-002 6.372181e-002
<VARIANCE> 39
 1.955306e+001 1.893113e+001 2.047995e+001 3.123553e+001 1.669625e+001 2.744052e+001 2.140762e+001 2.446673e+001 2.145050e+001 2.310423e+001 2.128412e+001 1.659131e+001 7.793460e+000 6.076237e-001 6.014363e-001 7.438544e-001 6.368026e-001 6.829795e-001 8.415018e-001 9.128436e-001 9.886870e-001 8.593092e-001 8.161049e-001 7.667324e-001 6.480972e-001 1.279753e-001 1.227797e-001 1.265867e-001 1.405398e-001 1.325481e-001 1.173996e-001 1.615232e-001 1.790412e-001 2.052354e-001 1.757948e-001 1.817958e-001 1.381770e-001 1.232526e-001 2.477411e-002
<GCONST> 7.841566e+001
<STATE> 3
<MEAN> 39
 -1.480086e+001 -3.340498e+000 -5.450726e+000 -1.289128e+001 -4.360092e+000 -8.526501e+000 -4.248572e+000 -5.375653e+000 8.283190e-002 -3.788543e+000 -1.129788e+000 -4.209634e+000 1.378227e+001 1.821385e+000 1.032172e+000 1.224676e+000 -8.744370e-001 -7.351290e-001 -3.978162e-001 6.048639e-001 -1.839799e-001 4.210025e-001 1.411543e-001 -3.532976e-001 -3.131566e-001 7.960801e-001 3.041382e-001 1.176819e-001 2.106210e-001 -3.755491e-001 -3.412949e-001 -6.962663e-002 1.092323e-001 -1.041528e-003 7.065129e-002 5.484923e-002 -1.353063e-001 -2.247068e-001 1.913519e-001
<VARIANCE> 39
 1.167347e+001 1.332573e+001 1.560547e+001 2.539345e+001 1.752551e+001 2.863547e+001 2.114979e+001 1.809924e+001 2.307921e+001 3.399312e+001 2.704448e+001 2.270324e+001 3.139227e+000 7.109963e-001 6.644186e-001 7.012135e-001 1.360337e+000 9.256381e-001 9.752484e-001 9.965050e-001 1.040500e+000 1.113277e+000 2.359660e+000 1.150378e+000 1.513755e+000 1.234013e-001 1.213518e-001 1.020240e-001 1.225559e-001 1.309754e-001 1.562572e-001 1.769304e-001 2.214819e-001 1.671149e-001 1.617998e-001 2.695169e-001 2.330310e-001 2.212156e-001 1.065353e-002
<GCONST> 8.161825e+001
<STATE> 4
<MEAN> 39
 -6.744571e+000 3.424427e-001 -8.318056e-001 -2.107308e+001 -8.059152e+000 -9.404293e+000 -7.090210e-001 -5.232264e+000 2.098863e+000 -4.731451e+000 -3.793406e+000 -7.589439e+000 1.816108e+001 3.908165e-001 3.061098e-001 4.404474e-001 -9.588146e-001 -1.360321e-001 7.431918e-002 -1.043448e-001 4.581575e-001 3.783028e-002 5.788895e-002 -1.880973e-001 -2.239706e-001 2.955785e-001 -2.605329e-001 -9.592041e-002 -6.284606e-002 2.196720e-001 2.099133e-001 4.901947e-002 -2.886437e-001 6.725438e-002 -1.399029e-001 -2.213677e-002 1.503039e-001 1.205844e-001 -1.864370e-001
<VARIANCE> 39
 7.602432e+000 1.014176e+001 1.278935e+001 2.634967e+001 4.902637e+001 2.125492e+001 2.060703e+001 2.278677e+001 2.872164e+001 6.700636e+001 3.522983e+001 5.120712e+001 1.719060e+000 9.789478e-001 5.837947e-001 8.458196e-001 1.215589e+000 1.725453e+000 1.444331e+000 1.888168e+000 1.069306e+000 1.454186e+000 1.728357e+000 1.614415e+000 1.831485e+000 3.076213e-001 1.279805e-001 8.537830e-002 1.239385e-001 1.882453e-001 2.106978e-001 2.138871e-001 1.981313e-001 1.880973e-001 2.091628e-001 3.351821e-001 2.051741e-001 2.681061e-001 1.788567e-002
<GCONST> 8.821050e+001
<STATE> 5
<MEAN> 39
 -6.434086e+000 2.051718e+000 4.016476e+000 -2.147055e+001 -8.941134e+000 -8.438923e+000 -8.243279e+000 -2.571526e+000 -3.655821e-001 -3.237573e+000 -2.284335e+000 -6.516469e+000 1.737676e+001 -1.009420e-001 4.608409e-002 4.615424e-001 1.268588e+000 8.070983e-001 1.572378e-001 -7.440292e-001 -1.849596e-001 -2.442218e-001 -3.176689e-001 6.343156e-001 3.311134e-001 -8.155524e-001 -2.673527e-001 -3.759437e-001 -4.922338e-001 5.037201e-001 1.272252e-001 -7.542229e-002 5.264324e-001 -2.301891e-001 6.276044e-002 2.322728e-002 6.459981e-003 8.483655e-002 -2.155650e-001
<VARIANCE> 39
 1.240567e+001 2.322386e+001 2.543390e+001 3.246516e+001 6.839878e+001 5.162517e+001 5.888854e+001 3.812465e+001 2.797439e+001 3.557505e+001 3.963005e+001 3.404263e+001 4.071517e+000 7.932823e-001 1.076813e+000 1.555903e+000 2.772494e+000 2.999262e+000 2.025318e+000 2.902382e+000 1.850079e+000 1.919680e+000 2.664730e+000 1.446395e+000 1.922407e+000 3.598437e-001 1.344794e-001 2.428538e-001 2.558588e-001 2.982271e-001 5.215279e-001 4.681175e-001 4.927074e-001 3.750268e-001 3.300542e-001 3.476050e-001 3.371598e-001 2.568786e-001 3.240416e-002
<GCONST> 1.047444e+002
<STATE> 6
<MEAN> 39
 -9.008332e+000 -2.589276e+000 5.364946e-002 -1.048682e+001 -5.748159e+000 -8.279481e+000 -3.583587e+000 -4.784240e+000 -3.842694e-001 -3.955827e+000 -3.795051e-001 -4.036721e+000 1.141874e+001 -1.150362e+000 -1.825438e+000 -1.012250e+000 9.658057e-001 -6.054892e-002 4.649378e-002 1.043766e+000 -4.584039e-001 3.021270e-003 -3.884189e-002 1.743605e-001 7.054853e-002 -3.138676e-001 -1.599448e-001 4.282943e-003 6.291725e-004 -4.822506e-001 -2.160835e-001 9.499331e-002 -3.741680e-002 -8.578040e-003 5.033220e-002 1.387286e-002 -1.145046e-001 -1.391522e-001 2.577137e-001
<VARIANCE> 39
 1.682043e+001 5.391202e+001 2.690152e+001 3.393857e+001 2.890748e+001 2.458656e+001 2.598607e+001 2.066048e+001 2.645041e+001 2.806448e+001 2.043497e+001 1.894721e+001 1.421532e+001 1.126181e+000 1.929595e+000 1.930729e+000 2.332901e+000 2.622848e+000 2.565037e+000 2.296585e+000 1.421309e+000 1.652237e+000 1.552322e+000 1.403252e+000 1.578537e+000 9.121644e-001 1.897110e-001 5.714447e-001 3.463005e-001 2.584833e-001 4.155825e-001 2.936598e-001 3.538186e-001 2.036346e-001 2.622226e-001 2.934757e-001 1.759897e-001 1.887332e-001 9.587898e-002
<GCONST> 1.027116e+002
<STATE> 7
<MEAN> 39
 -1.443484e+001 -5.915536e+000 -1.669983e+000 -1.387407e+001 -7.580078e+000 -7.480366e+000 -2.173297e+000 -6.648960e+000 -2.887578e-001 -3.444570e+000 -1.344753e+000 -5.845894e+000 1.372058e+001 -1.110555e+000 -5.841847e-003 -6.088876e-001 6.083346e-002 -4.726303e-001 5.207120e-001 -4.280890e-002 -3.395992e-001 1.688185e-001 3.155441e-001 -1.442864e-001 1.124992e-001 -3.877312e-002 2.039458e-001 3.462298e-001 -6.522954e-003 -2.830187e-002 3.907796e-002 -1.153200e-002 -2.463709e-001 1.321794e-001 9.502013e-003 -2.799283e-002 -4.497005e-002 3.121385e-002 -7.605383e-003
<VARIANCE> 39
 1.714660e+001 1.733075e+001 1.567802e+001 3.136124e+001 3.591750e+001 3.764476e+001 2.304683e+001 2.601877e+001 2.774498e+001 1.911330e+001 1.826217e+001 1.682447e+001 2.803885e+000 1.011864e+000 2.002092e+000 1.122154e+000 1.008370e+000 2.028744e+000 1.735256e+000 1.325121e+000 1.240423e+000 1.199476e+000 1.000622e+000 1.001819e+000 8.300022e-001 1.666668e-001 1.469980e-001 2.600336e-001 2.222719e-001 2.005162e-001 4.326034e-001 2.964124e-001 2.275348e-001 2.185919e-001 2.230531e-001 2.032267e-001 1.608275e-001 1.590066e-001 4.992019e-002
<GCONST> 8.981126e+001
<STATE> 8
<MEAN> 39
 -1.597894e+001 -4.298886e+000 -4.878706e+000 -1.016408e+001 -6.487759e+000 -5.339276e+000 -3.569362e+000 -5.752241e+000 2.859747e-001 -3.656578e+000 -1.351278e+000 -5.116570e+000 1.186858e+001 2.213199e-001 6.082016e-002 -2.308379e-001 1.196162e-001 3.130546e-001 -2.198484e-001 -1.202256e-001 1.137635e-001 -1.886584e-001 -6.034440e-002 -1.836628e-002 -6.680059e-002 -1.510337e-001 1.386703e-001 -4.089504e-002 8.997231e-002 -3.477583e-002 6.787816e-003 -9.342972e-002 4.042131e-002 1.024643e-002 -5.790918e-002 -2.556591e-002 1.896415e-002 -8.748333e-003 7.910482e-003
<VARIANCE> 39
 1.939989e+001 1.719815e+001 1.660983e+001 3.401421e+001 3.113405e+001 2.985406e+001 2.456540e+001 2.440580e+001 2.984140e+001 3.096947e+001 2.436717e+001 1.958815e+001 6.688859e+000 7.452695e-001 7.656170e-001 8.685484e-001 9.084132e-001 1.221931e+000 9.765908e-001 1.186403e+000 1.036301e+000 1.103718e+000 1.085486e+000 1.058551e+000 6.978357e-001 6.119565e-002 1.096521e-001 1.303571e-001 1.118770e-001 1.441807e-001 2.273504e-001 2.025280e-001 2.195263e-001 1.781287e-001 1.774153e-001 1.849821e-001 1.875951e-001 1.284649e-001 1.112403e-002
<GCONST> 8.228614e+001
<STATE> 9
<MEAN> 39
 -1.316123e+001 -4.231547e+000 -4.307720e+000 -1.657943e+001 -5.264381e+000 -1.098578e+001 -4.618312e+000 -5.657015e+000 -9.136760e-001 -3.694408e+000 -1.229797e+000 -6.257034e+000 1.434147e+001 1.383014e-002 -5.943302e-002 -7.973851e-002 4.089684e-003 7.618125e-002 -2.363912e-001 -1.432138e-001 -6.568590e-002 -2.858897e-001 1.168416e-002 6.010192e-002 3.914548e-003 -4.127107e-002 3.741997e-002 4.613398e-002 7.192372e-002 1.479586e-002 -1.552318e-003 5.706063e-002 1.522414e-002 5.450601e-003 1.690517e-002 -2.837321e-002 1.208854e-003 1.182848e-002 1.893191e-002
<VARIANCE> 39
 8.994862e+000 1.145543e+001 8.573331e+000 2.836712e+001 1.952973e+001 2.436205e+001 2.120399e+001 1.772583e+001 2.051760e+001 2.352592e+001 2.004667e+001 1.535550e+001 5.807881e+000 2.924970e-001 5.268534e-001 4.151263e-001 8.793625e-001 7.869561e-001 1.005887e+000 9.555174e-001 8.792011e-001 9.275880e-001 9.602303e-001 7.453907e-001 6.056162e-001 4.407319e-002 4.926625e-002 8.034628e-002 7.072747e-002 1.690335e-001 1.444852e-001 1.810894e-001 1.594352e-001 1.567771e-001 1.555193e-001 1.663474e-001 1.495587e-001 9.799477e-002 6.640569e-003
<GCONST> 7.006667e+001
<TRANSP> 10
 0.000000e+000 1.000000e+000 0.000000e+000 0.000000e+000 0.000000e+000 0.000000e+000 0.000000e+000 0.000000e+000 0.000000e+000 0.000000e+000
 0.000000e+000 7.436159e-001 2.563840e-001 0.000000e+000 0.000000e+000 0.000000e+000 0.000000e+000 0.000000e+000 0.000000e+000 0.000000e+000
 0.000000e+000 0.000000e+000 6.528826e-001 3.471174e-001 0.000000e+000 0.000000e+000 0.000000e+000 0.000000e+000 0.000000e+000 0.000000e+000
 0.000000e+000 0.000000e+000 0.000000e+000 8.419773e-001 1.580227e-001 0.000000e+000 0.000000e+000 0.000000e+000 0.000000e+000 0.000000e+000
 0.000000e+000 0.000000e+000 0.000000e+000 0.000000e+000 6.989816e-001 3.010184e-001 0.000000e+000 0.000000e+000 0.000000e+000 0.000000e+000
 0.000000e+000 0.000000e+000 0.000000e+000 0.000000e+000 0.000000e+000 6.713150e-001 3.286850e-001 0.000000e+000 0.000000e+000 0.000000e+000
 0.000000e+000 0.000000e+000 0.000000e+000 0.000000e+000 0.000000e+000 0.000000e+000 6.401286e-001 3.598715e-001 0.000000e+000 0.000000e+000
 0.000000e+000 0.000000e+000 0.000000e+000 0.000000e+000 0.000000e+000 0.000000e+000 0.000000e+000 7.681234e-001 2.318766e-001 0.000000e+000
 0.000000e+000 0.000000e+000 0.000000e+000 0.000000e+000 0.000000e+000 0.000000e+000 0.000000e+000 0.000000e+000 7.241039e-001 2.758961e-001
 0.000000e+000 0.000000e+000 0.000000e+000 0.000000e+000 0.000000e+000 0.000000e+000 0.000000e+000 0.000000e+000 0.000000e+000 0.000000e+000
<ENDHMM>
~h "three"
<BEGINHMM>
<NUMSTATES> 10
<STATE> 2
<MEAN> 39
 -1.264723e+001 -3.798203e+000 -3.920645e+000 -1.354614e+001 -4.001966e+000 -1.040415e+001 -3.747368e+000 -5.721088e+000 -4.349294e-001 -3.739955e+000 -6.412888e-001 -4.919824e+000 1.336336e+001 7.063439e-001 3.443779e-001 7.393441e-001 1.964954e-001 -1.644323e-001 2.212901e-002 3.210064e-001 2.345669e-002 -1.309852e-001 -1.680844e-002 -7.215814e-002 -3.561908e-001 4.755065e-001 3.479736e-001 4.809681e-002 2.951076e-001 1.287511e-001 -2.303593e-001 -1.162135e-001 5.461940e-002 1.944683e-002 -9.960372e-002 -9.551103e-002 -5.233725e-002 -1.367367e-001 9.573971e-002
<VARIANCE> 39
 1.022810e+001 1.064989e+001 1.159286e+001 2.719836e+001 1.843216e+001 2.187180e+001 2.031062e+001 2.246518e+001 1.885582e+001 2.282150e+001 1.928771e+001 1.689053e+001 9.494725e+000 9.075587e-001 7.039119e-001 1.020066e+000 1.128520e+000 1.095098e+000 1.214184e+000 9.080277e-001 1.106342e+000 9.999555e-001 1.145804e+000 1.291123e+000 1.068542e+000 3.442508e-001 1.327378e-001 1.516533e-001 1.666603e-001 1.966147e-001 2.423495e-001 2.471919e-001 2.092634e-001 1.948864e-001 1.829247e-001 2.326058e-001 2.623448e-001 2.281661e-001 3.885323e-002
<GCONST> 8.515984e+001
<STATE> 3
<MEAN> 39
 -6.300498e+000 -2.139182e+000 1.876732e+000 -1.184710e+001 -6.275526e+000 -1.226562e+001 -2.632497e+000 -4.902908e+000 -2.309796e+000 -5.203962e+000 -1.487949e+000 -7.710596e+000 1.624109e+001 1.613273e+000 -6.111104e-001 8.235199e-001 8.909733e-001 -1.447736e+000 -9.911054e-001 2.747791e-001 8.847169e-002 -1.907668e-001 -2.528307e-001 -9.405004e-002 -3.089006e-001 5.309573e-001 -6.500746e-002 -3.191918e-001 -2.241067e-001 2.587026e-003 -2.567141e-001 -4.705120e-002 -2.758557e-002 -1.230079e-001 1.103473e-001 6.136169e-002 -2.975108e-002 1.153615e-001 -3.107944e-002
<VARIANCE> 39
 1.974529e+001 1.345255e+001 1.970124e+001 2.274681e+001 3.604453e+001 4.248411e+001 2.518823e+001 3.034175e+001 2.556652e+001 2.923288e+001 3.964895e+001 3.156244e+001 3.021729e+000 1.048527e+000 1.219205e+000 1.370950e+000 1.563260e+000 2.093543e+000 2.188737e+000 1.166505e+000 1.711827e+000 1.355659e+000 1.543582e+000 2.177468e+000 2.049242e+000 1.121920e-001 1.643329e-001 1.460685e-001 1.907517e-001 3.111260e-001 3.391134e-001 3.552080e-001 2.176644e-001 2.946366e-001 2.157321e-001 2.466960e-001 2.987027e-001 2.137248e-001 2.001805e-002
<GCONST> 9.444675e+001
<STATE> 4
<MEAN> 39
 -9.898266e-001 -8.649442e+000 2.049567e+000 -7.080755e+000 -1.512641e+001 -1.679942e+001 -4.579252e-001 -6.039191e+000 -2.109356e+000 -4.339773e+000 -1.319239e+000 -6.734195e+000 1.811648e+001 1.538742e-001 -4.429430e-001 6.778039e-001 -6.194617e-001 -1.747311e+000 9.504178e-001 1.360391e-001 -7.854825e-001 4.215605e-001 2.887073e-001 -2.227494e-001 -4.413723e-002 3.165607e-001 -4.584079e-001 4.744909e-001 1.209750e-001 -6.724131e-001 3.924639e-001 6.550598e-001 -3.595204e-001 -2.040549e-002 1.815058e-001 -3.284983e-002 1.778893e-002 -1.906449e-002 -7.986657e-002
<VARIANCE> 39
 2.023381e+001 2.210721e+001 1.721970e+001 4.336421e+001 4.105098e+001 5.403159e+001 2.288873e+001 3.308969e+001 2.528653e+001 2.441558e+001 3.204926e+001 4.489811e+001 1.294488e+000 9.564121e-001 1.167359e+000 1.049655e+000 2.675762e+000 1.677172e+000 2.853845e+000 1.619135e+000 1.506645e+000 1.090232e+000 1.075416e+000 1.012882e+000 1.154291e+000 6.205005e-002 1.139721e-001 1.149216e-001 1.727235e-001 2.295513e-001 3.623467e-001 3.017916e-001 2.961312e-001 2.452957e-001 1.947698e-001 2.000575e-001 1.843984e-001 2.182461e-001 5.697334e-003
<GCONST> 8.979763e+001
<STATE> 5
<MEAN> 39
 -4.303556e+000 -5.789589e+000 6.666557e+000 -1.611206e+001 -1.824183e+001 -6.194438e+000 -4.127977e+000 -9.810853e+000 1.856847e+000 -4.119185e+000 -2.331930e+000 -7.689150e+000 1.865746e+001 -9.342702e-001 1.662189e+000 4.220975e-001 -2.374333e+000 1.185358e+000 1.461156e+000 -1.997606e+000 3.371047e-001 5.551354e-001 -4.643293e-001 -7.514536e-002 -2.534371e-003 3.316089e-002 -7.166548e-002 3.830899e-001 -3.991792e-001 1.684272e-001 8.205070e-001 -6.797767e-001 -1.205999e-001 4.426489e-001 -3.231329e-001 -1.075840e-001 5.507313e-002 9.162940e-002 -6.580906e-002
<VARIANCE> 39
 1.057086e+001 2.811640e+001 1.414411e+001 2.989408e+001 4.346218e+001 4.536462e+001 4.117923e+001 3.549967e+001 2.378602e+001 2.846971e+001 4.294054e+001 3.505927e+001 1.241749e+000 4.434308e-001 9.962502e-001 6.333948e-001 1.268422e+000 1.807343e+000 1.989112e+000 1.358649e+000 1.419007e+000 9.643397e-001 8.136647e-001 7.820416e-001 8.303837e-001 1.692409e-002 6.259872e-002 9.728640e-002 9.351733e-002 2.236037e-001 2.057471e-001 2.491313e-001 2.812871e-001 1.514926e-001 1.694498e-001 1.747809e-001 1.471195e-001 1.419598e-001 2.885182e-003
<GCONST> 8.015952e+001
<STATE> 6
<MEAN> 39
 -7.469903e+000 1.831908e+000 4.331564e+000 -2.257873e+001 -8.096080e+000 -7.764984e+000 -9.849422e+000 -3.876340e+000 7.747421e-002 -5.842610e+000 -1.804985e+000 -7.112987e+000 1.846274e+001 -5.144851e-001 1.882732e+000 -8.713975e-001 -3.207014e-001 2.021134e+000 -1.434612e+000 -3.831793e-001 6.231843e-001 -6.759008e-001 -6.024992e-002 5.187806e-002 1.227012e-001 -9.534737e-002 1.613666e-001 -1.684312e-001 -1.480570e-001 6.004720e-001 -2.163237e-001 -3.373295e-001 5.278945e-001 -2.989202e-001 -9.794078e-002 1.299774e-001 -2.540263e-002 -3.690187e-002 -3.266367e-002
<VARIANCE> 39
 7.044008e+000 2.584422e+001 1.491011e+001 1.801735e+001 3.279047e+001 3.013538e+001 4.962299e+001 3.916503e+001 2.924296e+001 2.867826e+001 3.844390e+001 3.915017e+001 1.321339e+000 2.458568e-001 7.701656e-001 5.001631e-001 1.113086e+000 1.210153e+000 1.533158e+000 1.526761e+000 1.029801e+000 1.053640e+000 8.804740e-001 7.512212e-001 7.146086e-001 1.322530e-002 3.300035e-002 8.263301e-002 7.606286e-002 1.285255e-001 1.588839e-001 2.157566e-001 2.109547e-001 1.690346e-001 1.581055e-001 1.298952e-001 1.265611e-001 1.135107e-001 1.132040e-003
<GCONST> 7.291646e+001
<STATE> 7
<MEAN> 39
 -7.913410e+000 7.900140e+000 -7.450907e-004 -1.795684e+001 -3.713651e+000 -1.572246e+001 -6.376960e+000 -6.971911e+000 -1.587413e+000 -5.473176e+000 -2.805164e+000 -8.152817e+000 1.781491e+001 4.240219e-002 3.819813e-001 -2.424240e-001 7.806752e-001 4.629528e-001 -4.078817e-001 2.421965e-001 -4.675657e-001 -2.178529e-001 -7.060317e-002 -9.787816e-002 -3.134166e-002 -1.673431e-001 3.478852e-002 -2.935230e-001 1.339715e-001 1.847100e-002 -1.031148e-001 2.799638e-001 1.725191e-002 4.166055e-002 9.088983e-002 1.048577e-002 2.276643e-002 1.876000e-002 -3.171881e-002
<VARIANCE> 39
 9.233133e+000 2.336314e+001 1.629500e+001 1.865227e+001 1.824856e+001 2.320567e+001 4.116515e+001 3.094585e+001 3.526770e+001 4.054272e+001 5.199820e+001 5.103760e+001 1.435836e+000 1.576065e-001 7.387003e-001 5.315076e-001 7.236971e-001 8.679436e-001 1.088205e+000 8.425813e-001 1.014243e+000 8.002735e-001 9.719334e-001 7.955668e-001 8.119934e-001 1.832914e-002 2.629331e-002 7.285409e-002 6.945675e-002 1.111639e-001 1.319975e-001 1.418338e-001 1.423064e-001 1.269346e-001 1.379666e-001 1.431327e-001 1.195541e-001 1.279446e-001 2.596574e-003
<GCONST> 7.029758e+001
<STATE> 8
<MEAN> 39
 -6.657788e+000 7.720036e+000 1.869938e+000 -1.309855e+001 -5.044018e-001 -1.336684e+001 -6.779174e+000 -8.159767e+000 -3.359876e+000 -6.203592e+000 -3.542530e+000 -7.783783e+000 1.588964e+001 -4.186853e-001 -1.354396e+000 -2.355973e-001 7.966027e-001 4.136853e-001 7.577315e-001 7.738030e-001 4.162472e-001 2.589090e-001 3.870931e-001 4.085888e-001 3.629345e-001 -5.719317e-001 -1.997882e-001 -3.564611e-001 -1.861731e-001 -1.839359e-001 -2.377747e-001 1.303256e-001 7.451433e-002 1.353526e-001 1.278960e-001 5.975065e-002 1.064504e-001 5.407612e-002 -5.517214e-002
<VARIANCE> 39
 1.063413e+001 3.143049e+001 2.621983e+001 3.530412e+001 4.694507e+001 4.302329e+001 4.161683e+001 3.928174e+001 4.376281e+001 5.317050e+001 4.545218e+001 4.628411e+001 4.451162e+000 6.029600e-001 1.302578e+000 1.118147e+000 1.858804e+000 2.233355e+000 1.488057e+000 2.237792e+000 1.705279e+000 1.692574e+000 2.052759e+000 2.007147e+000 1.764095e+000 1.067706e-001 6.158024e-002 1.525161e-001 1.767348e-001 2.619391e-001 2.613165e-001 2.382694e-001 2.538062e-001 2.509544e-001 2.017729e-001 3.124137e-001 2.177514e-001 1.859399e-001 1.097948e-002
<GCONST> 9.577623e+001
<STATE> 9
<MEAN> 39
 -1.091673e+001 -1.380847e+000 -2.023937e+000 -1.274872e+001 -1.501202e+000 -9.654793e+000 -3.643064e+000 -4.923838e+000 -4.680398e-001 -3.544870e+000 -4.767651e-001 -5.596159e+000 1.339870e+001 -5.555003e-001 -1.259199e+000 -8.230687e-001 -3.425838e-001 -4.670224e-001 2.564618e-001 1.563488e-001 1.963682e-001 1.439573e-001 8.010842e-002 1.969692e-001 1.437103e-001 -3.321199e-001 1.588380e-001 3.027680e-001 1.035928e-001 -7.540761e-002 -6.273819e-002 -1.967743e-001 -2.130254e-001 -1.630691e-001 -1.683569e-001 -1.136290e-001 -9.213657e-002 -6.014981e-002 1.170904e-001
<VARIANCE> 39
 1.430912e+001 1.838642e+001 2.097631e+001 2.915794e+001 2.459005e+001 2.750636e+001 2.749507e+001 2.219743e+001 2.974972e+001 2.318366e+001 2.131625e+001 1.984055e+001 7.532083e+000 5.104636e-001 9.554865e-001 1.028275e+000 9.854105e-001 1.150661e+000 1.367660e+000 1.404471e+000 1.271030e+000 1.270182e+000 1.671064e+000 1.541692e+000 1.136827e+000 9.328458e-002 6.261983e-002 1.314730e-001 1.497838e-001 1.631896e-001 1.832716e-001 1.808334e-001 2.460780e-001 1.730358e-001 1.922470e-001 2.148305e-001 2.013438e-001 1.698284e-001 1.106414e-002
<GCONST> 8.432800e+001
<TRANSP> 10
 0.000000e+000 1.000000e+000 0.000000e+000 0.000000e+000 0.000000e+000 0.000000e+000 0.000000e+000 0.000000e+000 0.000000e+000 0.000000e+000
 0.000000e+000 7.168732e-001 2.831267e-001 0.000000e+000 0.000000e+000 0.000000e+000 0.000000e+000 0.000000e+000 0.000000e+000 0.000000e+000
 0.000000e+000 0.000000e+000 7.409657e-001 2.590343e-001 0.000000e+000 0.000000e+000 0.000000e+000 0.000000e+000 0.000000e+000 0.000000e+000
 0.000000e+000 0.000000e+000 0.000000e+000 7.354356e-001 2.645644e-001 0.000000e+000 0.000000e+000 0.000000e+000 0.000000e+000 0.000000e+000
 0.000000e+000 0.000000e+000 0.000000e+000 0.000000e+000 6.716910e-001 3.283090e-001 0.000000e+000 0.000000e+000 0.000000e+000 0.000000e+000
 0.000000e+000 0.000000e+000 0.000000e+000 0.000000e+000 0.000000e+000 7.189967e-001 2.810033e-001 0.000000e+000 0.000000e+000 0.000000e+000
 0.000000e+000 0.000000e+000 0.000000e+000 0.000000e+000 0.000000e+000 0.000000e+000 8.300852e-001 1.699148e-001 0.000000e+000 0.000000e+000
 0.000000e+000 0.000000e+000 0.000000e+000 0.000000e+000 0.000000e+000 0.000000e+000 0.000000e+000 7.180424e-001 2.819576e-001 0.000000e+000
 0.000000e+000 0.000000e+000 0.000000e+000 0.000000e+000 0.000000e+000 0.000000e+000 0.000000e+000 0.000000e+000 7.169749e-001 2.830251e-001
 0.000000e+000 0.000000e+000 0.000000e+000 0.000000e+000 0.000000e+000 0.000000e+000 0.000000e+000 0.000000e+000 0.000000e+000 0.000000e+000
<ENDHMM>
~h "two"
<BEGINHMM>
<NUMSTATES> 10
<STATE> 2
<MEAN> 39
 -1.241815e+001 -8.761716e-001 -4.961352e+000 -9.622808e+000 -6.022560e+000 -8.595639e+000 -4.370846e+000 -5.130970e+000 -3.912364e-001 -3.634512e+000 -1.040360e-001 -4.127886e+000 1.254683e+001 -6.432854e-001 4.540405e-001 -3.266570e-001 -9.543462e-002 2.710752e-002 3.904320e-001 9.373853e-003 1.015239e-001 3.646309e-001 -5.636578e-002 -7.625023e-003 1.163504e-001 3.127958e-001 1.695679e-001 1.190583e-001 2.868664e-001 -1.633168e-001 1.153431e-001 -2.491985e-002 1.647687e-002 -3.010298e-002 -2.578983e-002 -1.853819e-002 -8.430684e-002 -6.242662e-002 4.388323e-002
<VARIANCE> 39
 3.318943e+001 2.719414e+001 4.272174e+001 3.215712e+001 2.549935e+001 2.859006e+001 2.506201e+001 2.654623e+001 2.720069e+001 2.305094e+001 2.703679e+001 2.472449e+001 1.616314e+001 1.017115e+000 1.809506e+000 1.994990e+000 1.913895e+000 1.616175e+000 1.299377e+000 1.126297e+000 1.349157e+000 1.536808e+000 1.660237e+000 1.455215e+000 1.436427e+000 1.008810e+000 2.023154e-001 2.904304e-001 4.110148e-001 2.194331e-001 2.290205e-001 2.082238e-001 2.080182e-001 2.542088e-001 2.614393e-001 2.982118e-001 2.219513e-001 1.993750e-001 1.253881e-001
<GCONST> 1.003526e+002
<STATE> 3
<MEAN> 39
 -1.471024e+001 -2.466342e-001 -4.092275e+000 -1.433959e+001 -3.388364e+000 -7.714809e+000 -4.471807e+000 -4.519432e+000 9.491604e-001 -3.996628e+000 -7.760420e-001 -4.628689e+000 1.468586e+001 1.373041e+000 1.041217e+000 1.891539e+000 -5.809520e-001 -3.565044e-002 -1.581140e-001 -1.799792e-001 -4.613763e-001 -2.775068e-001 -1.102380e-001 -3.948132e-001 -4.474507e-001 4.772591e-001 4.192712e-001 3.674115e-002 2.464762e-001 -1.204503e-001 -3.193703e-001 -3.134793e-001 -1.598833e-001 -1.916239e-001 -1.932181e-001 -7.338467e-002 -4.873545e-002 -2.129514e-001 1.303675e-001
<VARIANCE> 39
 8.983063e+000 1.215103e+001 1.928728e+001 1.333916e+001 2.677863e+001 2.762583e+001 2.259610e+001 2.500698e+001 2.301020e+001 3.807291e+001 3.329828e+001 2.987102e+001 1.619754e+000 7.554184e-001 5.494885e-001 9.735134e-001 9.453269e-001 1.184411e+000 1.172709e+000 1.122029e+000 1.370875e+000 1.186937e+000 1.988063e+000 2.181368e+000 1.132507e+000 9.434366e-002 1.268775e-001 9.418623e-002 1.940396e-001 1.413908e-001 1.842058e-001 1.646429e-001 2.101512e-001 2.616695e-001 2.426133e-001 2.674764e-001 4.518461e-001 2.135353e-001 1.329943e-002
<GCONST> 8.440983e+001
<STATE> 4
<MEAN> 39
 -6.173871e+000 4.645785e+000 4.188108e+000 -1.601706e+001 -6.886356e+000 -1.085197e+001 -7.367834e+000 -8.615032e+000 -1.707916e+000 -5.139419e+000 -1.943226e+000 -7.023980e+000 1.778516e+001 1.566108e+000 7.517428e-001 1.350958e+000 -7.921091e-001 -1.324076e+000 -9.553006e-001 -8.360645e-001 -7.613764e-001 -5.809960e-001 -5.019518e-001 -4.470840e-001 -8.615163e-001 7.854823e-001 -4.022278e-001 -2.700199e-001 -5.185669e-001 5.244393e-002 -8.312140e-002 2.078814e-002 3.994350e-002 1.800123e-001 4.523837e-002 -2.396929e-002 2.901876e-003 3.337630e-002 -9.426886e-002
<VARIANCE> 39
 7.345810e+000 1.243743e+001 2.127316e+001 1.952865e+001 4.133900e+001 3.363043e+001 2.606074e+001 2.825555e+001 2.766666e+001 5.851179e+001 3.832184e+001 3.613787e+001 1.633044e+000 7.379081e-001 5.970711e-001 8.253605e-001 1.208664e+000 9.792269e-001 1.058883e+000 1.632150e+000 1.798962e+000 1.845293e+000 2.375205e+000 4.317124e+000 1.894456e+000 4.184601e-002 6.467471e-002 6.375461e-002 8.300668e-002 1.077615e-001 1.578962e-001 1.674089e-001 2.104010e-001 2.226588e-001 1.723369e-001 2.455124e-001 2.602720e-001 1.778254e-001 1.186337e-002
<GCONST> 8.429858e+001
<STATE> 5
<MEAN> 39
 -6.542398e+000 4.090194e+000 2.842817e+000 -2.021110e+001 -8.516129e+000 -1.248902e+001 -7.463120e+000 -7.643591e+000 -1.259772e+000 -7.252557e+000 -5.195159e+000 -1.083915e+001 1.883161e+001 2.036264e-001 2.204172e-003 1.823395e-001 -4.248819e-001 -6.023774e-001 -1.439344e-001 -8.289290e-002 1.554284e-001 -7.052365e-003 1.256905e-001 -1.113676e-001 -2.960214e-001 2.374627e-001 -2.567611e-001 -2.238356e-001 -2.369360e-001 3.719884e-001 3.309972e-001 1.752707e-001 2.014016e-001 1.404032e-001 6.446923e-002 1.740840e-001 2.963991e-001 2.876939e-001 -1.943995e-001
<VARIANCE> 39
 7.076561e+000 1.117777e+001 2.146994e+001 2.213515e+001 3.661274e+001 1.938146e+001 3.050173e+001 3.335188e+001 4.409084e+001 7.436465e+001 6.760117e+001 5.668070e+001 1.138005e+000 3.423654e-001 3.749659e-001 2.916947e-001 9.171073e-001 8.651053e-001 9.318017e-001 1.220881e+000 1.320926e+000 1.497533e+000 1.860272e+000 2.091107e+000 2.021865e+000 5.102425e-002 7.769173e-002 5.013632e-002 7.661237e-002 8.883300e-002 1.319812e-001 1.222302e-001 1.659081e-001 2.360319e-001 2.098078e-001 2.545364e-001 3.068509e-001 2.283082e-001 4.408428e-003
<GCONST> 7.964108e+001
<STATE> 6
<MEAN> 39
 -5.890061e+000 2.905761e+000 3.025249e+000 -1.754144e+001 -8.409458e+000 -1.259896e+001 -6.894151e+000 -7.044726e+000 -1.656183e+000 -4.547993e+000 -2.096157e+000 -8.426346e+000 1.843919e+001 1.781634e-001 -1.416311e-001 3.195469e-003 5.051549e-001 1.316406e-001 -2.233579e-001 9.321465e-002 6.989193e-003 -2.995268e-001 -5.696678e-003 7.703201e-002 3.637286e-002 -1.055775e-001 -4.224923e-003 -1.584809e-002 -4.316520e-002 8.202551e-002 9.390038e-002 -6.806693e-003 3.030635e-002 9.866187e-003 1.034541e-002 -2.488645e-002 -1.487200e-002 2.692813e-002 -3.493229e-002
<VARIANCE> 39
 7.896422e+000 8.281204e+000 1.510381e+001 2.472368e+001 3.840865e+001 2.345601e+001 3.020473e+001 2.972568e+001 4.606423e+001 4.958536e+001 6.570737e+001 4.932875e+001 1.426474e+000 1.532530e-001 1.828032e-001 2.640384e-001 4.652290e-001 5.934952e-001 6.602978e-001 7.027326e-001 8.666313e-001 7.157138e-001 9.173531e-001 9.478247e-001 1.088621e+000 9.554073e-003 2.479058e-002 2.407376e-002 3.850055e-002 6.283568e-002 8.790467e-002 8.782487e-002 1.030844e-001 1.201636e-001 1.194958e-001 1.117830e-001 1.330039e-001 1.374755e-001 2.499132e-003
<GCONST> 6.239915e+001
<STATE> 7
<MEAN> 39
 -1.444180e+000 1.100443e+000 5.133992e-001 -1.158877e+001 -7.383030e+000 -1.661319e+001 -7.191961e+000 -7.566391e+000 -3.785976e+000 -7.217945e+000 -2.568224e+000 -8.803835e+000 1.765171e+001 1.408851e-001 -6.752247e-002 -5.200923e-001 5.728068e-001 1.009816e+000 4.134997e-002 1.660173e-002 1.054150e-001 1.741855e-001 5.832477e-002 3.505899e-002 2.654337e-001 -2.708187e-001 -2.199076e-001 -3.925823e-002 -1.851955e-002 -9.164469e-002 9.337189e-002 2.970566e-001 1.350387e-001 1.879480e-002 1.602952e-001 1.059088e-001 2.431487e-003 6.458145e-002 -6.225152e-002
<VARIANCE> 39
 2.697249e+001 1.691803e+001 4.015635e+001 3.323977e+001 3.723730e+001 4.092437e+001 6.747823e+001 5.458735e+001 6.020677e+001 7.479821e+001 8.139439e+001 3.990052e+001 1.937625e+000 7.441027e-001 4.708656e-001 1.070280e+000 1.621703e+000 1.359632e+000 2.226018e+000 2.296349e+000 1.813465e+000 1.939776e+000 2.119854e+000 1.842532e+000 1.206003e+000 4.350473e-002 8.399153e-002 6.801794e-002 1.498441e-001 1.528806e-001 2.059977e-001 2.450777e-001 2.996548e-001 2.744414e-001 3.191068e-001 3.535941e-001 2.789102e-001 1.960987e-001 6.748809e-003
<GCONST> 9.429971e+001
<STATE> 8
<MEAN> 39
 -4.607577e+000 3.368007e+000 3.178596e+000 -8.928886e+000 -2.312196e+000 -1.095073e+001 -5.502393e+000 -6.577324e+000 -2.114279e+000 -3.796540e+000 -2.128722e+000 -6.589626e+000 1.548249e+001 -1.280906e+000 -9.317503e-001 -7.142029e-001 5.647792e-001 7.819908e-001 9.792049e-001 9.434890e-001 3.747989e-001 6.078508e-001 3.295285e-001 1.170952e-001 4.935234e-001 -6.713342e-001 -2.178876e-001 -2.785269e-001 -2.568070e-001 -3.154936e-001 -2.596124e-001 -7.384580e-002 -5.108444e-002 2.856028e-002 -2.531821e-002 -3.748358e-002 3.074938e-002 9.157114e-003 -2.321016e-002
<VARIANCE> 39
 2.748396e+001 2.443114e+001 3.121213e+001 4.109521e+001 5.448595e+001 4.187610e+001 3.832393e+001 3.673214e+001 4.617718e+001 4.460404e+001 3.789776e+001 3.656542e+001 3.839833e+000 1.133192e+000 8.055483e-001 1.598310e+000 1.588945e+000 1.456720e+000 1.422592e+000 1.427643e+000 1.377373e+000 1.909977e+000 2.038563e+000 2.250779e+000 1.448907e+000 1.529963e-001 1.030156e-001 9.847789e-002 1.490985e-001 1.837236e-001 2.048417e-001 2.102835e-001 2.074394e-001 2.238781e-001 2.257113e-001 2.412839e-001 2.235856e-001 2.071356e-001 1.337995e-002
<GCONST> 9.474598e+001
<STATE> 9
<MEAN> 39
 -1.074746e+001 -3.059664e+000 -2.333663e+000 -1.046305e+001 -2.185005e+000 -9.573731e+000 -3.071100e+000 -5.658942e+000 -1.052447e+000 -3.807470e+000 -9.643617e-001 -5.193130e+000 1.309731e+001 -9.499502e-001 -9.731807e-001 -1.024432e+000 -6.523936e-001 -3.218388e-001 2.058045e-001 1.401165e-001 1.997770e-002 6.455475e-002 -8.018404e-002 5.520197e-002 1.258570e-001 -3.289358e-001 2.675221e-001 2.336387e-001 1.643455e-001 -7.106451e-002 -1.425535e-001 -1.385883e-001 -2.161120e-001 -1.302949e-001 -1.605578e-001 -6.370379e-002 -8.560625e-002 -1.310987e-001 1.371107e-001
<VARIANCE> 39
 2.686618e+001 1.957128e+001 1.722831e+001 4.448730e+001 2.745152e+001 3.108920e+001 2.392268e+001 3.188133e+001 2.841716e+001 2.929694e+001 2.477767e+001 2.226892e+001 8.419909e+000 5.264953e-001 8.401287e-001 1.013128e+000 8.636193e-001 1.131272e+000 1.130120e+000 1.408526e+000 1.439196e+000 1.514638e+000 1.561553e+000 1.134959e+000 1.096979e+000 1.239601e-001 8.717624e-002 1.156122e-001 1.609421e-001 1.697023e-001 1.838271e-001 1.762000e-001 1.965549e-001 2.173374e-001 2.300467e-001 2.072888e-001 1.810341e-001 1.588716e-001 1.748573e-002
<GCONST> 8.671447e+001
<TRANSP> 10
 0.000000e+000 1.000000e+000 0.000000e+000 0.000000e+000 0.000000e+000 0.000000e+000 0.000000e+000 0.000000e+000 0.000000e+000 0.000000e+000
 0.000000e+000 6.894991e-001 3.105008e-001 0.000000e+000 0.000000e+000 0.000000e+000 0.000000e+000 0.000000e+000 0.000000e+000 0.000000e+000
 0.000000e+000 0.000000e+000 6.932624e-001 3.067376e-001 0.000000e+000 0.000000e+000 0.000000e+000 0.000000e+000 0.000000e+000 0.000000e+000
 0.000000e+000 0.000000e+000 0.000000e+000 5.688314e-001 4.311686e-001 0.000000e+000 0.000000e+000 0.000000e+000 0.000000e+000 0.000000e+000
 0.000000e+000 0.000000e+000 0.000000e+000 0.000000e+000 5.869400e-001 4.130600e-001 0.000000e+000 0.000000e+000 0.000000e+000 0.000000e+000
 0.000000e+000 0.000000e+000 0.000000e+000 0.000000e+000 0.000000e+000 8.705205e-001 1.294795e-001 0.000000e+000 0.000000e+000 0.000000e+000
 0.000000e+000 0.000000e+000 0.000000e+000 0.000000e+000 0.000000e+000 0.000000e+000 7.355087e-001 2.644912e-001 0.000000e+000 0.000000e+000
 0.000000e+000 0.000000e+000 0.000000e+000 0.000000e+000 0.000000e+000 0.000000e+000 0.000000e+000 6.016946e-001 3.983054e-001 0.000000e+000
 0.000000e+000 0.000000e+000 0.000000e+000 0.000000e+000 0.000000e+000 0.000000e+000 0.000000e+000 0.000000e+000 6.836220e-001 3.163780e-001
 0.000000e+000 0.000000e+000 0.000000e+000 0.000000e+000 0.000000e+000 0.000000e+000 0.000000e+000 0.000000e+000 0.000000e+000 0.000000e+000
<ENDHMM>
~h "one"
<BEGINHMM>
<NUMSTATES> 10
<STATE> 2
<MEAN> 39
 -4.789678e+000 -4.564028e-001 -2.729334e+000 -1.138194e+001 -1.143734e+000 -8.562286e+000 -3.487037e+000 -5.587471e+000 -3.042428e+000 -4.440294e+000 -1.008947e+000 -6.044046e+000 1.398978e+001 1.456321e+000 6.737210e-001 -2.834624e-001 -5.650373e-001 2.383702e-001 1.721807e-001 1.796744e-001 6.609526e-002 -2.647504e-001 -1.974468e-001 -1.326769e-001 -9.480196e-002 5.716561e-001 1.389699e-001 -8.477373e-002 -3.075991e-001 -2.243168e-001 -6.463431e-002 -4.993323e-003 4.065278e-003 2.605014e-002 2.316556e-002 -3.927143e-002 -5.274594e-002 -5.334373e-002 9.383096e-002
<VARIANCE> 39
 5.181676e+001 2.105964e+001 2.013907e+001 4.069797e+001 3.281224e+001 3.061316e+001 2.641047e+001 2.500337e+001 2.433610e+001 2.612055e+001 2.784471e+001 2.444685e+001 1.401270e+001 1.800002e+000 9.094001e-001 1.297661e+000 1.728984e+000 1.393873e+000 1.333736e+000 1.421522e+000 1.155764e+000 1.078724e+000 1.255356e+000 1.180238e+000 1.023044e+000 4.414155e-001 2.531187e-001 1.767184e-001 1.851902e-001 2.308489e-001 2.087428e-001 2.115662e-001 2.283904e-001 1.991808e-001 1.932376e-001 2.115068e-001 1.702933e-001 1.397644e-001 4.012083e-002
<GCONST> 9.387452e+001
<STATE> 3
<MEAN> 39
 1.598943e+000 1.338371e+000 -7.261763e+000 -1.838236e+001 -2.251630e+000 -9.289393e+000 -2.446223e+000 -5.256567e+000 -4.242261e+000 -6.271687e+000 -2.343642e+000 -7.637898e+000 1.766925e+001 4.679675e-001 -6.284773e-001 -1.603820e+000 -3.930769e-001 4.782014e-001 8.069243e-001 4.245160e-001 5.729506e-003 7.687859e-002 -5.974230e-002 2.285025e-002 -2.130032e-001 3.494055e-001 -2.635666e-001 -3.789200e-001 -1.373920e-001 5.210757e-001 3.514068e-001 1.294753e-001 -1.592265e-001 -1.086073e-001 7.326450e-002 4.715047e-002 -3.418822e-002 -4.664961e-002 -5.722083e-002
<VARIANCE> 39
 3.556125e+001 1.449323e+001 2.336186e+001 2.882148e+001 2.971703e+001 2.868620e+001 2.531087e+001 3.191181e+001 2.887160e+001 2.954465e+001 3.956683e+001 3.760936e+001 1.362051e+000 8.357010e-001 7.591809e-001 1.107241e+000 1.376538e+000 1.392025e+000 1.339865e+000 1.034073e+000 1.265063e+000 1.358516e+000 1.068003e+000 9.242780e-001 9.437206e-001 1.068150e-001 1.217022e-001 8.629294e-002 1.272266e-001 1.901839e-001 1.684958e-001 2.067654e-001 2.114725e-001 2.010604e-001 2.125496e-001 1.654721e-001 1.961007e-001 1.581113e-001 1.384071e-002
<GCONST> 8.520316e+001
<STATE> 4
<MEAN> 39
 7.922396e-001 -4.169631e+000 -1.461001e+001 -1.448613e+001 3.879711e+000 -3.911082e+000 -3.262116e+000 -7.489944e+000 -3.056073e+000 -5.577954e+000 -2.311764e+000 -9.239607e+000 1.855684e+001 -4.216169e-001 -1.586812e+000 -8.216521e-001 2.259202e+000 1.119220e+000 -7.931593e-002 -8.372208e-001 1.348053e-001 4.682063e-001 -4.723944e-001 -5.755380e-001 -1.882887e-001 1.184197e-001 -1.711159e-001 1.083916e-004 5.441099e-001 3.919362e-001 -4.179625e-001 -5.105892e-001 2.284245e-002 3.024310e-001 -4.379636e-002 -2.799566e-001 1.872816e-002 2.177791e-001 -5.277174e-002
<VARIANCE> 39
 2.001924e+001 1.280773e+001 2.684068e+001 3.511810e+001 2.716495e+001 2.455414e+001 3.212529e+001 3.414269e+001 3.967237e+001 3.038014e+001 3.472760e+001 2.744646e+001 1.282355e+000 3.919321e-001 3.846103e-001 9.044933e-001 9.588799e-001 1.093783e+000 1.488441e+000 1.208404e+000 1.505071e+000 1.275030e+000 1.222308e+000 1.234424e+000 1.065919e+000 2.144859e-002 4.372004e-002 5.074319e-002 1.081713e-001 1.852269e-001 2.126929e-001 1.314968e-001 2.783632e-001 1.986199e-001 2.477844e-001 1.708296e-001 1.938270e-001 1.558487e-001 2.261923e-003
<GCONST> 7.845901e+001
<STATE> 5
<MEAN> 39
 -2.209589e+000 -9.873655e+000 -1.214502e+001 -3.281875e+000 2.459777e+000 -9.500450e+000 -4.709743e+000 -2.417357e+000 -2.357451e+000 -1.124179e+001 -3.367264e+000 -6.526912e+000 1.858836e+001 -6.922156e-001 -6.589624e-001 1.313453e+000 1.339264e+000 -1.523416e+000 -7.182221e-001 1.219773e+000 3.563555e-001 -9.733006e-001 -6.167498e-001 7.272925e-001 5.313997e-001 -3.269748e-002 6.505203e-003 3.596087e-001 3.405224e-001 -6.471880e-001 -3.567064e-001 3.197225e-001 3.929587e-001 -4.485891e-001 -2.046558e-001 4.359387e-001 1.608958e-001 -1.571309e-001 -3.284525e-002
<VARIANCE> 39
 1.353747e+001 1.250091e+001 2.051613e+001 3.832043e+001 2.874569e+001 2.656995e+001 3.722492e+001 3.168190e+001 4.587479e+001 3.853326e+001 4.068132e+001 3.592175e+001 1.360589e+000 2.840103e-001 4.660211e-001 6.626220e-001 1.586467e+000 8.837305e-001 9.837693e-001 1.407814e+000 1.817727e+000 1.382760e+000 1.477964e+000 1.175583e+000 1.041861e+000 9.404198e-003 2.762827e-002 5.531345e-002 9.544596e-002 1.637826e-001 2.047720e-001 1.762571e-001 2.444609e-001 1.875614e-001 2.656046e-001 2.326821e-001 2.372760e-001 1.763937e-001 1.188864e-003
<GCONST> 7.759915e+001
<STATE> 6
<MEAN> 39
 -5.287426e+000 -9.140291e+000 -4.227806e+000 -5.360887e+000 -5.916175e+000 -5.518798e+000 2.565310e+000 -8.590258e+000 -5.527921e+000 -7.164642e+000 -1.079389e+000 -7.880321e+000 1.823416e+001 -2.094264e-001 1.126785e+000 1.523800e+000 -1.479006e+000 -5.167670e-001 6.451137e-001 -1.278742e-001 -1.017238e+000 4.798010e-001 8.509568e-001 -4.769023e-001 -2.883962e-001 -1.504366e-001 1.704349e-001 3.295425e-001 -7.099047e-002 -2.251364e-001 4.950157e-001 -2.248398e-001 -5.338938e-001 2.187923e-001 3.240352e-001 -5.700680e-002 -1.940344e-001 8.764192e-003 -2.201482e-002
<VARIANCE> 39
 9.472816e+000 1.523937e+001 1.332676e+001 3.102447e+001 2.276294e+001 4.017127e+001 3.133412e+001 4.788954e+001 5.588024e+001 4.078418e+001 4.624324e+001 3.512198e+001 1.426197e+000 3.444744e-001 6.731577e-001 1.084441e+000 9.736139e-001 1.623214e+000 1.925085e+000 2.299326e+000 1.716410e+000 1.744397e+000 2.012841e+000 1.222460e+000 8.303699e-001 1.405708e-002 4.224610e-002 6.764597e-002 7.957675e-002 2.024467e-001 1.761973e-001 3.533680e-001 2.454874e-001 3.104360e-001 2.476996e-001 2.598096e-001 2.391881e-001 1.511566e-001 1.094044e-003
<GCONST> 8.217870e+001
<STATE> 7
<MEAN> 39
 -3.148753e+000 4.424506e-001 2.340826e+000 -1.343567e+001 -1.935060e+000 -9.056706e+000 -3.465318e+000 -8.966353e+000 -1.450827e+000 -7.540605e+000 -4.329423e+000 -9.651430e+000 1.737421e+001 3.560395e-001 1.328052e+000 8.869999e-001 -4.597176e-001 8.966358e-001 -1.212699e+000 -7.184553e-001 2.853218e-001 1.967607e-001 1.531585e-001 -1.077491e-001 -1.774327e-001 -1.408306e-001 -8.605152e-002 -2.638369e-001 -2.196801e-001 3.380320e-001 -7.654101e-003 1.249300e-001 1.449889e-001 3.029817e-002 -1.482601e-001 -5.248508e-002 1.183406e-001 7.137480e-002 -4.398605e-003
<VARIANCE> 39
 1.485512e+001 1.602164e+001 2.034822e+001 1.533288e+001 2.840546e+001 6.516417e+001 3.070470e+001 4.802304e+001 4.767147e+001 5.783491e+001 6.207531e+001 4.783744e+001 1.307949e+000 4.629582e-001 8.569076e-001 9.829705e-001 1.088108e+000 1.317994e+000 1.827506e+000 1.611706e+000 1.674860e+000 1.399995e+000 1.656576e+000 1.594026e+000 1.164615e+000 2.277887e-002 5.549829e-002 9.348240e-002 1.542421e-001 1.196672e-001 1.720459e-001 3.674560e-001 2.105864e-001 2.004972e-001 1.599758e-001 2.543448e-001 2.187920e-001 1.602290e-001 3.837108e-003
<GCONST> 8.529613e+001
<STATE> 8
<MEAN> 39
 -2.692325e+000 3.474870e+000 5.399895e+000 -1.010093e+001 7.689311e-001 -1.070164e+001 -4.831002e+000 -7.973086e+000 -3.225207e+000 -5.146528e+000 -4.133514e+000 -8.248848e+000 1.608812e+001 -8.735275e-001 -2.839665e-001 -2.515005e-001 5.722739e-001 1.050787e-001 6.485983e-001 3.740714e-002 2.540069e-001 3.411382e-003 1.532662e-001 3.259444e-001 4.603862e-001 -4.847381e-001 -2.751517e-001 -4.152856e-001 -3.870398e-001 -9.324449e-002 -2.623485e-001 1.650760e-001 2.032927e-001 3.690978e-002 7.157869e-002 -4.743215e-002 1.032404e-001 1.136895e-001 -7.400846e-002
<VARIANCE> 39
 1.827161e+001 1.394211e+001 2.112059e+001 2.599783e+001 3.623252e+001 5.653293e+001 3.678727e+001 4.067114e+001 4.453459e+001 5.566832e+001 4.177845e+001 4.564017e+001 2.957449e+000 1.079360e+000 1.164284e+000 1.059010e+000 1.224582e+000 1.277237e+000 1.535243e+000 1.314382e+000 1.631209e+000 1.767146e+000 1.434655e+000 1.653964e+000 1.512543e+000 1.549616e-001 1.208815e-001 1.372747e-001 1.907231e-001 2.373873e-001 1.902443e-001 2.989571e-001 2.384080e-001 2.376851e-001 2.609063e-001 2.188980e-001 2.030215e-001 1.745066e-001 1.356494e-002
<GCONST> 9.338708e+001
<STATE> 9
<MEAN> 39
 -8.639509e+000 -1.444111e+000 7.385107e-001 -1.077001e+001 -8.681566e-001 -8.201057e+000 -2.425885e+000 -5.735733e+000 -1.315597e+000 -4.100941e+000 -1.456818e+000 -6.056740e+000 1.401582e+001 -7.981369e-001 -7.704743e-001 -9.645523e-001 -4.954475e-001 -5.490929e-001 -9.565787e-002 3.694983e-002 1.228539e-001 1.205180e-001 6.155677e-002 1.961415e-001 2.578317e-001 -2.821342e-001 1.208511e-001 6.209951e-002 8.797998e-003 -7.616269e-002 -6.611390e-002 -9.050842e-002 -6.564820e-002 -8.542276e-002 -5.597000e-002 -3.403093e-002 -6.476563e-002 -5.668040e-002 7.980666e-002
<VARIANCE> 39
 1.703072e+001 1.731732e+001 2.020098e+001 2.939987e+001 2.947744e+001 3.139685e+001 2.598701e+001 2.367931e+001 2.715620e+001 2.666748e+001 2.567488e+001 1.806202e+001 8.486981e+000 7.395066e-001 9.031019e-001 9.294245e-001 9.504033e-001 1.171430e+000 1.217325e+000 1.142703e+000 1.154275e+000 1.132497e+000 1.269984e+000 1.211428e+000 1.052673e+000 1.089886e-001 8.005513e-002 1.185540e-001 1.241802e-001 1.457666e-001 1.681937e-001 1.791011e-001 1.705099e-001 1.695130e-001 1.937996e-001 1.830250e-001 1.687158e-001 1.595138e-001 1.767805e-002
<GCONST> 8.365505e+001
<TRANSP> 10
 0.000000e+000 1.000000e+000 0.000000e+000 0.000000e+000 0.000000e+000 0.000000e+000 0.000000e+000 0.000000e+000 0.000000e+000 0.000000e+000
 0.000000e+000 6.923687e-001 3.076313e-001 0.000000e+000 0.000000e+000 0.000000e+000 0.000000e+000 0.000000e+000 0.000000e+000 0.000000e+000
 0.000000e+000 0.000000e+000 7.366964e-001 2.633036e-001 0.000000e+000 0.000000e+000 0.000000e+000 0.000000e+000 0.000000e+000 0.000000e+000
 0.000000e+000 0.000000e+000 0.000000e+000 7.336249e-001 2.663751e-001 0.000000e+000 0.000000e+000 0.000000e+000 0.000000e+000 0.000000e+000
 0.000000e+000 0.000000e+000 0.000000e+000 0.000000e+000 7.689514e-001 2.310487e-001 0.000000e+000 0.000000e+000 0.000000e+000 0.000000e+000
 0.000000e+000 0.000000e+000 0.000000e+000 0.000000e+000 0.000000e+000 8.014396e-001 1.985604e-001 0.000000e+000 0.000000e+000 0.000000e+000
 0.000000e+000 0.000000e+000 0.000000e+000 0.000000e+000 0.000000e+000 0.000000e+000 7.803137e-001 2.196863e-001 0.000000e+000 0.000000e+000
 0.000000e+000 0.000000e+000 0.000000e+000 0.000000e+000 0.000000e+000 0.000000e+000 0.000000e+000 6.898199e-001 3.101801e-001 0.000000e+000
 0.000000e+000 0.000000e+000 0.000000e+000 0.000000e+000 0.000000e+000 0.000000e+000 0.000000e+000 0.000000e+000 7.757335e-001 2.242665e-001
 0.000000e+000 0.000000e+000 0.000000e+000 0.000000e+000 0.000000e+000 0.000000e+000 0.000000e+000 0.000000e+000 0.000000e+000 0.000000e+000
<ENDHMM>
~h "eight"
<BEGINHMM>
<NUMSTATES> 10
<STATE> 2
<MEAN> 39
 -1.146006e+001 -3.570661e+000 -3.750449e+000 -1.610548e+001 -3.208484e+000 -8.089473e+000 -2.986842e+000 -6.373827e+000 -1.494071e+000 -5.938850e+000 -1.569032e+000 -5.844460e+000 1.346319e+001 3.292675e-001 4.591068e-001 -9.271376e-002 -8.534530e-001 5.646161e-001 7.556416e-001 4.808730e-001 1.685883e-001 2.774739e-002 -4.490372e-001 -8.377058e-002 -5.511488e-002 6.419233e-001 1.206989e-001 1.917264e-001 -1.888411e-002 -1.832583e-001 -1.149528e-002 -3.104587e-002 1.004680e-001 1.250321e-001 5.237814e-002 -3.706024e-002 -7.250998e-002 -2.966660e-002 1.212380e-001
<VARIANCE> 39
 1.490720e+001 1.591887e+001 1.860656e+001 3.562478e+001 3.981171e+001 4.173956e+001 2.946676e+001 3.012718e+001 2.597622e+001 3.279202e+001 2.746771e+001 2.687186e+001 1.751292e+001 8.756427e-001 9.000192e-001 1.075405e+000 1.602515e+000 1.555419e+000 1.658583e+000 1.475735e+000 1.340344e+000 1.394533e+000 1.349314e+000 1.230517e+000 1.123861e+000 5.870923e-001 1.452900e-001 8.983644e-002 1.377943e-001 2.523161e-001 2.046017e-001 3.020823e-001 2.465508e-001 2.209022e-001 2.228155e-001 2.468465e-001 2.065311e-001 1.807500e-001 6.621449e-002
<GCONST> 9.412650e+001
<STATE> 3
<MEAN> 39
 -8.349281e+000 -1.610705e-001 -5.186444e+000 -2.220492e+001 -5.564831e-001 -5.394050e+000 6.820042e-001 -4.486794e+000 -9.429799e-001 -8.212471e+000 -2.984019e+000 -6.306634e+000 1.796683e+001 2.696859e-001 1.039390e+000 -1.489868e-001 -7.075020e-001 -1.835704e-001 -3.571193e-001 3.365483e-001 5.187582e-001 3.884269e-001 2.064862e-002 -1.401268e-001 -1.257240e-001 4.120345e-001 -9.272580e-002 7.132980e-002 6.319376e-002 2.224224e-001 -1.658696e-001 -4.058172e-001 -2.100980e-001 -8.030927e-002 3.344904e-002 1.869998e-001 1.416259e-001 -2.863259e-002 -1.163459e-001
<VARIANCE> 39
 9.242528e+000 1.510611e+001 2.460636e+001 1.590104e+001 4.905685e+001 2.365273e+001 2.916163e+001 1.811332e+001 2.611690e+001 2.316340e+001 2.355529e+001 3.140240e+001 1.689223e+000 4.042672e-001 5.141751e-001 4.378707e-001 8.965618e-001 9.480316e-001 1.354586e+000 1.641835e+000 9.307659e-001 9.374941e-001 1.000793e+000 1.310847e+000 1.013445e+000 2.146071e-001 5.298486e-002 6.229499e-002 7.526044e-002 1.174179e-001 1.487916e-001 1.159994e-001 1.454680e-001 1.101431e-001 1.754905e-001 1.493160e-001 1.616594e-001 1.308732e-001 2.170379e-002
<GCONST> 7.633325e+001
<STATE> 4
<MEAN> 39
 -8.171646e+000 4.984689e+000 -4.834083e+000 -2.252712e+001 -3.683886e+000 -1.137314e+001 -5.498390e-001 -3.169230e+000 1.399413e+000 -5.250833e+000 -1.716654e+000 -6.752202e+000 1.853506e+001 -2.190821e-004 1.064411e+000 2.738518e-001 3.334388e-001 -4.294259e-001 -1.410502e+000 -7.246864e-001 -2.656255e-001 2.994479e-001 6.300296e-001 5.512103e-001 5.991259e-002 2.836620e-002 -2.086289e-002 -4.958406e-002 9.093830e-002 2.000499e-001 4.943006e-002 -2.451835e-002 -1.262260e-001 -1.781594e-001 -1.184673e-001 -2.671134e-002 4.247831e-002 2.230081e-002 -5.502032e-002
<VARIANCE> 39
 8.347605e+000 1.261904e+001 2.340918e+001 1.817525e+001 3.232664e+001 1.977983e+001 5.121899e+001 2.073728e+001 1.891788e+001 1.703024e+001 1.861152e+001 2.065958e+001 1.323548e+000 1.450299e-001 3.309401e-001 2.510934e-001 3.439683e-001 7.639690e-001 6.722376e-001 7.278976e-001 5.863347e-001 1.015608e+000 7.167593e-001 8.240508e-001 7.532095e-001 2.134371e-002 2.293275e-002 3.466131e-002 3.456970e-002 6.256997e-002 7.012632e-002 7.823141e-002 1.021955e-001 9.481769e-002 9.927836e-002 1.034173e-001 9.711830e-002 9.015939e-002 3.399624e-003
<GCONST> 5.806181e+001
<STATE> 5
<MEAN> 39
 -8.502911e+000 9.769920e+000 -2.177705e+000 -1.947592e+001 -5.560553e+000 -1.715416e+001 -6.144194e+000 -6.189842e+000 2.736371e-001 -4.349489e+000 6.539754e-001 -6.610032e+000 1.832160e+001 5.753851e-002 4.594544e-001 4.805752e-001 9.520226e-001 2.265796e-001 -5.140311e-001 -6.195731e-001 -8.037606e-001 -6.976865e-001 -2.879053e-001 -1.502492e-001 -1.508460e-001 -1.992743e-001 3.775603e-002 -2.907178e-001 3.914475e-002 3.020614e-002 1.474199e-001 3.272956e-001 1.326099e-001 2.609880e-002 -1.255808e-001 -1.625342e-001 -2.048884e-001 -1.310930e-002 -7.306813e-002
<VARIANCE> 39
 7.927353e+000 2.006389e+001 2.505787e+001 2.135964e+001 1.816340e+001 1.813442e+001 5.034360e+001 2.208907e+001 3.043568e+001 2.111821e+001 3.510219e+001 3.173777e+001 1.878934e+000 2.233415e-001 6.716140e-001 2.890935e-001 4.344427e-001 7.467617e-001 8.398681e-001 7.371647e-001 6.762265e-001 1.000325e+000 8.158745e-001 1.041148e+000 8.646756e-001 2.219743e-002 3.594576e-002 5.031156e-002 5.637918e-002 7.575066e-002 9.226675e-002 9.403847e-002 1.129762e-001 1.198049e-001 1.543486e-001 1.190246e-001 1.625448e-001 1.712120e-001 3.120248e-003
<GCONST> 6.653272e+001
<STATE> 6
<MEAN> 39
 -7.137365e+000 1.153407e+001 -9.430819e-001 -1.632462e+001 -3.125756e+000 -1.836449e+001 -5.885122e+000 -9.764857e+000 -2.453795e+000 -7.033278e+000 -2.342398e+000 -7.579366e+000 1.699413e+001 3.179935e-001 -1.015562e+000 9.752322e-001 9.397539e-001 3.082533e-001 8.085294e-001 -3.428105e-001 -3.988189e-002 -5.020155e-001 -1.476556e-001 -2.383989e-001 2.654591e-001 -6.403661e-001 -8.965102e-002 -5.535565e-001 -1.436829e-001 4.734069e-002 -8.570936e-002 4.097363e-001 1.722789e-001 2.918694e-001 1.589685e-001 1.895111e-001 8.719531e-002 9.688957e-002 -1.341831e-001
<VARIANCE> 39
 1.069423e+001 3.362072e+001 2.934251e+001 2.385513e+001 2.048059e+001 2.512554e+001 6.099636e+001 3.162429e+001 4.209876e+001 4.256924e+001 4.104668e+001 3.160602e+001 2.590222e+000 7.181551e-001 1.207864e+000 9.314278e-001 1.303868e+000 1.307476e+000 1.486751e+000 1.959425e+000 1.325724e+000 1.403221e+000 1.431994e+000 1.813225e+000 1.875154e+000 1.064402e-001 8.364189e-002 1.162217e-001 1.436582e-001 2.497834e-001 1.525824e-001 2.277029e-001 2.568300e-001 1.837115e-001 2.803473e-001 2.201726e-001 2.147185e-001 2.215229e-001 1.321285e-002
<GCONST> 9.035326e+001
<STATE> 7
<MEAN> 39
 -4.980659e+000 6.045599e+000 4.094331e+000 -1.021451e+001 -2.812349e+000 -1.089199e+001 -7.121776e+000 -7.690809e+000 -3.768229e+000 -5.635627e+000 -2.955634e+000 -6.259107e+000 1.393891e+001 -7.250752e-001 -2.256626e+000 -5.766841e-001 1.004257e+000 -3.408463e-002 1.283767e+000 6.125097e-001 3.972344e-001 2.556956e-001 2.891180e-001 1.044764e-001 2.962831e-001 -9.356333e-001 -4.225528e-001 -1.361231e-001 -5.495421e-001 -4.368259e-001 -1.087995e-001 -2.350321e-001 9.871542e-002 4.890242e-002 1.568501e-001 5.613073e-002 1.504620e-001 4.784334e-002 4.265000e-002
<VARIANCE> 39
 2.048294e+001 2.549099e+001 2.085990e+001 4.188924e+001 2.878825e+001 3.685035e+001 2.876044e+001 2.696478e+001 2.428022e+001 2.330830e+001 2.606978e+001 2.660341e+001 7.528380e+000 1.097631e+000 1.407388e+000 1.201916e+000 2.797741e+000 1.358792e+000 1.776251e+000 2.370054e+000 1.421965e+000 1.711545e+000 1.451753e+000 1.387249e+000 1.229479e+000 3.088105e-001 1.637576e-001 1.549575e-001 1.551283e-001 2.687174e-001 2.444283e-001 2.867754e-001 2.754512e-001 1.956632e-001 1.929649e-001 1.988986e-001 2.100621e-001 1.935925e-001 2.800820e-002
<GCONST> 9.477206e+001
<STATE> 8
<MEAN> 39
 -1.138354e+001 -1.873893e+000 -2.185467e+000 -1.106127e+001 -3.508527e+000 -8.430217e+000 -4.393322e+000 -5.607908e+000 -1.033713e+000 -4.860162e+000 -1.171136e+000 -4.552268e+000 1.055015e+001 -6.569607e-001 -1.052128e+000 -6.269406e-001 -3.465670e-001 3.932137e-002 2.580182e-001 2.213006e-001 1.270334e-001 9.767477e-002 3.485722e-002 1.119406e-001 -3.268960e-002 -8.881770e-002 1.280290e-001 2.704531e-001 4.449032e-002 -1.077490e-001 -5.105644e-002 -1.277683e-001 -4.301447e-002 -2.685163e-002 -2.918524e-002 -6.205884e-002 -2.533720e-002 -3.707211e-002 1.214278e-001
<VARIANCE> 39
 1.628025e+001 1.767129e+001 1.549951e+001 3.594839e+001 2.205947e+001 3.121026e+001 2.547131e+001 2.693796e+001 2.355477e+001 2.733817e+001 2.447803e+001 2.425437e+001 1.427717e+001 1.604679e+000 1.537694e+000 1.416294e+000 1.948774e+000 1.083402e+000 1.573631e+000 1.387611e+000 1.413700e+000 1.469241e+000 1.444612e+000 1.264030e+000 1.356394e+000 5.560043e-001 1.898400e-001 2.545360e-001 2.087646e-001 3.417196e-001 1.769814e-001 2.903536e-001 2.791236e-001 2.506565e-001 2.718815e-001 2.596800e-001 2.451081e-001 2.374064e-001 9.420408e-002
<GCONST> 9.691534e+001
<STATE> 9
<MEAN> 39
 -1.231796e+001 -3.855297e+000 -3.929118e+000 -1.605975e+001 -3.457936e+000 -1.197046e+001 -5.595050e+000 -6.438791e+000 -2.188506e+000 -5.445302e+000 -9.945444e-001 -6.212679e+000 1.381856e+001 -3.798202e-001 -5.434551e-001 -5.547603e-001 -3.338644e-001 -2.145723e-001 6.777482e-002 9.133625e-002 2.474318e-001 5.609245e-002 3.297582e-002 6.084555e-002 1.290885e-001 -9.116504e-002 1.491306e-001 3.176799e-001 1.754009e-001 1.140040e-001 2.763044e-002 -5.224625e-002 -2.079001e-002 -1.732881e-002 8.927831e-003 -5.436270e-003 8.914229e-003 -2.146562e-002 7.250611e-002
<VARIANCE> 39
 9.129376e+000 1.140047e+001 1.232199e+001 2.524682e+001 1.660784e+001 1.824562e+001 2.001096e+001 2.324811e+001 2.064801e+001 1.886004e+001 1.835219e+001 1.602182e+001 6.990413e+000 2.479977e-001 5.062509e-001 6.167401e-001 7.942487e-001 6.378977e-001 6.693702e-001 8.580885e-001 7.003899e-001 8.923084e-001 8.279888e-001 7.934581e-001 8.050402e-001 5.907762e-002 5.078301e-002 9.433888e-002 1.030026e-001 1.299256e-001 1.267413e-001 1.113241e-001 1.499612e-001 1.338351e-001 1.637887e-001 1.667199e-001 1.539134e-001 1.403444e-001 1.089655e-002
<GCONST> 7.000371e+001
<TRANSP> 10
 0.000000e+000 1.000000e+000 0.000000e+000 0.000000e+000 0.000000e+000 0.000000e+000 0.000000e+000 0.000000e+000 0.000000e+000 0.000000e+000
 0.000000e+000 7.123376e-001 2.876624e-001 0.000000e+000 0.000000e+000 0.000000e+000 0.000000e+000 0.000000e+000 0.000000e+000 0.000000e+000
 0.000000e+000 0.000000e+000 7.508624e-001 2.491377e-001 0.000000e+000 0.000000e+000 0.000000e+000 0.000000e+000 0.000000e+000 0.000000e+000
 0.000000e+000 0.000000e+000 0.000000e+000 7.783997e-001 2.216003e-001 0.000000e+000 0.000000e+000 0.000000e+000 0.000000e+000 0.000000e+000
 0.000000e+000 0.000000e+000 0.000000e+000 0.000000e+000 7.648110e-001 2.351889e-001 0.000000e+000 0.000000e+000 0.000000e+000 0.000000e+000
 0.000000e+000 0.000000e+000 0.000000e+000 0.000000e+000 0.000000e+000 6.356525e-001 3.643475e-001 0.000000e+000 0.000000e+000 0.000000e+000
 0.000000e+000 0.000000e+000 0.000000e+000 0.000000e+000 0.000000e+000 0.000000e+000 5.414975e-001 4.585024e-001 0.000000e+000 0.000000e+000
 0.000000e+000 0.000000e+000 0.000000e+000 0.000000e+000 0.000000e+000 0.000000e+000 0.000000e+000 7.236293e-001 2.763707e-001 0.000000e+000
 0.000000e+000 0.000000e+000 0.000000e+000 0.000000e+000 0.000000e+000 0.000000e+000 0.000000e+000 0.000000e+000 6.421878e-001 3.578122e-001
 0.000000e+000 0.000000e+000 0.000000e+000 0.000000e+000 0.000000e+000 0.000000e+000 0.000000e+000 0.000000e+000 0.000000e+000 0.000000e+000
<ENDHMM>
~h "five"
<BEGINHMM>
<NUMSTATES> 10
<STATE> 2
<MEAN> 39
 -1.372578e+001 -5.701091e+000 -3.885785e+000 -1.313180e+001 -4.004696e+000 -1.046115e+001 -3.018271e+000 -5.917412e+000 -1.258017e+000 -4.179216e+000 -3.368605e-001 -5.131757e+000 1.314865e+001 1.383812e+000 -7.518818e-001 -7.099876e-001 5.929070e-001 7.416869e-001 3.515634e-001 6.908053e-001 3.738865e-001 -6.047469e-001 -3.738752e-001 -1.852149e-001 -1.495248e-001 7.115567e-001 4.269730e-001 -2.892875e-001 -2.113509e-001 2.408973e-001 2.373068e-001 8.926600e-002 1.538246e-001 6.607865e-002 -2.464470e-001 -1.110785e-001 -8.790324e-002 -7.545245e-002 2.241033e-001
<VARIANCE> 39
 1.286916e+001 9.329123e+000 9.266557e+000 3.052365e+001 1.761391e+001 2.260802e+001 1.962391e+001 1.888213e+001 1.651013e+001 1.674128e+001 1.336036e+001 1.287631e+001 8.409279e+000 1.586833e+000 8.237448e-001 8.489214e-001 9.650033e-001 1.126309e+000 8.919615e-001 1.228312e+000 2.046052e+000 1.312777e+000 9.589272e-001 8.991227e-001 7.381908e-001 3.681061e-001 1.727103e-001 1.078160e-001 1.239940e-001 1.474394e-001 1.575472e-001 1.574992e-001 1.849550e-001 2.707981e-001 1.968253e-001 2.157671e-001 1.634740e-001 1.342157e-001 2.784187e-002
<GCONST> 8.149112e+001
<STATE> 3
<MEAN> 39
 -3.407112e+000 -1.239832e+001 -1.014252e+001 -9.192159e+000 9.617899e-001 -8.835725e+000 5.018699e-001 -3.555882e+000 -7.586906e+000 -7.624171e+000 -2.353928e+000 -6.640679e+000 1.870192e+001 7.526609e-001 -1.560032e+000 -7.618080e-001 1.252364e+000 9.076204e-001 3.118818e-001 5.438104e-001 -1.998342e-001 -9.891250e-001 -1.575705e-001 -7.210439e-002 -8.639006e-002 7.374269e-001 -6.063101e-001 1.747162e-001 3.578511e-001 -4.966873e-003 -2.055511e-001 -1.117456e-001 -1.779454e-001 -2.542992e-001 2.838368e-001 2.430316e-001 1.762707e-001 1.036310e-001 -2.287802e-001
<VARIANCE> 39
 1.024855e+001 1.734123e+001 2.412558e+001 1.999149e+001 2.821434e+001 1.776822e+001 3.223610e+001 5.923640e+001 3.796074e+001 2.966277e+001 2.359233e+001 2.073526e+001 1.682132e+000 1.487861e+000 6.523790e-001 1.323739e+000 1.395590e+000 1.093294e+000 1.027801e+000 1.387947e+000 1.908632e+000 2.233794e+000 2.193443e+000 1.468917e+000 1.195328e+000 2.468012e-001 9.466697e-002 1.104542e-001 1.177282e-001 1.375362e-001 1.734685e-001 1.317272e-001 2.151556e-001 3.441084e-001 2.944516e-001 1.913192e-001 1.463240e-001 1.324375e-001 1.805663e-002
<GCONST> 8.707487e+001
<STATE> 4
<MEAN> 39
 -5.705239e+000 -1.483894e+001 -1.067707e+001 -5.766152e+000 2.891762e+000 -9.272913e+000 3.608576e-001 -4.138457e+000 -8.578806e+000 -7.686286e+000 -4.132639e-001 -5.083996e+000 1.928127e+001 -4.107205e-001 -2.953606e-001 5.910518e-001 6.002955e-001 -2.482900e-001 9.078605e-002 2.726727e-001 -4.491827e-001 -1.697531e-001 4.227059e-001 5.096190e-001 -2.522525e-002 5.189103e-003 1.565490e-002 2.105660e-001 1.194128e-001 -2.296042e-001 -2.062967e-001 3.388008e-002 -4.180719e-002 3.930567e-002 1.001538e-001 1.017356e-002 -7.405803e-002 -1.001915e-001 -6.010621e-002
<VARIANCE> 39
 9.648382e+000 1.299616e+001 2.751989e+001 2.517351e+001 2.184614e+001 1.876126e+001 2.538410e+001 3.682800e+001 4.102050e+001 4.620176e+001 3.255730e+001 2.362859e+001 1.621447e+000 1.289958e-001 1.721424e-001 2.819269e-001 5.956480e-001 7.190673e-001 4.918295e-001 6.252247e-001 9.145559e-001 1.300678e+000 7.536547e-001 5.497068e-001 6.383636e-001 1.048585e-002 2.965742e-002 4.509518e-002 5.821774e-002 6.915625e-002 6.594507e-002 7.384847e-002 8.762955e-002 9.407986e-002 1.177654e-001 1.552965e-001 1.045591e-001 1.102053e-001 5.510217e-003
<GCONST> 6.184559e+001
<STATE> 5
<MEAN> 39
 -7.414720e+000 -1.589713e+001 -5.270633e+000 -2.371576e+000 6.125642e-001 -9.171894e+000 1.930866e+000 -8.992738e+000 -5.266178e+000 -2.869111e+000 -7.589719e-002 -6.140983e+000 1.876561e+001 -1.151824e-001 1.414077e-001 3.128318e-001 -2.804350e-001 -2.096190e-001 3.211928e-001 -6.048475e-002 -3.970703e-001 2.241134e-001 1.658839e-001 -1.573929e-001 -3.870884e-002 -5.372120e-002 3.795815e-002 7.230743e-002 -3.492789e-002 -1.847035e-001 1.955616e-002 9.840174e-002 -1.829379e-002 -2.237720e-002 -2.336222e-003 -3.745531e-002 -6.854811e-002 1.918617e-002 -6.572622e-003
<VARIANCE> 39
 8.454381e+000 1.361054e+001 1.684932e+001 3.070636e+001 1.399783e+001 2.109649e+001 1.660562e+001 2.238534e+001 5.893858e+001 2.737931e+001 3.393492e+001 2.499049e+001 1.355898e+000 6.509861e-002 8.831659e-002 1.891810e-001 4.118992e-001 3.510491e-001 3.948020e-001 3.862897e-001 4.904796e-001 3.947375e-001 3.931316e-001 4.234726e-001 3.939640e-001 5.068951e-003 9.209728e-003 1.578685e-002 1.802608e-002 3.968361e-002 3.769778e-002 4.643782e-002 4.763594e-002 5.785720e-002 5.880449e-002 5.175021e-002 6.001887e-002 4.176483e-002 4.064784e-004
<GCONST> 4.051018e+001
<STATE> 6
<MEAN> 39
 -7.725610e+000 -1.333874e+001 -4.105737e+000 -9.850817e+000 4.616472e-001 -3.404562e+000 2.829033e-001 -1.284683e+001 -4.668533e+000 -3.093764e+000 -1.748554e+000 -5.847600e+000 1.841039e+001 8.787822e-002 9.606707e-001 8.841117e-002 -1.658359e+000 -9.813445e-002 9.836347e-001 -1.056949e-001 -2.983552e-002 1.980141e-001 -5.569291e-001 -3.029456e-001 2.273512e-001 -1.026257e-001 8.183494e-002 2.086291e-001 -1.790616e-002 -1.145660e-001 -1.254187e-001 -1.661090e-001 6.763539e-002 3.380885e-001 5.804820e-003 -1.572204e-001 -1.826866e-002 -3.237563e-004 -1.779517e-002
<VARIANCE> 39
 7.504912e+000 1.430438e+001 1.076727e+001 2.624415e+001 2.367678e+001 1.898685e+001 2.525937e+001 2.810592e+001 8.032279e+001 2.827729e+001 3.472154e+001 3.043937e+001 2.090201e+000 1.441201e-001 2.718977e-001 3.972110e-001 7.337329e-001 1.072529e+000 6.075554e-001 7.712567e-001 9.597775e-001 9.586288e-001 1.185075e+000 1.335581e+000 6.690874e-001 8.792564e-003 1.885498e-002 3.189720e-002 4.647478e-002 6.796142e-002 8.710279e-002 1.079841e-001 1.200456e-001 8.456842e-002 1.609332e-001 1.119522e-001 1.471611e-001 9.948426e-002 1.146933e-003
<GCONST> 6.273750e+001
<STATE> 7
<MEAN> 39
 -6.547744e+000 -7.787791e+000 -4.271901e+000 -1.727957e+001 -2.731802e+000 -1.613196e+000 2.087591e+000 -7.707832e+000 -5.015261e+000 -6.856203e+000 -3.173346e+000 -6.115331e+000 1.809083e+001 3.611732e-001 1.517437e+000 6.843159e-001 -7.908337e-001 -1.034407e+000 -8.543299e-001 -1.239952e-001 1.127861e+000 6.260936e-001 -1.268997e-001 -4.649899e-001 -3.865174e-001 -2.296165e-001 -4.950238e-002 5.998383e-002 2.069849e-001 5.431731e-001 7.280062e-002 -4.825323e-001 -2.951784e-001 1.188922e-002 1.163606e-001 2.000522e-001 1.649522e-001 -6.403901e-002 -7.727660e-002
<VARIANCE> 39
 7.779182e+000 1.751741e+001 8.707699e+000 2.537954e+001 4.758000e+001 2.062249e+001 1.915966e+001 3.544326e+001 4.587825e+001 2.890381e+001 3.355439e+001 3.615561e+001 2.214422e+000 3.318246e-001 5.087588e-001 4.868174e-001 1.176949e+000 7.122864e-001 1.201613e+000 1.040476e+000 9.345840e-001 1.880085e+000 1.157269e+000 1.081083e+000 7.895023e-001 3.070054e-002 5.142943e-002 9.110411e-002 7.554856e-002 1.522684e-001 2.079607e-001 1.323868e-001 1.476580e-001 1.733270e-001 1.908211e-001 1.775307e-001 2.582655e-001 1.634862e-001 5.307000e-003
<GCONST> 7.622675e+001
<STATE> 8
<MEAN> 39
 -4.754345e+000 -1.453325e+000 1.255994e+000 -1.291160e+001 -5.606095e+000 -8.098971e+000 -1.932191e+000 -5.347622e+000 -2.917368e+000 -5.623127e+000 -3.185522e+000 -7.845080e+000 1.611476e+001 -6.029854e-001 1.067906e+000 7.407452e-001 1.194133e+000 6.025929e-001 -1.040110e+000 -9.068176e-001 2.123335e-001 4.640307e-001 3.217496e-001 3.548211e-001 9.660675e-004 -6.788470e-001 -3.760203e-001 -4.034457e-001 -3.452514e-001 -1.768485e-002 2.781097e-001 2.500371e-001 7.978748e-002 -1.830449e-001 -3.657188e-002 1.570988e-002 8.037972e-002 1.473486e-001 -3.747494e-002
<VARIANCE> 39
 1.732626e+001 2.507242e+001 2.364812e+001 5.211248e+001 5.572295e+001 3.372210e+001 3.142696e+001 4.276765e+001 3.533407e+001 3.932692e+001 3.673587e+001 3.642561e+001 5.241506e+000 1.715318e+000 1.368891e+000 1.147299e+000 1.925546e+000 2.468261e+000 1.697738e+000 1.629482e+000 1.792480e+000 1.980254e+000 1.463897e+000 1.666528e+000 1.592086e+000 1.510848e-001 1.937147e-001 1.868202e-001 1.792027e-001 4.244699e-001 3.843031e-001 2.153555e-001 2.565755e-001 2.684173e-001 2.957481e-001 2.264657e-001 2.507721e-001 2.177752e-001 2.040217e-002
<GCONST> 9.943787e+001
<STATE> 9
<MEAN> 39
 -1.176325e+001 -3.623535e+000 -1.341025e+000 -1.062673e+001 -1.552917e+000 -7.732540e+000 -3.097856e+000 -5.668008e+000 -1.186779e-001 -4.331871e+000 -1.416469e+000 -6.065046e+000 1.249996e+001 -6.403515e-001 -4.251086e-001 -6.213266e-001 -2.175098e-001 -1.016979e-001 -1.866601e-001 -2.824809e-001 -1.414526e-001 5.761681e-002 1.079661e-001 1.357685e-001 1.297178e-001 -2.749731e-001 2.295281e-001 -4.424991e-002 -6.174785e-002 -1.713392e-001 -1.725044e-001 5.356954e-002 7.159759e-002 -6.210778e-002 -1.146595e-001 -6.175537e-002 -5.588489e-002 -1.226908e-002 1.034993e-001
<VARIANCE> 39
 1.705498e+001 1.839960e+001 1.580629e+001 2.727293e+001 2.048588e+001 2.984312e+001 2.368993e+001 2.692792e+001 2.687009e+001 2.677057e+001 2.364842e+001 2.130497e+001 1.000911e+001 1.381972e+000 9.516693e-001 1.026573e+000 1.151949e+000 1.355170e+000 1.185172e+000 1.179911e+000 1.341810e+000 1.240988e+000 1.159844e+000 1.037802e+000 1.130352e+000 1.125119e-001 1.446145e-001 1.670872e-001 1.844395e-001 2.257723e-001 2.346058e-001 2.115724e-001 2.316633e-001 2.232591e-001 2.046283e-001 2.154297e-001 1.874742e-001 1.802543e-001 1.878215e-002
<GCONST> 8.783375e+001
<TRANSP> 10
 0.000000e+000 1.000000e+000 0.000000e+000 0.000000e+000 0.000000e+000 0.000000e+000 0.000000e+000 0.000000e+000 0.000000e+000 0.000000e+000
 0.000000e+000 7.686343e-001 2.313657e-001 0.000000e+000 0.000000e+000 0.000000e+000 0.000000e+000 0.000000e+000 0.000000e+000 0.000000e+000
 0.000000e+000 0.000000e+000 7.398394e-001 2.601606e-001 0.000000e+000 0.000000e+000 0.000000e+000 0.000000e+000 0.000000e+000 0.000000e+000
 0.000000e+000 0.000000e+000 0.000000e+000 7.421193e-001 2.578807e-001 0.000000e+000 0.000000e+000 0.000000e+000 0.000000e+000 0.000000e+000
 0.000000e+000 0.000000e+000 0.000000e+000 0.000000e+000 8.663306e-001 1.336694e-001 0.000000e+000 0.000000e+000 0.000000e+000 0.000000e+000
 0.000000e+000 0.000000e+000 0.000000e+000 0.000000e+000 0.000000e+000 7.496518e-001 2.503481e-001 0.000000e+000 0.000000e+000 0.000000e+000
 0.000000e+000 0.000000e+000 0.000000e+000 0.000000e+000 0.000000e+000 0.000000e+000 7.195025e-001 2.804975e-001 0.000000e+000 0.000000e+000
 0.000000e+000 0.000000e+000 0.000000e+000 0.000000e+000 0.000000e+000 0.000000e+000 0.000000e+000 7.328085e-001 2.671915e-001 0.000000e+000
 0.000000e+000 0.000000e+000 0.000000e+000 0.000000e+000 0.000000e+000 0.000000e+000 0.000000e+000 0.000000e+000 7.803439e-001 2.196561e-001
 0.000000e+000 0.000000e+000 0.000000e+000 0.000000e+000 0.000000e+000 0.000000e+000 0.000000e+000 0.000000e+000 0.000000e+000 0.000000e+000
<ENDHMM>
~h "oh"
<BEGINHMM>
<NUMSTATES> 10
<STATE> 2
<MEAN> 39
 -1.004425e+001 -5.588026e+000 -4.920145e+000 -1.274865e+001 -5.054846e+000 -8.479396e+000 -9.600874e-001 -5.754670e+000 -1.868440e+000 -5.384495e+000 -1.098656e+000 -4.863930e+000 1.283581e+001 7.136291e-001 -9.279922e-001 -6.652054e-001 6.549700e-001 5.626218e-001 4.414120e-001 9.669685e-001 -1.506492e-002 -6.164374e-001 -2.571810e-001 -1.047717e-001 2.163637e-001 4.715734e-001 2.307749e-001 -8.581746e-002 -8.422714e-002 1.303032e-001 1.326836e-001 -3.411977e-002 3.866441e-002 1.797301e-002 -8.803436e-002 -4.200909e-002 -5.697859e-002 -5.028255e-002 1.625603e-001
<VARIANCE> 39
 2.248005e+001 2.243799e+001 2.160974e+001 4.662431e+001 3.587238e+001 3.955891e+001 3.900983e+001 5.167281e+001 3.741806e+001 2.946270e+001 2.187090e+001 2.494863e+001 1.942416e+001 1.340659e+000 1.253559e+000 1.020413e+000 1.368544e+000 1.647741e+000 2.098444e+000 1.917798e+000 3.219412e+000 1.959902e+000 1.913157e+000 1.120390e+000 1.319964e+000 7.322966e-001 1.726329e-001 1.408062e-001 1.379666e-001 1.860074e-001 2.294852e-001 2.974955e-001 3.133443e-001 3.525464e-001 2.962756e-001 2.420591e-001 2.135363e-001 2.305054e-001 6.481741e-002
<GCONST> 1.006220e+002
<STATE> 3
<MEAN> 39
 -4.290738e+000 -1.098585e+001 -9.109894e+000 -9.224648e+000 -1.582456e+000 -8.692682e+000 3.536433e+000 -4.756148e+000 -5.910144e+000 -7.724106e+000 -2.578942e+000 -5.078685e+000 1.767504e+001 8.613096e-001 -4.581174e-001 -7.845984e-001 5.150594e-001 3.904534e-001 -1.388014e-001 3.914276e-001 6.015889e-001 -1.091783e-001 -3.533570e-001 -3.816013e-001 -2.482050e-001 6.533213e-001 -1.526426e-001 3.094298e-001 8.895055e-002 -2.167828e-001 -1.378101e-001 -1.643978e-001 -3.058714e-001 6.314392e-002 2.929533e-001 9.458645e-002 -4.119755e-002 -1.031955e-001 -1.236503e-001
<VARIANCE> 39
 1.414563e+001 1.944339e+001 1.849931e+001 2.936129e+001 2.912046e+001 3.632916e+001 4.158810e+001 1.174674e+002 4.390536e+001 3.836427e+001 2.604304e+001 2.942259e+001 3.964261e+000 6.707487e-001 6.231726e-001 7.219715e-001 1.149261e+000 1.176312e+000 1.268946e+000 2.120437e+000 2.232528e+000 1.484058e+000 1.465988e+000 1.414416e+000 1.499181e+000 3.076087e-001 7.427521e-002 7.121890e-002 5.917206e-002 1.031353e-001 1.327507e-001 1.626053e-001 1.993626e-001 3.379527e-001 2.151072e-001 2.047004e-001 1.713899e-001 1.690611e-001 3.558452e-002
<GCONST> 8.886980e+001
<STATE> 4
<MEAN> 39
 -3.521796e+000 -1.111809e+001 -8.598953e+000 -9.273446e+000 -1.585279e+000 -8.889647e+000 6.943223e+000 -6.118715e+000 -6.098178e+000 -6.206322e+000 -2.034338e+000 -5.435725e+000 1.893264e+001 3.131503e-001 4.123847e-001 -1.953169e-001 -1.439272e-001 -9.477251e-002 -6.220040e-001 -2.706404e-001 7.377030e-001 3.960679e-001 -3.244523e-001 -1.850618e-001 -7.057478e-002 2.499022e-002 -2.513959e-002 8.032739e-002 3.560984e-002 -6.499287e-002 2.720600e-004 -3.754578e-002 -1.887560e-001 -4.241053e-002 1.272645e-001 4.969515e-002 -2.978969e-002 -3.279380e-002 -3.736058e-002
<VARIANCE> 39
 1.301027e+001 1.396937e+001 1.536615e+001 2.300311e+001 2.193798e+001 3.257133e+001 4.140104e+001 7.746314e+001 2.630505e+001 3.813404e+001 4.483704e+001 3.364185e+001 1.795186e+000 1.521164e-001 1.741609e-001 3.444895e-001 3.780570e-001 4.409754e-001 7.428201e-001 1.211995e+000 8.493040e-001 9.781749e-001 7.714582e-001 9.251853e-001 6.178004e-001 2.879835e-002 2.101586e-002 2.326709e-002 3.154482e-002 5.167625e-002 4.931686e-002 8.293830e-002 1.077677e-001 1.309107e-001 9.357183e-002 1.207761e-001 1.211590e-001 9.234625e-002 3.453219e-003
<GCONST> 6.261578e+001
<STATE> 5
<MEAN> 39
 -1.012088e+000 -6.889350e+000 -1.371698e+001 -1.184945e+001 -3.215370e-002 -1.410329e+001 -3.538510e+000 2.523390e+000 8.477855e-001 -9.103823e+000 -6.396587e+000 -7.819518e+000 1.907697e+001 2.906090e-001 5.833175e-001 -2.323193e-001 -3.320896e-001 2.237470e-001 -1.351938e-001 -1.148453e+000 -4.968914e-001 9.661452e-001 8.699567e-001 -7.553752e-002 -6.631127e-001 1.998026e-002 -3.408776e-002 5.892044e-002 1.195742e-001 -2.598187e-002 -2.585260e-002 1.277273e-001 5.028972e-002 -2.413927e-001 -1.102077e-001 2.070194e-001 2.013987e-001 3.994148e-003 -3.684542e-002
<VARIANCE> 39
 1.347768e+001 9.937217e+000 2.587723e+001 2.746218e+001 3.319062e+001 2.810692e+001 4.736345e+001 3.919667e+001 3.111691e+001 2.966363e+001 3.006514e+001 2.530750e+001 2.354605e+000 2.121234e-001 2.273991e-001 4.007705e-001 3.371401e-001 4.009832e-001 5.738974e-001 1.045699e+000 9.018336e-001 8.090994e-001 9.248670e-001 9.088071e-001 6.581584e-001 2.507545e-002 2.172808e-002 2.325077e-002 3.841688e-002 4.162693e-002 5.494942e-002 9.713616e-002 9.456560e-002 1.252661e-001 1.021746e-001 1.124305e-001 1.250720e-001 1.075872e-001 1.893965e-003
<GCONST> 6.203168e+001
<STATE> 6
<MEAN> 39
 6.441332e-001 -2.728093e+000 -1.415778e+001 -1.471593e+001 6.526308e-001 -1.280789e+001 -7.597311e+000 -4.377687e+000 2.516206e+000 -1.493556e+000 -2.175652e+000 -1.061019e+001 1.891594e+001 1.867358e-001 7.156394e-001 3.170763e-001 -3.719630e-001 -1.498186e-001 2.767923e-001 -3.884864e-001 -9.896692e-001 -3.488603e-001 6.135351e-001 8.138886e-001 2.033479e-001 -9.409659e-002 -7.208280e-002 -3.264809e-002 1.890018e-001 6.091991e-002 -5.523026e-002 5.244104e-002 2.136130e-001 4.079201e-002 -2.673852e-001 -2.665594e-001 1.430564e-002 1.769123e-001 -3.868556e-002
<VARIANCE> 39
 1.679191e+001 1.238680e+001 4.129004e+001 2.753779e+001 3.604485e+001 3.343345e+001 5.314954e+001 3.061707e+001 3.468798e+001 2.578552e+001 3.567808e+001 2.472412e+001 2.145965e+000 2.226868e-001 2.446327e-001 4.695263e-001 5.006034e-001 5.754535e-001 8.227418e-001 8.109012e-001 1.174710e+000 9.279979e-001 1.203016e+000 1.155548e+000 1.266591e+000 1.586022e-002 2.212381e-002 2.499212e-002 4.477010e-002 5.304654e-002 7.033437e-002 9.190894e-002 1.310350e-001 1.280984e-001 1.351399e-001 1.171231e-001 1.535316e-001 1.286078e-001 1.637238e-003
<GCONST> 6.691747e+001
<STATE> 7
<MEAN> 39
 7.283106e-001 -7.626068e-001 -1.013741e+001 -1.524209e+001 -1.656569e+000 -1.234183e+001 -6.780959e+000 -7.060369e+000 -7.370716e-001 -3.230451e+000 -5.303285e-001 -8.389731e+000 1.829237e+001 -3.855634e-001 4.303702e-001 1.228994e+000 2.183018e-001 -7.111911e-002 2.578928e-001 2.029217e-001 -3.881173e-001 -6.244296e-001 -2.970158e-001 1.442666e-001 2.575877e-001 -3.103224e-001 -2.873815e-001 -1.743480e-001 1.800978e-001 2.432905e-001 4.074344e-002 4.739293e-002 2.340052e-001 2.392314e-001 4.680402e-002 -8.513749e-002 -1.034332e-001 6.828842e-002 -8.202227e-002
<VARIANCE> 39
 3.348714e+001 1.475119e+001 4.895479e+001 3.227404e+001 3.412666e+001 4.216648e+001 5.733062e+001 3.884890e+001 3.713832e+001 3.535253e+001 5.270465e+001 3.477564e+001 2.229440e+000 4.517199e-001 5.576415e-001 6.863393e-001 7.858132e-001 1.112915e+000 1.654063e+000 1.466675e+000 1.392581e+000 1.575449e+000 1.209317e+000 1.391002e+000 1.335612e+000 2.896370e-002 5.848746e-002 5.273828e-002 1.442492e-001 1.056988e-001 1.835009e-001 2.425665e-001 2.181613e-001 2.728768e-001 2.788941e-001 2.147758e-001 3.174706e-001 2.501644e-001 5.739005e-003
<GCONST> 8.636442e+001
<STATE> 8
<MEAN> 39
 -7.980195e-001 -9.004534e-001 -5.061299e+000 -1.060603e+001 -2.339684e+000 -1.124154e+001 -4.000174e+000 -6.728045e+000 -1.854450e+000 -4.581316e+000 -1.418755e+000 -6.787572e+000 1.636953e+001 -1.833488e+000 -6.820183e-002 1.429569e+000 5.732042e-001 8.191580e-002 8.666646e-001 4.310312e-001 2.321244e-001 6.174462e-002 6.504007e-002 1.398487e-001 5.995146e-001 -7.192704e-001 -3.061573e-001 -2.589895e-001 -2.643170e-001 -1.055489e-001 -4.294158e-002 1.381799e-002 2.143801e-002 9.133287e-002 1.545289e-001 6.779492e-002 1.101290e-002 -5.918009e-003 -4.776468e-002
<VARIANCE> 39
 4.014904e+001 2.665949e+001 6.262156e+001 4.003238e+001 5.101690e+001 8.083939e+001 7.765273e+001 5.533906e+001 3.970715e+001 6.389979e+001 5.101690e+001 4.031773e+001 4.747848e+000 1.577906e+000 1.273970e+000 2.461751e+000 1.511168e+000 2.374964e+000 3.566915e+000 4.533012e+000 3.054882e+000 2.708040e+000 2.459195e+000 2.493286e+000 1.900836e+000 2.191268e-001 2.052823e-001 1.760372e-001 3.301629e-001 1.929962e-001 3.524679e-001 6.269304e-001 5.724159e-001 4.654367e-001 3.916253e-001 3.820286e-001 3.290937e-001 3.207597e-001 2.687318e-002
<GCONST> 1.122354e+002
<STATE> 9
<MEAN> 39
 -9.489251e+000 -3.356849e+000 -2.581232e+000 -1.041259e+001 -1.165470e+000 -8.931752e+000 -2.822344e+000 -4.827709e+000 -7.284712e-001 -3.245721e+000 -7.275316e-001 -5.366870e+000 1.343966e+001 -1.178116e+000 -5.686685e-001 -7.957840e-002 -3.032707e-001 -3.660187e-001 -1.988325e-002 6.342920e-002 3.333340e-003 -1.785635e-002 -1.515982e-001 -6.157793e-002 1.347467e-001 -3.480385e-001 3.039843e-001 6.223575e-002 -1.894776e-001 -1.485035e-001 -5.378896e-002 -1.251738e-001 -1.283385e-001 -1.093849e-001 -9.452261e-002 -3.647354e-002 -1.544801e-002 -9.285019e-002 1.169552e-001
<VARIANCE> 39
