~o
<STREAMINFO> 1 39
<VECSIZE> 39<NULLD><MFCC_E_D_A><DIAGC>
~h "hmmdef"
<BEGINHMM>
<NUMSTATES> 10
<STATE> 2
<MEAN> 39
 -8.536379e+000 -3.661809e+000 -3.413225e+000 -1.356958e+001 -3.857596e+000 -1.002732e+001 -3.409388e+000 -6.145245e+000 -1.861989e+000 -5.078612e+000 -1.696472e+000 -6.440441e+000 1.514765e+001 4.796394e-003 5.325046e-003 5.090705e-003 5.937441e-003 3.563917e-003 2.610459e-003 5.514501e-003 2.377343e-003 -2.047066e-003 -1.069348e-003 6.081523e-004 -1.044052e-003 6.167251e-004 -1.452136e-005 2.395456e-004 -2.239580e-004 -3.570484e-004 -2.325362e-004 -1.454651e-004 -4.873230e-004 -3.006610e-004 2.787391e-004 5.936840e-004 3.229735e-004 -1.213122e-004 -3.325999e-005
<VARIANCE> 39
 3.349912e+001 3.534465e+001 3.131624e+001 4.549163e+001 3.511110e+001 3.704331e+001 3.350000e+001 3.206654e+001 3.165744e+001 3.217171e+001 2.978494e+001 2.694639e+001 1.408543e+001 8.307025e-001 1.023625e+000 9.834873e-001 1.254127e+000 1.236888e+000 1.354288e+000 1.267995e+000 1.213125e+000 1.192866e+000 1.207037e+000 1.105886e+000 9.517286e-001 1.762107e-001 9.592617e-002 1.133278e-001 1.267087e-001 1.638539e-001 1.769921e-001 2.005892e-001 1.911903e-001 1.830633e-001 1.823592e-001 1.843327e-001 1.707581e-001 1.454295e-001 1.659844e-002
<GCONST> 8.982469e+001
<STATE> 3
<MEAN> 39
 -8.536379e+000 -3.661809e+000 -3.413225e+000 -1.356958e+001 -3.857596e+000 -1.002732e+001 -3.409388e+000 -6.145245e+000 -1.861989e+000 -5.078612e+000 -1.696472e+000 -6.440441e+000 1.514765e+001 4.796394e-003 5.325046e-003 5.090705e-003 5.937441e-003 3.563917e-003 2.610459e-003 5.514501e-003 2.377343e-003 -2.047066e-003 -1.069348e-003 6.081523e-004 -1.044052e-003 6.167251e-004 -1.452136e-005 2.395456e-004 -2.239580e-004 -3.570484e-004 -2.325362e-004 -1.454651e-004 -4.873230e-004 -3.006610e-004 2.787391e-004 5.936840e-004 3.229735e-004 -1.213122e-004 -3.325999e-005
<VARIANCE> 39
 3.349912e+001 3.534465e+001 3.131624e+001 4.549163e+001 3.511110e+001 3.704331e+001 3.350000e+001 3.206654e+001 3.165744e+001 3.217171e+001 2.978494e+001 2.694639e+001 1.408543e+001 8.307025e-001 1.023625e+000 9.834873e-001 1.254127e+000 1.236888e+000 1.354288e+000 1.267995e+000 1.213125e+000 1.192866e+000 1.207037e+000 1.105886e+000 9.517286e-001 1.762107e-001 9.592617e-002 1.133278e-001 1.267087e-001 1.638539e-001 1.769921e-001 2.005892e-001 1.911903e-001 1.830633e-001 1.823592e-001 1.843327e-001 1.707581e-001 1.454295e-001 1.659844e-002
<GCONST> 8.982469e+001
<STATE> 4
<MEAN> 39
 -8.536379e+000 -3.661809e+000 -3.413225e+000 -1.356958e+001 -3.857596e+000 -1.002732e+001 -3.409388e+000 -6.145245e+000 -1.861989e+000 -5.078612e+000 -1.696472e+000 -6.440441e+000 1.514765e+001 4.796394e-003 5.325046e-003 5.090705e-003 5.937441e-003 3.563917e-003 2.610459e-003 5.514501e-003 2.377343e-003 -2.047066e-003 -1.069348e-003 6.081523e-004 -1.044052e-003 6.167251e-004 -1.452136e-005 2.395456e-004 -2.239580e-004 -3.570484e-004 -2.325362e-004 -1.454651e-004 -4.873230e-004 -3.006610e-004 2.787391e-004 5.936840e-004 3.229735e-004 -1.213122e-004 -3.325999e-005
<VARIANCE> 39
 3.349912e+001 3.534465e+001 3.131624e+001 4.549163e+001 3.511110e+001 3.704331e+001 3.350000e+001 3.206654e+001 3.165744e+001 3.217171e+001 2.978494e+001 2.694639e+001 1.408543e+001 8.307025e-001 1.023625e+000 9.834873e-001 1.254127e+000 1.236888e+000 1.354288e+000 1.267995e+000 1.213125e+000 1.192866e+000 1.207037e+000 1.105886e+000 9.517286e-001 1.762107e-001 9.592617e-002 1.133278e-001 1.267087e-001 1.638539e-001 1.769921e-001 2.005892e-001 1.911903e-001 1.830633e-001 1.823592e-001 1.843327e-001 1.707581e-001 1.454295e-001 1.659844e-002
<GCONST> 8.982469e+001
<STATE> 5
<MEAN> 39
 -8.536379e+000 -3.661809e+000 -3.413225e+000 -1.356958e+001 -3.857596e+000 -1.002732e+001 -3.409388e+000 -6.145245e+000 -1.861989e+000 -5.078612e+000 -1.696472e+000 -6.440441e+000 1.514765e+001 4.796394e-003 5.325046e-003 5.090705e-003 5.937441e-003 3.563917e-003 2.610459e-003 5.514501e-003 2.377343e-003 -2.047066e-003 -1.069348e-003 6.081523e-004 -1.044052e-003 6.167251e-004 -1.452136e-005 2.395456e-004 -2.239580e-004 -3.570484e-004 -2.325362e-004 -1.454651e-004 -4.873230e-004 -3.006610e-004 2.787391e-004 5.936840e-004 3.229735e-004 -1.213122e-004 -3.325999e-005
<VARIANCE> 39
 3.349912e+001 3.534465e+001 3.131624e+001 4.549163e+001 3.511110e+001 3.704331e+001 3.350000e+001 3.206654e+001 3.165744e+001 3.217171e+001 2.978494e+001 2.694639e+001 1.408543e+001 8.307025e-001 1.023625e+000 9.834873e-001 1.254127e+000 1.236888e+000 1.354288e+000 1.267995e+000 1.213125e+000 1.192866e+000 1.207037e+000 1.105886e+000 9.517286e-001 1.762107e-001 9.592617e-002 1.133278e-001 1.267087e-001 1.638539e-001 1.769921e-001 2.005892e-001 1.911903e-001 1.830633e-001 1.823592e-001 1.843327e-001 1.707581e-001 1.454295e-001 1.659844e-002
<GCONST> 8.982469e+001
<STATE> 6
<MEAN> 39
 -8.536379e+000 -3.661809e+000 -3.413225e+000 -1.356958e+001 -3.857596e+000 -1.002732e+001 -3.409388e+000 -6.145245e+000 -1.861989e+000 -5.078612e+000 -1.696472e+000 -6.440441e+000 1.514765e+001 4.796394e-003 5.325046e-003 5.090705e-003 5.937441e-003 3.563917e-003 2.610459e-003 5.514501e-003 2.377343e-003 -2.047066e-003 -1.069348e-003 6.081523e-004 -1.044052e-003 6.167251e-004 -1.452136e-005 2.395456e-004 -2.239580e-004 -3.570484e-004 -2.325362e-004 -1.454651e-004 -4.873230e-004 -3.006610e-004 2.787391e-004 5.936840e-004 3.229735e-004 -1.213122e-004 -3.325999e-005
<VARIANCE> 39
 3.349912e+001 3.534465e+001 3.131624e+001 4.549163e+001 3.511110e+001 3.704331e+001 3.350000e+001 3.206654e+001 3.165744e+001 3.217171e+001 2.978494e+001 2.694639e+001 1.408543e+001 8.307025e-001 1.023625e+000 9.834873e-001 1.254127e+000 1.236888e+000 1.354288e+000 1.267995e+000 1.213125e+000 1.192866e+000 1.207037e+000 1.105886e+000 9.517286e-001 1.762107e-001 9.592617e-002 1.133278e-001 1.267087e-001 1.638539e-001 1.769921e-001 2.005892e-001 1.911903e-001 1.830633e-001 1.823592e-001 1.843327e-001 1.707581e-001 1.454295e-001 1.659844e-002
<GCONST> 8.982469e+001
<STATE> 7
<MEAN> 39
 -8.536379e+000 -3.661809e+000 -3.413225e+000 -1.356958e+001 -3.857596e+000 -1.002732e+001 -3.409388e+000 -6.145245e+000 -1.861989e+000 -5.078612e+000 -1.696472e+000 -6.440441e+000 1.514765e+001 4.796394e-003 5.325046e-003 5.090705e-003 5.937441e-003 3.563917e-003 2.610459e-003 5.514501e-003 2.377343e-003 -2.047066e-003 -1.069348e-003 6.081523e-004 -1.044052e-003 6.167251e-004 -1.452136e-005 2.395456e-004 -2.239580e-004 -3.570484e-004 -2.325362e-004 -1.454651e-004 -4.873230e-004 -3.006610e-004 2.787391e-004 5.936840e-004 3.229735e-004 -1.213122e-004 -3.325999e-005
<VARIANCE> 39
 3.349912e+001 3.534465e+001 3.131624e+001 4.549163e+001 3.511110e+001 3.704331e+001 3.350000e+001 3.206654e+001 3.165744e+001 3.217171e+001 2.978494e+001 2.694639e+001 1.408543e+001 8.307025e-001 1.023625e+000 9.834873e-001 1.254127e+000 1.236888e+000 1.354288e+000 1.267995e+000 1.213125e+000 1.192866e+000 1.207037e+000 1.105886e+000 9.517286e-001 1.762107e-001 9.592617e-002 1.133278e-001 1.267087e-001 1.638539e-001 1.769921e-001 2.005892e-001 1.911903e-001 1.830633e-001 1.823592e-001 1.843327e-001 1.707581e-001 1.454295e-001 1.659844e-002
<GCONST> 8.982469e+001
<STATE> 8
<MEAN> 39
 -8.536379e+000 -3.661809e+000 -3.413225e+000 -1.356958e+001 -3.857596e+000 -1.002732e+001 -3.409388e+000 -6.145245e+000 -1.861989e+000 -5.078612e+000 -1.696472e+000 -6.440441e+000 1.514765e+001 4.796394e-003 5.325046e-003 5.090705e-003 5.937441e-003 3.563917e-003 2.610459e-003 5.514501e-003 2.377343e-003 -2.047066e-003 -1.069348e-003 6.081523e-004 -1.044052e-003 6.167251e-004 -1.452136e-005 2.395456e-004 -2.239580e-004 -3.570484e-004 -2.325362e-004 -1.454651e-004 -4.873230e-004 -3.006610e-004 2.787391e-004 5.936840e-004 3.229735e-004 -1.213122e-004 -3.325999e-005
<VARIANCE> 39
 3.349912e+001 3.534465e+001 3.131624e+001 4.549163e+001 3.511110e+001 3.704331e+001 3.350000e+001 3.206654e+001 3.165744e+001 3.217171e+001 2.978494e+001 2.694639e+001 1.408543e+001 8.307025e-001 1.023625e+000 9.834873e-001 1.254127e+000 1.236888e+000 1.354288e+000 1.267995e+000 1.213125e+000 1.192866e+000 1.207037e+000 1.105886e+000 9.517286e-001 1.762107e-001 9.592617e-002 1.133278e-001 1.267087e-001 1.638539e-001 1.769921e-001 2.005892e-001 1.911903e-001 1.830633e-001 1.823592e-001 1.843327e-001 1.707581e-001 1.454295e-001 1.659844e-002
<GCONST> 8.982469e+001
<STATE> 9
<MEAN> 39
 -8.536379e+000 -3.661809e+000 -3.413225e+000 -1.356958e+001 -3.857596e+000 -1.002732e+001 -3.409388e+000 -6.145245e+000 -1.861989e+000 -5.078612e+000 -1.696472e+000 -6.440441e+000 1.514765e+001 4.796394e-003 5.325046e-003 5.090705e-003 5.937441e-003 3.563917e-003 2.610459e-003 5.514501e-003 2.377343e-003 -2.047066e-003 -1.069348e-003 6.081523e-004 -1.044052e-003 6.167251e-004 -1.452136e-005 2.395456e-004 -2.239580e-004 -3.570484e-004 -2.325362e-004 -1.454651e-004 -4.873230e-004 -3.006610e-004 2.787391e-004 5.936840e-004 3.229735e-004 -1.213122e-004 -3.325999e-005
<VARIANCE> 39
 3.349912e+001 3.534465e+001 3.131624e+001 4.549163e+001 3.511110e+001 3.704331e+001 3.350000e+001 3.206654e+001 3.165744e+001 3.217171e+001 2.978494e+001 2.694639e+001 1.408543e+001 8.307025e-001 1.023625e+000 9.834873e-001 1.254127e+000 1.236888e+000 1.354288e+000 1.267995e+000 1.213125e+000 1.192866e+000 1.207037e+000 1.105886e+000 9.517286e-001 1.762107e-001 9.592617e-002 1.133278e-001 1.267087e-001 1.638539e-001 1.769921e-001 2.005892e-001 1.911903e-001 1.830633e-001 1.823592e-001 1.843327e-001 1.707581e-001 1.454295e-001 1.659844e-002
<GCONST> 8.982469e+001
<TRANSP> 10
 0.000000e+000 1.000000e+000 0.000000e+000 0.000000e+000 0.000000e+000 0.000000e+000 0.000000e+000 0.000000e+000 0.000000e+000 0.000000e+000
 0.000000e+000 6.000000e-001 4.000000e-001 0.000000e+000 0.000000e+000 0.000000e+000 0.000000e+000 0.000000e+000 0.000000e+000 0.000000e+000
 0.000000e+000 0.000000e+000 6.000000e-001 4.000000e-001 0.000000e+000 0.000000e+000 0.000000e+000 0.000000e+000 0.000000e+000 0.000000e+000
 0.000000e+000 0.000000e+000 0.000000e+000 6.000000e-001 4.000000e-001 0.000000e+000 0.000000e+000 0.000000e+000 0.000000e+000 0.000000e+000
 0.000000e+000 0.000000e+000 0.000000e+000 0.000000e+000 6.000000e-001 4.000000e-001 0.000000e+000 0.000000e+000 0.000000e+000 0.000000e+000
 0.000000e+000 0.000000e+000 0.000000e+000 0.000000e+000 0.000000e+000 6.000000e-001 4.000000e-001 0.000000e+000 0.000000e+000 0.000000e+000
 0.000000e+000 0.000000e+000 0.000000e+000 0.000000e+000 0.000000e+000 0.000000e+000 6.000000e-001 4.000000e-001 0.000000e+000 0.000000e+000
 0.000000e+000 0.000000e+000 0.000000e+000 0.000000e+000 0.000000e+000 0.000000e+000 0.000000e+000 6.000000e-001 4.000000e-001 0.000000e+000
 0.000000e+000 0.000000e+000 0.000000e+000 0.000000e+000 0.000000e+000 0.000000e+000 0.000000e+000 0.000000e+000 6.000000e-001 4.000000e-001
 0.000000e+000 0.000000e+000 0.000000e+000 0.000000e+000 0.000000e+000 0.000000e+000 0.000000e+000 0.000000e+000 0.000000e+000 0.000000e+000
<ENDHMM>
