~o
<STREAMINFO> 1 39
<VECSIZE> 39<NULLD><MFCC_E_D_A><DIAGC>
~h "four"
<BEGINHMM>
<NUMSTATES> 10
<STATE> 2
<MEAN> 39
 -1.400724e+001 -5.945943e+000 -3.531929e+000 -1.238650e+001 -4.313814e+000 -1.096925e+001 -3.221598e+000 -5.556324e+000 -1.358486e+000 -4.804821e+000 -3.743269e-001 -4.932935e+000 1.290571e+001 4.054739e-001 -1.061130e-001 -3.824421e-001 -1.868267e-001 1.269627e-001 8.086417e-002 -1.281001e-002 -4.391637e-002 1.624636e-002 8.294251e-002 5.166773e-002 2.226900e-002 2.095759e-001 4.797112e-001 1.604726e-001 -1.541373e-001 -7.487125e-002 1.314622e-001 6.667694e-002 -5.377218e-002 -5.331386e-002 -4.775479e-002 2.012998e-002 -2.756497e-002 -9.212883e-002 1.339613e-001
<VARIANCE> 39
 1.257697e+001 9.494775e+000 1.059128e+001 3.455449e+001 1.428756e+001 1.916671e+001 1.733626e+001 1.756425e+001 1.749433e+001 1.633689e+001 1.717542e+001 1.421235e+001 6.221114e+000 2.940291e+000 7.464211e-001 8.564898e-001 7.312802e-001 9.151764e-001 8.834543e-001 7.666803e-001 8.919834e-001 9.350665e-001 7.884106e-001 9.392025e-001 7.345567e-001 2.699577e-001 2.265303e-001 1.140579e-001 2.012419e-001 1.648784e-001 1.395985e-001 1.669169e-001 1.557684e-001 1.700966e-001 1.739926e-001 1.445793e-001 1.696824e-001 1.305122e-001 1.945238e-002
<GCONST> 7.853020e+001
<STATE> 3
<MEAN> 39
 -3.756562e+000 -3.625890e+000 -6.412145e+000 -1.305856e+001 -1.008770e+000 -9.130434e+000 -3.447664e+000 -6.136635e+000 -1.125429e+000 -4.234134e+000 -8.868262e-001 -5.902915e+000 1.615549e+001 3.531671e+000 9.522024e-001 -2.214201e+000 -1.207308e+000 7.425814e-001 5.285625e-001 -3.642156e-001 -3.134065e-001 -2.891141e-001 2.895942e-001 -9.009765e-003 -5.587037e-001 1.097553e+000 -1.578787e-001 4.491435e-002 -2.535061e-001 -2.622685e-001 -1.340306e-001 -1.103328e-002 7.401132e-003 -1.382710e-002 -9.490396e-002 2.733277e-002 6.547423e-002 -7.333433e-003 -2.481350e-002
<VARIANCE> 39
 4.869105e+001 1.476901e+001 2.708189e+001 3.198407e+001 1.446861e+001 1.990186e+001 1.753446e+001 1.989276e+001 1.793948e+001 1.767427e+001 2.407430e+001 1.626774e+001 5.085889e+000 1.901094e+000 1.144062e+000 1.161918e+000 1.384090e+000 1.442231e+000 1.520118e+000 1.297544e+000 1.372610e+000 1.558261e+000 1.694009e+000 2.358064e+000 1.513713e+000 1.473177e-001 2.704005e-001 8.227572e-002 1.528662e-001 1.250006e-001 1.262934e-001 1.614401e-001 1.411480e-001 1.508643e-001 1.849197e-001 2.279035e-001 2.021368e-001 1.706886e-001 2.386073e-002
<GCONST> 8.706061e+001
<STATE> 4
<MEAN> 39
 2.034494e+000 -1.482102e+000 -1.339274e+001 -1.910168e+001 -3.840307e-001 -8.947196e+000 -4.694551e+000 -7.169037e+000 -2.832076e+000 -3.254599e+000 -2.049386e-001 -7.285649e+000 1.875502e+001 1.299596e+000 5.884144e-001 -1.251415e+000 -1.016127e+000 7.011376e-002 4.246466e-001 -2.615715e-002 -1.989463e-001 -3.193087e-001 1.724128e-001 2.219173e-001 -6.754521e-002 4.632486e-001 -6.234549e-001 -1.805342e-001 3.794171e-001 1.967219e-001 -1.588220e-001 -1.443290e-002 8.120029e-002 5.926940e-002 6.226397e-002 -3.432442e-002 3.003203e-002 1.469506e-001 -1.930551e-001
<VARIANCE> 39
 2.948122e+001 1.803793e+001 2.556819e+001 3.039300e+001 2.234409e+001 2.190969e+001 2.055709e+001 2.366780e+001 2.982142e+001 2.739465e+001 4.725215e+001 3.137621e+001 1.589670e+000 1.487910e+000 5.724118e-001 1.367914e+000 1.017864e+000 1.203653e+000 1.117516e+000 1.065038e+000 8.644988e-001 1.281798e+000 1.544776e+000 1.464237e+000 1.313942e+000 1.556576e-001 1.865829e-001 1.254380e-001 1.630654e-001 1.431804e-001 1.424368e-001 1.711666e-001 1.600915e-001 1.837284e-001 1.997489e-001 1.888119e-001 2.276015e-001 1.799800e-001 1.424662e-002
<GCONST> 8.584586e+001
<STATE> 5
<MEAN> 39
 2.705566e+000 -5.091256e-001 -1.449829e+001 -2.040614e+001 -4.427733e-001 -6.747967e+000 -3.714484e+000 -7.434702e+000 -2.911448e+000 -2.358046e+000 1.218514e+000 -6.151578e+000 1.890472e+001 -3.254758e-002 -3.529780e-001 -4.856744e-002 1.890819e-001 1.961838e-001 1.321886e-001 -2.842789e-001 1.545718e-001 3.763194e-001 1.481274e-001 -9.257881e-002 -1.651728e-001 9.617901e-003 -1.154464e-001 -2.249062e-001 1.508444e-001 2.485546e-001 2.736551e-002 -1.258936e-001 -8.771916e-002 1.377576e-001 1.808941e-001 -7.429031e-002 -1.672402e-001 -6.390161e-002 -3.309324e-002
<VARIANCE> 39
 2.569427e+001 1.255968e+001 2.299134e+001 2.827596e+001 3.143115e+001 1.892738e+001 2.339019e+001 1.694653e+001 2.727694e+001 2.875124e+001 3.878092e+001 3.595148e+001 1.367169e+000 1.352752e-001 7.907750e-001 4.048631e-001 7.651906e-001 8.368803e-001 7.219509e-001 1.002173e+000 9.043102e-001 1.344013e+000 1.130059e+000 1.100427e+000 1.185661e+000 1.239554e-002 4.103971e-002 5.896232e-002 8.411533e-002 8.969624e-002 1.123703e-001 1.096803e-001 1.452949e-001 1.423040e-001 1.834480e-001 2.094214e-001 1.905487e-001 1.791722e-001 4.212675e-003
<GCONST> 7.151162e+001
<STATE> 6
<MEAN> 39
 2.507079e+000 -6.741406e+000 -1.388651e+001 -1.524192e+001 7.410740e-001 -7.470876e+000 -8.264870e+000 -4.805150e+000 2.853231e+000 -2.342093e+000 -2.875132e+000 -9.103765e+000 1.885422e+001 -3.318706e-001 -1.643187e+000 9.113495e-001 1.671025e+000 -5.200276e-001 -6.910120e-001 -6.463338e-002 1.213682e+000 7.919955e-001 -9.189395e-001 -1.045684e+000 -2.214845e-002 -4.929438e-002 -6.793875e-002 4.398073e-002 3.096588e-001 9.008446e-002 -4.511361e-001 -8.927408e-002 4.790039e-001 4.543247e-002 -4.238599e-001 -2.886156e-001 1.844700e-001 2.868623e-001 -3.480553e-002
<VARIANCE> 39
 2.646076e+001 1.616009e+001 1.515358e+001 2.578811e+001 5.149774e+001 3.757083e+001 2.700268e+001 4.121465e+001 3.447894e+001 3.820788e+001 4.203469e+001 3.396888e+001 1.649438e+000 1.594365e-001 7.804105e-001 7.456046e-001 1.124863e+000 1.310869e+000 1.558548e+000 1.839786e+000 2.048734e+000 2.892225e+000 3.141032e+000 1.731217e+000 1.639966e+000 1.649860e-002 3.207070e-002 8.294912e-002 8.241935e-002 1.534674e-001 1.993833e-001 2.480679e-001 2.398222e-001 2.853112e-001 3.012429e-001 3.748115e-001 2.911597e-001 2.726977e-001 2.188333e-003
<GCONST> 8.533358e+001
<STATE> 7
<MEAN> 39
 1.950718e+000 -1.300231e+001 -8.870791e+000 -8.235072e+000 -5.619509e+000 -1.000340e+001 -4.501215e+000 -5.367915e-001 1.486929e+000 -8.199876e+000 -4.631753e+000 -6.699654e+000 1.856318e+001 -4.635652e-001 -4.262778e-001 1.573383e+000 9.209387e-001 -1.553609e+000 -2.848101e-001 1.494955e+000 1.668087e-001 -1.141138e+000 -6.994605e-001 4.087219e-001 5.847138e-001 -1.825753e-001 -1.097097e-001 4.900169e-001 8.198410e-002 -3.798218e-001 1.400171e-001 2.709910e-001 7.646492e-002 -4.487571e-001 -2.304505e-001 3.923849e-001 2.571914e-001 -9.060402e-002 -5.464454e-002
<VARIANCE> 39
 2.714009e+001 2.914467e+001 1.798301e+001 3.387156e+001 6.392211e+001 5.394785e+001 3.967448e+001 5.121649e+001 5.227100e+001 4.558239e+001 3.321099e+001 3.645712e+001 1.814461e+000 4.074017e-001 1.280633e+000 8.879928e-001 1.480503e+000 1.934353e+000 2.360952e+000 1.808773e+000 2.387057e+000 2.016701e+000 2.332781e+000 1.715477e+000 1.370975e+000 2.908986e-002 5.733436e-002 1.201347e-001 1.073836e-001 1.794711e-001 2.919444e-001 2.869724e-001 3.310001e-001 3.598939e-001 4.406172e-001 3.989051e-001 3.049541e-001 2.538141e-001 3.922623e-003
<GCONST> 9.409404e+001
<STATE> 8
<MEAN> 39
 -1.113126e+000 -9.751279e+000 -6.570643e-001 -7.508788e+000 -8.872567e+000 -7.356271e+000 7.271373e-001 -4.832753e+000 -3.776902e+000 -7.093138e+000 -2.133316e+000 -6.714290e+000 1.705222e+001 -1.202206e+000 1.309848e+000 1.234605e+000 -1.763683e-001 4.251564e-001 4.995642e-001 2.589943e-001 -8.941704e-001 -5.084333e-001 6.513216e-001 2.484399e-001 -2.094462e-002 -4.942055e-001 -1.737001e-001 9.351633e-002 -3.134205e-001 -1.606881e-001 3.771984e-001 4.831702e-003 -3.348479e-001 4.674321e-002 2.580772e-001 1.425101e-001 -2.941933e-002 1.444942e-002 -7.072119e-002
<VARIANCE> 39
 2.640316e+001 4.979793e+001 3.112633e+001 5.493460e+001 6.382530e+001 7.631379e+001 4.131935e+001 4.431696e+001 4.001410e+001 4.259224e+001 4.252182e+001 3.446816e+001 3.546158e+000 1.280322e+000 1.816593e+000 1.202385e+000 1.840177e+000 2.357138e+000 2.030050e+000 2.072747e+000 1.970842e+000 1.916376e+000 1.990366e+000 1.893595e+000 1.822983e+000 1.523398e-001 1.149965e-001 3.084003e-001 1.836242e-001 2.549303e-001 3.543000e-001 3.224750e-001 3.030916e-001 3.370711e-001 3.037931e-001 3.384582e-001 2.833453e-001 2.360688e-001 1.122350e-002
<GCONST> 1.032899e+002
<STATE> 9
<MEAN> 39
 -8.107820e+000 -5.453889e+000 1.508967e-002 -9.033440e+000 -3.544841e+000 -6.761922e+000 -4.180208e-001 -6.727474e+000 -3.464370e+000 -3.404054e+000 -3.405487e-001 -5.279622e+000 1.370662e+001 -9.722284e-001 5.502074e-001 -2.636396e-001 -6.750538e-001 2.421159e-001 -1.208508e-001 -5.076026e-001 -2.032536e-001 2.017924e-001 3.065739e-001 1.103617e-001 3.579421e-002 -4.338995e-001 1.622850e-001 -1.384234e-001 -2.391499e-001 -2.098889e-002 -9.622794e-002 -1.461776e-001 -1.039085e-001 9.873008e-002 7.725574e-002 -1.312890e-001 -8.295664e-002 -1.592802e-002 5.969735e-002
<VARIANCE> 39
 2.236614e+001 3.712128e+001 2.228201e+001 5.717271e+001 2.997658e+001 5.209858e+001 3.121213e+001 3.524612e+001 2.680144e+001 2.610152e+001 2.578426e+001 2.288157e+001 1.058718e+001 9.876215e-001 1.377175e+000 1.419271e+000 1.280544e+000 1.619303e+000 1.594876e+000 1.206301e+000 1.463756e+000 1.312003e+000 1.337308e+000 1.459039e+000 1.156775e+000 1.041030e-001 1.086255e-001 2.357985e-001 1.887466e-001 2.164192e-001 2.180949e-001 2.428151e-001 1.823093e-001 2.061557e-001 1.915705e-001 2.084114e-001 1.976624e-001 1.866004e-001 8.084641e-003
<GCONST> 9.202084e+001
<TRANSP> 10
 0.000000e+000 1.000000e+000 0.000000e+000 0.000000e+000 0.000000e+000 0.000000e+000 0.000000e+000 0.000000e+000 0.000000e+000 0.000000e+000
 0.000000e+000 8.715455e-001 1.284546e-001 0.000000e+000 0.000000e+000 0.000000e+000 0.000000e+000 0.000000e+000 0.000000e+000 0.000000e+000
 0.000000e+000 0.000000e+000 4.817493e-001 5.182508e-001 0.000000e+000 0.000000e+000 0.000000e+000 0.000000e+000 0.000000e+000 0.000000e+000
 0.000000e+000 0.000000e+000 0.000000e+000 6.902536e-001 3.097464e-001 0.000000e+000 0.000000e+000 0.000000e+000 0.000000e+000 0.000000e+000
 0.000000e+000 0.000000e+000 0.000000e+000 0.000000e+000 8.614659e-001 1.385341e-001 0.000000e+000 0.000000e+000 0.000000e+000 0.000000e+000
 0.000000e+000 0.000000e+000 0.000000e+000 0.000000e+000 0.000000e+000 6.957335e-001 3.042664e-001 0.000000e+000 0.000000e+000 0.000000e+000
 0.000000e+000 0.000000e+000 0.000000e+000 0.000000e+000 0.000000e+000 0.000000e+000 7.261741e-001 2.738259e-001 0.000000e+000 0.000000e+000
 0.000000e+000 0.000000e+000 0.000000e+000 0.000000e+000 0.000000e+000 0.000000e+000 0.000000e+000 7.251367e-001 2.748633e-001 0.000000e+000
 0.000000e+000 0.000000e+000 0.000000e+000 0.000000e+000 0.000000e+000 0.000000e+000 0.000000e+000 0.000000e+000 7.483358e-001 2.516642e-001
 0.000000e+000 0.000000e+000 0.000000e+000 0.000000e+000 0.000000e+000 0.000000e+000 0.000000e+000 0.000000e+000 0.000000e+000 0.000000e+000
<ENDHMM>
~h "seven"
<BEGINHMM>
<NUMSTATES> 10
<STATE> 2
<MEAN> 39
 -1.562717e+001 -4.553527e+000 -6.330722e+000 -1.218743e+001 -5.828596e+000 -8.617090e+000 -4.965640e+000 -4.825855e+000 -7.000366e-001 -3.746610e+000 -8.273221e-001 -5.189347e+000 1.302275e+001 -2.746904e-002 -1.573627e-001 -2.073672e-001 -1.935078e-001 -1.607857e-001 5.310406e-002 1.748685e-001 1.623662e-002 9.522484e-002 1.792458e-002 1.371181e-002 1.034032e-002 9.652109e-002 3.387799e-001 1.547581e-001 2.108046e-001 -5.558312e-002 8.666220e-004 -1.770200e-002 1.472316e-001 -6.798972e-002 -2.191593e-002 -4.116499e-002 -9.927043e-002 -7.269482e-002 1.124879e-001
<VARIANCE> 39
 1.265345e+001 1.339408e+001 1.207332e+001 3.389921e+001 1.824834e+001 2.852604e+001 1.911108e+001 1.821554e+001 2.181025e+001 2.278017e+001 2.058691e+001 1.678952e+001 5.276228e+000 1.029506e+000 7.392780e-001 8.672959e-001 6.588908e-001 7.814364e-001 8.439685e-001 8.873829e-001 7.976289e-001 9.017951e-001 1.003401e+000 8.708999e-001 6.797497e-001 1.331009e-001 1.232587e-001 9.496948e-002 1.040669e-001 1.384229e-001 1.600100e-001 1.803636e-001 1.684762e-001 1.529569e-001 1.818877e-001 1.992307e-001 1.815829e-001 1.510918e-001 1.905121e-002
<GCONST> 7.764748e+001
<STATE> 3
<MEAN> 39
 -1.226118e+001 -2.674701e+000 -3.992868e+000 -1.301974e+001 -5.314625e+000 -8.701354e+000 -2.428125e+000 -4.940743e+000 -2.786173e-001 -3.539430e+000 -1.381037e+000 -5.241035e+000 1.455226e+001 2.140160e+000 2.932949e-001 7.130228e-001 -1.033409e+000 -7.849197e-001 1.393514e-001 1.536084e+000 -2.881705e-001 -4.988342e-002 -2.040938e-001 -7.466792e-001 -6.475225e-001 9.717580e-001 9.146477e-002 -2.689146e-001 -1.685731e-001 -2.123710e-001 -9.536579e-002 2.250396e-001 2.368598e-001 -9.271432e-002 -1.348559e-001 -1.886236e-001 -1.615582e-001 -1.647954e-001 1.375623e-001
<VARIANCE> 39
 2.175390e+001 1.128103e+001 1.537278e+001 2.480790e+001 2.106039e+001 2.342429e+001 2.245277e+001 2.013960e+001 2.011979e+001 4.377824e+001 2.115799e+001 1.756663e+001 5.202145e+000 8.229030e-001 6.937512e-001 7.336520e-001 1.236930e+000 8.487871e-001 1.851758e+000 1.269619e+000 1.648606e+000 1.609207e+000 2.630244e+000 1.169292e+000 1.128799e+000 1.309279e-001 1.790681e-001 7.820838e-002 1.111845e-001 1.205266e-001 1.683965e-001 1.873430e-001 1.631383e-001 1.650716e-001 2.093995e-001 2.383333e-001 2.017222e-001 1.855032e-001 2.037144e-002
<GCONST> 8.417917e+001
<STATE> 4
<MEAN> 39
 -5.049113e+000 -3.655405e+000 -3.299100e+000 -1.870363e+001 -9.870022e+000 -7.902317e+000 3.349697e+000 -7.137842e+000 -1.114855e+000 -5.386552e+000 -5.484725e+000 -8.873188e+000 1.844034e+001 8.322450e-001 -8.397143e-001 -3.699208e-001 -8.532551e-001 -5.499683e-002 1.168636e+000 1.418867e+000 -4.212557e-001 -4.696483e-001 -9.227565e-001 -6.261740e-001 -4.703414e-001 7.486932e-001 -5.672516e-001 -2.559264e-001 -2.486507e-001 3.474389e-001 4.303055e-001 1.850130e-001 -3.066549e-001 7.286852e-002 -1.138384e-001 -5.800921e-002 2.826639e-001 2.423647e-001 -2.157033e-001
<VARIANCE> 39
 8.435447e+000 1.078207e+001 1.083263e+001 2.126576e+001 2.731770e+001 2.750569e+001 2.497275e+001 3.488297e+001 3.840651e+001 8.573690e+001 2.696276e+001 2.601140e+001 1.617799e+000 1.066262e+000 5.389182e-001 5.509068e-001 1.085954e+000 1.634949e+000 1.672595e+000 1.122411e+000 1.389802e+000 1.829018e+000 1.505759e+000 1.290023e+000 1.551979e+000 1.683897e-001 9.721857e-002 8.959107e-002 9.876955e-002 1.485507e-001 1.222971e-001 2.015540e-001 1.488285e-001 1.491051e-001 1.707841e-001 3.934017e-001 1.661713e-001 1.373986e-001 1.199715e-002
<GCONST> 8.308201e+001
<STATE> 5
<MEAN> 39
 -6.893583e+000 -8.112020e+000 -5.727323e+000 -1.711245e+001 -4.648355e+000 -2.436087e+000 4.846373e+000 -8.160866e+000 -3.269071e+000 -8.353494e+000 -3.768553e+000 -7.216719e+000 1.900344e+001 6.830180e-002 -3.920387e-001 -8.730250e-003 5.692818e-001 2.954626e-001 8.044649e-003 -5.311009e-003 3.385700e-001 -4.177918e-001 -3.018923e-002 3.220459e-001 1.500465e-001 -3.631548e-002 5.591416e-002 2.880095e-001 2.311389e-001 2.135483e-001 -1.325913e-001 -4.885333e-001 -2.938221e-001 2.092777e-001 1.054778e-001 1.818127e-001 7.882884e-002 4.991333e-003 -1.273139e-001
<VARIANCE> 39
 6.930151e+000 1.175853e+001 7.644407e+000 1.607635e+001 4.528458e+001 2.831918e+001 2.433857e+001 4.617271e+001 5.488242e+001 4.458872e+001 3.078853e+001 3.109745e+001 1.412545e+000 2.689132e-001 5.295787e-001 4.787686e-001 4.743980e-001 1.206481e+000 1.611979e+000 1.102728e+000 1.189523e+000 9.556593e-001 1.773925e+000 1.158229e+000 8.561625e-001 4.013542e-002 6.641835e-002 5.483515e-002 6.385113e-002 1.088490e-001 2.217838e-001 1.436299e-001 1.846006e-001 1.545334e-001 1.791656e-001 1.767121e-001 2.011284e-001 1.618000e-001 7.125860e-003
<GCONST> 7.548186e+001
<STATE> 6
<MEAN> 39
 -4.810114e+000 -6.665391e+000 -3.841432e+000 -1.286486e+001 -7.367428e+000 -8.484531e+000 2.174362e+000 -2.719813e+000 -4.932059e+000 -6.640729e+000 -1.644443e+000 -7.391827e+000 1.797128e+001 2.695870e-001 8.316129e-001 8.506367e-001 8.741240e-001 3.112186e-002 -1.091857e+000 -8.438517e-001 3.720916e-001 2.489704e-001 3.023817e-001 2.507864e-001 1.214233e-002 -3.261731e-001 -6.506474e-002 1.638218e-001 1.162939e-001 -2.165112e-002 1.308038e-001 2.465675e-002 -1.055192e-001 -2.027389e-001 8.364824e-002 3.192781e-002 -7.779647e-002 -2.016051e-002 -2.353232e-002
<VARIANCE> 39
 9.267543e+000 1.230768e+001 1.328244e+001 1.992834e+001 2.702109e+001 4.095729e+001 3.433148e+001 7.228091e+001 3.969805e+001 3.102473e+001 2.441537e+001 2.452926e+001 1.729354e+000 3.418195e-001 7.754611e-001 1.069020e+000 1.251911e+000 1.359968e+000 2.309651e+000 2.686285e+000 1.914830e+000 1.578502e+000 1.952142e+000 1.346427e+000 9.138089e-001 1.136479e-001 4.194036e-002 1.232309e-001 1.400338e-001 1.527575e-001 1.761645e-001 3.104370e-001 3.699369e-001 2.794825e-001 1.963464e-001 1.990221e-001 1.646703e-001 1.374298e-001 1.726460e-002
<GCONST> 8.640619e+001
<STATE> 7
<MEAN> 39
 -3.989120e+000 -2.927361e+000 -1.183920e-001 -1.064580e+001 -6.242005e+000 -8.855256e+000 -1.621971e+000 -6.696251e+000 -2.843302e+000 -7.583060e+000 -3.316827e+000 -8.826996e+000 1.671137e+001 9.988677e-002 4.913010e-001 2.693698e-001 -2.419766e-001 3.973262e-001 7.664217e-003 -5.266731e-001 -4.210746e-001 9.845770e-002 -6.949569e-003 -2.638944e-001 -1.526531e-001 -1.215562e-002 1.138059e-002 -3.192377e-002 -4.766435e-002 -1.815646e-001 1.380166e-001 2.517384e-002 6.971962e-002 -4.024003e-002 1.063916e-002 -2.537567e-002 -9.438642e-002 1.201016e-002 4.733975e-002
<VARIANCE> 39
 1.079036e+001 1.305357e+001 2.016214e+001 2.891546e+001 3.106914e+001 5.061425e+001 4.074585e+001 5.751429e+001 4.211995e+001 5.251928e+001 3.556535e+001 2.930797e+001 2.093614e+000 3.910338e-001 1.091444e+000 1.637682e+000 1.771787e+000 1.823285e+000 2.907435e+000 2.273267e+000 1.681849e+000 1.523214e+000 2.224481e+000 1.310046e+000 1.119251e+000 1.290789e-001 7.178927e-002 2.300183e-001 2.989243e-001 3.116604e-001 3.090048e-001 6.265360e-001 4.259733e-001 3.167360e-001 2.580147e-001 3.819716e-001 2.101613e-001 1.756317e-001 2.425560e-002
<GCONST> 9.682380e+001
<STATE> 8
<MEAN> 39
 -2.142104e+000 1.623706e+000 2.681775e+000 -1.342478e+001 -3.317673e-001 -1.231661e+001 -4.705393e+000 -7.832623e+000 -2.539279e+000 -8.197905e+000 -6.419990e+000 -9.617665e+000 1.703622e+001 4.622053e-002 5.499469e-001 4.696439e-001 2.458892e-001 5.864451e-001 -4.463119e-001 -2.675137e-001 -6.724992e-002 2.461879e-002 3.566107e-002 -1.665752e-001 -7.594214e-003 -1.307813e-001 -1.540885e-001 -1.890544e-001 -1.554005e-001 1.127852e-001 -1.949591e-001 2.967824e-001 1.240670e-001 1.170165e-004 -3.397832e-002 2.648433e-004 1.333216e-001 3.226563e-002 -4.022322e-002
<VARIANCE> 39
 1.864646e+001 1.563327e+001 2.078384e+001 1.917707e+001 2.778481e+001 5.516032e+001 4.106809e+001 4.429276e+001 5.733462e+001 7.862964e+001 6.444529e+001 6.087046e+001 1.731255e+000 4.858840e-001 5.975636e-001 8.031891e-001 8.462380e-001 1.683010e+000 2.555098e+000 1.232431e+000 1.181081e+000 1.431149e+000 1.323766e+000 1.235679e+000 1.145519e+000 5.653453e-002 8.602830e-002 1.061040e-001 1.534635e-001 1.293952e-001 2.174653e-001 3.465541e-001 2.200127e-001 1.829274e-001 2.452397e-001 2.279688e-001 2.028329e-001 1.610243e-001 9.135889e-003
<GCONST> 8.832789e+001
<STATE> 9
<MEAN> 39
 -6.013247e+000 1.203820e+000 3.043032e+000 -1.033362e+001 -1.018119e-001 -9.410662e+000 -3.431058e+000 -7.022851e+000 -2.274342e+000 -5.344823e+000 -3.576890e+000 -7.584255e+000 1.481835e+001 -9.764199e-001 -6.442504e-001 -6.921175e-001 -2.947308e-002 -2.532654e-001 4.137119e-001 1.334822e-002 1.404961e-001 1.862244e-001 1.484562e-001 4.578888e-001 2.679446e-001 -4.150680e-001 -6.805521e-002 -1.625005e-001 -2.394868e-001 -1.698451e-001 -1.396941e-001 -2.510789e-002 2.627160e-002 5.482445e-002 -1.977375e-002 -7.061278e-003 5.901268e-002 4.862297e-002 1.685449e-002
<VARIANCE> 39
 2.069218e+001 1.748745e+001 2.114693e+001 3.035489e+001 2.120801e+001 3.554587e+001 2.854642e+001 3.346931e+001 3.585558e+001 3.102424e+001 3.588865e+001 2.859648e+001 7.184396e+000 1.163913e+000 1.028957e+000 1.188574e+000 1.276584e+000 1.245400e+000 1.622066e+000 1.098926e+000 1.211623e+000 1.422037e+000 1.467675e+000 1.305943e+000 1.078023e+000 1.590603e-001 1.299583e-001 1.454964e-001 1.627861e-001 1.822290e-001 1.657811e-001 2.447324e-001 1.889054e-001 1.947932e-001 1.870444e-001 1.910368e-001 1.740868e-001 1.216615e-001 1.631217e-002
<GCONST> 8.897101e+001
<TRANSP> 10
 0.000000e+000 1.000000e+000 0.000000e+000 0.000000e+000 0.000000e+000 0.000000e+000 0.000000e+000 0.000000e+000 0.000000e+000 0.000000e+000
 0.000000e+000 8.521658e-001 1.478342e-001 0.000000e+000 0.000000e+000 0.000000e+000 0.000000e+000 0.000000e+000 0.000000e+000 0.000000e+000
 0.000000e+000 0.000000e+000 5.931588e-001 4.068411e-001 0.000000e+000 0.000000e+000 0.000000e+000 0.000000e+000 0.000000e+000 0.000000e+000
 0.000000e+000 0.000000e+000 0.000000e+000 6.503596e-001 3.496404e-001 0.000000e+000 0.000000e+000 0.000000e+000 0.000000e+000 0.000000e+000
 0.000000e+000 0.000000e+000 0.000000e+000 0.000000e+000 8.091524e-001 1.908477e-001 0.000000e+000 0.000000e+000 0.000000e+000 0.000000e+000
 0.000000e+000 0.000000e+000 0.000000e+000 0.000000e+000 0.000000e+000 7.396048e-001 2.603952e-001 0.000000e+000 0.000000e+000 0.000000e+000
 0.000000e+000 0.000000e+000 0.000000e+000 0.000000e+000 0.000000e+000 0.000000e+000 8.311065e-001 1.688935e-001 0.000000e+000 0.000000e+000
 0.000000e+000 0.000000e+000 0.000000e+000 0.000000e+000 0.000000e+000 0.000000e+000 0.000000e+000 8.070505e-001 1.929496e-001 0.000000e+000
 0.000000e+000 0.000000e+000 0.000000e+000 0.000000e+000 0.000000e+000 0.000000e+000 0.000000e+000 0.000000e+000 7.821476e-001 2.178525e-001
 0.000000e+000 0.000000e+000 0.000000e+000 0.000000e+000 0.000000e+000 0.000000e+000 0.000000e+000 0.000000e+000 0.000000e+000 0.000000e+000
<ENDHMM>
~h "sil"
<BEGINHMM>
<NUMSTATES> 5
<STATE> 2
<MEAN> 39
 -9.277794e+000 -2.726024e+000 -2.270244e+000 -1.066090e+001 -2.637590e+000 -8.153379e+000 -3.084161e+000 -5.936491e+000 -1.806925e+000 -4.699240e+000 -1.545524e+000 -5.468857e+000 1.170710e+001 -1.353506e-001 6.204203e-003 -9.526695e-002 -8.291847e-002 -1.019963e-001 -8.198939e-002 -3.144108e-002 5.585767e-002 -2.542924e-003 -1.180156e-002 1.660332e-002 1.745751e-002 -7.972031e-002 2.340122e-003 -9.147279e-003 -1.117624e-002 -9.108852e-003 -6.466111e-003 -1.551898e-002 -1.030768e-002 -1.361318e-002 5.790769e-003 8.221778e-003 -2.961559e-004 -1.441903e-003 8.237254e-003
<VARIANCE> 39
 1.027475e+001 1.487389e+001 1.353093e+001 4.425008e+001 2.057549e+001 2.885105e+001 2.228360e+001 2.400114e+001 2.328464e+001 2.297996e+001 2.057701e+001 1.906343e+001 1.956401e+001 1.728015e-001 3.502627e-001 4.257226e-001 5.854899e-001 7.084260e-001 7.924284e-001 8.132803e-001 9.386629e-001 9.344972e-001 9.135424e-001 8.167856e-001 7.070529e-001 2.484309e-002 1.964167e-002 3.976928e-002 5.596704e-002 8.168321e-002 1.025822e-001 1.141158e-001 1.188006e-001 1.318766e-001 1.427172e-001 1.332328e-001 1.261286e-001 1.076098e-001 2.435169e-003
<GCONST> 6.612744e+001
<STATE> 3
<MEAN> 39
 -1.275838e+001 -4.753769e+000 -4.613138e+000 -1.693485e+001 -3.903279e+000 -1.265729e+001 -5.071740e+000 -6.048667e+000 -1.582684e+000 -4.431335e+000 -9.605357e-001 -6.207313e+000 1.372475e+001 -1.179581e-002 -6.326358e-003 -1.301870e-002 -1.245708e-003 -2.011521e-002 -4.333725e-003 -8.299546e-003 3.178288e-003 -1.412017e-004 -1.040403e-002 -7.567808e-003 -4.092432e-003 -5.292744e-003 9.117565e-003 9.879166e-003 1.184386e-002 1.424671e-002 1.081133e-002 1.291679e-002 9.599046e-003 5.430490e-003 7.666011e-005 9.464507e-004 -9.628718e-004 -3.318822e-004 3.225113e-003
<VARIANCE> 39
 3.174812e+000 4.888746e+000 6.203913e+000 1.704746e+001 1.254586e+001 1.533415e+001 1.523779e+001 1.646689e+001 1.538389e+001 1.706291e+001 1.593456e+001 1.421482e+001 8.006062e+000 7.819137e-002 1.548285e-001 2.611011e-001 3.961178e-001 5.123709e-001 5.564030e-001 6.499810e-001 6.665522e-001 6.822582e-001 7.271290e-001 7.013215e-001 5.890236e-001 8.842683e-003 1.281464e-002 2.712758e-002 4.820637e-002 7.122156e-002 9.315778e-002 9.709041e-002 1.200257e-001 1.164936e-001 1.227615e-001 1.272061e-001 1.242708e-001 1.039132e-001 1.253053e-003
<GCONST> 5.004554e+001
<STATE> 4
<MEAN> 39
 -1.148804e+001 -3.577748e+000 -3.883509e+000 -1.057250e+001 -4.592661e+000 -8.785037e+000 -3.650748e+000 -5.720933e+000 -1.798919e+000 -4.737068e+000 -1.273869e+000 -4.906332e+000 1.022187e+001 3.582727e-002 1.184328e-001 8.108353e-002 1.022453e-001 5.159331e-002 2.041279e-002 6.597731e-002 1.405486e-002 -4.100311e-003 2.883738e-002 5.281552e-003 -4.489513e-003 7.776797e-002 3.883361e-002 1.728554e-002 1.473068e-002 1.475486e-003 8.338460e-003 3.363236e-003 1.104061e-002 -6.903906e-003 -9.463551e-003 -1.880183e-002 -6.155816e-003 -1.057829e-002 3.817955e-002
<VARIANCE> 39
 1.074255e+001 1.363652e+001 1.276570e+001 4.124541e+001 1.757311e+001 2.717675e+001 2.128994e+001 2.060526e+001 1.894215e+001 2.177603e+001 1.683791e+001 1.677958e+001 1.977411e+001 3.624621e-001 4.987282e-001 5.198429e-001 7.535753e-001 7.404059e-001 8.381784e-001 8.538025e-001 9.593682e-001 8.235201e-001 8.416942e-001 7.544784e-001 6.702015e-001 8.618403e-002 6.163992e-002 7.697821e-002 8.063991e-002 1.138012e-001 1.179916e-001 1.258100e-001 1.342222e-001 1.453954e-001 1.279568e-001 1.324926e-001 1.158646e-001 1.074659e-001 1.541694e-002
<GCONST> 7.218546e+001
<TRANSP> 5
 0.000000e+000 1.000000e+000 0.000000e+000 0.000000e+000 0.000000e+000
 0.000000e+000 8.359330e-001 1.640670e-001 0.000000e+000 0.000000e+000
 0.000000e+000 0.000000e+000 9.485061e-001 5.149391e-002 0.000000e+000
 0.000000e+000 0.000000e+000 0.000000e+000 7.597415e-001 2.402585e-001
 0.000000e+000 0.000000e+000 0.000000e+000 0.000000e+000 0.000000e+000
<ENDHMM>
~h "six"
<BEGINHMM>
<NUMSTATES> 10
<STATE> 2
<MEAN> 39
 -1.486533e+001 -4.148657e+000 -5.219170e+000 -1.181294e+001 -5.141429e+000 -8.366450e+000 -4.440496e+000 -5.526237e+000 -1.278476e+000 -3.844777e+000 -1.268252e+000 -5.135540e+000 1.246059e+001 -2.376711e-001 -1.187515e-001 -2.451017e-001 -1.460636e-001 -1.163752e-001 -3.198360e-002 -7.256171e-004 -4.611705e-002 6.613468e-002 -1.513837e-002 1.486616e-002 9.070368e-002 4.211651e-002 2.222628e-001 1.346273e-001 1.522023e-001 -3.974917e-002 -2.096456e-002 -3.677452e-002 3.864031e-002 -1.730678e-002 9.729239e-003 -4.347153e-003 -3.138880e-002 -3.338941e-002 7.945748e-002
<VARIANCE> 39
 1.397385e+001 1.341160e+001 1.564588e+001 3.233922e+001 1.724246e+001 2.700445e+001 2.072672e+001 2.164500e+001 2.012242e+001 2.031248e+001 2.015532e+001 1.606394e+001 7.249553e+000 8.236015e-001 6.975720e-001 8.920550e-001 6.739174e-001 7.090407e-001 8.740455e-001 8.889179e-001 9.631661e-001 9.130976e-001 8.495968e-001 8.001817e-001 7.015824e-001 1.356231e-001 1.137069e-001 1.082701e-001 1.262652e-001 1.320850e-001 1.379257e-001 1.723192e-001 1.624950e-001 1.810783e-001 1.860059e-001 1.692629e-001 1.410070e-001 1.358718e-001 1.854111e-002
<GCONST> 7.747733e+001
<STATE> 3
<MEAN> 39
 -1.453633e+001 -2.797096e+000 -5.548859e+000 -1.309903e+001 -4.827598e+000 -7.864599e+000 -3.560814e+000 -5.399457e+000 4.622898e-001 -4.217454e+000 -1.368209e+000 -4.604958e+000 1.412299e+001 1.373422e+000 8.003490e-001 8.717759e-001 -7.692105e-001 -4.637188e-001 -2.187201e-001 5.178320e-001 -7.555328e-002 3.916357e-001 2.799402e-002 -3.411064e-001 -2.407901e-001 6.260663e-001 2.672771e-001 9.466588e-002 1.947777e-001 -2.829278e-001 -2.259809e-001 -7.849577e-002 8.695778e-002 -8.912466e-003 2.055164e-002 9.749339e-002 -9.452409e-002 -1.595331e-001 1.388809e-001
<VARIANCE> 39
 2.455429e+001 1.368528e+001 1.662483e+001 3.515832e+001 2.059698e+001 2.751177e+001 2.327432e+001 1.927568e+001 2.352271e+001 3.290369e+001 2.888188e+001 2.155879e+001 4.181225e+000 1.106611e+000 7.806522e-001 8.477381e-001 1.156335e+000 9.257224e-001 8.642006e-001 1.073203e+000 9.794007e-001 1.081080e+000 2.036313e+000 1.062713e+000 1.466284e+000 1.982075e-001 1.420349e-001 9.726022e-002 1.322206e-001 1.627960e-001 1.718623e-001 1.617410e-001 1.899736e-001 1.598248e-001 1.589288e-001 2.273693e-001 2.286438e-001 2.154963e-001 2.323551e-002
<GCONST> 8.481104e+001
<STATE> 4
<MEAN> 39
 -7.193970e+000 3.099759e-001 -8.868412e-001 -2.045421e+001 -7.754762e+000 -9.335077e+000 -8.581454e-001 -5.463152e+000 1.729382e+000 -4.881731e+000 -4.376109e+000 -7.612869e+000 1.784809e+001 5.896440e-001 3.816659e-001 5.771852e-001 -1.035616e+000 -2.707121e-001 -9.099974e-002 1.984323e-002 3.785270e-001 -1.118420e-002 1.704337e-001 -3.005008e-001 -2.988805e-001 3.762539e-001 -2.491981e-001 -9.881790e-002 -6.473820e-002 1.842952e-001 1.550325e-001 5.884191e-002 -2.837047e-001 8.064061e-002 -1.161981e-001 -1.570268e-003 1.623902e-001 1.263748e-001 -1.702115e-001
<VARIANCE> 39
 1.255317e+001 1.090393e+001 1.349922e+001 3.498513e+001 4.774908e+001 2.295574e+001 2.051667e+001 2.334338e+001 3.062796e+001 7.217361e+001 3.715369e+001 5.300923e+001 2.790397e+000 1.311957e+000 6.953090e-001 9.758958e-001 1.395816e+000 1.883613e+000 1.495035e+000 1.664891e+000 1.164410e+000 1.506666e+000 1.915206e+000 1.730223e+000 1.965349e+000 3.708792e-001 1.445357e-001 9.325189e-002 1.263867e-001 2.228279e-001 2.333492e-001 2.194693e-001 2.237931e-001 1.933896e-001 2.098559e-001 3.573174e-001 2.360256e-001 2.822415e-001 2.391602e-002
<GCONST> 9.242315e+001
<STATE> 5
<MEAN> 39
 -6.304564e+000 2.098897e+000 3.535774e+000 -2.033798e+001 -9.643340e+000 -8.588438e+000 -7.145629e+000 -2.758000e+000 -5.367737e-002 -2.242790e+000 -2.310979e+000 -5.908772e+000 1.705719e+001 -8.891755e-002 -2.243230e-002 4.863477e-001 1.073034e+000 3.877286e-001 3.553508e-001 -8.106305e-001 -4.039831e-002 -9.628032e-002 -2.984218e-001 6.679422e-001 3.930317e-001 -7.134052e-001 -2.882763e-001 -3.555628e-001 -4.058956e-001 4.214985e-001 2.001540e-001 -1.675719e-002 3.720615e-001 -2.046771e-001 3.963037e-002 -8.875939e-002 1.688789e-002 4.685296e-002 -1.907881e-001
<VARIANCE> 39
 1.343174e+001 2.444728e+001 2.641937e+001 4.465131e+001 6.789935e+001 4.756771e+001 5.890951e+001 3.646314e+001 3.112037e+001 4.153852e+001 3.721666e+001 3.608519e+001 7.760436e+000 1.039081e+000 1.380378e+000 1.707585e+000 3.757517e+000 3.229560e+000 2.211748e+000 3.327562e+000 2.031158e+000 1.943872e+000 2.667456e+000 1.586878e+000 1.907180e+000 5.632241e-001 1.552515e-001 2.737631e-001 2.927670e-001 3.891345e-001 5.175788e-001 4.566234e-001 5.871501e-001 3.641248e-001 3.492463e-001 3.898783e-001 3.158007e-001 2.818445e-001 5.858629e-002
<GCONST> 1.094228e+002
<STATE> 6
<MEAN> 39
 -9.731524e+000 -3.333975e+000 2.021705e-001 -1.122276e+001 -6.879380e+000 -7.801920e+000 -3.469914e+000 -5.212939e+000 -3.560654e-001 -3.982644e+000 -4.130792e-001 -4.300559e+000 1.221284e+001 -1.056585e+000 -1.437427e+000 -8.928233e-001 5.637507e-001 1.897517e-001 5.765026e-002 8.832065e-001 -3.956445e-001 2.334886e-002 -7.332005e-002 5.415626e-002 -1.383623e-002 -2.114477e-001 -1.070139e-001 7.732490e-002 -4.283516e-002 -3.448079e-001 -1.426238e-001 5.273987e-002 -6.390076e-002 1.721314e-002 3.956653e-002 7.117106e-002 -1.016445e-001 -8.766945e-002 1.702420e-001
<VARIANCE> 39
 2.066124e+001 4.995206e+001 2.862431e+001 4.374398e+001 3.623110e+001 2.799843e+001 3.498261e+001 2.463051e+001 2.725077e+001 2.373583e+001 2.151355e+001 2.135743e+001 1.475856e+001 1.469501e+000 2.750453e+000 1.854958e+000 2.007909e+000 2.900887e+000 2.467993e+000 2.408634e+000 1.402871e+000 1.694653e+000 1.570025e+000 1.240518e+000 1.291561e+000 7.333578e-001 2.031602e-001 5.701560e-001 3.601522e-001 3.220071e-001 4.727712e-001 3.373220e-001 4.183797e-001 2.366281e-001 2.799968e-001 2.753150e-001 1.789972e-001 1.907327e-001 1.159460e-001
<GCONST> 1.052083e+002
<STATE> 7
<MEAN> 39
 -1.480432e+001 -5.196762e+000 -2.255362e+000 -1.368226e+001 -7.296542e+000 -6.404439e+000 -2.700711e+000 -6.128372e+000 1.502979e-001 -3.229136e+000 -1.722601e+000 -5.157814e+000 1.335600e+001 -9.216089e-001 -9.830151e-002 -6.590251e-001 1.177336e-001 -1.429197e-001 2.935924e-001 -2.945327e-002 -1.826065e-001 9.986276e-002 2.057579e-001 -3.384714e-002 6.419116e-002 -1.030108e-001 2.270741e-001 2.390816e-001 5.121921e-002 -4.476707e-002 -1.444104e-002 -6.844432e-002 -1.828050e-001 9.143674e-002 -2.663967e-002 -3.132557e-002 -1.106213e-002 -4.648059e-003 1.798814e-002
<VARIANCE> 39
 2.052396e+001 1.690525e+001 1.616506e+001 3.172495e+001 3.585188e+001 4.195994e+001 2.487970e+001 2.468360e+001 2.864015e+001 2.020431e+001 2.003151e+001 2.084909e+001 4.764206e+000 1.149229e+000 1.743369e+000 1.186341e+000 9.719729e-001 2.090024e+000 1.778769e+000 1.434529e+000 1.297547e+000 1.218603e+000 1.032662e+000 9.603689e-001 8.913001e-001 1.769290e-001 1.875966e-001 2.430148e-001 2.066123e-001 1.876392e-001 3.916228e-001 3.076133e-001 2.568983e-001 2.202387e-001 2.256465e-001 1.721378e-001 1.570731e-001 1.619744e-001 4.049693e-002
<GCONST> 9.112036e+001
<STATE> 8
<MEAN> 39
 -1.582518e+001 -4.252409e+000 -4.560594e+000 -1.225688e+001 -6.756119e+000 -5.813200e+000 -3.626246e+000 -5.711150e+000 3.814799e-001 -3.192798e+000 -1.296924e+000 -5.197517e+000 1.306051e+001 2.736428e-002 7.982828e-002 -4.027090e-001 1.285558e-001 1.782757e-001 -2.851490e-001 -2.098524e-001 5.932531e-002 -2.095782e-001 -4.150797e-002 1.730596e-002 -6.061244e-002 -1.325453e-001 1.979647e-001 1.447594e-002 1.349189e-001 -1.920281e-002 1.143500e-002 -1.325646e-001 1.825788e-002 2.730722e-002 -7.583483e-002 -5.092577e-002 9.721028e-003 -3.889240e-002 2.240081e-002
<VARIANCE> 39
 1.726136e+001 1.686019e+001 1.471795e+001 3.993906e+001 2.731016e+001 3.175848e+001 2.583657e+001 2.237543e+001 3.077399e+001 3.018090e+001 2.240723e+001 2.095014e+001 5.936835e+000 7.865868e-001 8.040929e-001 7.437664e-001 9.566005e-001 1.537073e+000 1.116367e+000 1.151947e+000 1.051241e+000 1.088526e+000 1.084079e+000 9.795796e-001 7.744024e-001 7.359883e-002 9.744891e-002 1.307961e-001 1.093486e-001 1.571034e-001 2.574742e-001 2.146841e-001 2.240050e-001 1.796672e-001 1.724219e-001 2.047104e-001 1.834787e-001 1.323467e-001 1.424010e-002
<GCONST> 8.298342e+001
<STATE> 9
<MEAN> 39
 -1.340059e+001 -4.548152e+000 -4.515076e+000 -1.553533e+001 -4.910039e+000 -1.117468e+001 -4.821794e+000 -6.033818e+000 -1.317079e+000 -4.162019e+000 -1.150575e+000 -6.019351e+000 1.399147e+001 1.574788e-001 4.505835e-002 2.525356e-002 6.340376e-002 7.052734e-002 -8.442795e-002 9.944086e-003 4.053883e-003 -1.037620e-001 -1.889748e-002 -3.428391e-003 2.620037e-003 -8.044045e-003 5.164725e-002 2.261108e-002 3.917906e-002 6.222423e-004 -4.151727e-003 3.776853e-002 3.423560e-002 8.226608e-003 1.147458e-002 -6.771145e-004 -1.469098e-002 1.544220e-003 2.482619e-002
<VARIANCE> 39
 9.638756e+000 1.061338e+001 9.247204e+000 2.964526e+001 1.712078e+001 2.322922e+001 1.889798e+001 1.907324e+001 1.934416e+001 2.040134e+001 1.792457e+001 1.482672e+001 6.607684e+000 3.693376e-001 3.952801e-001 4.170484e-001 6.708130e-001 7.419543e-001 8.216752e-001 8.318701e-001 7.627359e-001 8.562459e-001 8.132120e-001 7.902400e-001 6.507252e-001 5.096649e-002 5.312042e-002 6.857639e-002 7.580951e-002 1.233884e-001 1.328244e-001 1.358930e-001 1.493767e-001 1.364471e-001 1.498508e-001 1.457545e-001 1.476909e-001 1.078714e-001 7.698555e-003
<GCONST> 6.806437e+001
<TRANSP> 10
 0.000000e+000 1.000000e+000 0.000000e+000 0.000000e+000 0.000000e+000 0.000000e+000 0.000000e+000 0.000000e+000 0.000000e+000 0.000000e+000
 0.000000e+000 8.657572e-001 1.342427e-001 0.000000e+000 0.000000e+000 0.000000e+000 0.000000e+000 0.000000e+000 0.000000e+000 0.000000e+000
 0.000000e+000 0.000000e+000 6.452187e-001 3.547813e-001 0.000000e+000 0.000000e+000 0.000000e+000 0.000000e+000 0.000000e+000 0.000000e+000
 0.000000e+000 0.000000e+000 0.000000e+000 8.113410e-001 1.886590e-001 0.000000e+000 0.000000e+000 0.000000e+000 0.000000e+000 0.000000e+000
 0.000000e+000 0.000000e+000 0.000000e+000 0.000000e+000 7.318885e-001 2.681115e-001 0.000000e+000 0.000000e+000 0.000000e+000 0.000000e+000
 0.000000e+000 0.000000e+000 0.000000e+000 0.000000e+000 0.000000e+000 6.975303e-001 3.024697e-001 0.000000e+000 0.000000e+000 0.000000e+000
 0.000000e+000 0.000000e+000 0.000000e+000 0.000000e+000 0.000000e+000 0.000000e+000 6.377679e-001 3.622321e-001 0.000000e+000 0.000000e+000
 0.000000e+000 0.000000e+000 0.000000e+000 0.000000e+000 0.000000e+000 0.000000e+000 0.000000e+000 6.796321e-001 3.203679e-001 0.000000e+000
 0.000000e+000 0.000000e+000 0.000000e+000 0.000000e+000 0.000000e+000 0.000000e+000 0.000000e+000 0.000000e+000 9.096192e-001 9.038080e-002
 0.000000e+000 0.000000e+000 0.000000e+000 0.000000e+000 0.000000e+000 0.000000e+000 0.000000e+000 0.000000e+000 0.000000e+000 0.000000e+000
<ENDHMM>
~h "three"
<BEGINHMM>
<NUMSTATES> 10
<STATE> 2
<MEAN> 39
 -1.223432e+001 -3.875507e+000 -3.773872e+000 -1.377794e+001 -3.931834e+000 -1.079198e+001 -3.811297e+000 -5.618998e+000 -9.042311e-001 -4.247808e+000 -6.191568e-001 -5.209149e+000 1.332169e+001 2.173960e-001 -1.657892e-002 2.224444e-001 -9.685684e-003 -1.975549e-001 -5.273193e-002 1.518592e-001 6.685110e-003 -3.034892e-002 3.150912e-002 9.013631e-002 -7.629053e-002 2.792650e-001 3.097892e-001 1.114812e-001 2.921094e-001 1.039913e-001 -1.195456e-001 -8.282109e-002 2.213475e-002 5.602896e-003 -6.311715e-002 -2.791156e-002 -7.138473e-002 -1.155950e-001 1.203545e-001
<VARIANCE> 39
 9.812521e+000 1.088514e+001 1.200044e+001 2.635849e+001 1.679704e+001 2.189454e+001 1.788458e+001 2.075792e+001 1.889777e+001 1.997889e+001 1.888591e+001 1.692309e+001 8.781911e+000 1.332664e+000 1.022585e+000 1.491444e+000 1.220100e+000 1.068576e+000 1.283496e+000 9.527382e-001 9.320759e-001 9.931740e-001 1.249444e+000 1.266780e+000 1.150954e+000 3.668665e-001 1.276357e-001 1.843786e-001 1.886749e-001 1.998372e-001 2.383424e-001 2.326270e-001 1.946248e-001 1.700739e-001 1.850568e-001 2.194058e-001 2.288830e-001 2.056706e-001 4.171073e-002
<GCONST> 8.573349e+001
<STATE> 3
<MEAN> 39
 -6.294514e+000 -2.438535e+000 1.551957e+000 -1.173573e+001 -6.229216e+000 -1.259051e+001 -2.790998e+000 -4.915684e+000 -2.242108e+000 -5.114031e+000 -1.159303e+000 -7.361264e+000 1.617170e+001 1.647713e+000 -6.101640e-001 9.047357e-001 8.420784e-001 -1.561693e+000 -9.594560e-001 3.040576e-001 -2.310228e-002 -2.308708e-001 -2.099827e-001 -1.604420e-001 -3.534810e-001 5.547524e-001 -4.849898e-002 -2.973630e-001 -1.716183e-001 1.323790e-002 -2.982393e-001 -6.526428e-003 -1.399827e-002 -1.461323e-001 1.012309e-001 5.881320e-002 -6.329433e-002 8.365855e-002 -3.084007e-002
<VARIANCE> 39
 2.260040e+001 1.502248e+001 2.123647e+001 2.501065e+001 3.455787e+001 4.807309e+001 2.573594e+001 2.999662e+001 2.626912e+001 3.137097e+001 4.175143e+001 2.908487e+001 3.196816e+000 1.097450e+000 1.241756e+000 1.404788e+000 1.592317e+000 2.000692e+000 2.241819e+000 1.158868e+000 1.818867e+000 1.396481e+000 1.595984e+000 2.287219e+000 2.076957e+000 1.147578e-001 1.874577e-001 1.753046e-001 2.246056e-001 3.387018e-001 3.334509e-001 3.963954e-001 2.289023e-001 3.102365e-001 2.287951e-001 2.809897e-001 3.236867e-001 2.162048e-001 2.069122e-002
<GCONST> 9.643636e+001
<STATE> 4
<MEAN> 39
 -7.265585e-001 -8.562340e+000 2.369266e+000 -6.889904e+000 -1.537891e+001 -1.643397e+001 -5.738941e-001 -6.320607e+000 -2.241357e+000 -4.580529e+000 -1.624601e+000 -7.058970e+000 1.806878e+001 2.427206e-001 -4.912831e-001 6.944816e-001 -5.094698e-001 -1.803712e+000 8.502806e-001 1.010974e-001 -7.236751e-001 4.107140e-001 2.305678e-001 -2.229295e-001 -7.436548e-002 3.313340e-001 -4.768625e-001 4.602419e-001 8.202937e-002 -6.688226e-001 4.129027e-001 6.304420e-001 -3.505739e-001 4.914952e-005 1.905152e-001 -2.565514e-002 3.714498e-002 6.489922e-003 -8.287726e-002
<VARIANCE> 39
 1.997426e+001 2.399534e+001 1.803656e+001 4.380293e+001 4.147031e+001 5.765232e+001 2.276377e+001 3.493731e+001 2.571017e+001 2.595521e+001 3.393032e+001 4.836658e+001 1.400125e+000 1.135047e+000 1.321767e+000 1.104838e+000 3.085983e+000 1.870332e+000 3.125317e+000 1.669910e+000 1.713082e+000 1.111328e+000 1.191344e+000 1.101704e+000 1.301060e+000 6.409713e-002 1.148582e-001 1.435603e-001 1.956786e-001 2.604668e-001 3.654373e-001 3.462893e-001 2.967233e-001 2.620604e-001 2.094907e-001 2.111860e-001 2.058735e-001 2.464602e-001 6.436367e-003
<GCONST> 9.271710e+001
<STATE> 5
<MEAN> 39
 -4.153960e+000 -5.950755e+000 6.705745e+000 -1.606138e+001 -1.816034e+001 -6.294309e+000 -4.091550e+000 -9.388742e+000 1.572063e+000 -4.244226e+000 -2.170752e+000 -7.743446e+000 1.869129e+001 -9.382957e-001 1.674664e+000 4.250651e-001 -2.360177e+000 1.162150e+000 1.363515e+000 -1.889870e+000 3.441016e-001 5.312630e-001 -3.748024e-001 -9.341332e-002 -3.912140e-002 4.044281e-002 -7.752135e-002 3.830759e-001 -3.981881e-001 1.579879e-001 7.980643e-001 -6.417196e-001 -1.153211e-001 3.934888e-001 -2.916702e-001 -8.720356e-002 3.960199e-002 9.363256e-002 -6.469908e-002
<VARIANCE> 39
 1.029406e+001 2.845192e+001 1.398020e+001 3.269273e+001 4.438226e+001 5.069934e+001 4.124853e+001 3.881085e+001 2.472452e+001 2.782232e+001 4.072670e+001 3.661591e+001 1.232595e+000 4.754088e-001 1.009650e+000 6.829049e-001 1.345960e+000 2.161200e+000 2.392209e+000 1.535679e+000 1.485622e+000 1.000460e+000 8.577868e-001 7.624060e-001 8.475230e-001 1.905442e-002 6.313868e-002 9.627735e-002 9.588213e-002 2.503203e-001 2.239334e-001 2.951643e-001 3.092822e-001 1.764596e-001 1.810866e-001 1.738268e-001 1.366661e-001 1.486251e-001 2.770831e-003
<GCONST> 8.202727e+001
<STATE> 6
<MEAN> 39
 -7.352800e+000 2.512497e+000 4.287072e+000 -2.235356e+001 -7.988080e+000 -8.684972e+000 -9.711867e+000 -4.294298e+000 -7.661953e-002 -5.740357e+000 -2.146053e+000 -7.338712e+000 1.846795e+001 -4.644041e-001 1.843605e+000 -8.870983e-001 -1.745253e-001 1.940154e+000 -1.354264e+000 -3.399278e-001 5.070165e-001 -6.102788e-001 -4.430085e-002 -1.618702e-002 1.288603e-001 -1.045263e-001 1.561542e-001 -1.997920e-001 -1.287629e-001 5.752475e-001 -2.006374e-001 -2.636341e-001 4.900516e-001 -2.737191e-001 -8.042686e-002 1.006460e-001 -6.748295e-003 -2.154551e-002 -3.610763e-002
<VARIANCE> 39
 7.578357e+000 2.520320e+001 1.553739e+001 2.042445e+001 3.492542e+001 3.102164e+001 5.072969e+001 4.071837e+001 3.071657e+001 2.945906e+001 4.165255e+001 4.183387e+001 1.385489e+000 2.747219e-001 8.058621e-001 6.012008e-001 1.178611e+000 1.282084e+000 1.707427e+000 1.583054e+000 1.179322e+000 1.114512e+000 9.223382e-001 7.856102e-001 7.813385e-001 1.782752e-002 3.706621e-002 8.731582e-002 8.673694e-002 1.439533e-001 1.933421e-001 2.448827e-001 2.259505e-001 1.816088e-001 1.611122e-001 1.456223e-001 1.347543e-001 1.198608e-001 1.550644e-003
<GCONST> 7.626820e+001
<STATE> 7
<MEAN> 39
 -7.510068e+000 9.751625e+000 5.855105e-001 -1.811853e+001 -3.329182e+000 -1.494772e+001 -7.771503e+000 -6.457800e+000 -1.814963e+000 -5.276866e+000 -2.439656e+000 -7.481371e+000 1.768467e+001 6.821360e-002 3.428924e-001 -2.932940e-001 9.786264e-001 7.119082e-001 -4.058419e-001 5.253199e-001 -3.726706e-001 -1.939723e-001 6.844351e-002 -1.107742e-001 -4.632257e-002 -2.525881e-001 8.090778e-004 -4.046948e-001 1.389982e-001 7.612926e-002 -1.833115e-001 3.276760e-001 9.427293e-002 1.137274e-002 1.018216e-001 1.228446e-003 4.937901e-002 2.777179e-002 -4.990636e-002
<VARIANCE> 39
 1.158779e+001 2.527094e+001 2.202692e+001 2.396759e+001 3.183563e+001 3.191806e+001 4.923570e+001 3.147633e+001 3.698295e+001 4.195943e+001 5.129403e+001 5.175743e+001 2.130797e+000 2.474290e-001 1.183025e+000 6.512855e-001 1.294600e+000 1.387094e+000 1.393417e+000 1.152309e+000 1.345259e+000 1.061057e+000 1.254503e+000 1.050837e+000 1.059378e+000 5.502084e-002 5.540456e-002 9.539235e-002 1.136427e-001 1.720138e-001 1.884571e-001 1.848489e-001 1.992719e-001 1.566781e-001 1.672861e-001 1.798178e-001 1.479126e-001 1.512157e-001 5.107911e-003
<GCONST> 8.249210e+001
<STATE> 8
<MEAN> 39
 -7.314531e+000 7.003301e+000 1.043664e+000 -1.354581e+001 -1.260531e+000 -1.481265e+001 -5.278982e+000 -8.930516e+000 -2.623914e+000 -6.445494e+000 -3.982796e+000 -8.521799e+000 1.632223e+001 -3.753046e-001 -1.141986e+000 -1.984353e-001 6.025538e-001 9.645438e-002 6.036402e-001 4.798009e-001 1.966416e-001 1.433111e-001 1.673217e-001 3.464311e-001 3.187424e-001 -4.502517e-001 -1.338789e-001 -2.720787e-001 -1.480468e-001 -2.221430e-001 -1.574042e-001 1.129090e-001 -2.031983e-002 1.576327e-001 7.451120e-002 4.783122e-002 4.829249e-002 3.565571e-002 -3.689528e-002
<VARIANCE> 39
 9.569385e+000 2.250867e+001 2.406822e+001 2.902845e+001 3.447828e+001 3.719625e+001 3.548170e+001 3.669938e+001 4.572972e+001 5.336044e+001 5.031599e+001 5.127775e+001 4.589200e+000 5.404262e-001 1.382945e+000 8.877761e-001 1.198368e+000 1.446411e+000 1.333985e+000 2.100569e+000 1.671138e+000 1.418020e+000 1.823456e+000 1.588279e+000 1.413149e+000 1.326894e-001 5.224234e-002 1.128659e-001 1.411507e-001 1.646885e-001 1.912401e-001 1.836953e-001 2.141128e-001 2.162903e-001 1.924387e-001 2.545022e-001 1.792249e-001 1.652611e-001 7.755068e-003
<GCONST> 8.981739e+001
<STATE> 9
<MEAN> 39
 -1.098545e+001 -1.331239e+000 -2.041781e+000 -1.422797e+001 -2.203660e+000 -1.175960e+001 -4.353193e+000 -5.974158e+000 -1.384130e+000 -4.228946e+000 -1.285049e+000 -6.450246e+000 1.457188e+001 -3.171365e-001 -7.732617e-001 -4.384677e-001 -1.020421e-001 -2.447890e-001 2.644123e-001 1.630222e-001 1.495102e-001 1.185464e-001 3.028443e-002 1.578347e-001 1.138247e-001 -2.161061e-001 7.636160e-002 1.378196e-001 2.752775e-002 -2.881536e-002 -2.124961e-002 -5.939536e-002 -1.013353e-001 -6.764587e-002 -4.880288e-002 -7.937521e-002 -4.943545e-002 -3.428392e-002 6.290030e-002
<VARIANCE> 39
 1.151303e+001 1.722314e+001 1.631796e+001 2.790489e+001 2.025937e+001 2.673823e+001 2.316854e+001 2.092465e+001 2.727281e+001 2.412461e+001 2.223886e+001 1.845807e+001 7.695777e+000 4.036698e-001 9.915597e-001 8.045929e-001 8.532232e-001 8.303479e-001 1.102731e+000 1.084778e+000 1.027609e+000 1.064055e+000 1.290729e+000 1.275738e+000 9.845090e-001 8.524613e-002 4.216938e-002 1.004922e-001 1.015150e-001 1.405985e-001 1.562251e-001 1.598184e-001 1.880602e-001 1.577617e-001 1.689760e-001 2.123449e-001 1.936358e-001 1.413357e-001 8.610003e-003
<GCONST> 7.832354e+001
<TRANSP> 10
 0.000000e+000 1.000000e+000 0.000000e+000 0.000000e+000 0.000000e+000 0.000000e+000 0.000000e+000 0.000000e+000 0.000000e+000 0.000000e+000
 0.000000e+000 8.243454e-001 1.756546e-001 0.000000e+000 0.000000e+000 0.000000e+000 0.000000e+000 0.000000e+000 0.000000e+000 0.000000e+000
 0.000000e+000 0.000000e+000 7.072809e-001 2.927191e-001 0.000000e+000 0.000000e+000 0.000000e+000 0.000000e+000 0.000000e+000 0.000000e+000
 0.000000e+000 0.000000e+000 0.000000e+000 7.209261e-001 2.790739e-001 0.000000e+000 0.000000e+000 0.000000e+000 0.000000e+000 0.000000e+000
 0.000000e+000 0.000000e+000 0.000000e+000 0.000000e+000 6.807668e-001 3.192332e-001 0.000000e+000 0.000000e+000 0.000000e+000 0.000000e+000
 0.000000e+000 0.000000e+000 0.000000e+000 0.000000e+000 0.000000e+000 7.252737e-001 2.747262e-001 0.000000e+000 0.000000e+000 0.000000e+000
 0.000000e+000 0.000000e+000 0.000000e+000 0.000000e+000 0.000000e+000 0.000000e+000 7.816958e-001 2.183042e-001 0.000000e+000 0.000000e+000
 0.000000e+000 0.000000e+000 0.000000e+000 0.000000e+000 0.000000e+000 0.000000e+000 0.000000e+000 7.240631e-001 2.759369e-001 0.000000e+000
 0.000000e+000 0.000000e+000 0.000000e+000 0.000000e+000 0.000000e+000 0.000000e+000 0.000000e+000 0.000000e+000 8.168708e-001 1.831292e-001
 0.000000e+000 0.000000e+000 0.000000e+000 0.000000e+000 0.000000e+000 0.000000e+000 0.000000e+000 0.000000e+000 0.000000e+000 0.000000e+000
<ENDHMM>
~h "two"
<BEGINHMM>
<NUMSTATES> 10
<STATE> 2
<MEAN> 39
 -1.314632e+001 -2.123106e+000 -5.696981e+000 -1.059812e+001 -5.224578e+000 -9.041409e+000 -4.242641e+000 -4.916119e+000 -2.665440e-001 -3.392895e+000 2.200887e-001 -4.104264e+000 1.248372e+001 -8.508170e-001 9.724271e-002 -6.868566e-001 -2.867806e-001 -1.356492e-001 2.711919e-001 -2.846836e-002 1.615775e-001 4.055494e-001 -3.792216e-002 1.371488e-001 8.707525e-002 3.341323e-001 2.305739e-001 2.213241e-001 3.321550e-001 -1.569630e-001 9.757194e-002 -4.024748e-003 -9.820653e-003 -7.719477e-002 -5.094035e-002 -8.142159e-002 -1.481462e-001 -9.988300e-002 1.200979e-001
<VARIANCE> 39
 1.642931e+001 1.855082e+001 2.298812e+001 3.522503e+001 2.210850e+001 2.351152e+001 2.255481e+001 2.329894e+001 2.191662e+001 2.227583e+001 2.286284e+001 1.988654e+001 1.339493e+001 1.185342e+000 1.504027e+000 1.627995e+000 1.435117e+000 1.482585e+000 1.193085e+000 1.057504e+000 1.336491e+000 1.295762e+000 1.572730e+000 1.501577e+000 1.350235e+000 7.755520e-001 1.452857e-001 2.363860e-001 2.860102e-001 2.386835e-001 2.656558e-001 1.985966e-001 1.909879e-001 2.464456e-001 2.279451e-001 3.003119e-001 2.246902e-001 2.021877e-001 1.078911e-001
<GCONST> 9.497041e+001
<STATE> 3
<MEAN> 39
 -1.460862e+001 1.085106e-001 -4.115005e+000 -1.429788e+001 -3.770193e+000 -7.813502e+000 -4.363045e+000 -4.649762e+000 1.083577e+000 -3.906697e+000 -6.538117e-001 -4.576070e+000 1.477849e+001 1.259805e+000 1.010825e+000 1.792588e+000 -6.370723e-001 -9.967314e-002 -1.412503e-001 -2.331858e-001 -4.508529e-001 -2.644507e-001 -8.134791e-002 -3.683238e-001 -4.230601e-001 4.686194e-001 4.215820e-001 1.741339e-002 2.638521e-001 -8.782417e-002 -2.717081e-001 -2.973752e-001 -1.607749e-001 -1.799526e-001 -2.085518e-001 -7.193005e-002 -6.383344e-002 -2.000516e-001 9.900478e-002
<VARIANCE> 39
 1.105288e+001 1.355268e+001 2.202313e+001 1.468661e+001 2.861877e+001 2.902855e+001 2.214232e+001 2.590441e+001 2.372308e+001 3.779310e+001 3.399970e+001 3.133479e+001 1.845597e+000 9.457336e-001 5.786980e-001 1.162576e+000 9.585218e-001 1.315382e+000 1.286142e+000 1.134191e+000 1.380618e+000 1.173524e+000 2.043063e+000 2.121497e+000 1.186342e+000 1.145664e-001 1.533353e-001 9.468278e-002 2.271740e-001 1.426471e-001 2.062740e-001 1.792379e-001 2.081700e-001 2.645450e-001 2.340625e-001 2.774922e-001 4.410911e-001 2.199976e-001 2.118213e-002
<GCONST> 8.725293e+001
<STATE> 4
<MEAN> 39
 -6.359425e+000 4.613678e+000 3.978992e+000 -1.648615e+001 -6.896295e+000 -1.098460e+001 -7.270890e+000 -8.260918e+000 -1.389303e+000 -5.200983e+000 -2.085677e+000 -7.183844e+000 1.776643e+001 1.500624e+000 7.275085e-001 1.298077e+000 -8.716999e-001 -1.291457e+000 -9.016241e-001 -8.058705e-001 -7.125393e-001 -5.491709e-001 -4.611132e-001 -5.021860e-001 -8.323587e-001 7.676101e-001 -3.968488e-001 -2.682424e-001 -5.003740e-001 7.586781e-002 -5.041770e-002 5.235270e-002 5.930742e-002 1.612149e-001 4.131167e-002 -7.470189e-003 2.804221e-002 5.497908e-002 -9.784155e-002
<VARIANCE> 39
 9.056650e+000 1.256647e+001 2.178893e+001 1.978758e+001 4.073478e+001 3.305816e+001 2.534153e+001 2.924570e+001 2.840095e+001 6.022392e+001 3.723343e+001 3.816817e+001 1.958996e+000 7.986994e-001 5.516380e-001 7.942661e-001 1.245850e+000 1.002671e+000 1.004883e+000 1.601865e+000 1.922167e+000 1.897250e+000 2.471864e+000 4.366227e+000 2.072020e+000 5.260741e-002 7.548018e-002 6.337027e-002 9.045370e-002 1.130883e-001 1.617527e-001 1.737704e-001 1.999024e-001 2.234788e-001 1.796210e-001 2.589568e-001 2.752861e-001 1.996637e-001 1.395738e-002
<GCONST> 8.592673e+001
<STATE> 5
<MEAN> 39
 -6.625778e+000 4.098535e+000 2.943568e+000 -2.003717e+001 -8.853229e+000 -1.203432e+001 -7.353340e+000 -7.389899e+000 -4.601953e-001 -5.262884e+000 -3.649692e+000 -8.847631e+000 1.890257e+001 2.145406e-001 8.800538e-004 2.266769e-001 -2.629155e-001 -4.716517e-001 -1.551189e-001 -1.787730e-001 1.907638e-002 -2.156019e-001 -2.800988e-002 -1.115518e-001 -2.790435e-001 1.664651e-001 -1.777610e-001 -1.704672e-001 -1.783060e-001 3.003073e-001 2.472725e-001 1.090153e-001 1.718321e-001 1.036149e-001 3.202715e-002 8.082203e-002 1.594314e-001 1.565844e-001 -1.506796e-001
<VARIANCE> 39
 6.103765e+000 8.891158e+000 1.831636e+001 2.146168e+001 3.837173e+001 1.832505e+001 2.597051e+001 3.052930e+001 3.999112e+001 7.182164e+001 6.773846e+001 6.121086e+001 1.236280e+000 3.375600e-001 3.189279e-001 2.916411e-001 7.843728e-001 7.755289e-001 8.456517e-001 1.057753e+000 1.173629e+000 1.270502e+000 1.642022e+000 2.044871e+000 2.038762e+000 6.826746e-002 8.109059e-002 4.767277e-002 7.977724e-002 8.804583e-002 1.299703e-001 1.102690e-001 1.467138e-001 2.085296e-001 1.736698e-001 2.294311e-001 3.042527e-001 2.327895e-001 8.127336e-003
<GCONST> 7.802156e+001
<STATE> 6
<MEAN> 39
 -5.464524e+000 2.803242e+000 3.336646e+000 -1.694180e+001 -8.800038e+000 -1.293607e+001 -7.221674e+000 -7.660806e+000 -2.925908e+000 -5.576655e+000 -2.978279e+000 -9.476293e+000 1.841811e+001 2.212243e-001 -1.503650e-001 -5.523318e-002 6.046123e-001 1.936208e-001 -2.611614e-001 1.365423e-001 1.260027e-002 -2.720961e-001 -9.545241e-003 7.028898e-002 3.514752e-002 -1.134057e-001 -2.672836e-002 -1.566702e-002 -7.013572e-002 8.052552e-002 1.246235e-001 1.335727e-002 3.651794e-002 3.329004e-002 4.625333e-002 7.261852e-003 2.767994e-002 6.693188e-002 -4.330064e-002
<VARIANCE> 39
 9.237736e+000 9.600030e+000 1.654591e+001 2.749375e+001 3.902100e+001 2.645132e+001 3.402850e+001 3.177320e+001 4.760909e+001 5.362036e+001 7.536651e+001 4.978052e+001 1.183381e+000 1.833841e-001 2.080135e-001 3.105697e-001 5.233836e-001 6.893392e-001 8.247396e-001 8.027670e-001 9.545756e-001 9.006437e-001 1.048091e+000 1.010764e+000 9.768498e-001 1.450499e-002 3.201753e-002 2.997815e-002 4.500901e-002 7.742056e-002 1.004901e-001 1.079891e-001 1.215041e-001 1.376933e-001 1.460664e-001 1.392286e-001 1.546689e-001 1.450976e-001 3.600179e-003
<GCONST> 6.769222e+001
<STATE> 7
<MEAN> 39
 -1.790706e+000 1.866040e+000 1.337801e+000 -1.156816e+001 -7.223368e+000 -1.592757e+001 -7.527829e+000 -8.337492e+000 -4.621737e+000 -6.807603e+000 -2.753564e+000 -8.489913e+000 1.749324e+001 -5.887410e-002 -1.073651e-001 -5.750705e-001 6.187956e-001 1.063194e+000 8.089411e-002 1.291911e-001 2.252031e-001 2.943221e-001 1.298093e-001 1.163312e-001 3.522987e-001 -3.443621e-001 -2.636285e-001 -1.112414e-001 -7.700566e-002 -1.038008e-001 6.419411e-002 2.776616e-001 1.375214e-001 5.042642e-002 1.915788e-001 1.004263e-001 -1.372248e-002 6.527380e-002 -7.266448e-002
<VARIANCE> 39
 2.459022e+001 2.033746e+001 4.150718e+001 3.214180e+001 3.558562e+001 4.069166e+001 6.562918e+001 5.001637e+001 5.352567e+001 8.042935e+001 7.723427e+001 3.864668e+001 1.778672e+000 9.052172e-001 5.800977e-001 9.844537e-001 1.668178e+000 1.321786e+000 2.113776e+000 2.354038e+000 1.883739e+000 2.115645e+000 2.300127e+000 2.062614e+000 1.370623e+000 7.206593e-002 9.775009e-002 8.711908e-002 1.561061e-001 1.551731e-001 1.911861e-001 2.299743e-001 2.796820e-001 2.725578e-001 3.226063e-001 3.661586e-001 2.810963e-001 1.967489e-001 8.603944e-003
<GCONST> 9.579626e+001
<STATE> 8
<MEAN> 39
 -4.100050e+000 2.639762e+000 2.120216e+000 -8.866445e+000 -2.113557e+000 -1.211253e+001 -5.021196e+000 -5.606164e+000 -1.704935e+000 -3.796784e+000 -1.881249e+000 -6.417435e+000 1.555669e+001 -1.196102e+000 -8.885018e-001 -7.198080e-001 4.712101e-001 8.404386e-001 9.476360e-001 8.700809e-001 3.503125e-001 5.952668e-001 2.784881e-001 1.148091e-001 4.824016e-001 -6.243715e-001 -1.990769e-001 -2.334303e-001 -1.710480e-001 -2.994393e-001 -2.603040e-001 1.538730e-002 -3.745278e-002 -4.498749e-002 -3.698023e-002 -3.054722e-002 1.386531e-002 -3.757715e-003 -1.469815e-002
<VARIANCE> 39
 3.068030e+001 2.466657e+001 3.318451e+001 4.043513e+001 5.095330e+001 5.182648e+001 4.273626e+001 4.152913e+001 4.262165e+001 4.403370e+001 3.900163e+001 3.581742e+001 3.587871e+000 1.223581e+000 7.908205e-001 1.753706e+000 1.698958e+000 1.623929e+000 1.615230e+000 1.615544e+000 1.476568e+000 1.825557e+000 2.003199e+000 2.220472e+000 1.477059e+000 1.775620e-001 8.939651e-002 1.112944e-001 1.818334e-001 1.886235e-001 2.054929e-001 2.590176e-001 2.242815e-001 2.210921e-001 2.391746e-001 2.359404e-001 2.354954e-001 2.063655e-001 1.169997e-002
<GCONST> 9.630653e+001
<STATE> 9
<MEAN> 39
 -9.642128e+000 -2.449477e+000 -1.978507e+000 -1.019288e+001 -1.461623e+000 -1.044295e+001 -3.383780e+000 -5.891780e+000 -1.702967e+000 -4.630606e+000 -1.188392e+000 -5.834677e+000 1.319542e+001 -7.951854e-001 -7.490414e-001 -7.851773e-001 -4.105110e-001 -2.516967e-001 3.475572e-001 1.915318e-001 1.554973e-003 1.379476e-001 -1.062439e-002 8.812791e-002 1.358816e-001 -3.219319e-001 1.649197e-001 9.397672e-002 5.823090e-002 -7.363949e-002 -1.500032e-001 -1.010379e-001 -1.532149e-001 -1.054883e-001 -1.195792e-001 -5.068648e-002 -5.946534e-002 -7.622029e-002 9.156749e-002
<VARIANCE> 39
 2.268692e+001 1.884204e+001 1.720581e+001 4.872773e+001 2.766154e+001 3.171187e+001 2.411112e+001 3.368836e+001 3.633133e+001 3.293852e+001 2.637447e+001 2.216132e+001 9.019511e+000 6.479120e-001 9.022266e-001 1.073976e+000 1.019223e+000 1.067563e+000 1.134112e+000 1.316554e+000 1.418508e+000 1.393688e+000 1.404250e+000 1.160893e+000 9.542703e-001 1.161750e-001 7.721442e-002 1.015242e-001 1.366217e-001 1.732124e-001 1.778293e-001 1.713938e-001 2.032010e-001 2.078836e-001 2.224019e-001 2.005315e-001 1.886583e-001 1.407168e-001 1.194573e-002
<GCONST> 8.617743e+001
<TRANSP> 10
 0.000000e+000 1.000000e+000 0.000000e+000 0.000000e+000 0.000000e+000 0.000000e+000 0.000000e+000 0.000000e+000 0.000000e+000 0.000000e+000
 0.000000e+000 7.534974e-001 2.465027e-001 0.000000e+000 0.000000e+000 0.000000e+000 0.000000e+000 0.000000e+000 0.000000e+000 0.000000e+000
 0.000000e+000 0.000000e+000 7.153689e-001 2.846311e-001 0.000000e+000 0.000000e+000 0.000000e+000 0.000000e+000 0.000000e+000 0.000000e+000
 0.000000e+000 0.000000e+000 0.000000e+000 5.514444e-001 4.485557e-001 0.000000e+000 0.000000e+000 0.000000e+000 0.000000e+000 0.000000e+000
 0.000000e+000 0.000000e+000 0.000000e+000 0.000000e+000 6.698993e-001 3.301006e-001 0.000000e+000 0.000000e+000 0.000000e+000 0.000000e+000
 0.000000e+000 0.000000e+000 0.000000e+000 0.000000e+000 0.000000e+000 8.606211e-001 1.393789e-001 0.000000e+000 0.000000e+000 0.000000e+000
 0.000000e+000 0.000000e+000 0.000000e+000 0.000000e+000 0.000000e+000 0.000000e+000 6.725013e-001 3.274986e-001 0.000000e+000 0.000000e+000
 0.000000e+000 0.000000e+000 0.000000e+000 0.000000e+000 0.000000e+000 0.000000e+000 0.000000e+000 5.411791e-001 4.588209e-001 0.000000e+000
 0.000000e+000 0.000000e+000 0.000000e+000 0.000000e+000 0.000000e+000 0.000000e+000 0.000000e+000 0.000000e+000 7.105865e-001 2.894135e-001
 0.000000e+000 0.000000e+000 0.000000e+000 0.000000e+000 0.000000e+000 0.000000e+000 0.000000e+000 0.000000e+000 0.000000e+000 0.000000e+000
<ENDHMM>
~h "one"
<BEGINHMM>
<NUMSTATES> 10
<STATE> 2
<MEAN> 39
 -5.069552e+000 -5.741238e-001 -2.682626e+000 -1.178266e+001 -1.174415e+000 -8.933418e+000 -3.645545e+000 -5.605631e+000 -2.651700e+000 -5.001887e+000 -1.325375e+000 -6.243276e+000 1.403592e+001 1.311115e+000 5.612074e-001 -3.949058e-001 -5.184377e-001 2.400176e-001 2.888496e-001 2.362169e-001 -5.219663e-003 -2.693973e-001 -1.437966e-001 -8.897561e-002 -1.162456e-001 5.097511e-001 1.504795e-001 -1.141543e-001 -2.940445e-001 -1.794114e-001 -1.159416e-002 1.167171e-002 5.594672e-003 3.860197e-002 2.452605e-003 -2.168831e-002 -4.113146e-002 -3.837726e-002 9.531988e-002
<VARIANCE> 39
 3.808812e+001 1.981913e+001 1.845354e+001 4.438932e+001 2.494576e+001 2.939468e+001 2.272378e+001 2.501934e+001 2.234953e+001 2.323972e+001 2.497009e+001 2.612960e+001 1.723109e+001 1.625214e+000 9.288868e-001 1.306785e+000 1.499250e+000 1.307969e+000 1.206529e+000 1.240366e+000 1.260157e+000 1.047894e+000 1.210506e+000 1.084179e+000 9.666927e-001 4.004281e-001 1.765430e-001 1.536337e-001 1.906964e-001 2.313141e-001 2.173302e-001 1.922128e-001 1.979444e-001 2.230432e-001 1.857952e-001 1.998566e-001 1.642768e-001 1.506781e-001 3.417876e-002
<GCONST> 9.149724e+001
<STATE> 3
<MEAN> 39
 2.135928e+000 1.423111e+000 -7.622607e+000 -1.825862e+001 -1.441339e+000 -8.837938e+000 -2.594436e+000 -5.426520e+000 -4.711184e+000 -6.025488e+000 -2.381952e+000 -7.509417e+000 1.756480e+001 5.144351e-001 -5.582067e-001 -1.467090e+000 -3.658709e-001 5.060639e-001 6.404967e-001 3.501886e-001 -5.519216e-002 -2.169383e-002 -1.359171e-001 -1.346054e-001 -2.488165e-001 3.679624e-001 -3.036464e-001 -3.577112e-001 -7.716460e-002 5.187587e-001 2.419008e-001 4.654147e-002 -1.426530e-001 -2.520940e-002 1.067308e-001 2.986891e-002 -2.540577e-002 -5.122330e-002 -7.013124e-002
<VARIANCE> 39
 3.164581e+001 1.669510e+001 2.214055e+001 3.107023e+001 3.256924e+001 3.223318e+001 2.850097e+001 2.918019e+001 2.734220e+001 3.225847e+001 3.954523e+001 3.397481e+001 1.650520e+000 1.023732e+000 9.983710e-001 1.526719e+000 1.872410e+000 1.561246e+000 1.499699e+000 1.173707e+000 1.148312e+000 1.330868e+000 1.217496e+000 1.075326e+000 9.987383e-001 1.779598e-001 1.348298e-001 9.849811e-002 1.683984e-001 2.143130e-001 2.210892e-001 2.395263e-001 2.330489e-001 2.015668e-001 2.037861e-001 1.751487e-001 2.008355e-001 1.423719e-001 1.618499e-002
<GCONST> 8.904524e+001
<STATE> 4
<MEAN> 39
 2.480850e+000 -2.859028e+000 -1.376882e+001 -1.478206e+001 2.175809e+000 -4.967719e+000 -2.172562e+000 -7.116670e+000 -3.267363e+000 -5.974322e+000 -2.456228e+000 -9.154506e+000 1.839999e+001 -3.158064e-001 -1.468102e+000 -9.894496e-001 1.881233e+000 1.001224e+000 3.061548e-001 -6.698932e-001 4.556045e-002 4.156670e-001 -2.797242e-001 -2.768420e-001 -2.159289e-001 1.359397e-001 -1.974486e-001 -5.988190e-002 4.404835e-001 4.315239e-001 -2.630496e-001 -3.836759e-001 -8.740384e-002 1.799273e-001 1.160685e-002 -1.995966e-001 -1.319816e-002 1.549237e-001 -4.721873e-002
<VARIANCE> 39
 2.816031e+001 1.895725e+001 3.105256e+001 3.535065e+001 3.677942e+001 3.438538e+001 2.982266e+001 3.701668e+001 4.209437e+001 3.308315e+001 3.673358e+001 3.437033e+001 1.360990e+000 5.631734e-001 7.291968e-001 9.960859e-001 1.669236e+000 1.577790e+000 1.720376e+000 1.434369e+000 1.689768e+000 1.417121e+000 1.131082e+000 1.384036e+000 1.178801e+000 2.919401e-002 4.709998e-002 7.558860e-002 1.983728e-001 2.292694e-001 3.018171e-001 2.649203e-001 2.761571e-001 2.520709e-001 2.424154e-001 2.032436e-001 1.902909e-001 1.817040e-001 3.968060e-003
<GCONST> 8.690141e+001
<STATE> 5
<MEAN> 39
 -1.659752e+000 -9.478165e+000 -1.271940e+001 -3.756368e+000 2.222950e+000 -8.240803e+000 -4.644258e+000 -3.676271e+000 -2.352242e+000 -1.040848e+001 -3.149818e+000 -7.542148e+000 1.857301e+001 -7.061244e-001 -7.585331e-001 1.158374e+000 1.444656e+000 -1.226413e+000 -6.579877e-001 8.541526e-001 2.456168e-001 -6.034967e-001 -5.802006e-001 4.421335e-001 4.129625e-001 -2.069018e-002 3.001822e-003 3.297509e-001 3.653817e-001 -5.684454e-001 -3.622133e-001 1.931580e-001 3.481789e-001 -2.905518e-001 -1.669118e-001 2.918162e-001 1.337201e-001 -5.471253e-002 -3.205724e-002
<VARIANCE> 39
 1.345437e+001 1.487889e+001 2.443381e+001 4.563181e+001 3.426005e+001 3.005964e+001 4.088554e+001 4.114475e+001 4.839814e+001 4.226156e+001 4.216253e+001 3.759053e+001 1.247561e+000 2.903090e-001 5.533392e-001 8.892731e-001 1.948625e+000 1.414933e+000 1.198882e+000 2.084395e+000 2.059146e+000 1.674930e+000 1.518887e+000 1.441795e+000 1.098432e+000 1.003355e-002 2.865270e-002 5.896164e-002 1.109731e-001 2.184437e-001 2.426361e-001 2.514612e-001 2.912428e-001 3.063022e-001 2.907386e-001 2.856513e-001 2.357224e-001 2.046086e-001 1.294595e-003
<GCONST> 8.358286e+001
<STATE> 6
<MEAN> 39
 -4.851659e+000 -8.217439e+000 -3.611482e+000 -6.625335e+000 -5.852093e+000 -5.344224e+000 1.422625e+000 -9.722553e+000 -4.436215e+000 -8.516269e+000 -2.125930e+000 -8.452389e+000 1.817687e+001 -3.034138e-002 1.275554e+000 1.471999e+000 -1.451131e+000 -3.762258e-001 2.413702e-001 -1.613011e-001 -8.096613e-001 3.479876e-001 6.658356e-001 -4.562344e-001 -3.115764e-001 -1.399454e-001 1.715219e-001 2.907469e-001 -5.678497e-002 -1.230968e-001 4.245034e-001 -2.437306e-001 -4.466043e-001 1.916100e-001 2.335098e-001 1.927998e-002 -1.549467e-001 -1.719472e-002 -2.066900e-002
<VARIANCE> 39
 1.115070e+001 2.284634e+001 1.553206e+001 3.668572e+001 2.402226e+001 4.508187e+001 4.063412e+001 6.017082e+001 6.060665e+001 5.229111e+001 6.002471e+001 4.290311e+001 1.217292e+000 5.134991e-001 8.244135e-001 1.184804e+000 1.293324e+000 1.749833e+000 2.861555e+000 2.320072e+000 2.179698e+000 2.044138e+000 2.531406e+000 1.564902e+000 9.880354e-001 1.675103e-002 5.135914e-002 9.822800e-002 9.108919e-002 2.417751e-001 2.178544e-001 3.799048e-001 3.232906e-001 3.332456e-001 2.886976e-001 3.114360e-001 2.592739e-001 1.795744e-001 1.478819e-003
<GCONST> 8.943536e+001
<STATE> 7
<MEAN> 39
 -2.042199e+000 7.888845e-001 3.031073e+000 -1.293747e+001 -1.789570e+000 -9.745209e+000 -3.173043e+000 -8.980378e+000 -2.566025e+000 -6.263660e+000 -4.317801e+000 -9.859769e+000 1.726013e+001 2.296095e-001 1.203990e+000 9.698866e-001 -2.846190e-001 8.631054e-001 -8.362551e-001 -7.868955e-001 2.417371e-001 2.216994e-001 4.372011e-001 -1.323844e-001 5.039134e-002 -2.021775e-001 -1.651817e-001 -2.830448e-001 -3.016419e-001 3.126498e-001 1.849344e-002 1.992221e-001 9.767288e-002 9.872044e-002 -6.734829e-002 -1.588421e-001 1.699010e-001 1.552916e-001 -2.997435e-002
<VARIANCE> 39
 1.693494e+001 2.151786e+001 2.700587e+001 2.169644e+001 3.440594e+001 7.282403e+001 3.914010e+001 4.454377e+001 5.757094e+001 5.851889e+001 6.983282e+001 5.000277e+001 1.308041e+000 5.495486e-001 1.011493e+000 1.238199e+000 1.478041e+000 1.662234e+000 2.342669e+000 1.786728e+000 1.731445e+000 1.729040e+000 1.632687e+000 1.661841e+000 1.317360e+000 4.245830e-002 9.749513e-002 1.350559e-001 2.116533e-001 1.730533e-001 2.414207e-001 3.924210e-001 2.658841e-001 2.249746e-001 2.199937e-001 2.622766e-001 2.562062e-001 1.761481e-001 7.801822e-003
<GCONST> 9.334151e+001
<STATE> 8
<MEAN> 39
 -3.080470e+000 2.674650e+000 4.913656e+000 -1.066737e+001 4.943142e-001 -1.080974e+001 -4.396792e+000 -7.268833e+000 -2.936304e+000 -4.883891e+000 -3.586197e+000 -7.406417e+000 1.629082e+001 -6.946552e-001 -7.700284e-002 -1.423877e-001 4.167207e-001 2.203824e-001 4.084806e-001 -6.725944e-002 2.262531e-001 1.233452e-001 7.299834e-002 2.790653e-001 3.584054e-001 -4.030688e-001 -2.221291e-001 -3.688488e-001 -3.445072e-001 -3.422881e-002 -2.286234e-001 1.688894e-001 1.947891e-001 -1.990443e-003 3.738451e-002 -5.320283e-002 6.376480e-002 3.668063e-002 -5.348418e-002
<VARIANCE> 39
 1.514287e+001 1.688220e+001 2.272280e+001 2.355307e+001 3.486069e+001 5.157838e+001 3.363603e+001 2.901457e+001 4.173133e+001 4.629501e+001 3.555792e+001 4.288630e+001 2.846481e+000 1.076463e+000 1.303858e+000 1.096004e+000 1.211767e+000 1.293961e+000 1.831944e+000 1.481082e+000 1.470890e+000 1.429129e+000 1.299946e+000 1.461065e+000 1.491016e+000 1.577297e-001 9.708631e-002 1.235974e-001 1.499437e-001 2.000739e-001 1.821381e-001 2.632864e-001 2.309963e-001 1.995678e-001 2.347992e-001 1.867419e-001 1.771132e-001 1.597665e-001 1.252762e-002
<GCONST> 9.052341e+001
<STATE> 9
<MEAN> 39
 -7.946649e+000 -8.498962e-001 9.512254e-001 -1.117268e+001 -4.166794e-001 -8.975838e+000 -2.964574e+000 -5.915454e+000 -1.621913e+000 -4.500880e+000 -1.654675e+000 -6.130297e+000 1.468462e+001 -6.069720e-001 -5.182598e-001 -7.103642e-001 -2.562859e-001 -3.724397e-001 -3.285692e-002 4.457731e-002 9.896458e-002 5.851958e-002 2.328882e-003 1.590820e-001 1.944229e-001 -2.673323e-001 3.896970e-002 -3.016296e-002 -5.569101e-002 -7.201060e-002 -9.084692e-002 -5.597854e-002 -2.821938e-003 -2.672955e-002 -3.420965e-002 -2.373505e-002 -3.166476e-002 -4.033839e-002 4.322775e-002
<VARIANCE> 39
 1.439293e+001 1.705895e+001 1.909874e+001 2.946137e+001 2.648558e+001 3.589698e+001 2.645827e+001 2.345314e+001 2.800667e+001 2.660574e+001 2.463311e+001 1.972172e+001 7.426147e+000 6.913313e-001 9.118822e-001 9.659199e-001 9.194966e-001 1.045515e+000 1.156687e+000 1.075172e+000 1.027840e+000 1.202791e+000 1.088808e+000 1.044508e+000 9.639678e-001 1.039484e-001 4.979932e-002 1.048154e-001 1.134154e-001 1.361624e-001 1.432196e-001 1.647954e-001 1.722502e-001 1.620153e-001 1.975336e-001 1.733208e-001 1.367646e-001 1.468724e-001 9.098389e-003
<GCONST> 8.059526e+001
<TRANSP> 10
 0.000000e+000 1.000000e+000 0.000000e+000 0.000000e+000 0.000000e+000 0.000000e+000 0.000000e+000 0.000000e+000 0.000000e+000 0.000000e+000
 0.000000e+000 6.972891e-001 3.027109e-001 0.000000e+000 0.000000e+000 0.000000e+000 0.000000e+000 0.000000e+000 0.000000e+000 0.000000e+000
 0.000000e+000 0.000000e+000 7.208915e-001 2.791086e-001 0.000000e+000 0.000000e+000 0.000000e+000 0.000000e+000 0.000000e+000 0.000000e+000
 0.000000e+000 0.000000e+000 0.000000e+000 6.906112e-001 3.093888e-001 0.000000e+000 0.000000e+000 0.000000e+000 0.000000e+000 0.000000e+000
 0.000000e+000 0.000000e+000 0.000000e+000 0.000000e+000 8.020597e-001 1.979403e-001 0.000000e+000 0.000000e+000 0.000000e+000 0.000000e+000
 0.000000e+000 0.000000e+000 0.000000e+000 0.000000e+000 0.000000e+000 7.945122e-001 2.054879e-001 0.000000e+000 0.000000e+000 0.000000e+000
 0.000000e+000 0.000000e+000 0.000000e+000 0.000000e+000 0.000000e+000 0.000000e+000 7.145533e-001 2.854467e-001 0.000000e+000 0.000000e+000
 0.000000e+000 0.000000e+000 0.000000e+000 0.000000e+000 0.000000e+000 0.000000e+000 0.000000e+000 6.894113e-001 3.105886e-001 0.000000e+000
 0.000000e+000 0.000000e+000 0.000000e+000 0.000000e+000 0.000000e+000 0.000000e+000 0.000000e+000 0.000000e+000 8.031106e-001 1.968894e-001
 0.000000e+000 0.000000e+000 0.000000e+000 0.000000e+000 0.000000e+000 0.000000e+000 0.000000e+000 0.000000e+000 0.000000e+000 0.000000e+000
<ENDHMM>
~h "eight"
<BEGINHMM>
<NUMSTATES> 10
<STATE> 2
<MEAN> 39
 -1.104443e+001 -3.958411e+000 -4.203113e+000 -1.667434e+001 -2.327472e+000 -7.460625e+000 -2.667444e+000 -6.610885e+000 -2.075057e+000 -7.081556e+000 -1.629451e+000 -6.016000e+000 1.403703e+001 1.699782e-001 3.508232e-001 -1.990923e-001 -7.647308e-001 5.282294e-001 6.821700e-001 4.209431e-001 1.587969e-001 4.283815e-002 -3.648930e-001 -3.604006e-002 -5.082509e-002 5.016361e-001 1.230289e-001 1.683458e-001 -3.737843e-002 -9.437980e-002 -2.266887e-002 -8.670250e-002 7.931695e-002 1.191361e-001 6.687663e-002 2.712404e-002 -6.185251e-002 -2.355466e-002 9.806316e-002
<VARIANCE> 39
 1.203044e+001 1.382686e+001 1.642820e+001 3.415144e+001 3.905124e+001 3.813589e+001 2.996250e+001 2.795545e+001 2.190932e+001 3.034598e+001 2.632933e+001 2.830642e+001 1.765995e+001 7.089449e-001 8.123896e-001 9.107938e-001 1.330565e+000 1.406535e+000 1.604007e+000 1.623687e+000 1.409184e+000 1.302490e+000 1.335384e+000 1.323486e+000 1.177509e+000 4.148060e-001 1.046612e-001 8.902472e-002 1.236166e-001 2.115444e-001 1.917499e-001 2.893561e-001 2.775195e-001 2.207663e-001 1.880298e-001 2.315420e-001 2.017781e-001 1.885277e-001 5.419898e-002
<GCONST> 9.121900e+001
<STATE> 3
<MEAN> 39
 -8.268945e+000 -6.621011e-002 -5.281050e+000 -2.178708e+001 -4.556556e-001 -5.588476e+000 1.083991e+000 -4.016180e+000 -8.528905e-001 -7.842617e+000 -2.984115e+000 -6.790168e+000 1.778576e+001 3.010760e-001 1.099151e+000 -1.459408e-001 -7.390481e-001 -2.458200e-001 -4.756885e-001 3.330562e-001 5.148315e-001 4.968607e-001 1.196924e-001 -2.573064e-001 -1.586515e-001 4.554709e-001 -7.414106e-002 7.499723e-002 6.880416e-002 2.194049e-001 -1.874973e-001 -3.923766e-001 -2.341790e-001 -1.046407e-001 3.001572e-002 1.517668e-001 1.383680e-001 6.046257e-003 -1.116009e-001
<VARIANCE> 39
 9.854584e+000 1.295199e+001 2.500203e+001 1.675916e+001 4.962677e+001 2.531468e+001 2.755129e+001 1.816914e+001 2.429443e+001 2.335397e+001 2.346910e+001 3.038439e+001 2.336467e+000 4.082050e-001 4.992422e-001 4.482460e-001 1.080725e+000 1.025195e+000 1.230791e+000 1.708370e+000 9.666618e-001 8.977473e-001 1.082743e+000 1.235872e+000 1.055370e+000 3.541780e-001 6.092792e-002 5.219877e-002 7.772128e-002 1.223000e-001 1.403777e-001 1.301826e-001 1.385458e-001 1.162453e-001 1.659581e-001 1.629796e-001 1.575060e-001 1.295479e-001 2.569015e-002
<GCONST> 7.759203e+001
<STATE> 4
<MEAN> 39
 -8.150066e+000 5.025055e+000 -5.056554e+000 -2.247462e+001 -3.833425e+000 -1.145686e+001 -1.805287e-001 -3.195337e+000 1.524707e+000 -5.422420e+000 -2.065652e+000 -6.876402e+000 1.852136e+001 1.487161e-002 1.064058e+000 2.384305e-001 2.398015e-001 -4.409581e-001 -1.343357e+000 -6.850874e-001 -2.857234e-001 2.867285e-001 5.037224e-001 4.917050e-001 5.849228e-002 6.403153e-002 -3.247644e-002 -5.885221e-002 9.383838e-002 2.063912e-001 5.920979e-002 -3.957019e-002 -1.513977e-001 -1.812939e-001 -1.366459e-001 -1.231620e-002 6.994150e-002 2.570197e-002 -6.748966e-002
<VARIANCE> 39
 8.202563e+000 1.514282e+001 2.442340e+001 1.948881e+001 3.345523e+001 2.104051e+001 4.922644e+001 2.172716e+001 1.969407e+001 1.740418e+001 2.155737e+001 2.371992e+001 1.369183e+000 1.780853e-001 3.526917e-001 2.610742e-001 4.933504e-001 7.447979e-001 7.390498e-001 7.612351e-001 6.003962e-001 9.810446e-001 8.267092e-001 8.822078e-001 7.711972e-001 4.557484e-002 2.757982e-002 4.261548e-002 3.903587e-002 6.975996e-002 8.513653e-002 9.310091e-002 1.039712e-001 9.958053e-002 1.095682e-001 1.132448e-001 1.087572e-001 1.000561e-001 6.253711e-003
<GCONST> 6.265953e+001
<STATE> 5
<MEAN> 39
 -8.301403e+000 9.756905e+000 -2.397135e+000 -1.933066e+001 -5.507011e+000 -1.713292e+001 -5.785932e+000 -6.521014e+000 4.273436e-001 -4.833855e+000 9.354660e-002 -6.768139e+000 1.826891e+001 5.135587e-002 4.265300e-001 5.357354e-001 8.630080e-001 2.109559e-001 -5.257353e-001 -7.218685e-001 -7.862935e-001 -6.563776e-001 -2.396657e-001 -2.287613e-002 -4.572853e-002 -2.046086e-001 3.605901e-002 -2.899790e-001 5.174951e-002 4.257609e-002 1.220249e-001 3.220526e-001 1.178476e-001 4.577536e-002 -1.254544e-001 -1.162306e-001 -1.640894e-001 1.019156e-002 -7.606068e-002
<VARIANCE> 39
 8.457746e+000 2.332260e+001 2.420213e+001 2.405801e+001 1.867857e+001 1.974823e+001 5.207798e+001 2.628257e+001 2.895814e+001 2.797088e+001 3.926109e+001 3.339242e+001 1.931525e+000 2.381051e-001 6.962458e-001 3.291607e-001 4.852563e-001 7.291151e-001 8.603605e-001 7.584766e-001 6.932132e-001 1.033172e+000 8.468060e-001 1.110607e+000 1.048838e+000 3.187066e-002 3.583460e-002 5.951789e-002 5.751990e-002 7.837584e-002 9.254844e-002 1.100714e-001 1.279248e-001 1.242311e-001 1.533772e-001 1.441293e-001 1.816296e-001 1.800055e-001 3.682313e-003
<GCONST> 6.970947e+001
<STATE> 6
<MEAN> 39
 -7.210413e+000 1.067067e+001 2.781622e-001 -1.633883e+001 -3.425402e+000 -1.786139e+001 -7.547556e+000 -9.355181e+000 -3.128190e+000 -6.336444e+000 -1.383424e+000 -6.709039e+000 1.691004e+001 2.814597e-001 -1.164839e+000 8.952937e-001 9.962327e-001 3.552033e-001 9.879272e-001 -2.213105e-001 6.411225e-002 -5.276951e-001 -6.575184e-002 -3.223405e-001 1.727814e-001 -6.634386e-001 -1.077373e-001 -5.310030e-001 -2.095850e-001 4.010298e-002 -8.084825e-002 3.840174e-001 2.523031e-001 2.938540e-001 2.061081e-001 1.586711e-001 4.620913e-002 3.128538e-002 -1.241641e-001
<VARIANCE> 39
 1.062768e+001 3.508560e+001 2.337357e+001 2.353510e+001 1.910825e+001 2.729751e+001 4.959512e+001 3.099605e+001 4.186100e+001 3.427243e+001 3.235167e+001 2.526083e+001 2.779114e+000 7.404537e-001 1.237754e+000 1.001888e+000 1.314540e+000 1.334115e+000 1.312605e+000 2.057250e+000 1.276971e+000 1.420023e+000 1.443282e+000 1.758071e+000 1.763787e+000 1.221624e-001 8.393159e-002 1.237536e-001 1.335475e-001 2.562883e-001 1.474998e-001 2.157662e-001 2.326559e-001 1.843498e-001 2.639635e-001 1.993775e-001 2.034559e-001 2.137023e-001 1.432983e-002
<GCONST> 8.909721e+001
<STATE> 7
<MEAN> 39
 -5.437783e+000 5.476934e+000 3.323030e+000 -1.009113e+001 -2.991862e+000 -1.091733e+001 -7.083525e+000 -7.306859e+000 -3.562446e+000 -5.681015e+000 -2.642156e+000 -6.064765e+000 1.343570e+001 -7.648005e-001 -2.180308e+000 -5.880483e-001 9.322604e-001 2.593202e-002 1.261860e+000 5.887993e-001 4.255503e-001 2.364219e-001 2.414904e-001 1.185678e-001 2.303708e-001 -8.897477e-001 -3.769259e-001 -7.388454e-002 -4.957009e-001 -4.366182e-001 -9.350021e-002 -2.418817e-001 1.173956e-001 2.360107e-002 1.503295e-001 3.918139e-002 1.245340e-001 2.714510e-002 6.763957e-002
<VARIANCE> 39
 2.178214e+001 2.864614e+001 2.454360e+001 4.162627e+001 2.772550e+001 3.546142e+001 2.884821e+001 2.635567e+001 2.556535e+001 2.417530e+001 2.789404e+001 2.629036e+001 9.507980e+000 1.206370e+000 1.597374e+000 1.378192e+000 2.886997e+000 1.335007e+000 1.841715e+000 2.337265e+000 1.492505e+000 1.703768e+000 1.648384e+000 1.388247e+000 1.387746e+000 3.645823e-001 1.814155e-001 2.204520e-001 1.844361e-001 3.068386e-001 2.453284e-001 3.078191e-001 3.079810e-001 2.164637e-001 2.075900e-001 2.354017e-001 2.187461e-001 2.215658e-001 3.872583e-002
<GCONST> 9.802958e+001
<STATE> 8
<MEAN> 39
 -1.163453e+001 -2.026508e+000 -2.117188e+000 -1.133720e+001 -3.567395e+000 -8.805189e+000 -4.793300e+000 -5.806550e+000 -1.047760e+000 -4.477945e+000 -1.243207e+000 -4.543148e+000 1.090789e+001 -7.867557e-001 -1.145699e+000 -7.866013e-001 -4.912967e-001 -7.396305e-002 2.011787e-001 2.876209e-001 1.767246e-001 1.808092e-001 2.458608e-002 9.940229e-002 5.379535e-002 -1.918870e-001 1.696864e-001 3.276263e-001 8.303171e-002 -1.188557e-001 -5.210949e-002 -1.434002e-001 -4.972392e-002 -3.633706e-002 -3.575061e-002 -9.528214e-002 -3.475719e-002 -6.390285e-002 1.468164e-001
<VARIANCE> 39
 1.410627e+001 1.593607e+001 1.533236e+001 3.285136e+001 2.116576e+001 2.917820e+001 2.166704e+001 2.274334e+001 2.368397e+001 2.518797e+001 2.272051e+001 2.193394e+001 1.471694e+001 1.455858e+000 1.325945e+000 1.277397e+000 1.714770e+000 1.074517e+000 1.459745e+000 1.255949e+000 1.264707e+000 1.401530e+000 1.345823e+000 1.387294e+000 1.195372e+000 4.288429e-001 1.845306e-001 2.384447e-001 2.153845e-001 3.078979e-001 1.863931e-001 2.803731e-001 2.493911e-001 2.270392e-001 2.683707e-001 2.478175e-001 2.406489e-001 2.032529e-001 8.785509e-002
<GCONST> 9.406010e+001
<STATE> 9
<MEAN> 39
 -1.267921e+001 -4.275378e+000 -4.277814e+000 -1.623187e+001 -3.537548e+000 -1.176953e+001 -5.093573e+000 -6.337611e+000 -1.608713e+000 -5.226795e+000 -8.442733e-001 -6.232485e+000 1.406767e+001 -8.131051e-002 -1.242110e-001 -1.330163e-001 -2.940793e-002 -7.297149e-002 9.590637e-002 6.389479e-002 7.489055e-002 2.205277e-002 -4.269073e-003 9.843554e-003 5.780171e-003 1.391338e-002 9.648691e-002 1.344564e-001 8.011079e-002 5.762238e-002 1.434907e-002 1.153516e-003 -5.617444e-004 -1.434209e-002 -2.008820e-003 5.564145e-004 -2.005043e-002 -1.401567e-002 4.852175e-002
<VARIANCE> 39
 6.862623e+000 8.026294e+000 1.023139e+001 2.035230e+001 1.469124e+001 1.865206e+001 1.648041e+001 2.028930e+001 1.878224e+001 1.763187e+001 1.769373e+001 1.578141e+001 7.674118e+000 2.639971e-001 4.250658e-001 5.459332e-001 7.096325e-001 5.755216e-001 6.438934e-001 8.242359e-001 7.191917e-001 7.883504e-001 7.351688e-001 7.384632e-001 7.511445e-001 5.541942e-002 4.212684e-002 7.717539e-002 9.396774e-002 1.190037e-001 1.025203e-001 1.104761e-001 1.365578e-001 1.181182e-001 1.454143e-001 1.377885e-001 1.395915e-001 1.275910e-001 1.138526e-002
<GCONST> 6.600033e+001
<TRANSP> 10
 0.000000e+000 1.000000e+000 0.000000e+000 0.000000e+000 0.000000e+000 0.000000e+000 0.000000e+000 0.000000e+000 0.000000e+000 0.000000e+000
 0.000000e+000 7.833009e-001 2.166990e-001 0.000000e+000 0.000000e+000 0.000000e+000 0.000000e+000 0.000000e+000 0.000000e+000 0.000000e+000
 0.000000e+000 0.000000e+000 7.121927e-001 2.878073e-001 0.000000e+000 0.000000e+000 0.000000e+000 0.000000e+000 0.000000e+000 0.000000e+000
 0.000000e+000 0.000000e+000 0.000000e+000 7.907375e-001 2.092625e-001 0.000000e+000 0.000000e+000 0.000000e+000 0.000000e+000 0.000000e+000
 0.000000e+000 0.000000e+000 0.000000e+000 0.000000e+000 7.877836e-001 2.122164e-001 0.000000e+000 0.000000e+000 0.000000e+000 0.000000e+000
 0.000000e+000 0.000000e+000 0.000000e+000 0.000000e+000 0.000000e+000 6.091173e-001 3.908827e-001 0.000000e+000 0.000000e+000 0.000000e+000
 0.000000e+000 0.000000e+000 0.000000e+000 0.000000e+000 0.000000e+000 0.000000e+000 5.736510e-001 4.263490e-001 0.000000e+000 0.000000e+000
 0.000000e+000 0.000000e+000 0.000000e+000 0.000000e+000 0.000000e+000 0.000000e+000 0.000000e+000 6.649092e-001 3.350908e-001 0.000000e+000
 0.000000e+000 0.000000e+000 0.000000e+000 0.000000e+000 0.000000e+000 0.000000e+000 0.000000e+000 0.000000e+000 8.590525e-001 1.409475e-001
 0.000000e+000 0.000000e+000 0.000000e+000 0.000000e+000 0.000000e+000 0.000000e+000 0.000000e+000 0.000000e+000 0.000000e+000 0.000000e+000
<ENDHMM>
~h "five"
<BEGINHMM>
<NUMSTATES> 10
<STATE> 2
<MEAN> 39
 -1.360809e+001 -5.573962e+000 -3.888899e+000 -1.331365e+001 -4.267640e+000 -1.064649e+001 -3.274100e+000 -5.889831e+000 -1.113475e+000 -4.174562e+000 -3.259884e-001 -5.112828e+000 1.314362e+001 7.659089e-001 -6.740924e-001 -6.974927e-001 2.493890e-001 4.341336e-001 1.574018e-001 4.019904e-001 2.220802e-001 -4.580761e-001 -2.579094e-001 -1.510026e-001 -7.199028e-002 4.503240e-001 3.657404e-001 -1.431333e-001 -9.436288e-002 2.054033e-001 2.052889e-001 7.024997e-002 1.182702e-001 4.390200e-002 -1.819578e-001 -9.086727e-002 -7.575925e-002 -6.165989e-002 1.748272e-001
<VARIANCE> 39
 1.522294e+001 9.006744e+000 1.007575e+001 3.075297e+001 1.794614e+001 2.201544e+001 1.919623e+001 1.901053e+001 1.602913e+001 1.687671e+001 1.476951e+001 1.446465e+001 8.553470e+000 2.252028e+000 7.713907e-001 8.330663e-001 1.066512e+000 1.281120e+000 9.279629e-001 1.298992e+000 1.683127e+000 1.176829e+000 9.870861e-001 8.713411e-001 7.546905e-001 4.610344e-001 1.790307e-001 1.438198e-001 1.358688e-001 1.417092e-001 1.624645e-001 1.563252e-001 1.892598e-001 2.319678e-001 1.920376e-001 1.900811e-001 1.627580e-001 1.315449e-001 3.072453e-002
<GCONST> 8.262418e+001
<STATE> 3
<MEAN> 39
 -3.594034e+000 -1.246750e+001 -1.042173e+001 -9.118376e+000 1.290595e+000 -8.972052e+000 2.623562e-001 -3.459092e+000 -7.618115e+000 -7.964647e+000 -2.456970e+000 -6.504858e+000 1.872067e+001 6.269308e-001 -1.495340e+000 -6.528715e-001 1.282320e+000 8.465745e-001 2.733917e-001 5.541353e-001 -2.549516e-001 -9.844416e-001 -1.404377e-001 -6.678230e-003 -4.085701e-002 6.783302e-001 -5.713935e-001 1.854819e-001 3.692079e-001 -9.602319e-003 -2.248308e-001 -1.008226e-001 -1.617786e-001 -2.379140e-001 2.871734e-001 2.636553e-001 1.878397e-001 8.469768e-002 -2.237353e-001
<VARIANCE> 39
 1.079571e+001 1.758752e+001 2.566711e+001 2.044524e+001 2.800164e+001 1.704521e+001 3.193359e+001 5.813205e+001 3.683340e+001 3.220142e+001 2.415166e+001 2.077460e+001 1.741613e+000 1.409794e+000 6.919970e-001 1.284506e+000 1.330749e+000 1.094459e+000 9.870334e-001 1.327572e+000 1.724128e+000 2.229142e+000 2.082727e+000 1.423664e+000 1.212972e+000 2.482638e-001 1.133879e-001 1.052032e-001 1.202961e-001 1.349796e-001 1.653246e-001 1.276876e-001 2.187379e-001 3.326944e-001 2.798873e-001 1.955919e-001 1.462910e-001 1.357000e-001 1.880100e-002
<GCONST> 8.701127e+001
<STATE> 4
<MEAN> 39
 -5.657195e+000 -1.518057e+001 -1.066518e+001 -4.794102e+000 3.345863e+000 -9.901198e+000 6.232566e-001 -4.850099e+000 -7.447046e+000 -7.182319e+000 -8.169001e-001 -5.029653e+000 1.927767e+001 -4.012315e-001 -3.274975e-001 5.554760e-001 7.130583e-001 -2.201760e-001 2.130045e-002 1.948360e-001 -3.480203e-001 -5.620080e-002 3.933716e-001 4.995770e-001 2.880544e-002 1.606963e-002 -6.017140e-004 2.098461e-001 1.181474e-001 -2.424715e-001 -1.989999e-001 3.736321e-002 -5.837676e-002 3.427663e-002 7.527802e-002 -5.574745e-003 -4.829970e-002 -9.185420e-002 -6.280032e-002
<VARIANCE> 39
 9.956912e+000 1.294396e+001 2.749594e+001 2.872570e+001 2.054772e+001 1.869109e+001 2.443807e+001 3.432907e+001 3.875762e+001 4.477411e+001 3.174855e+001 2.595781e+001 1.418387e+000 1.464286e-001 1.845059e-001 2.641639e-001 5.183252e-001 6.136387e-001 4.563338e-001 5.835068e-001 9.518770e-001 1.297440e+000 7.492854e-001 5.410995e-001 5.823083e-001 1.070893e-002 3.322371e-002 4.538641e-002 4.959720e-002 6.967758e-002 6.804855e-002 7.424819e-002 8.595870e-002 8.607187e-002 1.270875e-001 1.397191e-001 8.754047e-002 1.128074e-001 5.875573e-003
<GCONST> 6.108856e+001
<STATE> 5
<MEAN> 39
 -7.376484e+000 -1.572591e+001 -5.367484e+000 -3.240323e+000 5.774269e-001 -8.645690e+000 1.626955e+000 -8.920517e+000 -5.888358e+000 -3.078566e+000 -1.603486e-001 -6.212610e+000 1.877244e+001 -1.171850e-001 1.658337e-001 3.320023e-001 -3.428975e-001 -2.003924e-001 3.901024e-001 -4.177768e-002 -4.330244e-001 1.983866e-001 1.851665e-001 -1.398056e-001 -5.492716e-002 -5.599902e-002 4.268862e-002 8.947621e-002 -3.210580e-002 -1.913157e-001 2.265585e-003 8.907689e-002 -1.518473e-002 3.275390e-003 1.119572e-002 -4.999528e-002 -7.492425e-002 1.976719e-002 -9.088050e-003
<VARIANCE> 39
 8.574007e+000 1.365876e+001 1.780102e+001 3.243649e+001 1.430327e+001 2.196512e+001 1.734285e+001 2.668860e+001 6.421983e+001 2.975687e+001 3.273254e+001 2.446008e+001 1.459595e+000 7.751307e-002 1.201085e-001 2.121012e-001 4.797199e-001 4.295718e-001 4.356206e-001 4.452506e-001 4.990732e-001 4.581543e-001 4.507618e-001 4.670113e-001 4.207489e-001 5.969401e-003 1.044132e-002 1.851969e-002 2.072677e-002 4.146232e-002 4.444381e-002 4.956276e-002 5.067826e-002 6.248798e-002 6.080066e-002 6.160900e-002 6.816566e-002 4.745513e-002 5.437616e-004
<GCONST> 4.451641e+001
<STATE> 6
<MEAN> 39
 -7.630770e+000 -1.286614e+001 -4.300164e+000 -1.019253e+001 1.649844e-001 -3.169477e+000 2.708527e-001 -1.233419e+001 -4.586952e+000 -3.427799e+000 -1.887355e+000 -5.992402e+000 1.837873e+001 1.094262e-001 9.961767e-001 1.407409e-001 -1.711344e+000 -2.114627e-001 9.705154e-001 -6.665772e-002 2.696173e-002 2.038421e-001 -5.381531e-001 -3.280226e-001 2.230961e-001 -1.023597e-001 8.273600e-002 2.196306e-001 -3.980664e-003 -9.178906e-002 -1.263775e-001 -1.993072e-001 4.841297e-002 3.534197e-001 2.513760e-002 -1.567172e-001 -4.364138e-003 -2.059566e-003 -2.120421e-002
<VARIANCE> 39
 7.266590e+000 1.444884e+001 1.125949e+001 2.597063e+001 2.687631e+001 1.829708e+001 2.298706e+001 3.433013e+001 7.598092e+001 2.938832e+001 3.590455e+001 3.171743e+001 2.192585e+000 1.484061e-001 2.738062e-001 4.510185e-001 6.792470e-001 1.246015e+000 6.810809e-001 8.147271e-001 9.424389e-001 1.007711e+000 1.273046e+000 1.400889e+000 7.064504e-001 9.911663e-003 1.837501e-002 3.350675e-002 5.220743e-002 7.481034e-002 8.274012e-002 1.008778e-001 1.274546e-001 9.304609e-002 1.836778e-001 1.149877e-001 1.603986e-001 9.823091e-002 1.463524e-003
<GCONST> 6.452872e+001
<STATE> 7
<MEAN> 39
 -6.576787e+000 -8.387319e+000 -4.242955e+000 -1.658193e+001 -1.804728e+000 -1.234671e+000 1.604521e+000 -9.060175e+000 -4.779412e+000 -6.778000e+000 -2.987303e+000 -5.720034e+000 1.807603e+001 3.704885e-001 1.570352e+000 5.759926e-001 -1.058855e+000 -9.619296e-001 -6.033058e-001 8.914561e-003 1.125293e+000 5.019684e-001 -3.174240e-001 -4.341022e-001 -3.088717e-001 -2.244731e-001 -3.668915e-002 8.920215e-002 2.102836e-001 4.996344e-001 -7.344046e-003 -5.263876e-001 -2.219223e-001 1.093716e-001 1.353223e-001 1.837326e-001 1.021367e-001 -9.479778e-002 -7.440940e-002
<VARIANCE> 39
 8.495001e+000 1.646189e+001 8.798814e+000 2.519101e+001 4.775550e+001 2.026039e+001 2.180435e+001 3.744500e+001 4.626867e+001 3.077372e+001 3.593147e+001 3.777843e+001 2.257390e+000 3.118538e-001 5.111512e-001 5.597206e-001 1.188331e+000 8.168045e-001 1.211688e+000 9.086882e-001 8.909432e-001 1.967608e+000 1.242040e+000 1.182339e+000 7.719550e-001 3.534932e-002 5.729349e-002 8.803410e-002 7.883622e-002 1.433574e-001 1.990433e-001 1.289856e-001 1.768736e-001 1.607406e-001 1.767135e-001 1.717158e-001 2.598141e-001 1.598745e-001 5.653004e-003
<GCONST> 7.703455e+001
<STATE> 8
<MEAN> 39
 -4.996965e+000 -2.052398e+000 7.760596e-001 -1.363943e+001 -5.532751e+000 -6.678405e+000 -1.053892e+000 -5.546054e+000 -2.903629e+000 -6.019812e+000 -3.565486e+000 -7.632332e+000 1.620854e+001 -5.313432e-001 1.101212e+000 7.510796e-001 1.022679e+000 2.299551e-001 -1.157509e+000 -8.171113e-001 4.512121e-001 5.206882e-001 2.767667e-001 2.716454e-001 -7.882085e-002 -6.473722e-001 -3.465393e-001 -3.605833e-001 -2.744372e-001 1.086938e-001 2.948442e-001 1.252479e-001 -2.459316e-002 -1.927469e-001 -3.160802e-002 6.887867e-002 1.493752e-001 1.307010e-001 -5.190711e-002
<VARIANCE> 39
 1.871880e+001 2.544942e+001 2.452352e+001 5.969310e+001 5.907884e+001 3.530037e+001 2.972606e+001 4.078029e+001 3.703701e+001 4.037858e+001 3.717108e+001 3.667067e+001 5.976191e+000 1.938653e+000 1.488923e+000 1.292546e+000 2.262041e+000 2.600003e+000 1.684581e+000 1.551972e+000 1.763326e+000 2.066112e+000 1.399809e+000 1.631972e+000 1.575030e+000 1.603523e-001 2.204993e-001 2.019287e-001 2.057012e-001 5.080770e-001 4.074869e-001 2.414719e-001 2.638226e-001 2.636074e-001 2.929690e-001 2.304635e-001 2.608753e-001 2.281156e-001 2.000845e-002
<GCONST> 1.011999e+002
<STATE> 9
<MEAN> 39
 -1.141733e+001 -3.776990e+000 -2.228013e+000 -1.248401e+001 -2.355121e+000 -9.302674e+000 -3.570997e+000 -5.591112e+000 -1.022184e+000 -4.392016e+000 -1.352852e+000 -6.238414e+000 1.317032e+001 -3.569032e-001 -1.534825e-001 -3.073265e-001 -5.276773e-002 -2.937161e-003 -1.908803e-001 -2.915925e-001 -1.081814e-001 4.631406e-002 1.217547e-001 1.223938e-001 1.020697e-001 -2.089243e-001 1.380157e-001 -3.875836e-002 -5.128672e-002 -8.084419e-002 -6.843432e-002 8.230940e-002 7.180072e-002 -4.555348e-002 -7.152712e-002 -3.854194e-002 -4.518962e-002 -4.843593e-003 7.191379e-002
<VARIANCE> 39
 1.521387e+001 1.503885e+001 1.739675e+001 3.424273e+001 2.139108e+001 3.113968e+001 2.385936e+001 2.472105e+001 2.616588e+001 2.532568e+001 2.127799e+001 1.906008e+001 1.196448e+001 1.080037e+000 8.457662e-001 8.893009e-001 1.133694e+000 1.317644e+000 1.136659e+000 1.182426e+000 1.302789e+000 1.120655e+000 1.090227e+000 1.014037e+000 9.808130e-001 1.152751e-001 1.277062e-001 1.383884e-001 1.648479e-001 2.091240e-001 2.087363e-001 2.073379e-001 2.151836e-001 2.085299e-001 1.981780e-001 1.908284e-001 1.697746e-001 1.493563e-001 1.536031e-002
<GCONST> 8.537973e+001
<TRANSP> 10
 0.000000e+000 1.000000e+000 0.000000e+000 0.000000e+000 0.000000e+000 0.000000e+000 0.000000e+000 0.000000e+000 0.000000e+000 0.000000e+000
 0.000000e+000 8.475413e-001 1.524587e-001 0.000000e+000 0.000000e+000 0.000000e+000 0.000000e+000 0.000000e+000 0.000000e+000 0.000000e+000
 0.000000e+000 0.000000e+000 7.438005e-001 2.561994e-001 0.000000e+000 0.000000e+000 0.000000e+000 0.000000e+000 0.000000e+000 0.000000e+000
 0.000000e+000 0.000000e+000 0.000000e+000 6.774043e-001 3.225956e-001 0.000000e+000 0.000000e+000 0.000000e+000 0.000000e+000 0.000000e+000
 0.000000e+000 0.000000e+000 0.000000e+000 0.000000e+000 8.851621e-001 1.148379e-001 0.000000e+000 0.000000e+000 0.000000e+000 0.000000e+000
 0.000000e+000 0.000000e+000 0.000000e+000 0.000000e+000 0.000000e+000 6.870463e-001 3.129537e-001 0.000000e+000 0.000000e+000 0.000000e+000
 0.000000e+000 0.000000e+000 0.000000e+000 0.000000e+000 0.000000e+000 0.000000e+000 6.694395e-001 3.305605e-001 0.000000e+000 0.000000e+000
 0.000000e+000 0.000000e+000 0.000000e+000 0.000000e+000 0.000000e+000 0.000000e+000 0.000000e+000 7.304717e-001 2.695283e-001 0.000000e+000
 0.000000e+000 0.000000e+000 0.000000e+000 0.000000e+000 0.000000e+000 0.000000e+000 0.000000e+000 0.000000e+000 8.397172e-001 1.602828e-001
 0.000000e+000 0.000000e+000 0.000000e+000 0.000000e+000 0.000000e+000 0.000000e+000 0.000000e+000 0.000000e+000 0.000000e+000 0.000000e+000
<ENDHMM>
~h "oh"
<BEGINHMM>
<NUMSTATES> 10
<STATE> 2
<MEAN> 39
 -9.915067e+000 -6.552764e+000 -4.902428e+000 -1.147554e+001 -5.107440e+000 -7.851578e+000 -3.276369e-002 -6.590907e+000 -2.638080e+000 -4.823851e+000 -1.109327e+000 -4.572944e+000 1.248025e+001 6.806666e-001 -9.466285e-001 -6.347098e-001 6.794496e-001 6.268518e-001 4.042302e-001 8.886825e-001 -1.274254e-001 -6.354380e-001 -2.141327e-001 -1.255423e-001 1.754941e-001 5.217217e-001 1.930808e-001 -1.857640e-002 -8.817500e-002 7.817138e-002 1.127120e-001 -7.314929e-002 -1.805181e-002 6.942278e-002 -4.159785e-002 -5.671177e-002 -5.690689e-002 -5.345980e-002 1.411614e-001
<VARIANCE> 39
 2.035917e+001 2.282362e+001 1.628374e+001 4.299181e+001 3.466391e+001 3.798443e+001 3.782360e+001 5.862243e+001 3.483254e+001 2.956234e+001 2.075172e+001 2.470128e+001 2.236956e+001 1.155103e+000 1.117393e+000 9.575900e-001 1.226867e+000 1.405712e+000 1.859893e+000 1.883602e+000 3.217544e+000 1.993259e+000 1.855771e+000 1.072155e+000 1.253441e+000 6.647555e-001 1.728961e-001 1.621590e-001 1.130985e-001 1.670315e-001 2.165689e-001 2.707481e-001 3.035719e-001 3.672919e-001 2.686241e-001 2.229975e-001 2.015797e-001 2.210291e-001 7.149817e-002
<GCONST> 9.877775e+001
<STATE> 3
<MEAN> 39
 -4.581950e+000 -1.145248e+001 -8.430219e+000 -9.083023e+000 -1.463313e+000 -8.094774e+000 4.858750e+000 -6.493686e+000 -6.411890e+000 -6.748702e+000 -2.339419e+000 -5.205179e+000 1.777784e+001 8.059086e-001 -3.470752e-001 -6.791425e-001 4.929354e-001 3.167976e-001 -1.922197e-001 5.059123e-001 7.639008e-001 -1.488628e-001 -4.192873e-001 -2.673368e-001 -1.224140e-001 5.511445e-001 -1.260155e-001 2.729432e-001 6.472330e-002 -2.175342e-001 -1.227741e-001 -1.565063e-001 -3.024016e-001 9.986739e-002 2.838458e-001 4.040292e-002 -4.916310e-002 -6.827275e-002 -1.066674e-001
<VARIANCE> 39
 1.389411e+001 1.968379e+001 1.576917e+001 2.601387e+001 2.581389e+001 3.430217e+001 4.055914e+001 1.034468e+002 4.173816e+001 3.887405e+001 2.808482e+001 2.886940e+001 4.009615e+000 6.378711e-001 5.088655e-001 7.669005e-001 9.934427e-001 1.103415e+000 1.044688e+000 1.809106e+000 1.689673e+000 1.293206e+000 1.390586e+000 1.437779e+000 1.388305e+000 3.121663e-001 7.250287e-002 6.995247e-002 5.656421e-002 9.250364e-002 1.142085e-001 1.401045e-001 1.753962e-001 2.526399e-001 2.149318e-001 1.987584e-001 1.558183e-001 1.654132e-001 3.250823e-002
<GCONST> 8.586140e+001
<STATE> 4
<MEAN> 39
 -3.055154e+000 -1.092279e+001 -9.435930e+000 -9.049651e+000 -1.679036e+000 -9.985417e+000 5.983604e+000 -3.694628e+000 -6.008814e+000 -7.702493e+000 -2.586140e+000 -5.116678e+000 1.887317e+001 3.511856e-001 3.760459e-001 -3.474335e-001 -1.696892e-001 1.373048e-002 -5.882787e-001 -4.570223e-001 6.808730e-001 5.339335e-001 -3.165787e-001 -2.935114e-001 -1.585927e-001 7.371043e-002 -3.275565e-002 9.422961e-002 4.773840e-002 -7.232039e-002 -1.341246e-002 -2.477542e-002 -1.909974e-001 -1.035188e-001 1.320692e-001 1.223184e-001 -1.184030e-002 -6.832886e-002 -4.525068e-002
<VARIANCE> 39
 1.253365e+001 1.277447e+001 1.668612e+001 2.542536e+001 2.329199e+001 2.772894e+001 5.040759e+001 8.410931e+001 2.791862e+001 3.894016e+001 4.486440e+001 3.136281e+001 2.129997e+000 2.145699e-001 1.981134e-001 4.056978e-001 3.858115e-001 5.154815e-001 7.588326e-001 1.205842e+000 8.714971e-001 1.059859e+000 8.571530e-001 9.268687e-001 6.566345e-001 5.311924e-002 2.784174e-002 2.684451e-002 3.686847e-002 5.303495e-002 5.534335e-002 7.869461e-002 1.175950e-001 1.447300e-001 1.011067e-001 1.329493e-001 1.243655e-001 9.042498e-002 5.497412e-003
<GCONST> 6.624708e+001
<STATE> 5
<MEAN> 39
 -8.609040e-001 -6.815311e+000 -1.359674e+001 -1.168051e+001 -3.761683e-001 -1.404796e+001 -3.171838e+000 1.519208e+000 7.773549e-001 -8.262573e+000 -6.041112e+000 -8.483385e+000 1.905943e+001 2.680288e-001 5.955805e-001 -1.814782e-001 -3.331476e-001 1.587713e-001 -1.813610e-001 -1.044055e+000 -4.056784e-001 8.571342e-001 8.149812e-001 -4.121317e-002 -6.309247e-001 8.963960e-003 -4.490039e-002 5.554843e-002 1.219222e-001 -1.962500e-002 -2.466922e-002 1.184253e-001 3.218004e-002 -2.152072e-001 -1.096658e-001 1.423398e-001 1.631219e-001 2.544361e-002 -3.630180e-002
<VARIANCE> 39
 1.388564e+001 9.881183e+000 2.955924e+001 2.568468e+001 3.868664e+001 2.948609e+001 5.585510e+001 4.187009e+001 3.493569e+001 3.232636e+001 3.136961e+001 2.707346e+001 2.374346e+000 2.107253e-001 2.290524e-001 4.092701e-001 3.529146e-001 4.191201e-001 6.663288e-001 1.118652e+000 1.070819e+000 8.861184e-001 1.001296e+000 9.523593e-001 6.529647e-001 2.489763e-002 2.401873e-002 2.393082e-002 3.798781e-002 4.209088e-002 5.733902e-002 9.937753e-002 1.160800e-001 1.311741e-001 1.049238e-001 1.266564e-001 1.409626e-001 1.074209e-001 2.710689e-003
<GCONST> 6.464382e+001
<STATE> 6
<MEAN> 39
 6.722502e-001 -2.914106e+000 -1.409656e+001 -1.457023e+001 4.429431e-001 -1.301559e+001 -7.604266e+000 -3.962606e+000 2.542069e+000 -2.307177e+000 -2.524578e+000 -1.051034e+001 1.887635e+001 1.576671e-001 7.339928e-001 3.327205e-001 -3.572548e-001 -9.472993e-002 2.584698e-001 -4.716022e-001 -9.800367e-001 -2.672471e-001 5.908784e-001 6.945100e-001 1.264559e-001 -1.033147e-001 -8.265460e-002 -2.143687e-002 2.055568e-001 6.336098e-002 -5.155542e-002 8.026029e-002 2.238803e-001 -6.471511e-003 -2.739458e-001 -2.090494e-001 6.256493e-002 1.772805e-001 -4.277105e-002
<VARIANCE> 39
 1.862998e+001 1.322113e+001 4.077048e+001 2.815287e+001 3.572206e+001 3.675335e+001 5.619464e+001 3.415454e+001 3.526810e+001 3.139648e+001 4.082204e+001 2.604627e+001 2.211567e+000 2.600068e-001 2.870093e-001 5.332729e-001 5.333428e-001 5.866648e-001 8.216638e-001 1.035326e+000 1.231101e+000 1.045409e+000 1.229332e+000 1.308368e+000 1.327876e+000 2.061131e-002 3.040725e-002 2.872099e-002 5.343892e-002 6.275439e-002 8.198103e-002 1.070569e-001 1.438915e-001 1.527865e-001 1.605161e-001 1.314404e-001 1.834552e-001 1.351970e-001 2.487103e-003
<GCONST> 7.147719e+001
<STATE> 7
<MEAN> 39
 1.151784e+000 -1.095457e+000 -1.078632e+001 -1.467637e+001 -1.428989e+000 -1.239951e+001 -7.117387e+000 -7.190599e+000 -3.996544e-001 -2.838782e+000 -7.522576e-001 -8.631944e+000 1.827533e+001 -3.644086e-001 4.738463e-001 1.315669e+000 1.924913e-001 -1.671644e-001 3.091117e-001 2.218564e-001 -4.572844e-001 -6.892593e-001 -1.360096e-001 3.890397e-001 4.015635e-001 -3.240096e-001 -3.034594e-001 -1.627221e-001 2.212584e-001 2.225991e-001 1.295053e-002 5.707236e-002 2.729113e-001 2.542001e-001 8.292003e-003 -1.123309e-001 -1.121607e-001 8.916908e-002 -9.014624e-002
<VARIANCE> 39
 3.295217e+001 1.453385e+001 4.840245e+001 3.256958e+001 3.480538e+001 4.371269e+001 6.166354e+001 4.432431e+001 3.581589e+001 4.238794e+001 5.154070e+001 3.454551e+001 2.326686e+000 5.047171e-001 6.540927e-001 7.791481e-001 8.687171e-001 1.160293e+000 1.968568e+000 1.732932e+000 1.630318e+000 1.960711e+000 1.239196e+000 1.559338e+000 1.446686e+000 4.107244e-002 7.367593e-002 6.064904e-002 1.450927e-001 1.099220e-001 1.839471e-001 2.883421e-001 2.573912e-001 3.166752e-001 2.611997e-001 2.635691e-001 3.067774e-001 2.472768e-001 6.932288e-003
<GCONST> 8.976236e+001
<STATE> 8
<MEAN> 39
 -9.120544e-001 -6.893609e-001 -4.690275e+000 -1.124132e+001 -2.068288e+000 -1.087295e+001 -4.243283e+000 -6.843265e+000 -2.051831e+000 -3.759249e+000 -5.877606e-001 -7.050977e+000 1.651743e+001 -1.737877e+000 -6.603580e-003 1.611274e+000 6.435907e-001 1.961061e-002 8.123481e-001 5.745599e-001 2.489076e-001 -2.345176e-002 1.857093e-002 8.318560e-002 6.054958e-001 -7.382248e-001 -3.163602e-001 -2.589465e-001 -2.785341e-001 -6.483244e-002 -2.498833e-002 -9.650590e-003 1.172571e-002 1.295000e-001 2.226994e-001 4.826048e-002 -3.480629e-002 3.513651e-002 -6.837712e-002
<VARIANCE> 39
 3.679572e+001 2.134962e+001 5.831012e+001 4.139777e+001 5.156353e+001 7.973499e+001 6.191189e+001 5.382593e+001 3.938224e+001 4.989219e+001 4.822955e+001 3.630893e+001 4.217456e+000 1.550204e+000 1.283264e+000 2.011792e+000 1.171579e+000 2.189179e+000 3.048986e+000 3.771200e+000 2.749686e+000 2.363287e+000 2.471437e+000 2.242985e+000 1.630590e+000 1.761283e-001 1.736826e-001 1.545278e-001 2.986352e-001 1.929989e-001 3.165726e-001 5.523469e-001 4.447367e-001 4.321170e-001 3.742901e-001 3.372138e-001 3.112857e-001 3.003384e-001 2.087700e-002
<GCONST> 1.079901e+002
<STATE> 9
<MEAN> 39
 -8.290396e+000 -2.718591e+000 -2.356011e+000 -1.107544e+001 -9.376173e-001 -9.564280e+000 -2.881446e+000 -5.182907e+000 -1.299283e+000 -3.265721e+000 -9.754636e-001 -5.765300e+000 1.386717e+001 -1.076359e+000 -3.643176e-001 1.233304e-001 -1.405911e-001 -3.141324e-001 8.372628e-002 1.119457e-001 5.462913e-002 5.970594e-002 -1.128447e-001 -6.254422e-002 2.291030e-001 -3.679110e-001 1.845131e-001 -1.675990e-002 -2.439808e-001 -1.361016e-001 -3.616549e-002 -9.185417e-002 -1.246205e-001 -5.717025e-002 -3.323198e-002 -2.700464e-002 -4.182174e-003 -5.136719e-002 8.489203e-002
<VARIANCE> 39
