~o
<STREAMINFO> 1 39
<VECSIZE> 39<NULLD><MFCC_E_D_A><DIAGC>
~s "silst"
<NUMMIXES> 3
<MIXTURE> 1 3.257030e-001
<MEAN> 39
 -1.248962e+001 -4.298035e+000 -3.987761e+000 -1.627879e+001 -3.718157e+000 -1.197983e+001 -4.996727e+000 -5.853148e+000 -1.693487e+000 -4.365110e+000 -1.016805e+000 -6.066258e+000 1.420266e+001 -5.246209e-002 2.521765e-002 -3.970797e-002 -7.313477e-002 -7.885020e-003 6.196535e-002 7.980859e-002 7.396497e-002 4.808275e-002 1.014297e-001 7.165644e-002 6.410751e-002 3.985718e-002 9.250833e-002 6.256770e-002 4.023166e-002 4.492665e-002 2.434701e-002 1.444473e-002 5.668449e-002 8.186723e-003 1.473719e-002 -3.963965e-003 -4.813721e-003 -2.045476e-002 3.542918e-002
<VARIANCE> 39
 9.884878e+000 9.522984e+000 1.102316e+001 2.165576e+001 1.747236e+001 1.932938e+001 1.786143e+001 1.877577e+001 1.779574e+001 2.090806e+001 1.850048e+001 1.624095e+001 6.736230e+000 1.859534e-001 3.242905e-001 4.535652e-001 5.918761e-001 6.850731e-001 6.806230e-001 7.652419e-001 8.566473e-001 8.219478e-001 8.221439e-001 7.547583e-001 6.699793e-001 2.660009e-002 5.215964e-002 6.715158e-002 9.607130e-002 1.193305e-001 1.282250e-001 1.329596e-001 1.456333e-001 1.509624e-001 1.463393e-001 1.484491e-001 1.427047e-001 1.233844e-001 8.086655e-003
<GCONST> 6.615908e+001
<MIXTURE> 2 3.371406e-001
<MEAN> 39
 -1.255207e+001 -4.451722e+000 -4.230575e+000 -1.714786e+001 -3.075956e+000 -1.252401e+001 -4.448142e+000 -5.473148e+000 -8.720226e-001 -3.701337e+000 -1.613834e-001 -5.863118e+000 1.481775e+001 4.125073e-002 4.255216e-002 5.967375e-002 1.387739e-001 1.004162e-001 1.189890e-001 1.144182e-001 1.297666e-001 1.420335e-001 1.181736e-001 1.382418e-001 1.337087e-001 -3.339574e-003 2.930940e-002 4.001587e-002 6.236869e-002 7.272299e-002 7.497971e-002 8.380739e-002 6.976207e-002 7.261315e-002 6.591354e-002 7.081696e-002 6.554843e-002 6.684103e-002 8.904487e-003
<VARIANCE> 39
 2.668776e+000 4.180728e+000 5.584280e+000 8.533958e+000 1.139190e+001 1.204996e+001 1.472340e+001 1.588982e+001 1.517116e+001 1.650983e+001 1.597579e+001 1.308799e+001 2.457120e+000 7.107786e-002 1.427058e-001 2.519767e-001 3.947272e-001 4.952607e-001 5.677271e-001 6.466213e-001 6.249970e-001 6.759230e-001 7.348536e-001 7.160143e-001 5.937162e-001 6.138461e-003 1.068825e-002 2.389389e-002 4.462570e-002 6.598925e-002 9.048112e-002 9.467661e-002 1.177396e-001 1.107025e-001 1.220248e-001 1.270115e-001 1.252771e-001 1.028672e-001 8.202357e-004
<GCONST> 4.554843e+001
<MIXTURE> 3 3.371406e-001
<MEAN> 39
 -1.320553e+001 -5.269595e+000 -5.175817e+000 -1.831638e+001 -4.426032e+000 -1.391253e+001 -5.982985e+000 -7.067630e+000 -2.430029e+000 -5.326629e+000 -1.760172e+000 -7.310211e+000 1.419075e+001 -6.539099e-002 -1.085535e-001 -1.411154e-001 -1.125354e-001 -1.810828e-001 -1.824016e-001 -2.072329e-001 -1.864605e-001 -1.868246e-001 -2.247208e-001 -2.002287e-001 -1.745032e-001 -3.467891e-002 -1.204420e-002 -2.181472e-002 -2.213049e-002 -3.003051e-002 -4.534061e-002 -3.927087e-002 -6.749075e-002 -6.047479e-002 -7.381465e-002 -7.173772e-002 -7.602958e-002 -6.145064e-002 -2.551416e-003
<VARIANCE> 39
 2.668776e+000 4.180728e+000 5.584280e+000 8.533958e+000 1.139190e+001 1.204996e+001 1.472340e+001 1.588982e+001 1.517116e+001 1.650983e+001 1.597579e+001 1.308799e+001 2.457120e+000 7.107786e-002 1.427058e-001 2.519767e-001 3.947272e-001 4.952607e-001 5.677271e-001 6.466213e-001 6.249970e-001 6.759230e-001 7.348536e-001 7.160143e-001 5.937162e-001 6.138461e-003 1.068825e-002 2.389389e-002 4.462570e-002 6.598925e-002 9.048112e-002 9.467661e-002 1.177396e-001 1.107025e-001 1.220248e-001 1.270115e-001 1.252771e-001 1.028672e-001 8.202357e-004
<GCONST> 4.554843e+001
~h "four"
<BEGINHMM>
<NUMSTATES> 10
<STATE> 2
<NUMMIXES> 3
<MIXTURE> 1 2.559052e-001
<MEAN> 39
 -1.336195e+001 -6.343618e+000 -3.701482e+000 -1.231246e+001 -3.408916e+000 -1.135964e+001 -3.042518e+000 -4.790753e+000 7.492792e-003 -3.452756e+000 4.004669e-001 -4.332942e+000 1.381991e+001 2.282124e+000 7.466474e-001 -3.805030e-001 1.625384e-001 8.937839e-001 7.688953e-001 1.303979e-001 1.314108e-001 4.137220e-001 5.934747e-001 4.626010e-001 1.896435e-001 6.631544e-001 8.607771e-001 4.195828e-001 -3.875993e-001 -3.015592e-001 2.546778e-001 3.401708e-001 -2.096143e-002 -3.430725e-002 -7.738995e-002 1.896842e-001 2.054525e-001 -2.139335e-002 2.484276e-001
<VARIANCE> 39
 5.633115e+000 7.671486e+000 6.924072e+000 2.605899e+001 1.201356e+001 1.566213e+001 1.508546e+001 1.367070e+001 1.729034e+001 1.709010e+001 1.491054e+001 1.292869e+001 2.962914e+000 1.494882e+000 4.427831e-001 7.471170e-001 8.978997e-001 6.038508e-001 7.333663e-001 7.605579e-001 8.122583e-001 7.217085e-001 6.332052e-001 7.233629e-001 7.895842e-001 1.210674e-001 1.077976e-001 8.885070e-002 1.184669e-001 1.351082e-001 1.405030e-001 1.467563e-001 1.744051e-001 1.550641e-001 1.646621e-001 1.596420e-001 1.530505e-001 1.335056e-001 7.282529e-003
<GCONST> 6.895226e+001
<MIXTURE> 2 4.881893e-001
<MEAN> 39
 -1.619945e+001 -6.621508e+000 -2.776694e+000 -1.009771e+001 -4.926354e+000 -9.609182e+000 -1.455372e+000 -5.845181e+000 -1.542773e+000 -5.145751e+000 5.342101e-001 -3.978109e+000 1.175682e+001 9.273011e-001 -1.821574e-001 -3.023041e-001 1.188028e-002 3.404695e-001 -1.636256e-001 -1.588177e-001 -1.768905e-001 -1.299720e-001 -2.801228e-001 -4.744089e-001 -3.196233e-001 4.962027e-001 7.127354e-001 1.236401e-001 -2.939081e-001 -4.815171e-002 1.724993e-001 -6.555564e-003 -1.319951e-001 1.371757e-002 9.035547e-003 -1.000259e-002 -2.167831e-001 -1.934278e-001 1.628904e-001
<VARIANCE> 39
 1.442970e+001 8.953135e+000 8.919775e+000 2.218834e+001 1.231166e+001 1.455751e+001 1.754518e+001 1.752199e+001 1.753948e+001 1.465745e+001 1.942522e+001 1.544044e+001 5.563285e+000 2.151106e+000 5.017676e-001 7.069767e-001 4.839081e-001 6.597791e-001 6.397550e-001 5.492402e-001 8.290147e-001 8.400913e-001 7.679976e-001 9.317541e-001 6.027235e-001 2.355111e-001 2.357010e-001 8.957228e-002 1.757687e-001 1.015515e-001 1.309380e-001 1.399777e-001 1.244099e-001 1.984317e-001 1.580549e-001 1.523221e-001 2.020385e-001 1.312065e-001 2.318867e-002
<GCONST> 7.390027e+001
<MIXTURE> 3 2.559052e-001
<MEAN> 39
 -1.431131e+001 -7.451516e+000 -4.754027e+000 -1.435438e+001 -4.795339e+000 -1.294266e+001 -4.596118e+000 -6.269709e+000 -1.655773e+000 -5.106363e+000 -1.144100e+000 -5.771202e+000 1.313139e+001 1.793062e+000 4.804796e-001 -7.262467e-001 -2.164918e-001 5.829526e-001 4.263481e-001 -2.184420e-001 -2.290907e-001 7.390834e-002 2.751779e-001 1.223980e-001 -1.657907e-001 5.239754e-001 7.294470e-001 3.003514e-001 -5.252753e-001 -4.485874e-001 1.047428e-001 1.869356e-001 -1.880088e-001 -1.918200e-001 -2.397043e-001 2.986335e-002 4.896586e-002 -1.675470e-001 2.142925e-001
<VARIANCE> 39
 5.633115e+000 7.671486e+000 6.924072e+000 2.605899e+001 1.201356e+001 1.566213e+001 1.508546e+001 1.367070e+001 1.729034e+001 1.709010e+001 1.491054e+001 1.292869e+001 2.962914e+000 1.494882e+000 4.427831e-001 7.471170e-001 8.978997e-001 6.038508e-001 7.333663e-001 7.605579e-001 8.122583e-001 7.217085e-001 6.332052e-001 7.233629e-001 7.895842e-001 1.210674e-001 1.077976e-001 8.885070e-002 1.184669e-001 1.351082e-001 1.405030e-001 1.467563e-001 1.744051e-001 1.550641e-001 1.646621e-001 1.596420e-001 1.530505e-001 1.335056e-001 7.282529e-003
<GCONST> 6.895226e+001
<STATE> 3
<NUMMIXES> 3
<MIXTURE> 1 2.683741e-001
<MEAN> 39
 -6.402455e+000 -2.856249e+000 -2.920651e+000 -1.179014e+001 1.463989e-001 -8.313368e+000 -2.449811e+000 -4.286339e+000 4.055304e-001 -3.271229e+000 1.894087e-001 -5.082547e+000 1.606206e+001 3.576205e+000 1.306812e+000 -1.651483e+000 -9.279869e-001 1.162681e+000 1.087601e+000 6.304650e-002 -7.045516e-002 1.506761e-002 8.880103e-001 8.250937e-001 3.661051e-002 1.084090e+000 1.252748e-001 1.247240e-001 -3.314967e-001 -2.898958e-001 -2.766590e-002 6.653119e-002 8.849341e-002 4.571430e-006 -9.378667e-002 1.766088e-001 2.228091e-001 1.363437e-001 6.941426e-002
<VARIANCE> 39
 2.176056e+001 1.332446e+001 1.050853e+001 2.992625e+001 9.045952e+000 1.136749e+001 1.369823e+001 1.520738e+001 1.573364e+001 1.202595e+001 1.576515e+001 1.456146e+001 4.219741e+000 1.696808e+000 6.955032e-001 8.341203e-001 9.401742e-001 1.032458e+000 7.590840e-001 7.631769e-001 1.223919e+000 1.127413e+000 1.049827e+000 1.102568e+000 1.132193e+000 1.236056e-001 8.909193e-002 7.319536e-002 8.922679e-002 1.244894e-001 9.853707e-002 9.574911e-002 1.314769e-001 1.007855e-001 1.668552e-001 1.702555e-001 1.576580e-001 1.628537e-001 9.281902e-003
<GCONST> 7.267626e+001
<MIXTURE> 2 4.632516e-001
<MEAN> 39
 -3.436024e+000 -3.995620e+000 -6.021791e+000 -1.169882e+001 -1.908011e+000 -9.016687e+000 -2.929658e+000 -6.408675e+000 -1.984496e+000 -4.503571e+000 -6.720078e-001 -4.929117e+000 1.552392e+001 3.991357e+000 8.634542e-001 -2.391680e+000 -1.321932e+000 4.080263e-001 1.809937e-001 -8.060793e-001 -3.931720e-001 -5.373289e-001 -2.934996e-001 -7.014678e-001 -8.887797e-001 1.234046e+000 -1.154133e-001 5.339999e-002 -3.300954e-001 -2.728564e-001 -1.776343e-001 -3.087549e-002 -7.014903e-002 2.630571e-002 -2.355278e-002 -7.655753e-002 -7.621167e-002 -1.381948e-001 -1.469076e-002
<VARIANCE> 39
 4.937293e+001 1.618424e+001 1.973835e+001 2.946469e+001 1.616478e+001 2.655365e+001 1.912630e+001 1.986224e+001 1.942778e+001 2.129106e+001 2.472596e+001 1.337252e+001 5.445162e+000 1.633996e+000 1.637056e+000 1.343931e+000 1.779780e+000 1.847595e+000 2.198240e+000 1.720559e+000 1.618680e+000 1.806226e+000 1.716041e+000 2.939493e+000 1.510446e+000 1.416154e-001 2.624830e-001 7.755519e-002 1.137972e-001 1.229359e-001 1.482138e-001 2.170092e-001 1.341347e-001 1.861207e-001 2.288590e-001 2.790083e-001 1.776909e-001 1.465615e-001 1.959254e-002
<GCONST> 8.957540e+001
<MIXTURE> 3 2.683741e-001
<MEAN> 39
 -8.268383e+000 -4.316357e+000 -4.217325e+000 -1.397834e+001 -1.056661e+000 -9.661997e+000 -3.930256e+000 -5.846205e+000 -1.181096e+000 -4.658367e+000 -1.398805e+000 -6.608927e+000 1.524038e+001 3.055159e+000 9.732243e-001 -2.016804e+000 -1.315837e+000 7.562417e-001 7.390994e-001 -2.863935e-001 -5.129787e-001 -4.096512e-001 4.781660e-001 4.050807e-001 -3.890077e-001 9.434598e-001 5.881710e-003 1.650542e-002 -4.509801e-001 -4.310280e-001 -1.532284e-001 -5.724223e-002 -5.654556e-002 -1.269824e-001 -2.571783e-001 1.156065e-002 6.398445e-002 -2.507687e-002 3.087720e-002
<VARIANCE> 39
 2.176056e+001 1.332446e+001 1.050853e+001 2.992625e+001 9.045952e+000 1.136749e+001 1.369823e+001 1.520738e+001 1.573364e+001 1.202595e+001 1.576515e+001 1.456146e+001 4.219741e+000 1.696808e+000 6.955032e-001 8.341203e-001 9.401742e-001 1.032458e+000 7.590840e-001 7.631769e-001 1.223919e+000 1.127413e+000 1.049827e+000 1.102568e+000 1.132193e+000 1.236056e-001 8.909193e-002 7.319536e-002 8.922679e-002 1.244894e-001 9.853707e-002 9.574911e-002 1.314769e-001 1.007855e-001 1.668552e-001 1.702555e-001 1.576580e-001 1.628537e-001 9.281902e-003
<GCONST> 7.267626e+001
<STATE> 4
<NUMMIXES> 3
<MIXTURE> 1 2.738025e-001
<MEAN> 39
 3.751831e+000 -3.777626e+000 -1.452573e+001 -1.396092e+001 4.069630e+000 -8.407730e+000 -3.727639e+000 -4.019873e+000 1.723752e+000 -2.755990e-001 -1.903121e+000 -8.035193e+000 1.900854e+001 1.394024e+000 5.951231e-001 -1.103235e+000 -5.020384e-001 7.857760e-001 1.094015e+000 4.102864e-001 1.249394e-001 4.236049e-001 1.085398e+000 7.693291e-001 3.192262e-001 5.008280e-001 -5.277778e-001 6.117992e-002 5.517954e-001 5.922562e-002 -3.153233e-001 1.122502e-001 2.480032e-001 2.042495e-002 -1.640747e-001 -9.699848e-002 3.168219e-001 3.701701e-001 -1.758655e-001
<VARIANCE> 39
 2.390234e+001 1.363723e+001 1.924946e+001 2.566828e+001 1.458480e+001 1.838996e+001 1.908097e+001 2.551323e+001 1.864423e+001 2.826257e+001 4.558705e+001 3.698826e+001 1.540014e+000 1.355613e+000 5.175726e-001 1.196042e+000 6.334384e-001 9.238211e-001 8.350354e-001 9.426203e-001 1.480605e+000 1.088377e+000 9.574116e-001 1.300439e+000 1.497249e+000 1.529856e-001 1.560664e-001 1.000514e-001 1.151056e-001 1.296280e-001 8.816908e-002 1.731467e-001 1.492220e-001 2.216160e-001 1.480088e-001 2.001123e-001 2.224503e-001 1.949723e-001 1.225416e-002
<GCONST> 8.083251e+001
<MIXTURE> 2 4.523941e-001
<MEAN> 39
 3.927849e+000 3.566363e-001 -1.385529e+001 -2.082681e+001 -2.700926e+000 -7.967812e+000 -6.137265e+000 -8.966558e+000 -5.166718e+000 -4.619320e+000 1.741126e+000 -6.460675e+000 1.853223e+001 1.802305e+000 8.353769e-001 -1.559751e+000 -1.538208e+000 -3.676770e-001 1.542602e-001 -2.706718e-001 -3.509392e-001 -8.029603e-001 -4.308983e-001 -5.420955e-002 -2.924299e-001 6.380637e-001 -8.159766e-001 -3.787756e-001 4.528508e-001 4.165709e-001 -8.427577e-002 -1.278867e-001 1.483628e-001 2.147396e-001 2.720357e-001 5.868988e-003 -1.674662e-001 1.053176e-001 -2.397749e-001
<VARIANCE> 39
 2.518049e+001 1.322204e+001 2.030940e+001 1.570800e+001 2.382202e+001 2.839337e+001 2.303905e+001 1.916386e+001 2.318242e+001 2.997603e+001 4.508506e+001 2.516050e+001 1.158182e+000 1.730874e+000 7.834610e-001 1.165110e+000 1.094913e+000 1.258279e+000 1.063860e+000 1.295604e+000 8.565138e-001 1.180818e+000 1.503477e+000 1.644727e+000 1.278460e+000 1.480182e-001 1.207739e-001 1.287859e-001 1.330044e-001 1.438409e-001 1.351244e-001 1.705864e-001 2.026399e-001 1.541669e-001 1.769860e-001 2.425411e-001 2.336458e-001 1.688551e-001 7.550624e-003
<GCONST> 8.330946e+001
<MIXTURE> 3 2.738025e-001
<MEAN> 39
 1.796231e+000 -5.254771e+000 -1.628069e+001 -1.598748e+001 2.542028e+000 -1.012307e+001 -5.474909e+000 -6.040298e+000 -3.406664e-003 -2.402101e+000 -4.603848e+000 -1.046791e+001 1.851216e+001 9.283004e-001 3.073530e-001 -1.540689e+000 -8.203937e-001 4.013135e-001 7.284934e-001 2.193183e-002 -3.617810e-001 6.303685e-003 6.940088e-001 3.131819e-001 -1.702223e-001 3.443744e-001 -6.857988e-001 -6.534369e-002 4.160866e-001 -8.478994e-002 -4.340964e-001 -5.419342e-002 9.348617e-002 -1.678795e-001 -3.179623e-001 -2.759341e-001 1.281633e-001 1.935474e-001 -2.201449e-001
<VARIANCE> 39
 2.390234e+001 1.363723e+001 1.924946e+001 2.566828e+001 1.458480e+001 1.838996e+001 1.908097e+001 2.551323e+001 1.864423e+001 2.826257e+001 4.558705e+001 3.698826e+001 1.540014e+000 1.355613e+000 5.175726e-001 1.196042e+000 6.334384e-001 9.238211e-001 8.350354e-001 9.426203e-001 1.480605e+000 1.088377e+000 9.574116e-001 1.300439e+000 1.497249e+000 1.529856e-001 1.560664e-001 1.000514e-001 1.151056e-001 1.296280e-001 8.816908e-002 1.731467e-001 1.492220e-001 2.216160e-001 1.480088e-001 2.001123e-001 2.224503e-001 1.949723e-001 1.225416e-002
<GCONST> 8.083251e+001
<STATE> 5
<NUMMIXES> 3
<MIXTURE> 1 2.732972e-001
<MEAN> 39
 4.088718e+000 8.782863e-001 -1.348762e+001 -1.909449e+001 4.007061e-001 -5.777049e+000 -1.051467e+000 -6.536973e+000 -1.981279e+000 -1.375033e+000 2.471412e+000 -4.010694e+000 1.916812e+001 3.028077e-002 1.180419e-001 1.576280e-001 2.556342e-002 1.348818e-001 3.183133e-001 1.890359e-001 1.938398e-001 1.932382e-002 1.864331e-001 2.920922e-001 3.090402e-001 -8.854996e-003 -3.711502e-002 -1.604532e-001 8.170456e-002 1.855287e-001 1.969302e-001 -1.565446e-002 -1.300288e-001 1.289257e-001 2.167168e-001 1.021428e-001 -2.014671e-002 -6.623963e-002 -2.863620e-003
<VARIANCE> 39
 3.000498e+001 9.827743e+000 2.805514e+001 3.119905e+001 3.015523e+001 1.746812e+001 1.789473e+001 1.367904e+001 2.414548e+001 2.653934e+001 3.449028e+001 3.383252e+001 1.485937e+000 9.268257e-002 3.968912e-001 3.173924e-001 4.372193e-001 6.176627e-001 4.231826e-001 5.513839e-001 5.107880e-001 6.088933e-001 6.349501e-001 8.528154e-001 8.296531e-001 5.559964e-003 1.302445e-002 3.625838e-002 5.068289e-002 4.468934e-002 7.353348e-002 7.971260e-002 7.889522e-002 9.106732e-002 8.520420e-002 1.225812e-001 1.470060e-001 1.179602e-001 1.105957e-003
<GCONST> 5.620462e+001
<MIXTURE> 2 4.534049e-001
<MEAN> 39
 8.511925e-001 1.695680e-001 -1.230049e+001 -2.266754e+001 -2.676989e+000 -7.353863e+000 -4.438125e+000 -7.973436e+000 -4.645739e+000 -3.992973e+000 1.606028e+000 -5.981218e+000 1.892804e+001 -5.307657e-002 -6.032570e-001 -7.672834e-002 3.815838e-001 3.292550e-001 9.674037e-002 -5.200046e-001 9.754168e-002 7.094907e-001 3.832380e-001 -1.329547e-001 -4.090837e-001 3.067488e-002 -1.095587e-001 -2.822278e-001 1.133949e-001 3.838515e-001 7.913572e-002 -1.334253e-001 -1.378132e-001 1.247204e-001 3.468632e-001 3.264872e-002 -2.269052e-001 -1.395488e-001 -3.796278e-002
<VARIANCE> 39
 2.611020e+001 1.046106e+001 2.389614e+001 1.588887e+001 2.540334e+001 2.207066e+001 2.133444e+001 1.787363e+001 2.282865e+001 2.803475e+001 3.596793e+001 3.046961e+001 1.270708e+000 1.787438e-001 7.185285e-001 5.761726e-001 7.099963e-001 1.055331e+000 8.089657e-001 1.207513e+000 9.980289e-001 1.400362e+000 1.524621e+000 1.039898e+000 1.115399e+000 1.164309e-002 3.692231e-002 5.272951e-002 9.620684e-002 9.527305e-002 1.120878e-001 1.485616e-001 1.540080e-001 1.755901e-001 1.878977e-001 2.683457e-001 2.182397e-001 1.744500e-001 3.864622e-003
<GCONST> 7.228484e+001
<MIXTURE> 3 2.732972e-001
<MEAN> 39
 1.897646e+000 -3.756829e-001 -1.560630e+001 -2.132873e+001 -1.795845e+000 -7.448843e+000 -2.743553e+000 -8.016380e+000 -3.946801e+000 -3.435687e+000 1.222755e-001 -6.337322e+000 1.868052e+001 -9.149447e-002 -1.339553e-001 -6.772232e-002 -2.389268e-001 -1.794843e-001 5.810332e-002 -1.079850e-001 -9.203799e-002 -2.928026e-001 -1.323019e-001 -7.729981e-002 -5.530098e-002 -3.868106e-002 -8.276490e-002 -2.366198e-001 -8.346883e-003 1.009693e-001 8.846198e-002 -1.285881e-001 -2.423820e-001 8.216201e-003 9.995778e-002 -3.790355e-002 -1.735122e-001 -2.036210e-001 -1.616599e-002
<VARIANCE> 39
 3.000498e+001 9.827743e+000 2.805514e+001 3.119905e+001 3.015523e+001 1.746812e+001 1.789473e+001 1.367904e+001 2.414548e+001 2.653934e+001 3.449028e+001 3.383252e+001 1.485937e+000 9.268257e-002 3.968912e-001 3.173924e-001 4.372193e-001 6.176627e-001 4.231826e-001 5.513839e-001 5.107880e-001 6.088933e-001 6.349501e-001 8.528154e-001 8.296531e-001 5.559964e-003 1.302445e-002 3.625838e-002 5.068289e-002 4.468934e-002 7.353348e-002 7.971260e-002 7.889522e-002 9.106732e-002 8.520420e-002 1.225812e-001 1.470060e-001 1.179602e-001 1.105957e-003
<GCONST> 5.620462e+001
<STATE> 6
<NUMMIXES> 3
<MIXTURE> 1 2.897595e-001
<MEAN> 39
 2.602579e+000 -5.582187e+000 -1.329466e+001 -1.474782e+001 5.175704e+000 -6.818182e+000 -6.696768e+000 -1.971666e+000 3.167923e+000 -4.492256e-001 -9.884212e-001 -7.659833e+000 1.906956e+001 -2.184106e-001 -1.444143e+000 9.980250e-001 1.500890e+000 -6.698120e-002 -2.810848e-001 -2.492887e-001 1.730298e+000 1.189961e+000 -1.234340e+000 -7.284278e-001 2.616534e-001 -1.116673e-002 -9.619392e-005 3.296378e-002 3.539109e-001 1.431417e-001 -4.800738e-001 9.591725e-002 5.505055e-001 5.651604e-002 -2.068392e-001 -2.709301e-001 2.359861e-001 4.199927e-001 -1.516089e-002
<VARIANCE> 39
 2.233884e+001 1.285859e+001 1.348650e+001 2.015156e+001 1.697167e+001 2.277708e+001 2.496836e+001 2.316092e+001 3.036245e+001 2.491549e+001 3.940336e+001 3.046128e+001 1.770960e+000 8.017372e-002 6.018347e-001 8.033897e-001 5.510506e-001 1.197441e+000 1.208637e+000 1.688591e+000 1.179537e+000 2.353127e+000 1.399173e+000 1.448677e+000 1.345435e+000 8.089419e-003 1.379586e-002 5.330351e-002 6.572335e-002 7.552527e-002 1.169543e-001 1.432612e-001 2.040810e-001 2.072576e-001 2.558506e-001 2.087166e-001 2.552361e-001 1.787551e-001 6.649443e-004
<GCONST> 7.069887e+001
<MIXTURE> 2 4.204808e-001
<MEAN> 39
 3.553758e+000 -6.462465e+000 -1.435187e+001 -1.584940e+001 -3.627327e+000 -5.947164e+000 -8.877051e+000 -9.489047e+000 3.362306e+000 -6.948245e-001 -1.760374e+000 -1.027858e+001 1.896664e+001 -3.375801e-001 -1.697826e+000 6.237323e-001 2.089173e+000 -2.843282e-001 -1.083709e+000 2.847865e-002 7.730675e-001 1.157944e+000 8.552068e-002 -1.369698e+000 -5.064971e-001 -5.554490e-002 -1.032250e-001 1.015373e-001 3.259865e-001 1.026464e-001 -2.925605e-001 -3.510670e-001 4.606061e-001 3.989193e-001 -5.141547e-001 -4.786460e-001 5.866729e-002 3.467032e-001 -4.454850e-002
<VARIANCE> 39
 3.016430e+001 2.126458e+001 1.614235e+001 4.132258e+001 5.569947e+001 4.220669e+001 2.815931e+001 4.037461e+001 3.890919e+001 4.073565e+001 4.732949e+001 3.200763e+001 1.484837e+000 2.336082e-001 8.859832e-001 8.308794e-001 1.703767e+000 1.751229e+000 1.608324e+000 1.795032e+000 2.354968e+000 3.116753e+000 3.668382e+000 1.733190e+000 2.010026e+000 1.752001e-002 2.987862e-002 1.211989e-001 7.704791e-002 2.170527e-001 1.925924e-001 2.566572e-001 2.544302e-001 2.852417e-001 3.658009e-001 3.509205e-001 3.519921e-001 2.927415e-001 1.692620e-003
<GCONST> 8.936967e+001
<MIXTURE> 3 2.897595e-001
<MEAN> 39
 7.120194e-001 -7.016541e+000 -1.476362e+001 -1.654344e+001 3.527836e+000 -8.727196e+000 -8.695502e+000 -3.896698e+000 9.638374e-001 -2.445842e+000 -3.499305e+000 -9.867503e+000 1.853725e+001 -3.316704e-001 -1.754455e+000 6.394970e-001 1.203959e+000 -5.046918e-001 -7.208369e-001 -7.690719e-001 1.295872e+000 5.763645e-001 -1.707486e+000 -1.209872e+000 -2.023182e-001 -4.714321e-002 -4.707851e-002 -5.938644e-002 2.513646e-001 3.321428e-002 -6.168681e-001 -5.548219e-002 3.698042e-001 -1.255862e-001 -4.091659e-001 -4.536721e-001 3.390251e-002 2.508749e-001 -2.547549e-002
<VARIANCE> 39
 2.233884e+001 1.285859e+001 1.348650e+001 2.015156e+001 1.697167e+001 2.277708e+001 2.496836e+001 2.316092e+001 3.036245e+001 2.491549e+001 3.940336e+001 3.046128e+001 1.770960e+000 8.017372e-002 6.018347e-001 8.033897e-001 5.510506e-001 1.197441e+000 1.208637e+000 1.688591e+000 1.179537e+000 2.353127e+000 1.399173e+000 1.448677e+000 1.345435e+000 8.089419e-003 1.379586e-002 5.330351e-002 6.572335e-002 7.552527e-002 1.169543e-001 1.432612e-001 2.040810e-001 2.072576e-001 2.558506e-001 2.087166e-001 2.552361e-001 1.787551e-001 6.649443e-004
<GCONST> 7.069887e+001
<STATE> 7
<NUMMIXES> 3
<MIXTURE> 1 4.871102e-001
<MEAN> 39
 2.418654e+000 -1.399125e+001 -8.622881e+000 -6.998056e+000 -5.538583e+000 -8.938351e+000 -2.919210e+000 1.109230e+000 3.128013e+000 -8.280570e+000 -2.780920e+000 -3.531322e+000 1.855193e+001 -3.381870e-001 -6.617688e-001 1.529081e+000 1.014345e+000 -1.836719e+000 -5.325406e-002 1.731663e+000 -2.365623e-002 -1.155479e+000 -6.322657e-001 4.586961e-001 6.092504e-001 -1.437582e-001 -5.465573e-002 4.635362e-001 5.161476e-002 -3.845744e-001 1.208784e-001 2.718032e-001 6.218072e-002 -5.102106e-001 -2.778610e-001 4.854219e-001 2.373556e-001 -2.226807e-001 -3.789645e-002
<VARIANCE> 39
 2.430948e+001 2.588161e+001 1.635686e+001 2.829095e+001 6.391974e+001 5.322618e+001 3.844203e+001 4.188184e+001 4.754140e+001 3.244574e+001 2.644363e+001 2.484174e+001 2.337589e+000 2.930049e-001 7.627642e-001 8.213886e-001 1.079010e+000 1.686613e+000 2.079890e+000 1.787641e+000 1.830189e+000 1.357467e+000 1.785869e+000 1.536437e+000 1.130039e+000 1.296818e-002 2.209745e-002 8.088658e-002 7.494944e-002 1.300436e-001 2.181351e-001 2.682312e-001 2.707380e-001 3.214777e-001 4.339491e-001 3.111180e-001 2.467879e-001 1.716845e-001 1.264070e-003
<GCONST> 8.429111e+001
<MIXTURE> 2 2.564445e-001
<MEAN> 39
 -9.869347e-001 -9.348442e+000 -7.740858e+000 -1.055501e+001 -1.083988e+000 -1.150782e+001 -2.639576e+000 2.034206e-001 -6.000432e-002 -8.030787e+000 -4.782641e+000 -7.992893e+000 1.866589e+001 -3.906679e-001 -2.398535e-003 1.457705e+000 7.473665e-001 -9.731315e-001 2.872003e-002 1.209433e+000 3.997397e-001 -7.804179e-001 -3.988330e-001 6.214757e-001 6.669189e-001 -1.495203e-001 -4.587469e-002 4.255003e-001 1.307897e-001 -2.076265e-001 1.506582e-001 3.498987e-001 6.583747e-002 -3.308670e-001 3.887125e-002 4.617098e-001 2.803578e-001 6.111567e-003 -3.120693e-002
<VARIANCE> 39
 1.846457e+001 2.376505e+001 1.289532e+001 1.475842e+001 3.138181e+001 3.285208e+001 3.323792e+001 2.405162e+001 4.042287e+001 3.586115e+001 2.816625e+001 2.805239e+001 1.294483e+000 2.177811e-001 7.807168e-001 6.099525e-001 9.078590e-001 1.253632e+000 1.521599e+000 1.220366e+000 1.801663e+000 1.466014e+000 1.938898e+000 1.102437e+000 1.481204e+000 2.184237e-002 2.234331e-002 8.822044e-002 8.689860e-002 1.138563e-001 2.020537e-001 1.771568e-001 2.440470e-001 1.861945e-001 2.801703e-001 2.669943e-001 2.599079e-001 2.033572e-001 2.345933e-003
<GCONST> 7.876896e+001
<MIXTURE> 3 2.564445e-001
<MEAN> 39
 -2.705751e+000 -1.129842e+001 -9.177259e+000 -1.209167e+001 -3.324766e+000 -1.380049e+001 -4.945670e+000 -1.758277e+000 -2.603164e+000 -1.042615e+001 -6.905517e+000 -1.011147e+001 1.821079e+001 -5.773360e-001 -3.558313e-001 1.145307e+000 3.662400e-001 -1.420994e+000 -4.646924e-001 7.675527e-001 -1.371645e-001 -1.264734e+000 -9.558103e-001 2.014877e-001 1.801001e-001 -2.086369e-001 -1.056654e-001 3.066925e-001 1.287540e-002 -3.425969e-001 -2.914336e-002 1.815387e-001 -1.317670e-001 -5.034680e-001 -1.728532e-001 2.550238e-001 7.643317e-002 -1.742690e-001 -5.058087e-002
<VARIANCE> 39
 1.846457e+001 2.376505e+001 1.289532e+001 1.475842e+001 3.138181e+001 3.285208e+001 3.323792e+001 2.405162e+001 4.042287e+001 3.586115e+001 2.816625e+001 2.805239e+001 1.294483e+000 2.177811e-001 7.807168e-001 6.099525e-001 9.078590e-001 1.253632e+000 1.521599e+000 1.220366e+000 1.801663e+000 1.466014e+000 1.938898e+000 1.102437e+000 1.481204e+000 2.184237e-002 2.234331e-002 8.822044e-002 8.689860e-002 1.138563e-001 2.020537e-001 1.771568e-001 2.440470e-001 1.861945e-001 2.801703e-001 2.669943e-001 2.599079e-001 2.033572e-001 2.345933e-003
<GCONST> 7.876896e+001
<STATE> 8
<NUMMIXES> 3
<MIXTURE> 1 2.972560e-001
<MEAN> 39
 1.506840e+000 -1.137293e+001 -1.529877e+000 -5.501307e+000 -9.263980e+000 -5.539279e+000 3.245779e+000 -2.078632e+000 -1.935384e+000 -4.769137e+000 1.029874e+000 -3.962089e+000 1.785523e+001 -7.386753e-001 1.473016e+000 1.785579e+000 -1.479838e-001 3.965337e-001 1.105383e+000 7.853156e-001 -8.131403e-001 -3.952662e-001 1.049207e+000 5.034119e-001 -5.950876e-003 -3.528914e-001 -1.258621e-001 4.780774e-001 -9.166711e-002 -1.305812e-001 7.415383e-001 1.480045e-001 -3.834153e-001 5.059709e-002 3.937442e-001 2.137560e-001 -9.159305e-002 -2.759445e-002 -5.840560e-002
<VARIANCE> 39
 2.938460e+001 3.134900e+001 2.375758e+001 4.892627e+001 6.621732e+001 8.094495e+001 3.720837e+001 3.479346e+001 3.508530e+001 3.107339e+001 3.037402e+001 2.288912e+001 2.534172e+000 6.337083e-001 1.022826e+000 8.869253e-001 1.666636e+000 1.930258e+000 2.444317e+000 1.805803e+000 2.032287e+000 2.495401e+000 2.028861e+000 1.690973e+000 1.354780e+000 6.130142e-002 1.220298e-001 1.870444e-001 1.454575e-001 2.320347e-001 2.965566e-001 3.646544e-001 2.804666e-001 2.585064e-001 3.026681e-001 2.984571e-001 2.296180e-001 1.780357e-001 7.959366e-003
<GCONST> 9.579786e+001
<MIXTURE> 2 4.054876e-001
<MEAN> 39
 -2.158520e+000 -5.675562e+000 1.030725e+000 -8.689178e+000 -7.291933e+000 -7.511365e+000 -2.512170e+000 -8.759649e+000 -5.247498e+000 -7.646080e+000 -5.763763e+000 -1.037472e+001 1.639047e+001 -1.624993e+000 1.620403e+000 8.525199e-001 3.508569e-002 1.101554e+000 -8.734536e-002 -2.148093e-001 -5.360770e-001 -1.218803e-001 5.251716e-001 7.015754e-002 3.443749e-001 -6.386724e-001 -2.450946e-001 -2.422158e-001 -4.578503e-001 -8.734389e-002 1.226056e-001 -5.257810e-002 -5.951557e-002 3.190625e-001 2.191315e-001 7.147921e-002 2.742005e-001 2.881611e-001 -7.964390e-002
<VARIANCE> 39
 2.641942e+001 4.819781e+001 3.980979e+001 6.737892e+001 5.057119e+001 6.295821e+001 4.664277e+001 4.336877e+001 5.195692e+001 6.573807e+001 4.963427e+001 3.561341e+001 3.214875e+000 1.661427e+000 2.002656e+000 1.621018e+000 2.083799e+000 2.153014e+000 1.732517e+000 2.450183e+000 2.385592e+000 2.009865e+000 2.559816e+000 2.377748e+000 2.274938e+000 2.084470e-001 1.346209e-001 2.843158e-001 2.206240e-001 3.468701e-001 3.240013e-001 3.036004e-001 3.133886e-001 3.669965e-001 4.034007e-001 4.566583e-001 3.171949e-001 2.636225e-001 1.489801e-002
<GCONST> 1.077455e+002
<MIXTURE> 3 2.972560e-001
<MEAN> 39
 -6.614626e-001 -1.361253e+001 -3.479547e+000 -8.299200e+000 -1.251894e+001 -9.138056e+000 8.058327e-001 -4.438072e+000 -4.304698e+000 -6.998877e+000 -1.174631e+000 -5.875792e+000 1.721847e+001 -1.057099e+000 1.068476e+000 1.408873e+000 -6.643768e-001 -1.592012e-001 4.800105e-001 2.477950e-001 -1.383373e+000 -1.027140e+000 4.794547e-001 -1.673774e-002 -4.715309e-001 -4.519279e-001 -2.655931e-001 3.050829e-001 -2.442227e-001 -3.232612e-001 5.237103e-001 -9.354196e-002 -5.952517e-001 -1.527770e-001 1.736830e-001 -4.768953e-003 -2.832669e-001 -1.963716e-001 -9.409171e-002
<VARIANCE> 39
 2.938460e+001 3.134900e+001 2.375758e+001 4.892627e+001 6.621732e+001 8.094495e+001 3.720837e+001 3.479346e+001 3.508530e+001 3.107339e+001 3.037402e+001 2.288912e+001 2.534172e+000 6.337083e-001 1.022826e+000 8.869253e-001 1.666636e+000 1.930258e+000 2.444317e+000 1.805803e+000 2.032287e+000 2.495401e+000 2.028861e+000 1.690973e+000 1.354780e+000 6.130142e-002 1.220298e-001 1.870444e-001 1.454575e-001 2.320347e-001 2.965566e-001 3.646544e-001 2.804666e-001 2.585064e-001 3.026681e-001 2.984571e-001 2.296180e-001 1.780357e-001 7.959366e-003
<GCONST> 9.579786e+001
<STATE> 9
<NUMMIXES> 3
<MIXTURE> 1 4.979279e-001
<MEAN> 39
 -6.968781e+000 -4.725409e+000 -1.748496e-001 -9.609951e+000 -4.267038e+000 -6.622581e+000 -1.143030e+000 -7.598652e+000 -3.960144e+000 -3.688350e+000 -1.640755e-001 -5.243959e+000 1.370872e+001 -5.100391e-001 9.500372e-001 -1.544875e-002 -2.744079e-001 4.698782e-001 -1.896190e-001 -4.646881e-001 9.332325e-004 4.076158e-001 2.230427e-001 -1.772611e-002 -2.631628e-002 -3.409068e-001 7.871232e-002 -1.431534e-001 -1.502609e-001 8.668071e-002 -3.029514e-003 -3.611254e-002 2.912978e-002 1.925973e-001 6.207254e-002 -9.828889e-002 -5.460431e-002 -1.819958e-002 4.185110e-002
<VARIANCE> 39
 1.961460e+001 4.116951e+001 1.826425e+001 5.018954e+001 2.915117e+001 4.604932e+001 2.835047e+001 3.193484e+001 2.889102e+001 2.541344e+001 2.762992e+001 2.565881e+001 1.466590e+001 5.836958e-001 1.334544e+000 1.027665e+000 1.208889e+000 1.273827e+000 1.766267e+000 1.380597e+000 1.510499e+000 1.201585e+000 1.315658e+000 1.251417e+000 1.119133e+000 4.524539e-002 6.985138e-002 1.512236e-001 1.414944e-001 1.706016e-001 1.303799e-001 2.479722e-001 1.748119e-001 1.948450e-001 1.709492e-001 2.110292e-001 1.894567e-001 1.921910e-001 1.015896e-002
<GCONST> 8.795277e+001
<MIXTURE> 2 2.510362e-001
<MEAN> 39
 -1.014529e+001 -2.823547e+000 1.496412e+000 -6.521778e+000 -1.135358e+000 -4.919887e+000 2.402110e-001 -4.460657e+000 -2.898317e-001 -1.883180e+000 6.115484e-001 -4.364084e+000 1.360592e+001 -1.341249e+000 -2.792202e-002 -6.876559e-001 -7.736393e-001 1.654879e-001 -1.026620e-001 -3.381200e-001 1.159158e-001 1.758940e-001 4.347870e-001 5.493451e-001 3.973576e-001 -4.745233e-001 4.465754e-001 -1.482989e-001 -1.685820e-001 -5.397974e-002 -2.660629e-001 -1.486012e-001 -1.270717e-002 5.068131e-002 2.783330e-002 -8.369976e-002 -2.612272e-002 2.034145e-002 1.550375e-001
<VARIANCE> 39
 2.028688e+001 3.436562e+001 2.610846e+001 5.451215e+001 2.834185e+001 4.336624e+001 2.890620e+001 3.252914e+001 2.479638e+001 2.581188e+001 2.004161e+001 2.053240e+001 5.770467e+000 1.087558e+000 1.180834e+000 1.348925e+000 1.407292e+000 1.782142e+000 1.461199e+000 1.010153e+000 1.314983e+000 1.267449e+000 1.253628e+000 1.491482e+000 1.084236e+000 1.341635e-001 1.330509e-001 2.842666e-001 2.640583e-001 2.610176e-001 2.308935e-001 2.079704e-001 1.771019e-001 1.905470e-001 1.960613e-001 1.928871e-001 1.859299e-001 1.740207e-001 1.290951e-002
<GCONST> 9.131596e+001
<MIXTURE> 3 2.510362e-001
<MEAN> 39
 -1.194693e+001 -5.168435e+000 -5.474457e-001 -9.475072e+000 -3.264840e+000 -7.554009e+000 -1.910368e+000 -6.742030e+000 -2.281670e+000 -3.915396e+000 -1.179166e+000 -6.176592e+000 1.264504e+001 -1.758393e+000 -4.625868e-001 -1.152229e+000 -1.248157e+000 -3.684997e-001 -5.861822e-001 -7.401454e-001 -3.427750e-001 -2.744302e-001 -1.307516e-002 6.084011e-002 -1.914901e-002 -6.210366e-001 3.006708e-001 -3.615655e-001 -3.741284e-001 -2.583393e-001 -4.582684e-001 -3.310163e-001 -1.810411e-001 -1.239254e-001 -1.492819e-001 -2.593754e-001 -1.986011e-001 -1.465217e-001 1.095895e-001
<VARIANCE> 39
 2.028688e+001 3.436562e+001 2.610846e+001 5.451215e+001 2.834185e+001 4.336624e+001 2.890620e+001 3.252914e+001 2.479638e+001 2.581188e+001 2.004161e+001 2.053240e+001 5.770467e+000 1.087558e+000 1.180834e+000 1.348925e+000 1.407292e+000 1.782142e+000 1.461199e+000 1.010153e+000 1.314983e+000 1.267449e+000 1.253628e+000 1.491482e+000 1.084236e+000 1.341635e-001 1.330509e-001 2.842666e-001 2.640583e-001 2.610176e-001 2.308935e-001 2.079704e-001 1.771019e-001 1.905470e-001 1.960613e-001 1.928871e-001 1.859299e-001 1.740207e-001 1.290951e-002
<GCONST> 9.131596e+001
<TRANSP> 10
 0.000000e+000 1.000000e+000 0.000000e+000 0.000000e+000 0.000000e+000 0.000000e+000 0.000000e+000 0.000000e+000 0.000000e+000 0.000000e+000
 0.000000e+000 7.057977e-001 2.942023e-001 0.000000e+000 0.000000e+000 0.000000e+000 0.000000e+000 0.000000e+000 0.000000e+000 0.000000e+000
 0.000000e+000 0.000000e+000 4.438279e-001 5.561721e-001 0.000000e+000 0.000000e+000 0.000000e+000 0.000000e+000 0.000000e+000 0.000000e+000
 0.000000e+000 0.000000e+000 0.000000e+000 7.241255e-001 2.758745e-001 0.000000e+000 0.000000e+000 0.000000e+000 0.000000e+000 0.000000e+000
 0.000000e+000 0.000000e+000 0.000000e+000 0.000000e+000 8.501691e-001 1.498309e-001 0.000000e+000 0.000000e+000 0.000000e+000 0.000000e+000
 0.000000e+000 0.000000e+000 0.000000e+000 0.000000e+000 0.000000e+000 7.453093e-001 2.546907e-001 0.000000e+000 0.000000e+000 0.000000e+000
 0.000000e+000 0.000000e+000 0.000000e+000 0.000000e+000 0.000000e+000 0.000000e+000 7.558790e-001 2.441210e-001 0.000000e+000 0.000000e+000
 0.000000e+000 0.000000e+000 0.000000e+000 0.000000e+000 0.000000e+000 0.000000e+000 0.000000e+000 7.436006e-001 2.563994e-001 0.000000e+000
 0.000000e+000 0.000000e+000 0.000000e+000 0.000000e+000 0.000000e+000 0.000000e+000 0.000000e+000 0.000000e+000 7.791597e-001 2.208403e-001
 0.000000e+000 0.000000e+000 0.000000e+000 0.000000e+000 0.000000e+000 0.000000e+000 0.000000e+000 0.000000e+000 0.000000e+000 0.000000e+000
<ENDHMM>
~h "seven"
<BEGINHMM>
<NUMSTATES> 10
<STATE> 2
<NUMMIXES> 3
<MIXTURE> 1 2.525038e-001
<MEAN> 39
 -1.489331e+001 -4.153615e+000 -5.988966e+000 -1.267164e+001 -4.651320e+000 -8.461827e+000 -4.288390e+000 -4.398540e+000 3.881597e-002 -2.818738e+000 -5.542465e-002 -3.984017e+000 1.391521e+001 1.145275e+000 6.304955e-001 7.694721e-001 -1.071415e-002 1.165950e-001 2.108801e-001 1.003256e+000 2.052405e-001 3.607282e-001 3.169154e-001 3.038810e-002 1.873855e-001 4.438517e-001 6.373203e-001 1.959397e-001 3.055253e-001 -1.379114e-001 -1.634878e-001 1.441912e-001 4.892238e-001 2.995407e-002 3.842304e-002 1.051972e-001 -1.084114e-001 -1.267001e-001 2.642224e-001
<VARIANCE> 39
 8.164177e+000 9.380737e+000 1.105598e+001 2.464705e+001 1.774335e+001 2.638699e+001 2.030980e+001 1.537894e+001 1.759969e+001 2.276270e+001 2.009986e+001 1.793665e+001 3.310672e+000 4.317306e-001 4.000333e-001 4.635740e-001 4.927903e-001 6.127743e-001 5.885102e-001 8.240597e-001 8.471400e-001 8.215739e-001 1.259627e+000 8.263928e-001 5.735634e-001 5.616022e-002 6.240766e-002 7.325293e-002 9.762926e-002 1.265374e-001 1.264566e-001 2.004051e-001 1.705584e-001 1.813103e-001 1.976552e-001 2.879139e-001 1.891313e-001 1.625550e-001 7.430139e-003
<GCONST> 7.020639e+001
<MIXTURE> 2 4.949925e-001
<MEAN> 39
 -1.881121e+001 -5.479054e+000 -8.264085e+000 -8.152492e+000 -6.939071e+000 -5.510985e+000 -4.015341e+000 -4.156819e+000 4.363341e-001 -3.743878e+000 -8.237020e-002 -4.185399e+000 1.177668e+001 6.111027e-003 -1.833893e-001 -1.636829e-001 5.399332e-002 5.290377e-002 8.215795e-002 2.717751e-002 -2.000039e-001 2.999274e-002 -3.324683e-002 4.522916e-002 1.021388e-001 7.587531e-002 3.124639e-001 1.830536e-001 2.390009e-001 -9.942004e-002 5.202715e-002 -6.777152e-002 5.402673e-002 -9.152699e-002 -1.680693e-003 -7.363187e-002 -7.020745e-002 -2.439736e-002 5.637273e-002
<VARIANCE> 39
 7.296443e+000 2.463979e+001 1.116051e+001 2.057522e+001 1.675370e+001 2.170808e+001 1.820146e+001 1.935965e+001 2.200016e+001 2.685596e+001 2.191632e+001 1.621349e+001 2.518024e+000 2.263960e-001 3.794777e-001 4.334280e-001 4.406602e-001 5.926935e-001 5.854362e-001 5.736887e-001 5.744795e-001 6.957213e-001 8.020780e-001 7.431307e-001 6.134410e-001 3.173091e-002 7.482743e-002 8.763772e-002 7.708767e-002 9.456254e-002 1.118316e-001 1.121658e-001 1.101453e-001 9.874400e-002 1.331211e-001 1.461928e-001 1.524869e-001 1.153970e-001 1.350857e-002
<GCONST> 6.501481e+001
<MIXTURE> 3 2.525038e-001
<MEAN> 39
 -1.603623e+001 -5.378735e+000 -7.318987e+000 -1.465748e+001 -6.336234e+000 -1.051656e+001 -6.091046e+000 -5.967180e+000 -1.639263e+000 -4.727149e+000 -1.848739e+000 -5.678084e+000 1.318740e+001 8.824505e-001 3.775028e-001 4.971271e-001 -2.915103e-001 -1.965246e-001 -9.597758e-002 6.401454e-001 -1.629204e-001 -1.834627e-003 -1.320170e-001 -3.332365e-001 -1.155504e-001 3.490591e-001 5.373942e-001 8.767864e-002 1.805425e-001 -2.801998e-001 -3.057308e-001 -3.487529e-002 3.240290e-001 -1.403681e-001 -1.394107e-001 -1.094333e-001 -2.823684e-001 -2.879725e-001 2.297432e-001
<VARIANCE> 39
 8.164177e+000 9.380737e+000 1.105598e+001 2.464705e+001 1.774335e+001 2.638699e+001 2.030980e+001 1.537894e+001 1.759969e+001 2.276270e+001 2.009986e+001 1.793665e+001 3.310672e+000 4.317306e-001 4.000333e-001 4.635740e-001 4.927903e-001 6.127743e-001 5.885102e-001 8.240597e-001 8.471400e-001 8.215739e-001 1.259627e+000 8.263928e-001 5.735634e-001 5.616022e-002 6.240766e-002 7.325293e-002 9.762926e-002 1.265374e-001 1.264566e-001 2.004051e-001 1.705584e-001 1.813103e-001 1.976552e-001 2.879139e-001 1.891313e-001 1.625550e-001 7.430139e-003
<GCONST> 7.020639e+001
<STATE> 3
<NUMMIXES> 3
<MIXTURE> 1 4.547349e-001
<MEAN> 39
 -1.412286e+001 -2.754994e+000 -5.119519e+000 -1.189950e+001 -5.318884e+000 -7.491939e+000 -3.163778e+000 -6.004741e+000 7.325659e-003 -4.589011e+000 -2.389206e+000 -4.765633e+000 1.386487e+001 2.453454e+000 4.050182e-001 1.046238e+000 -1.124000e+000 -4.933132e-001 7.305264e-002 1.550058e+000 -1.822691e-001 2.054655e-001 5.579657e-003 -3.651183e-001 -2.115957e-001 9.628463e-001 2.340700e-001 -2.608472e-001 -5.082326e-002 -2.729648e-001 -1.142800e-001 1.313153e-001 3.529899e-001 -4.791746e-003 -9.998542e-002 -8.441683e-003 7.206638e-003 -2.378555e-002 1.891762e-001
<VARIANCE> 39
 1.686069e+001 1.272119e+001 1.727792e+001 3.178113e+001 1.879589e+001 3.123047e+001 1.935399e+001 1.867345e+001 1.728707e+001 4.277035e+001 2.034409e+001 1.941300e+001 3.691616e+000 7.363918e-001 9.593017e-001 6.669455e-001 1.144129e+000 6.125935e-001 2.128610e+000 1.234100e+000 1.470819e+000 1.764072e+000 2.175250e+000 8.612289e-001 8.124604e-001 9.007615e-002 1.558282e-001 7.565411e-002 9.825704e-002 1.355837e-001 1.780456e-001 2.214360e-001 1.233418e-001 1.598944e-001 1.548042e-001 1.990221e-001 1.340675e-001 2.136490e-001 1.574722e-002
<GCONST> 8.123146e+001
<MIXTURE> 2 2.726322e-001
<MEAN> 39
 -1.031746e+001 -1.875088e+000 -2.282062e+000 -1.189929e+001 -3.891884e+000 -8.645618e+000 -8.041986e-001 -2.971226e+000 4.959986e-001 -1.169819e+000 9.446344e-001 -4.426334e+000 1.527717e+001 2.261077e+000 3.977822e-001 6.432993e-001 -8.320838e-001 -1.095639e+000 3.423052e-001 1.695794e+000 -7.739393e-002 -3.282581e-002 -1.840287e-002 -8.959053e-001 -9.225756e-001 1.117022e+000 7.173692e-002 -2.446022e-001 -2.370154e-001 -1.677423e-001 -4.012809e-002 3.689382e-001 2.074153e-001 -9.324880e-002 -4.698865e-002 -3.247293e-001 -2.699323e-001 -2.690857e-001 1.410342e-001
<VARIANCE> 39
 2.031373e+001 1.109211e+001 1.303791e+001 1.871409e+001 2.051799e+001 1.493630e+001 2.281454e+001 1.904926e+001 2.164733e+001 3.967100e+001 1.852846e+001 1.371295e+001 6.080301e+000 6.871753e-001 5.671402e-001 6.626662e-001 1.276743e+000 6.126051e-001 1.606537e+000 1.414949e+000 1.991585e+000 1.520178e+000 2.987087e+000 1.150018e+000 8.821940e-001 1.264731e-001 1.453538e-001 5.791033e-002 8.407748e-002 1.053528e-001 1.364276e-001 1.316524e-001 1.418599e-001 1.505366e-001 2.450035e-001 1.483967e-001 1.883926e-001 9.709554e-002 1.866928e-002
<GCONST> 7.919360e+001
<MIXTURE> 3 2.726322e-001
<MEAN> 39
 -1.212029e+001 -3.207280e+000 -3.726384e+000 -1.362969e+001 -5.703756e+000 -1.019152e+001 -2.714781e+000 -4.717044e+000 -1.365069e+000 -3.689215e+000 -7.771534e-001 -5.907574e+000 1.429084e+001 1.929493e+000 9.654737e-002 3.176821e-001 -1.284056e+000 -1.408715e+000 -1.646917e-001 1.219988e+000 -6.418880e-001 -5.260078e-001 -7.097305e-001 -1.324861e+000 -1.298276e+000 9.747699e-001 -8.076425e-002 -3.408605e-001 -3.529998e-001 -2.975747e-001 -1.878725e-001 2.238024e-001 5.675811e-002 -2.484450e-001 -2.449800e-001 -4.788185e-001 -4.435492e-001 -3.937263e-001 8.637999e-002
<VARIANCE> 39
 2.031373e+001 1.109211e+001 1.303791e+001 1.871409e+001 2.051799e+001 1.493630e+001 2.281454e+001 1.904926e+001 2.164733e+001 3.967100e+001 1.852846e+001 1.371295e+001 6.080301e+000 6.871753e-001 5.671402e-001 6.626662e-001 1.276743e+000 6.126051e-001 1.606537e+000 1.414949e+000 1.991585e+000 1.520178e+000 2.987087e+000 1.150018e+000 8.821940e-001 1.264731e-001 1.453538e-001 5.791033e-002 8.407748e-002 1.053528e-001 1.364276e-001 1.316524e-001 1.418599e-001 1.505366e-001 2.450035e-001 1.483967e-001 1.883926e-001 9.709554e-002 1.866928e-002
<GCONST> 7.919360e+001
<STATE> 4
<NUMMIXES> 3
<MIXTURE> 1 4.757068e-001
<MEAN> 39
 -4.476309e+000 -3.413446e+000 -4.288922e+000 -2.069293e+001 -5.490843e+000 -4.664082e+000 1.173623e+000 -1.105719e+001 3.336249e+000 -1.379860e+001 -4.587703e+000 -8.773395e+000 1.813773e+001 8.108727e-001 -7.392793e-001 -3.325268e-001 -7.137361e-001 8.259273e-001 1.996982e+000 1.284295e+000 -9.549408e-001 4.204932e-001 -9.495551e-001 -1.897603e-001 2.171530e-001 7.494379e-001 -5.923445e-001 -3.323627e-001 -9.913358e-002 4.748124e-001 3.976065e-001 -1.521994e-002 -1.981818e-001 2.296473e-001 -2.415271e-001 4.706765e-001 3.422859e-001 3.335262e-001 -2.181966e-001
<VARIANCE> 39
 8.337787e+000 1.179412e+001 8.473010e+000 1.073843e+001 2.128012e+001 2.411078e+001 2.166628e+001 1.564272e+001 1.913972e+001 3.259252e+001 2.883191e+001 2.715215e+001 1.316028e+000 1.146137e+000 5.999171e-001 4.014837e-001 1.062172e+000 1.096259e+000 5.680138e-001 1.031942e+000 7.029201e-001 9.416968e-001 1.649647e+000 1.137188e+000 1.509535e+000 1.594666e-001 7.971251e-002 8.693954e-002 6.038579e-002 1.161037e-001 1.412437e-001 1.791928e-001 1.210419e-001 1.079581e-001 1.308065e-001 1.837456e-001 1.583693e-001 1.358449e-001 1.303232e-002
<GCONST> 7.348527e+001
<MIXTURE> 2 2.621463e-001
<MEAN> 39
 -4.991286e+000 -3.830908e+000 -2.087319e+000 -1.593335e+001 -1.277098e+001 -9.301182e+000 6.268258e+000 -2.088858e+000 -4.532488e+000 2.301081e+000 -5.048789e+000 -8.337046e+000 1.901291e+001 8.404098e-001 -8.644884e-001 -3.398998e-001 -5.749982e-001 -3.967286e-001 7.482489e-001 1.618048e+000 3.572449e-001 -9.739065e-001 -6.784298e-001 -6.074421e-001 -7.598733e-001 7.263540e-001 -4.511396e-001 -5.967699e-002 -2.470490e-001 3.280722e-001 5.159302e-001 3.785724e-001 -3.623758e-001 2.079776e-002 1.379476e-001 -3.866753e-001 3.236437e-001 2.713207e-001 -2.022148e-001
<VARIANCE> 39
 6.824256e+000 1.078046e+001 1.241377e+001 2.233081e+001 8.983363e+000 2.016768e+001 1.836535e+001 2.922791e+001 2.386603e+001 2.137468e+001 2.335794e+001 2.385417e+001 1.440929e+000 1.022114e+000 4.340431e-001 6.806369e-001 1.096623e+000 1.137528e+000 1.426051e+000 1.207441e+000 1.331420e+000 1.295176e+000 1.353479e+000 1.221925e+000 9.144765e-001 1.763057e-001 9.737901e-002 9.472454e-002 1.136602e-001 1.480633e-001 8.754266e-002 2.078550e-001 1.528801e-001 1.797232e-001 1.965546e-001 1.629440e-001 1.622004e-001 1.198922e-001 9.146339e-003
<GCONST> 7.635098e+001
<MIXTURE> 3 2.621463e-001
<MEAN> 39
 -6.036218e+000 -5.144252e+000 -3.496646e+000 -1.782357e+001 -1.396988e+001 -1.109752e+001 4.554066e+000 -4.251372e+000 -6.486603e+000 4.517708e-001 -6.981991e+000 -1.029067e+001 1.853275e+001 4.360112e-001 -1.128016e+000 -6.699027e-001 -9.938772e-001 -8.233484e-001 2.705794e-001 1.178514e+000 -1.043037e-001 -1.429130e+000 -1.143786e+000 -1.049605e+000 -1.142386e+000 5.583990e-001 -5.759621e-001 -1.827864e-001 -3.819032e-001 1.741562e-001 3.975798e-001 1.962080e-001 -5.187753e-001 -1.487773e-001 -3.939035e-002 -5.481406e-001 1.625473e-001 1.328189e-001 -2.404694e-001
<VARIANCE> 39
 6.824256e+000 1.078046e+001 1.241377e+001 2.233081e+001 8.983363e+000 2.016768e+001 1.836535e+001 2.922791e+001 2.386603e+001 2.137468e+001 2.335794e+001 2.385417e+001 1.440929e+000 1.022114e+000 4.340431e-001 6.806369e-001 1.096623e+000 1.137528e+000 1.426051e+000 1.207441e+000 1.331420e+000 1.295176e+000 1.353479e+000 1.221925e+000 9.144765e-001 1.763057e-001 9.737901e-002 9.472454e-002 1.136602e-001 1.480633e-001 8.754266e-002 2.078550e-001 1.528801e-001 1.797232e-001 1.965546e-001 1.629440e-001 1.622004e-001 1.198922e-001 9.146339e-003
<GCONST> 7.635098e+001
<STATE> 5
<NUMMIXES> 3
<MIXTURE> 1 4.397568e-001
<MEAN> 39
 -6.087407e+000 -7.953192e+000 -5.266850e+000 -1.760304e+001 7.173473e-001 5.811949e-001 3.673920e+000 -1.229618e+001 2.106318e+000 -1.062673e+001 -2.391050e+000 -3.254998e+000 1.857808e+001 1.943054e-001 -1.548510e-001 4.075093e-001 5.514933e-001 -3.298482e-001 -3.361380e-001 4.474815e-001 9.195726e-002 -3.876374e-001 1.006372e+000 -3.767888e-001 3.929769e-001 -1.070732e-001 8.752448e-002 3.649209e-001 3.047801e-001 2.108388e-001 -3.902582e-001 -5.915858e-001 -1.139150e-001 3.080344e-001 -1.430809e-001 2.608378e-001 -1.012062e-001 -2.771405e-001 -1.255756e-001
<VARIANCE> 39
 8.760927e+000 1.139546e+001 7.090994e+000 1.087074e+001 2.376310e+001 1.072519e+001 1.907219e+001 1.932805e+001 2.840193e+001 3.379973e+001 3.175262e+001 2.235052e+001 1.548535e+000 2.244433e-001 4.684762e-001 3.812182e-001 3.831195e-001 1.117584e+000 1.037341e+000 5.784261e-001 7.911708e-001 7.531759e-001 9.404728e-001 9.863884e-001 7.678970e-001 2.248642e-002 5.543856e-002 6.673811e-002 7.914490e-002 1.024011e-001 1.415396e-001 1.100643e-001 1.392977e-001 1.221331e-001 1.174201e-001 1.744046e-001 1.475677e-001 9.414909e-002 5.457142e-003
<GCONST> 6.469167e+001
<MIXTURE> 2 2.801211e-001
<MEAN> 39
 -7.148421e+000 -7.867162e+000 -5.764986e+000 -1.575697e+001 -5.157234e+000 -2.186094e+000 6.380087e+000 -5.774187e+000 -4.794898e+000 -6.560158e+000 -3.678362e+000 -8.021487e+000 1.946919e+001 5.094173e-003 -4.908048e-001 -1.820524e-001 6.542590e-001 8.689979e-001 5.839621e-001 3.455643e-002 5.143789e-001 -4.144614e-001 -3.047926e-001 7.802413e-001 2.369799e-001 3.868887e-002 1.570859e-001 2.989026e-001 2.548558e-001 2.292319e-001 -5.303595e-002 -4.316919e-001 -2.337431e-001 3.071970e-001 3.063194e-001 2.566649e-001 2.512611e-001 1.547305e-001 -8.940814e-002
<VARIANCE> 39
 5.697714e+000 1.302462e+001 7.373520e+000 2.095715e+001 3.719262e+001 2.568721e+001 3.059297e+001 4.262794e+001 4.068743e+001 4.280614e+001 3.030288e+001 2.255732e+001 1.343718e+000 1.829895e-001 2.672724e-001 2.027444e-001 3.845645e-001 7.436538e-001 1.080160e+000 7.106931e-001 1.038343e+000 7.375504e-001 1.215429e+000 7.590263e-001 7.420665e-001 1.097554e-002 3.857864e-002 3.352861e-002 4.462869e-002 1.051900e-001 1.900945e-001 1.152361e-001 2.044035e-001 1.307603e-001 1.441385e-001 1.424132e-001 2.206928e-001 1.313417e-001 5.685276e-003
<GCONST> 6.600590e+001
<MIXTURE> 3 2.801211e-001
<MEAN> 39
 -8.103217e+000 -9.310748e+000 -6.851155e+000 -1.758813e+001 -7.596664e+000 -4.213396e+000 4.167651e+000 -8.385790e+000 -7.346366e+000 -9.177215e+000 -5.880284e+000 -9.921269e+000 1.900551e+001 -1.660149e-001 -6.975984e-001 -3.621610e-001 4.062059e-001 5.240564e-001 1.682391e-001 -3.026540e-001 1.067825e-001 -7.579844e-001 -7.457786e-001 4.317529e-001 -1.075932e-001 -3.216811e-003 7.852010e-002 2.256594e-001 1.703538e-001 9.949989e-002 -2.274353e-001 -5.674777e-001 -4.145871e-001 1.625538e-001 1.544572e-001 1.057142e-001 6.334929e-002 9.766170e-003 -1.195685e-001
<VARIANCE> 39
 5.697714e+000 1.302462e+001 7.373520e+000 2.095715e+001 3.719262e+001 2.568721e+001 3.059297e+001 4.262794e+001 4.068743e+001 4.280614e+001 3.030288e+001 2.255732e+001 1.343718e+000 1.829895e-001 2.672724e-001 2.027444e-001 3.845645e-001 7.436538e-001 1.080160e+000 7.106931e-001 1.038343e+000 7.375504e-001 1.215429e+000 7.590263e-001 7.420665e-001 1.097554e-002 3.857864e-002 3.352861e-002 4.462869e-002 1.051900e-001 1.900945e-001 1.152361e-001 2.044035e-001 1.307603e-001 1.441385e-001 1.424132e-001 2.206928e-001 1.313417e-001 5.685276e-003
<GCONST> 6.600590e+001
<STATE> 6
<NUMMIXES> 3
<MIXTURE> 1 4.368896e-001
<MEAN> 39
 -4.448213e+000 -7.108747e+000 -2.575741e+000 -1.550082e+001 -5.165252e+000 -3.350336e+000 6.145696e+000 -1.054167e+001 -1.803657e+000 -5.716497e+000 -6.196512e+000 -4.779909e+000 1.797396e+001 3.707928e-001 1.374146e+000 1.534653e+000 1.663275e+000 -7.490649e-001 -2.139445e+000 -4.333167e-001 1.442713e+000 -6.779737e-001 1.189961e+000 1.785764e-001 -6.542246e-001 -5.381202e-001 -1.277438e-001 2.676312e-001 9.672562e-002 1.680410e-001 3.152333e-001 -1.168988e-001 -4.830732e-001 8.194548e-002 1.724092e-001 -3.071511e-001 2.600649e-001 -1.728543e-001 -6.390480e-002
<VARIANCE> 39
 8.690822e+000 1.458194e+001 1.252843e+001 1.907332e+001 2.291323e+001 1.825821e+001 1.799439e+001 3.629864e+001 3.847591e+001 3.250991e+001 1.842466e+001 2.469340e+001 1.961352e+000 5.509394e-001 7.228024e-001 1.087768e+000 8.663279e-001 9.809133e-001 9.198018e-001 1.367879e+000 1.153407e+000 1.098468e+000 2.069474e+000 1.692474e+000 8.966771e-001 3.972987e-002 3.855010e-002 1.176815e-001 1.382323e-001 1.597295e-001 1.013273e-001 2.256894e-001 1.352143e-001 1.557134e-001 1.502394e-001 1.866016e-001 1.031399e-001 1.464940e-001 9.928066e-003
<GCONST> 7.659842e+001
<MIXTURE> 2 2.815548e-001
<MEAN> 39
 -4.405492e+000 -6.783729e+000 -4.347591e+000 -1.208490e+001 -9.021852e+000 -1.007811e+001 3.704783e+000 3.970219e+000 -7.078394e+000 -6.017929e+000 4.733419e-001 -9.685007e+000 1.864445e+001 4.466163e-001 1.023938e+000 9.002362e-001 1.347663e+000 8.837904e-001 -1.435570e+000 -2.085810e+000 9.271079e-001 1.328553e+000 -5.747716e-001 1.131922e+000 6.022028e-001 -3.974336e-001 -4.568714e-002 2.184511e-001 2.128872e-001 3.649732e-002 2.323378e-001 2.082991e-001 -2.887882e-002 -4.550254e-001 2.653433e-001 2.157287e-001 -1.892800e-001 2.451821e-001 -4.012769e-002
<VARIANCE> 39
 9.217101e+000 8.441880e+000 1.287639e+001 1.490142e+001 1.883690e+001 2.429427e+001 2.857726e+001 2.528328e+001 2.603890e+001 2.483215e+001 1.402085e+001 1.515751e+001 1.735194e+000 3.962539e-001 5.006118e-001 6.623079e-001 8.008211e-001 1.238021e+000 9.794309e-001 1.052185e+000 1.428176e+000 1.014217e+000 7.810072e-001 9.429278e-001 9.277683e-001 4.761013e-002 3.619498e-002 6.013964e-002 8.657868e-002 1.150411e-001 1.321499e-001 2.227627e-001 2.827463e-001 1.222427e-001 1.788020e-001 1.079987e-001 9.487331e-002 9.191852e-002 9.172305e-003
<GCONST> 7.030550e+001
<MIXTURE> 3 2.815548e-001
<MEAN> 39
 -5.619879e+000 -7.945925e+000 -5.782939e+000 -1.362900e+001 -1.075791e+001 -1.204967e+001 1.566475e+000 1.958919e+000 -9.119528e+000 -8.011203e+000 -1.024435e+000 -1.124231e+001 1.811755e+001 1.948215e-001 7.409222e-001 5.747070e-001 9.897088e-001 4.387248e-001 -1.831434e+000 -2.496114e+000 4.490826e-001 9.257193e-001 -9.282700e-001 7.435045e-001 2.169199e-001 -4.847126e-001 -1.217871e-001 1.203575e-001 9.519019e-002 -9.917352e-002 8.692805e-002 1.950811e-002 -2.415744e-001 -5.948783e-001 9.620333e-002 8.427610e-002 -3.124860e-001 1.239099e-001 -7.843655e-002
<VARIANCE> 39
 9.217101e+000 8.441880e+000 1.287639e+001 1.490142e+001 1.883690e+001 2.429427e+001 2.857726e+001 2.528328e+001 2.603890e+001 2.483215e+001 1.402085e+001 1.515751e+001 1.735194e+000 3.962539e-001 5.006118e-001 6.623079e-001 8.008211e-001 1.238021e+000 9.794309e-001 1.052185e+000 1.428176e+000 1.014217e+000 7.810072e-001 9.429278e-001 9.277683e-001 4.761013e-002 3.619498e-002 6.013964e-002 8.657868e-002 1.150411e-001 1.321499e-001 2.227627e-001 2.827463e-001 1.222427e-001 1.788020e-001 1.079987e-001 9.487331e-002 9.191852e-002 9.172305e-003
<GCONST> 7.030550e+001
<STATE> 7
<NUMMIXES> 3
<MIXTURE> 1 4.790309e-001
<MEAN> 39
 -4.463799e+000 -3.293439e+000 -4.281190e-001 -1.166331e+001 -6.708220e+000 -7.153686e+000 1.559844e+000 -5.523963e+000 -2.674615e+000 -3.594919e+000 -1.675290e+000 -6.913852e+000 1.693774e+001 1.430576e-001 5.111814e-001 3.371631e-001 -3.751793e-001 6.537886e-001 9.182971e-002 -3.405602e-001 -4.919478e-001 2.989553e-001 2.938254e-001 -3.344720e-001 3.547019e-002 3.211523e-002 4.482169e-002 1.480155e-001 1.044357e-001 -2.531235e-002 3.337166e-001 -2.508835e-001 -2.516720e-001 5.210196e-002 1.160604e-001 -1.705498e-001 -5.071080e-002 5.156340e-002 -1.881362e-002
<VARIANCE> 39
 1.056246e+001 1.360865e+001 1.975685e+001 2.141723e+001 3.223519e+001 3.978955e+001 2.446552e+001 3.814294e+001 5.173741e+001 3.562605e+001 2.736157e+001 2.742555e+001 2.618439e+000 3.404172e-001 8.911540e-001 1.680047e+000 1.472929e+000 1.851195e+000 2.520636e+000 1.907861e+000 1.627555e+000 1.200508e+000 2.015169e+000 1.344812e+000 9.818704e-001 1.118089e-001 5.214632e-002 1.617310e-001 2.497113e-001 2.249685e-001 2.689123e-001 4.653840e-001 2.628061e-001 2.330114e-001 2.026876e-001 2.590039e-001 1.983243e-001 1.572762e-001 1.829099e-002
<GCONST> 9.020574e+001
<MIXTURE> 2 2.604836e-001
<MEAN> 39
 -4.082640e+000 -2.356373e+000 1.491440e-001 -9.038186e+000 -3.995007e+000 -1.021277e+001 -3.192722e+000 -3.574233e+000 -2.402854e+000 -8.747044e+000 -2.303669e+000 -8.930558e+000 1.664187e+001 1.108696e-001 3.643640e-001 2.488792e-001 9.220840e-002 2.200687e-001 5.924625e-001 2.150997e-002 -2.804900e-001 8.684082e-002 6.687560e-002 5.195279e-002 -2.831904e-002 5.754133e-002 8.732508e-002 -9.227811e-002 -7.262197e-002 -1.939888e-001 -3.692486e-002 4.417718e-001 5.210104e-001 -3.499421e-002 -1.876717e-002 2.504289e-001 -3.687585e-002 6.436697e-002 1.466672e-001
<VARIANCE> 39
 1.485157e+001 1.173855e+001 1.891315e+001 2.681497e+001 2.724120e+001 3.820774e+001 3.529199e+001 7.126322e+001 2.809348e+001 3.837869e+001 3.869069e+001 2.337064e+001 1.697867e+000 3.956777e-001 8.284800e-001 9.959115e-001 1.090691e+000 1.042994e+000 1.919459e+000 2.361259e+000 1.304034e+000 1.504061e+000 1.678240e+000 1.057044e+000 9.485072e-001 1.083894e-001 8.962494e-002 2.042181e-001 2.545078e-001 2.625533e-001 1.991897e-001 4.775400e-001 3.972744e-001 3.247899e-001 2.912816e-001 3.293618e-001 2.047556e-001 1.746730e-001 1.905563e-002
<GCONST> 9.091504e+001
<MIXTURE> 3 2.604836e-001
<MEAN> 39
 -5.624150e+000 -3.726835e+000 -1.590426e+000 -1.110951e+001 -6.082731e+000 -1.268527e+001 -5.569005e+000 -6.950935e+000 -4.522985e+000 -1.122507e+001 -4.791743e+000 -1.086429e+001 1.612066e+001 -1.407420e-001 2.804501e-004 -1.503023e-001 -3.255362e-001 -1.884396e-001 3.828431e-002 -5.931455e-001 -7.372672e-001 -4.037198e-001 -4.513120e-001 -3.592978e-001 -4.178844e-001 -7.414886e-002 -3.242462e-002 -2.730401e-001 -2.744170e-001 -3.989486e-001 -2.154475e-001 1.653548e-001 2.688916e-001 -2.629556e-001 -2.346492e-001 2.086870e-002 -2.178756e-001 -1.028086e-001 9.145038e-002
<VARIANCE> 39
 1.485157e+001 1.173855e+001 1.891315e+001 2.681497e+001 2.724120e+001 3.820774e+001 3.529199e+001 7.126322e+001 2.809348e+001 3.837869e+001 3.869069e+001 2.337064e+001 1.697867e+000 3.956777e-001 8.284800e-001 9.959115e-001 1.090691e+000 1.042994e+000 1.919459e+000 2.361259e+000 1.304034e+000 1.504061e+000 1.678240e+000 1.057044e+000 9.485072e-001 1.083894e-001 8.962494e-002 2.042181e-001 2.545078e-001 2.625533e-001 1.991897e-001 4.775400e-001 3.972744e-001 3.247899e-001 2.912816e-001 3.293618e-001 2.047556e-001 1.746730e-001 1.905563e-002
<GCONST> 9.091504e+001
<STATE> 8
<NUMMIXES> 3
<MIXTURE> 1 2.534936e-001
<MEAN> 39
 -2.286776e+000 2.330698e+000 3.044790e+000 -1.246534e+001 1.624212e+000 -8.224518e+000 -1.125102e+000 -4.112885e+000 1.358317e+000 -3.332541e+000 -7.946733e-001 -4.338912e+000 1.718273e+001 3.285024e-001 7.834974e-001 6.523100e-001 3.238826e-001 1.043439e+000 -4.848612e-001 -9.113973e-002 2.617286e-001 2.767454e-001 1.871767e-001 8.812634e-002 2.373864e-001 -6.437358e-002 -5.687504e-002 -6.714874e-002 1.347064e-002 1.943540e-001 -1.316798e-001 2.651004e-001 1.763915e-001 7.626703e-002 -1.358077e-002 9.639180e-002 1.041081e-001 -3.496884e-002 -1.455067e-002
<VARIANCE> 39
 2.010985e+001 1.217616e+001 1.881821e+001 1.790012e+001 2.462068e+001 7.003606e+001 2.697058e+001 2.224233e+001 4.460428e+001 5.242393e+001 4.042446e+001 2.658142e+001 1.996587e+000 2.755444e-001 4.608251e-001 6.598989e-001 6.697494e-001 1.700160e+000 2.117315e+000 1.032907e+000 8.545547e-001 8.871343e-001 1.128802e+000 9.009421e-001 8.279638e-001 1.797118e-002 3.676831e-002 5.980191e-002 1.095653e-001 1.128437e-001 1.838809e-001 3.431059e-001 1.724194e-001 1.344127e-001 1.332797e-001 1.862793e-001 1.401192e-001 8.723944e-002 4.111114e-003
<GCONST> 7.560536e+001
<MIXTURE> 2 4.930134e-001
<MEAN> 39
 -4.145226e+000 2.011623e+000 2.644683e+000 -1.315894e+001 -1.153050e+000 -1.229074e+001 -6.496804e+000 -9.986067e+000 -5.407260e+000 -1.084676e+001 -8.904350e+000 -1.364671e+001 1.721068e+001 -1.159191e-001 3.314375e-001 3.529414e-001 1.765018e-001 2.867150e-001 -2.667401e-001 -2.853286e-001 -1.300269e-001 -1.053451e-001 1.100845e-001 -8.507056e-002 -1.137529e-001 -1.143395e-001 -1.394538e-001 -2.010814e-001 -1.926933e-001 -7.745695e-003 -8.236764e-002 2.120763e-001 1.404957e-001 3.893546e-002 8.949363e-002 7.043662e-002 1.956422e-001 1.893673e-001 -5.348000e-002
<VARIANCE> 39
 1.424102e+001 8.861839e+000 1.209884e+001 1.547260e+001 1.930569e+001 2.766754e+001 2.675095e+001 3.744320e+001 3.355059e+001 5.604637e+001 5.304465e+001 3.942680e+001 1.319109e+000 2.988510e-001 5.933957e-001 5.485470e-001 4.852592e-001 8.741738e-001 1.555445e+000 8.663043e-001 1.191671e+000 1.219247e+000 1.063679e+000 1.175936e+000 9.472560e-001 3.492188e-002 3.263509e-002 7.815014e-002 8.750112e-002 9.391800e-002 1.196104e-001 1.977375e-001 1.409473e-001 1.767045e-001 2.000437e-001 1.995057e-001 1.859310e-001 1.439468e-001 4.415730e-003
<GCONST> 7.422385e+001
<MIXTURE> 3 2.534936e-001
<MEAN> 39
 -4.080536e+000 9.349238e-001 1.309592e+000 -1.415768e+001 -3.605576e-001 -1.157202e+001 -3.202430e+000 -5.999356e+000 -1.313141e+000 -6.228715e+000 -3.337883e+000 -6.401199e+000 1.661753e+001 1.185332e-001 5.119610e-001 3.273733e-001 -3.470236e-003 5.218780e-001 -1.066901e+000 -4.976678e-001 -1.080399e-001 -1.000058e-001 -2.378037e-001 -2.915455e-001 -1.265837e-001 -1.179962e-001 -1.335753e-001 -1.649664e-001 -1.189320e-001 5.998516e-002 -3.032052e-001 3.079942e-002 1.029786e-002 -7.038233e-002 -1.596107e-001 -7.624854e-002 -4.562195e-002 -1.531141e-001 -4.019785e-002
<VARIANCE> 39
 2.010985e+001 1.217616e+001 1.881821e+001 1.790012e+001 2.462068e+001 7.003606e+001 2.697058e+001 2.224233e+001 4.460428e+001 5.242393e+001 4.042446e+001 2.658142e+001 1.996587e+000 2.755444e-001 4.608251e-001 6.598989e-001 6.697494e-001 1.700160e+000 2.117315e+000 1.032907e+000 8.545547e-001 8.871343e-001 1.128802e+000 9.009421e-001 8.279638e-001 1.797118e-002 3.676831e-002 5.980191e-002 1.095653e-001 1.128437e-001 1.838809e-001 3.431059e-001 1.724194e-001 1.344127e-001 1.332797e-001 1.862793e-001 1.401192e-001 8.723944e-002 4.111114e-003
<GCONST> 7.560536e+001
<STATE> 9
<NUMMIXES> 3
<MIXTURE> 1 4.506937e-001
<MEAN> 39
 -3.138138e+000 2.165756e+000 3.336102e+000 -9.063122e+000 -4.663085e-001 -1.053962e+001 -3.506068e+000 -6.699675e+000 -1.449097e+000 -4.684639e+000 -3.717072e+000 -5.586779e+000 1.441083e+001 -1.036113e+000 -2.483239e-001 -2.890592e-001 6.075294e-001 -2.685887e-002 7.388129e-001 1.733537e-001 -1.014437e-001 9.290559e-002 1.325921e-001 2.720209e-001 1.010515e-001 -4.328263e-001 -2.520905e-001 -2.828690e-001 -2.504467e-001 -1.034402e-001 -1.662871e-001 2.180069e-001 5.713126e-002 4.991425e-002 -4.406633e-002 -8.827482e-002 9.355117e-002 -7.771440e-002 -3.645514e-002
<VARIANCE> 39
 4.041790e+001 3.004930e+001 3.862728e+001 4.295191e+001 3.875091e+001 6.439188e+001 3.609266e+001 4.312900e+001 5.394334e+001 5.282923e+001 4.761518e+001 4.169686e+001 1.182269e+001 1.543934e+000 1.198383e+000 1.158159e+000 1.928030e+000 1.351934e+000 2.912710e+000 1.498835e+000 1.431653e+000 1.766964e+000 1.745609e+000 1.379290e+000 1.539805e+000 2.365550e-001 3.070018e-001 2.604786e-001 3.340147e-001 3.040766e-001 3.042094e-001 4.675165e-001 2.666479e-001 2.451263e-001 2.485740e-001 2.495744e-001 2.056122e-001 1.742790e-001 3.413953e-002
<GCONST> 1.043977e+002
<MIXTURE> 2 2.746533e-001
<MEAN> 39
 -8.675332e+000 -2.942950e-001 2.127296e+000 -9.389089e+000 2.258205e-001 -7.399973e+000 -2.561095e+000 -6.365536e+000 -1.374581e+000 -4.428427e+000 -1.900870e+000 -6.690145e+000 1.399454e+001 -1.349813e+000 -1.219907e+000 -1.370222e+000 -5.995288e-001 -6.442772e-001 4.321789e-001 2.326370e-001 5.457414e-001 5.678236e-001 5.291413e-001 9.521620e-001 8.483445e-001 -4.569252e-001 2.101831e-001 1.125255e-001 -1.506185e-003 -8.525371e-002 -2.735994e-002 -1.620440e-001 6.487128e-003 1.331784e-001 7.945602e-002 1.186276e-001 4.427799e-002 1.167193e-001 1.315884e-001
<VARIANCE> 39
 1.571860e+001 1.597253e+001 2.104273e+001 2.920060e+001 2.074110e+001 2.902370e+001 2.834538e+001 3.170232e+001 2.885320e+001 2.637997e+001 3.252728e+001 2.159224e+001 6.751595e+000 1.006930e+000 5.135857e-001 6.391501e-001 9.082989e-001 1.017146e+000 1.615331e+000 1.205107e+000 1.347881e+000 1.514650e+000 1.820462e+000 1.578664e+000 1.192701e+000 1.232889e-001 1.219817e-001 1.436376e-001 1.729860e-001 1.976340e-001 1.624016e-001 2.013091e-001 1.810220e-001 2.022232e-001 2.168130e-001 2.342140e-001 1.889247e-001 1.354996e-001 1.584171e-002
<GCONST> 8.631714e+001
<MIXTURE> 3 2.746533e-001
<MEAN> 39
 -1.026120e+001 -1.892921e+000 2.924019e-001 -1.155059e+001 -1.595875e+000 -9.554919e+000 -4.690711e+000 -8.617728e+000 -3.523189e+000 -6.482885e+000 -4.182178e+000 -8.548843e+000 1.295518e+001 -1.751197e+000 -1.506567e+000 -1.690010e+000 -9.807478e-001 -1.047692e+000 -7.620374e-002 -2.064725e-001 8.134834e-002 7.553918e-002 -1.055669e-002 4.495824e-001 4.115011e-001 -5.973753e-001 7.047954e-002 -3.907266e-002 -1.678725e-001 -2.630779e-001 -1.885563e-001 -3.415140e-001 -1.636996e-001 -4.669851e-002 -1.067967e-001 -7.495507e-002 -1.295839e-001 -3.052181e-002 8.124283e-002
<VARIANCE> 39
 1.571860e+001 1.597253e+001 2.104273e+001 2.920060e+001 2.074110e+001 2.902370e+001 2.834538e+001 3.170232e+001 2.885320e+001 2.637997e+001 3.252728e+001 2.159224e+001 6.751595e+000 1.006930e+000 5.135857e-001 6.391501e-001 9.082989e-001 1.017146e+000 1.615331e+000 1.205107e+000 1.347881e+000 1.514650e+000 1.820462e+000 1.578664e+000 1.192701e+000 1.232889e-001 1.219817e-001 1.436376e-001 1.729860e-001 1.976340e-001 1.624016e-001 2.013091e-001 1.810220e-001 2.022232e-001 2.168130e-001 2.342140e-001 1.889247e-001 1.354996e-001 1.584171e-002
<GCONST> 8.631714e+001
<TRANSP> 10
 0.000000e+000 1.000000e+000 0.000000e+000 0.000000e+000 0.000000e+000 0.000000e+000 0.000000e+000 0.000000e+000 0.000000e+000 0.000000e+000
 0.000000e+000 6.858363e-001 3.141637e-001 0.000000e+000 0.000000e+000 0.000000e+000 0.000000e+000 0.000000e+000 0.000000e+000 0.000000e+000
 0.000000e+000 0.000000e+000 5.713539e-001 4.286461e-001 0.000000e+000 0.000000e+000 0.000000e+000 0.000000e+000 0.000000e+000 0.000000e+000
 0.000000e+000 0.000000e+000 0.000000e+000 7.065054e-001 2.934946e-001 0.000000e+000 0.000000e+000 0.000000e+000 0.000000e+000 0.000000e+000
 0.000000e+000 0.000000e+000 0.000000e+000 0.000000e+000 7.762303e-001 2.237697e-001 0.000000e+000 0.000000e+000 0.000000e+000 0.000000e+000
 0.000000e+000 0.000000e+000 0.000000e+000 0.000000e+000 0.000000e+000 7.009580e-001 2.990421e-001 0.000000e+000 0.000000e+000 0.000000e+000
 0.000000e+000 0.000000e+000 0.000000e+000 0.000000e+000 0.000000e+000 0.000000e+000 8.762228e-001 1.237772e-001 0.000000e+000 0.000000e+000
 0.000000e+000 0.000000e+000 0.000000e+000 0.000000e+000 0.000000e+000 0.000000e+000 0.000000e+000 8.382867e-001 1.617133e-001 0.000000e+000
 0.000000e+000 0.000000e+000 0.000000e+000 0.000000e+000 0.000000e+000 0.000000e+000 0.000000e+000 0.000000e+000 7.840097e-001 2.159903e-001
 0.000000e+000 0.000000e+000 0.000000e+000 0.000000e+000 0.000000e+000 0.000000e+000 0.000000e+000 0.000000e+000 0.000000e+000 0.000000e+000
<ENDHMM>
~h "sil"
<BEGINHMM>
<NUMSTATES> 5
<STATE> 2
<NUMMIXES> 3
<MIXTURE> 1 2.500821e-001
<MEAN> 39
 -7.827258e+000 -1.329953e+000 -1.375216e+000 -4.482383e+000 -3.148003e+000 -4.716311e+000 -2.184673e+000 -5.569241e+000 -1.720230e+000 -3.756102e+000 -1.025499e+000 -3.123954e+000 7.607216e+000 6.366204e-002 3.061853e-001 1.228116e-001 2.509013e-001 1.684336e-001 2.002737e-001 2.443538e-001 3.842268e-001 2.684023e-001 1.527029e-001 1.947080e-001 2.032997e-001 -4.258709e-002 1.098357e-002 1.780939e-002 4.259157e-002 4.683165e-002 8.840211e-002 7.105727e-002 8.311085e-002 9.289488e-002 1.018551e-001 9.582266e-002 7.861560e-002 6.975402e-002 1.412809e-002
<VARIANCE> 39
 1.287331e+001 1.792400e+001 1.406804e+001 1.528036e+001 1.931745e+001 1.974455e+001 1.888386e+001 2.344894e+001 2.154474e+001 2.232280e+001 1.766130e+001 1.488427e+001 2.991991e+000 1.231665e-001 2.353804e-001 2.773418e-001 3.830110e-001 5.390524e-001 6.140144e-001 6.159428e-001 7.881489e-001 7.789448e-001 7.383886e-001 6.464230e-001 5.422411e-001 2.060960e-002 1.911843e-002 3.643136e-002 4.943208e-002 7.661586e-002 9.594902e-002 1.074651e-001 1.074389e-001 1.306994e-001 1.410711e-001 1.390776e-001 1.243629e-001 9.951228e-002 2.236012e-003
<GCONST> 5.816254e+001
<MIXTURE> 2 4.998262e-001
<MEAN> 39
 -1.114705e+001 -3.353940e+000 -3.738160e+000 -1.003614e+001 -4.184179e+000 -8.261938e+000 -3.415886e+000 -5.014424e+000 -1.153537e+000 -4.371738e+000 -1.322346e+000 -4.183358e+000 9.039013e+000 -1.534665e-001 -1.112375e-001 -1.693159e-001 -2.198902e-001 -2.132069e-001 -1.629125e-001 -9.648609e-002 -7.201093e-002 -6.192335e-002 -7.525475e-003 8.780331e-003 -8.612627e-003 -4.746073e-002 2.475146e-002 1.161535e-002 6.101886e-003 -2.082810e-003 -8.914568e-004 -1.129828e-002 -2.013480e-002 -4.164560e-002 -1.974040e-002 -3.085540e-004 -9.662111e-003 -1.622997e-002 1.559237e-002
<VARIANCE> 39
 4.623555e+000 6.730763e+000 8.802579e+000 3.192331e+001 1.856654e+001 2.326098e+001 1.877597e+001 1.904633e+001 1.810261e+001 1.720194e+001 1.709759e+001 1.608842e+001 1.732610e+001 1.322801e-001 2.299906e-001 3.322016e-001 4.888301e-001 6.005867e-001 6.748572e-001 7.478222e-001 8.118038e-001 8.345346e-001 8.130436e-001 7.760805e-001 6.218388e-001 1.567711e-002 1.408329e-002 2.739134e-002 4.332864e-002 5.926147e-002 8.009538e-002 9.357123e-002 9.986681e-002 1.017692e-001 1.124169e-001 9.983984e-002 1.066604e-001 8.705434e-002 1.465800e-003
<GCONST> 5.592491e+001
<MIXTURE> 3 2.500821e-001
<MEAN> 39
 -9.262433e+000 -3.023423e+000 -2.875512e+000 -6.045987e+000 -4.906068e+000 -6.493704e+000 -3.922895e+000 -7.506205e+000 -3.576882e+000 -5.645982e+000 -2.706513e+000 -4.667160e+000 6.915322e+000 -7.671829e-002 1.121213e-001 -8.784138e-002 3.349734e-003 -1.252472e-001 -1.131626e-001 -6.957424e-002 2.911580e-002 -8.462905e-002 -1.910153e-001 -1.268938e-001 -9.124836e-002 -1.000113e-001 -4.432419e-002 -5.853861e-002 -4.634174e-002 -6.388664e-002 -3.550044e-002 -6.007021e-002 -4.800064e-002 -5.171460e-002 -4.838267e-002 -5.334978e-002 -6.244490e-002 -5.642825e-002 -4.786507e-003
<VARIANCE> 39
 1.287331e+001 1.792400e+001 1.406804e+001 1.528036e+001 1.931745e+001 1.974455e+001 1.888386e+001 2.344894e+001 2.154474e+001 2.232280e+001 1.766130e+001 1.488427e+001 2.991991e+000 1.231665e-001 2.353804e-001 2.773418e-001 3.830110e-001 5.390524e-001 6.140144e-001 6.159428e-001 7.881489e-001 7.789448e-001 7.383886e-001 6.464230e-001 5.422411e-001 2.060960e-002 1.911843e-002 3.643136e-002 4.943208e-002 7.661586e-002 9.594902e-002 1.074651e-001 1.074389e-001 1.306994e-001 1.410711e-001 1.390776e-001 1.243629e-001 9.951228e-002 2.236012e-003
<GCONST> 5.816254e+001
<STATE> 3
~s "silst"
<STATE> 4
<NUMMIXES> 3
<MIXTURE> 1 4.801137e-001
<MEAN> 39
 -1.188571e+001 -3.254811e+000 -3.844941e+000 -9.184052e+000 -4.942472e+000 -8.157130e+000 -3.170727e+000 -5.013826e+000 -1.184243e+000 -4.018174e+000 -1.333034e+000 -4.490957e+000 8.807471e+000 7.570024e-002 1.990127e-001 1.715038e-001 2.543029e-001 1.488627e-001 1.361555e-001 3.401654e-001 2.471105e-001 8.386513e-002 1.588347e-001 1.384973e-001 9.184764e-002 1.136874e-001 9.628719e-002 6.968570e-003 2.981669e-002 -8.194274e-003 4.383210e-002 4.205619e-002 1.711441e-002 -5.692427e-002 -3.723722e-002 -4.904310e-002 -9.855208e-003 -5.310597e-003 8.924671e-002
<VARIANCE> 39
 1.092230e+001 1.082787e+001 1.279220e+001 3.606279e+001 1.727478e+001 2.400331e+001 1.790679e+001 2.005782e+001 1.732344e+001 1.833769e+001 1.704783e+001 1.601341e+001 1.300266e+001 5.955136e-001 6.767009e-001 6.771816e-001 9.457090e-001 9.763480e-001 9.279504e-001 8.353373e-001 1.065412e+000 8.950248e-001 8.372877e-001 8.346736e-001 6.917676e-001 1.648760e-001 1.159394e-001 1.199457e-001 1.229068e-001 1.495804e-001 1.462346e-001 1.462860e-001 1.650753e-001 1.889715e-001 1.591199e-001 1.458353e-001 1.410762e-001 1.202111e-001 3.222713e-002
<GCONST> 7.736187e+001
<MIXTURE> 2 2.599419e-001
<MEAN> 39
 -1.104542e+001 -3.502598e+000 -3.227063e+000 -8.407482e+000 -4.130980e+000 -6.767812e+000 -2.803943e+000 -5.558784e+000 -1.092552e+000 -4.229295e+000 -9.973828e-001 -3.988199e+000 9.827454e+000 4.938260e-002 9.142062e-002 8.237870e-002 7.507619e-002 1.399677e-001 1.292965e-001 4.997361e-002 -5.266387e-003 1.277746e-001 5.976503e-002 8.669504e-002 6.014241e-002 2.004078e-001 4.174531e-002 9.004635e-002 5.686536e-002 6.923880e-002 5.341976e-002 4.285105e-002 7.467162e-002 9.847315e-002 9.570295e-002 8.473782e-002 6.387383e-002 5.846056e-002 4.120852e-002
<VARIANCE> 39
 1.083332e+001 1.247810e+001 1.246771e+001 3.563992e+001 2.183924e+001 2.852527e+001 2.155641e+001 2.321830e+001 1.969645e+001 1.935441e+001 1.660221e+001 1.688523e+001 1.146778e+001 4.978389e-001 5.062150e-001 5.710927e-001 7.768720e-001 7.923792e-001 9.422413e-001 8.819278e-001 9.266527e-001 8.817726e-001 8.321492e-001 7.708418e-001 7.210235e-001 1.559328e-001 7.253671e-002 7.497450e-002 9.018350e-002 1.154066e-001 1.296679e-001 1.293934e-001 1.331662e-001 1.406752e-001 1.332908e-001 1.202451e-001 1.084285e-001 1.078216e-001 2.069448e-002
<GCONST> 7.360429e+001
<MIXTURE> 3 2.599419e-001
<MEAN> 39
 -1.236198e+001 -4.915572e+000 -4.639449e+000 -1.079545e+001 -6.000278e+000 -8.904174e+000 -4.661098e+000 -7.486198e+000 -2.867779e+000 -5.989041e+000 -2.627215e+000 -5.631865e+000 8.472889e+000 -2.328482e-001 -1.931745e-001 -2.199040e-001 -2.774852e-001 -2.160950e-001 -2.589800e-001 -3.256704e-001 -3.903176e-001 -2.478364e-001 -3.051238e-001 -2.644953e-001 -2.795100e-001 4.245444e-002 -6.598525e-002 -1.947953e-002 -6.325691e-002 -6.664738e-002 -9.061795e-002 -1.010341e-001 -7.129616e-002 -5.155363e-002 -5.033309e-002 -5.396768e-002 -6.784009e-002 -7.288424e-002 -1.633378e-002
<VARIANCE> 39
 1.083332e+001 1.247810e+001 1.246771e+001 3.563992e+001 2.183924e+001 2.852527e+001 2.155641e+001 2.321830e+001 1.969645e+001 1.935441e+001 1.660221e+001 1.688523e+001 1.146778e+001 4.978389e-001 5.062150e-001 5.710927e-001 7.768720e-001 7.923792e-001 9.422413e-001 8.819278e-001 9.266527e-001 8.817726e-001 8.321492e-001 7.708418e-001 7.210235e-001 1.559328e-001 7.253671e-002 7.497450e-002 9.018350e-002 1.154066e-001 1.296679e-001 1.293934e-001 1.331662e-001 1.406752e-001 1.332908e-001 1.202451e-001 1.084285e-001 1.078216e-001 2.069448e-002
<GCONST> 7.360429e+001
<TRANSP> 5
 0.000000e+000 1.000000e+000 0.000000e+000 0.000000e+000 0.000000e+000
 0.000000e+000 8.217238e-001 1.782762e-001 0.000000e+000 0.000000e+000
 0.000000e+000 0.000000e+000 9.480024e-001 5.199759e-002 0.000000e+000
 0.000000e+000 0.000000e+000 0.000000e+000 6.973704e-001 3.026296e-001
 0.000000e+000 0.000000e+000 0.000000e+000 0.000000e+000 0.000000e+000
<ENDHMM>
~h "six"
<BEGINHMM>
<NUMSTATES> 10
<STATE> 2
<NUMMIXES> 3
<MIXTURE> 1 2.587096e-001
<MEAN> 39
 -1.577174e+001 -3.113935e+000 -5.853232e+000 -1.063198e+001 -5.129458e+000 -6.718838e+000 -4.975077e+000 -5.242632e+000 -8.965040e-001 -2.672137e+000 -1.553296e+000 -4.461297e+000 1.359892e+001 4.788335e-001 3.896756e-001 5.426366e-001 1.594344e-001 4.179270e-001 2.819872e-001 4.231219e-001 2.221977e-001 4.072842e-001 1.971368e-001 1.044844e-001 3.904189e-001 2.144195e-001 4.650564e-001 2.915005e-001 3.930224e-001 -5.122177e-002 -6.017153e-002 1.847958e-002 3.056295e-001 1.143999e-001 2.097784e-001 2.015573e-001 8.209953e-002 1.101065e-001 1.756092e-001
<VARIANCE> 39
 9.544974e+000 1.316376e+001 1.236776e+001 3.009617e+001 1.555482e+001 2.734113e+001 1.757322e+001 1.954116e+001 1.601140e+001 2.035883e+001 2.001042e+001 1.497474e+001 4.049129e+000 3.199907e-001 3.592252e-001 4.123478e-001 5.557877e-001 5.698077e-001 8.188448e-001 7.807677e-001 6.685799e-001 8.546762e-001 8.166207e-001 5.722054e-001 7.201610e-001 4.014104e-002 5.812672e-002 8.657755e-002 9.126100e-002 1.173653e-001 1.070375e-001 1.494855e-001 1.325847e-001 1.498951e-001 1.513042e-001 2.329984e-001 1.426712e-001 1.353114e-001 1.121869e-002
<GCONST> 6.803477e+001
<MIXTURE> 2 4.825807e-001
<MEAN> 39
 -1.789238e+001 -4.052590e+000 -6.696147e+000 -7.620128e+000 -6.244421e+000 -5.567032e+000 -1.962944e+000 -5.693658e+000 5.875691e-001 -3.122707e+000 -4.826348e-001 -3.428307e+000 1.115292e+001 -2.278143e-001 4.578759e-002 -3.024993e-001 3.338081e-002 -1.835894e-001 7.766075e-003 -8.883204e-002 -2.766110e-002 9.019686e-004 -1.610471e-001 -1.219058e-001 -3.447216e-002 1.824346e-001 2.197360e-001 6.920920e-002 1.216991e-001 -9.005456e-002 5.082947e-002 -5.582253e-002 -6.364084e-002 -2.771050e-002 -2.797677e-002 -8.452711e-002 -5.932393e-002 -8.681101e-002 2.621200e-002
<VARIANCE> 39
 1.464923e+001 2.268760e+001 1.798542e+001 2.145496e+001 1.709348e+001 2.398916e+001 1.915638e+001 3.070037e+001 2.164675e+001 2.736596e+001 2.514149e+001 1.946441e+001 4.532800e+000 6.126050e-001 6.039799e-001 5.367944e-001 6.801214e-001 6.178315e-001 7.397557e-001 9.931684e-001 1.171700e+000 6.573311e-001 9.007093e-001 9.095024e-001 6.632645e-001 8.095322e-002 8.338229e-002 1.173955e-001 8.261662e-002 1.405407e-001 1.155630e-001 1.692458e-001 1.668591e-001 2.465569e-001 1.366280e-001 1.448656e-001 1.433378e-001 1.308366e-001 1.581175e-002
<GCONST> 7.549079e+001
<MIXTURE> 3 2.587096e-001
<MEAN> 39
 -1.700754e+001 -4.565211e+000 -7.259946e+000 -1.282638e+001 -6.707042e+000 -8.810388e+000 -6.651894e+000 -7.010848e+000 -2.497074e+000 -4.476967e+000 -3.342616e+000 -6.009185e+000 1.279402e+001 2.525627e-001 1.499340e-001 2.857794e-001 -1.387703e-001 1.159846e-001 -7.997299e-002 6.967769e-002 -1.048693e-001 3.748941e-002 -1.643315e-001 -1.980926e-001 5.096970e-002 1.342785e-001 3.686184e-001 1.738043e-001 2.721846e-001 -1.882562e-001 -1.910379e-001 -1.361738e-001 1.599807e-001 -4.046524e-002 5.418702e-002 8.477682e-003 -6.898783e-002 -3.703232e-002 1.332418e-001
<VARIANCE> 39
 9.544974e+000 1.316376e+001 1.236776e+001 3.009617e+001 1.555482e+001 2.734113e+001 1.757322e+001 1.954116e+001 1.601140e+001 2.035883e+001 2.001042e+001 1.497474e+001 4.049129e+000 3.199907e-001 3.592252e-001 4.123478e-001 5.557877e-001 5.698077e-001 8.188448e-001 7.807677e-001 6.685799e-001 8.546762e-001 8.166207e-001 5.722054e-001 7.201610e-001 4.014104e-002 5.812672e-002 8.657755e-002 9.126100e-002 1.173653e-001 1.070375e-001 1.494855e-001 1.325847e-001 1.498951e-001 1.513042e-001 2.329984e-001 1.426712e-001 1.353114e-001 1.121869e-002
<GCONST> 6.803477e+001
<STATE> 3
<NUMMIXES> 3
<MIXTURE> 1 2.952000e-001
<MEAN> 39
 -1.394020e+001 -1.626349e+000 -3.995573e+000 -1.181372e+001 -4.000908e+000 -6.619878e+000 -2.723403e+000 -4.831895e+000 8.294325e-001 -1.255331e+000 -2.064208e+000 -2.189626e+000 1.461142e+001 2.120662e+000 1.117607e+000 1.775387e+000 -4.365147e-001 -7.494482e-001 -2.459630e-001 1.109417e+000 1.676534e-001 6.188644e-001 1.232902e+000 1.578831e-001 3.484567e-001 8.911573e-001 3.248560e-001 1.131214e-001 2.638045e-001 -2.352127e-001 -4.042308e-001 2.595546e-002 1.340421e-001 1.150002e-001 1.401356e-001 2.715663e-001 1.341146e-001 -7.492195e-003 1.989968e-001
<VARIANCE> 39
 1.333482e+001 1.331359e+001 1.993114e+001 2.484231e+001 1.940526e+001 3.384363e+001 2.503006e+001 1.842317e+001 2.796146e+001 3.150135e+001 2.329882e+001 2.511981e+001 3.017649e+000 6.336133e-001 6.669437e-001 5.113970e-001 1.365808e+000 1.033756e+000 1.150062e+000 9.128193e-001 1.099666e+000 1.373730e+000 1.095553e+000 9.070682e-001 1.032823e+000 1.121123e-001 1.256474e-001 1.043926e-001 1.530143e-001 1.297858e-001 1.480137e-001 2.037004e-001 2.772607e-001 1.689831e-001 1.903647e-001 2.304040e-001 1.407550e-001 2.108809e-001 1.157713e-002
<GCONST> 8.113351e+001
<MIXTURE> 2 4.096000e-001
<MEAN> 39
 -1.402230e+001 -4.147288e+000 -5.366784e+000 -1.317728e+001 -3.395406e+000 -9.648857e+000 -4.450211e+000 -4.887317e+000 6.710777e-001 -5.698597e+000 1.566489e+000 -5.765019e+000 1.336574e+001 1.833666e+000 1.259064e+000 7.589566e-001 -1.399695e+000 -6.952434e-001 -4.469382e-001 1.822767e-001 -4.301217e-001 4.977540e-001 -1.146511e+000 -8.773623e-001 -1.168441e+000 8.974133e-001 2.650141e-001 1.435332e-001 1.550002e-001 -4.954707e-001 -1.389232e-001 -5.176641e-002 1.584920e-001 -4.362326e-002 9.548690e-002 -1.689304e-001 -4.182074e-001 -4.273764e-001 1.841553e-001
<VARIANCE> 39
 1.195528e+001 1.370914e+001 1.295515e+001 2.410405e+001 1.361915e+001 1.921470e+001 1.517779e+001 1.592837e+001 1.762045e+001 3.701670e+001 1.963868e+001 1.678668e+001 3.226354e+000 7.229754e-001 6.582117e-001 5.550520e-001 1.090582e+000 6.797951e-001 6.936855e-001 8.420336e-001 9.677321e-001 8.055288e-001 1.809029e+000 1.236645e+000 1.393767e+000 1.008477e-001 1.344212e-001 9.006895e-002 8.736031e-002 1.092869e-001 1.204797e-001 1.333131e-001 1.502799e-001 1.560704e-001 1.181177e-001 2.561022e-001 2.235665e-001 1.792253e-001 1.226764e-002
<GCONST> 7.538536e+001
<MIXTURE> 3 2.952000e-001
<MEAN> 39
 -1.540088e+001 -3.085861e+000 -5.781345e+000 -1.380740e+001 -5.762964e+000 -8.946890e+000 -4.724605e+000 -6.548783e+000 -1.285711e+000 -3.500373e+000 -3.994962e+000 -4.194412e+000 1.391656e+001 1.802262e+000 7.909409e-001 1.489339e+000 -9.039859e-001 -1.156143e+000 -6.749268e-001 7.272503e-001 -2.518065e-001 1.500394e-001 8.142277e-001 -2.230774e-001 -5.805490e-002 7.572246e-001 1.830689e-001 -1.611796e-002 1.073363e-001 -3.793159e-001 -5.581210e-001 -1.545773e-001 -7.658012e-002 -4.942997e-002 -3.438758e-002 7.956466e-002 -1.595468e-002 -1.911793e-001 1.559580e-001
<VARIANCE> 39
 1.333482e+001 1.331359e+001 1.993114e+001 2.484231e+001 1.940526e+001 3.384363e+001 2.503006e+001 1.842317e+001 2.796146e+001 3.150135e+001 2.329882e+001 2.511981e+001 3.017649e+000 6.336133e-001 6.669437e-001 5.113970e-001 1.365808e+000 1.033756e+000 1.150062e+000 9.128193e-001 1.099666e+000 1.373730e+000 1.095553e+000 9.070682e-001 1.032823e+000 1.121123e-001 1.256474e-001 1.043926e-001 1.530143e-001 1.297858e-001 1.480137e-001 2.037004e-001 2.772607e-001 1.689831e-001 1.903647e-001 2.304040e-001 1.407550e-001 2.108809e-001 1.157713e-002
<GCONST> 8.113351e+001
<STATE> 4
<NUMMIXES> 3
<MIXTURE> 1 2.795388e-001
<MEAN> 39
 -6.688694e+000 1.054630e+000 -7.335430e-001 -2.161048e+001 -3.973781e+000 -6.715863e+000 1.014425e+000 -3.170663e+000 4.973397e+000 -4.078156e+000 -4.983493e-001 -4.403036e+000 1.842204e+001 1.856814e-001 3.571939e-001 3.848304e-001 -3.592521e-001 5.860238e-001 3.574264e-001 8.005108e-002 7.928662e-001 9.854127e-002 4.057181e-001 4.170478e-001 5.255610e-001 9.391256e-002 -2.915050e-002 2.866203e-002 1.168835e-001 2.928386e-001 1.348599e-001 -8.095797e-002 -1.743152e-001 5.344473e-002 -1.639904e-001 8.754668e-002 8.821280e-002 4.968661e-002 -1.097376e-001
<VARIANCE> 39
 7.084421e+000 9.941134e+000 1.314077e+001 1.622762e+001 4.547797e+001 1.761840e+001 1.834570e+001 1.596956e+001 2.043835e+001 3.371519e+001 3.183277e+001 4.271889e+001 1.856889e+000 5.019821e-001 3.917111e-001 6.187192e-001 6.939920e-001 9.439523e-001 1.092106e+000 1.596489e+000 8.507586e-001 1.438987e+000 1.135026e+000 1.127638e+000 1.041662e+000 1.583009e-001 8.533063e-002 7.097881e-002 1.038600e-001 1.345341e-001 1.560776e-001 1.227060e-001 1.463720e-001 1.289816e-001 1.662356e-001 1.484342e-001 1.476894e-001 1.902102e-001 1.180022e-002
<GCONST> 7.568677e+001
<MIXTURE> 2 4.409207e-001
<MEAN> 39
 -6.208377e+000 1.298852e-001 -2.023620e-001 -1.978805e+001 -1.137810e+001 -1.166495e+001 -1.580506e+000 -6.672253e+000 5.566204e-002 -4.064635e+000 -6.142484e+000 -9.688439e+000 1.826200e+001 7.345561e-001 3.282385e-001 6.323400e-001 -1.485283e+000 -7.216932e-001 -2.645903e-003 -4.965534e-002 2.515015e-001 2.262911e-001 -1.590395e-001 -6.619784e-001 -8.830475e-001 6.109402e-001 -4.720913e-001 -1.752657e-001 -2.061366e-001 2.194832e-001 4.111919e-001 2.834152e-001 -3.296181e-001 1.708282e-001 -1.537574e-002 -6.249187e-002 2.957400e-001 3.048807e-001 -2.508247e-001
<VARIANCE> 39
 7.834918e+000 1.020965e+001 1.190697e+001 3.260323e+001 3.150154e+001 1.696646e+001 2.354472e+001 2.765149e+001 3.114692e+001 1.062760e+002 2.792096e+001 5.025206e+001 1.488662e+000 1.201766e+000 7.897050e-001 9.921305e-001 1.262496e+000 1.889377e+000 1.806927e+000 2.285084e+000 1.309333e+000 1.359528e+000 2.225340e+000 1.726559e+000 1.856340e+000 2.572849e-001 9.924167e-002 8.750712e-002 1.131709e-001 2.359264e-001 1.962873e-001 2.388509e-001 2.608950e-001 2.448724e-001 2.314926e-001 5.570254e-001 2.275926e-001 2.950438e-001 1.726514e-002
<GCONST> 9.095216e+001
<MIXTURE> 3 2.795388e-001
<MEAN> 39
 -7.753356e+000 -2.065530e-001 -2.183551e+000 -2.322182e+001 -6.671275e+000 -8.394835e+000 -6.988498e-001 -4.769141e+000 3.165045e+000 -6.400748e+000 -2.755171e+000 -7.017424e+000 1.787696e+001 -9.772133e-002 1.068465e-001 7.019559e-002 -6.924768e-001 1.973950e-001 -6.058906e-002 -4.253579e-001 4.239199e-001 -3.812899e-001 -2.043230e-002 -7.713404e-003 1.173136e-001 -6.523562e-002 -1.459961e-001 -7.790536e-002 -1.202574e-002 1.461230e-001 -2.316669e-002 -2.210756e-001 -3.273496e-001 -9.021131e-002 -3.270784e-001 -6.656196e-002 -6.550872e-002 -1.247658e-001 -1.531892e-001
<VARIANCE> 39
 7.084421e+000 9.941134e+000 1.314077e+001 1.622762e+001 4.547797e+001 1.761840e+001 1.834570e+001 1.596956e+001 2.043835e+001 3.371519e+001 3.183277e+001 4.271889e+001 1.856889e+000 5.019821e-001 3.917111e-001 6.187192e-001 6.939920e-001 9.439523e-001 1.092106e+000 1.596489e+000 8.507586e-001 1.438987e+000 1.135026e+000 1.127638e+000 1.041662e+000 1.583009e-001 8.533063e-002 7.097881e-002 1.038600e-001 1.345341e-001 1.560776e-001 1.227060e-001 1.463720e-001 1.289816e-001 1.662356e-001 1.484342e-001 1.476894e-001 1.902102e-001 1.180022e-002
<GCONST> 7.568677e+001
<STATE> 5
<NUMMIXES> 3
<MIXTURE> 1 4.449321e-001
<MEAN> 39
 -6.131621e+000 1.184762e+000 3.961437e+000 -2.153152e+001 -1.233237e+001 -6.855913e+000 -8.415603e+000 -2.196233e+000 3.118984e-001 -1.581392e+000 -1.494475e+000 -5.514803e+000 1.824659e+001 2.926670e-001 6.087360e-001 1.264151e+000 7.276199e-001 5.765440e-001 6.580806e-001 -1.525605e+000 4.682404e-003 -3.190440e-002 -6.190218e-001 6.651899e-001 3.492270e-001 -6.884522e-001 -2.119211e-001 -1.965570e-001 -3.696715e-001 7.716259e-001 3.945072e-001 -1.694781e-001 5.601372e-001 -2.741155e-001 2.122746e-004 -5.392433e-002 -5.789332e-003 6.498766e-002 -3.362394e-001
<VARIANCE> 39
 1.469062e+001 2.924244e+001 2.641977e+001 4.086614e+001 7.908932e+001 4.968632e+001 5.558576e+001 4.130959e+001 2.295773e+001 2.817934e+001 3.521109e+001 3.428848e+001 2.668160e+000 9.417650e-001 9.710208e-001 1.022101e+000 2.796431e+000 2.955155e+000 2.078356e+000 2.564148e+000 2.488998e+000 2.396696e+000 3.228327e+000 1.705245e+000 1.921990e+000 3.647081e-001 2.051170e-001 3.185994e-001 3.437185e-001 3.085674e-001 7.198819e-001 5.445175e-001 5.895295e-001 4.732217e-001 3.391038e-001 3.743029e-001 3.214385e-001 2.960705e-001 2.188686e-002
<GCONST> 1.067205e+002
<MIXTURE> 2 2.775334e-001
<MEAN> 39
 -6.786420e+000 3.239371e+000 4.442572e+000 -2.067507e+001 -4.136437e+000 -8.754293e+000 -6.587009e+000 -1.851739e+000 5.704768e-002 -4.068846e+000 -1.714698e+000 -6.280557e+000 1.708764e+001 -3.603182e-001 -2.797787e-001 -5.888333e-002 1.920358e+000 1.401743e+000 -1.056153e-001 1.662550e-001 -1.052597e-001 -3.202539e-001 2.645946e-001 7.949112e-001 5.282292e-001 -7.943617e-001 -2.125451e-001 -4.280283e-001 -4.722988e-001 3.789041e-001 -5.059730e-002 1.264005e-001 6.051700e-001 -1.078105e-001 2.256000e-001 2.164718e-001 1.502670e-001 1.945645e-001 -9.151680e-002
<VARIANCE> 39
 7.956649e+000 1.332804e+001 2.278492e+001 2.380651e+001 3.915052e+001 4.418504e+001 5.498435e+001 3.156667e+001 2.842962e+001 3.138271e+001 4.002124e+001 3.380966e+001 3.373708e+000 3.732411e-001 6.267583e-001 9.595618e-001 1.617817e+000 2.622598e+000 1.512566e+000 1.961757e+000 1.129379e+000 1.270045e+000 2.052267e+000 1.134748e+000 1.919550e+000 2.165508e-001 5.680540e-002 8.587845e-002 1.364804e-001 1.896166e-001 2.214653e-001 3.375367e-001 3.965419e-001 2.636503e-001 2.952796e-001 2.880760e-001 3.403885e-001 2.094925e-001 1.584439e-002
<GCONST> 9.106009e+001
<MIXTURE> 3 2.775334e-001
<MEAN> 39
 -7.914722e+000 1.779067e+000 2.533230e+000 -2.262675e+001 -6.639253e+000 -1.141317e+001 -9.553066e+000 -4.099108e+000 -2.075730e+000 -6.309658e+000 -4.245192e+000 -8.606400e+000 1.635294e+001 -6.046920e-001 -5.964509e-001 -4.507122e-001 1.411584e+000 7.539653e-001 -5.975610e-001 -3.939960e-001 -5.303487e-001 -7.710390e-001 -3.084348e-001 3.688130e-001 -2.596215e-002 -9.805017e-001 -3.078807e-001 -5.452483e-001 -6.200718e-001 2.047241e-001 -2.388377e-001 -1.059912e-001 3.532836e-001 -3.131981e-001 8.241433e-003 1.780970e-003 -8.310433e-002 1.148309e-002 -1.418666e-001
<VARIANCE> 39
 7.956649e+000 1.332804e+001 2.278492e+001 2.380651e+001 3.915052e+001 4.418504e+001 5.498435e+001 3.156667e+001 2.842962e+001 3.138271e+001 4.002124e+001 3.380966e+001 3.373708e+000 3.732411e-001 6.267583e-001 9.595618e-001 1.617817e+000 2.622598e+000 1.512566e+000 1.961757e+000 1.129379e+000 1.270045e+000 2.052267e+000 1.134748e+000 1.919550e+000 2.165508e-001 5.680540e-002 8.587845e-002 1.364804e-001 1.896166e-001 2.214653e-001 3.375367e-001 3.965419e-001 2.636503e-001 2.952796e-001 2.880760e-001 3.403885e-001 2.094925e-001 1.584439e-002
<GCONST> 9.106009e+001
<STATE> 6
<NUMMIXES> 3
<MIXTURE> 1 2.587045e-001
<MEAN> 39
 -6.580211e+000 1.349092e+000 2.346910e+000 -7.340297e+000 -6.585825e+000 -5.806892e+000 -3.638886e+000 -3.250962e+000 1.806280e+000 -1.273168e+000 1.405187e+000 -1.594767e+000 1.025500e+001 -9.171548e-001 -1.835781e+000 -7.711642e-001 2.080555e+000 -1.254500e-001 7.154408e-001 1.627872e+000 -1.994052e-001 5.525928e-001 2.289794e-001 5.087422e-001 6.354408e-001 -3.476468e-001 -1.266503e-001 -8.944800e-002 1.436983e-001 -5.178440e-001 9.502910e-002 1.791635e-001 2.444913e-001 6.678587e-002 3.662416e-002 -2.004907e-002 -6.173078e-002 -1.886138e-001 4.595301e-001
<VARIANCE> 39
 2.989536e+001 6.274588e+001 4.634240e+001 2.478849e+001 2.739335e+001 3.257784e+001 2.861275e+001 2.632692e+001 2.799083e+001 3.688952e+001 2.584671e+001 1.712259e+001 9.863818e+000 1.647169e+000 2.230867e+000 2.262644e+000 3.256868e+000 2.826007e+000 2.821012e+000 2.750262e+000 1.731350e+000 1.723921e+000 1.587084e+000 1.558955e+000 1.624900e+000 1.238580e+000 3.046403e-001 6.689490e-001 5.863230e-001 2.893479e-001 3.719990e-001 3.710863e-001 3.708275e-001 2.426022e-001 2.852140e-001 3.451905e-001 2.171193e-001 2.014392e-001 8.288418e-002
<GCONST> 1.083940e+002
<MIXTURE> 2 4.825914e-001
<MEAN> 39
 -9.911360e+000 -1.471164e+000 -3.029200e-001 -1.313067e+001 -2.850645e+000 -9.618608e+000 -3.554889e+000 -4.721620e+000 -1.764855e+000 -4.805296e+000 -1.295184e+000 -5.915186e+000 1.272415e+001 -9.694809e-001 -1.684123e+000 -1.291920e+000 8.297867e-001 4.000691e-001 -5.251779e-001 8.724969e-001 -4.311123e-001 -2.892708e-001 1.883304e-002 2.316768e-001 9.041028e-003 -4.637002e-001 -6.659722e-002 -1.027935e-001 -4.770902e-002 -3.911515e-001 -5.080464e-001 7.326153e-002 -6.440382e-002 4.072674e-002 1.827691e-001 1.017149e-001 -7.015728e-002 -3.969345e-002 2.233244e-001
<VARIANCE> 39
 6.163493e+000 1.497234e+001 1.266911e+001 3.091571e+001 2.013676e+001 1.807615e+001 2.029239e+001 1.732767e+001 2.294102e+001 1.890905e+001 1.809450e+001 1.653589e+001 1.476968e+001 5.873725e-001 1.473163e+000 1.186590e+000 9.979419e-001 2.350104e+000 2.158461e+000 2.180654e+000 1.401641e+000 1.477776e+000 1.654038e+000 1.395274e+000 1.517043e+000 3.833442e-001 7.452122e-002 1.872960e-001 1.773886e-001 2.112750e-001 3.126745e-001 2.147642e-001 2.996000e-001 1.652538e-001 2.199435e-001 2.352518e-001 1.523183e-001 1.733384e-001 4.117146e-002
<GCONST> 8.880080e+001
<MIXTURE> 3 2.587045e-001
<MEAN> 39
 -8.767277e+000 -1.819399e+000 -3.760997e-001 -9.331819e+000 -8.679371e+000 -8.089972e+000 -5.778522e+000 -5.303352e+000 -3.099739e-001 -3.702638e+000 -6.283990e-001 -3.249945e+000 8.998733e+000 -1.430523e+000 -2.433225e+000 -1.372848e+000 1.358683e+000 -7.978792e-001 4.360602e-002 9.645157e-001 -7.257283e-001 2.740005e-002 -2.749387e-001 9.309666e-003 1.255546e-001 -7.928128e-001 -3.474273e-001 -4.166052e-001 -1.625886e-001 -7.330083e-001 -1.489378e-001 -6.450388e-002 9.088885e-004 -1.302328e-001 -1.769976e-001 -2.550607e-001 -2.481150e-001 -3.681418e-001 3.443717e-001
<VARIANCE> 39
 2.989536e+001 6.274588e+001 4.634240e+001 2.478849e+001 2.739335e+001 3.257784e+001 2.861275e+001 2.632692e+001 2.799083e+001 3.688952e+001 2.584671e+001 1.712259e+001 9.863818e+000 1.647169e+000 2.230867e+000 2.262644e+000 3.256868e+000 2.826007e+000 2.821012e+000 2.750262e+000 1.731350e+000 1.723921e+000 1.587084e+000 1.558955e+000 1.624900e+000 1.238580e+000 3.046403e-001 6.689490e-001 5.863230e-001 2.893479e-001 3.719990e-001 3.710863e-001 3.708275e-001 2.426022e-001 2.852140e-001 3.451905e-001 2.171193e-001 2.014392e-001 8.288418e-002
<GCONST> 1.083940e+002
<STATE> 7
<NUMMIXES> 3
<MIXTURE> 1 4.985649e-001
<MEAN> 39
 -1.470674e+001 -8.760894e+000 8.100372e-002 -9.968543e+000 -1.159085e+001 -5.194144e+000 -4.228361e-001 -7.263410e+000 -8.437587e-002 -3.040521e+000 -8.102537e-001 -4.874774e+000 1.327887e+001 -1.529062e+000 5.369148e-001 -7.998153e-002 -2.671663e-001 -3.194233e-001 1.208804e+000 -5.563357e-002 -4.714859e-001 3.616728e-001 2.323720e-001 -3.557008e-001 -2.086205e-001 3.290402e-001 1.375153e-001 6.138270e-001 -1.865576e-001 -2.483155e-002 4.645931e-001 -8.739019e-002 -3.385006e-001 1.837227e-001 2.781669e-002 -3.707349e-002 -3.827902e-002 7.249307e-002 -1.819452e-001
<VARIANCE> 39
 2.845312e+001 3.357320e+001 1.805736e+001 3.419752e+001 2.275587e+001 2.977453e+001 2.449932e+001 2.891021e+001 3.083876e+001 2.210806e+001 1.910598e+001 1.691889e+001 2.136971e+000 1.127869e+000 2.082355e+000 1.289003e+000 1.235419e+000 1.731912e+000 1.183443e+000 1.290622e+000 1.147640e+000 1.309545e+000 1.150828e+000 9.516407e-001 8.266712e-001 3.036848e-001 2.522919e-001 4.338654e-001 2.095115e-001 2.133204e-001 1.965462e-001 3.013440e-001 2.285721e-001 2.466553e-001 2.462061e-001 2.075704e-001 1.478675e-001 1.462196e-001 4.102661e-002
<GCONST> 9.149318e+001
<MIXTURE> 2 2.507172e-001
<MEAN> 39
 -1.218886e+001 -4.787571e+000 -3.095619e+000 -1.579446e+001 -3.342072e+000 -1.028913e+001 -2.637748e+000 -4.554563e+000 -3.924055e-001 -3.129043e+000 -1.907478e-001 -5.797499e+000 1.433480e+001 -7.543158e-001 -7.824468e-001 -6.517624e-001 4.538133e-001 -6.185839e-001 2.371368e-001 4.122823e-001 -1.413118e-001 2.321302e-001 5.580143e-001 2.528899e-001 3.997445e-001 -1.191808e-001 1.364397e-001 4.190159e-001 3.151197e-001 -5.345598e-002 -1.926006e-001 3.221194e-001 -1.452431e-001 1.029452e-001 1.483939e-001 1.115527e-001 -3.446999e-002 7.612400e-002 1.770537e-001
<VARIANCE> 39
 3.284608e+000 9.295387e+000 8.825516e+000 1.315219e+001 1.964814e+001 1.929327e+001 1.712376e+001 2.044874e+001 1.910348e+001 1.581224e+001 1.707653e+001 1.460322e+001 2.605167e+000 2.224322e-001 8.253519e-001 9.129837e-001 6.627064e-001 1.646806e+000 1.389048e+000 1.261627e+000 1.112060e+000 1.205208e+000 9.715055e-001 9.858962e-001 7.966783e-001 9.144111e-002 2.910911e-002 1.294134e-001 1.583652e-001 1.748449e-001 3.567976e-001 2.431716e-001 2.154622e-001 1.828659e-001 1.843889e-001 2.134809e-001 1.688183e-001 1.576092e-001 1.489726e-002
<GCONST> 7.441138e+001
<MIXTURE> 3 2.507172e-001
<MEAN> 39
 -1.291380e+001 -6.007105e+000 -4.283929e+000 -1.724510e+001 -5.115121e+000 -1.204609e+001 -4.292982e+000 -6.363374e+000 -2.140707e+000 -4.719627e+000 -1.843698e+000 -7.326065e+000 1.368918e+001 -9.429666e-001 -1.145842e+000 -1.033963e+000 1.281862e-001 -1.131896e+000 -2.342948e-001 -3.700634e-002 -5.631288e-001 -2.069977e-001 1.637544e-001 -1.442793e-001 4.271713e-002 -2.401378e-001 6.819411e-002 2.751197e-001 1.559391e-001 -2.207138e-001 -4.315308e-001 1.248696e-001 -3.309147e-001 -6.810606e-002 -2.336819e-002 -7.326323e-002 -1.988200e-001 -8.267611e-002 1.282319e-001
<VARIANCE> 39
 3.284608e+000 9.295387e+000 8.825516e+000 1.315219e+001 1.964814e+001 1.929327e+001 1.712376e+001 2.044874e+001 1.910348e+001 1.581224e+001 1.707653e+001 1.460322e+001 2.605167e+000 2.224322e-001 8.253519e-001 9.129837e-001 6.627064e-001 1.646806e+000 1.389048e+000 1.261627e+000 1.112060e+000 1.205208e+000 9.715055e-001 9.858962e-001 7.966783e-001 9.144111e-002 2.910911e-002 1.294134e-001 1.583652e-001 1.748449e-001 3.567976e-001 2.431716e-001 2.154622e-001 1.828659e-001 1.843889e-001 2.134809e-001 1.688183e-001 1.576092e-001 1.489726e-002
<GCONST> 7.441138e+001
<STATE> 8
<NUMMIXES> 3
<MIXTURE> 1 4.382989e-001
<MEAN> 39
 -1.527957e+001 -4.070042e+000 -4.067018e+000 -7.896432e+000 -6.547150e+000 -4.485610e+000 -2.888596e+000 -6.448762e+000 -8.097659e-001 -2.555117e+000 -9.405600e-001 -5.372592e+000 1.125109e+001 5.168244e-001 2.282773e-001 -6.090516e-003 2.558777e-001 4.656147e-001 -7.048495e-002 6.062102e-002 3.622666e-001 -8.708606e-002 4.015579e-003 -3.743733e-002 9.477334e-002 -1.630833e-001 1.145082e-001 1.088481e-002 5.918315e-002 -5.641460e-002 6.392560e-002 -1.135242e-001 5.762323e-002 5.934999e-002 -2.775485e-002 -9.803893e-002 -1.099731e-002 -1.030195e-002 -3.575728e-004
<VARIANCE> 39
 2.645331e+001 1.965718e+001 1.741987e+001 3.180287e+001 3.788665e+001 2.946919e+001 2.777634e+001 2.811470e+001 3.320521e+001 3.536347e+001 3.141851e+001 2.040592e+001 6.150361e+000 9.154565e-001 9.167843e-001 9.084688e-001 1.016526e+000 1.524642e+000 1.095534e+000 1.312682e+000 1.058862e+000 1.116878e+000 1.417605e+000 1.388916e+000 7.748455e-001 9.745684e-002 1.381194e-001 1.527666e-001 1.226021e-001 1.580260e-001 2.832103e-001 2.154156e-001 2.664509e-001 2.068523e-001 1.936455e-001 2.213120e-001 2.239611e-001 1.317228e-001 1.190570e-002
<GCONST> 8.746544e+001
<MIXTURE> 2 2.808510e-001
<MEAN> 39
 -1.601587e+001 -3.831688e+000 -4.165324e+000 -1.059241e+001 -5.071846e+000 -4.303217e+000 -3.177686e+000 -4.855659e+000 2.380756e+000 -3.739887e+000 -1.147924e+000 -3.927408e+000 1.260224e+001 1.308528e-001 2.332861e-001 -2.782144e-001 2.229778e-001 4.728281e-001 -9.589250e-002 -1.369816e-001 1.333086e-001 -2.389918e-002 9.669194e-003 8.446489e-002 3.584640e-002 -1.227024e-001 2.545131e-001 -1.504699e-002 1.685634e-001 6.156662e-002 3.660923e-002 -2.571275e-002 1.150793e-001 8.531798e-002 1.470616e-003 1.184568e-001 1.507429e-001 6.247745e-002 2.794668e-002
<VARIANCE> 39
 1.293309e+001 1.363510e+001 1.563521e+001 2.850358e+001 2.612995e+001 3.079936e+001 2.054195e+001 2.081442e+001 2.690732e+001 2.528440e+001 1.869490e+001 1.961666e+001 5.653512e+000 6.358333e-001 6.782747e-001 7.897279e-001 7.753584e-001 9.191695e-001 8.355184e-001 9.642482e-001 8.939844e-001 1.058046e+000 7.619858e-001 7.428767e-001 6.812934e-001 4.697776e-002 9.176790e-002 1.113412e-001 1.051381e-001 1.221062e-001 1.747983e-001 2.143794e-001 1.684723e-001 1.491205e-001 1.669465e-001 1.534509e-001 1.529181e-001 1.208053e-001 1.108516e-002
<GCONST> 7.609379e+001
<MIXTURE> 3 2.808510e-001
<MEAN> 39
 -1.745437e+001 -5.308718e+000 -5.746980e+000 -1.272796e+001 -7.116544e+000 -6.523104e+000 -4.990615e+000 -6.680573e+000 3.058656e-001 -5.751231e+000 -2.877428e+000 -5.699036e+000 1.165116e+001 -1.881039e-001 -9.614360e-002 -6.336810e-001 -1.292399e-001 8.933476e-002 -4.615193e-001 -5.297662e-001 -2.448944e-001 -4.353446e-001 -3.394980e-001 -2.602963e-001 -2.943156e-001 -2.093998e-001 1.333403e-001 -1.485183e-001 3.886339e-002 -7.820817e-002 -1.306263e-001 -2.109172e-001 -4.910222e-002 -6.914652e-002 -1.619657e-001 -3.823446e-002 -5.676060e-003 -7.655078e-002 -1.416775e-002
<VARIANCE> 39
 1.293309e+001 1.363510e+001 1.563521e+001 2.850358e+001 2.612995e+001 3.079936e+001 2.054195e+001 2.081442e+001 2.690732e+001 2.528440e+001 1.869490e+001 1.961666e+001 5.653512e+000 6.358333e-001 6.782747e-001 7.897279e-001 7.753584e-001 9.191695e-001 8.355184e-001 9.642482e-001 8.939844e-001 1.058046e+000 7.619858e-001 7.428767e-001 6.812934e-001 4.697776e-002 9.176790e-002 1.113412e-001 1.051381e-001 1.221062e-001 1.747983e-001 2.143794e-001 1.684723e-001 1.491205e-001 1.669465e-001 1.534509e-001 1.529181e-001 1.208053e-001 1.108516e-002
<GCONST> 7.609379e+001
<STATE> 9
<NUMMIXES> 3
<MIXTURE> 1 4.452960e-001
<MEAN> 39
 -1.369782e+001 -4.128407e+000 -4.597409e+000 -1.366733e+001 -5.621567e+000 -8.606204e+000 -3.994900e+000 -4.957061e+000 -5.602106e-001 -3.751570e+000 -2.141703e+000 -5.986430e+000 1.322255e+001 2.148028e-001 9.544269e-002 5.033509e-002 -4.985969e-002 1.015474e-001 -4.825511e-001 3.832143e-002 3.089404e-001 -1.025986e-001 1.792067e-001 2.914009e-001 1.116261e-001 -5.395069e-002 4.375803e-002 1.863809e-002 7.933026e-002 4.436541e-002 -4.271714e-002 2.119865e-004 -3.023459e-004 -5.719338e-002 -6.613055e-002 -8.016269e-003 1.046318e-001 1.185800e-005 2.252874e-002
<VARIANCE> 39
 1.725374e+001 1.592404e+001 1.265416e+001 4.125994e+001 2.425528e+001 3.161461e+001 2.113664e+001 2.068709e+001 2.229020e+001 2.204014e+001 1.976433e+001 1.782201e+001 9.069352e+000 4.393893e-001 6.210181e-001 4.575934e-001 9.969135e-001 9.189546e-001 1.412331e+000 1.122501e+000 8.270964e-001 8.857250e-001 1.147032e+000 9.236647e-001 5.500320e-001 6.641177e-002 1.178233e-001 1.009872e-001 6.941380e-002 2.011119e-001 1.491565e-001 2.078839e-001 1.656414e-001 1.661710e-001 1.550768e-001 1.557139e-001 1.294575e-001 1.074179e-001 1.015603e-002
<GCONST> 7.691174e+001
<MIXTURE> 2 2.773525e-001
<MEAN> 39
 -1.311065e+001 -3.937442e+000 -4.478378e+000 -1.625557e+001 -5.529005e+000 -1.075638e+001 -4.564926e+000 -5.330891e+000 -6.125643e-001 -2.513382e+000 -4.705700e-001 -5.988369e+000 1.487668e+001 1.763934e-002 3.181592e-002 -6.885139e-002 8.227380e-002 2.212303e-001 -8.261403e-002 -2.111351e-001 -2.448664e-001 -2.862366e-001 -3.717491e-002 1.801983e-001 1.330561e-001 -2.862231e-002 1.157785e-001 1.082731e-001 1.987776e-001 8.145548e-002 1.156384e-001 1.720238e-001 1.384967e-001 1.082629e-001 1.251854e-001 3.570043e-002 6.686426e-002 7.478879e-002 5.232410e-002
<VARIANCE> 39
 4.793056e+000 7.587821e+000 7.629119e+000 1.678677e+001 1.404646e+001 2.073222e+001 2.163148e+001 1.761289e+001 1.660769e+001 2.449482e+001 1.901370e+001 1.321196e+001 3.182267e+000 2.005213e-001 5.300809e-001 3.922756e-001 8.690732e-001 7.452065e-001 8.600119e-001 7.887227e-001 7.974357e-001 9.332722e-001 8.094321e-001 6.521521e-001 5.907059e-001 2.744152e-002 3.052631e-002 8.197900e-002 7.077353e-002 1.785932e-001 1.217893e-001 1.710991e-001 1.845212e-001 1.570594e-001 1.609011e-001 1.752291e-001 1.496715e-001 8.358681e-002 5.214639e-003
<GCONST> 6.439659e+001
<MIXTURE> 3 2.773525e-001
<MEAN> 39
 -1.398637e+001 -5.039282e+000 -5.583212e+000 -1.789443e+001 -7.028149e+000 -1.257768e+001 -6.425312e+000 -7.009600e+000 -2.242666e+000 -4.493072e+000 -2.214758e+000 -7.442299e+000 1.416312e+001 -1.614791e-001 -2.594107e-001 -3.193790e-001 -2.906226e-001 -1.240711e-001 -4.535613e-001 -5.663753e-001 -6.020634e-001 -6.726606e-001 -3.970487e-001 -1.428254e-001 -1.743735e-001 -9.488423e-002 4.589136e-002 -6.254779e-003 9.236441e-002 -8.758568e-002 -2.395491e-002 6.567276e-003 -3.332702e-002 -5.026001e-002 -3.526454e-002 -1.317411e-001 -8.788534e-002 -4.085675e-002 2.343912e-002
<VARIANCE> 39
